1 128 6 128
channel    0 - height    0 : 48303 18243 -13959 40109 53501 -129263 -51395 45855 46289 52455 -12655 54155 -8697 -23637 -38689 -30537 40729 49445 126487 -27555 13579 -3083 117487 25895 15705 109551 -53439 -8591 84497 43325 54195 -42817 7073 50905 43719 29747 2705 109001 91193 -29947 -42375 52819 77155 -40721 54871 -18849 -48715 117571 18283 -79781 75279 36177 -41745 40651 26041 -2821 -13361 41385 -5187 9443 40739 43465 83345 8529 50475 8079 103365 84495 34153 -13051 -12221 96905 -64971 99883 1207 -4847 -26491 25543 24829 59875 24015 76681 10823 -27447 15867 76795 87317 35115 61351 -80621 45465 72707 58401 36523 -51397 55021 51793 40313 36149 35639 61873 13585 15103 -29119 21355 6453 100889 102133 -2359 -5351 62849 97213 57095 -45149 124995 -681 8255 -71849 63997 14703 18375 13159 -40395 -13781 -23985 16011 -23145 127445 
channel    0 - height    1 : -79577 54739 26753 96989 17283 -91073 85705 38521 110971 -7879 -43527 14683 10229 -58669 82363 226111 70433 38161 64697 104533 64333 46463 134237 83939 -159365 48667 -17229 73639 -24621 69387 -15291 -14623 154167 28723 8263 49453 -126695 7583 -4261 -52505 58907 -2643 19461 -27337 -11039 105923 174943 -48449 -26795 -21055 8381 2489 50655 44533 40651 -10127 -61853 77639 16461 121265 -10393 -587 71345 -15391 112649 150819 2251 90201 -28393 -53959 39227 128951 -106119 -83581 61007 50153 32947 20971 135869 43595 130929 46741 -150781 140871 1391 66187 31271 -75927 297 70709 2129 62829 70539 55783 33179 40291 52549 39623 10209 36371 19793 -52811 102231 -13797 157937 246485 40759 112369 56839 51639 176355 45801 -22083 70299 109283 70455 -18355 116669 127897 1701 829 -37237 -47333 180553 125645 143889 6939 94045 
channel    0 - height    2 : -50749 -2207 40663 5649 12049 47267 55055 95205 -881 -4817 -12381 -68351 74559 113931 154511 74711 82327 62973 80123 6143 27703 -46553 25857 100949 7321 170715 -25381 116371 -31977 13469 -37709 63873 150301 44699 -80959 -79039 -50059 -51495 -32037 198459 178527 22239 -37199 -32833 167091 39315 6283 12063 66151 71705 -27835 108055 31097 -22635 115671 19393 -96337 68921 -63361 108741 144173 -64513 47049 78629 126663 58321 -55181 71985 84211 15289 88259 31175 7243 -37973 218331 85653 9041 19225 131547 18269 140825 -45451 -54529 20681 -88959 134253 27465 -58709 -69163 146361 181183 61107 -68005 119991 -38127 -10931 -78827 -30189 56375 41771 32437 -21223 85137 45453 51871 136943 -27877 -31911 -3783 186197 -8185 -2641 -67087 17951 1675 37407 -13953 24693 -44709 22405 123891 27797 83707 69493 -11261 67579 -18541 83553 
channel    0 - height    3 : -37673 -50003 29499 28849 -70335 87181 24719 187105 2687 39509 121649 63939 148567 70893 -14735 53271 41037 41231 -56737 79693 93003 109309 64773 154279 -26981 71983 -9805 -86875 3605 98795 60501 54403 57749 42465 -56709 58213 132181 147673 49337 49475 120979 -25515 -57839 -35831 154997 180055 13677 114291 110537 66945 165959 31403 118031 40611 -36599 121533 76153 -60569 59459 -66763 95477 -105651 -43585 -23511 18973 -64393 -975 -75311 156587 54343 -22675 -22457 -33737 101895 99665 -140487 113331 101495 -27805 -42343 -42301 36517 -26295 -50573 95533 45845 14763 -111655 117771 79975 78331 51869 -109391 13649 112617 -89959 101275 200259 93083 31907 -30223 3413 66969 122715 25583 94321 66695 187403 -75 154379 -76803 32253 17903 20785 -15305 73687 -17443 -7481 138421 153965 -70187 -3871 82729 153951 -24229 12841 -1241 38513 
channel    0 - height    4 : -59485 -5261 -47927 111675 -82759 119415 11341 46561 -9479 -74959 35927 8367 -22179 10345 -110959 104361 86137 17173 19421 8671 18273 48339 -57555 19137 59869 -59523 -22265 87705 -4897 182917 134345 -13807 -50969 -28355 138615 135643 100701 26317 79293 -20539 12187 49367 72135 84879 61223 10771 25323 90347 33385 99433 -80123 2635 53391 -8271 39117 -14191 -79773 -77573 155577 -156719 14893 85267 74837 -41769 17843 -37361 34947 38651 77295 -33493 -23381 1023 90771 42851 9949 100247 102213 58341 -23231 141369 1777 20835 -89095 -31707 11715 -72277 127065 123733 153511 -50461 48271 -12773 -30941 105801 3935 20527 28731 158957 -87433 82755 111607 80565 -10807 53877 -41901 89933 79453 128201 -23533 25075 132777 39475 123653 14939 57989 85073 -91955 14147 25821 154091 40951 108109 -97213 135491 124479 29651 139069 -5561 
channel    0 - height    5 : -68707 97431 -1059 37573 -29017 5567 26429 31251 -6593 -63969 92747 -143761 -17153 -19293 8377 24207 90803 -70047 -136089 54273 -82561 45853 -61189 86027 57233 40093 -77617 69105 -6065 87753 -22363 -93273 -67645 -46731 -19715 106371 22285 -12785 -30931 -3063 11565 19395 20499 -7075 -19981 35477 52215 41361 -173213 -48063 30911 -11663 -28761 -33453 -14467 -37189 5547 -60017 73129 58321 40909 16867 -21021 58595 -26951 171213 19397 -52999 -37403 21429 -19413 -54471 72399 23713 51929 6843 35343 -27133 -99861 -22527 -33901 107625 -32499 12347 27359 -69731 62133 24353 144185 -33687 -43189 89927 -51779 27271 69269 31673 -125043 113545 25507 -34369 -33911 -80313 -65803 43627 36331 -8441 18953 -31063 -3025 36847 14849 -12847 -51731 9343 -157437 45375 34323 51955 -73601 18259 55009 -79529 -6005 4567 -15297 43767 19903 26449 
channel    1 - height    0 : -16357 188743 70303 93573 115123 92435 63903 149363 94621 184199 172129 72757 162251 152319 102437 133153 92227 26029 164977 185417 141839 212003 94141 137785 95353 147839 147823 124057 148863 169389 167867 117747 95921 68825 139555 79839 83237 47945 160247 123971 145111 78809 99151 157119 150163 185035 106145 140263 135557 116059 103995 144331 165635 71567 114861 77863 74741 143395 128383 144457 41521 77883 21085 144125 77049 132835 101513 155567 163493 129285 182953 124905 126491 142447 211757 162633 99335 101181 201679 153637 117859 116681 173561 116241 200739 130191 116725 156751 162075 65727 102161 24797 154985 147513 91557 52569 177841 115585 160241 89873 141263 73633 183519 133703 194851 87479 34711 89303 138551 92921 148483 184353 236333 142277 122727 160153 148611 111155 1859 183609 62133 188271 169477 147547 160421 45471 125763 57279 
channel    1 - height    1 : 135011 232699 204065 224371 182295 284367 214963 203227 307975 140215 249133 243811 270049 180315 233981 135301 180019 205189 178627 121459 126903 114799 166191 339675 331691 329461 194587 225883 209995 140801 253253 118625 298651 209669 125185 210449 269165 188887 274651 213277 284521 252067 252511 357045 173027 209713 190275 182551 285943 223121 283879 206137 197205 231561 278613 252149 120511 198643 184669 192367 205325 225095 221401 253451 195413 232635 231737 243307 185077 243793 277999 220639 149113 234711 239857 247125 156869 191073 356709 121899 231235 173849 247015 180599 128325 223681 316455 214389 174365 211323 176111 224381 127661 178661 138525 109975 234947 114299 295813 172861 179045 155457 298553 89281 141509 216923 164019 168489 230077 187669 145931 187169 227953 209065 86667 261501 206741 178509 142831 267781 194331 148799 155095 112489 163807 129601 197649 123683 
channel    1 - height    2 : 79135 197457 245555 157779 124889 151899 134515 209075 256877 159767 298791 250053 90761 205411 143175 69371 211791 213271 138963 163627 291611 244103 267347 180153 101923 201781 182923 156593 298915 263831 302233 145135 121147 146513 161897 125929 260147 248491 224609 195679 172709 226743 162133 240713 316993 255787 181233 267839 256209 180273 272491 83447 156525 29923 87761 207923 216575 292695 184467 179505 169913 173311 58877 117617 173227 184975 110575 162553 208583 183267 216637 159175 300007 145739 157163 244099 241417 207237 241161 183991 203621 240823 241591 276789 208415 286081 266113 180747 212811 191585 86079 234817 217565 244093 271859 213935 326713 204799 237473 188157 190051 162831 352507 169195 260629 278897 207473 269923 80577 205367 150023 215637 171105 308569 201215 229479 108465 283569 237489 143731 124247 95253 134157 235647 179861 193081 229333 100009 
channel    1 - height    3 : 145123 241255 140427 286429 166003 195385 219043 132775 181389 191585 117911 98839 180993 195073 164113 201465 105649 243057 147307 161369 148065 156103 208547 229833 223361 196851 286461 218781 230103 94837 223031 165765 83251 268379 203473 199911 156373 237799 240941 231401 216337 271327 374551 148855 145755 163419 215969 137939 86693 122335 170773 163149 166041 180465 201215 174419 208435 156679 282857 263381 150229 245309 247741 171415 293497 72949 324833 145139 276629 163681 235259 288047 151395 235305 213885 312133 158725 183381 253519 220853 246937 152185 267535 123767 209015 202771 259067 148487 194471 213581 236597 229977 231759 32957 305521 162571 179977 45939 78529 200841 231761 233211 247719 219137 189789 135435 57487 219927 129681 208541 202491 117649 68769 210835 119507 200173 185229 129545 161921 230929 271211 192273 184555 316551 296581 91701 119559 105935 
channel    1 - height    4 : 81111 163653 185353 245445 183389 213403 230555 193517 196109 163661 170265 246555 140151 206821 165781 162227 192297 202249 189429 348427 200809 259657 266995 218485 266601 257093 168863 276989 289985 147361 237609 254019 280277 275899 236321 172295 182131 183217 223427 328139 177303 241885 279837 208155 260589 373411 166107 238041 123395 290899 302407 207159 166493 256883 197109 284053 276271 104645 219659 181069 171919 72017 78885 166245 206823 110169 286667 127819 189225 217403 266035 250921 215235 271579 145911 195277 86209 214585 124279 203753 213471 165271 270203 215859 202307 167839 112737 153685 167875 240055 181325 206083 216443 123519 227429 108499 175917 244799 313849 135455 208873 162351 215223 301217 258013 278565 235395 198087 115585 221437 265915 138551 143971 116495 163567 258769 365775 221791 190887 263811 156341 236329 225385 113023 241965 67279 235491 189567 
channel    1 - height    5 : 68461 166779 140911 116899 85959 59833 78019 165639 160937 124603 148511 185655 177659 182439 222645 177937 147309 201495 139677 245857 210009 273645 151431 91791 91727 114561 72259 120233 145889 182995 160941 258157 240379 228179 186709 148493 195137 202673 191547 152087 124375 133267 74937 177467 106559 82427 91135 123517 198341 184295 118935 124957 178937 183485 257889 138309 187183 138455 132817 72733 90345 31879 58357 73551 86901 31505 147203 145625 193573 142987 193333 106041 179355 179293 260749 100253 207649 188569 168297 168373 90955 135207 68871 111219 192627 177307 136119 104357 110623 155059 99925 113415 153897 61801 81725 110757 129847 150529 214819 272221 273775 192931 133483 155881 148491 58575 104267 93771 121759 112615 116241 120231 172699 246671 224047 131751 171589 163671 199851 168987 181239 232659 272761 194101 172885 148085 150967 15505 
channel    2 - height    0 : 43217 -83347 57299 -5837 -18965 91025 81407 21149 -19193 6567 85351 -36405 21065 -46843 93723 28543 92155 58753 17281 83415 52141 -9247 -9771 935 68909 -5659 30913 73917 18181 50961 47041 45143 61665 -29991 33765 13905 60361 14727 -119763 19103 1981 80595 -21301 19241 56523 -20237 31479 61029 -7397 171321 -9493 12923 -5033 67869 -24413 13117 -31993 -92051 -94521 -61449 62339 -36833 92251 -21115 117743 40625 83657 -69261 122371 61031 9389 37923 10239 7597 4625 33963 84845 56389 15001 -8599 82155 -10785 -11545 34235 -19327 27479 18021 41427 -17685 40359 -5129 11625 -743 -1029 11471 41355 -96577 85545 -78971 36323 26209 -46611 11535 125389 -92601 62929 -38669 -41527 -22383 117287 28829 55583 -7195 24757 20077 88479 3251 131573 -9301 -75659 71181 -26697 60093 5759 303 40033 -43683 -2719 
channel    2 - height    1 : 124043 146403 60851 11597 120745 -114683 120961 120219 48051 165117 -22803 123239 187219 72375 92127 143345 113161 62927 157775 45965 95225 192581 81639 43351 72049 163901 57345 72431 106363 83453 -25367 138545 -48601 138561 109587 27969 113227 149581 82827 68373 -17861 124775 153367 -12089 133861 19225 67963 95439 25359 75433 46853 41865 33363 143313 54145 95903 151245 187439 134797 50181 70171 104551 110887 26705 57605 45567 111395 58493 47439 21261 88857 51071 74783 164309 -21031 7107 176789 101677 87625 187463 -78301 78651 32907 163799 125603 12419 28477 4793 -1335 43261 40379 81691 176695 62435 40909 29217 65769 -8995 55171 165767 22809 5553 64635 50697 70905 29365 119029 107497 80343 43081 52423 207845 100711 153087 146191 -102819 80941 83533 41841 142807 55341 87233 56415 57151 -8205 165151 49955 55403 
channel    2 - height    2 : 105139 -40261 46667 35501 29197 134989 78953 -11465 173819 -7177 52527 123213 -5971 -4089 101787 127509 42967 153049 88557 31679 56419 -28533 49175 -34433 62223 -3875 113561 106725 -34927 69469 108045 54383 63439 -80295 -21471 62161 14137 37247 -12159 43159 3463 -88231 219039 70625 2883 161133 37943 -18789 222211 47749 91627 70391 3803 77629 32447 -21041 45287 -37083 52011 -65791 -22111 2869 172535 25021 225651 12727 95307 -8879 22299 131043 -21865 18627 -35963 141159 50441 45375 76881 122309 65661 20819 153405 32103 84159 23025 44993 66895 94481 54747 107239 107325 29787 -41401 26195 63703 50845 188325 10695 100661 72355 39693 75559 191873 16535 229263 -19387 26229 25659 24315 178007 40311 56323 18167 83001 65889 129057 181549 103925 -35485 43813 11599 107713 26149 89379 31037 -41855 100015 27661 61891 
channel    2 - height    3 : 90753 107383 158805 -17341 133235 53081 21881 118965 -28473 110447 148567 -71071 161121 92843 10811 88301 99339 9123 23709 59237 26625 39553 51727 70325 21197 141749 -6061 128557 635 86477 127191 130211 132587 -64651 93149 41883 95417 158325 166279 166687 132337 8953 70591 106659 97747 -14977 27001 274515 -8697 30571 25057 29585 118323 58231 11809 54873 82903 70669 33761 235675 77297 84467 82833 151491 33889 154661 71197 209549 88651 46161 71607 8697 112785 101353 59709 37797 89763 162123 -84063 81771 -46581 74377 41235 148599 87923 47811 -27675 25641 66079 76517 84383 116609 102283 57047 -70635 204847 9997 187347 47273 34041 13517 52289 34777 66329 65705 83599 26669 7561 61789 45893 -43211 146605 -31019 -28591 -47461 -23511 -71713 163357 53945 -21507 121763 101985 144313 21803 75711 66249 94019 -78043 
channel    2 - height    4 : 75747 95773 1007 110127 147311 121557 82125 -10897 39433 129123 63519 50287 159363 -6103 66373 97445 -60889 173885 28565 105871 51461 77567 23025 123299 81547 162063 41857 140505 56413 152405 2743 52253 93541 46513 57347 132219 -30159 101773 -77075 -33749 34297 -21873 130745 28695 47979 41597 158903 35651 164269 52109 79051 53407 58223 38341 129471 65585 115953 -325 29519 -75177 -79209 38333 41113 -69283 73909 -26873 56159 76961 150955 -3973 184123 116743 -2071 104511 93365 82137 -6435 37175 35201 148795 521 -10249 141965 68017 101803 94747 8557 11619 21639 -14777 47071 -3069 92457 56159 128513 33271 187907 -2473 137511 104941 -63809 216523 11049 55107 28711 -61947 166485 32717 127963 63777 10553 129637 88403 60815 101107 25615 73343 78661 71291 -28775 83575 100659 126285 68031 -48535 65095 21037 3029 
channel    2 - height    5 : 88085 1751 133107 52679 32237 158089 -7067 38595 42797 65201 99075 29127 12659 202093 47433 166655 132347 -30309 134133 38763 54729 95919 65711 31943 82395 42873 113831 114843 59897 122677 42077 36185 126825 56457 151971 37953 112109 63813 170807 133985 42783 162043 58279 25743 29543 50021 17989 28345 25933 70509 83969 105683 62699 118259 13625 86363 59921 144745 148363 64371 140283 24757 78065 80371 83323 114617 39109 127401 6903 65629 72559 65789 63191 13691 98789 44269 53705 58221 72975 113323 110981 28451 70903 74609 125303 82757 106609 195405 98399 100693 24477 91647 79933 128333 12939 122191 75579 81887 63445 73295 115239 72577 93907 165243 -729 178597 85467 54479 55771 144469 79913 53253 131913 59023 125127 87169 82911 41519 144369 109091 14469 121303 102661 92365 96575 77863 115155 88351 
channel    3 - height    0 : -45908 -186006 -121106 -119974 -168698 -38464 -107654 -68878 -268640 -122156 -222584 -142896 -126790 -148184 -122508 -128056 -104842 -155362 -179766 -155458 -114778 -177426 -135012 -134094 -100786 -223954 -84958 -233174 -183404 -101450 -143044 -109748 -144880 -81552 -142506 -174824 -131760 -162994 -208880 -106126 -116932 -95820 -225506 -88144 -221238 -180266 -129328 -128530 -209402 -70124 -266004 -56238 -135190 -80264 -115684 -185426 -138242 -281450 -118984 -153202 -77324 -213284 -68748 -133028 -152144 -172416 -97902 -224232 -128372 -75448 -180954 -154540 -144426 -232540 -71720 -167396 -141760 -127984 -282268 -129338 -185346 -108610 -162540 -223124 -116084 -196520 -161912 -159576 -155300 -129072 -35300 -226690 -202220 -135472 -162952 -95510 -242280 34072 -186424 -105424 -148470 -99346 -190264 -22752 -150732 -150566 -96258 -79024 -162368 -105692 -155084 -198370 -146114 -228368 -91522 -146582 -135586 -141870 -93620 -220526 -110036 -43204 -138838 -86674 -49730 -164374 -167428 -73958 
channel    3 - height    1 : -141522 -134312 -203168 -125522 -163524 -186414 -174244 -140910 -213482 -168416 -243090 -213562 -135442 -109396 -192638 -156040 -140628 -246312 -296032 -233522 -205184 -136774 -211158 -140136 -140172 -239806 -153972 -266494 -176768 -119080 -343160 -177372 -218742 -85138 -171886 -183674 -183232 -211078 -192328 -167134 -118932 -170630 -312104 -128046 -283238 -203312 -154984 -205876 -273472 -131166 -307448 -98930 -203954 -105870 -120854 -165428 -83786 -135738 -87990 -147232 -117756 -243920 -156872 -253340 -306114 -166774 -209346 -266184 -249058 -93978 -256212 -187224 -166034 -265918 -121372 -249814 -148332 -239412 -252022 -138224 -336048 -96902 -271738 -166926 -76256 -279480 -260650 -227622 -199836 -68754 -52320 -258476 -183126 -113378 -178256 -251152 -247792 -73176 -184348 -134836 -249400 -174652 -296832 -194074 -90212 -238774 -171610 -199100 -71186 -281462 -189984 -242034 -131154 -219748 -195006 -332102 -168766 -197886 -113366 -179026 -265700 -128132 -261284 -185768 -54728 -121318 -151028 -179676 
channel    3 - height    2 : -91188 -228920 -199880 -211140 -154790 -106680 -167164 -175196 -92116 -191588 -192016 -254834 -165736 -139242 -174720 -245340 -138162 -267008 -116224 -307082 -187032 -251814 -238388 -191852 -147164 -266906 -140528 -262428 -202500 -183484 -218642 -237868 -297362 -209084 -148602 -144254 -190444 -311792 -145720 -234958 -246296 -279310 -281814 -92296 -274362 -229620 -142346 -242726 -92208 -236624 -154686 -90302 -294270 -127890 -144200 -313342 -241116 -115908 -254146 -239338 -167006 -143226 -185126 -59298 -266160 -135824 -312552 -141672 -221502 -129400 -333178 -207838 -157692 -242230 -123230 -283130 -222590 -197946 -157092 -308470 -132846 -155356 -238122 -193908 -154628 -203362 -132060 -81372 -172406 -61300 -116450 -220366 -213596 -135558 -188126 -43348 -199380 -177440 -200806 -224884 -201122 -167758 -266950 -196914 -166574 -321416 -180738 -269260 5434 -198956 -106656 -287746 -132538 -256340 -61858 -209224 -196100 -263630 -169982 -109798 -202430 -184158 -218310 -255016 -187182 -83416 -138144 -169092 
channel    3 - height    3 : -38782 -171368 -146044 -301912 -102528 -204408 -143362 -223030 -231678 -167366 -146022 -221300 -174402 -221992 -196738 -348572 -85436 -298882 -186212 -183504 -136050 -301260 -145622 -159898 -191178 -257834 -143786 -289940 -149206 -152170 -90972 -270468 -208892 -236676 -115728 -45232 -171570 -230570 -63566 -218660 -166962 -230474 -264454 -84284 -195512 -205680 -156726 -182334 -176026 -280974 -145126 -216934 -165384 -135244 -298850 -233006 -241174 -110612 -216400 -78762 -142518 -69944 -127438 -362 -354064 56264 -264598 -118340 -252812 -100242 -298816 -171928 -75986 -194752 -173314 -210020 -142144 -96290 -197040 -295356 -136122 -112708 -210438 -202078 -208566 -154500 -211262 -197294 -135336 -117894 -186320 -5126 -257678 -145150 -230712 -62776 -231308 -149554 -198178 -349696 -216542 -189270 -200578 -320450 -99654 -185454 -126192 -219652 -138310 -170550 -174504 -109848 -175924 -254952 -220888 -211094 -216830 -138984 -185550 -108062 -158676 -260236 -164302 -190222 -226064 -76152 -166982 -135188 
channel    3 - height    4 : -56360 -92196 -220842 -147498 -66720 -257622 -41306 -318132 -100036 -105552 -206394 -111086 -229412 -187404 -97266 -242848 -127614 -251488 -184968 -194140 -121376 -271692 -133236 -174120 -109924 -164010 -150586 -260256 -149488 -236458 -173310 -337326 -216904 -214680 -271518 -128876 -243466 -311110 -226298 -222558 -197846 -233212 -113122 -127736 -113870 -181354 -156548 -188932 -152352 -189858 -173932 -276698 -183458 -197976 -103868 -152366 -320258 -181380 -201032 -164924 -327570 -8034 -134280 -70326 -226734 -90774 -187148 -154712 -165898 -141460 -231092 -208464 -185672 -157920 -199024 -54034 -310520 -103778 -164820 -216950 -184774 -111916 -180660 -186574 -209636 -132228 -198214 -196592 -219730 -321880 -147110 -206068 -130294 -188838 -171860 -171700 -174778 -238738 -162014 -240896 -157678 -121974 -268536 -320776 -101128 -204168 -132318 -257410 -220780 -190930 -184788 -118970 -178654 -178128 -169420 -177374 -187308 -215920 -220270 -188464 -190018 -197682 -309680 -144188 -294862 -144714 -120836 -75894 
channel    3 - height    5 : 6300 -39746 -70794 -122410 -103642 -140798 -25684 -132148 -37376 -114248 -91304 -54830 -195162 4688 -88728 -125112 -84780 -184202 -153650 -100890 -53546 -104168 -77720 -180652 -87534 -130604 -115504 -182982 -99302 -139060 -60590 -214838 -71584 -41498 -211928 -95900 -68774 -144888 -97458 -26580 -150636 -156300 -58126 -223116 -63920 -7764 -125406 -103494 -108194 -119420 -38760 -142514 -112976 -96372 -128652 -68932 -98002 -48360 -68474 -34352 -134076 -30288 -123816 13320 -123324 -43458 -24726 -108216 -146280 -84536 -184138 -153622 -156852 -61934 -168260 -27614 -162114 -19832 -99350 -159032 -23628 -104596 -55018 -82752 -100960 -72966 -132146 -48852 -114382 -129222 -82680 -125100 -27448 -117792 -82538 -143448 -121768 -188674 -53784 -117904 -133438 -95194 -106786 -119580 -114760 -61458 -126364 -114004 -200386 -88330 -155546 -198432 -63866 -105604 -100808 -151010 -79128 -109470 -64142 -166392 -131794 -131074 -141404 -84640 -190168 -128834 -110976 -34322 
channel    4 - height    0 : 86971 121961 -20543 128549 104233 126121 71453 191165 92351 31469 17327 76109 113109 176127 65803 115157 4475 60881 72447 133741 31095 29453 18185 -6009 55419 125475 110175 158019 83299 5429 70841 72077 225681 85763 158225 100407 -22099 122371 147021 92351 132357 122129 141759 68319 5481 186161 -86917 110891 34183 29493 190721 160099 139531 67561 75379 30317 87989 33273 28445 -94715 -30713 33823 55323 112241 98001 110891 130063 144129 82241 134749 132441 112001 198421 141055 145693 92269 176353 134551 187901 74099 60623 220077 59595 123559 1279 -15219 62077 18009 119703 26215 177505 116235 188791 56135 49139 178115 145839 55873 113023 16435 157881 133855 162181 179271 139659 96831 74925 151419 127841 86371 225163 76481 74809 -43561 -61307 115137 7655 11309 176669 218695 140669 228571 160403 181731 114777 97095 143509 3037 
channel    4 - height    1 : -37299 191653 129199 149641 152051 296431 94355 138243 101901 44779 291083 89417 232631 206363 213247 196849 159771 68451 29765 54757 115903 156897 110087 134931 73721 125345 75633 243397 4963 116899 204089 109125 208849 -43417 63961 143065 141705 40833 254793 209761 192123 127625 97609 238897 103663 203035 249707 236639 58321 195295 71923 83613 213231 90483 75611 108563 138113 204557 90215 226579 160841 165665 84701 168347 86265 104539 84781 201249 171617 161527 161071 54273 173603 173835 133889 133487 205739 82467 118417 26063 141071 26913 134847 126867 178185 181551 115195 83855 101859 106141 122901 57597 37013 139283 161323 202553 189895 94725 261709 30133 164297 109061 192789 26519 145181 239031 127115 92733 263503 117005 139375 49645 90809 147237 95061 93491 50685 240993 121211 193993 120545 145589 254637 187467 259441 180441 306621 -27605 
channel    4 - height    2 : 108947 118291 117851 237937 121223 258881 122929 106179 142175 92285 132487 59441 95543 133261 100191 61599 67679 -3547 113501 123565 125583 91693 37549 77341 170163 238035 179545 254013 293267 166795 225037 99389 127571 203159 222101 111523 217351 225537 119971 122485 136395 125049 76421 258825 137681 120353 99979 79007 242305 57611 264209 69155 227775 94291 167925 276533 95889 103499 103423 19101 31547 68311 -17465 111619 125153 149009 122101 351119 121693 143115 195881 176777 257651 135883 209119 172465 115445 27751 255385 110965 335837 151955 281533 246399 119159 208215 124213 170173 279683 169923 85317 364729 89229 215249 178179 101313 237457 -51275 165737 54475 89481 95653 265317 -46329 110529 -5135 93501 101821 35539 251403 119115 168429 188663 116085 -47037 115173 140619 169685 69901 113817 207161 139325 274011 196853 83193 114875 134851 4735 
channel    4 - height    3 : 109343 158429 163309 264967 115709 261779 87259 44055 197561 95017 211345 212697 80593 169575 127947 176051 119019 100763 187179 117857 277367 173937 238221 129291 216153 127299 313483 104627 166723 31695 234763 84747 49485 135603 221537 169615 184463 140171 220869 73943 87153 319709 185923 101171 160529 178095 172389 89063 169933 54749 208647 142681 191667 141745 87751 147433 161313 115855 140233 121713 126757 263705 121659 115537 203743 138245 307823 142155 132901 64703 59515 134147 195911 167875 105807 96827 115931 157559 139605 168635 164985 100635 349029 172649 300151 160261 234671 159597 202271 129043 6397 115691 160939 177647 249139 211255 177221 150795 176181 145785 178553 50665 223583 117341 53457 211675 182165 290901 61939 229135 231187 180703 134843 184443 149305 272325 118123 171129 271475 235959 105523 212561 152127 218633 128019 133215 284443 115767 
channel    4 - height    4 : 93281 197793 136199 171191 107615 19087 110315 40297 114849 88361 167717 60751 73087 140175 88733 145879 72673 174407 189833 202067 148339 214003 99547 154033 160699 69643 130463 213955 247271 64759 164827 145857 188221 238035 41009 222065 121461 129523 42377 140349 88423 163749 307563 80891 148429 148025 13573 172515 40085 203819 -22123 87623 162975 70169 134791 219325 132025 104697 195439 172339 124551 209229 272805 263903 212347 168545 290039 101937 108037 219295 228031 239285 141551 350133 58775 293065 162909 166629 161751 226959 237133 144049 213185 131147 147329 167079 180679 259739 194173 110107 203459 159865 188893 31611 92789 87969 198421 41363 99921 40969 176741 142031 244521 60707 91697 45171 90011 73845 45525 151553 108771 177285 164465 110491 111511 302693 103357 104359 93159 78533 150483 238497 150497 176021 302125 212175 317925 97635 
channel    4 - height    5 : -54741 82857 40537 29405 102303 -54729 19525 47539 83703 37743 -27347 45383 53009 -19705 50699 -64313 -62959 62597 -55671 14231 3465 42861 46319 9517 50367 41887 -28593 -121483 -27407 -119599 8615 -36117 -105381 10623 -61659 -88507 -13915 -24661 -105255 -23825 29153 -2771 -59985 25793 -123681 -17895 65893 37355 -1437 -111149 19041 53833 3389 -7243 76991 -3693 92433 -4187 -35551 38103 62485 24943 -60637 14103 52775 -66483 111757 -41921 -12939 -39643 -16545 -77469 -47577 -46021 -3655 -24515 -56297 -27495 -1471 -24351 -2901 61351 88019 125177 50547 23753 -37769 -50841 -73063 413 -9443 -49453 104811 -39799 67171 7065 -45675 -103233 57257 -29453 -31039 -83759 -14217 -25349 64155 -122801 -108377 -44791 -127323 -38615 -36351 -85007 -56695 -17043 62955 -164749 19545 51441 -46015 -80785 -59769 -38135 -81325 -95175 -20757 9563 -47173 -110097 
channel    5 - height    0 : -126896 -146850 -39334 -176946 -94776 -140026 -154374 -198856 -101790 -135562 -101960 -174338 -189290 -143940 -17298 -93866 -14634 -94706 -67612 -26506 -81146 -118224 -66652 -139268 -159348 -153150 -118384 -158368 -141108 -56938 -64782 -51204 -154096 -159402 -113224 -156242 -133326 -169378 -150776 -55824 -183826 -184386 -157086 -143052 -2322 -95686 -60088 -135676 -84284 -130776 -163648 -110582 -177886 -112456 -97442 -105148 -184196 -166230 -115746 -66860 -112666 -134318 -40384 -157662 -13168 -132148 -115524 -91862 -114876 -194222 -152786 -144692 -178624 -139774 -100862 -83948 -166660 -164892 -130232 -48686 -77100 -241158 -117598 -105274 -118298 -29568 -119578 -118802 -169120 -61240 -238022 -110620 -150584 -82132 -69306 -207840 -144254 -113006 -166854 -21580 -182026 -143750 -114620 -186442 -107512 -34682 -162408 -165552 -88626 -74164 -165370 -95060 -145046 -27480 -105612 -111914 -62652 -49526 -187808 -149798 -150102 -221206 -57708 -121776 -87020 -112968 -149342 -30834 
channel    5 - height    1 : -31778 -78944 -82580 -170532 -171388 -276382 -62148 -218038 -75160 -110418 -204332 -159772 -70492 -163186 -157466 -90016 -17994 2284 -61836 -90764 -68356 -101054 -167448 -44550 -13936 -115896 -60840 -99436 -196870 -198324 -56062 -22786 -124662 -54586 -150694 -113500 -76738 -214178 -196262 -123368 -124354 -163512 -164054 -184312 -960 -224016 -44628 -155152 -125018 -56810 -121786 -191192 -197574 -77342 -57628 -74420 -125256 -176628 -117626 -9450 -57530 -21242 -53566 -83322 20658 -55830 -24220 -136000 -111786 -207130 -169048 -171336 -122552 -148792 -172070 -29826 -132998 -156258 -91418 -111172 -190206 -101118 -160416 -146404 -78388 -112900 -35110 -115078 -190778 -17672 -105842 -114706 -62506 -220094 -99924 -261700 -227828 -214804 -103420 16390 -163944 -123610 -185460 -116962 -180298 -80934 -100254 -124544 -83714 -134874 -75304 -6576 -113008 9408 -171822 -55848 -18884 -212168 -205988 -100340 -165794 -143738 -192190 -202892 -177176 -110864 -103084 -73268 
channel    5 - height    2 : -51692 -147114 -39882 -212668 -121424 -146698 -160628 -78662 -86610 -73728 -26594 -130856 -197846 -111142 -83750 -91786 -72722 79050 -44734 4920 -99906 -79318 -162666 -102934 -94228 -161050 -102956 -164280 -232232 -107860 -82456 -90958 -134684 -165558 -129292 -110108 -93496 -141708 -291668 -215046 -189410 -175444 -47438 -314230 -46952 -99836 -228022 -60774 -88670 -90234 -132766 -131080 -127240 -170742 -174226 -53970 -132144 -276472 -215032 -235978 -37964 -61664 -122552 -5818 17760 -110070 -87610 -202406 -101682 -155934 -112080 -235320 -228868 -150240 -261410 -69532 -123778 34464 -155254 -186424 -205032 -167118 -113242 -214106 -207988 -119788 -109912 -60442 -218054 -225508 -138954 -34182 -95646 -204694 -128972 -141844 -82744 -98904 -47488 -72474 -111022 -34806 -109422 17616 -184182 -41716 27820 -41750 10202 -62594 -90934 -85878 -82900 -109742 748 94088 -113766 -170370 -49032 -113712 -205494 -192174 -106086 -187742 -163194 -123308 -55714 -103864 
channel    5 - height    3 : -47846 -93056 -140774 -246438 -61166 -191202 -131002 -46282 -203442 -84360 -126304 -122736 2774 -93952 -94336 -48818 -66230 -33174 -166684 -152474 -247766 -94400 -155462 -49196 -33236 -93488 -170924 -249240 -325368 -57716 -69492 -149848 -281310 -270720 -131406 -204196 -101522 -109498 -124632 -122386 -76236 -84828 -82084 -208340 -267802 -235044 -90664 -33678 -198804 -157296 -201472 -202846 -65458 -153826 -194760 -143234 -62446 -147966 -6782 -12718 -38138 32540 -60308 -5264 -151130 -150376 -107698 -159040 -197764 -115478 -53476 -181388 -122096 -184410 -113924 -73370 -91378 -43898 -177100 -40082 -276862 -143074 -159414 -242984 -230604 -189330 -134648 -129778 -146776 -204376 -69368 -26844 -64326 -255930 -112650 -120558 -211280 -119374 -71404 -33006 -175130 -74838 -184842 -65278 -139898 -74834 -120848 -177298 -163736 -119124 -87640 -93428 -206086 -176616 -109094 -183424 -240930 -222126 -143142 -57286 -90890 -162736 -203634 -210068 -124974 -46480 -49596 -138084 
channel    5 - height    4 : -43258 -96436 -128452 -87880 -141134 -94722 -62726 16790 -78328 -18668 -169798 -101508 -181902 -113646 -85228 -118020 -120770 -76580 -266698 -182630 -231692 -144816 -171400 -75080 8546 -34956 -168266 -96482 -202456 -111404 -167190 -135504 -265948 -281790 -141538 -108168 -72254 -196486 -289290 -93722 -105358 -124592 -126914 -168888 -115606 -64422 35412 -28748 -92122 -80122 -128652 -81818 -136764 -158716 -34312 -95772 -221276 -280678 -95250 -133460 -160854 -196688 -160796 -166350 -45526 -189664 -153292 -189996 -135252 -135180 -63674 -272574 -178656 -124198 -136844 -100200 -173004 -225282 -173094 -137334 -162996 -36640 -122754 -209968 -95040 -198800 -266964 -95942 -52762 -69476 -74922 -87208 -83986 -3242 -20926 -99038 -50920 -96750 -58088 -208344 -264504 -84676 -219584 -37224 -131400 -72748 -2496 -91878 -32428 -245476 -81278 -159936 -196820 -150158 -168572 -134316 -142002 -213074 -243960 -270632 -72970 -63162 -141092 -325696 -196300 -214312 -180330 -83294 
channel    5 - height    5 : -3336 11926 77570 -82368 -81648 -70972 -68648 36138 -18242 -67674 -32928 -88202 -121210 -55874 -102810 5624 -71328 -97166 -123504 -112056 -57888 3278 -75470 -61568 -11944 -21606 -36922 19272 -60924 15106 -23142 -19380 -62160 -24048 -18332 -34518 117472 37618 -13312 18006 3058 10868 -143582 -99356 3080 49802 59578 45082 -17002 2736 28830 23714 -67796 -79674 -105844 -82296 -92556 -89678 -96946 2262 -67410 -165144 -47402 -32256 -104582 -34228 11928 -35352 -108748 -8904 -31826 -79418 -41760 -53628 -26484 -78592 -44856 10358 17496 -71636 -125074 -52356 -22752 -138936 -92060 -139892 -88662 -20400 1870 28232 -55208 8920 -19782 -29642 1906 40364 -22118 -780 12422 -56888 -92116 -42594 -69090 -80774 -116246 55558 34976 114568 119176 37728 10282 -82612 -89562 -90448 -111688 -114966 -38156 -4940 46604 -55890 50910 18532 -16704 -21024 -28370 -70958 -92856 -101624 
channel    6 - height    0 : -90621 -149559 -189223 -97217 -139715 -154151 -210303 -119141 -191475 -205171 -102399 -168313 -107985 -155249 -159001 -143863 -127019 -177209 -212463 -169777 -200465 -111737 -167763 -160487 -143937 -209533 -181055 -145169 -194047 -181237 -178973 -184067 -166233 -226639 -131189 -175097 -131465 -72611 -79793 -164291 -202049 -97711 -159165 -135413 -108851 -176207 -196409 -94533 -224419 -149631 -158417 -244323 -187691 -140319 -113287 -105467 -29559 -56553 -96855 -103605 -101919 -109105 -172333 -136815 -208575 -262871 -204997 -230247 -228147 -250059 -157487 -160405 -85243 -206265 -198359 -179779 -180845 -193467 -167599 -226525 -160207 -184029 -154393 -142125 -149081 -163207 -212225 -198303 -128359 -133021 -166685 -160687 -152213 -176161 -117027 -133557 -183635 -175919 -112015 -156241 -121291 -130311 -187591 -198815 -175757 -109373 -199597 -160151 -152787 -229913 -217587 -277691 -198497 -137307 -192991 -118219 -242831 -118789 -108237 -108709 -240061 -165927 -173039 -242163 -118789 -122609 -115191 -180129 
channel    6 - height    1 : -179265 -179039 -200497 -229773 -130283 -187975 -211823 -206223 -245203 -178327 -282741 -264595 -263311 -259815 -223155 -252731 -256735 -256363 -117027 -254985 -228969 -210623 -226327 -377619 -299723 -271435 -224463 -190611 -244855 -235643 -170793 -197453 -164023 -186709 -117397 -195045 -170027 -296861 -227965 -283557 -323913 -216851 -285041 -297549 -207589 -228973 -236545 -192745 -345983 -166031 -172901 -189485 -190161 -204497 -229271 -203761 -244791 -212779 -170279 -269977 -186431 -223405 -227679 -161873 -217313 -309117 -206341 -162861 -262569 -294357 -229455 -284233 -165421 -177423 -375863 -229473 -182875 -257029 -332987 -227423 -206387 -225693 -168643 -208141 -180251 -251831 -225229 -194209 -170151 -209185 -125551 -165883 -283909 -218287 -109123 -103489 -177503 -367439 -225483 -256731 -151159 -181833 -164417 -362849 -220225 -181105 -196961 -275369 -203389 -227065 -261411 -308019 -288851 -197355 -114067 -307367 -198433 -151127 -222589 -195251 -268489 -132365 -86951 -252767 -294713 -235539 -177137 -226901 
channel    6 - height    2 : -149995 -254265 -211497 -115737 -171453 -124877 -180437 -351701 -209427 -273375 -121927 -118443 -289951 -217577 -166135 -185335 -210287 -194433 -171785 -158381 -223147 -307315 -197339 -223143 -168173 -284441 -230085 -210865 -242369 -252991 -210575 -225169 -73223 -141531 -110779 -184557 -189529 -205855 -269515 -205245 -169067 -264277 -272529 -281795 -267391 -175679 -291073 -277269 -141865 -267889 -215017 -198327 -119183 -205687 -127697 -126273 -236083 -236861 -157181 -194581 -166953 -100547 -202135 -236311 -149493 -196017 -167749 -186373 -304311 -118647 -212135 -188273 -203563 -200219 -238641 -219961 -293353 -227741 -198951 -251253 -278363 -235417 -209775 -259353 -269443 -216119 -250767 -274699 -201267 -313485 -212801 -166633 -228839 -221573 -255787 -245945 -217301 -213315 -135655 -270817 -212783 -198211 -223977 -319949 -238099 -233691 -219327 -308963 -172031 -108041 -160901 -266263 -228931 -266329 -280915 -156327 -146779 -170109 -152419 -201317 -117979 -257305 -155263 -151135 -280105 -205703 -170545 -168583 
channel    6 - height    3 : -98795 -196977 -235997 -298275 -284241 -178497 -209071 -181601 -221677 -223207 -169211 -171371 -111479 -144739 -183889 -125407 -227901 -217595 -182367 -188387 -107785 -247567 -242709 -303851 -234441 -229917 -260303 -196239 -246357 -270051 -160319 -176935 -183223 -227365 -182559 -204679 -232231 -305797 -278169 -259265 -289465 -241657 -270847 -304593 -146301 -276133 -268339 -263491 -235373 -206681 -175397 -204835 -190445 -211431 -144755 -208563 -242283 -182087 -233951 -164279 -306767 -128897 -235365 -150323 -183911 -299181 -190871 -206725 -208099 -251497 -227565 -247479 -101977 -113787 -267613 -258013 -241783 -222373 -235243 -177537 -216571 -283493 -153431 -150309 -240639 -248359 -218901 -124079 -286139 -283743 -335093 -254935 -115443 -212697 -256927 -243029 -206807 -184935 -163587 -165855 -241643 -244175 -164363 -280777 -281027 -222927 -152813 -226179 -269285 -243275 -180589 -98163 -100371 -108831 -173617 -174171 -281169 -215215 -195277 -315809 -95179 -213757 -209465 -272021 -232785 -258393 -74533 -179457 
channel    6 - height    4 : -131975 -158733 -228109 -287735 -170807 -247381 -168287 -184199 -283515 -193767 -173879 -202475 -134559 -245103 -189581 -144375 -248325 -100641 -260893 -251437 -256177 -255365 -312391 -260247 -259573 -241609 -220273 -212889 -255415 -257133 -234275 -272487 -291459 -189195 -289911 -184499 -180017 -189047 -340837 -204511 -242283 -266185 -195727 -302841 -285309 -249019 -218927 -248581 -201813 -271645 -207489 -180357 -210593 -254401 -306581 -130343 -167869 -214809 -165007 -119441 -188379 -100351 -116755 -209353 -146603 -220591 -176935 -280077 -274613 -250485 -217939 -291361 -381527 -198711 -360031 -174771 -121661 -247627 -198211 -192895 -164011 -260719 -140819 -259057 -214057 -186969 -190189 -114549 -246153 -247383 -284639 -195203 -207319 -178825 -137651 -264827 -117071 -411579 -173227 -243203 -247687 -160259 -147993 -268437 -234781 -246937 -110807 -115747 -227273 -186391 -304395 -175365 -132455 -175131 -134235 -218933 -198547 -227715 -215011 -343697 -249627 -257065 -229033 -215207 -174885 -283193 -309981 -248857 
channel    6 - height    5 : -92233 -128111 -39077 -123873 -85385 -107857 -170185 -99141 -84445 -103019 -185991 -101149 -157183 -153217 -186815 -123637 -129395 -148851 -122485 -259891 -197431 -167069 -103649 -124941 -98309 -150323 -75217 -177745 -153289 -194215 -122685 -165313 -264485 -161431 -137499 -241527 -164931 -145131 -146065 -137553 -75597 -91729 -162567 -95223 -191363 -120967 -55179 -145243 -156217 -183749 -116991 -65547 -176095 -142945 -193111 -158859 -141645 -123193 -140397 -92401 -7341 -123225 -65267 -91327 -32237 -153285 -92137 -101793 -155235 -135193 -127599 -156001 -191205 -169661 -148069 -172633 -146981 -153585 -74347 -170527 -116981 -116959 -60869 -84447 -166133 -178185 -158667 -97483 -150801 -141659 -144527 -111445 -78861 -112413 -112757 -111163 -125113 -210087 -168153 -184631 -133353 -208749 -129185 -129119 -168227 -131921 -140875 -125421 -150197 -98873 -94635 -166065 -153311 -208957 -117101 -214461 -146151 -191281 -129153 -123815 -234479 -144083 -274003 -163385 -85875 -115393 -143193 -104583 
channel    7 - height    0 : 7925 -40061 -105585 -108507 -145909 -152393 -183179 -18689 -83243 -54419 -61489 -69041 -92671 -146311 -111561 -27631 30837 -33191 -24849 33485 13651 -10009 -6713 -66815 -128377 -137817 -108353 -81721 -1007 31619 -55459 -90051 -92765 -107071 -26967 -67279 -36023 52587 -53683 -116735 -63373 -50895 -19931 -47277 -127023 22549 -113457 -60113 -71601 -76073 -162183 -18831 -72427 -115055 -45547 -78893 -54439 -104649 -29047 -104297 -66063 -126335 -35101 -69135 -105447 -36791 -97395 -61045 -103639 -108255 -102967 -86471 -56935 -82769 17075 -73921 -82271 -39315 -28579 -65323 -30441 8027 -63057 -113261 -57357 -29945 -63421 -65457 -160841 -127321 -30727 -55687 -44569 -42591 -97461 -71549 -32993 31995 -105327 -51763 27179 -133497 -89635 -16227 -25213 -15911 6663 -26511 -199383 -120219 -59843 30983 19073 -137627 -65423 -3249 -93917 -115357 -108799 -72613 -50143 -85611 -95683 -66613 -62157 -127917 -74899 2985 
channel    7 - height    1 : -113057 -31265 -94109 -39963 -115353 -112549 -200421 -92859 -67775 -100589 -187727 -97623 -181721 -116241 -123847 -82025 9997 40021 -39205 -110357 -46129 -24889 -63447 -92481 -156765 -175611 -198989 -169251 -90713 -202135 -99085 -75267 1863 -86005 -195439 -114105 -114893 -152963 -126789 -183651 -10367 -93071 -206213 -93557 -220863 37325 -65929 -157755 -97685 -131153 -130649 -144611 -90399 -83933 -18843 -111769 -98437 -124415 -66893 -51117 -86217 -80925 -31303 -15055 -96939 -93807 -92109 -104309 -156385 -86085 -47579 -272229 -248577 -184975 -50731 -72183 -102501 -158471 -80799 -44461 -190151 -70059 -135761 -242551 -154589 -94093 53231 -137785 -207079 -198833 28647 -186557 -154237 -131767 -80447 -130723 -125535 -171813 -94047 -56683 -53375 321 -133095 -213305 -27413 -37469 -61515 -42155 -51937 -169619 -178961 -136557 -10039 33219 -125527 -102765 31835 -119559 -160091 -72787 -170589 -94571 -180637 -55753 17295 -169369 -8325 -20021 
channel    7 - height    2 : -187733 -132039 -95933 32141 -137133 29731 -93965 -55473 -23565 -230921 -60679 -86455 -192189 219 -141199 -160929 -62339 -1977 -46713 -160725 -106977 -65845 -36397 -100817 -64501 -83325 -167789 -164643 -124593 -162193 -23637 -4665 51319 31655 -141757 -219097 -98685 -69283 -49419 -168109 -3661 -126411 -325251 -97257 -108585 -40109 -122565 -102773 -76621 -30807 -26807 -128173 -120521 -9961 -10017 -45087 -56389 -84095 -147599 -88957 -93907 -104769 -207961 -146865 -7569 -62853 -141177 -66605 -64517 -63393 -50945 -25203 -245499 -203157 -91741 -51973 -204591 -162597 -3695 -162271 -93969 -139449 -83541 -152421 -221369 -62925 -38547 -129617 -67393 -104037 -104305 -58903 -124179 -65453 -140329 -175927 -116771 -139887 -46509 -65089 -173745 -125971 -18721 -149791 -19407 -130031 -189933 -145747 -76365 -86503 -109095 -338229 -71829 -90713 -150077 -144387 -16579 -52039 -34937 -86595 -125685 -152621 -168249 -96119 -27957 -226847 -73065 -13565 
channel    7 - height    3 : -76957 -126709 -148715 -178509 -161265 -40359 13305 -95589 -82567 -137583 -24291 -37255 -15411 -29067 -38935 -125873 -35055 -71459 -35875 -106131 -76381 -107965 -22433 -82027 -139035 -58501 -82353 -196643 -149375 -228265 -22261 -18315 -122355 -79861 -37519 -97765 -141465 -30893 -18801 -225765 -209991 -36735 -224929 -146039 -129937 -85731 -85045 -134527 -16689 -109089 -43775 -120513 -181561 -29083 -93999 -104365 -66115 -41835 -152021 -51885 -149073 -87587 -157353 -113155 -179869 -136335 -206159 20461 -90077 -144295 -171083 -25281 -72325 -198259 -86607 -68865 -120405 -138493 -82857 -180775 -143093 -219005 -147041 -35113 -210481 -127629 -57777 -149565 -56085 -42785 -231859 -96961 -84451 -157325 -60297 -85487 -60895 -67611 -73187 23653 -103829 -231207 73761 -174231 -77159 -102531 -68825 6193 -156803 -91055 -74959 -188603 -122291 -50461 -87987 -74427 -96601 -172717 -129057 23261 20407 -102391 -98499 -71777 -155523 -228953 -127211 24119 
channel    7 - height    4 : -136731 -133697 -158347 -95001 -234985 -160873 -8431 -161723 -128221 -117591 -169467 -10539 -230179 -138981 17447 -121389 -45327 -96819 -84743 -118615 -160855 -281627 -113863 -181083 -116613 -84925 -78385 -84621 8105 -166563 -136749 -69419 -113953 -158715 -136973 -10487 -24869 -83173 -95365 -127821 -204749 -83869 -26451 -183491 -136743 -149219 -142405 -158195 -108123 -62385 -45855 -114441 -134865 -208865 -152719 -102967 -179147 -134103 -72337 -58541 -86433 -93929 -43763 -30979 -70121 -129137 -106155 -195311 -96241 -101927 -97639 -82941 -125741 -150763 -92307 -102329 -34663 -105967 -86251 -100697 -111613 -198625 -130305 -169275 -235205 -81173 -83627 -45329 -39001 3131 -106243 -123361 -122323 -141709 -64223 -138281 -40911 -64389 -63507 -113499 -76079 -159001 -96423 -95661 -54447 -69011 80553 17167 -53163 -69269 17909 -15017 -116355 -111783 -103945 -6885 12265 -214123 -189961 -51695 -136467 -126667 -55507 -24677 -74619 -159025 -155733 7845 
channel    7 - height    5 : -91559 -112939 -32567 -19055 -91501 -212455 -91981 -56993 -38905 -173517 -124637 -93225 -197423 -148923 -122433 -136655 -88963 -158133 -178461 -182757 -194981 -191431 -142215 -164585 -11939 -52417 -147419 -220819 -46291 -151687 -151847 -160291 -251819 -169851 -242533 -146305 -56419 -89849 -104541 -118319 -120985 -105365 -53175 -167121 -179929 -118517 -145579 -65987 -166153 -116237 -77993 -120543 -125705 -173751 -182797 -96267 -224265 -152589 -127019 -80381 -4541 -102863 -199473 25583 -79157 -161981 -57879 -103615 -207615 -87177 -157253 -153083 -191075 -112389 -182027 -126501 -111919 -141273 -90529 -179735 -136881 -121923 -80037 -76861 -180351 -154911 -144667 -175021 -146353 -85807 -121367 -133153 -50481 -106595 -86735 -139349 -110599 -134367 -53155 -131729 -144161 -278159 -170655 -107999 -82643 -130349 -195985 -76087 -124775 -33839 -59263 -136497 -162327 -162231 -229353 -237533 -74035 -113161 -139127 -189737 -183277 -175111 -228287 -115941 -99511 -98595 -153361 -142565 
channel    8 - height    0 : -7000 -43234 -28906 -39986 -80006 -9104 -44584 -117190 -3644 -165384 -78370 36538 -100486 -59290 -144886 -93502 -40152 48742 -180356 -97144 -83792 -94726 31268 26862 -26740 -96336 -118130 -117422 -114950 -26804 -15622 -110288 -40528 -56036 -125680 -26164 -49566 4030 -64046 -90994 -54838 -72616 -58986 -33806 -184132 -39074 -55454 -104468 -51484 -2650 -63336 -103386 -70202 -60944 -9574 -81070 -94170 -97700 -2716 -53632 18524 -41458 12268 -130358 -86276 -20320 -121664 -99710 -156448 -302 -151312 -142022 -13962 -187486 -82436 -111624 -71074 -124160 -80950 -80780 -89678 -18418 -144392 -81552 -123498 -16638 -8846 -118576 -129220 -9890 -42172 -91714 -151218 -58950 -26222 -82674 -113890 -32774 -71198 -103016 -65480 -72004 -162946 -70700 -134288 -64278 1992 -20562 -131972 -143794 -104626 -149802 -125002 -30558 -105296 6940 -43892 -54532 -14788 -154864 -45588 -117656 -173614 -63204 -126148 -125318 -69800 -71548 
channel    8 - height    1 : 51156 29902 -25080 1684 -5102 -34266 -9026 7778 -23188 76912 44648 -230910 55064 -49808 -61838 -39160 11238 -129098 60594 18034 4668 50172 -78148 33020 -109840 -57224 -78356 -52662 141754 1516 -160638 -94780 -60068 97476 -39594 -64898 32086 -17702 -2698 -124760 -141228 -28664 11602 -46192 -11200 -119104 116270 -100454 -103728 -34814 21884 19272 -88592 -30764 -29608 61326 1358 11916 -63040 54800 -177724 -55032 -136424 -44310 -6020 -62068 -79284 -113566 47718 -177802 30146 39274 -193508 -29476 -27022 -86180 -68894 39010 48942 14450 -50912 -45154 41784 -25026 83122 -161028 -84598 17014 -65392 -72348 -35352 -644 77510 -31120 -36208 -31552 37124 -52708 -185322 -75586 -116374 -21240 -8398 -6714 -101542 -35246 -73644 -97376 5568 -64192 -128934 -78774 -52192 42542 13530 -75272 27276 78552 -27566 -60784 -76134 -83320 -56712 -38938 40930 -152532 -81372 -118984 
channel    8 - height    2 : 106602 -89744 -29798 -94694 -62832 -22014 5154 -66552 90448 -119340 -164528 176440 41680 -19486 -40310 -76366 -99114 43092 7734 -21554 -77958 -44572 30278 11678 -18576 5770 -55966 -99568 -75128 -162696 -51278 -13294 -24464 13642 -34634 -27778 -126438 36540 83856 27262 -21256 4854 17160 -93992 -97900 46512 -17370 -153516 25618 -28664 112354 -74716 -101448 68634 -109454 -50246 26400 54632 87454 -120528 55164 -12266 75796 -59350 -19078 -16434 -98710 -66166 -99866 -26634 -36188 40544 -13458 26134 6976 -92550 -36670 764 18846 -29378 33360 -178758 -83134 97812 -182846 -46068 42926 -43612 -77310 110830 -181420 42906 -167650 -112220 71504 -111280 -38726 -169080 -23624 92166 -66218 -47962 21400 3808 -101158 -98516 -65758 -119670 -124126 3866 12438 -137348 -160182 -28840 -16352 -30906 -71212 -118674 50348 81900 11274 -62426 -69234 -58278 -96216 -42982 -107498 -64316 
channel    8 - height    3 : 62510 16676 -33620 -112926 -37286 -133310 78930 -17520 -13704 -58116 11302 -88850 -62092 73220 -118756 -161876 65394 -94292 19964 15498 -40212 -80062 -84320 -120314 -99800 -162332 1996 -77444 -42360 -34384 -27604 103766 9582 -54000 67018 1146 10486 -70484 68008 6662 -166920 -101136 -11080 12226 64360 -10690 -38356 -12398 -52120 41244 -38622 -25134 -78570 -73782 -16276 -720 -29116 -109172 -66316 43444 -105038 -67390 -55278 -13852 -8908 -1792 -183870 -31756 13716 -22350 -52414 -112614 26702 -6346 -38596 -77908 6814 450 -164672 -78896 -112574 29244 -141174 -67526 85850 -105804 -106136 -88760 -30250 -53266 -78580 -186880 -10374 -77978 -125620 62412 -65996 64760 -85870 -97436 83412 -43376 -55838 168608 -72078 -3944 -117202 3758 -37624 -108560 -100986 -120546 -96068 27636 4452 -7856 -1570 21532 -109464 -71458 -118250 61686 -28398 9998 -64010 -84110 -165220 -139972 
channel    8 - height    4 : 95546 -5480 -67440 -36800 -34186 -74586 17380 -24608 -125468 -41986 -107686 38622 63782 -131740 -9864 78146 -64514 26600 -48352 58158 -62092 -47792 -170400 -112112 -111596 -39454 -109124 15486 67080 -15200 -3838 -8020 -1366 38672 -112540 45664 -73096 76634 -15236 -76158 -23844 -149392 51778 -87612 -74630 -150284 -94822 -3290 -127218 -27734 -116050 -43744 65374 -86910 -47276 -26502 23782 -42438 -6832 -17236 -52552 -51690 -5564 -82632 -113390 -67916 100278 -66014 12392 -28770 -59124 -7200 -61964 770 -97980 -13550 -74012 24402 -64312 -95266 -31264 -146974 -83012 14016 -32098 -22550 -89900 -88402 -55002 -147470 -61596 -80828 -123752 -143896 25572 -110918 -82276 -25082 44396 95382 -2804 25202 -125024 -54492 -1640 -154496 -57666 -55136 22102 -127046 -17006 13434 -56960 -60 -140704 14522 -28432 12320 33502 -75272 968 -82218 30262 -58558 -19206 -72248 -147022 -207888 
channel    8 - height    5 : 18586 21466 36538 44826 42248 59258 -4164 -24512 34806 18146 28590 56934 -8382 158894 78900 80298 81684 23712 54798 94446 -1624 16314 19674 -47498 44570 52912 25010 46874 7594 81062 -18566 -28206 95934 -13092 101176 -69910 40498 -61546 45006 85898 -40832 65004 9940 24872 -65478 -24148 -82740 -53790 -20072 -69302 91978 40022 60938 64850 33342 13960 51136 27226 100130 14650 29824 44624 -91844 54402 83640 -5926 -29130 49130 8052 -942 94550 26896 58738 -37806 55792 -9012 -88814 48310 -60712 141232 10758 -3562 13512 84198 114696 8844 -334 75882 -18500 7644 -43226 -76924 116378 62146 -35976 31478 25058 26096 59380 36284 37666 65674 -9720 142142 4332 58110 -6392 21526 -55316 86464 72360 21182 132900 49174 166530 -45952 89932 38670 19726 9534 -40828 49746 23184 -27058 34536 42508 67716 -26062 
channel    9 - height    0 : -24232 -52626 -60746 -85346 -121750 -109998 -54722 -135798 -106630 -171748 -189510 -54200 -88400 -35446 -80706 -27812 -83394 -17450 -164474 -53352 -28286 -69472 1572 -90636 -124878 -176846 -73946 -99028 -98316 -20574 -76588 -50522 18698 -79016 -147342 -43476 -145290 -83728 -123542 -46338 -17164 -71748 -99862 -65096 -143054 -26518 -63160 -182556 -85518 -39826 -132252 -40208 -61062 -37582 -105606 -241778 -169016 -115726 -81032 -128110 -85248 -184314 7936 -169448 -38080 -43264 -67074 -157946 -150338 -5706 -206686 -97242 -46076 -128270 15798 -83262 -25658 -33340 -88356 -50838 -113964 -19740 -166860 -58948 -76448 -84722 -147492 -203900 -108104 4828 -45448 -185486 -72340 -43150 -103850 -68712 -175218 54592 -131446 -69326 -86488 -41996 -125318 36268 11384 -3032 -52154 -29252 -114244 -135854 -90414 -73402 -101544 -91550 -116806 -54728 -54656 -110770 -63784 -182240 -16316 -38680 -74044 31704 -92882 -66520 -132864 -29978 
channel    9 - height    1 : -138754 -114602 -250874 -175160 -110588 -221616 -206096 -188322 -269612 -68460 -77848 -273788 -88624 -136058 -213060 -104478 -85482 -187180 -91886 -146562 -153758 -109918 -194112 -37456 -151538 -116894 -329890 -70818 -114960 -195546 -247332 -152558 -142982 -285372 -253478 -122378 -102834 -149768 -154616 -112448 -87480 -119812 -100716 -193024 -53326 -170672 -220228 -19844 -194996 -126476 -261176 -211792 -199466 -197852 -52966 -75184 -165454 -56620 -230610 -59168 -40260 -122306 -143000 -37622 -191296 -152734 -285354 -233212 -18160 -195786 -153520 -235984 -216332 -109262 -80762 -179126 -119846 -204496 -201302 -325778 -237642 -15008 -286848 -212822 -163250 -153716 -165198 -61174 -200244 -212046 -39280 -308784 -174454 -231840 -285500 -191852 -169418 -78610 -120458 -187122 13186 -114876 -195268 -103822 -164230 -210268 -180148 -221730 -62126 -241506 -227724 -115440 -100668 -220012 -127404 -48554 -156144 -216296 -276640 -172694 -238582 -140354 -170574 -204694 -130384 -122344 -157660 -155330 
channel    9 - height    2 : -130188 -174238 -52930 -194532 -113212 -76568 -173192 -8650 -69566 -214690 -121208 -159470 -114398 -263796 -257000 -213456 -150236 -135892 -200162 -127070 -154536 -74282 -85806 -125046 -138668 -142138 -223066 -191364 -217068 -24748 -121314 -168410 -115320 -115282 -32218 -42178 -151152 -72898 -181268 -321778 -121412 -179512 -239226 -172368 -274844 -129628 -131408 -225716 -88524 -120394 -118290 -208082 -65906 16438 -180348 -122726 -83764 -71792 -167760 -286496 -32234 -172048 -162762 -147246 -303768 -139440 -196090 -75702 -163966 -131344 -198718 -146380 -196844 -210958 -250808 -283806 -97636 -202600 -169046 -280680 -64898 -240932 -71242 -95604 -228756 -63024 -90548 -113314 -75716 -106418 -183316 9806 -265912 -81930 -100674 -172162 -133340 -205030 -68394 -119112 -112860 -199638 -166688 -253318 -180830 -116508 -69400 -115650 -220166 -139330 -236704 -171270 -18330 -108700 -100452 -265434 -186710 -37872 -111698 -131794 -197038 -338750 -154354 -149758 -284598 -65678 -200724 -153234 
channel    9 - height    3 : -90064 -179304 -231142 -23442 -156330 -68850 -152652 -208904 -165616 -129852 -169066 -126156 -173486 -206594 -174228 -148662 4924 -182770 -14746 -260518 -179062 -177762 -111142 -100560 -66514 -183332 -155200 -200858 -188002 -182242 -149054 -297556 -178454 -177974 -10820 -213550 -131702 -236962 -152170 -274490 -188784 -49916 -233790 -151554 -206848 -187118 -186752 -218836 -79950 -150274 -189940 -309832 -166086 -170938 -68938 -152692 -238422 -102286 -38690 -131710 -165202 13954 -110380 -206000 -132932 -98074 -243664 -172790 -230464 -136620 -122360 -192054 -109704 -340358 -126344 -63044 -149086 -207210 -142824 -101696 -171310 -67864 -227594 -217832 -221044 -167856 -44008 -155884 -71256 -224378 -107276 -148268 -144142 20236 -162560 -45294 -243896 -79792 -227154 -110704 -81882 -162104 -149834 -139472 -150294 -128720 -209766 -113582 -165334 -61094 -218322 -182770 -156888 -45036 -191346 -42480 -88796 -136938 -269488 -16464 -143152 -181900 -264790 -184222 -176526 -144782 -112614 -19980 
channel    9 - height    4 : -141392 -59000 -227112 -199638 -324626 -148620 -141454 -114544 -41586 -227822 -89558 -134798 -250134 -95016 -76074 -70018 -260052 -138828 -256650 -144126 -187432 -151108 -159198 -155682 -193372 -116166 -155918 -87256 -230686 -219182 -137194 -160796 -157196 -122262 -307060 -135478 -229642 -99780 -185490 -156628 -95924 -226886 -75572 -270064 -87550 -74258 -221526 -141740 -225804 -155966 -125654 -185690 -81968 -180140 -189934 -217582 -171092 -202860 -73772 -60608 -177280 -106124 -63194 -77670 -69134 -106272 -77464 -261184 -61276 -133682 -171484 -103648 -102236 58130 -249540 -169474 -144772 -90376 -261694 -197508 -152366 -148866 -113706 -217062 -204236 -244710 -149472 -168824 -25608 -124090 -27912 -73408 -196970 -188836 -87516 -209526 -136990 -66298 -157998 -149260 -275364 -267512 -181068 -142222 -134268 -117164 -147958 -148824 -84676 -147682 -137926 -160088 -182628 -142108 -265470 -30930 -251356 -236142 -125474 -191098 -80182 -141310 -192148 -159448 -212346 -160340 -75274 -63412 
channel    9 - height    5 : -135970 -169934 -148922 -216356 -111976 -162224 -117772 -161896 -134796 -193610 -94820 -193936 -122050 -161218 -241338 -243512 -262284 -148472 -131054 -219384 -236110 -231404 -229356 -163430 -129668 -149866 -171476 -176512 -225834 -234890 -161068 -156702 -171412 -220502 -177336 -228528 -162414 -138568 -171442 -135078 -240286 -209612 -200078 -127786 -190140 -105984 -170066 -68518 -58420 -81074 -95438 -150270 -246416 -162346 -222874 -177770 -176246 -195594 -226454 -214264 -246258 -194936 -146180 -149950 -230476 -279414 -203456 -131464 -195988 -157092 -180008 -190910 -299824 -241116 -275384 -166798 -176636 -95820 -154548 -138764 -238714 -264574 -85434 -212862 -247610 -234524 -224580 -263742 -291836 -180270 -187462 -176364 -43228 -227278 -197214 -107436 -142048 -235802 -164900 -231390 -176184 -186250 -132092 -215842 -191964 -102468 -103580 -56686 -185068 -90990 -234814 -163696 -144372 -272062 -153992 -256520 -139912 -152118 -236198 -205556 -203978 -168328 -270062 -189800 -174110 -319796 -285420 -273266 
channel   10 - height    0 : -45359 -53223 47533 55103 -76625 66575 87461 109681 -9701 -55097 -47435 25695 35033 -18655 129753 98625 121813 86743 21087 -7415 71397 -31029 -54445 -24089 -55999 -15955 89049 68187 -124607 2171 111175 70183 106627 56453 10119 -52819 8981 -61245 -54361 12309 83809 -2341 -176029 28851 17241 59435 126015 14795 -120273 166125 22915 43159 65319 -15263 -19407 29133 2735 -122531 -23113 46091 59173 5129 34547 74475 81787 109059 72795 63289 -14143 -2277 78273 -42115 61429 -40703 47097 116313 32985 28277 19203 31767 142273 -33237 -41221 -6439 22639 56593 79689 -60913 -51441 98373 119545 93499 -121775 6933 140849 90753 -69395 -58095 68987 6297 -29709 -11379 37921 -19883 48725 138713 -11781 18245 -12531 113397 163773 -53243 -82521 23837 33731 -2223 -42211 126541 126521 26213 -14863 83781 29171 101395 140917 24975 89775 -2013 
channel   10 - height    1 : -102431 -41335 -238281 -122829 -193559 -201797 -279959 -199719 -191285 -233525 -130127 -238659 -140251 22953 -50945 -205039 -87597 -73039 -138669 -87149 -120619 -135763 -231519 -147583 -150821 -111701 -68961 -230997 -170099 -115625 -22755 -50273 -184639 -174475 -160365 -198489 -179871 -59449 -36353 -65053 -96279 -119879 -212997 -117909 -49895 -8771 -244023 -182065 -108743 -249105 -148461 -59433 -132473 -259503 -115713 -115777 -169839 -308493 -216471 -141689 -110687 -164571 -98389 -52553 -57011 -175813 -101957 -42819 -202837 -155809 -185811 -228743 -115421 -122879 61619 -36263 -209571 -167773 -167539 -123961 -231855 -148845 -110563 -261659 -124473 -124237 -130811 -240383 -154973 -186555 -80731 -89323 -231323 -192203 -128667 -228095 -205733 -119409 -29579 -101153 -141169 -69747 -136915 -182417 15895 -108605 -208971 -94819 -96557 -154539 -156415 -175515 -141463 -136039 -282359 -134453 -95273 -248527 -213221 -95511 -203419 -46221 -49795 -103793 -64911 -194803 -167119 -121493 
channel   10 - height    2 : -144307 -75373 -57109 -68573 -186221 -72203 -142489 -247629 -139821 -167303 -123827 -96447 -164995 -59781 -188805 -119445 -71579 -126557 -51405 -116369 -44005 -71283 -39359 -65833 -73445 -232795 -196287 -251845 -195843 -97673 22905 -104815 -203873 -224353 -203337 -88461 16001 -210091 -112797 -223079 -281439 -192243 -228349 -108399 -166031 -206165 -36959 -75621 -185627 -179753 -165815 -136193 -110389 -121005 -76049 -157453 -189765 -237725 -102173 -125875 -140745 -80105 -120057 -36543 -134971 -169175 -90215 -136347 -174755 -201891 -235601 -245685 -248987 -274275 -132055 -237379 -248743 -64669 -163729 -158303 -196293 -226959 -131211 -243405 -72403 -140003 -170107 -52593 -133339 -205303 -207889 -148171 -223589 -244567 -113795 -207977 -177885 -29087 -74769 -161503 -169963 -98607 -161725 -245981 -145445 -56497 4891 -33075 -48455 -173691 -78393 -181837 -84855 -126683 -21429 34735 -89659 -170101 -107749 -61467 -258769 -154551 -156963 -194857 -92081 -166741 5315 -75295 
channel   10 - height    3 : -154069 -139939 -98083 -79025 -40357 -161941 -55033 -139323 -141607 -152821 -48519 -218689 -251075 -165011 -80241 -210187 -36917 -100649 -160089 -70443 -173661 -153067 -204891 -71757 14857 -114647 -204939 -227397 -110631 -126775 -141225 -275539 -214521 -137473 -158475 -49949 -106775 -258805 -295179 -236367 -117305 -11929 -257429 -212895 -131815 -260569 -179869 -123493 -176749 -138533 -211171 -133431 -179865 -131063 -56441 -29867 -204703 -119923 -80153 -68797 -58089 -39655 -181627 -10735 -198785 -17807 -116797 -163507 -263797 -202053 -104159 -124183 -176733 -272325 -212639 -10653 -168961 -189653 -65145 -103611 -102585 241 -120677 -184647 -147713 -185605 -82237 14229 -34235 -142697 -203891 7921 -28487 -59475 -127607 -152015 -118987 -245855 -152355 -231757 -136767 -131143 -95131 -264615 -160015 -81959 -68433 -243595 -339393 -128501 -87171 -184187 -154351 -111889 -156691 -97283 -163727 -121373 -144965 -181035 -116419 -184125 -274049 -269773 -153271 -112533 13501 -54807 
channel   10 - height    4 : -163911 -22691 -72045 -187347 -176171 -216213 -42805 -33461 -4513 -19067 -189183 -84915 -128475 -152367 17161 -137771 -152717 -130079 -231309 -216287 -123717 -153367 -37823 -23699 -95317 -112835 -69507 -284013 -229245 -288961 -215935 -186507 -223313 -161587 -187039 -68749 -62011 -294779 -223079 -188869 -73659 7379 -288649 -299717 -124485 -69031 -21985 -92353 -145187 -185471 -86629 -79461 -194207 -200989 -85367 -129345 -215735 -114115 -94169 -32227 -13479 -23175 -95267 -51747 -100005 -111263 -60527 -325339 -132107 -69657 -161863 -213477 -76409 -130203 -92485 -103725 -249595 -146043 -144923 -239751 -269277 -79783 -149333 -143397 -161115 -109441 -15241 -52887 -118347 -34529 -126247 -126107 -110091 -161649 57115 -70725 -79843 -123143 -84553 -193105 -160925 -266213 -197107 -204627 -59093 -122575 -102797 -133105 -149825 -143611 -125529 -238361 -344087 -199917 -94693 -234737 -195239 -253957 -160207 -59693 -95825 -173923 -193771 -113267 -161237 -144647 -71375 -71603 
channel   10 - height    5 : -63637 -86113 -112813 -197513 -221281 -287769 -94405 -47193 -171593 -210555 -268009 -100899 -206301 -239353 -256631 -246561 -141011 -150475 -202837 -228597 -179833 -158171 -130713 -144095 -148611 -283667 -218165 -155367 -141719 -182835 -87167 -137033 -234735 -52537 -111115 -137701 -29227 -165165 -228485 -122129 -130791 -247855 -210301 -183187 -134835 -8851 -47723 -170213 -132385 -74991 -119307 -203839 -224181 -203599 -228085 -177929 -199653 -236385 -173061 -42301 -169893 -176649 -89185 -67061 -150211 -200993 -166185 -200063 -184459 -78257 -126335 -149643 -152515 -64793 -162627 -159215 -93545 -127251 -70867 -247505 -135629 -94241 -182815 -281781 -314781 -247883 -230041 -135397 -114589 -127489 -92837 -108135 -156581 -155871 -126751 -209547 -106761 -135235 -221533 -258279 -225515 -149093 -104939 -151041 -215647 -170787 -139325 19777 -46965 -117923 -110653 -265843 -199949 -197993 -216301 -145071 -95173 -240133 -229377 -160651 -113643 -155791 -191303 -110419 -15761 -195581 -241935 -72455 
channel   11 - height    0 : 33208 82194 142212 262786 113520 223334 265310 218756 136858 204716 143262 168284 139112 139850 140582 151518 79118 94564 91576 89486 125324 152418 61500 116584 145986 106930 183450 172774 123834 32498 73636 162890 182470 196776 200892 141670 165152 117522 44558 28776 222000 150582 21608 123128 14988 111426 193688 149382 56884 164846 167538 185570 244296 165748 146590 161198 237118 69600 115782 145308 93812 129476 82474 117374 43912 199450 168360 172176 168768 198432 266544 112680 132412 59366 85166 101954 167124 114048 119548 166620 130184 178132 106738 112988 155940 34652 150372 210762 132220 91868 213542 125864 176496 59956 208836 168968 172048 126076 67750 93806 104626 93544 88902 127432 135530 80592 159622 148332 129738 131242 233782 116638 128796 141670 125840 67280 149376 199344 208112 179898 140774 218362 92688 183160 259660 70772 220432 153440 
channel   11 - height    1 : 8176 109470 5784 202644 142414 172702 89928 119068 124044 64076 216894 211146 96990 250878 179484 42960 10298 124830 107480 17474 77402 186900 67930 55676 233036 176786 168094 221250 230596 107344 147012 135008 128014 47262 147550 100296 87480 164102 231458 118874 262756 237928 108870 184422 132602 217538 40884 150424 248228 188216 184226 161332 156036 89204 76932 20374 175668 252030 43282 61242 136030 125624 34902 71916 16572 162220 95702 191732 135002 247220 187536 201148 269836 183834 208828 265796 125686 69740 234812 149068 237642 153308 235218 128262 96674 174258 152064 222042 216068 130634 129028 52066 197590 240848 136480 166760 153284 121574 194216 119424 197226 79946 122570 170208 246806 3544 50416 51692 94956 58440 195706 129546 220650 81884 44508 102700 196878 62692 29364 169700 182198 256486 145688 49338 177900 60022 163842 187596 
channel   11 - height    2 : 42640 190560 215576 130356 56922 68434 95314 126782 149022 195130 204018 113028 96706 141514 174498 102400 128796 -31754 104828 103982 165158 174640 217266 82612 75274 111212 214462 194988 233822 78816 79994 185150 169256 40654 114892 158086 261324 191872 239022 127562 124264 156748 145650 352772 88682 151264 202212 171208 117824 75744 138982 127876 173976 154108 81880 83718 152186 190692 70284 197648 53270 112892 56084 207688 72648 199058 81306 266466 155248 164154 119272 172578 156900 149174 191118 128654 134192 165164 185350 52414 210562 129734 161442 239626 205956 184378 77266 181164 263098 172188 93944 96908 158426 139556 94466 187828 214416 184380 92468 92230 200296 4654 203618 34204 255536 122318 112924 251198 180732 121830 100186 203838 255432 122900 89344 110550 170882 136652 3770 157626 137448 135728 236160 193196 209456 165214 124172 184814 
channel   11 - height    3 : 6512 87776 148208 275742 227276 161316 97810 79772 141576 60688 18108 195196 -31450 -38836 122454 6286 79938 205828 213208 112902 154406 62140 163610 17118 157784 196464 200258 181156 330686 123088 181900 175512 158352 204172 113964 91260 109770 147856 87172 110226 165466 205880 169854 279250 253744 87814 67418 105456 273090 177508 110256 69304 127204 112880 147690 65434 113882 234786 16384 77646 125856 194580 134896 125446 154554 105806 237546 191292 101174 97312 188430 263748 153366 41226 40096 212706 193170 74080 289342 208010 241912 159586 260858 178156 55020 239746 195966 86898 123636 141548 147224 81338 201182 206492 141298 83904 195664 -37122 73030 182768 142146 150620 219564 -14512 200574 136780 165570 190492 131776 144160 202906 225260 192604 186686 72428 152938 241594 240562 136306 115066 79588 72000 138882 144662 130918 202750 174892 206842 
channel   11 - height    4 : -270 80642 180970 261912 196480 178158 98070 70236 214862 218048 222750 200094 113306 168360 187226 188448 163450 169206 144502 103940 203592 161230 312262 176788 167422 190554 254248 51446 158876 84122 138422 172984 177208 200880 35108 18888 130936 137806 183028 186696 109026 247938 241952 79886 158064 183276 17136 150768 124594 86690 133676 127164 170812 176572 200164 284896 174064 223686 158636 157708 244448 184174 -4528 136030 217046 108038 224162 159138 163460 217494 134332 168628 145542 214258 132748 249064 144266 61732 160606 105156 141560 169118 256840 220968 218136 289534 210956 55144 21906 216500 201628 104130 195374 107858 136794 109648 134112 97104 202550 188802 197564 63562 194392 108276 172992 118044 -97338 3588 27552 122190 60220 111846 127634 109676 150226 66524 159054 147056 175782 173724 121362 110842 183300 196232 95882 139790 213004 283370 
channel   11 - height    5 : 59320 64304 69300 76476 150234 98844 178468 143108 90532 127282 155738 170030 215020 99602 137514 94470 88720 162150 204026 218818 237592 190786 204898 146748 97922 87038 117526 147510 190996 74300 200134 216032 182522 253094 209142 138996 136088 203528 99294 88150 97052 106256 165376 161148 136416 158900 105212 180342 216516 191500 112614 102562 179222 205920 151696 208954 200772 175360 90568 117886 104574 124642 144390 137456 92208 43024 168412 162698 138510 126014 99416 203258 222364 215416 87116 207326 173824 90242 151798 170108 202222 115686 179296 153930 87170 184396 172726 111950 116932 174808 241844 162152 121148 65592 115114 115886 182252 168770 175436 124576 119932 133168 267464 109320 155134 132426 100092 155492 115642 112486 108966 183590 168682 135450 232236 200610 155370 142238 117216 148056 171558 207908 184564 189298 161988 114154 157472 191336 
channel   12 - height    0 : -9439 -36435 -33857 -69817 -114135 -97215 -25965 -82425 -94249 -76947 -71849 56705 -77041 -91825 8123 -42245 -77887 -13523 -20915 -53181 58961 -44593 551 -107647 -140373 -37743 -57893 -89507 -32535 12839 -60499 1163 -61493 -39327 -149789 -30583 -41689 23517 -15391 -53177 -33183 -94917 -40239 -36375 -48659 -17689 849 -165799 -12303 -94613 -64015 29593 -29931 -113209 -100155 -33795 -283 -46899 -38209 -14233 -87801 -72821 -52057 -23165 -78381 -86935 -89679 -28381 -143667 -80727 -46809 -28313 -131925 9919 -31969 -37335 -72331 19819 -108729 -3589 -24903 -72323 -18219 -52451 -52661 -68555 -78797 -79275 -38141 -74667 -41387 14707 -124075 -22905 -43383 3743 -65697 -20749 -36547 -68431 -72445 34201 -65761 -102751 58413 -16931 -9297 -50387 -144665 -64751 -73785 -88951 -56847 -36941 23713 -168057 3285 -42713 1987 -124569 -16305 -32515 -39175 -16111 -98731 -56413 -105275 78475 
channel   12 - height    1 : -18815 -10247 125649 59197 121299 63061 -7453 12791 32873 85499 -7435 -27807 -34499 164861 -3291 24087 74787 -6589 -6411 21307 -28643 -15867 137439 23559 41427 -39933 -61875 -6261 57221 4879 -11637 -30497 135923 14603 1709 26579 11123 -68329 -25819 86169 -15379 -38311 -16757 28959 88959 25029 1977 99853 -10673 -877 86049 6221 -50125 135757 132759 -53155 -95879 63805 127341 67305 6781 -36955 111269 -56255 93489 -31809 84849 -47325 29441 55087 -19205 -45253 -37437 -10087 90621 -69409 -27905 21075 65637 111599 -57923 -21843 -53289 37771 63729 113421 -21363 -42497 58519 61711 14165 -176787 37633 94431 -8409 -51553 -16755 66667 -67849 -2593 -53015 74265 -18563 -23377 25805 7741 -51593 16425 139335 8189 -122473 -42309 53925 103621 18899 67653 67055 31381 27335 -9317 4349 -31843 5417 75365 61171 -13363 50903 21513 
channel   12 - height    2 : 17465 57449 -47167 -26639 -24027 80641 120267 67519 -8033 -527 62085 10199 116247 -9311 -96969 61811 8945 1931 37727 124135 20315 -8323 -45295 12671 27517 86811 -50761 106857 24955 63915 -17437 65721 61729 107335 26995 72141 20359 46185 62555 25083 45355 -46939 14675 59543 87869 -25125 19301 54391 -60479 203559 33107 65535 -72223 -21109 35287 109905 79039 40545 28633 -27053 18141 34445 -65311 16431 32821 114437 -58199 33375 99313 -38917 -969 164377 82581 50861 -16731 2077 96951 -2311 90841 -52465 -30687 141989 -51723 141325 -5249 -70413 37633 85471 16175 7129 -3353 46823 35695 29829 -29261 -39199 101169 4587 -7885 -12463 41867 -18089 64719 132725 -3059 -45191 18963 -101329 -71575 65501 145469 -58827 -15033 -76429 -18801 -9117 17985 18765 118599 20795 50867 38445 -12563 14511 -67025 16247 31851 -46169 
channel   12 - height    3 : 111581 -48213 74621 -86759 -40165 69375 -53301 82471 18159 12661 61423 36061 106427 28543 61679 11645 91959 37709 17231 -4863 30311 22449 33853 61967 -97285 -94037 74937 -14143 -69181 43503 34331 -8541 15689 -15801 132975 97651 -46375 21871 21481 -28909 -16539 63073 28699 -31269 -25579 80025 25649 -104411 115681 -75747 36669 -45129 18411 96469 -71995 -47963 40443 91807 9915 -49225 107665 59639 23793 42549 -76301 -37841 -27755 30277 -11487 77913 6791 -89901 79081 100831 63225 -40627 63521 78601 -67621 -87147 32035 -121711 10147 2191 40237 87557 85335 -18289 -51523 -54167 -48319 21361 -63997 -15893 43769 75315 70881 -24155 62699 87375 100871 61081 17493 45091 -34615 -5533 134773 71577 8687 -26275 -53991 4309 97657 9941 134677 38275 -57723 -49919 53227 85167 17983 -65877 107367 186429 -31761 -32909 22441 -49845 
channel   12 - height    4 : 60321 84753 -107595 70645 3421 32963 33649 -23887 -68829 -941 -102591 18577 -9383 20343 -18321 83585 61627 -92829 119773 -18441 -30361 -35673 -20881 -67355 62619 5967 3865 78247 101753 81271 45927 -27429 -10469 407 72541 -2305 79549 26689 119143 -18703 57921 -45439 50477 150149 -87875 -83629 33483 -63085 -98745 63197 54499 -95303 77053 -72907 733 113405 -16701 -34877 142139 105455 -26483 5663 94837 31069 31873 115549 -74051 38217 -10831 44609 30243 69489 -3677 -67243 108847 -48983 80143 -30955 2963 54519 42599 102839 -20275 3153 -51315 42099 51913 40717 56723 -65677 50139 111141 -139155 103157 -30937 485 -72353 127547 -67537 18199 27049 11045 9473 80231 115003 5849 -66467 -29937 56065 108193 44467 30971 -3709 37777 -39337 90679 102053 -11747 347 12351 -71207 28809 -491 42305 109991 67081 -47999 -17283 
channel   12 - height    5 : 66405 23209 79053 34683 51223 -16349 51375 31209 111353 -102799 125703 16119 -34645 81399 10431 421 63341 19063 -69141 27715 57507 79295 38135 18299 19797 45609 -29347 -22841 9615 -12721 10445 -1825 -54565 43851 -57791 31569 -85403 18789 -56791 55267 35529 -37695 48677 -46779 16271 47219 -4037 27461 18325 -67389 -55165 66625 50559 111949 8555 -13751 19339 30741 -51457 44827 -6597 21931 -88043 -2299 17927 25951 44985 92897 -17225 -1263 -44451 -56429 -9137 166615 -116893 8959 -24369 -1365 -54883 -47727 109897 24893 16061 83669 150509 -66637 -92531 -32243 59979 -18057 19667 -20667 43863 63913 35353 -18867 24191 -68279 115883 44045 -28701 -72965 25387 21561 -41937 4137 -989 -5277 -16189 -50073 16353 -32387 39649 55909 -27653 57955 -91329 80377 81003 -104023 -79 68513 -35949 -39647 -127507 18877 50711 -26585 
channel   13 - height    0 : 59713 2617 18109 32151 29521 14723 -519 180971 61615 171995 50761 -4539 150927 -46707 91859 89827 147433 -15659 70987 54983 40019 37897 -8665 111205 20021 26305 133181 31425 116075 108281 -31657 16781 -72593 132097 150635 39769 122079 93665 89545 88131 55075 107693 80865 131327 67745 31487 117607 79429 45249 33735 -41393 165887 32165 47251 119949 130431 147177 90745 153321 161455 56965 16053 77979 91673 -49055 70141 75147 79173 91583 -46935 77465 127575 75883 97143 156783 43391 -7835 80497 38135 106871 170591 51873 127739 9005 188039 69413 55685 123477 -971 101891 63369 76583 78643 111193 63755 64119 98903 160811 -7951 129367 62323 -41071 57055 90185 15955 67405 60405 63283 -25627 47875 32999 174903 91507 -33335 104491 8951 -75933 26167 35409 152549 64511 38479 2423 -17485 160107 52539 37851 135217 
channel   13 - height    1 : 53761 228397 263827 238867 227157 143621 321161 209187 261071 266421 83733 330071 112711 174821 262233 217481 199471 304599 228831 139563 282975 317993 166185 159855 88691 105329 224779 169865 363491 175699 234697 246039 263813 349363 103269 224693 200341 61015 115847 185511 261377 132585 38671 217445 183793 296925 314853 199053 309693 191751 271817 222875 259889 186881 78561 65999 140935 223765 195219 155893 244377 129817 204245 202107 194755 310373 267283 187733 276283 337769 201289 128571 154727 181865 184583 262639 271431 223781 223645 312283 151667 244487 154445 200073 322329 236449 347889 172201 198961 241401 274761 109369 168433 227475 305923 258889 249767 166351 195919 189611 102329 251853 203409 185027 286113 230559 236109 216119 251867 257607 233619 273927 185221 324167 306607 155129 322637 233699 204695 221627 115383 347273 198833 308513 277747 282985 182519 242441 
channel   13 - height    2 : 104767 146007 208375 265437 230103 233093 233363 137589 200101 120065 279909 187945 133159 377853 249619 130821 216605 196567 180413 216853 249831 115953 218265 218157 261831 221287 260947 260633 273635 218177 159147 237337 360847 275775 222235 174881 227783 229009 309503 364587 354355 213879 213041 261187 263639 231985 71455 276027 144695 189547 172561 329915 165817 249531 269283 208387 279289 289161 156851 207919 197941 146363 171553 156837 291561 274799 214385 211627 375529 313273 269607 372241 232691 303453 350313 337535 146631 331891 326543 185027 259535 322595 122495 220131 189279 210295 141839 123421 188751 207327 228565 184929 321763 168047 28421 218635 72505 300769 138591 143921 242853 220707 280043 339773 231585 146555 -25071 127101 316827 245395 292443 177297 251407 124809 106299 137427 178025 257953 258665 289351 291407 191151 191365 321339 340033 258041 153175 220607 
channel   13 - height    3 : 83427 188913 155137 35369 292279 224957 327043 255745 160503 245653 234243 208923 427671 231973 318755 216933 248257 219327 150939 337933 246799 256141 250549 185185 101409 324417 192399 252115 171017 205229 303577 296241 149153 109595 186005 252765 80253 201077 257451 264855 124843 177479 283797 326657 353963 220295 214605 296189 183379 243905 245511 187485 175585 278707 178887 98997 282941 258269 88537 184505 57423 206787 213885 199107 60731 185915 183969 295945 335755 166471 62581 235947 341487 211391 174415 178039 203187 182017 113943 185845 174873 137575 184837 363055 252653 325007 268361 202975 248231 200721 31475 63371 202089 109901 307073 232625 256249 324819 243299 299103 238861 248343 258773 208369 340667 244589 310219 284759 131777 99173 230759 334891 181707 308247 259801 206873 180267 217679 151901 292975 311271 106151 320323 205357 159423 243905 247063 269637 
channel   13 - height    4 : 122445 211535 157791 319855 130137 214999 171871 74103 113207 211193 57507 247863 58163 109175 235699 175779 233519 195169 142467 246797 225931 132851 233863 132641 195853 166669 179665 283649 290649 361003 221923 151095 291249 217399 286043 254559 386871 265071 253383 237025 66317 170731 312591 220981 107265 143801 150427 135697 276877 164423 216795 47475 164865 205817 183807 245757 244143 172989 332921 156115 181679 226863 193957 113361 263143 149149 310221 172553 244055 121989 293383 156595 140347 170159 288039 282415 287871 282275 191827 241973 262227 289839 232881 69849 264683 307955 195979 256503 232765 286521 217275 278107 234959 177773 196289 163125 199583 141741 176283 139829 266123 328513 85847 301843 192839 161393 266591 169499 215015 175873 174841 219659 236451 166475 187201 199523 439411 142499 146079 238799 109671 185709 375381 336257 270091 103553 158183 213539 
channel   13 - height    5 : 74291 103419 240623 197863 226735 180827 59215 167625 240275 106531 216455 83877 88813 174509 152459 264903 155341 34661 151215 154087 134311 225635 205559 179961 233623 254757 202741 205361 123117 164147 64871 83939 74941 88643 114043 42015 104683 130483 157091 98819 205215 287571 174201 154343 172097 126999 50841 169769 27861 134593 160315 122281 219647 229383 73867 202405 92413 151833 112217 149217 198141 112097 93857 199999 113329 217725 174439 214125 79209 168297 105999 179711 193447 185247 107559 62133 55981 105935 81865 139151 135381 205129 241321 194685 231703 134237 210211 134961 168289 133121 116657 214521 89983 191381 184443 194713 128741 232401 156915 133353 158589 21267 80057 158485 121719 251645 43121 93853 143545 203157 200597 187657 103295 114719 105005 176557 105767 125881 279179 157257 93505 128359 79071 128279 115555 213487 318449 165617 
channel   14 - height    0 : 11421 -36651 -91391 -49925 -42249 -30751 66927 -71751 -62187 -45009 39927 -12215 60527 -114543 58761 11967 -105237 -25781 -64557 -35961 -2667 -28811 -89533 -10159 -68655 10849 497 -18181 42615 26963 -117927 5205 -76033 -48177 -125899 74163 -1595 55463 -14727 -15021 4643 17299 71617 6053 27413 -55881 21005 -169263 117179 -52617 -52461 12183 8075 -40199 -65561 5059 35597 76737 -90003 44147 -44183 -23151 -35777 30507 -93717 -87955 -81167 -102863 -16053 -42777 -66295 88819 -95029 94847 -15741 -41281 -14889 56715 -109189 -81941 37931 -37457 19369 -3889 11099 -85581 -100341 -15429 39285 20219 -70005 -29259 -39343 -30325 -70353 43529 -90329 61879 -54015 -43207 -19143 17485 -58319 26517 -33227 -29331 -78803 -98483 -113909 -65549 -121741 -13565 -51627 -47319 19483 -75491 -45259 -8807 -47765 -103317 24503 -41625 -303 -78131 -145395 52753 -181569 51351 
channel   14 - height    1 : -30731 -118605 136667 -68159 97245 -187621 21383 55865 -90155 111243 -123527 51293 5373 -83213 2573 -331 2677 -108331 27525 -99151 15277 19923 137783 -81811 -107049 -30427 -122475 47801 40135 26741 -62541 -6041 26361 -31233 33551 -6585 58981 -21637 -96209 97037 -102649 -19115 -15819 -112141 188609 -115305 -53749 163709 -95449 -14625 -499 -47795 -29923 106829 -38873 -91611 -69773 168743 41129 -7671 51307 -120057 108965 -109655 -56831 -118539 31259 -107173 46767 -53639 -26381 -56395 -23123 120671 -93075 -136821 45175 42069 -136109 19077 25445 -74853 -85667 109855 65455 124385 -126315 -17247 41875 104227 -46893 -124869 -43727 54323 -11763 49383 -37311 68737 -49931 30533 -21279 -10713 -12387 -75773 -3003 20083 -28901 -1085 -1071 -34269 -175999 109525 -47547 14025 208371 -107175 -135885 107121 6771 -68295 -83201 -42885 58547 -8399 -58523 114131 -138159 66963 
channel   14 - height    2 : -63889 22095 -69685 -30967 138803 -18857 110317 -97377 -47217 -42321 -5223 -50149 -3341 -129111 -47921 67917 -44625 10887 -69235 102673 -59813 -92517 -55349 -68853 -22845 -5769 -65241 79401 -16091 131593 -95805 -32371 40201 87787 34075 82043 -95297 -6805 -86611 43781 32853 -165867 90139 -14791 41611 -12187 -115467 -49793 -17231 47597 -121911 96077 -48921 -19757 71037 -17877 -25561 1601 53097 -43665 22387 -73023 124893 -112419 64243 13609 -19651 -17669 45829 691 -96825 104967 15073 35913 -72317 -5899 97005 -110757 -8695 11381 -63219 169515 -125991 28845 7081 -52301 -18489 -83185 19159 -10391 21997 -115333 11411 57753 -78665 -24721 -55103 46107 -102097 -82851 43871 49545 -55021 109813 -50511 -41669 -146281 -112691 12735 73037 -52295 2257 -56195 48473 -46315 -90527 80631 75241 -24471 -59897 47197 -23625 -14601 32687 -153275 174811 -176069 62813 
channel   14 - height    3 : 8565 -146697 50651 -101215 -82905 150723 -93617 20047 -81567 67149 62095 -13533 142665 -22195 -2643 122339 23811 -37121 -21597 23841 51463 -22631 5585 78403 -151513 -81067 -47329 136253 -133151 56537 -9629 -38783 163881 -62575 34945 -21413 -97753 -69535 -53223 69271 27163 -108359 4519 -65135 103991 -10713 -103745 30359 -24027 -59217 -35391 4645 39185 60559 9189 -113633 51739 91299 15283 -55661 24259 13387 8349 -85121 -43407 -56375 28537 -81395 124279 5939 -17857 -107333 117471 97189 -23893 -78403 -85145 110119 -172651 -65785 -25883 -79749 -42781 25785 69741 35849 -24711 -2217 -87655 -96453 43587 -91693 -6647 -34509 -69033 41471 -68789 172661 -8871 6837 17161 84439 -150957 86639 -71757 28597 69427 -89525 15933 -111273 -108685 112829 78693 -69453 17133 48975 -110625 6741 23989 53577 27083 -141949 60679 12531 -71119 -69209 96937 21097 
channel   14 - height    4 : -25651 47743 -182167 -63549 12565 100819 -116859 10083 -127521 -28271 22697 -99487 107261 24221 -30383 63075 -126345 -4249 -17029 55005 -97899 51029 -117681 -16163 -44215 -10087 -124701 95751 -161875 160071 -39203 -125343 66883 -33767 89777 -14439 -55487 50341 3687 -87625 14961 -179483 -11765 60521 -83173 -104423 -55641 -82165 -24565 61069 68617 -202007 29791 6007 -48363 -11137 68707 -39179 122481 -98039 -121309 25609 56535 -72613 -83491 15015 -183335 31441 67617 -137237 25469 24183 -75855 -64463 36829 -96175 93745 19041 -124201 132755 -67655 19449 -387 -91105 -53757 33379 68517 -31323 -18865 -178095 -36313 118597 -106669 71355 -69209 -59011 -14935 48419 -171873 50655 -96661 134001 -45507 66903 -21955 -39267 9391 -75783 -25019 84361 -157481 30675 76369 44927 9295 3877 -10729 -42699 18167 -55251 -67219 -58587 33517 46205 16665 -36697 -60407 -49781 
channel   14 - height    5 : -27483 -69309 -51651 -66323 -7973 89357 -67479 -49397 -18921 -77155 45453 -101383 -15915 16191 -75615 29385 10215 -53969 -53797 -71773 -39643 -32829 -55981 4337 -79541 -6481 17571 24437 -119201 90163 -90807 -41331 -63539 -97967 45285 -62951 -93289 -16377 -1557 7209 -43639 6691 -18553 15227 -47605 -18505 -13971 -49429 -42473 -82113 -42481 35795 -57431 65413 -118743 -34389 1233 -3729 8623 -60025 -12897 17765 -2701 -156309 38419 16867 -80239 36365 -59307 -96007 -36655 -113903 -55897 -12813 -97251 -49789 -18551 -38641 -135793 5093 -18597 10235 -40033 -63469 97421 -120687 -5117 7013 -1187 -77439 -63119 42575 -79541 3085 1543 -8021 -64659 -79125 -13295 -17535 -3073 -65763 -59201 51097 -76203 97221 69289 -99953 31033 -59603 -19441 26969 6105 -33839 -15451 40553 -80591 -21901 43773 -10505 -109473 -12301 -83291 -24531 -109589 -81519 16297 -18387 
channel   15 - height    0 : 113168 6814 140410 20064 59486 33314 77952 -53780 79222 59374 84890 25632 93928 54280 88736 -110944 -6848 59878 47254 -73026 23582 4840 13750 43882 155528 83738 52584 142872 67824 -26026 -852 49210 31238 55160 42918 56210 186150 60144 35928 111830 45056 151100 121492 57322 142042 -110284 67472 54396 14534 104580 87242 60106 1162 49540 -782 92334 85142 107724 -7666 21192 96348 43000 97794 15062 64134  62 66126 15164 60070 10778 93634 47750 88448 133222 -51262 67468 110478 115808 25068 5354 84332 -6868 128374 67918 9858 13758 2982 146546 -3822 116810 22480 163124 34422 6992 76796 65654 39100 -1286 16524 98808 56422 90010 90538 33832 -9296 67000 63482 -23860 80850 69390 -81872 79200 -49498 110670 37328 -30748 35190 81002 6996 43118 99756 -27128 74394 -124026 -22924 79560 29238 37570 
channel   15 - height    1 : 49652 6710 72380 332 110750 -52004 101278 -25826 81932 80104 67988 20900 -48368 -38690 86564 89852 14378 42592 64146 125348 12906 72834 21924 -52636 -47438 -42478 74360 19054 121590 52058 19850 82858 -112244 18954 93148 67540 15260 65360 23962 30364 -94372 -9892 173424 -39714 172008 -904 89458 52908 110460 -89122 100472 -38010 10238 18180 -82486 10052 91648 51662 36878 5540 -29814 125796 37840 -2946 98858 8802 76574 -11260 84818 -44048 -6816 82166 40384 85616 -135464 4084 70672 81736 -7090 99506 9374 2720 64732 88658 116246 10338 8236 48594 82972 16228 -131276 103878 179218 -35002 140838 70730 148564 16786 -51450 88446 -24632 73046 4952 86130 32174 89182 63598 38646 26454 92108 49430 109672 -90312 83608 81676 44812 51818 81584 84102 49702 -21574 -42576 75878 33774 -12978 173048 11834 50238 
channel   15 - height    2 : 137938 64688 76430 -23124 92104 15664 72800 -31960 -13716 29070 -83496 57014 23398 -15160 58592 123962 -19098 102612 57524 140798 49142 19916 31040 2934 110078 19988 127234 155804 -10776 69120 101136 117352 100480 42256 82128 75692 -16394 -35696 55756 184160 -6576 1276 237402 -32314 75942 -37964 438 38916 -14020 72210 -39438 78492 39864 100098 83584 -19638 33242 -7914 113330 46896 -3838 61000 103338 5636 124074 -26406 161908 12172 80070 -4646 103610 67738 115324 152458 -55360 163212 1038 100822 9324 160472 104710 19046 74116 35186 50192 25062 -35188 7224 -85446 68254 47414 48130 190882 -24814 -3072 58568 -92418 -49502 -69616 64072 53022 105206 -83208 151086 -91424 66510 5998 -56974 19714 -45560 98756 127608 -5754 7910 -17894 53324 71112 48050 -19890 32114 133964 124432 134366 -5960 7858 -28134 2170 19642 
channel   15 - height    3 : 10178 41992 65856 -52138 192350 -68926 38500 97118 -30410 165452 130752 69878 153062 15272 135880 144436 49554 114136 -10404 229766 36660 201528 14078 88298 10926 117824 9694 116652 -38232 83156 -38502 96764 167788 85406 -28932 -23340 81454 93792 -90464 126346 74086 -20020 97960 23440 140550 90694 -20882 144264 -33654 157802 81948 73720 142884 66168 103850 206890 145432 -62870 -8430 64392 -21164 -62710 -41924 23974 14946 56388 9164 -23540 27942 22608 109204 -49606 34464 107022 -24024 19750 -2858 53984 -65628 91902 -72496 112102 23900 14086 102410 60734 -49910 -14844 -30234 -72334 45140 -36072 29144 -654 8308 4094 52502 122878 168142 47256 38196 166850 -13140 129764 370 66686 102068 54112 104258 -3798 -56058 146506 55448 94042 118184 103506 116342 124606 85758 -26560 18174 85572 156920 -31506 -24860 12616 18124 64648 
channel   15 - height    4 : 46828 -31182 3352 -46594 676 60318 -117824 78336 -18054 84332 -55388 79812 104806 25752 20070 118128 -52852 122610 44628 7032 53310 96306 -40574 -69382 -107882 -39350 -550 29600 -52810 168670 40524 133338 95468 65406 139112 -63888 72900 164874 52582 1384 28664 106 -26170 17790 -38290 -36884 64810 -11902 121140 45950 -10318 74946 55122 23446 30694 -11762 127328 66514 41948 -64394 69352 -10442 79188 -85240 101928 -103732 68134 83580 53522 -100442 92010 -3674 25034 -8202 96270 -12850 70906 53600 66366 109296 -33500 -28118 17796 -6792 39536 25992 49790 130788 5370 12524 30980 -23670 27240 -31978 -8070 15130 75264 12118 40466 171794 35232 171292 8598 99642 -68298 21902 38152 -47616 118314 -48876 37960 43032 80128 93036 176932 -45264 -38082 19964 155210 -3976 33416 100348 102642 36860 81674 68896 34948 -25650 
channel   15 - height    5 : 39708 -102208 -25046 -27280 -33548 69372 -99680 -26680 -124100 -22344 -1914 -123134 -5780 32602 -142636 -9100 -13526 -54226 9902 -113572 -152190 -73658 -112810 -3120 -28240 -58292 -51762 32842 -112250 24800 -144496 -34890 -45212 -144440 56358 -74084 -49090 -73544 -68664 -30068 -84118 3828 -64694 -114008 -93122 -89348 -15988 -47366 -105652 -50632 -111832 1628 -43426 -65020 -91820 -49958 -34680 -16048 -21590 -44230 20596 -46646 -25036 -95208 -33914 31018 -164788 22284 -98036 -41292 -16916 -55866 -57390 -132968 -11632 -71480 -14502 -143462 -75348 20122 -66072 -76932 -66200 -32816 10936 -78486 -69924 -4044 -47606 -56646 -56570 -41266 -88054 59562 -67204 3340 -63206 -7964 -109950 -41104 -114246 -14872 -23264 37274 -159180 17494 -71080 -50000 14716 -73742 -34060 -43040 -34314 -74106 -69596 -18476 -106422 -50014 -75204 -112866 -29042 -53302 -3262 -126428 -52054 -47466 -112146 -20556 
channel   16 - height    0 : 83491 103355 116643 78079 211903 100981 41365 126041 168051 248699 124345 132963 76663 203367 118987 66085 133163 106967 246361 187901 94389 95019 138399 93321 165277 218581 147175 112301 207493 119017 167121 137547 55039 138237 211617 104581 82227 105775 183075 209277 55683 109055 181969 99121 221179 154047 34727 243519 192717 30507 220159 175963 56635 103315 146821 138945 94155 126025 159837 70823 79311 135701 137919 126831 178641 146751 203635 232011 222429 134211 174727 158353 166755 231021 174877 145761 121813 115957 185769 255173 115727 155349 182433 140803 124013 175797 188227 222551 173713 54675 74351 147911 216665 176593 105861 94505 222017 113865 106185 175873 137659 141055 179431 148383 124883 37955 107753 132411 192065 196531 188271 245167 203287 109269 129645 137787 159565 40699 85195 238841 159383 149619 166565 112687 136399 120585 158193 159511 
channel   16 - height    1 : 114343 214863 80815 52053 107835 80217 114105 78875 141005 115313 64435 243951 101011 110907 30755 179287 80535 123509 117619 196557 126311 127609 183523 195623 152367 140273 140381 118761 82459 95809 196055 127669 151431 99371 75203 184569 25357 106473 249899 123879 139767 134487 251501 181559 -10535 187127 173303 143181 142285 97581 111731 57777 132919 129809 78635 83795 74847 80623 156195 56115 82817 190259 91097 136337 127611 267653 147247 178181 175391 162811 87705 162599 168933 141457 121709 188017 167605 90011 189151 93975 38077 249945 116955 142489 83649 99657 221167 121123 161311 8321 56329 99969 208485 97687 9303 126715 216073 162761 201841 91589 210955 125467 158575 232101 117109 161551 224385 249935 104649 88171 290157 222053 205143 29117 57787 191887 154535 -2287 96989 152631 177827 193527 68571 246315 119497 142221 152427 84311 
channel   16 - height    2 : 103907 107043 130203 200367 101917 110997 92805 212447 86745 121053 129241 49243 71371 58731 163785 131117 171689 113645 94195 77249 121551 98755 104905 182091 112641 215605 104839 217447 152663 122195 40255 45647 247379 108725 76569 79281 113479 149397 52597 68579 186991 251613 155397 133957 54777 113199 159611 180669 56653 189795 33853 47947 129701 103339 135009 220243 127113 105907 -8905 141819 162461 102203 63809 129093 146413 162781 117507 154321 149087 137585 223717 145777 47399 21109 133889 250431 99575 102181 140129 83777 205979 160257 80713 148111 36449 158949 176035 110933 93075 27863 216407 170913 145291 155433 28353 198933 95983 99667 155063 116777 207653 102241 173215 113925 66025 194471 215395 226095 118487 120801 157687 139521 162709 82961 120327 141809 84805 184725 123645 -27351 151885 99505 86663 205397 240473 110497 131995 54035 
channel   16 - height    3 : 43279 152845 68731 230183 149223 120003 48313 196883 210317 139927 24607 119145 151709 144371 147331 138865 60605 144597 113073 37723 115301 207869 227053 141037 101473 354363 149129 76751 153551 160655 48307 103917 55725 155549 103763 -17685 96763 268895 157195 114673 194201 225661 121477 58773 -16343 201689 187231 40297 140769 81599 234869 124589 153159 86519 82625 161803 211073 155797 101063 134123 168045 44147 84275 5335 175195 81601 114551 199261 114867 126731 169207 194285 46881 30417 252343 27583 180171 40637 160009 197009 167589 133915 152197 244995 82069 188747 187743 69545 155787 256783 232331 185629 73613 191255 279209 94827 109237 69491 111971 277203 85517 5983 171249 112245 196065 95529 26957 174071 112805 221429 154141 74717 39757 179093 111385 -16237 132529 144251 181541 123697 123033 86693 148765 170549 149285 193353 65951 92005 
channel   16 - height    4 : 113531 19627 153497 242805 10925 137893 86311 90521 206441 54817 114981 127145 84253 162823 -16641 76695 135617 111415 235079 56789 178451 146807 251219 188777 195035 106965 149851 165693 120385 57017 96237 236191 84723 102467 182337 89799 157537 157553 174303 157653 85041 192121 172683 139753 109191 200077 170545 86565 237151 135677 63017 162193 126559 205015 108205 109223 71081 67393 79353 69425 118567 72221 160601 44259 234195 81535 99501 169829 94685 163859 138285 169697 98725 209405 183143 50001 202271 90671 205281 140297 236997 97401 119443 69497 179587 57301 66953 132551 207951 338941 229507 126711 75151 184901 103695 141973 159101 155669 79065 63441 151595 60567 165343 199973 56553 158253 41813 224833 196535 154219 197839 70651 126139 94481 134797 213631 131065 69197 85557 193441 170951 243391 127227 115995 175611 150171 174893 159075 
channel   16 - height    5 : 16439 14469 45245 62273 -11031 3409 41167 62067 58237 -22713 130209 -49693 33701 -1069 -831 3461 30499 -16755 68029 125557 64257 49925 -24655 34155 75741 79159 6123 46139 134389 21453 74575 87845 75845 969 -43471 135119 26939 101171 108045 -16305 43533 60559 86795 96069 152203 57367 4545 154939 61373 90153 26637 30769 71961 26055 33341 28841 -27257 -7215 -19771 -27573 48709 2023 25871 137007 3315 100495 73095 40729 4067 61521 -6313 89161 111061 86893 12099 57431 93379 65715 48395 49865 58691 4279 13435 84455 -7739 -14325 64051 -5507 116897 84513 49709 65261 15493 38665 -22803 75517 19725 129343 79063 26961 51331 -38763 48883 -6815 95041 49953 39861 83023 31555 104091 39089 110213 61459 50875 -58583 86185 32373 133925 11075 50557 102183 80419 23929 23165 28051 126635 116397 -19837 
channel   17 - height    0 : 74885 -101341 -110471 -61219 -93303 -126707 -6343 -103119 -138645 -86995 -73839 22819 9269 -42125 -49819 -98233 -110793 -83943 42575 -97033 461 -17975 -68415 -89607 -2049 -4867 -36445 -57461 -9079 -104731 32993 16495 -112157 -112143 -102195 -141793 -50949 1651 17043 -8619 -28527 -1021 -4293 -71681 118153 -112175 -113533 -19247 -38819 -37437 65045 -116551 -134963 -22059 -155999 -107383 8733 -34727 -109299 -122041 -96133 6371 -79753 -78761 13741 -127763 -46015 -169595 -50433 -48975 -14057 -5001 -15899 104171 -64015 -15529 -12999 -9245 -61179 -72067 -104189 13523 -52711 -25989 -41911 -146799 -43481 -14325 8879 -67739 -114477 -89069 14859 -187269 -42227 -67475 -18467 -98667 -11963 32759 -75339 62351 -12151 46625 10489 -191455 -73341 -147787 -84523 -119227 18065 -66389 -98899 -98931 -20939 -43033 2225 -146567 -3407 -80803 -107273 34831 -12191 -66565 -89173 -121181 -53329 -79263 
channel   17 - height    1 : 61805 108301 134851 -489 95149 52099 140347 -2905 138503 79543 188561 102097 64567 132409 53023 75265 -23983 71009 -38813 45087 64375 67763 128009 49313 123345 52627 183507 127477 -80035 109931 81901 117709 15093 -73445 144645 251375 73639 91055 91849 44363 56279 -12453 182643 80011 47621 37963 123855 38275 108057 59025 -4027 51887 102655 135923 72437 95143 133471 147567 101835 216499 169887 97581 112089 106061 2403 62381 -8345 167449 17053 121915 -15581 88183 68951 107973 -20159 21253 43281 79947 -66447 -50221 130231 -42999 50213 153143 130857 169585 -19557 109185 79715 172167 -29039 51439 7695 39851 44873 113249 16873 75141 88913 31365 126871 23419 -11649 56001 60605 14391 67357 34309 128131 -26251 57037 27089 121155 109277 237651 51589 10501 56097 80445 -19243 102807 52095 91683 36125 -22807 128167 15739 30603 
channel   17 - height    2 : 86981 2475 96709 -417 217801 -48461 108105 56433 -44563 224953 41305 -75581 109175 -73229 46797 11851 112029 -51599 159909 125003 20419 -12217 -46151 -30137 79895 105035 41017 188611 214857 106729 -7583 23869 90845 45121 147477 91213 90801 -15821 -108001 69917 23121 -8055 105523 112225 117903 -82995 40249 96735 56679 101373 78129 86573 90813 -47659 74845 115641 26055 73295 -60107 125121 -99039 -577 20107 127913 -72255 129397 89203 129547 -17103 59785 149669 50681 111161 22745 64753 90661 78287 101679 81209 95527 153823 103403 120859 112179 50953 94423 -67087 177933 112095 16385 145713 55371 115195 131795 34515 144019 30241 83023 104075 50979 122351 146181 45659 57031 130827 46817 53345 -13623 94843 122603 -4781 246649 77063 51649 25829 133305 124127 158547 -29027 9635 60615 40873 147361 -91909 -45013 144603 10705 49193 
channel   17 - height    3 : 32995 98797 137711 78607 31657 49921 -91659 80221 72685 115855 33329 213921 15805 100789 199761 181049 17441 142743 -63899 39853 33497 117893 125281 61725 76207 61957 31009 -7981 -6509 57343 37661 8993 45477 80335 -39335 36245 -11711 27447 72805 187767 221303 66111 83153 -28109 79817 8999 17225 54173 67973 -33083 -10953 27437 151077 57069 43147 -69999 9721 137983 157757 32827 240453 147619 56059 89733 151339 31387 173901 -15889 148295 60111 114591 45985 84713 188685 57643 35801 94065 69987 87349 54001 -10003 34629 78475 39025 119645 144101 25767 42771 17485 31869 80927 44047 101007 134483 47599 -48471 196823 -75 141815 132395 -20467 104141 -13243 105007 81687 50603 54071 -21199 56615 128487 54605 73629 44091 69171 59727 -29223 -44097 11183 181195 47085 12119 90961 122471 46885 28303 245369 151663 88423 
channel   17 - height    4 : 111279 4473 38771 -55505 50929 166943 89679 59727 -13273 34463 109477 -70599 46993 129549 -98179 96887 -39005 -27247 175661 56483 97909 66831 -48229 66371 74177 -37669 197083 183389 31389 178329 97311 56697 111559 85499 104955 25471 88331 -43553 -5299 79807 15741 94153 27917 130223 195943 88557 19683 120919 117837 124285 -19687 95293 81553 58487 58847 119953 7157 71907 76411 -33721 -23765 -4785 74025 27057 19389 29093 -38153 43603 15633 144435 91531 140397 164209 48195 -73291 164383 6701 -105 58579 133517 121455 116775 61635 -17859 86173 13131 80763 60333 -30197 -35323 156369 49041 114983 87365 -28715 118813 118541 45453 -71123 -69803 7593 123973 142239 81685 -17513 209847 21217 158413 97377 81845 10607 82125 223371 -19965 141699 79083 11939 80085 36959 3603 65961 125507 -15729 95675 31997 43089 64615 4703 
channel   17 - height    5 : -47479 19701 -21269 38827 93275 99959 -1663 40013 3401 78833 86067 34665 73405 7667 99269 80993 46013 39055 -28081 11245 27047 102167 45197 81557 3055 87599 46301 67815 -31875 57167 52801 -1175 20063 43427 34927 5627 -18219 103975 56593 89883 127827 3453 52279 67433 26053 59129 100635 29035 -24105 82285 82891 69661 41103 47689 82601 40639 110649 37561 12013 25043 -19207 -39717 8627 -88327 -67543 74789 3729 59911 71703 -19921 -36077 -30949 -18447 -46029 57931 -373 78731 5723 35637 26359 16733 51661 44473 41131 18173 74299 60369 -15689 22197 -42801 37449 86057 -36943 67155 56515 35341 -74153 74823 20979 144529 71167 81119 38537 -6949 32435 73169 108989 -2235 29809 -28127 25097 62583 6277 79245 -4313 75297 -11087 90543 92381 69227 69463 -13723 78151 36121 -12975 -39935 -43275 91255 
