058 -09 -85 011 021 118 -64 048 106 040 042 017 -01 -68 -71 099 -128 -73 -125 -17 030 116 -107 124 055 -19 -120 -09 096 049 021 084 000 000 000 000 000 000 000 000 000 000 000 000 000 000 000 000 000 000 000 000 000 000 000 000 000 000 000 000 000 000 000 000 
063 -71 097 -89 -53 -07 115 -54 093 -29 033 -50 -93 -61 -16 107 117 -72 -34 040 067 -27 053 -111 -103 065 -99 -70 -102 -56 016 -61 000 000 000 000 000 000 000 000 000 000 000 000 000 000 000 000 000 000 000 000 000 000 000 000 000 000 000 000 000 000 000 000 
101 -33 062 102 -98 059 034 055 -46 030 -94 017 089 -84 017 106 -123 000 025 078 -102 -15 -102 -118 -124 -90 -71 -104 -113 028 115 -104 000 000 000 000 000 000 000 000 000 000 000 000 000 000 000 000 000 000 000 000 000 000 000 000 000 000 000 000 000 000 000 000 
-114 -06 -101 -42 004 076 119 034 -38 -125 039 078 075 -08 -72 088 -06 -53 -32 111 -43 001 108 019 -54 -121 -14 068 031 -47 025 024 000 000 000 000 000 000 000 000 000 000 000 000 000 000 000 000 000 000 000 000 000 000 000 000 000 000 000 000 000 000 000 000 
077 -51 051 001 077 -12 004 010 -122 -109 -84 111 -36 -32 -24 105 -78 -30 119 -68 -73 -65 -103 036 018 050 014 -124 023 095 010 -123 000 000 000 000 000 000 000 000 000 000 000 000 000 000 000 000 000 000 000 000 000 000 000 000 000 000 000 000 000 000 000 000 
060 031 -79 037 -40 -124 -10 -01 -115 -82 021 051 032 018 -24 065 -56 036 113 -47 -54 -95 -98 121 014 066 072 126 -05 -44 -84 -28 000 000 000 000 000 000 000 000 000 000 000 000 000 000 000 000 000 000 000 000 000 000 000 000 000 000 000 000 000 000 000 000 
045 086 -72 -105 -94 079 -26 -76 -93 012 024 -50 086 -52 -49 073 -47 122 -88 -89 062 072 078 106 -15 061 100 -127 103 -80 -125 -47 000 000 000 000 000 000 000 000 000 000 000 000 000 000 000 000 000 000 000 000 000 000 000 000 000 000 000 000 000 000 000 000 
-117 -18 -54 -109 -38 -44 -81 -30 -30 -33 087 052 -104 022 -35 021 -72 014 -76 -74 -48 089 -05 033 077 -72 -99 123 -80 072 -119 070 000 000 000 000 000 000 000 000 000 000 000 000 000 000 000 000 000 000 000 000 000 000 000 000 000 000 000 000 000 000 000 000 
112 -65 -92 081 096 047 091 020 009 106 -24 030 040 -48 -111 003 034 034 -111 -67 067 -30 123 022 -85 -92 -41 107 -123 094 064 -127 000 000 000 000 000 000 000 000 000 000 000 000 000 000 000 000 000 000 000 000 000 000 000 000 000 000 000 000 000 000 000 000 
-106 -64 050 -118 103 027 000 -39 -107 096 057 -58 -90 -85 059 -57 -29 018 075 -51 -01 -78 -117 -45 -38 -46 -84 091 047 -126 -67 -95 000 000 000 000 000 000 000 000 000 000 000 000 000 000 000 000 000 000 000 000 000 000 000 000 000 000 000 000 000 000 000 000 
-77 -118 010 -99 087 071 -54 059 -88 125 118 -72 -64 024 -98 044 -77 -42 -98 098 046 117 112 101 047 -84 -23 073 -97 110 026 027 000 000 000 000 000 000 000 000 000 000 000 000 000 000 000 000 000 000 000 000 000 000 000 000 000 000 000 000 000 000 000 000 
038 -92 -50 060 -68 -114 077 079 042 065 069 -38 049 065 010 -102 -98 -11 -27 012 101 -101 068 -114 031 030 013 036 -30 -06 113 070 000 000 000 000 000 000 000 000 000 000 000 000 000 000 000 000 000 000 000 000 000 000 000 000 000 000 000 000 000 000 000 000 
-30 079 -96 037 081 -42 002 084 -54 -126 -79 -107 101 -23 -03 073 -32 031 -45 -47 -19 -116 -34 -87 052 107 -09 043 090 -94 -117 029 000 000 000 000 000 000 000 000 000 000 000 000 000 000 000 000 000 000 000 000 000 000 000 000 000 000 000 000 000 000 000 000 
090 -01 106 -82 -01 -68 -38 054 117 -53 -110 -109 075 -61 -111 -97 -107 108 -127 -83 091 064 066 110 091 -113 099 -21 -62 066 115 096 000 000 000 000 000 000 000 000 000 000 000 000 000 000 000 000 000 000 000 000 000 000 000 000 000 000 000 000 000 000 000 000 
008 112 -04 -68 -123 -76 048 -68 109 026 123 061 -14 -31 -33 -123 -32 008 105 -122 014 -86 -03 -128 -123 062 -121 -103 -76 -93 -111 -37 000 000 000 000 000 000 000 000 000 000 000 000 000 000 000 000 000 000 000 000 000 000 000 000 000 000 000 000 000 000 000 000 
-82 -55 -20 -24 094 -107 -21 009 086 -09 032 108 -22 -102 -102 -48 059 -96 -51 -16 -03 048 040 126 -10 083 -92 054 -13 107 081 048 000 000 000 000 000 000 000 000 000 000 000 000 000 000 000 000 000 000 000 000 000 000 000 000 000 000 000 000 000 000 000 000 
058 059 050 -46 039 -123 -83 076 -83 -84 -48 041 092 117 104 112 -121 051 -50 -34 -87 -85 -07 -50 -92 073 -91 -30 -64 -107 099 -111 000 000 000 000 000 000 000 000 000 000 000 000 000 000 000 000 000 000 000 000 000 000 000 000 000 000 000 000 000 000 000 000 
119 113 090 094 -22 -84 017 -18 059 041 -25 105 051 075 000 015 -103 -54 -56 039 000 079 -77 -109 -46 -94 015 102 110 081 -23 -106 000 000 000 000 000 000 000 000 000 000 000 000 000 000 000 000 000 000 000 000 000 000 000 000 000 000 000 000 000 000 000 000 
-101 -68 005 -62 -05 -109 -54 005 -31 -93 -65 104 083 -105 090 -106 117 095 -109 -83 -10 -63 051 -76 -83 008 -90 011 045 022 023 039 000 000 000 000 000 000 000 000 000 000 000 000 000 000 000 000 000 000 000 000 000 000 000 000 000 000 000 000 000 000 000 000 
-112 -90 -118 071 -14 -83 -90 -51 026 034 117 -76 049 -115 092 090 -103 121 059 116 -77 120 -120 -34 -86 -94 032 -26 036 -39 075 067 000 000 000 000 000 000 000 000 000 000 000 000 000 000 000 000 000 000 000 000 000 000 000 000 000 000 000 000 000 000 000 000 
-36 -40 -105 -88 070 -56 098 -70 -93 -95 -102 123 -121 078 -104 -114 -102 047 -09 037 052 -95 -118 004 073 048 081 -83 018 113 086 -92 000 000 000 000 000 000 000 000 000 000 000 000 000 000 000 000 000 000 000 000 000 000 000 000 000 000 000 000 000 000 000 000 
-10 -26 -38 -85 -32 077 043 -103 -91 -68 -106 -51 -35 -112 -123 -03 078 121 -21 -64 014 002 -107 -60 -34 048 028 -47 114 -64 -65 -105 000 000 000 000 000 000 000 000 000 000 000 000 000 000 000 000 000 000 000 000 000 000 000 000 000 000 000 000 000 000 000 000 
011 123 -46 -55 016 085 -10 -111 050 -30 -78 -100 018 081 -116 046 095 -51 022 -108 -45 032 008 -10 -32 -61 -117 116 -55 -128 -17 -41 000 000 000 000 000 000 000 000 000 000 000 000 000 000 000 000 000 000 000 000 000 000 000 000 000 000 000 000 000 000 000 000 
-120 061 022 -39 097 110 112 098 105 065 046 -31 -125 029 078 106 -75 042 019 -06 087 062 -104 000 016 110 -98 046 050 114 -09 109 000 000 000 000 000 000 000 000 000 000 000 000 000 000 000 000 000 000 000 000 000 000 000 000 000 000 000 000 000 000 000 000 
010 025 080 060 026 -29 010 -85 -108 -14 -77 -50 003 -69 -25 109 -24 009 016 105 089 -114 -27 017 -105 -53 -33 106 -41 -35 090 -120 000 000 000 000 000 000 000 000 000 000 000 000 000 000 000 000 000 000 000 000 000 000 000 000 000 000 000 000 000 000 000 000 
105 -54 -76 121 -126 -77 115 095 -15 -05 -93 -71 094 120 -81 064 -126 011 -04 -108 110 -105 -107 109 -04 099 -101 107 -64 -124 003 117 000 000 000 000 000 000 000 000 000 000 000 000 000 000 000 000 000 000 000 000 000 000 000 000 000 000 000 000 000 000 000 000 
052 114 -112 038 068 022 122 -60 -39 014 -65 -83 -60 -114 119 013 083 -14 -59 029 -27 072 -04 -21 -02 -05 036 -60 053 102 -25 -53 000 000 000 000 000 000 000 000 000 000 000 000 000 000 000 000 000 000 000 000 000 000 000 000 000 000 000 000 000 000 000 000 
-38 -30 -33 -46 -111 002 -106 076 -24 008 080 029 022 097 087 -78 086 035 034 113 -50 -112 -79 096 -07 -51 034 079 -112 -89 120 068 000 000 000 000 000 000 000 000 000 000 000 000 000 000 000 000 000 000 000 000 000 000 000 000 000 000 000 000 000 000 000 000 
-114 105 060 -54 065 -77 097 051 -43 034 -96 -104 -54 -84 -58 -31 -127 053 102 -86 -36 050 -82 103 -78 038 017 078 -127 -86 087 -84 000 000 000 000 000 000 000 000 000 000 000 000 000 000 000 000 000 000 000 000 000 000 000 000 000 000 000 000 000 000 000 000 
-23 -25 105 005 074 -53 095 121 -66 -64 -108 052 -107 048 -100 060 -76 -06 -05 082 003 -54 075 -90 094 014 -100 013 -103 -65 039 020 000 000 000 000 000 000 000 000 000 000 000 000 000 000 000 000 000 000 000 000 000 000 000 000 000 000 000 000 000 000 000 000 
126 068 -97 -121 -12 047 -40 -28 -79 -72 -125 -80 -76 036 -123 -09 067 -65 -21 -09 -99 -68 032 -67 023 -72 -94 -111 017 -13 -109 061 000 000 000 000 000 000 000 000 000 000 000 000 000 000 000 000 000 000 000 000 000 000 000 000 000 000 000 000 000 000 000 000 
-127 016 038 126 064 082 -25 -101 096 -100 001 089 064 072 -102 -46 -27 -51 118 -103 -106 -64 -24 -116 -37 -86 -124 -73 -29 -19 -63 007 000 000 000 000 000 000 000 000 000 000 000 000 000 000 000 000 000 000 000 000 000 000 000 000 000 000 000 000 000 000 000 000 
048 -76 -109 -118 048 102 -33 -52 039 033 036 085 -112 119 -86 -69 016 024 065 032 -103 -120 -35 100 033 115 -104 126 110 -122 005 001 000 000 000 000 000 000 000 000 000 000 000 000 000 000 000 000 000 000 000 000 000 000 000 000 000 000 000 000 000 000 000 000 
-80 055 -95 -61 -46 061 -102 099 -95 -37 005 097 -122 080 -124 004 -34 -22 -55 -104 -28 -61 -83 -69 -05 -62 070 089 075 -83 019 -62 000 000 000 000 000 000 000 000 000 000 000 000 000 000 000 000 000 000 000 000 000 000 000 000 000 000 000 000 000 000 000 000 
-28 -10 071 003 -28 008 104 013 -87 -12 058 -113 -04 -27 117 -115 118 -66 -115 036 119 -51 -112 -23 023 088 077 063 -54 090 070 -97 000 000 000 000 000 000 000 000 000 000 000 000 000 000 000 000 000 000 000 000 000 000 000 000 000 000 000 000 000 000 000 000 
079 090 -09 048 116 -11 080 -70 071 -101 -35 -24 084 -08 -40 -49 -91 081 -80 -126 103 -115 -93 -106 082 114 068 072 -18 -60 049 101 000 000 000 000 000 000 000 000 000 000 000 000 000 000 000 000 000 000 000 000 000 000 000 000 000 000 000 000 000 000 000 000 
-41 065 022 055 -06 067 -111 071 -90 005 052 017 115 023 -56 -46 080 112 075 108 -82 -22 -121 021 -128 111 -75 -27 -21 111 -16 118 000 000 000 000 000 000 000 000 000 000 000 000 000 000 000 000 000 000 000 000 000 000 000 000 000 000 000 000 000 000 000 000 
035 -26 -46 -32 060 -08 -52 102 -84 -124 -41 057 008 101 091 013 079 -102 028 -88 006 -40 121 121 051 -75 -41 -17 021 034 -48 104 000 000 000 000 000 000 000 000 000 000 000 000 000 000 000 000 000 000 000 000 000 000 000 000 000 000 000 000 000 000 000 000 
051 110 -11 -70 077 -44 -29 -82 -122 114 -46 -84 -58 096 -99 -52 072 105 -86 095 -26 082 -118 095 -49 -08 116 072 -114 -70 -83 -20 000 000 000 000 000 000 000 000 000 000 000 000 000 000 000 000 000 000 000 000 000 000 000 000 000 000 000 000 000 000 000 000 
038 -87 -72 025 069 113 -84 -55 -75 043 045 -123 -59 055 002 041 085 067 -47 -99 019 -65 008 017 117 028 004 008 005 -11 -93 086 000 000 000 000 000 000 000 000 000 000 000 000 000 000 000 000 000 000 000 000 000 000 000 000 000 000 000 000 000 000 000 000 
100 051 -61 -40 114 -37 077 031 005 -109 072 -106 -50 -32 -124 -13 054 -80 046 -38 053 -07 -119 043 100 -110 063 -103 -08 082 083 -55 000 000 000 000 000 000 000 000 000 000 000 000 000 000 000 000 000 000 000 000 000 000 000 000 000 000 000 000 000 000 000 000 
-08 -117 101 023 015 098 -10 -51 -04 021 112 -70 084 121 -95 -109 -76 -82 020 -119 023 087 089 125 118 -60 003 -11 106 072 -77 -01 000 000 000 000 000 000 000 000 000 000 000 000 000 000 000 000 000 000 000 000 000 000 000 000 000 000 000 000 000 000 000 000 
065 -71 -68 030 -26 077 -128 090 062 070 025 -71 -63 -112 -14 007 009 -67 053 -59 085 -89 -125 -87 003 -13 114 067 -37 082 003 -15 000 000 000 000 000 000 000 000 000 000 000 000 000 000 000 000 000 000 000 000 000 000 000 000 000 000 000 000 000 000 000 000 
102 062 069 005 -28 -104 078 -60 -114 100 -21 -124 092 -21 081 -02 -16 -91 -118 -40 -12 -28 -29 -98 -09 110 124 -37 -90 075 115 045 000 000 000 000 000 000 000 000 000 000 000 000 000 000 000 000 000 000 000 000 000 000 000 000 000 000 000 000 000 000 000 000 
052 063 102 111 023 046 109 022 014 083 036 106 -125 -102 -63 069 001 -75 079 018 -108 -20 082 -12 094 -36 -93 038 -24 -88 -22 005 000 000 000 000 000 000 000 000 000 000 000 000 000 000 000 000 000 000 000 000 000 000 000 000 000 000 000 000 000 000 000 000 
-52 -95 -15 -44 126 -89 -85 013 -66 -66 -65 -95 026 055 -11 -113 091 -25 -127 122 077 -09 051 009 120 082 045 -123 -20 084 041 011 000 000 000 000 000 000 000 000 000 000 000 000 000 000 000 000 000 000 000 000 000 000 000 000 000 000 000 000 000 000 000 000 
-108 -87 034 -65 057 -01 -66 -02 119 -87 081 -49 -93 -63 017 124 -106 -58 009 115 -38 -60 -100 -116 042 -37 117 -45 -29 099 111 068 000 000 000 000 000 000 000 000 000 000 000 000 000 000 000 000 000 000 000 000 000 000 000 000 000 000 000 000 000 000 000 000 
-96 116 -23 -48 -83 063 -58 -79 059 -14 105 -32 -58 097 -115 -123 -65 -11 063 -107 -118 -14 -116 109 -103 042 088 018 -63 029 019 058 000 000 000 000 000 000 000 000 000 000 000 000 000 000 000 000 000 000 000 000 000 000 000 000 000 000 000 000 000 000 000 000 
-123 -43 -57 040 009 106 -52 -44 066 072 -41 050 -123 -28 -27 014 124 -02 120 033 -53 -55 -90 -124 071 118 -83 016 -22 071 103 019 000 000 000 000 000 000 000 000 000 000 000 000 000 000 000 000 000 000 000 000 000 000 000 000 000 000 000 000 000 000 000 000 
-35 -28 -23 -33 002 119 107 -30 -116 -117 -37 -127 103 088 118 048 035 018 -98 016 -15 120 -97 105 -87 -76 -106 036 -14 066 100 071 000 000 000 000 000 000 000 000 000 000 000 000 000 000 000 000 000 000 000 000 000 000 000 000 000 000 000 000 000 000 000 000 
-14 -113 118 060 067 123 -108 091 -01 -09 -84 -120 043 -25 -37 -21 096 006 -128 -115 -116 098 -75 -45 079 -81 110 062 065 -67 020 -16 000 000 000 000 000 000 000 000 000 000 000 000 000 000 000 000 000 000 000 000 000 000 000 000 000 000 000 000 000 000 000 000 
-71 032 -13 102 -116 -70 -22 -01 067 -09 095 015 085 -12 049 122 -32 102 -30 068 -101 012 081 082 -22 111 -77 -12 023 -86 -98 079 000 000 000 000 000 000 000 000 000 000 000 000 000 000 000 000 000 000 000 000 000 000 000 000 000 000 000 000 000 000 000 000 
-105 -64 -113 -15 -53 119 -03 -23 -62 -61 018 121 -98 -43 -40 123 026 076 -56 -56 026 -88 -57 100 -92 068 -79 -38 -02 106 -60 -101 000 000 000 000 000 000 000 000 000 000 000 000 000 000 000 000 000 000 000 000 000 000 000 000 000 000 000 000 000 000 000 000 
-101 085 006 005 031 -86 -96 -120 042 -114 038 100 -74 -110 035 103 075 050 -61 -44 -02 004 110 017 -94 -09 112 049 114 -03 010 -104 000 000 000 000 000 000 000 000 000 000 000 000 000 000 000 000 000 000 000 000 000 000 000 000 000 000 000 000 000 000 000 000 
-59 111 045 -92 091 -30 -112 113 121 -37 097 -62 -98 -69 -61 113 -25 -71 033 096 070 000 -36 012 -04 -74 -98 123 110 062 -37 -21 000 000 000 000 000 000 000 000 000 000 000 000 000 000 000 000 000 000 000 000 000 000 000 000 000 000 000 000 000 000 000 000 
-11 -107 013 025 -70 077 009 -90 037 015 -06 016 009 111 037 078 -21 -76 102 -79 024 -92 072 096 -19 013 -118 -96 026 -32 -70 -78 000 000 000 000 000 000 000 000 000 000 000 000 000 000 000 000 000 000 000 000 000 000 000 000 000 000 000 000 000 000 000 000 
010 124 056 -25 045 101 -04 -103 -27 087 -124 -90 040 018 -75 -123 -23 -103 -41 -70 -27 080 -43 016 077 -122 -68 029 049 079 014 047 000 000 000 000 000 000 000 000 000 000 000 000 000 000 000 000 000 000 000 000 000 000 000 000 000 000 000 000 000 000 000 000 
016 -48 126 062 -81 -82 004 034 032 065 006 -32 117 -33 -39 125 117 118 042 -06 054 118 -114 040 117 -125 -35 -84 027 -121 -99 067 000 000 000 000 000 000 000 000 000 000 000 000 000 000 000 000 000 000 000 000 000 000 000 000 000 000 000 000 000 000 000 000 
070 056 -34 -67 126 -97 020 079 055 026 -81 -35 075 009 022 031 -34 -27 -88 087 -55 -80 -26 -73 022 -114 -03 015 -01 -112 017 050 000 000 000 000 000 000 000 000 000 000 000 000 000 000 000 000 000 000 000 000 000 000 000 000 000 000 000 000 000 000 000 000 
-95 019 057 083 076 -10 116 099 -36 005 022 -111 023 -34 -125 068 -46 -80 012 104 -113 043 081 -82 -86 120 100 119 104 092 113 116 000 000 000 000 000 000 000 000 000 000 000 000 000 000 000 000 000 000 000 000 000 000 000 000 000 000 000 000 000 000 000 000 
094 059 015 -65 091 -03 -102 -57 082 -116 -36 056 -60 -49 -32 -102 008 067 109 018 007 -39 102 049 004 123 -28 080 -93 004 -26 -03 000 000 000 000 000 000 000 000 000 000 000 000 000 000 000 000 000 000 000 000 000 000 000 000 000 000 000 000 000 000 000 000 
106 005 -30 019 -32 -72 027 -104 -25 056 065 -65 -78 -69 -21 051 066 016 -113 -22 036 010 -101 015 041 -03 051 -58 016 -44 -92 -122 000 000 000 000 000 000 000 000 000 000 000 000 000 000 000 000 000 000 000 000 000 000 000 000 000 000 000 000 000 000 000 000 
092 051 -88 -81 -06 043 -05 -82 -99 022 036 043 -103 -122 074 -53 -73 -54 006 055 -20 -118 -36 100 -47 077 -29 -111 -28 -83 029 070 000 000 000 000 000 000 000 000 000 000 000 000 000 000 000 000 000 000 000 000 000 000 000 000 000 000 000 000 000 000 000 000 
-82 -41 106 -04 -84 075 058 -57 071 -111 -126 003 106 119 -69 -116 -54 -10 014 -33 019 -09 -56 045 115 -60 -44 -106 048 105 032 071 000 000 000 000 000 000 000 000 000 000 000 000 000 000 000 000 000 000 000 000 000 000 000 000 000 000 000 000 000 000 000 000 
-83 126 -84 -24 -97 -86 -91 -33 087 037 119 -03 062 -94 -109 078 -02 -111 045 -98 125 -14 074 122 062 -51 -03 -48 -56 095 -65 -57 000 000 000 000 000 000 000 000 000 000 000 000 000 000 000 000 000 000 000 000 000 000 000 000 000 000 000 000 000 000 000 000 
012 -96 -05 091 101 113 -109 104 -36 -08 -60 -128 -121 052 -48 -95 -10 019 080 095 067 085 077 045 -109 -34 007 045 023 116 094 -36 000 000 000 000 000 000 000 000 000 000 000 000 000 000 000 000 000 000 000 000 000 000 000 000 000 000 000 000 000 000 000 000 
107 083 -04 -90 -57 -124 -34 079 112 -29 054 -47 -68 113 -55 -20 064 076 105 081 014 114 -64 111 049 077 052 078 -119 018 -91 -50 000 000 000 000 000 000 000 000 000 000 000 000 000 000 000 000 000 000 000 000 000 000 000 000 000 000 000 000 000 000 000 000 
102 017 097 113 -101 120 -71 -58 056 -93 028 028 105 -128 089 -47 -123 123 050 -81 073 059 032 030 063 -19 -116 047 -112 -80 -01 -70 000 000 000 000 000 000 000 000 000 000 000 000 000 000 000 000 000 000 000 000 000 000 000 000 000 000 000 000 000 000 000 000 
-114 -26 -74 024 000 -13 -128 088 092 -42 022 -58 030 -95 -88 -23 041 015 048 073 -55 015 066 -66 062 -52 115 -85 -74 -09 013 -111 000 000 000 000 000 000 000 000 000 000 000 000 000 000 000 000 000 000 000 000 000 000 000 000 000 000 000 000 000 000 000 000 
033 050 -23 -46 -23 -121 -46 -102 -125 114 -03 041 -59 -32 -20 032 013 -86 016 -09 -02 006 081 060 102 -21 -114 -103 055 051 -42 060 000 000 000 000 000 000 000 000 000 000 000 000 000 000 000 000 000 000 000 000 000 000 000 000 000 000 000 000 000 000 000 000 
110 051 -78 -71 123 -20 -40 011 -68 -74 -13 -62 -46 -33 063 -73 -13 066 113 046 -17 -18 -43 052 126 061 -57 -59 -50 -66 -35 103 000 000 000 000 000 000 000 000 000 000 000 000 000 000 000 000 000 000 000 000 000 000 000 000 000 000 000 000 000 000 000 000 
093 026 070 -75 -03 025 040 036 102 -19 -59 -109 -53 -28 -109 -101 036 -56 -122 -20 -33 -25 -120 -83 -83 -111 -119 -65 095 014 040 067 000 000 000 000 000 000 000 000 000 000 000 000 000 000 000 000 000 000 000 000 000 000 000 000 000 000 000 000 000 000 000 000 
112 091 -63 -07 -56 -45 050 103 -71 103 -127 010 026 -95 048 024 -47 032 -33 -111 -04 009 012 -106 -79 -74 076 -43 093 -127 -110 -70 000 000 000 000 000 000 000 000 000 000 000 000 000 000 000 000 000 000 000 000 000 000 000 000 000 000 000 000 000 000 000 000 
063 -96 120 -77 012 053 034 016 -111 -01 100 -67 -60 078 123 -12 071 101 -98 -28 124 053 063 -121 -72 101 063 -26 004 107 -28 -102 000 000 000 000 000 000 000 000 000 000 000 000 000 000 000 000 000 000 000 000 000 000 000 000 000 000 000 000 000 000 000 000 
079 097 058 -60 015 034 021 -82 -58 123 -64 109 -59 064 036 -21 038 -83 -30 091 084 -69 027 -96 086 -120 -94 069 097 094 040 -115 000 000 000 000 000 000 000 000 000 000 000 000 000 000 000 000 000 000 000 000 000 000 000 000 000 000 000 000 000 000 000 000 
062 015 017 030 058 -109 -37 -61 -125 -07 -21 -16 027 097 019 -42 -107 126 048 018 -78 099 -125 078 -114 074 -125 037 -86 061 084 050 000 000 000 000 000 000 000 000 000 000 000 000 000 000 000 000 000 000 000 000 000 000 000 000 000 000 000 000 000 000 000 000 
104 -79 072 -126 -21 -74 -28 -40 -28 070 -33 -79 -76 100 -127 -126 -83 -18 014 009 -39 093 -34 -26 -96 073 -56 -81 050 022 001 087 000 000 000 000 000 000 000 000 000 000 000 000 000 000 000 000 000 000 000 000 000 000 000 000 000 000 000 000 000 000 000 000 
-84 057 -43 021 -08 -95 -116 001 -103 -69 -122 086 -35 -117 -23 -88 044 -110 -51 019 067 -54 -07 -21 -105 067 -52 058 -114 010 -48 101 000 000 000 000 000 000 000 000 000 000 000 000 000 000 000 000 000 000 000 000 000 000 000 000 000 000 000 000 000 000 000 000 
-54 065 -04 095 -121 -07 -06 -49 099 097 -34 -112 -117 089 068 -47 029 018 -72 089 -70 -84 -93 104 -95 -38 -22 084 079 038 -109 -40 000 000 000 000 000 000 000 000 000 000 000 000 000 000 000 000 000 000 000 000 000 000 000 000 000 000 000 000 000 000 000 000 
077 -81 089 055 000 115 -56 085 -19 043 098 122 -22 -60 080 124 115 -40 -73 -66 123 051 -112 081 -101 -101 105 098 067 028 -09 095 000 000 000 000 000 000 000 000 000 000 000 000 000 000 000 000 000 000 000 000 000 000 000 000 000 000 000 000 000 000 000 000 
-116 -29 -93 113 -32 -51 098 -81 119 002 044 000 000 079 -03 -46 036 -89 -62 040 -87 -100 -42 -50 112 -68 121 -77 097 085 -23 -105 000 000 000 000 000 000 000 000 000 000 000 000 000 000 000 000 000 000 000 000 000 000 000 000 000 000 000 000 000 000 000 000 
060 063 -12 024 034 050 -35 -61 -33 -87 -09 124 -42 -29 092 -06 023 -116 -14 015 -02 -109 024 033 -98 072 046 014 066 -50 -40 049 000 000 000 000 000 000 000 000 000 000 000 000 000 000 000 000 000 000 000 000 000 000 000 000 000 000 000 000 000 000 000 000 
056 000 040 053 -35 030 063 106 113 092 057 078 119 033 -77 -67 -91 -22 -96 061 -108 014 -80 077 010 -29 019 118 126 -44 -78 -77 000 000 000 000 000 000 000 000 000 000 000 000 000 000 000 000 000 000 000 000 000 000 000 000 000 000 000 000 000 000 000 000 
027 111 100 102 013 104 094 028 -51 068 124 014 -13 041 -78 -120 046 -104 002 -95 034 -41 007 -76 -108 -27 -43 -27 047 -108 116 051 000 000 000 000 000 000 000 000 000 000 000 000 000 000 000 000 000 000 000 000 000 000 000 000 000 000 000 000 000 000 000 000 
044 014 006 -117 -70 -15 -114 014 -77 -126 099 016 070 055 118 -79 -59 057 -68 063 -36 096 -46 -44 029 121 085 000 -26 -94 -99 060 000 000 000 000 000 000 000 000 000 000 000 000 000 000 000 000 000 000 000 000 000 000 000 000 000 000 000 000 000 000 000 000 
-80 -103 -124 108 035 -76 111 125 039 085 068 -92 102 011 -82 -20 -65 118 -128 058 -34 018 -118 016 059 -03 -83 -75 -10 -28 -118 -76 000 000 000 000 000 000 000 000 000 000 000 000 000 000 000 000 000 000 000 000 000 000 000 000 000 000 000 000 000 000 000 000 
076 -08 081 042 -47 -29 -36 076 069 089 -13 059 117 -94 -85 -05 101 -78 -56 041 -44 015 -95 112 -127 -120 -52 -11 -124 -101 -85 034 000 000 000 000 000 000 000 000 000 000 000 000 000 000 000 000 000 000 000 000 000 000 000 000 000 000 000 000 000 000 000 000 
050 029 121 105 066 -18 097 069 -32 -16 055 -115 012 -02 -43 -02 062 045 068 -24 -75 113 005 058 -77 002 -45 064 -59 -116 -35 111 000 000 000 000 000 000 000 000 000 000 000 000 000 000 000 000 000 000 000 000 000 000 000 000 000 000 000 000 000 000 000 000 
124 026 042 104 -58 000 -128 083 -17 -19 042 -31 035 037 121 034 028 027 085 -128 105 107 114 -105 -74 -20 032 -26 -115 -71 065 009 000 000 000 000 000 000 000 000 000 000 000 000 000 000 000 000 000 000 000 000 000 000 000 000 000 000 000 000 000 000 000 000 
027 089 103 -87 048 116 -27 013 -05 011 116 -15 -76 123 030 -37 042 -72 -60 -39 -51 -102 081 -38 074 090 083 -86 -65 101 -114 063 000 000 000 000 000 000 000 000 000 000 000 000 000 000 000 000 000 000 000 000 000 000 000 000 000 000 000 000 000 000 000 000 
038 109 120 096 076 -95 -44 092 078 -92 072 -102 -79 -26 -13 -82 -23 113 012 039 -55 -55 011 -33 -57 062 -92 053 088 -08 098 -66 000 000 000 000 000 000 000 000 000 000 000 000 000 000 000 000 000 000 000 000 000 000 000 000 000 000 000 000 000 000 000 000 
-40 -38 011 056 -85 053 050 -54 -37 -39 -15 -96 -13 082 -23 -94 062 103 119 -04 -107 -36 -103 096 -13 035 075 068 -26 -02 019 -83 000 000 000 000 000 000 000 000 000 000 000 000 000 000 000 000 000 000 000 000 000 000 000 000 000 000 000 000 000 000 000 000 
124 -124 034 108 -59 091 035 030 -80 -69 063 021 113 025 -70 114 029 -59 -80 020 -27 -81 -101 -125 113 -41 013 052 -110 -33 074 -21 000 000 000 000 000 000 000 000 000 000 000 000 000 000 000 000 000 000 000 000 000 000 000 000 000 000 000 000 000 000 000 000 
-57 -98 054 -104 049 -114 034 -55 034 -56 017 -21 -45 -19 095 109 012 060 080 -06 062 012 038 070 032 106 -99 115 -85 -97 038 -127 000 000 000 000 000 000 000 000 000 000 000 000 000 000 000 000 000 000 000 000 000 000 000 000 000 000 000 000 000 000 000 000 
067 -82 001 -111 102 045 -101 005 100 -37 -51 094 033 068 -56 -44 060 -60 122 000 -106 007 -111 -10 120 -54 -42 -125 -40 -28 -13 -37 000 000 000 000 000 000 000 000 000 000 000 000 000 000 000 000 000 000 000 000 000 000 000 000 000 000 000 000 000 000 000 000 
-86 115 108 060 081 -45 042 -56 -27 -47 092 026 -34 -93 039 -44 -44 -08 -08 109 -28 082 -95 -106 064 -14 050 -91 088 -126 012 081 000 000 000 000 000 000 000 000 000 000 000 000 000 000 000 000 000 000 000 000 000 000 000 000 000 000 000 000 000 000 000 000 
-53 -72 -120 047 -24 030 119 -64 -55 030 063 -46 123 -95 073 091 -107 -101 010 067 014 012 012 102 061 000 026 -100 019 -78 -60 049 000 000 000 000 000 000 000 000 000 000 000 000 000 000 000 000 000 000 000 000 000 000 000 000 000 000 000 000 000 000 000 000 
-04 -06 -42 -13 070 -12 -13 -04 -121 091 067 -07 -21 -90 -33 106 -107 -83 -83 -123 070 -68 031 126 -62 122 102 013 -84 031 063 -45 000 000 000 000 000 000 000 000 000 000 000 000 000 000 000 000 000 000 000 000 000 000 000 000 000 000 000 000 000 000 000 000 
-66 012 -106 005 017 -76 001 -127 -05 -47 -24 067 043 090 -51 043 114 -49 -19 004 021 077 011 -110 052 -66 044 082 -45 090 012 -72 000 000 000 000 000 000 000 000 000 000 000 000 000 000 000 000 000 000 000 000 000 000 000 000 000 000 000 000 000 000 000 000 
-103 075 -54 -49 -13 -07 -15 -37 067 022 079 -67 -103 031 040 -36 031 -58 -60 -82 110 006 053 -122 -44 -01 034 074 046 -104 -47 009 000 000 000 000 000 000 000 000 000 000 000 000 000 000 000 000 000 000 000 000 000 000 000 000 000 000 000 000 000 000 000 000 
003 -81 079 055 081 079 -46 -37 051 086 047 043 -51 043 022 -66 -25 082 049 121 088 -40 047 -92 -97 088 -44 012 009 -70 000 -113 000 000 000 000 000 000 000 000 000 000 000 000 000 000 000 000 000 000 000 000 000 000 000 000 000 000 000 000 000 000 000 000 
094 041 063 -40 -99 -22 -06 121 -126 106 -56 125 -09 -38 -49 126 -85 -48 -101 056 -10 010 088 013 045 -122 -52 -47 -77 072 110 018 000 000 000 000 000 000 000 000 000 000 000 000 000 000 000 000 000 000 000 000 000 000 000 000 000 000 000 000 000 000 000 000 
-122 078 071 113 -45 -119 016 -31 -83 -118 111 -59 017 -28 -67 096 -13 108 012 065 -09 109 -72 -91 086 095 -27 -116 125 -105 099 048 000 000 000 000 000 000 000 000 000 000 000 000 000 000 000 000 000 000 000 000 000 000 000 000 000 000 000 000 000 000 000 000 
-36 021 -115 120 088 -111 -40 -02 059 103 -50 -19 -59 -55 091 -14 013 -56 009 018 -120 073 -78 051 -70 -50 -123 051 078 116 -122 -33 000 000 000 000 000 000 000 000 000 000 000 000 000 000 000 000 000 000 000 000 000 000 000 000 000 000 000 000 000 000 000 000 
075 -109 -126 -46 -09 053 -88 110 055 -67 -88 -121 012 102 -62 -118 018 016 -104 -46 -05 024 089 -30 018 -40 -38 -47 -02 -100 108 061 000 000 000 000 000 000 000 000 000 000 000 000 000 000 000 000 000 000 000 000 000 000 000 000 000 000 000 000 000 000 000 000 
-21 015 -32 -20 -53 -34 -29 -97 -59 -77 037 114 -81 118 063 110 109 -39 -68 099 028 -95 -36 -16 -121 -25 -55 -38 -62 -11 023 -29 000 000 000 000 000 000 000 000 000 000 000 000 000 000 000 000 000 000 000 000 000 000 000 000 000 000 000 000 000 000 000 000 
-20 052 -18 091 053 051 012 022 069 016 -18 -16 125 -125 -112 055 087 038 018 103 -95 029 -50 -51 -82 116 -35 079 -128 025 -59 -71 000 000 000 000 000 000 000 000 000 000 000 000 000 000 000 000 000 000 000 000 000 000 000 000 000 000 000 000 000 000 000 000 
-103 003 067 -64 046 -17 075 045 -79 -38 -73 061 -111 025 -64 052 067 -09 124 032 030 -105 036 -21 -85 -98 -19 037 -59 033 -75 -122 000 000 000 000 000 000 000 000 000 000 000 000 000 000 000 000 000 000 000 000 000 000 000 000 000 000 000 000 000 000 000 000 
-33 -25 049 038 -91 -07 -55 122 072 054 -110 -59 109 -124 057 104 -107 -31 017 006 -12 -57 013 112 -63 108 062 -107 -117 064 -06 074 000 000 000 000 000 000 000 000 000 000 000 000 000 000 000 000 000 000 000 000 000 000 000 000 000 000 000 000 000 000 000 000 
088 126 035 025 -105 113 -25 -86 025 -78 055 115 081 -62 -48 -10 096 -125 -82 070 -40 -34 -57 -80 102 068 -35 105 106 -112 -95 071 000 000 000 000 000 000 000 000 000 000 000 000 000 000 000 000 000 000 000 000 000 000 000 000 000 000 000 000 000 000 000 000 
-19 089 -05 079 095 086 -91 -128 -58 092 -51 -39 -108 106 -08 -44 -03 -19 118 045 -17 -78 021 051 015 -56 041 -90 -24 077 083 086 000 000 000 000 000 000 000 000 000 000 000 000 000 000 000 000 000 000 000 000 000 000 000 000 000 000 000 000 000 000 000 000 
112 061 -103 033 017 -69 -85 036 024 095 049 035 126 -11 079 -53 -54 016 050 082 -64 108 028 -91 -61 -26 -94 -65 -125 054 -35 -119 000 000 000 000 000 000 000 000 000 000 000 000 000 000 000 000 000 000 000 000 000 000 000 000 000 000 000 000 000 000 000 000 
-74 114 085 062 -76 -95 -40 088 014 055 -55 -90 -31 -83 019 124 -19 -90 012 106 071 -26 106 -68 -80 076 -125 -26 126 -115 -40 -05 000 000 000 000 000 000 000 000 000 000 000 000 000 000 000 000 000 000 000 000 000 000 000 000 000 000 000 000 000 000 000 000 
-24 -119 078 121 -19 -56 -109 064 007 008 -106 006 -35 -121 -100 -27 -42 -17 -43 -01 005 -19 102 032 -49 096 116 -66 123 -88 -47 034 000 000 000 000 000 000 000 000 000 000 000 000 000 000 000 000 000 000 000 000 000 000 000 000 000 000 000 000 000 000 000 000 
-40 -64 -21 -16 -85 -107 -29 068 122 -84 002 094 -66 105 027 -122 102 -113 -117 072 -60 037 120 -73 019 004 053 005 055 -87 -21 -27 000 000 000 000 000 000 000 000 000 000 000 000 000 000 000 000 000 000 000 000 000 000 000 000 000 000 000 000 000 000 000 000 
-116 011 -110 -46 -84 -38 -26 112 125 036 048 -97 -113 -117 108 -93 092 043 083 -96 009 -06 -122 094 -10 061 -74 -38 031 072 -64 -74 000 000 000 000 000 000 000 000 000 000 000 000 000 000 000 000 000 000 000 000 000 000 000 000 000 000 000 000 000 000 000 000 
096 075 -43 -17 123 000 -87 -122 -55 080 -100 -90 -12 -60 -69 080 -37 006 -23 125 -31 113 -25 107 095 038 123 049 -31 -115 018 059 000 000 000 000 000 000 000 000 000 000 000 000 000 000 000 000 000 000 000 000 000 000 000 000 000 000 000 000 000 000 000 000 
054 092 -31 -70 -42 -95 032 -11 043 120 040 -73 055 075 122 -78 123 102 -20 -92 -89 033 083 034 -04 069 -05 070 051 046 -64 -27 000 000 000 000 000 000 000 000 000 000 000 000 000 000 000 000 000 000 000 000 000 000 000 000 000 000 000 000 000 000 000 000 
027 -54 -73 -97 -83 025 -85 -98 052 -16 -27 077 -126 056 -03 -33 065 -109 -08 -106 -127 083 -108 118 120 112 038 060 126 -93 -105 -77 000 000 000 000 000 000 000 000 000 000 000 000 000 000 000 000 000 000 000 000 000 000 000 000 000 000 000 000 000 000 000 000 
-110 020 082 036 118 092 084 119 009 086 038 -114 107 057 -75 126 075 -55 -95 055 108 121 -118 081 010 029 -32 -65 039 011 027 046 000 000 000 000 000 000 000 000 000 000 000 000 000 000 000 000 000 000 000 000 000 000 000 000 000 000 000 000 000 000 000 000 
-123 -126 -77 -60 053 -113 -108 044 119 -45 057 105 -103 -113 -93 -01 -50 -104 -05 099 036 -105 125 -56 -14 -37 -90 078 -91 043 034 020 000 000 000 000 000 000 000 000 000 000 000 000 000 000 000 000 000 000 000 000 000 000 000 000 000 000 000 000 000 000 000 000 
-117 069 -111 -25 -112 106 -104 015 -77 -122 -23 012 -44 -99 062 045 -17 -33 032 098 000 038 -86 023 -117 114 112 103 081 -37 -17 119 000 000 000 000 000 000 000 000 000 000 000 000 000 000 000 000 000 000 000 000 000 000 000 000 000 000 000 000 000 000 000 000 
097 028 -70 -122 117 114 -69 -58 -97 122 087 006 018 072 081 030 -40 -70 -103 109 -98 012 -09 -03 -108 089 080 071 -73 -52 -71 010 000 000 000 000 000 000 000 000 000 000 000 000 000 000 000 000 000 000 000 000 000 000 000 000 000 000 000 000 000 000 000 000 
-105 052 072 -23 122 -87 -59 -94 -110 -97 -52 092 019 -93 -09 060 -27 -56 102 118 -55 038 -15 100 108 048 026 115 -98 051 -111 -107 000 000 000 000 000 000 000 000 000 000 000 000 000 000 000 000 000 000 000 000 000 000 000 000 000 000 000 000 000 000 000 000 
-66 -103 087 -126 -04 034 041 -50 -127 -06 081 082 -21 -47 -65 -59 -87 072 111 055 -75 -112 111 -65 033 108 000 -36 105 -42 100 -114 000 000 000 000 000 000 000 000 000 000 000 000 000 000 000 000 000 000 000 000 000 000 000 000 000 000 000 000 000 000 000 000 
124 109 119 -58 -70 120 -06 -33 -44 -80 106 017 -54 -08 100 092 099 -31 096 -110 -122 106 -79 -52 -66 -87 008 026 015 031 -128 -77 000 000 000 000 000 000 000 000 000 000 000 000 000 000 000 000 000 000 000 000 000 000 000 000 000 000 000 000 000 000 000 000 
125 -84 -47 -73 -17 086 -48 -116 077 -66 112 -106 -50 079 -36 016 -68 054 -03 029 081 -70 012 -104 -19 -117 -30 087 -22 015 061 -25 000 000 000 000 000 000 000 000 000 000 000 000 000 000 000 000 000 000 000 000 000 000 000 000 000 000 000 000 000 000 000 000 
051 030 055 -122 027 -109 -43 -79 -90 -116 -126 -36 063 073 -46 -58 -23 006 -57 -22 019 -03 -56 052 -38 024 -51 063 -90 -90 -34 013 000 000 000 000 000 000 000 000 000 000 000 000 000 000 000 000 000 000 000 000 000 000 000 000 000 000 000 000 000 000 000 000 
003 -122 080 -119 099 -74 -01 -24 -83 083 005 114 -92 -32 095 020 090 -123 -69 054 076 100 021 115 -61 -26 074 103 071 -69 106 030 000 000 000 000 000 000 000 000 000 000 000 000 000 000 000 000 000 000 000 000 000 000 000 000 000 000 000 000 000 000 000 000 
-46 011 -26 -125 -53 -102 -107 -13 061 -56 013 -49 023 009 046 -48 011 051 -97 -109 096 -104 -67 -89 086 -35 -39 107 026 -32 090 126 000 000 000 000 000 000 000 000 000 000 000 000 000 000 000 000 000 000 000 000 000 000 000 000 000 000 000 000 000 000 000 000 
018 -75 -77 073 056 -03 -48 -56 107 054 010 029 -26 -05 -45 117 -39 022 098 -20 014 048 078 -105 -39 085 108 -04 -10 007 -08 -51 000 000 000 000 000 000 000 000 000 000 000 000 000 000 000 000 000 000 000 000 000 000 000 000 000 000 000 000 000 000 000 000 
117 -83 111 -90 023 -06 122 032 -31 113 -33 -12 041 -81 -93 044 112 035 -73 057 -124 017 066 -41 -91 -107 031 100 -37 101 104 046 000 000 000 000 000 000 000 000 000 000 000 000 000 000 000 000 000 000 000 000 000 000 000 000 000 000 000 000 000 000 000 000 
096 068 -23 -112 -16 -91 -66 -66 -110 006 021 -61 080 080 -03 -110 -93 099 -06 059 -97 102 007 038 080 120 029 -03 -71 085 -65 -82 000 000 000 000 000 000 000 000 000 000 000 000 000 000 000 000 000 000 000 000 000 000 000 000 000 000 000 000 000 000 000 000 
078 011 -26 -27 041 032 -66 -78 -124 014 -18 -44 096 -40 090 056 -113 -125 -30 083 -09 -111 -60 029 033 -84 094 030 -94 101 -18 024 000 000 000 000 000 000 000 000 000 000 000 000 000 000 000 000 000 000 000 000 000 000 000 000 000 000 000 000 000 000 000 000 
009 124 -26 -32 078 -54 021 019 056 047 112 046 -18 -19 025 006 -113 066 038 -95 -62 117 028 106 -01 032 069 -76 019 -26 043 009 000 000 000 000 000 000 000 000 000 000 000 000 000 000 000 000 000 000 000 000 000 000 000 000 000 000 000 000 000 000 000 000 
-59 -98 066 107 -69 -50 005 048 002 -41 080 098 044 -02 -41 103 097 083 077 087 -101 080 047 037 -51 -73 079 -77 -90 006 -47 017 000 000 000 000 000 000 000 000 000 000 000 000 000 000 000 000 000 000 000 000 000 000 000 000 000 000 000 000 000 000 000 000 
115 -123 -40 087 -52 092 026 -24 -62 -35 111 -121 -98 004 -16 -96 003 104 103 023 -12 -24 085 064 -96 -114 060 -14 111 -92 -69 067 000 000 000 000 000 000 000 000 000 000 000 000 000 000 000 000 000 000 000 000 000 000 000 000 000 000 000 000 000 000 000 000 
078 021 -05 015 093 063 088 -66 105 042 -62 016 -15 -78 -125 060 -07 -80 004 -12 059 012 123 071 049 120 109 009 -38 -21 -73 -47 000 000 000 000 000 000 000 000 000 000 000 000 000 000 000 000 000 000 000 000 000 000 000 000 000 000 000 000 000 000 000 000 
098 100 -52 -26 -12 -77 093 -61 -53 000 -86 -15 -81 -43 -18 013 -06 -112 -96 013 019 -80 -19 -51 114 018 058 -128 -09 -84 045 100 000 000 000 000 000 000 000 000 000 000 000 000 000 000 000 000 000 000 000 000 000 000 000 000 000 000 000 000 000 000 000 000 
098 026 126 115 024 -49 102 067 -86 -77 -10 099 007 073 -41 029 046 043 -22 -89 -99 -74 -100 -114 -29 -39 056 103 012 005 058 067 000 000 000 000 000 000 000 000 000 000 000 000 000 000 000 000 000 000 000 000 000 000 000 000 000 000 000 000 000 000 000 000 
104 -123 -35 -127 103 103 079 109 070 010 -99 -47 -127 008 -29 -98 -127 075 001 000 069 125 053 082 -102 111 081 042 -87 -70 -01 113 000 000 000 000 000 000 000 000 000 000 000 000 000 000 000 000 000 000 000 000 000 000 000 000 000 000 000 000 000 000 000 000 
081 013 124 -56 094 -03 034 008 049 044 117 -06 -77 -128 -90 -97 -20 -44 032 121 -37 074 -10 -93 023 -18 -97 119 111 010 062 001 000 000 000 000 000 000 000 000 000 000 000 000 000 000 000 000 000 000 000 000 000 000 000 000 000 000 000 000 000 000 000 000 
036 -10 -100 -96 -95 017 -22 004 117 097 -18 081 -108 078 075 081 013 066 -114 -112 075 070 027 -104 -66 -96 -101 077 083 -59 104 -27 000 000 000 000 000 000 000 000 000 000 000 000 000 000 000 000 000 000 000 000 000 000 000 000 000 000 000 000 000 000 000 000 
-31 088 -128 034 -23 -24 -67 106 043 -113 118 -91 020 001 -50 005 -116 058 -51 -115 -33 024 -112 -76 -45 011 -122 123 104 013 102 -90 000 000 000 000 000 000 000 000 000 000 000 000 000 000 000 000 000 000 000 000 000 000 000 000 000 000 000 000 000 000 000 000 
073 004 022 089 -08 -92 039 -01 113 039 -45 004 -52 -37 040 -41 101 -84 117 028 -15 -06 -35 -81 -15 -83 121 039 -16 -106 -118 040 000 000 000 000 000 000 000 000 000 000 000 000 000 000 000 000 000 000 000 000 000 000 000 000 000 000 000 000 000 000 000 000 
-43 107 -11 -96 -54 -97 -106 065 -125 010 125 017 014 -90 012 030 073 113 -102 112 -40 -44 -121 110 050 -89 -19 -87 -76 057 -98 -126 000 000 000 000 000 000 000 000 000 000 000 000 000 000 000 000 000 000 000 000 000 000 000 000 000 000 000 000 000 000 000 000 
-34 088 124 -93 -39 053 -08 062 -98 -70 105 052 -68 101 043 -118 023 046 003 -04 -54 -92 -42 068 047 -61 -56 -113 -112 -108 008 -104 000 000 000 000 000 000 000 000 000 000 000 000 000 000 000 000 000 000 000 000 000 000 000 000 000 000 000 000 000 000 000 000 
093 082 -13 028 -54 001 039 009 075 072 -97 -61 020 -20 -119 042 -06 019 -44 041 -32 -84 -30 125 -20 -14 -87 -60 058 058 057 -03 000 000 000 000 000 000 000 000 000 000 000 000 000 000 000 000 000 000 000 000 000 000 000 000 000 000 000 000 000 000 000 000 
-83 -14 -95 013 004 125 -49 082 -93 -106 086 -112 039 -09 029 099 -02 053 087 041 -21 070 -101 033 082 020 015 038 005 -81 -55 024 000 000 000 000 000 000 000 000 000 000 000 000 000 000 000 000 000 000 000 000 000 000 000 000 000 000 000 000 000 000 000 000 
090 082 -108 109 -19 -36 116 -19 -62 -78 084 -113 064 089 023 036 -116 -72 024 -53 091 -15 000 066 069 -96 040 070 -52 -51 -20 -85 000 000 000 000 000 000 000 000 000 000 000 000 000 000 000 000 000 000 000 000 000 000 000 000 000 000 000 000 000 000 000 000 
056 089 056 123 -19 112 010 -114 -28 089 -65 119 031 -68 074 -16 -86 -124 -24 -76 009 119 023 -25 -65 004 107 006 008 -39 -40 013 000 000 000 000 000 000 000 000 000 000 000 000 000 000 000 000 000 000 000 000 000 000 000 000 000 000 000 000 000 000 000 000 
-46 -115 -126 -09 -76 -46 -124 057 010 009 074 047 -10 089 -65 -29 -89 -27 -93 035 033 -65 083 -48 -31 -100 087 -71 -10 073 040 -02 000 000 000 000 000 000 000 000 000 000 000 000 000 000 000 000 000 000 000 000 000 000 000 000 000 000 000 000 000 000 000 000 
-09 105 044 -91 -82 -39 -117 023 002 061 -79 063 120 -87 -30 092 106 -115 039 108 -29 074 -08 -10 123 -113 103 -95 115 005 -49 -22 000 000 000 000 000 000 000 000 000 000 000 000 000 000 000 000 000 000 000 000 000 000 000 000 000 000 000 000 000 000 000 000 
-41 -99 -122 -124 028 025 022 060 023 039 -49 125 005 040 -51 058 -26 -95 027 -13 -21 087 123 -82 081 115 050 -38 -127 007 093 028 000 000 000 000 000 000 000 000 000 000 000 000 000 000 000 000 000 000 000 000 000 000 000 000 000 000 000 000 000 000 000 000 
-86 099 -63 -118 018 -13 027 088 -72 -41 073 -92 060 092 -87 -24 -103 -116 031 061 093 024 -120 060 -105 -91 053 -10 -24 121 002 049 000 000 000 000 000 000 000 000 000 000 000 000 000 000 000 000 000 000 000 000 000 000 000 000 000 000 000 000 000 000 000 000 
119 -125 083 -01 039 042 016 043 -78 -127 -85 -76 -109 094 -113 -52 -53 -100 085 116 028 -04 047 075 -61 -123 105 -02 074 118 -21 -54 000 000 000 000 000 000 000 000 000 000 000 000 000 000 000 000 000 000 000 000 000 000 000 000 000 000 000 000 000 000 000 000 
-106 004 013 -36 -11 117 089 085 012 -49 115 -33 -102 -36 -25 -118 -32 000 008 049 -82 -53 123 -49 040 -88 -127 106 -119 042 -70 088 000 000 000 000 000 000 000 000 000 000 000 000 000 000 000 000 000 000 000 000 000 000 000 000 000 000 000 000 000 000 000 000 
045 071 116 115 054 -86 -66 078 -89 -23 -102 -99 002 -31 -120 060 -35 -24 062 122 -24 -75 084 036 -11 068 014 -94 -79 -58 -32 085 000 000 000 000 000 000 000 000 000 000 000 000 000 000 000 000 000 000 000 000 000 000 000 000 000 000 000 000 000 000 000 000 
041 036 -12 -77 -95 -02 -121 090 -14 -124 -69 106 -14 -83 -119 122 118 057 -68 093 -74 -07 -29 -124 -36 002 -08 057 086 -58 -70 -29 000 000 000 000 000 000 000 000 000 000 000 000 000 000 000 000 000 000 000 000 000 000 000 000 000 000 000 000 000 000 000 000 
-47 100 023 -49 013 -62 -55 -102 049 -92 -23 054 -42 -117 -77 -106 -109 038 004 070 -106 -34 070 -114 098 -55 112 078 -79 -79 071 022 000 000 000 000 000 000 000 000 000 000 000 000 000 000 000 000 000 000 000 000 000 000 000 000 000 000 000 000 000 000 000 000 
042 125 067 -66 008 018 064 107 -45 079 -123 015 067 -26 -19 -109 -113 107 067 -67 -11 100 -50 047 -46 -40 020 020 -24 088 090 119 000 000 000 000 000 000 000 000 000 000 000 000 000 000 000 000 000 000 000 000 000 000 000 000 000 000 000 000 000 000 000 000 
062 -95 083 080 083 -05 -39 -56 091 -128 -121 -66 085 073 -61 -90 061 -85 -124 027 075 036 069 -90 -104 -91 073 -64 107 083 049 -126 000 000 000 000 000 000 000 000 000 000 000 000 000 000 000 000 000 000 000 000 000 000 000 000 000 000 000 000 000 000 000 000 
-85 -76 018 009 072 091 -75 076 067 031 091 -96 -85 114 004 002 116 -115 116 -06 112 007 -100 -87 074 005 008 -121 027 041 115 -02 000 000 000 000 000 000 000 000 000 000 000 000 000 000 000 000 000 000 000 000 000 000 000 000 000 000 000 000 000 000 000 000 
-51 -89 -62 094 106 108 -106 -81 -126 -80 120 124 082 -91 -98 -05 064 108 012 121 -31 105 072 113 -46 092 056 -26 052 -118 -116 008 000 000 000 000 000 000 000 000 000 000 000 000 000 000 000 000 000 000 000 000 000 000 000 000 000 000 000 000 000 000 000 000 
-92 020 100 000 -95 -03 057 -12 089 080 126 -67 019 -80 126 036 086 -112 064 070 026 066 101 -68 029 -103 027 089 089 105 -83 -87 000 000 000 000 000 000 000 000 000 000 000 000 000 000 000 000 000 000 000 000 000 000 000 000 000 000 000 000 000 000 000 000 
113 -48 067 -127 -27 -75 -37 -53 066 -81 014 -121 091 074 108 024 041 -100 -18 -37 -63 082 035 106 -102 -24 -117 -91 -16 034 052 119 000 000 000 000 000 000 000 000 000 000 000 000 000 000 000 000 000 000 000 000 000 000 000 000 000 000 000 000 000 000 000 000 
-56 120 044 -57 088 -94 027 119 054 -75 095 014 -114 -70 003 -91 -03 124 -60 100 -109 -13 006 030 008 124 104 -105 084 -95 -31 030 000 000 000 000 000 000 000 000 000 000 000 000 000 000 000 000 000 000 000 000 000 000 000 000 000 000 000 000 000 000 000 000 
-103 002 -54 010 068 -52 -86 -100 -72 -62 110 -09 014 060 -05 093 085 -90 033 -04 010 104 -98 -90 112 126 -29 098 -05 -124 -107 -25 000 000 000 000 000 000 000 000 000 000 000 000 000 000 000 000 000 000 000 000 000 000 000 000 000 000 000 000 000 000 000 000 
-05 014 -101 -50 -43 -45 -71 -51 035 093 -21 -08 -104 027 081 056 019 -81 114 108 -113 -128 -104 067 036 -70 025 014 032 090 115 -56 000 000 000 000 000 000 000 000 000 000 000 000 000 000 000 000 000 000 000 000 000 000 000 000 000 000 000 000 000 000 000 000 
-76 -105 -31 103 112 -78 -05 081 110 063 -16 086 -30 -78 -09 045 019 112 -24 -75 -103 -113 -40 090 -99 -15 -111 077 017 080 -38 -60 000 000 000 000 000 000 000 000 000 000 000 000 000 000 000 000 000 000 000 000 000 000 000 000 000 000 000 000 000 000 000 000 
098 -70 056 -57 -103 -124 -75 -65 001 -81 -83 018 085 -100 078 -67 -125 -62 -81 -78 -95 -04 -128 099 -124 120 056 004 -88 054 -23 -68 000 000 000 000 000 000 000 000 000 000 000 000 000 000 000 000 000 000 000 000 000 000 000 000 000 000 000 000 000 000 000 000 
-116 022 021 -127 026 -126 -125 -125 -36 028 071 082 -23 -26 -89 044 -07 -09 -95 100 055 -83 088 070 088 -44 007 -91 103 010 -110 -40 000 000 000 000 000 000 000 000 000 000 000 000 000 000 000 000 000 000 000 000 000 000 000 000 000 000 000 000 000 000 000 000 
-46 114 -52 075 065 051 -75 098 -04 -05 026 -33 036 066 081 063 -125 -116 044 -120 056 046 080 026 069 020 095 -114 -64 -25 034 -07 000 000 000 000 000 000 000 000 000 000 000 000 000 000 000 000 000 000 000 000 000 000 000 000 000 000 000 000 000 000 000 000 
-106 045 -63 -06 073 072 037 031 078 121 -43 034 -56 -70 -120 022 078 054 114 122 -02 -103 064 029 -07 -25 016 065 025 -67 -30 024 000 000 000 000 000 000 000 000 000 000 000 000 000 000 000 000 000 000 000 000 000 000 000 000 000 000 000 000 000 000 000 000 
-104 -98 002 105 -88 007 -88 -07 012 -91 103 -14 -86 062 101 048 045 -32 073 030 -42 090 -18 -06 076 -36 -51 126 -85 -104 -55 046 000 000 000 000 000 000 000 000 000 000 000 000 000 000 000 000 000 000 000 000 000 000 000 000 000 000 000 000 000 000 000 000 
112 016 -04 -64 -14 -86 -108 003 055 -73 -06 001 -46 063 -13 116 077 -46 061 -51 -15 119 036 -08 094 105 -25 065 087 010 125 086 000 000 000 000 000 000 000 000 000 000 000 000 000 000 000 000 000 000 000 000 000 000 000 000 000 000 000 000 000 000 000 000 
-51 -75 -12 -115 125 095 093 -100 071 -72 -57 072 -35 071 073 -40 -01 067 -128 -86 -38 111 -23 013 -121 -69 -127 -97 105 031 -12 004 000 000 000 000 000 000 000 000 000 000 000 000 000 000 000 000 000 000 000 000 000 000 000 000 000 000 000 000 000 000 000 000 
-34 027 031 033 114 026 023 001 011 -50 044 119 004 -42 012 -07 116 -73 120 -94 -06 054 009 -85 098 -86 038 038 020 -83 -07 014 000 000 000 000 000 000 000 000 000 000 000 000 000 000 000 000 000 000 000 000 000 000 000 000 000 000 000 000 000 000 000 000 
-72 -31 -36 -03 002 -42 -93 036 093 -34 079 066 -57 -79 051 -37 -89 -57 052 -39 070 -90 111 -30 119 101 113 -110 099 -52 058 -113 000 000 000 000 000 000 000 000 000 000 000 000 000 000 000 000 000 000 000 000 000 000 000 000 000 000 000 000 000 000 000 000 
-02 -23 051 -79 012 039 075 -54 -84 -74 067 -84 -110 -19 -61 -112 -60 -54 041 055 -22 036 -62 -89 055 115 014 -19 001 094 -10 058 000 000 000 000 000 000 000 000 000 000 000 000 000 000 000 000 000 000 000 000 000 000 000 000 000 000 000 000 000 000 000 000 
-03 035 087 -81 -76 035 -40 -110 -28 081 -73 -39 -113 115 077 056 072 -123 054 048 049 119 108 047 007 089 -47 -113 053 014 -105 -50 000 000 000 000 000 000 000 000 000 000 000 000 000 000 000 000 000 000 000 000 000 000 000 000 000 000 000 000 000 000 000 000 
081 -34 068 010 -117 -74 -67 -58 -122 097 -97 118 017 096 -53 051 -98 105 -31 -25 006 -41 -99 -39 -122 096 121 -83 -27 -01 095 -54 000 000 000 000 000 000 000 000 000 000 000 000 000 000 000 000 000 000 000 000 000 000 000 000 000 000 000 000 000 000 000 000 
-22 -78 100 067 092 068 047 -103 036 -106 113 -47 084 -100 -86 113 011 -127 126 -72 -123 089 088 -85 -65 051 -91 -77 -67 -35 048 097 000 000 000 000 000 000 000 000 000 000 000 000 000 000 000 000 000 000 000 000 000 000 000 000 000 000 000 000 000 000 000 000 
-02 010 012 067 -72 -85 -61 020 086 -81 -112 -116 -01 -49 041 -111 -112 -62 -02 055 006 007 -13 -34 023 -20 -28 084 -64 -41 011 076 000 000 000 000 000 000 000 000 000 000 000 000 000 000 000 000 000 000 000 000 000 000 000 000 000 000 000 000 000 000 000 000 
-73 032 -39 -64 -99 -45 123 107 056 -06 -25 -20 005 -118 -92 -99 037 -93 -90 -90 -76 -99 066 083 -39 076 -102 058 -36 010 -02 -87 000 000 000 000 000 000 000 000 000 000 000 000 000 000 000 000 000 000 000 000 000 000 000 000 000 000 000 000 000 000 000 000 
-08 -121 013 058 002 041 063 105 060 -73 121 -18 010 -73 023 031 069 068 073 -20 -34 -70 045 -45 -99 -81 -62 117 054 090 -65 -117 000 000 000 000 000 000 000 000 000 000 000 000 000 000 000 000 000 000 000 000 000 000 000 000 000 000 000 000 000 000 000 000 
031 018 053 043 092 -101 092 109 032 082 -19 125 -94 -36 -79 -95 -62 049 114 119 -118 -65 -15 -67 075 030 -02 -110 -119 -119 081 -101 000 000 000 000 000 000 000 000 000 000 000 000 000 000 000 000 000 000 000 000 000 000 000 000 000 000 000 000 000 000 000 000 
123 -29 016 -89 -44 -87 005 071 -98 049 -04 015 -31 -87 007 077 083 -70 -63 -79 -59 118 -106 -40 083 106 001 -29 -46 -03 016 119 000 000 000 000 000 000 000 000 000 000 000 000 000 000 000 000 000 000 000 000 000 000 000 000 000 000 000 000 000 000 000 000 
088 080 010 -113 097 126 104 008 103 -114 099 -58 -82 -111 009 -75 048 064 -124 -50 -81 -54 -117 -109 121 -95 058 -78 061 -39 059 -81 000 000 000 000 000 000 000 000 000 000 000 000 000 000 000 000 000 000 000 000 000 000 000 000 000 000 000 000 000 000 000 000 
031 -127 005 013 -119 016 -19 013 094 007 -41 -05 -42 019 060 -59 001 017 017 023 032 106 -64 019 -124 108 042 -100 112 -32 069 -74 000 000 000 000 000 000 000 000 000 000 000 000 000 000 000 000 000 000 000 000 000 000 000 000 000 000 000 000 000 000 000 000 
052 051 095 -121 105 -90 -64 -04 032 -25 038 -44 017 012 -53 -49 101 -44 026 008 057 063 031 088 -22 061 107 -125 -120 -80 -27 -28 000 000 000 000 000 000 000 000 000 000 000 000 000 000 000 000 000 000 000 000 000 000 000 000 000 000 000 000 000 000 000 000 
023 000 072 -74 029 -106 074 -59 012 -68 -59 069 059 -82 121 122 068 -105 -63 -20 039 073 099 -95 -116 088 034 -51 074 100 -28 057 000 000 000 000 000 000 000 000 000 000 000 000 000 000 000 000 000 000 000 000 000 000 000 000 000 000 000 000 000 000 000 000 
-78 041 048 -61 032 -40 053 -10 123 109 097 -12 025 -97 -73 015 077 034 -102 -14 010 059 039 013 -39 126 -38 -77 097 044 090 012 000 000 000 000 000 000 000 000 000 000 000 000 000 000 000 000 000 000 000 000 000 000 000 000 000 000 000 000 000 000 000 000 
072 063 026 060 118 -11 -12 089 -39 -17 033 -91 -81 120 010 -122 091 073 -41 027 054 -126 -124 036 112 038 031 090 -21 055 -74 -02 000 000 000 000 000 000 000 000 000 000 000 000 000 000 000 000 000 000 000 000 000 000 000 000 000 000 000 000 000 000 000 000 
-124 036 083 -125 106 027 -16 -97 -24 -85 -41 -25 -114 003 -101 -43 052 101 -71 082 -19 -82 -68 104 062 078 -87 -48 054 088 040 066 000 000 000 000 000 000 000 000 000 000 000 000 000 000 000 000 000 000 000 000 000 000 000 000 000 000 000 000 000 000 000 000 
015 114 -56 063 -12 113 -48 120 108 -99 011 106 -96 -119 -05 -50 -115 020 065 -120 017 000 078 -42 -13 -75 -41 -71 -22 -37 -88 106 000 000 000 000 000 000 000 000 000 000 000 000 000 000 000 000 000 000 000 000 000 000 000 000 000 000 000 000 000 000 000 000 
-81 051 -119 060 050 097 085 089 -114 069 002 -115 117 042 012 -67 -93 -02 108 041 087 063 095 059 -28 -59 049 070 062 123 -56 -84 000 000 000 000 000 000 000 000 000 000 000 000 000 000 000 000 000 000 000 000 000 000 000 000 000 000 000 000 000 000 000 000 
116 032 096 119 -52 125 -85 107 006 -125 -16 -55 014 -15 059 100 -11 -55 100 126 -24 -110 -122 -90 -57 019 044 -47 112 029 049 -102 000 000 000 000 000 000 000 000 000 000 000 000 000 000 000 000 000 000 000 000 000 000 000 000 000 000 000 000 000 000 000 000 
025 -17 -85 096 -78 029 105 -23 106 053 014 076 060 017 -97 049 -76 055 101 079 -93 -118 -13 -64 042 -02 -112 062 092 099 -73 -75 000 000 000 000 000 000 000 000 000 000 000 000 000 000 000 000 000 000 000 000 000 000 000 000 000 000 000 000 000 000 000 000 
-110 -87 -105 021 -32 -99 -106 -20 -71 -56 125 -122 100 048 113 039 122 086 059 121 036 -33 -77 -97 -50 081 -121 -54 104 -03 -79 044 000 000 000 000 000 000 000 000 000 000 000 000 000 000 000 000 000 000 000 000 000 000 000 000 000 000 000 000 000 000 000 000 
-104 064 050 006 063 102 -63 098 -120 040 083 020 -100 -84 -80 031 084 039 -22 -03 -47 042 -28 -07 -33 -43 -123 -49 056 -43 -30 123 000 000 000 000 000 000 000 000 000 000 000 000 000 000 000 000 000 000 000 000 000 000 000 000 000 000 000 000 000 000 000 000 
-105 -49 -64 -102 113 -36 -88 031 -28 060 -23 -54 -18 -31 -114 -82 101 012 -97 -81 -18 110 062 -79 -93 -55 118 082 004 027 069 083 000 000 000 000 000 000 000 000 000 000 000 000 000 000 000 000 000 000 000 000 000 000 000 000 000 000 000 000 000 000 000 000 
096 -58 077 -07 -69 004 119 102 099 -17 019 -01 -110 084 -103 -104 -76 095 -28 005 -06 -86 -67 106 -58 094 067 122 078 -83 -116 -23 000 000 000 000 000 000 000 000 000 000 000 000 000 000 000 000 000 000 000 000 000 000 000 000 000 000 000 000 000 000 000 000 
033 046 -08 061 -113 090 -124 -66 073 -30 110 -23 -125 114 013 -116 024 -82 -103 -101 125 -122 115 -06 -44 065 -22 -121 117 094 086 083 000 000 000 000 000 000 000 000 000 000 000 000 000 000 000 000 000 000 000 000 000 000 000 000 000 000 000 000 000 000 000 000 
-14 069 024 091 -45 -20 -13 -47 -84 048 013 000 118 -50 -18 -02 060 -66 016 079 027 -110 -59 -35 028 008 034 -42 -63 -25 -96 088 000 000 000 000 000 000 000 000 000 000 000 000 000 000 000 000 000 000 000 000 000 000 000 000 000 000 000 000 000 000 000 000 
064 -49 -58 099 084 -96 -01 025 114 110 -73 -109 -86 054 -59 -78 071 -07 070 073 -60 059 060 -87 047 040 -23 107 -114 102 -109 068 000 000 000 000 000 000 000 000 000 000 000 000 000 000 000 000 000 000 000 000 000 000 000 000 000 000 000 000 000 000 000 000 
000 -21 074 066 -81 -110 -115 029 052 -71 018 -93 001 -40 -93 022 -81 -38 -30 061 114 -119 -27 117 -24 096 117 070 071 069 045 020 000 000 000 000 000 000 000 000 000 000 000 000 000 000 000 000 000 000 000 000 000 000 000 000 000 000 000 000 000 000 000 000 
063 -87 039 -91 -41 -20 -22 -34 -101 -59 -17 -87 121 -58 066 022 -95 106 076 036 046 -36 099 -08 -23 -125 075 -65 047 -24 -96 -61 000 000 000 000 000 000 000 000 000 000 000 000 000 000 000 000 000 000 000 000 000 000 000 000 000 000 000 000 000 000 000 000 
-119 -38 -50 -56 -44 046 000 -86 -69 -34 056 121 -06 -48 -122 021 031 073 -26 -105 087 -17 -110 078 -38 008 081 -70 -109 -47 -37 -61 000 000 000 000 000 000 000 000 000 000 000 000 000 000 000 000 000 000 000 000 000 000 000 000 000 000 000 000 000 000 000 000 
014 -114 -76 -27 -84 091 -27 065 -40 074 -43 072 -104 -70 002 -93 059 -65 014 036 -16 -75 096 026 103 025 -77 -05 -125 025 -34 102 000 000 000 000 000 000 000 000 000 000 000 000 000 000 000 000 000 000 000 000 000 000 000 000 000 000 000 000 000 000 000 000 
045 -50 -116 -80 123 043 -96 -68 -118 -118 071 -16 096 -128 105 124 -72 085 -109 069 102 -19 054 -64 123 043 -29 -65 050 098 -40 091 000 000 000 000 000 000 000 000 000 000 000 000 000 000 000 000 000 000 000 000 000 000 000 000 000 000 000 000 000 000 000 000 
-10 -40 046 010 -35 -59 103 -12 -101 -124 124 126 047 053 008 048 -47 -118 116 -103 021 -47 085 -31 098 -59 -39 034 048 072 -82 049 000 000 000 000 000 000 000 000 000 000 000 000 000 000 000 000 000 000 000 000 000 000 000 000 000 000 000 000 000 000 000 000 
059 021 -58 -75 -02 045 049 -69 013 -18 003 124 -42 -102 -116 117 -90 -09 -73 -12 -123 091 101 -51 -52 -17 086 -128 063 116 012 -36 000 000 000 000 000 000 000 000 000 000 000 000 000 000 000 000 000 000 000 000 000 000 000 000 000 000 000 000 000 000 000 000 
029 057 086 -101 071 -20 -50 027 -125 -98 -66 055 -57 045 097 -115 115 -111 -92 053 052 -16 -26 018 104 -05 062 -108 028 057 061 -45 000 000 000 000 000 000 000 000 000 000 000 000 000 000 000 000 000 000 000 000 000 000 000 000 000 000 000 000 000 000 000 000 
075 -33 002 105 051 -103 -30 -08 088 117 -06 -94 056 -61 -114 046 029 039 -99 096 -32 060 028 096 120 -80 013 120 -14 039 -13 084 000 000 000 000 000 000 000 000 000 000 000 000 000 000 000 000 000 000 000 000 000 000 000 000 000 000 000 000 000 000 000 000 
-14 -78 114 119 -32 -110 -30 -62 014 051 -81 -100 -95 048 016 019 -10 -49 016 037 -70 -66 000 -20 118 -116 096 028 071 -123 023 015 000 000 000 000 000 000 000 000 000 000 000 000 000 000 000 000 000 000 000 000 000 000 000 000 000 000 000 000 000 000 000 000 
-84 077 110 046 002 -61 042 -53 -71 -104 047 101 033 -05 -115 -72 082 -102 060 -12 -37 -53 094 -20 -74 -23 074 018 106 -01 125 -113 000 000 000 000 000 000 000 000 000 000 000 000 000 000 000 000 000 000 000 000 000 000 000 000 000 000 000 000 000 000 000 000 
-128 082 -55 -76 -36 090 025 123 -48 -114 -58 074 047 -07 -110 106 -71 126 -17 009 -72 026 045 -32 -14 -28 -51 -59 013 -54 -12 -81 000 000 000 000 000 000 000 000 000 000 000 000 000 000 000 000 000 000 000 000 000 000 000 000 000 000 000 000 000 000 000 000 
-59 -78 -80 -13 -114 004 -62 037 027 -54 055 082 -28 -102 095 -112 -70 064 055 022 121 086 081 067 064 100 117 -21 088 -106 -84 044 000 000 000 000 000 000 000 000 000 000 000 000 000 000 000 000 000 000 000 000 000 000 000 000 000 000 000 000 000 000 000 000 
-97 024 -04 -75 055 114 096 108 -03 105 010 -20 -20 006 -108 089 -119 029 002 -03 -96 043 077 -77 060 -45 -98 -07 050 011 021 -90 000 000 000 000 000 000 000 000 000 000 000 000 000 000 000 000 000 000 000 000 000 000 000 000 000 000 000 000 000 000 000 000 
015 006 -32 068 -111 039 036 -55 -102 045 023 -73 007 039 108 -16 005 -34 061 -77 008 085 111 -96 -73 114 -08 085 -103 -113 019 -89 000 000 000 000 000 000 000 000 000 000 000 000 000 000 000 000 000 000 000 000 000 000 000 000 000 000 000 000 000 000 000 000 
-85 017 -20 -102 029 -16 079 -29 -13 070 094 014 001 126 -98 -98 -71 006 124 -01 059 -43 016 -28 -30 -10 016 026 -111 117 -37 -108 000 000 000 000 000 000 000 000 000 000 000 000 000 000 000 000 000 000 000 000 000 000 000 000 000 000 000 000 000 000 000 000 
-14 104 108 -30 -54 -109 033 -11 -128 014 090 094 092 024 -104 008 -62 101 -37 082 -48 -126 019 062 038 -85 066 115 -100 002 -113 055 000 000 000 000 000 000 000 000 000 000 000 000 000 000 000 000 000 000 000 000 000 000 000 000 000 000 000 000 000 000 000 000 
106 041 105 -120 062 060 -100 -05 -115 051 000 -50 -22 -108 -69 093 027 -79 -41 -21 -90 -58 -11 004 110 -67 063 -123 060 -105 -126 -47 000 000 000 000 000 000 000 000 000 000 000 000 000 000 000 000 000 000 000 000 000 000 000 000 000 000 000 000 000 000 000 000 
-11 -85 118 -97 112 -65 -10 -97 012 072 007 041 121 -108 -34 -74 098 107 103 -58 -74 -128 045 -32 096 008 -05 123 -84 008 072 108 000 000 000 000 000 000 000 000 000 000 000 000 000 000 000 000 000 000 000 000 000 000 000 000 000 000 000 000 000 000 000 000 
-51 -21 045 -81 -116 -02 -37 -05 -124 -121 125 -04 -51 095 -117 074 -95 -114 103 -03 -27 003 -74 -30 081 093 036 053 -04 -104 -98 -51 000 000 000 000 000 000 000 000 000 000 000 000 000 000 000 000 000 000 000 000 000 000 000 000 000 000 000 000 000 000 000 000 
-96 101 -84 009 091 -120 -38 -25 040 -95 -102 -27 -81 077 042 085 034 077 085 086 042 -59 077 029 -107 108 123 049 116 -119 097 -96 000 000 000 000 000 000 000 000 000 000 000 000 000 000 000 000 000 000 000 000 000 000 000 000 000 000 000 000 000 000 000 000 
-52 080 050 105 -40 069 -07 -93 -99 -57 -50 -109 064 -109 051 013 034 047 041 074 054 -93 033 -58 -01 -14 -105 123 010 -125 -92 016 000 000 000 000 000 000 000 000 000 000 000 000 000 000 000 000 000 000 000 000 000 000 000 000 000 000 000 000 000 000 000 000 
119 054 046 041 -49 -41 -115 043 069 -42 -65 047 -127 028 050 -88 055 -75 087 065 -126 077 102 124 -112 017 022 -113 -09 -92 -78 -93 000 000 000 000 000 000 000 000 000 000 000 000 000 000 000 000 000 000 000 000 000 000 000 000 000 000 000 000 000 000 000 000 
-29 056 102 -15 -35 -69 005 -03 -77 -21 -91 -46 -106 -120 125 060 -96 068 -109 -82 -45 -24 042 -64 -95 -89 -41 006 -86 -121 -24 -17 000 000 000 000 000 000 000 000 000 000 000 000 000 000 000 000 000 000 000 000 000 000 000 000 000 000 000 000 000 000 000 000 
056 075 -113 -77 -51 -115 -98 126 008 079 -64 075 -105 025 -02 072 123 121 -32 006 063 093 -24 112 124 -39 -16 006 121 -05 -122 115 000 000 000 000 000 000 000 000 000 000 000 000 000 000 000 000 000 000 000 000 000 000 000 000 000 000 000 000 000 000 000 000 
-24 019 -55 021 018 051 -116 038 -31 -72 -104 -41 126 -110 123 -108 111 -61 105 113 115 -42 081 -99 -92 -73 097 075 126 015 047 -111 000 000 000 000 000 000 000 000 000 000 000 000 000 000 000 000 000 000 000 000 000 000 000 000 000 000 000 000 000 000 000 000 
-03 -120 102 -42 004 -84 -23 -56 020 -92 063 -90 072 -41 013 072 111 -32 -14 -10 -86 019 -73 022 071 -127 015 071 -105 -96 061 094 000 000 000 000 000 000 000 000 000 000 000 000 000 000 000 000 000 000 000 000 000 000 000 000 000 000 000 000 000 000 000 000 
055 037 -79 -62 -90 -127 091 -115 061 -62 -83 105 -20 -50 092 087 118 062 -122 024 -52 -60 -92 -56 014 -09 -14 -127 -80 -10 116 -22 000 000 000 000 000 000 000 000 000 000 000 000 000 000 000 000 000 000 000 000 000 000 000 000 000 000 000 000 000 000 000 000 
101 046 056 077 -41 055 037 -85 -25 027 126 117 -59 060 -49 -64 -15 043 101 -77 022 -30 -07 -80 116 -46 065 122 -89 024 -53 -81 000 000 000 000 000 000 000 000 000 000 000 000 000 000 000 000 000 000 000 000 000 000 000 000 000 000 000 000 000 000 000 000 
083 -122 064 002 -46 -49 040 040 039 -11 105 -28 035 062 035 -50 -33 -128 -58 097 -45 120 051 098 116 031 007 -63 040 002 -107 -51 000 000 000 000 000 000 000 000 000 000 000 000 000 000 000 000 000 000 000 000 000 000 000 000 000 000 000 000 000 000 000 000 
095 107 -35 -116 010 -39 -104 019 -60 042 -78 -47 -12 104 004 111 049 -64 -88 -98 -105 -88 091 093 -54 060 -118 -10 050 059 -82 073 000 000 000 000 000 000 000 000 000 000 000 000 000 000 000 000 000 000 000 000 000 000 000 000 000 000 000 000 000 000 000 000 
-05 -01 -77 038 -55 -85 -68 -11 -84 -93 -93 -100 039 -92 -63 060 -114 065 -126 -14 -46 -50 -46 -89 -45 063 125 083 -107 -01 -29 -127 000 000 000 000 000 000 000 000 000 000 000 000 000 000 000 000 000 000 000 000 000 000 000 000 000 000 000 000 000 000 000 000 
119 080 090 004 -108 -55 -41 -101 -72 -101 -16 -61 086 025 004 -107 -68 -109 102 -02 -43 094 -36 050 -36 -25 -106 020 013 -03 066 -81 000 000 000 000 000 000 000 000 000 000 000 000 000 000 000 000 000 000 000 000 000 000 000 000 000 000 000 000 000 000 000 000 
-99 -10 070 068 092 016 011 090 -118 -122 -125 -110 -24 083 -19 091 097 086 084 -81 098 -30 -10 117 041 060 012 -117 024 -48 -45 056 000 000 000 000 000 000 000 000 000 000 000 000 000 000 000 000 000 000 000 000 000 000 000 000 000 000 000 000 000 000 000 000 
088 -88 -41 081 -91 -115 069 057 049 111 106 051 -111 -111 -116 -79 -56 -71 -122 089 -17 086 057 -75 -104 -43 -90 086 -99 007 115 -44 000 000 000 000 000 000 000 000 000 000 000 000 000 000 000 000 000 000 000 000 000 000 000 000 000 000 000 000 000 000 000 000 
-98 -123 -104 094 107 084 070 079 -81 023 072 051 -64 -45 -13 -38 -25 -23 -26 059 -78 026 -103 083 -62 -38 -47 064 -12 -25 066 076 000 000 000 000 000 000 000 000 000 000 000 000 000 000 000 000 000 000 000 000 000 000 000 000 000 000 000 000 000 000 000 000 
080 -09 -08 -123 -36 020 -122 -65 017 076 125 082 002 002 -68 -25 115 -73 089 094 -20 -110 030 -107 -40 -28 -37 -117 -105 040 092 -101 000 000 000 000 000 000 000 000 000 000 000 000 000 000 000 000 000 000 000 000 000 000 000 000 000 000 000 000 000 000 000 000 
-15 -43 -122 123 -41 -74 -03 -68 015 -59 120 038 090 -41 108 100 -119 098 -110 053 -44 115 -91 123 125 100 -64 093 022 120 120 -96 000 000 000 000 000 000 000 000 000 000 000 000 000 000 000 000 000 000 000 000 000 000 000 000 000 000 000 000 000 000 000 000 
-63 095 -06 -17 -61 079 078 063 -90 063 -21 094 -116 -78 -93 101 -99 036 -10 043 099 -39 -124 069 041 107 005 -74 020 040 051 125 000 000 000 000 000 000 000 000 000 000 000 000 000 000 000 000 000 000 000 000 000 000 000 000 000 000 000 000 000 000 000 000 
091 -98 092 062 092 083 117 -93 -08 -92 113 068 -77 021 070 024 -54 104 016 056 045 -77 108 107 045 -12 063 -08 097 070 -48 -34 000 000 000 000 000 000 000 000 000 000 000 000 000 000 000 000 000 000 000 000 000 000 000 000 000 000 000 000 000 000 000 000 
002 -23 -93 -05 062 012 088 -124 000 -76 090 072 -77 -105 106 040 007 -53 087 069 089 075 -44 065 031 110 103 -128 -101 -50 -03 121 000 000 000 000 000 000 000 000 000 000 000 000 000 000 000 000 000 000 000 000 000 000 000 000 000 000 000 000 000 000 000 000 
-08 -123 121 -100 -101 -87 063 019 -125 119 007 017 -120 022 -13 -127 -39 -46 117 111 066 -124 103 023 -30 121 123 115 122 039 -36 110 000 000 000 000 000 000 000 000 000 000 000 000 000 000 000 000 000 000 000 000 000 000 000 000 000 000 000 000 000 000 000 000 
042 114 076 126 000 059 -90 096 -90 -33 098 -53 -53 -110 122 -124 -05 -112 -48 -21 -45 -18 065 -98 121 063 016 -28 050 -30 068 043 000 000 000 000 000 000 000 000 000 000 000 000 000 000 000 000 000 000 000 000 000 000 000 000 000 000 000 000 000 000 000 000 
-90 058 105 110 -125 -18 050 043 030 -08 -55 095 023 040 061 -99 -53 098 120 -125 -35 070 065 -93 038 -66 -44 -46 -121 -44 -111 -87 000 000 000 000 000 000 000 000 000 000 000 000 000 000 000 000 000 000 000 000 000 000 000 000 000 000 000 000 000 000 000 000 
088 -18 -42 -108 123 -104 -59 -71 -79 -84 -66 057 093 003 118 035 061 -99 -67 -116 005 -24 064 -119 -40 -50 009 114 -42 -13 098 115 000 000 000 000 000 000 000 000 000 000 000 000 000 000 000 000 000 000 000 000 000 000 000 000 000 000 000 000 000 000 000 000 
017 025 113 -70 108 -51 -57 029 -23 -75 059 -40 117 075 -126 -16 -16 -19 -119 115 -121 -78 088 -60 001 -105 116 002 013 -44 111 -45 000 000 000 000 000 000 000 000 000 000 000 000 000 000 000 000 000 000 000 000 000 000 000 000 000 000 000 000 000 000 000 000 
-20 117 -85 016 -41 -47 053 -77 071 065 -85 051 -118 -46 -38 -92 -26 -91 -111 -62 -38 -36 078 049 -11 -87 087 -16 061 -25 -15 095 000 000 000 000 000 000 000 000 000 000 000 000 000 000 000 000 000 000 000 000 000 000 000 000 000 000 000 000 000 000 000 000 
076 057 -46 -20 016 -62 069 002 -69 017 -14 019 -88 001 032 -42 -58 017 078 -63 -33 -26 -49 -72 -48 -97 -74 096 042 -44 113 -87 000 000 000 000 000 000 000 000 000 000 000 000 000 000 000 000 000 000 000 000 000 000 000 000 000 000 000 000 000 000 000 000 
017 000 -67 -30 072 -81 008 116 070 042 -102 -12 063 -52 -113 124 -65 -12 -116 -127 121 -46 -79 043 -32 -128 -101 061 -116 -66 009 032 000 000 000 000 000 000 000 000 000 000 000 000 000 000 000 000 000 000 000 000 000 000 000 000 000 000 000 000 000 000 000 000 
-02 125 -61 069 069 031 111 001 055 036 -16 056 -10 042 122 -21 -100 095 -12 -40 071 -40 -85 -42 -25 -36 032 -34 -09 -102 -54 047 000 000 000 000 000 000 000 000 000 000 000 000 000 000 000 000 000 000 000 000 000 000 000 000 000 000 000 000 000 000 000 000 
047 -34 023 043 -31 -96 103 -68 -50 -78 -107 -05 103 -69 -86 031 -53 -23 -105 035 -113 -09 125 117 105 073 -74 -109 -35 -23 -126 098 000 000 000 000 000 000 000 000 000 000 000 000 000 000 000 000 000 000 000 000 000 000 000 000 000 000 000 000 000 000 000 000 
023 -34 120 050 126 -14 018 051 -11 024 068 -91 -48 078 -100 070 -73 059 -92 065 -01 028 117 -59 -66 -56 111 051 -17 088 074 116 000 000 000 000 000 000 000 000 000 000 000 000 000 000 000 000 000 000 000 000 000 000 000 000 000 000 000 000 000 000 000 000 
077 050 045 066 -09 -70 044 -94 056 -44 -05 047 096 -120 -09 -36 -32 -84 -88 081 059 068 -62 -37 016 108 -13 035 -20 072 108 -26 000 000 000 000 000 000 000 000 000 000 000 000 000 000 000 000 000 000 000 000 000 000 000 000 000 000 000 000 000 000 000 000 
007 -29 030 -57 089 020 -07 119 -93 -37 -02 -22 -31 -09 040 -03 -108 -87 -126 054 094 -38 012 -34 -27 -112 119 098 -72 -35 -83 -68 000 000 000 000 000 000 000 000 000 000 000 000 000 000 000 000 000 000 000 000 000 000 000 000 000 000 000 000 000 000 000 000 
-112 -04 089 -62 -118 -84 -03 -17 110 023 -107 046 062 -68 090 -81 -44 100 003 -116 037 -94 -86 -122 -25 -66 004 001 091 -87 -74 -03 000 000 000 000 000 000 000 000 000 000 000 000 000 000 000 000 000 000 000 000 000 000 000 000 000 000 000 000 000 000 000 000 
-38 -17 118 084 -56 -65 -83 117 099 118 -35 -32 -04 009 -103 -106 -57 005 -08 060 -127 052 060 047 077 -90 -77 015 016 005 -58 -05 000 000 000 000 000 000 000 000 000 000 000 000 000 000 000 000 000 000 000 000 000 000 000 000 000 000 000 000 000 000 000 000 
-58 -104 -126 055 -75 117 -33 -53 -124 -128 -77 079 038 -25 009 063 112 025 -69 -37 -39 075 -42 058 090 -124 124 -71 076 082 124 037 000 000 000 000 000 000 000 000 000 000 000 000 000 000 000 000 000 000 000 000 000 000 000 000 000 000 000 000 000 000 000 000 
-45 -101 012 029 -12 -24 -117 088 043 -126 -38 107 090 034 109 -78 093 -122 -24 -37 099 122 -42 067 059 -64 046 -103 111 045 077 -51 000 000 000 000 000 000 000 000 000 000 000 000 000 000 000 000 000 000 000 000 000 000 000 000 000 000 000 000 000 000 000 000 
-74 -107 032 -98 054 025 -20 -33 035 125 -98 036 -96 -25 028 104 023 -60 099 125 091 001 059 121 -29 097 -01 -78 117 010 009 -118 000 000 000 000 000 000 000 000 000 000 000 000 000 000 000 000 000 000 000 000 000 000 000 000 000 000 000 000 000 000 000 000 
101 -63 -29 -42 040 103 088 -116 020 089 080 -34 -71 088 074 -88 -117 -98 111 -25 057 -102 -127 -51 -20 -73 -99 074 028 089 103 -70 000 000 000 000 000 000 000 000 000 000 000 000 000 000 000 000 000 000 000 000 000 000 000 000 000 000 000 000 000 000 000 000 
-55 074 074 085 006 002 063 082 092 093 -109 -84 -03 031 048 108 -107 003 034 -01 -73 046 080 019 -10 023 028 070 -05 105 095 053 000 000 000 000 000 000 000 000 000 000 000 000 000 000 000 000 000 000 000 000 000 000 000 000 000 000 000 000 000 000 000 000 
-114 -98 049 125 024 -24 -23 044 049 -101 050 -101 017 -79 097 071 -122 -30 074 116 020 123 -116 085 046 097 067 040 008 025 022 087 000 000 000 000 000 000 000 000 000 000 000 000 000 000 000 000 000 000 000 000 000 000 000 000 000 000 000 000 000 000 000 000 
126 036 056 -93 120 000 033 031 043 -69 -41 035 072 115 089 000 086 -05 -30 -127 053 074 035 -92 -21 -101 -12 -61 -90 -73 053 -63 000 000 000 000 000 000 000 000 000 000 000 000 000 000 000 000 000 000 000 000 000 000 000 000 000 000 000 000 000 000 000 000 
-60 -79 107 -39 064 -95 057 013 018 055 032 102 023 030 050 011 030 062 108 048 -98 -128 027 009 063 091 108 010 -32 115 077 -127 000 000 000 000 000 000 000 000 000 000 000 000 000 000 000 000 000 000 000 000 000 000 000 000 000 000 000 000 000 000 000 000 
-06 -02 070 -01 -95 -20 -41 -60 062 -127 063 -30 -90 -11 -45 -11 004 -19 -126 025 026 -11 067 112 103 -59 -13 081 078 -119 068 008 000 000 000 000 000 000 000 000 000 000 000 000 000 000 000 000 000 000 000 000 000 000 000 000 000 000 000 000 000 000 000 000 
012 -17 077 -11 010 -99 078 -95 025 -93 -16 -100 093 -98 083 092 -107 -10 104 -81 -05 025 -56 063 057 -65 -30 -01 082 -95 020 097 000 000 000 000 000 000 000 000 000 000 000 000 000 000 000 000 000 000 000 000 000 000 000 000 000 000 000 000 000 000 000 000 
117 041 049 026 072 -91 -105 -13 118 018 088 089 -124 -78 -86 -54 040 035 -88 031 -126 -51 083 -19 -110 -31 -20 021 -93 084 034 074 000 000 000 000 000 000 000 000 000 000 000 000 000 000 000 000 000 000 000 000 000 000 000 000 000 000 000 000 000 000 000 000 
-127 -96 006 -101 -64 036 110 010 015 -37 -120 -104 031 -34 062 -55 061 060 -90 -107 -02 011 088 -62 -58 090 025 -25 062 -16 067 -52 000 000 000 000 000 000 000 000 000 000 000 000 000 000 000 000 000 000 000 000 000 000 000 000 000 000 000 000 000 000 000 000 
-118 121 -62 -66 -80 -56 091 057 -18 010 080 043 093 008 -117 -35 073 083 074 025 -109 061 099 058 087 -03 018 047 008 025 103 091 000 000 000 000 000 000 000 000 000 000 000 000 000 000 000 000 000 000 000 000 000 000 000 000 000 000 000 000 000 000 000 000 
101 -40 091 -57 116 043 085 059 076 059 020 -109 056 -09 -58 -46 -33 014 100 -83 -53 043 077 -60 029 101 033 -15 054 -47 040 007 000 000 000 000 000 000 000 000 000 000 000 000 000 000 000 000 000 000 000 000 000 000 000 000 000 000 000 000 000 000 000 000 
-42 057 -18 -91 066 108 097 123 040 020 -29 110 089 080 -100 012 -89 -33 123 119 -117 075 059 017 025 023 -55 -19 037 -31 -100 -126 000 000 000 000 000 000 000 000 000 000 000 000 000 000 000 000 000 000 000 000 000 000 000 000 000 000 000 000 000 000 000 000 
-86 -126 -17 116 -03 -106 -37 033 097 -39 071 -33 028 -55 -121 -04 093 -72 -125 -114 106 -77 006 034 -74 -53 114 081 082 -92 105 -54 000 000 000 000 000 000 000 000 000 000 000 000 000 000 000 000 000 000 000 000 000 000 000 000 000 000 000 000 000 000 000 000 
-10 022 076 108 -13 028 -77 077 079 -106 -01 058 005 023 -119 -23 024 001 -82 081 039 049 -72 -126 -126 029 -08 -124 122 -47 -75 -65 000 000 000 000 000 000 000 000 000 000 000 000 000 000 000 000 000 000 000 000 000 000 000 000 000 000 000 000 000 000 000 000 
014 -15 -112 -49 060 022 010 042 -02 -42 -31 -18 -39 -50 -96 -10 015 -61 -88 057 050 122 -26 -54 -49 011 -126 079 -02 052 -72 -08 000 000 000 000 000 000 000 000 000 000 000 000 000 000 000 000 000 000 000 000 000 000 000 000 000 000 000 000 000 000 000 000 
-17 -111 025 -86 107 035 -71 000 -03 015 032 -41 078 -20 -37 -09 088 117 -115 -22 076 104 -69 -47 018 094 088 -61 -48 099 -105 042 000 000 000 000 000 000 000 000 000 000 000 000 000 000 000 000 000 000 000 000 000 000 000 000 000 000 000 000 000 000 000 000 
-08 -71 -17 052 102 025 -113 -19 085 -76 -92 125 043 -27 010 -88 063 -27 074 -25 052 067 -88 -125 002 -22 065 027 056 -46 052 -14 000 000 000 000 000 000 000 000 000 000 000 000 000 000 000 000 000 000 000 000 000 000 000 000 000 000 000 000 000 000 000 000 
057 -38 -73 061 -76 -86 033 097 -67 -15 052 -53 088 093 -73 -54 -78 126 032 084 115 052 -108 -08 121 -89 028 -29 -115 -123 -126 -87 000 000 000 000 000 000 000 000 000 000 000 000 000 000 000 000 000 000 000 000 000 000 000 000 000 000 000 000 000 000 000 000 
-32 011 029 -49 073 069 114 115 016 006 -46 -103 038 010 122 099 025 -123 015 062 018 -90 003 -24 068 126 114 097 092 025 -62 073 000 000 000 000 000 000 000 000 000 000 000 000 000 000 000 000 000 000 000 000 000 000 000 000 000 000 000 000 000 000 000 000 
015 -57 062 110 070 -11 045 -77 037 086 048 061 003 121 000 059 057 -34 066 -45 115 -54 013 -128 023 -120 049 110 090 -84 011 013 000 000 000 000 000 000 000 000 000 000 000 000 000 000 000 000 000 000 000 000 000 000 000 000 000 000 000 000 000 000 000 000 
072 010 115 -49 -30 036 -110 030 045 -35 -110 -84 -71 -14 103 -120 -66 119 043 -70 -98 073 -10 022 -46 035 -93 095 040 -91 120 -07 000 000 000 000 000 000 000 000 000 000 000 000 000 000 000 000 000 000 000 000 000 000 000 000 000 000 000 000 000 000 000 000 
-41 035 007 086 017 057 034 -25 -28 -75 -81 072 -125 068 -47 121 123 058 061 111 -38 002 120 010 -65 -115 073 093 -08 -121 101 105 000 000 000 000 000 000 000 000 000 000 000 000 000 000 000 000 000 000 000 000 000 000 000 000 000 000 000 000 000 000 000 000 
-72 -101 -106 040 -92 001 009 040 -01 -64 012 031 -05 -77 047 013 -55 -103 031 003 074 080 041 023 062 037 -107 008 -16 102 035 055 000 000 000 000 000 000 000 000 000 000 000 000 000 000 000 000 000 000 000 000 000 000 000 000 000 000 000 000 000 000 000 000 
