035 -25 116 -70 091 -88 -17 123 076 -10 -89 -30 030 013 -99 -01 073 -76 075 -09 -81 -84 -121 027 008 017 -87 061 -98 007 -35 030 -100 -50 -103 -121 -77 -06 -66 -72 -48 -119 056 095 050 -108 070 -87 055 -114 -36 -55 021 -03 071 111 -107 083 -30 106 115 076 -62 -33 
-12 114 -24 083 -57 -35 000 089 -14 063 -117 -115 073 031 117 -74 105 122 061 -69 -37 023 -40 037 -77 039 052 015 014 -09 -121 -38 -43 -56 -53 -55 038 020 -65 119 032 072 088 116 -84 -112 099 -111 -04 -108 -51 -119 112 -42 098 -42 108 -125 032 -125 -41 057 040 092 
-101 035 007 083 122 -111 -30 067 -128 -13 -67 -111 082 -96 004 065 -75 -37 036 040 -92 016 -71 116 109 081 -102 078 -34 -63 027 059 098 -57 112 042 -114 033 -81 071 -46 -13 -77 -105 -07 -44 097 074 045 -105 -53 085 -20 017 -14 -54 030 015 -08 044 012 -54 126 040 
074 -110 -74 074 022 -105 -78 -71 -47 -06 077 -21 035 049 -100 -51 -109 -24 -18 013 112 103 093 -37 060 014 -21 017 089 064 -52 115 103 -23 029 095 068 009 020 -15 -14 -12 124 030 093 -48 064 -109 -94 -06 010 021 124 -86 -71 -16 067 093 097 -124 -52 067 -36 035 
-34 027 -17 -80 097 -34 -117 009 -28 -37 -66 -68 015 -105 013 -28 076 -04 -52 -91 -58 -127 -24 -97 114 054 -15 005 -109 -09 -71 -36 121 -62 -06 075 -65 -107 096 092 025 030 -86 106 -23 -92 -16 074 084 -26 082 051 -85 -74 -71 -69 036 007 053 078 -52 107 076 124 
-78 011 -61 022 112 -36 -46 -119 -63 -118 -10 055 006 -60 -120 -08 050 -10 -126 027 -115 088 -50 -95 -15 -38 004 -102 009 115 -49 -69 -47 -05 114 008 071 -93 -88 015 025 058 110 -17 -118 -71 025 -27 -104 088 051 077 006 034 052 -13 071 -79 -63 038 -67 083 088 041 
094 -110 120 009 040 025 -121 023 022 087 009 060 039 -71 -96 006 -36 034 079 -99 -97 -32 -79 029 032 -11 -87 116 000 004 -12 010 087 -116 013 105 013 111 -20 021 -10 -16 -20 -107 073 -16 035 -42 076 083 -116 100 021 114 054 043 055 -16 102 015 -86 -35 -99 113 
-121 -63 -19 002 -123 -57 089 -71 012 000 -116 030 -28 -116 -103 115 -31 072 -115 049 -78 -120 089 005 -45 013 -118 065 -07 -37 004 -125 -47 036 -14 -61 045 004 -82 -102 -103 123 008 -80 083 -42 -87 -46 -25 010 115 -114 -13 -88 -31 -13 028 -54 019 -30 101 102 067 -41 
053 -82 -76 092 066 -88 -42 -105 028 065 026 -98 122 -07 -94 -34 -107 -101 042 -63 -18 -103 -14 -42 111 099 -112 -89 -79 -17 -53 019 -43 -14 042 084 026 -109 -40 -128 011 -61 125 030 -86 -122 082 097 107 -111 070 -21 -114 -04 -26 006 -59 -117 -20 -121 101 026 -121 -07 
121 092 024 -32 -81 -02 054 -120 -77 072 -34 072 112 -41 -10 110 -08 -96 -78 -66 117 -24 -06 001 -118 102 065 013 -123 109 -78 -77 068 -39 -104 048 -14 -119 -10 -64 116 -76 021 -01 094 -26 004 -124 100 -50 086 -121 038 -04 079 069 -107 021 -79 123 103 020 -106 015 
-68 051 -09 015 -53 -68 -16 014 085 109 -100 012 109 117 -07 123 086 117 058 -100 -58 -68 066 113 056 -69 -67 -76 047 -57 045 072 053 091 -88 -59 -88 -118 -102 -107 -44 -70 095 -54 -125 069 043 -106 027 -76 109 -04 -72 033 046 -65 004 -38 -115 072 -03 006 052 -110 
-91 107 083 -41 -16 -14 039 008 057 -94 065 -123 -19 -17 055 018 -25 068 -96 -38 122 048 -88 120 072 101 082 -61 025 -21 057 077 093 125 117 101 -98 036 028 003 038 -82 072 -22 -71 050 -11 032 107 049 061 -85 -115 046 -126 010 026 091 118 060 -20 066 001 -128 
-67 -56 067 076 119 -03 034 -99 028 093 -104 -46 035 003 -31 -30 -70 046 020 -59 -50 061 085 -88 -96 077 -69 -02 -109 023 -71 -68 -12 004 090 005 -34 008 -71 -35 056 122 105 -81 006 -61 -33 -05 -28 -65 072 -54 109 -04 030 -70 -73 045 068 047 031 -15 089 012 
043 070 -59 -102 058 -125 -72 -96 018 117 -05 -93 077 -99 -84 -54 008 -119 -48 -121 -01 -81 -84 -27 -20 111 -13 058 -17 -01 065 000 -101 -91 -55 044 080 -30 -31 077 -98 -80 007 -85 080 078 -102 -29 -125 076 085 -113 -06 -122 032 -27 021 031 -126 036 -44 095 094 -43 
-101 -79 -37 -07 047 001 -126 098 -49 021 089 -47 -34 021 022 -110 018 099 -23 -59 -119 034 -43 043 096 -96 -71 087 051 066 -125 -77 -82 -42 -74 102 007 123 -58 106 025 036 -41 -11 -108 074 124 -117 111 -40 100 -21 004 -62 107 000 121 -67 -32 -40 -01 -64 -118 114 
-38 117 -43 -65 020 -32 -21 024 -56 -37 -58 125 -126 -21 083 027 -50 102 048 007 -65 -46 038 008 -46 031 -10 -29 -116 -120 -20 097 -46 098 122 -56 042 060 -107 028 -120 -119 -36 021 -02 034 068 037 -45 030 -68 -48 019 096 -18 -19 -11 -01 -82 033 095 126 054 -39 
078 -07 023 007 009 102 -70 054 123 -33 -47 -44 -09 107 -86 119 114 -25 098 -73 -22 -23 028 -39 -35 005 -67 053 059 002 -72 049 077 -92 068 029 -109 -121 -110 103 066 042 -112 -52 -89 064 075 074 -127 -84 016 022 092 -74 -89 061 081 014 -46 067 -62 032 108 -124 
-107 117 089 -71 001 -67 052 -17 -47 -84 080 -85 072 099 086 108 -09 022 081 -116 032 001 -15 -93 066 104 -75 -80 057 -62 -116 -88 -80 -50 -70 -56 081 052 080 -06 032 -124 -30 008 079 084 002 -56 -03 -46 064 -98 -104 042 120 018 -86 086 073 -94 -22 -65 107 -53 
061 -115 113 096 -115 -112 -41 037 053 066 004 -46 -99 -05 -61 -66 014 016 -01 -124 108 -104 -64 -128 090 -115 -115 013 057 -19 -82 057 069 072 -65 -15 -41 -95 -107 -94 074 -88 032 -51 -102 -72 025 -55 -26 -103 -84 017 -84 102 -18 -113 038 107 -122 049 039 -09 -55 063 
081 -65 -127 021 045 009 -16 079 -26 080 -59 -121 -21 087 059 -46 044 -57 095 -61 -119 081 -83 -68 -109 025 -50 015 084 -06 -110 023 -68 -53 -122 -56 -07 020 007 004 -54 009 070 024 081 -98 -121 044 019 -21 -54 115 123 077 008 -04 -100 -75 094 -105 120 009 -24 -51 
-84 121 -72 056 118 009 -65 -84 101 093 034 007 -52 -60 -51 036 123 -41 017 -21 075 -55 -77 116 -58 017 071 048 -22 114 -45 -93 -72 069 -28 -92 038 -101 -85 -29 073 -55 033 032 -113 -26 -68 003 -45 -50 -29 -128 -45 -82 -15 066 019 074 -29 084 080 061 -114 100 
020 -101 034 -63 -12 -56 010 -35 121 -09 064 092 -08 046 -60 025 -52 010 101 116 -86 -67 -68 -73 -52 003 -107 027 -122 -67 023 -07 005 -52 -28 -91 -36 075 055 039 006 -70 -46 126 049 -72 071 009 057 -14 126 005 -55 -127 -48 044 124 -85 -78 083 004 -62 020 -31 
-127 072 079 027 090 -17 -107 -66 095 067 -25 -113 -95 -115 114 051 032 010 -11 -54 080 001 008 -65 111 063 078 -113 114 050 119 -70 050 -07 -114 015 060 101 -97 -17 -118 -109 050 097 -106 -124 -49 -125 110 -22 050 007 -115 -120 -50 -83 -43 -75 -125 -55 060 074 041 011 
029 050 076 -95 -48 -114 -18 -82 -62 -27 -09 -95 021 -46 074 040 -21 -76 -122 -93 100 -27 050 045 050 065 -01 -120 -60 094 -76 -48 000 071 -45 073 090 117 -119 001 091 083 -114 027 092 -93 122 -02 058 005 059 -46 086 097 113 092 059 045 085 -109 076 100 -128 066 
036 -05 068 056 -27 081 020 -107 002 122 -81 009 049 047 086 076 021 108 -65 059 -40 059 068 -86 -106 011 -79 -39 -53 -32 092 118 089 -46 012 045 -23 -41 005 011 -121 -116 099 074 -121 101 -46 -92 -78 -107 -85 063 072 061 038 -11 100 -63 043 081 075 096 -94 -125 
070 -27 091 118 -08 -94 -24 -107 -87 037 006 -68 088 047 -47 -77 028 040 -30 -86 027 095 -88 -45 -34 -22 106 -31 -74 -128 -111 060 -111 -117 104 -33 086 020 -96 -11 -99 030 067 -23 -103 -68 -59 -108 115 009 -52 070 -51 -122 -84 066 -118 -64 -03 041 -61 027 053 -21 
-59 -46 -31 039 049 -15 -95 024 013 -08 076 038 106 -05 120 -08 -99 027 -94 001 113 -34 039 -51 -11 -121 118 -60 034 052 -16 -04 -38 026 -37 -30 -107 -55 115 096 -97 -83 076 -112 -92 025 002 -109 -01 098 -27 -49 012 -66 -104 -44 050 079 007 107 -35 007 118 -22 
-41 001 -42 004 -94 -38 024 011 -96 006 036 -69 -45 -79 -56 000 -102 012 052 086 000 096 028 049 072 031 005 -115 -95 -65 095 058 009 -83 -31 -16 048 022 087 -87 087 099 011 -87 -22 093 -33 033 066 -121 -45 102 005 -41 104 -45 -29 114 -14 -34 060 -39 -38 -09 
-40 038 -22 029 081 110 -86 -62 017 -96 066 -07 006 -24 -21 030 041 -109 057 -127 -76 -11 118 -04 -69 091 -35 -95 -59 059 -99 -111 092 119 -98 -10 105 112 100 -45 091 000 102 089 -85 -108 -69 073 073 122 -123 -63 049 049 080 031 -107 -93 037 -72 013 051 051 005 
-58 030 089 061 -49 044 106 125 031 062 004 075 -128 019 008 112 002 -95 -53 021 062 -26 004 012 -29 -112 019 -71 -122 -16 058 058 003 -105 026 -45 058 085 091 -98 -89 078 -75 068 -103 107 080 122 023 020 -120 -85 097 -109 106 -50 114 -78 -114 -108 013 -83 -54 -09 
-34 044 -121 048 -128 -69 081 066 101 030 038 -37 -81 065 -12 -62 -105 039 048 073 -99 018 -80 -46 -36 064 -75 003 -84 083 125 -50 119 110 102 031 080 -10 -45 028 086 -98 032 -85 030 -112 -40 -66 -81 -82 -18 -70 -60 -80 084 037 -37 -125 -29 -70 106 057 004 016 
013 000 040 032 083 -127 -125 -120 -75 -33 -19 -03 016 081 070 030 055 -96 073 124 -40 068 -29 -93 099 108 -86 -93 -60 -51 -103 -32 -23 -79 -13 031 055 016 053 -25 -39 -39 -124 -50 -58 -72 -122 007 -26 081 115 122 014 -121 -37 022 -98 -79 -02 -125 049 -47 003 -73 
067 107 -100 -107 110 007 081 -71 -13 -14 027 074 -86 -16 -36 102 -36 119 109 064 -11 038 115 000 052 -40 118 097 068 -87 033 -100 -06 -98 -47 097 -58 -58 -26 107 041 012 096 -13 -86 031 050 -76 071 -58 -11 -17 -10 -73 039 071 -119 039 -102 126 013 -97 126 088 
-36 011 -119 -117 084 -48 -50 -105 -83 -93 009 -124 -69 -69 055 -90 041 122 -107 091 -128 084 005 073 008 -118 -19 086 023 -15 -64 -21 099 087 100 -83 122 119 093 119 041 -41 -17 106 039 -93 044 -37 -114 -113 032 -105 035 -94 -97 099 054 -20 100 077 002 121 -66 -85 
-01 115 048 069 -40 -02 049 -24 123 052 059 039 -42 068 055 -114 092 061 -117 -87 -106 -47 036 -89 -21 -49 015 018 040 -58 -07 026 097 004 -65 -102 -56 060 -26 028 019 121 015 077 -19 -70 049 077 115 -122 080 061 021 -102 -68 -103 027 054 -65 083 -41 -61 045 118 
052 -63 110 -14 -108 -05 020 119 -109 068 -51 059 007 -13 011 092 037 -124 048 056 -113 -125 -93 025 -119 122 -96 064 -91 -106 -64 -88 -20 108 000 014 -04 -87 -52 -12 -59 077 032 026 098 -88 -46 -97 012 -04 -108 074 -14 036 051 -19 042 -87 017 097 -74 -44 099 082 
-104 123 010 -107 079 -108 116 063 121 -15 027 060 -102 034 -72 -02 080 119 043 -39 -44 -92 026 099 -105 -50 072 036 -124 115 023 -98 -92 -83 003 047 103 060 -26 -27 119 -48 090 -32 -89 -22 -68 -16 -12 -54 -94 -114 071 053 046 064 -128 003 061 -103 122 -89 005 -93 
062 -23 118 -47 -02 -116 -36 -34 060 124 113 -105 049 024 056 106 087 019 049 016 066 -19 -65 061 018 -10 -40 -126 -76 074 030 115 069 -08 -96 -94 -59 -95 039 100 125 075 -123 116 086 -59 077 -100 -08 -32 -90 012 001 -04 025 084 066 -128 021 069 098 019 082 -96 
124 -105 075 -83 001 029 -123 110 -90 -08 073 054 -94 021 008 -105 099 -91 034 -28 -22 -77 015 115 043 034 031 046 -105 -42 -78 063 -86 -53 007 093 -49 -45 -120 -70 -79 -23 -111 094 -121 056 -71 112 089 -65 -109 034 -89 -98 -08 -73 -57 -27 084 081 -30 -18 -21 -64 
002 -80 -21 043 028 028 069 028 -28 015 -116 -125 -127 -71 008 034 -84 103 006 062 -12 -100 -28 003 060 -97 051 019 013 -49 046 096 010 043 052 -98 015 007 011 -117 -122 -34 -41 076 -90 -02 -27 123 -70 007 088 073 -21 -116 -105 063 -86 -128 -15 015 -60 110 090 -106 
-14 -12 -74 082 -124 004 -16 006 -70 065 -85 -96 -32 -93 109 002 -90 -18 111 014 004 -116 -46 060 050 008 100 028 097 -95 -63 -18 -97 -34 -44 -67 088 076 -124 074 -120 -09 108 -74 -68 -11 039 034 -66 -42 -65 027 046 -93 101 019 089 -40 047 -42 -08 112 -98 124 
-80 071 -79 118 -10 -07 -122 -45 -09 -26 020 028 076 058 -91 014 041 030 -107 -02 -50 -92 -46 -20 069 -89 -83 -91 071 119 -76 -113 108 009 091 122 -95 078 -85 047 -113 -88 -95 -87 -83 -57 063 028 043 -112 070 -04 046 072 -102 -85 -28 080 -62 025 -28 -34 -105 122 
008 -81 -06 061 -43 064 -30 027 -39 -40 016 -01 -29 010 -79 -121 -125 -125 -106 012 -103 -115 016 -107 052 -65 067 053 -46 -46 046 054 -57 -20 095 -120 -65 -87 034 074 -74 085 -63 122 -88 061 -110 -82 -105 060 -41 046 026 -71 058 113 -70 -03 054 049 049 -102 -74 -94 
110 -119 -08 -11 044 081 009 048 -14 018 -14 024 -28 124 072 095 -41 020 -34 113 048 -16 -27 045 -87 021 -125 -14 -91 -32 018 044 -104 118 -19 -24 -43 -28 -65 -02 050 -100 039 029 061 058 -92 110 -68 108 -02 064 -43 -64 -16 -119 012 -42 -115 -21 014 -92 089 -70 
053 -121 -48 -108 098 030 -51 -104 009 034 -110 068 039 -28 073 -43 020 061 -34 -58 -121 -63 095 -86 -124 -97 022 -25 094 -89 -98 -24 -90 104 -117 -76 057 -45 009 123 125 -88 123 025 -13 -120 085 020 059 -34 037 078 029 109 010 -25 019 015 061 -46 040 033 066 -90 
-73 065 037 000 068 -94 081 119 051 022 -72 025 076 -121 -103 114 -38 092 106 099 -25 079 -32 -128 -113 -29 -81 -56 035 -16 112 098 024 -30 -19 -82 040 -64 -33 046 -120 -124 -79 -76 -90 092 083 -69 -53 -88 104 030 -35 085 -119 -94 -14 -109 056 009 081 085 035 112 
108 -20 065 090 -69 -16 081 -126 081 006 -62 042 083 -112 048 -65 037 -111 054 120 -95 052 047 -45 114 090 071 -93 -77 025 -95 -34 124 -07 -67 -78 -44 126 086 -122 -11 087 019 018 006 078 -103 -37 102 109 -118 012 -19 -125 018 -12 -34 121 -84 -56 -16 -108 067 -42 
-49 -74 -84 037 -121 030 -78 -55 -69 108 -16 -49 -80 -67 -97 086 -72 047 095 043 -106 059 039 082 098 -42 072 066 088 092 -18 -112 006 -103 006 -63 -51 023 101 -49 -100 054 056 099 101 024 025 116 100 -07 -12 -114 095 092 117 -113 -25 -33 116 -100 015 -34 117 -104 
102 -30 088 033 125 054 -15 057 -20 069 018 038 -106 -12 100 126 089 015 122 003 027 -23 058 -83 062 010 092 -24 092 028 -115 089 -89 -82 -82 -76 -83 119 051 029 112 -127 -82 006 037 -26 065 -97 091 078 -116 -124 126 072 -116 125 -50 119 054 -118 -126 -76 -66 -27 
-54 -45 -30 -21 -102 098 -125 -101 -108 -59 -72 -100 -12 -12 097 -15 -123 120 103 -122 -104 -126 063 -29 -46 106 122 -26 -02 055 028 -45 076 -116 -38 -65 -122 087 009 007 -88 -61 115 -102 110 088 -72 061 016 104 -67 085 -96 003 099 035 022 -63 058 -116 025 -83 027 -104 
-61 -47 066 -95 -77 -57 -92 123 047 071 -73 100 089 -18 -106 085 -118 -45 000 -45 -122 -14 -103 000 041 -76 123 076 013 -100 007 000 101 -21 -60 -78 010 -94 -110 -41 -126 074 -127 -87 121 -76 004 086 085 093 066 -105 112 055 -33 -41 111 092 -46 -41 060 069 -28 -82 
-127 -76 -08 065 -115 108 074 -81 056 005 034 114 -109 -86 -96 -63 071 -99 105 125 -70 057 096 -14 -43 -61 107 025 -49 074 -24 010 -124 065 064 069 -107 026 117 049 013 096 -92 005 -79 123 119 -50 -67 -112 -72 078 -84 067 098 -113 028 087 -84 -50 110 034 -50 076 
070 -125 034 062 001 -115 -05 -124 -73 -89 -74 -43 -123 -24 028 066 116 -80 -107 -04 -16 036 -99 062 -105 019 -77 048 -10 -12 -104 -67 -39 -102 099 125 124 085 -64 040 -08 013 123 -102 -84 -01 085 -57 063 -91 -85 -15 090 062 -100 -20 088 029 -120 093 -38 029 -53 045 
030 001 -60 071 -121 -35 -50 -17 -05 126 081 125 -15 061 -60 -77 -37 116 -128 086 -96 -58 057 -126 -57 -47 -113 063 -81 085 042 -78 -54 -23 -96 126 -96 -78 090 -58 123 -35 -41 058 -69 -45 -75 -42 112 -119 -46 -111 029 006 012 -03 102 -21 105 102 -52 044 -91 -104 
-68 056 -84 -09 -68 -03 -55 -03 053 -115 104 041 -38 039 016 -110 009 -14 -77 -114 085 -85 -32 044 007 -50 -118 -84 094 -111 -96 -19 080 -72 048 032 -102 102 030 -86 004 -48 012 023 003 061 065 -118 -85 -61 039 088 -92 -87 -58 -01 066 039 -58 122 002 -13 072 097 
000 -126 -56 012 -88 -48 -45 -91 092 -51 116 -128 -72 -16 -125 -34 -42 098 -120 -118 082 080 -79 -123 -09 -42 023 023 -102 -62 051 047 -103 -93 036 119 100 084 -117 033 -93 119 106 -22 087 -31 -41 -43 093 012 -96 035 -95 -73 -128 104 -121 044 -68 120 -49 -37 075 -125 
008 077 033 025 036 -126 016 -105 -83 -25 -85 057 -113 -77 -62 -18 -02 -99 -69 071 -31 013 037 078 -48 061 -48 -79 109 -99 062 091 -112 -104 049 096 033 -28 040 -92 121 006 123 075 008 114 104 -84 -76 051 -93 -127 -113 -98 093 -11 023 -77 -69 -58 -123 046 008 080 
-112 -26 112 -08 -11 -72 -59 -128 085 -90 117 031 113 100 -124 -33 075 -64 019 046 098 044 -124 106 122 -33 -101 -95 002 057 -17 105 -10 -39 006 -09 -39 113 -29 -70 086 006 123 -86 042 048 002 -65 110 122 089 -46 -111 -47 -65 072 -73 -40 077 013 066 002 -22 -05 
-88 026 -104 004 084 114 001 036 -113 073 106 063 102 054 060 106 -113 -83 -101 079 087 -107 089 075 -98 -48 -40 034 001 -22 005 -96 -26 108 -25 -72 -31 058 -79 021 083 007 -72 034 077 106 046 -20 070 -19 024 126 027 -28 -24 070 -49 028 -126 116 -46 033 -04 -94 
054 073 -87 056 091 079 010 069 035 -112 121 088 033 029 -49 032 032 027 -06 -40 113 -67 009 -19 -84 -24 -06 061 104 -45 -51 -64 -78 -25 -54 -102 042 -70 -46 087 -09 123 -103 -38 -11 -88 -08 034 008 120 -122 020 070 -04 -90 -47 -34 -73 -33 030 -98 108 112 -82 
-127 -16 124 045 -59 -51 026 016 -65 -98 -61 003 -92 -88 -102 -29 038 -49 -73 -76 -110 068 -79 -100 121 084 -122 -64 -28 -48 -113 -35 -21 -116 078 057 117 115 014 013 000 051 059 043 -113 006 087 -123 100 081 -64 087 -71 057 067 119 005 -124 121 108 -80 -68 009 -88 
-03 055 -70 -08 -78 -125 061 -67 005 -18 034 088 -45 071 -123 -39 -123 -40 068 -92 045 087 -53 -38 060 099 -88 109 057 -05 093 -47 -119 023 082 071 -90 -11 -82 022 019 106 056 -76 032 -46 -97 -94 -15 -16 103 -24 -19 043 -57 010 091 -85 076 -114 077 021 051 -72 
-99 -103 -45 019 005 024 -108 -93 -114 -65 -19 033 -77 -01 125 -08 076 -63 -127 -94 -06 -53 -114 -100 072 -116 -122 004 107 042 -84 014 -90 -10 -15 -96 062 -123 -32 097 -69 -78 -46 -01 -13 -84 019 099 -96 030 001 026 -74 -106 063 -71 -19 -25 057 -22 -37 -38 -74 034 
-56 018 -117 -38 044 -111 -04 114 108 053 -46 040 031 049 -107 014 -90 053 085 -17 -98 -80 043 -69 005 101 -18 000 118 -36 -64 -111 001 125 -74 047 -123 068 033 -18 068 015 014 -23 -38 043 073 068 -110 049 003 -104 -122 -72 -100 012 104 -70 038 073 054 092 041 095 
-116 -75 -123 026 017 -124 021 -39 -64 -30 -114 -113 -80 080 -19 092 048 -46 -31 -109 045 094 -99 -25 -63 -124 047 082 -100 047 -67 032 -94 -34 -113 030 034 -74 106 043 -18 013 003 089 087 -110 057 -67 -78 063 033 115 121 -54 -99 063 -54 -118 -27 032 -44 022 060 -78 
-117 -104 111 -73 -128 -93 059 -08 -127 -03 -87 046 022 115 -57 -118 -24 070 -31 052 -83 079 011 051 -77 -39 006 103 112 014 -101 -16 125 -21 091 -100 115 002 041 089 048 053 -56 044 -68 -120 -32 -44 097 -114 064 045 064 -90 -101 069 -108 -27 055 -52 008 124 091 038 
111 -01 -16 -35 -27 -91 088 122 032 091 111 070 061 -28 092 -40 -110 122 006 051 106 051 076 035 121 -03 027 -21 -100 035 -88 092 -66 -59 -03 -24 -75 107 -23 -16 109 024 -106 -57 074 027 016 -42 093 -35 -112 -90 -69 -38 -31 -54 -31 -74 -21 096 -03 010 -106 011 
-84 026 -64 084 036 -98 -11 -43 063 085 -29 -106 -95 -57 068 -01 -85 -23 018 069 100 -90 -07 -77 -22 125 -92 023 -34 126 -25 -99 099 -89 032 010 -101 122 -123 093 120 033 -16 022 -114 -61 082 098 047 -32 078 -67 071 001 -32 085 054 097 -70 -09 -117 -110 083 111 
-79 -47 055 068 -109 -36 077 -24 119 005 041 081 117 -105 117 -120 -56 -104 -27 -54 091 093 -25 117 056 -110 -01 008 -90 119 -29 -46 -54 -60 -12 095 079 024 -109 -89 051 -84 021 -80 095 -88 -81 126 029 114 062 038 016 070 -97 -91 012 -56 005 -03 -76 093 -126 -83 
073 -88 086 -104 -84 010 121 100 -45 -86 -111 -112 -126 014 114 056 118 118 023 052 -114 -102 -53 -01 -74 021 -123 084 059 -98 082 -02 120 -50 -102 064 088 -46 -43 -72 016 -08 102 055 107 074 -25 062 121 -113 090 033 074 090 100 -40 021 026 076 019 -25 053 015 087 
-41 098 052 111 -43 -96 095 -91 013 036 -48 -98 -52 025 -127 082 -38 023 -69 -85 035 027 085 076 117 -54 074 023 043 110 070 120 -90 053 030 -21 -85 006 -34 081 -126 090 020 -28 -59 061 -45 001 -14 126 055 -68 022 -119 -121 -50 013 060 -88 033 102 -77 -63 109 
-30 103 124 116 056 -57 016 -84 117 024 031 123 034 101 -71 -91 -109 -56 021 116 098 089 075 -104 093 030 -111 -41 -03 -46 -62 071 098 -76 117 -51 058 -58 -19 -78 051 -44 092 042 035 -95 -37 118 -71 093 -84 040 062 -04 034 -18 -127 000 -92 110 061 -88 -39 -29 
102 109 089 -30 020 -83 -73 098 -83 -108 -97 -22 -19 078 100 -83 074 125 -53 033 063 087 028 103 -61 101 053 024 077 -86 057 -49 -50 082 080 -38 111 045 026 -59 072 008 -78 003 -08 -59 -95 109 101 019 -105 -12 -08 -14 -102 085 -26 038 073 092 -80 -82 -45 049 
013 -14 -19 -72 064 073 -89 -13 -93 050 020 079 085 110 -128 084 -46 -99 061 -06 021 -88 -02 080 004 054 -17 000 094 119 019 -51 023 112 -102 -125 -35 -109 -45 -76 -21 033 -16 -114 004 -44 -100 -34 070 -124 -09 001 104 122 111 -95 105 034 -110 -118 108 -54 039 -20 
-46 -75 050 002 -109 025 078 -53 048 -126 046 036 080 020 -15 126 010 000 -23 -81 023 027 068 -35 083 -103 076 102 -76 052 -36 085 045 075 053 -31 -85 006 -24 092 -79 077 -35 096 -125 -54 099 126 121 -125 110 -105 -15 -27 056 026 117 -43 -120 007 031 -90 -57 018 
080 107 -80 -76 -19 042 069 -09 100 019 015 -22 -50 085 072 -106 -67 028 -115 -12 121 039 -76 051 -68 -84 110 035 098 046 -83 -27 -122 012 082 -29 018 124 053 016 091 081 069 -93 -36 -102 -51 004 -87 043 050 110 -46 -99 012 026 053 -101 088 -85 -88 -87 -62 -15 
-74 067 -81 057 122 023 055 117 -123 110 -57 082 074 -84 016 -103 -31 123 -60 -126 087 064 -22 016 061 064 -75 -121 020 025 -77 063 -81 -113 -117 093 -121 005 -68 105 039 059 052 -128 -67 102 009 094 119 034 079 -12 -36 025 -01 075 106 -109 048 102 042 000 004 013 
117 027 050 022 106 071 039 084 029 036 -27 095 120 -122 -74 -67 -110 -113 065 007 -50 -108 -17 -122 022 -80 024 -70 -25 028 -126 -27 -04 -26 -102 -28 041 -88 111 -102 -47 -61 090 -42 -105 -39 112 073 -80 003 -118 031 117 -95 120 -51 -11 068 -87 056 027 105 -72 003 
105 -105 -108 067 -32 -66 -94 104 -49 012 -56 097 -37 077 -86 -43 104 -126 100 102 -03 033 081 048 -51 -29 -51 -103 -97 -78 -119 059 041 026 124 047 -119 002 -83 -108 -29 039 -41 -92 -61 -41 036 -118 -47 -51 092 012 121 -111 -19 -25 -91 023 -53 059 017 -62 085 059 
-63 -45 -54 -05 011 -26 -89 021 000 -87 064 -113 118 -14 020 036 -16 -16 -62 -93 -96 044 -110 -117 -63 048 010 007 -119 -118 011 054 -88 037 070 -31 064 115 -58 -68 -09 -117 122 047 100 068 000 -72 -67 023 016 -58 -98 020 090 -03 -12 057 -105 -35 086 -28 125 -127 
112 -59 -77 077 -81 088 037 064 -125 -50 062 084 087 023 030 031 046 110 -113 -119 057 005 -75 -99 003 -05 120 004 -62 -15 101 -25 070 026 -40 013 -85 089 -09 -61 -115 042 -76 102 -02 052 -53 -79 019 -21 -26 -102 -18 106 -75 009 022 -10 -16 015 -62 -99 000 -16 
053 047 -123 124 090 -97 -115 -20 117 122 049 -113 058 113 046 -55 -106 -70 -52 -100 -94 -61 -104 114 -17 114 075 -23 032 109 031 026 -73 040 114 022 -86 -08 -06 055 -56 -53 084 112 -124 -88 -07 096 -17 085 -91 046 -13 -82 -19 025 -65 -75 -23 032 -37 -89 116 -104 
059 029 -27 -121 032 020 -86 089 023 -84 077 077 056 000 -90 097 088 042 039 000 -112 -07 -107 -80 004 -110 -21 -65 -112 060 095 -53 084 105 019 071 024 042 -43 017 113 123 -51 072 021 033 -125 058 -120 -65 059 053 015 024 -95 059 -84 -117 075 -13 116 -43 095 021 
-32 -114 -109 -44 -75 -33 036 103 -82 012 088 -23 -54 053 111 060 -58 -86 075 -37 101 085 -34 077 021 103 -122 028 -97 -13 106 -12 002 087 -105 025 -64 040 113 -62 -46 038 -06 049 033 -49 041 -86 -73 -115 -100 -84 -45 067 110 047 126 039 107 -76 090 001 007 -73 
043 074 -66 012 008 -16 112 027 041 -77 019 -41 -107 079 -56 029 -109 -35 -22 -41 -44 033 112 -122 102 058 -65 084 022 -07 -18 -95 040 -59 -38 -79 -08 038 001 -103 -71 111 -39 026 -82 -42 123 -107 086 -56 121 089 -101 -56 076 108 007 -119 049 047 -72 006 120 059 
-28 112 -102 103 090 -107 -20 -69 -60 024 -93 -68 -43 -90 037 126 017 -12 -68 -14 -113 095 -55 010 -04 -38 -86 -40 106 008 044 029 -30 054 -91 -58 -47 -58 -49 -107 108 022 -108 076 067 040 049 -71 -127 -69 -85 -57 -122 -105 031 -68 035 -17 098 -04 104 112 048 -112 
-118 064 059 095 065 111 001 079 -16 -75 -05 -100 005 106 -83 -17 -15 108 -72 027 -96 012 -55 -20 -89 095 013 -71 -19 040 -98 090 111 -32 022 027 -66 035 -34 -45 060 -54 087 -53 -03 -81 -71 -17 081 032 -115 090 013 -15 -97 -01 -91 -122 052 -90 024 065 113 091 
-79 -73 007 -14 048 -25 044 036 068 106 082 047 095 119 -05 -73 -45 -121 106 -20 -47 096 -57 125 -124 001 -55 -29 -12 059 110 -127 -29 -66 004 099 053 029 -57 -32 041 094 -90 071 018 -41 056 089 -60 021 -16 -69 042 -82 026 -78 -49 -03 -46 -80 -117 010 118 -108 
-53 016 058 006 -84 060 -79 114 001 125 042 -58 039 041 006 -05 -97 042 -47 119 -71 041 -89 -11 075 -26 126 047 018 029 120 071 -100 -111 115 -98 122 -43 020 -111 -125 015 121 001 053 -81 -93 066 -49 -12 -112 015 049 -25 003 089 009 -06 -29 -04 -24 -57 -119 062 
-125 025 125 -57 -70 -80 009 -83 -107 027 -04 -11 -34 -78 019 047 -51 -125 038 -118 -73 -30 052 106 -28 -55 -29 -111 059 -07 104 -12 -74 -16 -27 -74 104 126 012 058 -19 082 -54 -04 064 -71 -92 035 -62 -102 -66 -11 085 083 -22 -85 -88 058 029 -103 -127 -55 -07 -64 
-28 041 001 035 -127 068 010 000 -06 031 092 003 -74 009 -72 -25 087 024 -128 077 -87 -117 098 -69 -25 -29 -125 -126 -51 080 104 -115 -86 -106 104 004 -37 -118 023 -76 -09 -29 -116 -06 -34 -10 -30 -16 093 013 -04 124 -127 058 109 110 125 052 024 045 057 -59 012 008 
-65 089 -83 098 -102 027 112 -92 -120 033 109 -116 112 -60 088 -47 -37 081 010 -110 -70 122 -119 038 -84 071 -86 -33 -32 001 083 047 -20 -75 067 013 -81 037 -20 076 -107 077 -87 -02 -98 -38 078 067 085 104 091 045 055 015 022 124 -80 -124 019 -106 -101 -84 -53 010 
-14 066 -77 028 044 039 -14 -31 028 -04 033 -38 -38 -41 -123 -114 -56 -57 091 -06 -62 -99 084 -98 069 -04 -82 118 -48 081 -120 -58 -124 -123 025 -50 -70 013 028 -30 -68 073 -30 089 117 -107 -27 031 110 043 -88 -126 -97 -64 -116 016 029 070 -09 -99 -107 067 -123 094 
048 029 -17 -92 036 -86 -90 -47 085 109 -06 057 -46 -02 -82 -106 -03 -123 009 -92 -65 110 118 059 -38 -13 028 038 -33 103 082 077 104 052 081 071 071 012 069 089 -85 043 003 026 -77 -81 003 -24 114 083 -80 -06 -98 060 108 056 -119 101 -64 -40 -103 -04 -55 062 
-88 118 -110 001 -92 -103 058 077 051 -55 078 -88 063 -112 -18 -09 087 078 072 116 035 -63 -28 082 066 -09 020 063 089 -10 060 033 012 038 -12 079 010 048 033 064 -94 111 -03 031 108 041 048 106 092 067 -38 -51 -62 -32 -67 020 -100 073 -82 001 060 028 -86 105 
045 114 -26 039 -126 -49 -74 035 -46 -121 017 098 028 -42 075 039 -49 -27 -49 008 -89 105 122 -56 -90 120 -78 -09 -62 -100 -124 011 -111 -94 113 -29 107 -111 -81 -07 121 076 -83 -107 034 089 001 -34 -14 045 113 -112 -49 113 -30 -42 042 078 013 063 057 023 -53 126 
-97 -08 026 -19 -34 -94 -83 -66 112 004 -76 022 -21 -50 -12 -14 086 047 -98 -50 079 065 053 058 036 042 005 091 082 -14 -79 -82 064 -08 093 -08 -76 -18 017 -112 051 020 -107 -59 046 -59 063 -103 -50 -103 -104 -62 -122 094 045 010 025 060 103 -72 006 -51 110 081 
-02 -101 103 079 -100 066 079 -94 114 055 114 -05 -61 089 -13 118 -80 -76 097 -107 -94 -49 004 002 -26 -94 -120 -96 062 -22 099 -121 -91 094 -105 -63 090 -26 100 026 083 060 -90 083 -22 038 121 011 -106 051 -18 -09 -84 062 091 -17 043 094 052 -113 105 -106 -123 -91 
091 115 -63 063 -68 091 003 053 -79 -71 -76 -123 -19 012 -82 032 033 022 -29 091 033 -16 -102 -51 -45 073 -11 113 003 -122 -69 -109 -111 -105 -72 113 -79 -113 -30 010 013 064 024 -67 029 019 070 -47 119 100 -81 -91 -67 -92 -50 018 056 -36 117 -79 003 -105 108 069 
055 126 036 027 -08 063 123 -123 -111 074 -53 091 006 -89 -05 -73 -07 -49 049 101 -124 040 024 -83 033 -112 -111 -75 019 -124 018 -120 113 -47 059 089 076 -35 -91 008 -113 -44 -05 -05 -43 095 033 051 031 077 -40 124 065 -83 090 -124 -40 010 -124 057 092 011 058 019 
-08 001 -19 -24 068 -40 036 103 -29 -47 108 -79 -122 -09 -60 020 -22 -13 118 066 116 -75 -102 109 -04 -74 -121 -117 -119 027 -01 045 039 -08 -108 088 -107 -33 -31 034 -113 117 004 098 -97 -52 -40 -83 -63 -20 -111 033 044 -42 031 -110 -121 098 094 110 119 068 -105 007 
-17 093 -100 011 -104 -115 097 025 -118 021 -75 -119 061 -122 -22 096 009 -67 050 -29 126 -07 106 093 014 -92 034 -41 -107 -98 002 -16 -49 112 -12 -31 -41 -42 111 122 -33 009 017 -20 -112 -10 115 044 095 058 -91 016 -39 093 094 104 -01 -95 004 102 -43 065 -48 -15 
061 -94 -19 062 101 -100 097 -66 004 -114 -113 124 -66 -116 115 -13 -16 060 054 118 048 094 -65 098 -98 -25 021 -67 -74 103 018 -16 064 -70 -28 -65 013 -78 -66 -59 -16 -12 -102 116 115 -15 102 105 079 -22 -30 -111 076 -36 -75 -78 046 -72 122 034 -16 -119 060 126 
124 062 015 025 046 -74 -29 017 -100 037 024 -56 -24 110 -40 006 076 023 -25 076 -113 -34 -90 -99 031 056 120 115 -55 071 003 101 -11 121 065 066 -95 -21 072 052 058 096 014 -60 -32 -48 -122 123 001 013 -11 102 088 072 -87 -37 124 -27 -118 -09 -27 118 061 099 
-33 058 040 012 -111 005 022 076 058 048 006 -71 084 -128 010 059 -103 -124 -73 -127 097 053 -57 112 -117 069 -31 056 -71 -33 -11 031 -63 085 -64 -22 -119 -31 010 -92 -46 029 -14 121 036 -40 009 042 051 089 070 121 066 -118 032 014 109 -50 -124 -01 051 015 -68 -117 
106 -42 -11 086 037 100 064 055 -103 018 -26 -50 -02 -119 105 055 024 059 -43 -05 -110 069 089 -125 047 036 064 -62 099 047 -37 -01 023 102 042 -54 046 -103 031 -95 -31 107 -111 -75 039 124 -65 101 -24 -90 040 060 104 -73 085 -72 009 -19 072 121 002 003 -24 019 
076 -87 085 000 122 -15 042 -09 -82 -49 037 -76 081 -10 -32 119 -111 -49 109 -119 071 111 -55 -17 002 -68 -91 059 -28 -111 060 007 067 -24 -91 -93 054 043 -11 -95 -80 056 043 -99 -54 075 027 -95 -30 054 -57 -06 014 059 024 -42 029 -61 -63 118 004 105 -68 -10 
-59 -63 -86 -56 032 082 -104 -34 026 -52 047 -111 038 032 016 000 126 -11 097 042 111 -72 -53 111 -76 -08 111 -54 064 046 -22 025 -75 -08 -08 080 -80 045 006 -82 110 -118 004 009 -103 -95 010 -29 097 107 094 -38 089 044 -22 085 -86 005 -44 -105 -42 -124 092 044 
011 -36 055 096 -106 048 -51 089 064 -95 041 067 -42 061 082 079 -24 081 -23 -104 026 -59 -112 074 -38 -73 -04 -66 042 -124 -112 069 -63 120 013 100 103 076 054 077 121 -45 -100 026 114 109 044 -79 -110 123 079 058 052 101 067 004 004 013 119 045 069 092 026 078 
-50 070 043 005 075 -74 -61 103 065 -124 -78 042 -33 -03 067 086 088 -72 -52 076 042 026 069 -121 -122 083 -71 035 -20 046 -31 -47 -94 -46 -86 006 026 -44 -52 -75 -21 -99 -69 -01 -80 091 -09 125 -110 119 007 -65 050 109 -122 -29 -103 026 074 -63 049 -61 -70 008 
-44 -108 107 -104 -75 -38 092 -97 -09 067 -120 126 013 055 -66 -89 -120 126 035 -52 -46 089 105 013 110 014 101 093 070 059 120 -23 -86 118 013 -88 036 058 082 -20 061 -107 -71 -121 -22 118 065 -100 021 077 -79 -35 -07 007 086 -112 -19 -54 064 064 014 -106 -94 123 
105 073 013 -85 -78 092 047 006 -33 -110 014 -02 013 -75 119 116 -04 -27 068 080 028 -39 048 -18 -08 -49 080 -11 061 030 015 059 004 001 100 -68 -57 -07 093 -42 100 010 -111 -35 -64 -95 097 -61 051 013 040 090 004 056 004 -58 085 -12 -81 019 114 -48 -28 004 
113 079 004 -116 001 057 -121 096 034 115 -97 011 073 -101 -03 -68 -21 065 091 -67 124 -113 093 -119 -113 092 -58 055 -91 120 096 067 027 004 -06 104 -14 -116 062 -59 014 -84 044 055 050 020 -50 -111 043 122 -71 097 -81 -128 -67 061 -75 115 -119 077 -95 116 119 019 
122 -122 -112 010 001 027 -29 010 -48 036 -68 -24 -12 106 117 074 110 049 069 041 122 073 102 056 -71 -22 111 118 -97 126 093 -104 -05 030 -38 007 -36 005 -04 -57 -28 119 -16 097 105 -122 -126 -47 068 -81 029 059 094 -119 004 -10 050 -87 -56 -112 -42 063 068 115 
-37 032 118 035 045 042 -06 -20 111 -48 -58 067 119 -03 -89 088 033 -03 118 055 071 033 -102 -78 113 -05 116 -51 062 -60 001 078 -47 066 -109 -108 -96 036 043 041 -50 -39 -109 012 084 -74 029 021 -118 118 075 -02 -108 -126 -114 100 054 -51 -72 -16 -61 -84 -104 -74 
-36 098 -66 -02 -103 -23 -08 085 061 -46 046 -63 -25 112 -118 -33 051 -38 -10 -27 -36 033 072 039 -52 121 015 -26 -121 -19 -113 013 -97 -104 093 103 -53 019 037 075 063 080 -60 -65 053 -48 -10 043 -122 092 009 -60 -104 080 079 056 -62 091 085 075 013 -17 -94 -31 
082 026 -80 -75 -34 046 124 -36 077 -04 -124 -82 036 030 100 086 -101 -29 -46 046 070 -64 098 -92 103 113 085 035 -26 -07 029 -52 -91 -60 -123 -35 118 089 -14 -44 091 066 -98 -79 062 124 102 086 004 -114 -78 018 062 118 -104 020 -87 061 -30 -40 -60 124 009 -66 
-121 -32 -75 -38 -68 -11 -43 -07 -39 -122 -20 -115 062 -127 033 -28 113 125 052 071 098 124 -77 -65 050 -116 -02 -02 054 109 -14 010 014 059 -07 -07 -38 121 040 -09 -55 -55 -108 -118 -81 113 081 064 -58 -73 -124 115 -94 -51 091 124 025 -57 015 -63 -78 111 086 092 
078 -31 -31 017 -85 -50 063 023 012 020 097 -08 053 -113 -78 060 -16 -55 059 -13 014 009 053 -76 045 -30 -12 023 -35 099 -52 -85 022 000 101 -72 056 -14 015 -62 -20 -59 068 -98 -118 -57 -13 -22 120 -119 080 021 -64 -12 -57 -109 018 -59 -66 003 005 126 064 111 
-79 038 116 -50 -93 -12 115 006 -127 -66 033 -98 -10 023 119 094 100 029 -122 067 018 025 -69 -36 -88 -60 -126 -125 118 010 121 -79 -44 -11 118 064 -26 -12 -08 -71 -60 111 040 -40 -27 -36 -19 -64 080 079 -65 -23 -115 -06 008 030 075 -85 039 -107 -61 -111 -13 -14 
100 026 -79 -99 125 090 -22 032 019 008 036 -67 -24 -74 072 -33 108 121 057 -02 073 039 -12 -83 -81 -96 -124 -05 -59 046 042 -53 -62 -67 028 101 059 125 -07 118 003 -106 061 -101 -58 -55 -128 -110 -16 -56 053 -66 -60 -107 -114 084 -52 010 -99 -01 -112 -05 107 -32 
-126 002 080 -42 048 -68 -100 -36 -97 051 -60 -101 018 -119 111 007 056 055 085 -97 025 -103 -92 121 117 012 011 -12 125 114 -78 032 -05 -93 055 124 -16 -88 070 122 -08 -31 066 067 070 -102 045 068 -72 -41 -46 105 -83 -64 -35 097 015 -40 -14 064 -43 -09 -21 002 
034 022 -91 -47 -101 049 -27 -53 -89 031 095 -115 -34 -43 002 039 -32 125 -44 -83 040 -115 083 118 -27 -96 -123 056 005 -94 -08 124 010 060 050 031 -127 072 072 -42 -87 067 -103 072 -45 -46 -14 082 -12 107 -59 078 -74 016 -122 010 117 -127 -18 -101 055 022 -96 095 
023 043 -96 109 054 -70 029 022 -22 -97 019 -126 021 099 -40 -85 075 000 107 115 096 033 027 058 097 -44 -77 -128 -51 -02 010 -47 -05 034 -124 -81 -29 116 -36 101 054 081 -76 087 099 -66 -65 -71 048 000 089 053 -37 038 -109 -112 -61 -20 -125 -78 -42 -50 027 098 
-88 -96 -05 -121 -69 031 -99 064 -125 -124 087 -115 -117 011 -54 066 -02 112 013 015 -31 083 004 -82 -128 086 010 021 -27 -42 064 004 030 011 016 112 039 042 022 -77 -13 -54 015 100 -122 -102 036 116 -126 -66 083 022 005 -103 108 064 -39 -51 -47 -89 -49 061 -123 -88 
-98 095 -11 -89 051 092 075 -103 -104 072 -16 084 063 071 011 095 055 075 -76 112 -10 -82 054 -38 084 -66 -109 -25 118 -71 -51 -49 -109 -64 -109 016 002 041 -92 -91 -54 -108 008 -112 072 -83 126 -96 -65 083 -96 084 014 -25 121 -79 078 027 -90 -31 -12 -27 117 050 
115 -04 -33 108 -48 -112 -107 035 -125 103 -85 042 -45 010 039 -55 -112 -52 037 -39 -34 -30 088 -27 003 -54 071 -101 -23 046 -101 -102 097 092 -65 083 -72 -32 051 -70 047 029 026 017 -04 121 -91 004 041 082 -02 -103 -12 011 -85 044 085 -66 007 043 101 106 -05 -36 
000 110 -01 -38 -115 049 008 084 -115 070 012 -35 -63 065 -31 073 -124 001 -55 087 085 108 -44 114 101 -64 -17 -52 024 -63 003 -103 -07 000 -88 023 -81 -126 089 024 -06 -38 -107 -73 -84 -80 024 005 -110 007 -66 101 -103 036 -72 027 -108 030 -116 -71 100 112 -15 124 
040 -36 075 052 -18 094 -78 -42 054 -80 042 048 -116 -47 -44 037 -39 -37 -88 026 -100 069 -78 -06 080 004 -59 012 108 120 092 007 -29 -123 -02 047 -108 -25 -114 -47 038 -70 -38 -45 -114 -30 047 084 040 -51 -63 071 -108 -78 079 017 112 -42 -14 001 100 049 002 -127 
062 041 050 -43 -84 -07 061 026 030 -123 009 -127 -44 -69 050 -62 067 -30 -28 -120 125 -80 048 -60 042 097 017 041 079 004 109 -43 -126 -126 -10 063 017 112 -35 074 -07 077 043 -104 011 019 050 -04 024 -02 123 -57 -66 -109 067 046 -43 -48 123 114 037 -24 -79 027 
-26 101 013 -90 026 -62 051 -92 -23 117 016 -119 040 -14 -63 -29 078 -93 -125 -125 086 098 -101 108 004 111 -123 012 -63 044 -17 084 046 -122 -14 039 -92 -60 -97 -44 083 -08 104 081 -97 -121 029 018 -33 027 -58 -101 -02 051 -04 -55 -117 -40 -109 -52 -45 020 023 037 
074 117 -120 096 064 -123 086 023 -21 -104 -53 -72 -119 -59 -53 -98 019 -68 -63 056 002 -23 -92 -05 -63 009 -125 -52 069 107 -122 060 -82 -38 005 033 043 024 -10 065 -128 085 -111 -40 -92 044 002 -49 113 -19 -04 -73 107 -22 104 -17 119 -66 -74 069 017 069 115 005 
118 -96 059 -123 089 -67 -107 -71 117 -82 -55 -64 115 -95 078 -34 -91 101 -28 063 055 070 -16 -11 118 054 121 -121 -103 106 -105 003 -92 007 -127 -66 -97 -32 -44 074 041 010 047 031 010 031 062 070 -72 093 -80 082 -04 014 052 044 -112 088 040 -35 022 -113 019 -14 
044 099 051 -79 123 078 006 093 -110 038 -67 -88 -68 -11 079 -27 -52 052 018 -32 -61 -43 -31 -75 016 100 070 -105 126 067 -01 -45 -92 -101 097 048 016 -74 -41 071 037 -62 019 041 112 024 121 047 -79 103 -82 -40 -117 -11 110 080 -05 087 074 -31 -36 -49 -38 -03 
-02 -117 -83 -05 -55 060 075 107 -117 -70 087 079 124 -121 031 -88 010 048 -95 093 -56 063 057 -114 -26 122 -39 101 019 019 013 047 005 042 002 -44 108 054 072 -102 -35 115 085 101 -60 049 -33 -75 -72 006 -73 -36 -104 028 075 -70 -32 022 -52 -95 -18 -100 125 -53 
116 095 -30 -118 121 -118 014 -121 013 019 105 107 124 -54 107 033 059 -80 083 -103 095 -87 110 066 039 -69 -05 -12 -81 115 012 091 -101 081 018 -08 069 104 103 041 102 123 072 091 -80 -79 103 -03 -24 -94 116 092 080 020 076 -67 091 067 123 014 -12 070 124 047 
057 088 117 -66 -108 -116 -81 118 -51 -111 -66 126 -08 109 098 -27 -22 -17 049 -119 038 -60 -97 -80 105 119 016 003 108 114 -25 109 -12 086 -98 -105 046 004 -16 067 -77 -66 -64 073 -08 067 -75 -12 -99 011 -89 -54 004 -06 059 -67 120 -06 019 -64 107 048 -70 -84 
056 -29 059 079 -52 001 -80 065 019 069 046 -104 -70 125 023 -116 -30 -19 043 -11 -39 -05 109 -119 034 -55 -27 036 -07 -10 046 -30 -125 -121 -24 -54 065 -117 -86 -36 -17 -80 065 111 -02 084 078 -46 -67 070 -81 019 -49 071 -46 -52 -07 043 -30 068 -48 093 -42 -63 
-63 048 -58 090 092 076 029 -108 -55 064 -120 030 -32 061 008 -93 093 -82 -80 -84 -13 -02 -18 -02 -12 053 -120 089 -65 091 -110 033 -95 -121 -89 -119 076 -01 049 -85 093 -60 024 -99 072 080 -16 -49 086 -97 -100 107 050 -105 094 -17 -58 -47 -63 073 033 -17 010 -49 
029 072 102 -17 -21 002 035 -109 -46 035 106 093 -73 -05 -53 -118 -43 040 055 033 120 016 -18 -121 -66 -35 -57 083 009 016 014 082 066 048 098 051 095 070 -109 040 018 117 081 -76 078 -74 -96 -105 -58 116 -48 -69 073 -107 064 -54 -64 -121 -33 -10 -13 -113 111 119 
-25 -28 015 068 -102 031 125 057 -46 036 125 -94 109 -29 049 111 040 088 027 095 -112 -122 -56 111 -116 033 -32 -86 064 -68 -79 073 -29 -119 -24 033 071 -32 -110 -57 038 064 -128 028 -37 -20 -54 -02 076 035 -62 067 -101 099 -114 -54 -49 -14 -77 -02 097 076 -71 036 
-112 -114 -107 021 -69 -13 013 -118 -06 -12 040 -88 061 -103 014 000 126 059 -40 -33 121 -87 -15 -25 -40 006 101 -15 077 035 052 046 -99 019 013 109 -21 072 -06 -07 -35 024 081 -128 -58 016 -107 051 -68 -43 -37 009 099 -44 -21 100 -47 063 -115 063 -96 098 018 005 
-76 089 -03 084 114 -92 -02 010 -17 071 029 -50 019 074 -36 008 053 -74 -37 -120 025 -82 -21 122 -120 085 -50 -32 008 014 122 -57 -60 033 -36 064 -107 095 095 107 -59 124 122 004 062 000 -90 -77 060 050 -128 038 -55 033 047 066 -58 115 123 -45 -30 122 125 -44 
-02 -49 -10 -38 -12 126 -77 088 066 034 086 -118 -84 011 -89 -36 -03 091 053 100 051 071 064 -78 120 061 040 052 096 -33 057 -27 084 -57 -120 091 -72 -14 098 -89 041 070 -89 -20 -37 021 -82 -30 -16 021 024 028 -05 -25 039 044 049 -85 -02 -14 -71 -85 -61 -29 
102 034 -127 120 072 -97 -106 -47 035 106 089 -102 -122 -100 028 -93 -70 -45 096 -110 030 -122 003 076 042 059 -83 104 -15 -115 080 006 096 -83 021 -109 -74 002 -110 092 039 040 -16 -118 -37 000 032 023 014 -121 -104 098 051 -46 080 045 -39 066 -37 021 -01 060 039 049 
-58 046 027 068 -83 -14 049 124 -108 016 -23 -17 -32 -26 021 -125 -127 117 -15 -54 -20 047 000 095 007 121 -66 030 089 117 -58 081 086 085 -115 -42 018 057 -118 003 -111 -27 079 -39 -48 -126 022 092 075 059 -06 052 052 013 021 -40 110 081 062 -87 -117 109 -24 -90 
-08 -113 121 081 -98 002 104 111 112 -34 -46 -31 114 104 -125 -113 035 003 057 088 101 -81 -57 -50 -102 -61 -109 -22 054 119 -61 -45 -70 -100 033 -57 -86 089 091 117 -80 -20 091 062 123 101 063 118 036 -06 084 083 -110 -48 -43 057 -55 115 100 -38 094 -108 078 -20 
-59 074 070 053 064 -17 -62 059 -115 082 -110 034 058 030 028 -105 003 -76 -78 -57 100 -114 -91 073 -11 028 105 065 036 -80 076 028 -108 084 -70 100 -69 -54 079 006 094 044 096 -99 -119 093 109 -60 087 012 -22 105 062 089 016 029 -57 -89 -90 078 089 -46 007 -40 
016 108 -08 125 097 116 -08 059 119 057 -98 013 025 -11 -75 -39 066 -21 -67 073 -84 051 -09 -28 -49 -10 102 -81 -97 -23 -31 085 -72 -16 -106 106 072 -94 -56 -119 -31 070 -93 005 -88 097 -49 100 117 026 116 072 -114 028 052 -36 074 057 093 093 -120 -120 -118 -116 
-79 -124 -37 043 -122 -82 -53 088 -69 109 015 102 -102 096 092 -18 016 000 005 045 102 -08 109 049 -95 114 064 010 -62 -101 070 075 098 009 -121 094 -100 120 -11 019 053 -61 025 082 039 100 -30 -04 045 -24 -119 076 123 027 030 -118 087 -124 037 028 -124 -107 -69 -34 
-124 -21 -70 094 017 110 -108 -72 024 -74 -06 -114 121 116 067 -09 075 -85 014 121 -51 014 013 079 -98 -45 061 035 -29 078 -01 067 034 004 069 -70 011 -26 -77 020 078 -64 -106 -50 -108 056 056 -114 -70 000 081 043 -109 -94 033 098 -120 072 -20 -42 -116 -116 -35 -43 
094 115 -01 050 -78 -71 -114 -07 081 -122 025 -99 -24 086 051 -69 -102 -62 059 -43 042 085 -126 030 088 058 099 -59 062 -39 122 080 -68 -105 -20 -82 -70 075 -91 121 050 -78 -44 -32 086 -62 -100 004 016 -23 -31 -03 -12 115 059 -04 -03 052 051 061 -120 055 045 091 
-53 073 -94 089 061 -92 -108 -21 049 -33 -54 114 -126 113 125 -47 -102 115 006 068 -85 022 -23 -25 122 -08 -123 041 004 038 -124 -15 -76 -24 -46 -63 112 -95 082 012 -80 -122 -53 101 -84 -36 -126 000 -38 -62 002 115 -35 -58 082 -29 024 -116 043 082 008 -89 -25 022 
072 -61 088 107 033 126 -67 124 077 018 102 111 -06 111 -66 -102 003 -80 103 -94 109 043 103 -98 -32 102 -44 -73 -104 -89 099 -62 019 -117 026 047 -80 015 026 032 102 -95 -87 -04 057 -89 -95 058 050 040 -94 058 -43 -26 121 -33 066 082 003 002 -08 -69 082 009 
011 -75 -48 006 -47 -68 -63 -98 016 120 078 045 -36 011 106 -79 -38 060 041 -100 -33 099 -115 048 102 -123 057 -125 -20 000 -93 -110 -122 -02 -62 -111 106 086 031 002 -43 038 005 -39 -39 -95 -11 036 100 003 082 -108 -119 039 -43 051 -69 -23 -07 046 -61 -15 075 086 
087 072 -109 -82 -22 088 095 049 -115 102 089 -04 102 038 094 -112 -73 085 060 034 -76 011 097 110 060 067 -122 -123 095 055 -89 -40 117 112 -37 075 -106 065 -52 096 -11 -14 102 066 -47 008 059 035 -69 060 -12 -62 -02 -78 107 007 -02 -33 -48 035 113 115 013 049 
-109 077 -31 080 -53 021 030 002 -60 -86 -90 016 -106 105 -98 040 -12 -67 -86 069 -13 024 -102 -92 -54 055 -127 007 016 036 -108 -34 -08 -107 015 080 037 -85 -44 -67 053 -31 -102 -61 098 078 008 106 061 -58 048 007 -33 082 -17 -53 095 -54 027 -97 -71 -23 -64 -96 
-44 -101 119 -102 -84 -37 -105 -41 117 -68 -93 078 041 -120 -21 -68 -87 -12 112 -24 010 053 079 -67 -81 120 058 081 042 -24 026 -96 -57 -88 -119 -19 008 -96 030 -106 076 -111 102 -83 013 -03 012 -79 114 015 079 120 -50 -98 -91 -101 100 084 112 098 -43 -77 -116 -105 
-121 075 -76 -81 024 -62 125 -36 071 098 072 044 -05 039 091 110 104 125 024 -19 049 022 000 -18 031 056 039 -60 -113 -10 -64 -01 -73 -61 077 -33 001 -101 -35 -01 061 -124 -119 -08 -120 -21 -124 085 -124 065 -114 -18 -20 124 -111 -25 -121 -106 075 076 -03 -43 076 -71 
-09 080 112 053 096 077 033 -39 074 098 060 126 098 -09 -54 -69 -79 -72 045 -04 -99 -46 103 -27 -24 -110 -94 -126 059 -68 -70 -01 124 119 -104 106 -28 -38 -63 -51 -07 -88 106 -126 -09 058 -31 -70 021 -115 020 085 -100 -82 121 -114 -87 -123 050 045 -90 -09 013 -68 
-39 -104 -100 -98 -43 036 079 076 -93 042 -67 -79 038 -75 092 018 -31 -12 -32 110 -46 -10 099 -119 053 047 -44 004 -81 -15 -09 031 -113 030 022 -105 -88 -87 049 -108 002 -17 065 053 021 069 046 043 046 -99 -19 016 086 034 -106 026 -47 -119 -121 033 -60 -84 093 -76 
-46 045 -126 -114 -103 -103 -99 -18 -57 119 047 007 117 -107 -84 -67 004 -60 022 102 008 088 -74 000 034 -68 069 067 116 024 089 029 044 099 -46 -67 109 -18 053 065 063 121 047 028 038 044 -60 053 -06 026 077 -105 101 075 018 093 -102 070 -68 001 -43 -42 031 124 
-32 -51 106 033 081 -52 038 -09 -45 077 -50 052 -34 005 -40 044 030 -117 007 096 093 -115 -04 094 -62 -14 -115 -63 -74 025 -118 -70 087 -43 -104 065 -69 -93 -119 028 079 -35 001 094 -40 -99 -62 095 -116 -02 022 -36 -83 115 -75 030 026 -90 109 -127 -114 081 -02 -126 
-33 -50 003 100 -107 -71 024 -17 -45 012 -28 062 076 046 -06 119 065 -08 -34 -120 009 -84 -44 071 000 118 118 -92 -84 081 015 -77 -87 035 -128 027 059 060 093 -83 -02 -17 088 105 038 -65 -128 -60 052 102 -70 092 070 -88 -63 121 085 -44 -58 119 074 -59 108 -52 
-122 100 006 124 058 -64 076 017 107 -39 -73 114 118 -120 057 -89 018 091 062 -61 -91 -80 -06 -12 111 062 -09 070 091 -49 -76 -28 122 109 -73 -125 058 049 037 -32 061 075 -23 -31 094 -20 080 -95 -65 -80 084 -128 026 -106 092 -90 -28 -63 -02 079 122 013 043 -98 
077 -59 031 -04 081 -19 031 041 004 017 069 -72 019 -09 -114 -122 -118 -122 036 098 030 015 -74 112 -37 -70 057 115 011 062 108 -62 -66 -26 091 -56 077 -97 054 -111 -83 006 089 -40 -78 098 020 004 -103 110 -45 062 075 052 -77 -33 -93 -66 -73 -48 005 -107 070 109 
000 -122 -110 007 071 087 097 -114 080 018 049 030 -31 -28 -67 -88 -61 -54 020 -50 -50 -11 026 084 045 -92 -43 003 055 -124 -27 090 -108 -79 -59 -04 -105 055 -89 084 080 030 -117 -57 -111 -106 -39 -92 124 -127 -55 -58 -116 -78 -82 087 056 052 080 042 -71 112 007 -61 
033 -71 -34 106 -103 -51 029 -10 125 062 -116 -08 -18 063 -127 015 105 068 094 089 -36 -66 -12 -86 115 -113 -101 -01 050 -04 -85 -106 -19 -92 072 076 -74 -126 037 -97 081 -15 007 108 -03 078 -03 -105 -50 -103 -101 -123 112 -22 -113 030 084 -107 069 029 023 085 069 059 
003 094 -35 -36 -94 065 -08 -54 -54 -38 119 033 086 -79 -11 -103 041 -45 -108 075 -126 056 -56 120 -109 -93 -33 089 095 -64 -48 095 -116 -80 -120 086 -127 -25 069 -97 -127 -97 063 109 029 -46 -03 125 -81 061 -02 053 -89 -58 -121 -49 -95 -114 045 -81 124 -116 006 -45 
120 -87 -13 021 -52 052 -23 -54 016 -95 -76 039 103 009 -64 126 000 -56 -60 -100 091 118 -53 -05 005 066 065 023 -59 -73 098 012 020 -114 -103 -109 -36 -11 -125 063 042 -79 016 109 -87 -44 053 107 -74 -17 -04 070 015 -83 -28 -12 081 122 -42 082 -05 -28 056 100 
-124 053 102 -43 087 076 093 048 000 -58 066 027 107 092 097 -42 -69 -110 -97 073 026 092 -102 -94 -123 -110 -07 -13 -45 -35 -40 058 -117 083 -119 -12 015 -77 -27 -114 -128 -104 033 -87 -62 097 -99 -114 -70 -42 -68 089 -86 016 067 121 043 012 069 -62 003 -34 002 -69 
116 051 -98 041 -103 -119 046 -64 115 -59 006 112 004 069 -126 -80 -78 042 008 060 -120 085 004 078 -118 081 006 119 -58 -102 123 -73 -24 038 -119 028 011 053 039 -63 -104 -73 -66 -58 090 020 034 085 -83 -28 -73 054 057 -61 -82 -93 048 057 -08 -61 -51 032 084 041 
019 050 036 102 -01 -95 007 050 -87 -43 012 097 -33 -03 000 048 020 -30 099 -59 -40 -82 -64 091 061 -92 028 052 096 -42 -95 034 034 053 -65 -54 041 015 -110 063 -100 -26 -21 -07 -124 -46 -32 066 -98 -53 099 098 -127 -25 039 -31 -96 022 122 -03 033 005 106 -26 
-35 -82 -37 013 -92 104 -02 -38 078 110 088 110 -63 -100 -33 -58 -127 -46 056 082 016 078 -27 -101 -26 005 -127 108 048 004 -51 126 078 -99 085 114 -32 -107 055 -70 031 -34 031 -41 045 -102 -117 -120 -03 090 058 -46 087 -12 -32 113 097 -106 -03 -120 085 -48 008 -79 
113 -100 -71 060 084 -128 -59 -35 088 -14 125 -44 -118 017 -75 008 041 -57 -11 055 -107 -37 -125 070 035 -119 057 -79 -121 112 111 -110 -22 -61 022 119 085 -88 019 -111 021 -113 108 081 108 -33 -101 -88 -55 112 -36 -115 103 004 099 004 082 043 122 055 -09 020 103 098 
-96 049 020 008 -59 064 -107 -58 018 093 -45 111 007 -120 -14 076 -83 072 -24 104 -27 011 100 -89 -117 -35 -86 038 030 -52 020 046 -64 075 111 051 064 -89 -123 -67 100 -109 035 -97 026 -13 075 -120 -46 106 043 027 -13 -84 -77 087 120 071 092 -63 -19 088 063 -77 
-09 -05 -109 030 017 119 068 019 034 -106 -66 -33 -27 -58 -88 -57 -14 094 045 -67 -72 -79 013 042 -14 -14 -50 124 052 -58 -03 066 113 096 -16 058 118 039 -119 105 -101 -18 075 031 011 053 -93 097 -81 -45 -86 -30 -40 -64 100 029 079 088 052 -33 111 104 076 -103 
-23 -06 -48 056 -107 -50 -106 070 -72 -05 120 126 084 -23 -42 059 -37 -75 -63 060 048 058 004 -42 003 -73 -61 -117 045 101 035 -72 059 007 008 118 036 -25 054 -08 -101 -88 -112 -08 112 001 -51 -116 024 064 -77 -96 076 -82 005 080 046 081 023 -03 -12 -102 -17 122 
014 024 -78 017 -111 119 -42 -27 -47 -91 021 -84 -03 -75 003 105 032 -09 051 035 -66 -80 117 041 105 -65 -120 096 009 084 -51 032 -62 -16 068 075 109 -94 079 065 -18 077 -24 -09 013 115 -51 088 -24 032 -126 123 -86 090 -20 058 044 -36 -09 053 -123 -09 -46 -51 
-54 101 -84 017 089 -65 -97 022 -118 -85 -18 -51 -12 033 -33 -89 048 005 104 055 076 058 -72 -97 010 058 020 -12 -39 096 -26 -33 -99 123 -82 067 -49 -79 -77 125 -35 -114 -32 030 -118 -123 113 117 116 079 078 -113 -118 075 -106 -123 065 002 034 050 -93 106 -58 -120 
-67 105 -03 -101 010 -79 -51 -24 -63 -42 020 050 -98 061 116 068 040 -63 -21 052 093 -115 -57 014 -78 062 098 -124 -54 080 -126 125 -123 -34 -61 020 -18 -14 -62 051 056 072 019 -71 077 007 072 034 126 -108 106 085 -126 -40 -80 -30 -29 108 -60 058 -84 098 -96 -18 
125 062 080 -59 -61 073 -103 065 098 -85 -13 053 071 116 -87 100 -28 115 047 065 -83 067 -53 112 -56 016 034 117 -59 -126 046 -124 092 089 -04 -58 -30 -27 -63 122 098 -13 -08 -123 -54 -79 115 108 -36 -10 017 -114 -19 017 -22 082 046 -61 038 006 003 118 090 005 
061 081 029 -76 008 078 -15 -111 -23 039 -38 -116 -40 011 -22 077 -59 -02 007 100 -106 041 -94 -15 060 -92 096 057 111 -04 -31 082 -49 -95 050 087 -25 -48 -120 098 -02 -55 -128 -125 079 -95 021 065 -46 -118 -59 -117 009 -07 -33 115 -40 008 124 001 009 032 -08 032 
061 -43 -59 062 -95 -126 -44 -124 -97 -68 -89 032 -62 -99 -103 041 046 -100 -122 068 -52 103 -113 032 043 116 101 021 -117 120 -39 095 021 119 -34 124 -16 077 105 -76 087 007 -38 -119 -98 044 108 -122 -13 -31 112 036 -75 031 092 115 -90 012 113 050 036 072 019 027 
107 -31 001 008 048 -31 067 -40 -115 -69 -89 049 002 -46 007 123 -07 015 -03 -22 007 084 053 018 -38 -99 -33 -124 -113 -28 -37 -16 -119 -53 -06 059 -46 -43 -25 109 -65 -38 -25 067 -128 -47 004 -09 -61 -43 016 -87 -127 076 053 090 -84 046 -54 -20 087 -106 091 -125 
-03 -40 -66 -37 107 085 111 031 072 051 111 029 -69 021 114 025 -02 035 018 -74 -10 -67 114 056 051 096 -53 -113 -25 -09 111 -83 079 052 -57 -49 -22 064 -03 046 -75 -34 -26 065 -121 044 -74 -109 126 087 -41 042 -37 124 -73 -25 027 -105 -33 066 -89 -124 -113 069 
038 030 -110 001 -24 -112 -04 054 080 022 -128 024 -106 010 028 -119 -77 123 -81 -33 -17 -100 -114 047 094 -76 092 004 -67 -93 035 024 111 020 114 -60 125 -18 113 -92 -124 117 048 109 027 032 115 -42 -20 074 -21 048 069 081 034 -86 025 119 -39 059 -25 -88 051 -15 
068 -09 -14 028 056 068 -91 -32 004 042 046 095 -08 -02 052 122 056 067 122 -126 010 -99 112 -31 -120 -51 -55 -95 -04 -127 091 -82 046 -20 110 021 086 031 076 -92 -51 101 -37 -70 -128 068 072 -35 -31 023 121 -28 000 077 115 -34 -97 -77 001 -01 -58 008 003 -53 
125 -81 -55 070 -117 076 118 -02 -64 086 -68 -81 -88 -11 -22 003 091 011 082 -47 -128 018 -14 -42 -104 -103 036 -90 -43 -51 041 027 009 116 101 -96 -26 080 -102 -90 -82 -84 088 017 068 -50 114 036 -15 098 -83 010 -127 -08 -53 117 -100 -103 -93 -107 -126 009 108 -117 
093 -62 -125 010 046 008 097 -53 -75 -105 -90 103 043 -77 -44 -107 -107 -01 -45 049 052 090 088 005 088 -91 098 -95 -108 062 -118 -112 065 016 080 -50 -123 -90 118 -102 -34 -117 019 074 075 -63 -101 -15 057 004 120 -03 -47 -63 076 -44 -79 -52 001 -123 -65 -93 -91 -112 
124 -25 114 066 -18 -33 -77 -42 114 049 047 004 109 025 077 -34 -24 038 003 -41 057 -09 -62 -82 098 -107 089 -43 006 -87 -23 005 -64 114 -94 -62 -72 064 -15 -96 -63 -94 -126 060 031 108 023 102 106 015 083 -47 -19 -42 -112 -36 -31 002 106 -65 -09 055 -101 026 
-48 058 -73 -03 -128 -12 -65 091 107 -74 113 -115 -120 -107 -14 -98 -82 -114 -69 -97 -35 -15 095 -21 041 -126 -121 -70 -114 -71 -06 -10 069 -32 -73 -118 055 126 -57 053 -121 108 -21 039 057 -38 072 -110 -21 -84 044 047 033 -92 072 014 062 103 -128 -68 111 -15 031 -08 
-07 -46 -89 009 119 -25 114 087 -01 085 026 -02 089 085 -75 073 -08 -41 051 -86 -59 066 -91 -04 066 -19 -21 034 091 119 -07 090 119 041 -116 095 -48 -43 -95 051 -71 085 -102 095 -24 -109 108 005 -27 059 014 -58 -02 112 117 -76 027 041 -37 125 055 -65 019 -97 
116 -119 044 -40 -35 021 -68 -44 -78 -105 111 070 -37 119 -24 046 056 -40 -16 018 020 073 110 114 -33 -104 001 091 -115 -27 -22 -59 -112 062 022 -64 -98 063 040 -21 -112 037 120 030 -128 -32 -109 -20 -01 028 -69 050 -84 124 100 044 029 -84 090 -18 -122 -23 015 054 
124 055 102 109 -69 -06 -13 -48 105 -12 -83 039 090 026 030 -118 012 -44 -67 015 030 117 098 096 073 -95 -96 077 -20 018 086 003 -107 017 -54 057 -31 125 -28 079 113 009 115 -104 114 106 -72 -80 -85 -49 -81 005 -121 -128 -06 -36 082 -115 035 -114 042 -07 -42 075 
-37 -58 -117 003 -112 074 016 -22 -48 -45 -91 003 -12 010 -54 045 -23 103 -54 014 -64 002 042 -70 050 -18 -29 -03 038 -83 -10 004 038 035 -65 073 -127 099 086 089 029 094 -109 -36 -70 050 087 -74 -93 083 048 013 -80 -111 -101 060 -01 -82 037 050 086 -67 -28 -87 
-74 063 -32 080 -94 038 086 073 105 -45 070 110 -103 -71 -85 -95 -44 111 110 -49 -82 -08 -40 011 -39 -93 125 -86 074 123 -34 -120 -26 091 -38 004 -35 046 -81 -19 -76 037 069 -101 098 047 065 -29 -52 058 -114 115 045 126 003 119 064 071 -99 -61 090 065 -70 109 
-67 -112 -20 016 019 055 009 085 -107 002 093 -31 107 077 -20 -65 -81 034 014 -93 -17 087 036 -94 -25 -63 -105 057 039 091 024 098 -62 027 099 068 -19 -37 -119 108 -61 102 054 054 058 068 -34 -122 105 -125 121 -104 -67 -112 022 -106 -110 -23 101 -87 034 -14 090 -17 
109 047 -48 -69 031 078 -102 -93 078 -46 055 -26 -81 -37 -86 061 -83 039 062 -02 -66 019 039 110 024 115 096 088 045 -03 093 104 100 -46 087 -22 014 -64 -44 -88 122 -120 -84 104 036 043 099 -50 -77 -11 -87 -23 -17 -32 -106 081 122 119 -66 051 -11 103 -124 -84 
-62 023 089 083 -48 091 022 -75 -33 045 -77 087 101 058 125 -115 -20 107 051 088 -97 -65 062 -107 -124 039 -97 -70 -96 -123 -52 -112 -31 -94 -35 -34 017 087 093 010 039 -40 039 -18 -28 046 016 065 078 074 026 -54 000 066 094 094 119 060 -79 -08 -20 -98 -101 058 
087 -12 -96 -120 -95 105 123 -100 -92 -52 -40 -33 061 -128 000 116 -127 015 077 025 039 -97 092 -07 030 058 -36 073 -110 -122 037 040 -13 038 -18 -49 -49 -26 035 -18 057 -61 -88 -121 017 107 -37 -13 117 -112 109 -30 -30 -122 006 010 -91 -42 086 016 -118 -90 -52 040 
-90 -51 099 084 -35 -25 035 118 037 -55 006 012 119 -81 070 060 122 -87 -105 -104 066 -100 111 -70 -17 043 -96 -118 123 -43 -93 -13 -12 -105 -52 -60 -116 126 -112 040 013 094 -106 082 096 086 122 067 -100 004 112 -69 075 036 -30 -123 -70 017 -82 -60 017 100 056 025 
102 058 -55 086 -93 051 -19 125 116 099 -25 -126 -107 -76 -40 046 -99 -07 037 101 -53 104 -121 -60 -45 -116 084 -125 -36 -84 075 -103 045 058 047 -127 -24 036 051 100 -58 -121 -78 -100 056 -61 -118 -117 -87 -14 -97 -01 -80 001 048 -01 -86 126 032 -107 -79 059 024 003 
099 -62 -39 109 008 091 055 -127 -52 034 -30 -72 090 -97 054 -88 -80 061 008 014 -83 -09 -29 115 104 -81 -43 -113 105 -33 016 -103 -121 -23 -80 080 045 068 102 -47 080 098 -76 026 -58 040 -31 086 109 084 082 -126 011 053 -105 112 -45 -63 -97 100 -79 103 -118 -58 
097 -73 -75 028 -41 009 112 -71 113 -97 044 -81 -104 046 119 069 091 029 -106 033 083 -37 -44 -07 077 -115 -06 005 -26 100 021 -56 -84 -127 008 -04 026 122 011 -46 076 051 -11 -04 111 -68 039 015 123 085 -110 -86 034 -86 119 -38 077 -119 020 -90 -116 085 -84 -119 
-45 -105 -33 -54 033 106 095 049 119 100 -31 -76 041 047 111 097 118 -86 054 059 -85 -42 -119 -25 -60 -48 049 018 069 001 075 -29 -118 -104 -02 102 -127 -10 003 -51 -120 058 -89 -122 097 -89 101 -124 000 039 -95 -115 -19 -23 -63 099 -55 -108 102 -123 -90 021 086 -111 
-49 016 -08 073 009 -127 055 -68 018 -47 -20 -55 -28 040 051 -86 -96 089 -40 -14 116 042 065 -33 112 -51 -23 048 -31 -05 089 -115 046 -77 -18 091 -55 019 -63 -10 -64 074 102 -29 -29 -86 065 -63 -57 -08 112 094 -65 045 -31 066 075 073 014 -18 -06 -103 -26 -56 
024 -93 066 -84 -105 -67 -07 -53 041 -46 -03 101 -18 111 -121 -127 033 -125 095 073 037 049 023 -25 065 045 016 -35 117 -10 -15 -55 061 -85 -101 123 021 -50 104 -42 -63 -42 -80 021 016 -79 035 033 056 029 -102 -70 -76 -94 -96 -67 -49 038 114 -07 031 114 059 117 
-64 039 -61 -76 -12 120 091 -75 -86 096 -80 -05 122 -82 -126 -64 -29 074 004 -90 005 043 -78 064 -90 -77 035 -17 093 -42 004 018 083 027 053 093 021 101 002 -68 -07 036 045 115 -37 -111 063 040 082 -36 -04 101 109 106 078 126 028 -59 079 086 -16 -53 126 -48 
039 073 -101 050 042 059 010 -37 -08 -15 112 -07 107 060 -70 012 -79 -84 035 038 -10 -21 -20 113 065 115 -77 004 016 -118 097 028 -127 059 112 -53 -09 -127 -110 004 -123 -09 -33 -73 -39 -116 056 070 -06 -99 113 088 -07 007 -11 -94 060 006 -119 001 098 047 097 -82 
078 -74 117 -19 -124 013 -87 099 125 122 -92 087 106 -116 038 -50 018 -20 118 -121 053 106 -96 -77 019 002 -48 -117 029 -68 052 -123 077 -85 007 049 -68 123 -119 033 -99 071 -15 -21 -21 -64 -67 -55 055 073 100 057 042 -64 -78 093 -62 -123 091 068 110 -33 -33 -05 
-105 080 105 053 -47 009 -116 -121 -78 -101 -23 101 -92 045 094 -56 097 -96 011 043 120 085 -97 125 -77 -93 -31 -89 066 048 -72 004 -124 057 058 -57 052 -92 -91 -105 036 037 -55 -75 014 -53 -109 -101 -68 060 055 002 -102 -128 049 109 110 -73 010 -108 119 077 -41 020 
011 063 035 -101 055 000 -105 097 -55 051 052 -93 -54 -48 025 033 -61 -103 -08 -75 041 020 -124 095 -36 056 025 -122 119 -19 -107 102 -96 078 061 111 -56 -117 107 -102 017 -84 046 -121 109 103 039 -92 -79 058 048 009 -50 -104 -84 059 -106 -77 125 109 -81 -68 -21 -54 
-26 053 -14 120 120 -14 -38 015 124 049 016 -120 118 -03 022 075 -57 -63 -75 044 089 094 111 086 078 080 014 011 -23 -28 -31 087 013 -118 043 -05 -05 117 -106 075 059 -122 072 -128 014 104 -34 086 122 -60 -120 -19 030 -45 -67 079 -15 -22 -44 099 069 -32 024 101 
-36 064 -127 -35 -13 -91 -47 061 076 -84 083 -118 -84 -74 084 -36 -50 029 -67 -01 -44 -04 006 -97 -27 -69 -33 095 -77 017 -18 082 -114 -119 064 -38 -10 087 114 -60 016 086 122 036 110 -39 055 -57 062 -114 022 101 096 107 091 025 016 010 015 034 -01 083 087 098 
-94 -11 -94 -72 056 078 -30 -46 -75 -119 -13 033 009 -21 -116 -15 002 -02 126 -21 017 007 049 118 -66 -31 -67 -96 -113 -62 -18 -88 -07 -123 -20 -53 -28 060 110 -75 -56 -72 042 -104 -117 -69 -118 026 097 -14 088 -37 -120 -108 053 073 097 034 -103 -73 109 -48 -63 -116 
009 -114 -78 094 -37 111 036 -109 108 019 019 029 044 089 069 -30 008 033 -62 -17 -44 104 073 027 -117 -62 042 -111 -09 108 -119 -35 -94 -91 041 114 -11 -108 052 -11 083 -70 -77 -93 -29 -66 -83 080 -83 -43 -79 -08 -29 -33 004 062 120 -112 046 098 -90 091 -117 100 
116 062 116 -03 083 -43 068 -25 044 -89 -81 -37 019 007 -88 109 -60 -03 002 -80 -81 117 039 -45 069 067 -90 -122 -57 030 103 -70 011 -50 005 092 -06 -05 092 063 -72 -99 047 -25 097 -34 -99 -84 -45 110 090 091 -75 -27 -59 018 -33 -102 -59 -111 008 -105 -103 -120 
-74 -19 091 101 -96 -46 126 -35 052 -06 -32 -35 078 117 107 -43 -117 007 -59 001 -58 -105 -10 -34 117 -40 090 111 -33 056 061 -01 001 -08 000 -36 126 -125 042 096 068 -08 093 -122 009 028 -06 -50 034 -23 -30 -125 -09 100 024 062 044 011 -12 -29 -116 014 -126 -113 
-73 -62 013 -115 006 059 060 073 005 065 -26 -89 079 -48 077 051 -97 071 044 -80 -03 006 094 -105 087 -121 -82 -33 -76 080 -77 -102 080 -80 -66 -115 041 -16 090 062 -55 -21 117 -03 113 021 -40 014 004 -33 -122 -10 046 086 024 -64 -128 -103 124 066 095 -98 -52 008 
094 -12 -61 088 -64 -94 079 082 -01 106 -126 054 -14 060 -41 079 -93 -73 -01 -82 085 -80 -35 057 060 081 124 -12 -16 -24 054 -40 114 112 -89 087 -118 040 055 036 068 -91 114 110 091 013 027 000 -09 -26 112 -114 101 010 -114 -01 -47 -50 -38 030 -05 121 110 027 
112 -90 110 -77 018 106 123 -103 082 -50 -111 026 -34 -94 -75 -67 -109 011 -89 -89 040 -35 -99 -107 -73 -93 003 -110 -118 -71 -35 097 106 079 126 -51 002 -108 -06 037 123 -86 -113 000 033 -91 120 -29 078 -30 -23 093 -111 -20 -99 034 -116 -49 112 064 064 -06 044 -43 
-09 -87 118 -37 -20 -30 048 125 -51 068 051 -85 -106 -124 022 043 -77 -86 -86 -87 098 -104 -01 -109 -70 087 -116 -41 -66 068 028 002 -83 -109 039 -29 060 048 070 004 010 013 070 076 -69 -123 061 -82 032 078 -15 011 -02 006 -82 006 029 058 081 073 -103 052 036 -27 
075 -89 -35 077 076 025 096 075 059 -35 -32 088 051 099 -50 -31 -41 007 -102 -119 -37 -19 046 -123 084 025 -112 -54 050 100 -41 024 -73 102 055 -96 046 017 -09 -15 083 105 002 018 118 116 -108 011 001 -62 084 105 -126 067 -33 -106 000 118 010 -64 -46 011 011 004 
105 048 -122 -48 -69 068 081 -123 085 -122 -53 -04 -119 -02 089 061 -67 -100 102 024 106 -93 -106 -70 055 -48 -76 030 -86 032 119 -62 027 026 -123 085 -64 -02 098 -110 -99 059 -18 -127 088 -08 035 -117 -11 004 -46 -63 -81 086 044 -106 065 -91 009 -88 103 053 -21 117 
088 118 -44 022 -80 054 -17 -50 -05 -85 098 033 116 -08 102 -78 -40 -06 039 -115 068 -120 014 -52 -04 016 006 050 095 070 -63 107 026 -18 -68 -26 -26 047 -79 085 031 078 009 -82 -54 046 -88 -04 039 -77 028 063 -18 093 013 -28 123 049 038 -108 -58 -10 -89 088 
-01 037 037 -50 -44 -111 121 -70 -62 -15 -48 091 -114 -118 -73 -32 072 113 -64 -74 -53 -41 -126 -102 -06 -70 -119 -30 -107 125 032 046 -36 -119 029 -11 -31 -101 075 -54 -17 -80 -71 047 -71 012 -97 -104 126 -105 037 -112 -18 -128 -94 -80 101 092 -64 -119 -101 080 121 005 
-97 006 -01 -53 -19 -05 -45 102 042 115 073 062 125 -97 003 -44 022 -19 -81 -98 097 -103 -10 121 106 -79 120 100 116 026 -27 084 058 -100 086 -87 088 044 -03 -70 -105 -71 -18 005 -59 020 -21 -37 007 103 090 108 -56 087 -73 -31 -121 027 038 087 -29 024 005 035 
-50 -21 -35 027 -36 054 043 -40 -38 114 030 -120 -42 -91 125 -31 -19 -78 -106 098 018 -49 -104 124 013 -80 -56 -06 039 030 041 026 -66 -44 055 -77 -74 009 -04 -93 020 106 073 031 -27 -117 -102 -46 -53 -48 060 032 -100 -82 -36 080 -02 105 108 086 057 -16 001 049 
052 -45 -105 -120 -38 -47 075 126 054 061 002 056 -23 073 -107 112 -13 121 -124 -56 -49 -65 -123 -04 -62 033 -114 -41 -03 103 033 106 -09 036 002 -14 -68 046 025 -79 092 -17 -08 105 077 024 -110 -34 -59 043 026 -80 100 109 -87 -118 025 054 123 -08 -90 027 -60 -88 
-117 -17 -33 031 053 -38 -33 -55 020 -88 -102 -53 067 036 050 -69 -85 -106 -118 017 019 -90 -46 112 058 -92 -92 -05 -105 059 -14 -99 -114 -122 107 -105 097 017 -37 -117 -100 -28 071 -79 091 070 -120 030 -84 -10 -67 -81 -95 040 -115 -35 -83 -48 122 096 -107 -57 120 -106 
055 -52 012 -07 -28 073 -12 109 034 -128 117 097 003 034 -40 -128 -122 -09 120 104 -98 -27 110 086 -118 -61 -95 -46 040 -98 050 047 093 037 039 -86 093 096 073 116 017 104 -34 092 -106 -80 -128 063 -39 025 086 -88 -100 083 -42 -64 -118 -20 058 092 056 093 -22 -63 
-110 -29 019 -90 -51 -07 -38 109 014 -10 103 -08 011 039 070 034 122 -125 -28 100 -26 052 106 -67 -94 -04 059 011 -28 -110 -70 063 -123 048 -116 -42 -112 072 -106 118 -79 -40 012 -18 121 -35 037 121 009 -86 107 068 -78 -92 -61 022 -41 -116 097 065 030 -52 -15 -122 
037 061 -48 117 -80 086 016 -105 010 033 064 090 -16 104 -54 -62 -65 034 040 -124 -30 027 -10 059 082 113 -66 -41 -72 052 -102 -99 102 054 -26 -35 -45 047 006 124 -120 -72 052 060 052 -74 -74 -85 -34 073 -04 -63 -97 076 -46 031 -83 099 -60 051 004 -16 -65 062 
-25 055 -114 086 044 079 -84 098 110 092 -40 021 025 106 -10 -119 032 -27 017 009 -30 -42 -67 061 009 098 046 086 071 077 -73 -08 086 -117 -13 016 034 -24 -23 -76 049 -62 008 021 -34 -60 091 067 063 -109 -82 106 -35 -57 -18 066 104 007 -65 009 -85 040 -74 -65 
007 -24 024 -23 116 094 038 -10 -82 109 -12 098 -01 -50 -59 -62 -04 -125 -40 -35 -39 039 -45 -45 098 -87 -45 003 086 121 -115 037 -06 -06 -07 -52 -128 110 -52 076 038 -128 021 -06 -118 006 002 038 046 084 067 -95 -36 -53 -85 -24 -28 010 -102 021 105 -128 016 017 
-86 -29 -80 -95 -121 084 122 057 041 035 111 -30 -73 -115 004 -98 -61 -112 055 -58 028 002 060 -105 114 -71 124 119 121 -60 120 060 038 -117 -04 048 -30 074 039 -02 060 -11 049 077 -23 -72 -46 090 069 -27 122 086 -05 026 023 112 -47 001 012 105 052 -37 072 010 
052 -101 110 039 -06 062 021 078 -41 027 -110 057 121 -10 026 -25 -117 -08 105 064 -72 -38 -95 -18 -79 -30 066 027 040 -77 -118 002 -122 114 028 -96 -30 087 018 065 -87 -102 -05 038 -125 029 -108 017 -80 084 -78 001 -77 -65 114 -74 000 066 000 -69 -07 -14 -09 089 
117 -80 -68 107 067 077 025 -55 124 -34 106 -97 093 -49 038 088 111 -112 017 028 -74 -118 081 -76 -48 -48 -03 072 -82 -41 -22 -72 -49 -15 050 -93 -12 055 -46 085 083 017 042 116 -109 -55 -87 -112 057 -76 -58 -99 -53 -39 -68 -39 089 019 -97 115 -85 -59 065 100 
028 -67 112 -20 044 -20 -65 108 -54 026 -70 -28 004 -84 -101 -98 099 -29 -111 112 110 104 121 032 -103 106 080 -49 044 089 009 -65 048 -57 089 120 015 113 -57 -91 -60 -14 -45 -101 012 094 070 -26 001 -120 -93 057 -05 -05 056 113 031 024 058 -39 -101 085 -127 -85 
090 -49 108 -114 -34 046 -87 122 -87 111 034 -20 125 102 -27 -111 110 -47 -66 -70 001 068 070 -39 -56 -30 108 -71 -08 095 -87 -116 106 -43 -53 039 -08 -112 017 -119 -46 -78 059 016 -39 069 -43 015 -58 032 -119 042 007 -119 -44 -06 -123 116 121 -44 044 -60 006 -58 
022 -06 -113 046 -38 -50 072 103 050 -113 047 068 -30 043 -21 025 -69 078 -06 102 -51 -45 081 112 000 045 022 075 -96 031 005 -10 068 009 -53 039 099 019 049 -107 -103 009 -08 037 012 049 -112 -111 125 018 096 119 075 -13 002 023 055 -101 -117 052 -78 -84 019 065 
-44 -117 -21 044 022 123 103 064 027 -38 118 -39 -107 -92 099 108 -83 114 -09 -80 084 121 060 020 -79 -03 070 057 009 -29 102 015 -07 039 -94 098 -16 -60 -108 023 -51 -112 010 -55 062 076 019 108 -100 -60 020 095 016 106 012 -36 072 -34 071 069 -19 -21 -69 049 
-44 -02 -21 062 -27 009 078 -126 -17 075 -01 -54 008 025 029 062 -111 044 044 070 -102 070 042 088 -68 -37 -93 -30 054 095 121 084 -115 123 -06 123 080 -104 -126 044 -07 077 -92 121 111 126 -30 -40 -125 113 122 -22 -24 -116 036 061 098 -07 -87 123 -44 018 106 -35 
097 005 -44 126 -47 -02 075 026 -83 001 -52 -99 045 068 006 -103 101 -80 113 090 000 045 -25 -47 -49 -61 039 -121 114 016 -41 121 028 096 011 -125 -44 -116 065 125 042 -81 020 119 028 035 014 108 -92 009 100 -128 -85 017 037 -90 -48 101 055 030 061 033 -54 003 
-28 -83 083 015 025 097 -99 118 011 081 015 030 107 114 -126 -125 -84 059 084 -30 -89 -122 -24 -57 040 -118 064 -116 -21 -124 -03 -128 -42 069 006 -120 059 -91 098 -65 -71 -11 039 074 -06 -17 -07 006 -93 027 -116 056 -98 041 119 106 020 -52 -105 -115 055 -17 017 -60 
-122 -86 115 050 -100 -87 -18 055 -06 -24 -54 -36 030 011 -26 -125 013 -32 -91 -100 005 -93 -26 -22 -108 -01 -80 -88 -80 078 028 -30 125 -37 065 046 075 000 117 -01 -95 055 -106 039 -52 -59 -33 -60 119 -81 086 121 -73 023 -92 039 001 -33 048 099 -04 050 050 077 
-79 008 060 072 028 -32 -34 051 113 104 056 005 -97 -45 049 -65 -70 -118 008 -124 061 -71 043 100 -01 016 -14 079 -105 -36 091 -51 010 071 046 101 027 -11 092 -108 021 116 -37 -59 -87 -24 123 -01 -119 086 078 -113 067 -115 -102 099 -49 -113 -76 014 -100 -90 -16 -106 
123 -51 -63 -82 -03 -57 045 033 060 062 -116 087 -55 -58 077 039 -62 -115 -41 -119 111 069 088 -96 030 -100 -76 -37 -90 112 078 000 009 -27 -106 090 -128 -09 012 -116 072 026 -33 -56 -109 117 -19 081 058 080 -64 -34 118 013 103 116 045 -46 -16 -47 076 059 -72 -100 
-01 -118 002 082 -02 -48 -24 -02 -70 -44 -71 071 097 080 -56 -123 048 095 050 030 -124 -32 121 088 -97 062 -124 -122 085 098 000 -66 069 050 -22 125 -16 071 -18 -16 -60 051 -104 -64 -116 057 -79 022 -32 -52 -85 -66 -10 -17 -67 -38 099 -28 015 051 030 068 103 062 
-52 -54 118 046 -112 -31 012 -104 -33 -19 -55 -58 108 023 -25 -72 -31 010 118 -12 -90 -108 -62 101 -11 065 045 -26 -101 -44 -128 094 -121 084 065 -74 -116 093 -03 -07 -124 109 -100 064 104 -37 047 -19 -54 -52 046 092 -17 034 -42 063 063 041 110 -126 114 066 -87 -67 
087 069 047 -97 009 033 -68 -73 -80 -109 -49 -105 -57 -16 -20 115 -51 119 091 064 -94 121 052 -59 -84 -14 044 010 -14 048 105 010 -81 -74 -76 067 -04 -68 075 -118 068 -14 063 049 001 032 -114 -06 066 077 000 114 035 -95 -66 -85 -81 -99 083 103 116 -99 064 -101 
-114 -89 -101 -114 -70 -48 -98 080 -30 -119 001 -27 116 008 029 -09 056 100 -22 002 -98 -30 035 -97 109 -69 -59 -97 -118 102 077 -57 -95 099 -72 088 -10 -95 -115 -14 109 -07 -47 061 101 -106 -40 043 -105 100 -25 -128 008 -23 -91 018 097 054 -63 -59 -37 028 008 -96 
-30 -62 009 -46 -14 -109 077 103 -85 -07 -94 076 105 018 016 -14 -50 063 017 -111 091 -59 -86 080 -78 013 -111 -97 115 099 036 047 068 025 -33 -30 126 -08 029 016 -72 -49 048 028 087 -18 -24 113 048 098 092 -107 013 117 -32 -79 -80 119 -120 -65 050 -04 -111 -121 
053 -119 041 078 071 088 034 -09 077 -72 -69 039 -76 -71 -114 007 -104 092 -72 -36 116 111 -95 056 -78 056 106 -02 -88 087 025 -23 -30 077 100 -36 -76 052 047 068 -60 012 -61 114 045 062 -50 -127 -127 -122 -100 029 030 -81 -95 -64 -123 043 -06 114 008 117 073 -81 
-10 -13 106 -34 -09 -126 067 -79 110 011 -33 079 -28 073 -99 025 -66 -99 -76 -18 -15 -69 -115 -115 064 -18 -112 091 -100 073 036 112 -88 -98 -109 122 050 -128 -56 -39 -126 068 000 -02 -118 -30 011 040 072 096 098 045 -116 017 -41 -101 -21 018 046 -94 -14 071 065 -55 
026 -74 006 -105 083 -93 069 -66 -119 -42 -102 -12 -70 038 -69 -39 090 -68 098 026 -16 082 -61 079 -109 058 073 -88 101 -37 075 002 -12 091 -20 -99 125 -64 -17 -65 -101 037 046 090 003 124 -22 -37 -17 -118 062 068 -76 031 035 067 080 -78 110 071 -50 032 008 050 
027 004 -29 -03 026 049 034 -104 -126 049 107 -90 061 -122 -21 -23 -64 078 -19 109 033 060 112 -127 108 -26 -48 -35 043 -34 -10 092 -45 -44 010 -24 -27 114 004 -107 -91 049 -57 124 039 038 092 -28 121 032 -91 -113 113 -39 -85 097 009 -123 -43 062 -119 082 027 -40 
057 -11 -70 050 -107 -05 -58 039 -19 -55 041 003 -24 109 -71 033 -106 001 021 -01 -89 081 -65 017 004 -33 -21 020 088 027 062 -69 -29 -70 058 048 -60 101 119 -98 025 082 030 004 -35 -31 124 052 086 -128 -124 -103 -18 040 -128 -39 -120 031 -53 -92 014 115 -71 026 
-24 043 -110 -80 -08 -08 -48 -94 -03 032 078 046 -53 096 108 -72 -44 093 108 -125 -125 019 -65 -118 -126 096 041 -91 -76 070 020 -31 -50 -48 044 016 -66 046 079 -14 104 -30 -55 010 -120 017 007 -58 -19 017 -38 -26 055 075 047 085 068 004 006 072 -09 039 -106 -63 
105 -102 017 -25 -107 000 063 007 -41 -02 -11 -14 106 -77 034 013 067 018 112 -65 -43 -123 -69 -83 010 -57 -07 -51 042 034 -48 -94 -56 007 092 064 054 -15 -02 -27 005 033 -65 -116 010 -99 018 -40 041 -25 -110 121 080 -99 -69 012 -111 -67 -123 030 090 047 088 -38 
111 088 -84 -32 -71 044 036 -26 027 -98 -93 094 -24 -119 -32 -24 -39 -124 116 088 -14 051 -60 -124 -118 -80 039 015 -13 -115 038 120 000 114 113 090 -36 061 108 -47 -92 097 097 -116 109 068 104 050 -87 111 118 000 043 -87 010 028 -89 021 054 -110 -30 046 -81 -49 
-09 -38 115 119 114 -66 087 107 031 -63 124 080 063 038 048 099 -28 -105 -27 -36 -31 -117 -59 -120 118 -87 -74 110 001 053 -14 058 007 075 019 000 036 -43 051 083 -122 052 114 122 -98 -77 -24 -77 056 -97 -15 -68 -125 122 002 -112 087 -91 -104 076 084 095 043 -23 
-19 -14 089 -86 -28 082 -01 -122 -14 085 056 -03 -108 -127 -37 004 -53 080 -55 -33 -21 -89 014 -92 023 048 -23 069 -88 019 006 -125 -72 106 067 -65 -21 -105 -100 106 090 -21 041 015 -18 020 -126 -117 090 -66 027 002 -30 032 055 -40 090 -62 119 120 -44 -66 -58 103 
097 -61 009 058 -93 -74 -42 -112 -18 -47 028 -41 -28 -17 043 -22 -72 033 -122 -43 -05 047 -93 -50 -95 -128 075 062 086 -48 -43 001 057 038 -26 -108 -90 072 -120 -112 -19 -124 -33 -20 091 052 -88 -118 -48 -10 -06 -95 076 -112 -70 -22 -114 038 -86 078 057 -112 013 -34 
092 102 -64 024 091 -119 109 -89 -97 068 -14 014 -111 -19 013 -77 104 111 -50 -112 -56 000 -105 -111 059 015 -07 007 -79 -119 047 020 050 064 119 090 042 035 -110 -62 107 -114 011 110 085 -41 064 -10 -31 -91 -44 024 034 -44 -47 103 -106 002 -23 124 092 102 116 -53 
-124 -67 112 083 049 032 089 -23 098 039 -106 -83 009 090 -95 -81 -111 021 113 050 -125 -73 011 113 037 -44 -04 084 093 088 -101 -119 -16 040 -108 023 -110 -119 109 022 069 -92 067 007 -125 001 -36 073 -49 099 -108 -74 -29 055 033 012 022 003 -104 -96 004 105 054 123 
098 029 -122 -98 025 -93 -89 -26 005 -96 092 111 093 -44 -24 -114 -84 086 023 -71 -48 051 005 -120 -87 -14 -74 015 087 -102 009 -52 -34 -14 042 064 -113 -101 000 -74 -07 -36 -63 016 034 -42 -54 -98 086 057 116 -54 095 -85 -40 108 040 099 116 -107 068 -16 -75 -51 
-85 036 064 013 -43 045 -115 059 013 -79 003 -128 -15 -26 -54 116 -57 -128 -32 040 -94 -76 -124 -26 014 023 -25 -39 064 037 055 109 -80 -122 024 028 118 078 -92 029 -116 -97 -29 -43 078 -32 019 -117 046 017 107 123 -14 018 -43 -42 067 032 -11 068 -57 118 116 051 
126 006 -33 051 092 109 -66 -46 -11 075 -112 107 -42 -66 111 063 066 -90 -43 047 -55 087 098 116 -60 -31 052 083 -32 098 -29 034 -84 046 011 -55 -128 015 -111 016 -19 -68 -28 040 -07 023 051 -19 -99 -45 -72 -84 002 -115 -43 023 012 -80 -14 106 034 -101 -06 013 
112 056 -60 -53 048 096 -50 061 -97 113 -71 -80 -68 051 051 -109 105 083 002 055 087 -46 -70 021 -40 -93 -49 063 094 -13 -13 006 -21 076 -51 112 -127 -90 083 -119 082 -23 013 -76 -19 048 038 -60 078 070 007 006 -87 -115 043 -108 096 -02 009 117 007 099 096 104 
-119 093 078 -32 108 -31 -18 054 034 043 -118 -48 -85 -73 060 088 021 -128 119 -84 114 -128 028 -108 -74 -63 080 -111 -07 013 084 -86 -119 025 040 028 083 -31 -117 000 -14 069 -72 043 -82 -08 -123 -11 -16 079 063 -83 -63 018 101 -123 -97 -34 007 -86 -86 032 054 029 
025 069 015 114 009 008 094 -55 -112 -04 068 -20 040 -05 -79 040 023 007 -28 -84 -66 049 -92 057 082 011 -79 -20 -81 068 052 -33 -04 116 090 -39 -04 -85 023 -02 -91 -52 -102 -17 -70 086 083 047 -05 104 -91 062 012 -96 052 080 068 093 -104 045 -83 -99 -19 -110 
034 -73 -84 -11 062 042 -69 030 099 024 -84 -123 -37 019 -80 119 -43 -88 -11 085 026 063 -24 -51 -98 050 -50 070 -111 -83 060 -101 -114 073 098 -60 -115 074 098 -112 081 086 -61 -98 -61 119 -52 -21 061 -91 -13 102 023 -80 -15 -92 -18 088 -01 -28 010 -77 -08 -91 
067 -91 114 -35 -122 051 -12 -70 -73 031 010 037 107 073 103 095 -22 053 091 025 -113 041 114 019 110 -68 -44 036 043 -103 -104 034 -40 -85 -55 121 -53 -61 -119 -87 006 -49 -100 -107 070 044 -123 -05 -58 021 -46 066 022 047 -115 076 031 -89 058 -46 083 -61 070 110 
057 118 -50 -118 029 -36 026 115 036 -17 -20 046 -34 -34 000 -125 -106 094 114 -91 000 -88 -82 003 -22 -111 -66 054 -120 -51 019 109 089 -34 050 095 020 118 026 -61 -54 108 -66 -97 -44 -07 113 000 103 -97 -73 113 -01 -67 076 044 -60 002 116 -12 -118 -53 -60 -76 
045 018 -51 040 -55 041 -80 -65 -118 -115 078 082 060 -67 029 -75 -24 -51 -124 094 001 065 -106 -40 062 -84 -10 -115 -58 -111 -44 021 035 -27 -80 014 095 -72 -104 -20 -35 058 -19 000 -37 095 111 119 -37 007 -41 023 083 -89 063 -56 001 037 -106 -52 -96 -88 -77 -41 
105 -47 -13 021 -06 -115 -106 -27 048 -21 085 083 -39 -35 -69 -43 106 -23 039 -45 039 -49 013 083 -03 -14 020 022 059 -89 -13 -112 -65 -48 034 033 119 -40 -57 -64 -94 098 -14 -103 113 065 018 118 -77 042 071 -16 062 019 -09 -103 -66 -83 -85 -65 -43 -13 -86 -24 
-82 073 079 114 -76 110 049 -31 077 -01 -128 -97 046 117 -112 -02 015 -37 119 117 043 -49 -12 -117 -103 040 -125 -57 -96 -114 118 000 053 008 -18 043 -110 -103 111 011 037 063 116 015 047 077 -96 -83 089 109 -38 115 -121 111 076 101 -42 -22 068 -33 119 120 074 -118 
072 -104 -09 -11 124 023 -114 -107 052 115 -32 051 -79 -106 098 -68 016 030 027 -81 -68 040 038 -44 010 078 -17 073 073 -25 075 -26 034 -111 -68 -23 -46 112 -56 120 025 092 058 -43 048 080 -114 -27 011 -123 080 005 -96 107 -87 -02 -17 048 055 069 012 122 -60 -55 
-10 007 060 -64 -126 -118 -09 099 106 -64 -32 -59 -124 -51 -107 -09 -45 009 029 -78 -75 018 069 -101 040 -59 -01 092 -89 003 -86 -105 086 -107 121 -82 -68 -96 015 -100 031 -64 100 -22 -82 091 100 -07 112 071 -93 093 018 -21 098 -08 035 -54 060 -122 001 088 099 062 
061 -85 118 084 099 -14 001 069 116 089 098 -96 108 -69 044 -112 000 093 081 068 023 -73 -122 094 025 -36 052 007 042 -16 105 085 -54 -33 114 -65 -87 112 047 -58 090 087 002 -78 040 -84 091 -83 000 -23 081 016 -59 030 -45 101 -70 125 -31 -76 020 014 038 084 
-116 046 -108 125 -85 125 -42 -103 104 -128 011 057 -51 081 -48 100 -28 -38 046 077 -49 -57 -121 -38 069 092 -59 024 -40 -54 -99 -90 008 035 071 -127 -30 -107 -55 -36 -108 -07 025 013 -107 101 023 047 115 102 072 080 085 094 -115 103 054 -81 -13 -13 -56 -92 -101 -15 
-42 -42 -106 -86 -38 028 126 017 003 -75 088 123 010 119 028 062 072 030 023 -48 104 049 -74 103 105 -30 -11 049 -64 -74 035 075 -68 014 037 044 060 -97 -126 092 080 -78 -11 -108 -33 -88 -23 -74 100 027 062 -14 110 -112 044 -38 028 036 004 -65 -118 002 053 -107 
044 085 -16 079 -115 -120 -95 031 -23 120 -100 006 109 -85 -125 021 -20 123 -89 -10 101 -08 -90 -114 119 -124 -43 066 -29 -96 022 089 -52 -03 028 -60 -110 002 -13 055 069 097 122 -17 111 021 -28 -116 -82 102 074 -65 071 -16 -33 079 012 -40 069 108 -126 -35 112 -84 
-14 -81 -116 -73 008 -17 -31 087 -83 -35 -33 120 -52 072 097 -63 -112 034 -96 -93 084 -119 -43 -77 -110 055 -120 060 025 -69 -11 055 028 012 -88 102 044 -68 104 -24 -77 -114 030 000 053 -26 087 -74 031 -17 009 -82 046 -103 034 086 -87 -55 112 068 048 -40 027 -48 
-26 088 -111 -90 -77 056 037 112 -05 -107 008 015 -128 120 -22 -47 003 110 -106 115 -20 -103 -49 056 037 086 -75 058 -118 -41 -98 -32 -99 -89 060 057 081 122 -22 036 -55 -37 113 -86 -28 016 -59 -34 068 075 037 -27 -56 079 034 -103 -28 012 -07 -94 -116 -65 -51 -95 
004 125 -07 076 040 -47 -03 042 033 078 -125 -52 099 -01 -09 -05 -15 -100 089 -69 -88 -21 -44 030 086 -78 100 107 054 026 121 065 086 -79 078 -12 119 -79 -37 060 -72 -60 -76 -76 -55 -53 -86 -35 -105 098 021 -60 -90 -70 -51 085 103 084 101 -43 107 011 114 -60 
120 -81 -64 111 043 -55 093 -46 037 062 -35 091 110 063 -41 022 065 043 033 045 -36 032 -63 057 106 115 039 -60 078 -10 -53 017 111 -20 001 098 -76 -108 003 -11 -04 -71 -83 015 035 -108 -34 126 068 021 -41 -44 -115 -86 -53 -21 100 017 003 071 026 -51 -92 -127 
104 -78 -38 092 -53 -58 026 035 -78 103 019 -84 -111 053 020 -46 024 057 045 -06 053 022 -22 -70 -23 031 -08 -81 -127 094 -02 067 -31 086 029 125 -26 087 096 086 072 -82 -90 013 -106 080 065 -51 104 -31 116 -37 003 097 003 031 -66 025 043 -126 124 -61 -76 119 
000 -92 115 105 -77 008 -75 -115 115 -07 071 116 -44 014 100 055 099 059 -45 -61 -47 016 -98 -84 009 -59 -08 000 120 -44 121 -99 -47 -77 053 -81 -93 074 099 -01 091 049 -01 061 -61 -116 113 099 -64 -11 -92 -120 -122 -82 -22 022 040 -72 -85 -17 015 117 -58 -74 
101 074 -75 044 095 -62 011 -01 -77 -13 081 -18 -91 -114 106 052 016 -77 096 103 052 099 -97 -110 -92 -74 124 -80 -41 -10 076 119 -45 016 020 -74 073 109 -107 -107 -28 -112 -24 -81 125 -44 114 -58 117 090 072 069 050 080 011 007 038 014 -29 087 117 -29 -30 084 
-86 -83 -128 010 -65 096 121 086 070 126 126 088 012 -98 113 -17 -68 105 116 -32 -02 095 063 -76 -21 -08 101 057 000 -03 -69 -64 -21 -10 062 -46 048 080 -72 038 -37 -74 -50 -35 069 -100 108 -10 106 110 -18 029 -99 -39 065 126 099 046 -06 -53 -01 -25 003 055 
042 -75 -72 -38 -47 058 -41 -93 112 078 014 -29 052 -40 -47 -92 -114 013 -68 -35 -03 -09 067 -42 -34 -71 -71 -76 019 058 117 -61 046 026 -92 014 042 088 -88 -121 -107 -67 121 040 102 -35 -73 -86 -18 016 104 104 075 -67 -58 032 104 032 -39 043 -95 096 -06 -67 
038 012 047 093 -108 054 039 124 033 -63 076 -10 000 -78 -112 094 -20 056 064 083 -35 008 -08 108 -93 -123 -98 067 -35 105 093 091 115 -04 -101 007 -08 081 -124 -128 -59 -93 -112 093 -57 -76 050 -43 -76 114 121 084 -04 -113 001 -06 009 126 029 008 046 028 117 -28 
-62 080 -03 046 080 -42 -35 -56 074 -66 -51 038 -82 045 119 120 066 076 -112 -14 067 -21 -76 -57 -101 -98 -57 -13 078 021 076 -31 067 101 -115 -72 -43 -55 -88 019 105 021 -31 091 -122 -57 -31 -114 -17 -64 -85 -06 046 069 089 011 115 074 -104 -26 067 -03 099 -33 
080 -82 -38 125 077 -41 -58 085 052 124 -104 -42 118 051 -33 -117 -25 -06 -45 -12 004 039 -99 -106 119 018 118 -67 109 027 122 -15 -47 101 -54 -18 -116 108 -13 085 -59 -13 -68 -37 -127 108 116 -46 089 028 -22 -67 124 -18 001 019 -70 -122 047 072 063 083 039 094 
-99 077 -86 -92 044 -44 -124 -29 -64 -106 -62 038 054 047 109 -80 -77 -05 -86 -96 093 072 -98 -52 110 122 034 -126 -14 -110 -23 -01 -43 -82 -35 -92 -82 -40 -123 011 005 116 -28 026 040 035 -56 038 052 087 114 118 -100 -54 090 112 -113 080 012 113 -01 -78 -103 -68 
107 096 -04 073 -28 -93 093 -124 056 -10 050 124 104 064 -47 -56 010 051 056 037 107 -87 -76 -99 -88 045 109 077 023 121 -40 -109 -28 -21 -80 087 -115 -14 -50 -63 -84 -54 012 123 116 080 -99 011 -27 -70 -31 041 -69 -18 -80 -30 114 -08 -27 -73 008 013 100 -123 
-27 045 -41 -92 -28 113 119 013 078 -91 -82 027 -114 -13 -27 096 110 072 119 088 101 103 -22 068 -33 -17 048 053 -103 -79 -72 027 -99 052 071 114 -122 -18 -128 -41 -31 -17 -25 -122 088 061 -80 068 -98 013 052 -76 -05 100 108 086 092 110 -32 048 021 -04 -105 125 
-93 -80 083 -73 019 076 -88 -78 -112 -85 063 -46 110 -117 -114 125 073 -11 120 -122 008 -22 -72 055 057 -22 -34 -49 087 119 -115 -113 -75 023 092 094 122 -77 -35 -47 -117 -95 -56 103 -76 -71 -125 -15 -71 -72 032 -62 -86 117 038 -55 -51 126 019 018 -67 117 -65 091 
-124 005 072 -67 -104 057 -103 -112 -115 091 055 005 -34 103 -82 011 -15 026 -90 -71 -106 -89 098 -87 -111 022 053 011 116 -47 104 041 -08 -105 026 072 -38 034 -17 -01 -66 -73 010 016 115 060 051 -05 094 124 009 068 -86 027 097 -112 125 115 108 006 -05 -29 -123 106 
095 -36 002 -10 -61 -22 094 -118 -59 -45 -123 081 -23 089 -44 054 -39 064 036 -79 -74 -55 066 -54 003 -50 028 122 093 062 091 -82 -24 -15 020 102 -11 -44 -43 073 -127 018 -100 063 005 086 064 -33 026 -13 025 -23 -58 -46 -63 -07 -52 -86 090 125 017 -11 -41 004 
090 078 012 074 108 -92 126 -38 040 -115 -12 -82 -124 093 -101 013 -05 -55 -52 -128 009 -72 051 036 -13 024 -99 -04 -112 -102 -15 073 026 095 -102 105 -125 126 -111 125 002 -11 -12 -114 117 035 100 -63 -79 -124 069 -62 -28 -46 -112 -90 -27 -09 -106 -88 -07 -71 066 008 
040 -35 045 002 116 -57 -20 -92 041 098 -86 081 110 -43 094 002 -61 -46 070 -60 -79 -20 -22 -112 -61 -04 -21 082 -28 075 -70 -73 109 052 -12 -79 012 008 -35 -96 -111 -34 074 -126 -74 117 085 012 -04 -119 047 -79 093 112 -11 052 -104 -65 -56 -126 -74 053 -28 -15 
-59 -55 109 110 -87 088 -78 119 104 052 008 -07 -61 -04 -92 033 -04 -23 108 054 106 -87 -72 013 038 -124 108 001 027 123 -73 -70 -93 096 100 093 -10 028 092 -56 005 067 036 -82 021 -94 105 -28 -122 125 030 -42 049 057 -121 -84 053 -97 033 101 -36 025 050 -63 
-39 021 -98 -115 086 -48 -45 -115 043 038 077 -56 037 091 005 018 056 078 062 -41 028 004 045 -91 121 079 -29 -31 056 -96 -31 -79 085 006 096 081 003 -33 -92 033 107 003 004 110 -49 071 034 -40 070 -109 -79 100 -95 081 -31 -68 039 -57 079 -33 -62 -86 -54 -59 
-125 027 -74 101 -40 068 -81 -70 -02 013 -02 -20 057 006 -14 -93 094 108 124 116 051 046 -72 -124 -106 -12 078 105 061 096 009 -11 086 -80 -98 071 -90 038 -56 038 -78 089 041 -97 103 004 031 008 106 -62 068 063 054 -45 095 -73 -37 089 077 -118 -111 109 125 -116 
-86 126 080 -52 -119 018 017 -113 089 -101 -56 008 -119 093 -59 -33 063 -44 -125 -85 066 -43 -52 -28 -52 085 -58 080 -94 -25 -49 -115 -52 070 003 072 -68 059 -117 -56 -46 -100 031 -73 -48 -105 -09 -45 -12 -113 108 043 -93 -03 037 -119 033 010 104 015 -84 115 -107 -117 
041 -10 -37 067 113 110 115 116 -79 -93 -77 096 021 -121 021 -87 -103 -98 058 102 -77 -121 021 -44 -90 082 -86 067 -92 082 -35 -21 -100 -23 123 -85 -24 -100 045 -49 033 -77 -116 -49 -04 074 -125 -82 011 125 052 045 058 -02 -49 -113 113 -120 117 043 -49 -57 -52 -102 
-114 -68 -63 012 -81 -119 -89 084 074 -103 011 044 077 054 -115 066 070 -44 -54 -53 125 022 -65 067 088 -53 -101 -108 -47 055 030 -48 057 -35 -87 -56 044 -107 092 071 086 096 -86 -102 -37 -33 -70 042 119 -22 -20 048 125 -12 076 007 064 074 -116 093 094 -93 -101 104 
-39 123 -27 -71 -113 018 054 -109 -122 009 055 -99 125 003 072 048 -78 090 096 -114 -59 067 041 -104 -13 -09 -82 -97 -109 -51 -04 -107 -81 -13 115 048 034 040 -56 -52 018 -48 -04 -85 -65 117 016 -43 097 112 123 -50 122 060 087 077 -18 077 087 021 -128 -61 018 -23 
-10 068 000 083 -120 -93 -35 -45 -118 020 -19 -65 058 108 107 -89 092 114 113 047 -105 -05 -06 062 052 061 -48 106 -12 -67 -73 -27 119 -73 108 073 102 046 -82 125 -52 -58 -46 093 097 -89 001 120 -57 -24 012 026 -86 -09 -110 088 094 115 059 046 110 084 080 -06 
-89 -114 010 076 -120 -03 012 054 -97 057 -119 082 -124 -76 -85 076 074 112 -51 102 -74 071 -19 112 -52 -126 -23 -09 -16 -03 114 -16 -61 049 068 -125 -58 -27 093 -75 071 054 058 031 -15 044 -93 126 -120 004 043 038 -68 117 -112 009 070 025 -64 025 089 113 063 039 
084 -117 -65 055 -20 -18 125 026 -123 -75 -11 -100 -71 119 -74 009 -94 031 039 -66 109 037 071 027 103 -56 084 -102 077 -39 123 120 048 -113 019 032 -72 078 -47 086 090 -27 -42 035 -100 -103 049 075 057 003 -39 -03 -27 030 -116 -30 027 -59 059 041 -65 -90 030 106 
-72 -123 -107 040 -74 107 -10 -01 -41 108 089 025 102 118 033 109 -34 001 000 -77 -33 -58 -88 -07 -74 065 -34 -70 020 092 -67 023 -121 -93 -118 126 010 -06 002 024 -76 032 093 -72 -23 098 -93 098 -24 -02 010 103 125 063 075 -63 014 074 007 -89 106 054 071 060 
087 021 -52 094 069 034 -44 102 -31 048 -05 090 051 017 004 -44 -52 -124 -101 -77 031 040 074 -17 -01 -122 -62 105 -117 -36 055 065 -109 122 -07 072 003 112 116 -128 095 101 017 037 053 085 016 -28 122 103 010 -110 -11 -80 100 037 074 021 025 089 -99 057 016 -14 
118 037 -30 -37 049 047 120 077 029 001 -80 -40 094 -35 081 035 115 -118 118 003 -48 042 114 -93 -91 005 -48 -39 -69 -70 056 -119 009 -74 121 -88 043 -47 -10 -99 -82 -06 -79 -115 -13 126 -20 -69 -16 -21 -61 -115 122 126 -45 -58 -116 003 -80 -85 095 107 039 -110 
-30 103 012 -12 118 084 -80 -10 -06 -105 115 032 074 030 089 -82 -93 095 -111 051 -128 084 -95 -48 -19 033 034 -109 011 017 -120 -54 113 120 006 027 -21 -50 -111 065 -118 036 -03 -112 033 102 110 019 -06 052 008 -09 052 -69 087 024 065 -29 104 -68 -124 004 124 064 
-67 052 030 103 -45 -57 032 040 -120 026 066 122 019 085 -37 -112 010 -01 028 015 047 -76 010 042 020 077 104 -65 017 -76 -47 -54 -40 094 -16 021 -77 -32 125 034 -88 016 099 105 060 011 -87 018 120 057 -74 115 -63 002 -24 -73 -71 -05 050 001 096 -01 088 030 
108 022 029 -106 122 007 -28 -104 099 082 -33 100 117 -104 -113 011 077 047 078 -32 -65 038 066 063 002 126 081 -124 -112 056 106 -94 -52 096 034 -73 -03 -18 039 114 006 052 020 -89 001 -11 -32 073 -104 -03 059 -43 089 -83 125 096 -77 -68 -85 -105 088 -118 -07 115 
084 028 -02 071 001 111 106 079 084 118 -127 040 043 -48 -03 -49 -10 -89 -113 020 037 042 009 043 071 115 -38 -29 -11 -101 -27 -09 -119 098 -02 -01 016 -91 -62 -48 125 046 -116 -29 -100 052 -116 065 125 070 004 -40 098 121 -68 009 008 041 009 122 000 -91 089 -16 
-71 006 -74 -04 100 035 -13 -14 -09 104 -49 -128 053 -104 115 085 006 -38 -62 -116 -90 017 -46 -84 028 039 117 -80 063 -117 -118 004 092 042 099 006 -52 037 -79 -107 076 024 -65 -32 -43 -04 -73 -54 -49 077 -42 -72 026 -81 -105 076 039 -03 095 033 096 096 022 -45 
005 019 010 -75 040 097 003 030 -39 -56 -107 -120 073 005 069 033 092 090 -110 057 -75 012 022 051 -31 121 013 -15 -126 050 015 -73 072 064 086 003 094 -82 098 -22 028 -63 -03 036 -32 004 -04 026 -87 -54 -92 -48 111 126 -94 040 002 -124 000 -77 -52 -40 -72 -80 
067 005 049 -15 058 -120 -125 -56 -12 025 065 -23 -70 057 040 -17 013 -16 -86 -17 034 -85 -95 048 -19 -65 037 -10 -86 123 -109 -54 099 -67 -107 008 -116 004 -66 096 -58 -30 095 088 -35 -80 004 064 121 067 007 080 091 003 102 065 016 062 -118 073 -95 -38 -74 079 
101 070 -12 073 009 056 014 057 -90 -18 -50 012 081 115 017 063 -20 033 081 -57 026 -96 028 -90 -127 -67 070 066 -95 091 -104 -75 -45 071 -26 086 -27 058 076 -50 095 008 -55 066 027 069 117 016 -112 024 092 028 -82 -120 -13 061 -117 -96 -128 006 032 110 -02 -69 
-38 030 105 042 -86 -39 117 -16 -96 -121 045 -82 -49 005 013 091 008 -02 -83 -93 003 -62 -25 -121 -65 077 -124 005 124 026 -113 063 -35 023 054 038 083 112 -69 -24 -104 023 -31 -59 007 102 082 -38 -46 -91 008 -56 -81 033 -119 -05 -03 102 068 -128 091 118 -88 001 
-11 031 104 060 -59 082 020 -85 -102 -115 -110 058 -64 006 085 021 -30 -37 002 035 054 -80 -73 001 -29 063 -45 -42 -04 013 063 -106 -90 012 -128 066 020 -34 -112 086 -85 111 -53 -31 -89 -107 -81 -28 095 087 -71 -98 114 017 038 -40 034 107 -54 -81 096 058 035 047 
025 -61 -66 -107 -35 -72 -92 013 -08 077 -13 -24 -90 -99 -94 -24 -23 -65 033 -29 -43 028 062 -83 121 -44 -67 -104 -13 082 -125 049 099 005 054 086 -23 -24 017 006 062 079 -12 -98 -21 -115 -15 033 -109 -107 -61 -121 -09 057 117 -01 053 015 -31 035 082 124 -20 -19 
-55 124 -12 -95 044 -59 -110 022 -48 -40 -74 -115 -98 022 078 120 -115 -31 060 -104 034 -28 -69 -65 024 -15 082 -70 -106 -23 105 -97 -73 -41 004 050 -51 -112 -33 -13 064 -41 -82 -126 -93 -79 -20 -115 011 021 -34 -111 119 108 -14 074 -31 071 008 -77 113 -63 -39 -43 
-98 -110 026 033 -13 020 096 041 000 116 -93 -85 -80 -110 123 123 026 117 -66 043 -55 033 089 -54 -12 -64 -117 -37 067 004 -76 -37 010 058 -79 -23 062 -77 -75 -80 097 -77 -119 -35 -61 -42 053 082 109 -107 -34 -82 -21 025 -37 036 023 014 082 092 -117 095 -04 -109 
-75 062 100 020 113 039 -42 029 -50 097 -85 115 055 030 -20 -55 -23 007 031 -55 126 050 -56 120 -101 -87 033 -74 025 -58 006 -67 -55 018 013 -66 072 022 025 -70 009 -116 041 -101 077 -49 -89 088 -85 108 -52 039 -93 002 -68 017 109 116 -38 108 063 -110 -12 -29 
064 -27 -93 117 -21 -84 084 -115 125 091 -01 -99 043 -83 031 -53 049 -29 -59 124 -87 -68 -09 054 -02 -117 -120 126 091 -114 027 -23 -19 044 046 096 020 106 -25 029 -95 -33 -121 105 110 113 -82 -55 019 -82 -07 -88 -28 112 -119 036 -85 066 -124 123 -119 -41 -77 -111 
-122 008 049 038 090 012 -25 018 020 116 -23 080 035 015 015 -22 093 -32 054 -115 062 -23 116 083 114 -08 -106 -31 -109 -81 -09 000 -60 062 -94 -107 -118 073 124 -83 -66 -36 042 088 094 026 012 114 -44 -58 -80 067 -52 -50 086 043 109 -85 102 071 -54 061 115 034 
006 -99 -32 107 -96 -97 -73 -115 -80 076 067 -27 -04 -109 064 -22 073 095 020 -01 057 099 039 126 -10 -32 -18 -81 090 -112 -102 064 099 -29 114 037 -128 -68 -45 048 -100 -69 022 126 -49 118 -121 067 -17 -17 064 -61 108 -32 -123 -100 -99 042 -23 023 086 002 040 050 
087 -72 -73 004 119 -116 -17 120 067 -119 -13 -125 061 087 -106 -105 -37 102 118 -93 -12 026 -57 -43 -61 -02 -35 043 -02 -93 102 -01 -96 -28 124 -123 071 061 024 -19 098 -43 -86 -100 -26 -31 044 -09 044 -127 119 081 030 -41 -34 027 -80 002 -128 -89 109 -127 -19 -03 
074 125 -97 -112 055 086 038 -121 -47 072 048 036 -18 -39 -95 106 109 110 -75 -54 -74 050 099 -85 096 053 016 -26 068 125 -104 075 -10 060 029 -32 013 083 -81 -79 -86 -128 -126 -29 059 060 -02 065 093 -90 -90 -67 -118 -102 -106 -64 054 080 042 019 114 113 029 -48 
-52 003 -21 -23 008 -87 112 -07 096 041 022 009 -107 -122 096 061 095 006 037 -90 043 -97 082 006 -55 098 -17 -112 -114 -73 082 112 086 -11 -42 070 030 -81 -70 081 042 028 -02 003 101 -49 100 078 075 -12 006 -127 -61 -86 048 062 123 122 000 112 093 011 -87 -14 
-19 056 020 074 022 036 -117 046 020 -37 -99 104 016 032 098 -120 068 -63 -43 -104 -52 -36 -31 -07 -42 126 -59 020 020 102 072 -72 -103 066 -19 -117 -99 -06 -51 -31 001 041 076 -60 -38 -117 -26 069 -44 096 -54 -15 009 -120 -14 -02 -107 077 073 -22 -83 -61 -110 -34 
-71 -104 052 -38 000 047 104 -72 -94 028 -35 082 094 -35 047 -62 085 008 -07 022 117 -71 051 -77 124 -89 044 039 -60 -99 066 -14 -47 -49 -48 -88 117 104 077 028 -12 -45 051 -02 008 -26 -49 -05 064 -72 029 094 028 009 078 046 -114 -67 -24 -98 -119 017 012 -102 
048 046 118 -42 110 -125 055 124 108 049 017 -98 -91 -90 -92 034 -20 -35 006 -35 055 126 -46 001 -33 -125 006 069 -74 122 -85 050 109 013 050 033 -109 -54 095 093 -09 -73 -01 088 107 103 -116 -119 077 -71 -98 060 064 055 -111 068 023 021 021 -84 095 -54 095 064 
-58 -85 022 021 -78 006 035 094 -45 -94 032 -48 097 -15 124 -55 -59 -08 -63 -110 029 045 014 -02 041 012 -45 -91 036 -42 084 099 -75 -19 -30 103 004 -109 118 044 117 -88 027 012 -113 085 -61 -47 -105 063 -123 099 120 001 067 106 -27 102 104 109 029 -77 064 -34 
-43 -13 123 014 -36 099 -123 -35 -78 -97 116 -07 -42 112 -117 -71 010 -125 104 102 -40 047 084 -120 119 -69 116 015 114 054 068 111 -124 065 -15 053 034 -109 056 093 029 051 109 -31 -111 -19 -18 077 033 124 -63 -100 -30 074 002 054 005 095 010 056 -66 -64 -101 -43 
-35 -26 113 042 097 058 124 030 034 093 -50 -122 023 -48 066 112 120 -122 088 025 089 014 -59 -58 011 025 -41 035 108 073 092 058 104 091 098 046 022 -41 073 -37 099 -110 066 011 105 -108 048 062 053 -54 -19 035 -102 -98 079 014 103 058 -92 097 120 110 -117 -02 
-112 062 -127 -62 045 -07 -59 -12 101 068 -41 043 -85 -45 -35 051 -104 089 032 015 -90 058 -40 -14 041 -12 -18 070 078 063 -62 102 097 -43 027 110 -81 088 121 -62 -04 022 -101 051 -61 -01 -34 030 110 -35 053 121 -92 080 102 021 -126 039 103 -112 115 -94 106 -82 
-107 004 107 -94 -73 -76 -07 016 024 067 014 064 102 066 -122 -53 060 -127 067 -94 087 -06 064 -23 004 045 089 -60 -49 -10 046 022 119 -11 075 -04 077 -112 071 005 -36 -10 032 033 -77 -103 -46 051 -20 026 -56 -117 102 023 028 -25 005 014 026 -110 103 048 114 -02 
069 -25 067 -93 -78 -94 122 -45 053 052 -98 042 -63 -35 002 -30 111 -04 -20 -48 094 099 060 -39 -125 -05 -82 118 032 056 -95 085 -92 065 110 098 093 003 -94 -05 -122 075 -65 002 -76 -116 -03 066 081 -120 -102 -19 126 -37 068 -85 -13 073 -23 -118 063 -65 -115 036 
-54 078 -62 102 117 -120 -81 089 103 -12 -87 111 016 108 095 -60 029 115 023 015 -113 034 -110 -13 -78 -62 032 092 042 092 086 -62 -101 -104 -61 -25 098 083 051 100 -128 013 -103 -47 -77 052 095 -27 -26 033 -108 -13 -06 090 -81 038 -13 -126 -66 -92 073 007 -10 -79 
-115 -94 -57 -30 -67 -127 -48 -09 -73 -45 -119 109 048 -48 -122 076 039 -52 051 -40 086 -72 100 -102 101 018 -24 069 -43 -52 -23 077 009 007 026 -123 079 -25 -46 051 033 -67 -58 124 069 -64 -13 035 121 056 -13 117 003 018 -27 031 -71 -78 -31 002 004 -95 009 -26 
-36 086 -44 -73 -31 -111 -06 -21 -17 083 121 -106 -17 063 -111 -78 109 073 113 040 -97 -38 -57 041 040 059 -67 092 -61 108 011 -98 028 084 -119 -55 -70 093 -39 021 034 080 057 124 -40 123 084 038 -41 -19 002 -78 078 -49 004 122 -99 -122 028 090 118 050 -19 -36 
045 -117 -65 -55 073 123 -08 081 -83 -77 -95 -54 011 013 -92 -06 014 -01 122 -41 055 -31 078 -03 -27 081 -108 -108 -11 026 -31 -86 064 012 -62 108 -18 -55 100 -32 -107 044 -120 -69 062 -63 103 -26 022 -28 019 037 121 -38 -53 -74 -118 -113 042 -23 112 -36 -40 -45 
022 104 -26 -99 -72 109 -17 031 -39 031 033 051 -50 -57 -15 105 -59 086 042 026 055 -128 -45 -40 -07 048 105 014 105 056 039 -16 -117 053 057 -06 061 036 125 -50 092 -29 -12 024 042 073 -106 -07 -94 014 -108 029 078 054 048 -127 086 -48 035 -46 -64 -41 071 -67 
-63 045 -71 040 125 035 -121 -118 018 117 -116 -119 043 -96 004 -94 -103 061 -64 036 -120 036 017 094 -50 015 108 001 -105 -85 043 060 063 051 063 033 -29 -58 -79 -84 -76 -29 -16 -82 -108 -26 -100 -80 110 074 -14 041 -108 -82 054 -96 106 -16 -75 -85 083 -47 -100 -112 
-08 -96 -68 -25 010 -37 073 019 008 -25 -104 -25 012 -07 007 092 040 -28 015 -07 -28 046 -52 000 -14 -82 -110 042 -121 -102 009 -76 -32 023 -116 -16 -52 006 -66 -02 085 -97 002 123 -61 -93 -41 013 -125 -29 027 -120 085 -16 100 033 046 104 -18 -24 105 057 -92 -39 
-27 097 -89 -63 096 -34 052 008 -12 -59 087 075 004 -114 070 -106 091 048 023 117 105 -97 -123 -44 084 -71 117 -111 052 106 008 -113 098 019 003 094 019 000 -102 113 -101 -60 -01 062 -10 -67 -57 071 096 084 005 -127 -110 069 -91 066 -78 -125 020 035 071 092 016 084 
-118 032 -126 028 -01 082 117 125 -78 -51 038 -16 -126 -42 -79 -81 -01 -32 060 098 -103 062 093 073 002 -127 -83 -35 -44 008 027 103 -107 113 -50 071 106 -41 081 046 -95 -86 031 -104 -127 -40 075 015 099 102 057 -77 014 002 009 -17 118 -45 007 -02 100 -01 -125 096 
004 015 -63 027 110 124 026 016 -37 031 -124 -58 -62 -92 -94 -102 119 080 113 114 063 030 -113 -40 042 -11 035 043 -126 103 117 -81 -86 -114 -20 -93 073 -116 045 -88 -18 112 064 -98 -05 099 -16 -100 -122 -69 -81 -54 -83 009 014 -14 -24 100 -85 -42 026 082 -18 054 
-61 024 015 049 -85 -95 041 -03 -41 026 110 -52 011 -51 -61 057 006 -74 -123 045 076 -89 -30 034 124 026 119 058 053 -111 027 -40 008 -01 -111 054 066 060 047 -65 038 030 -82 -61 -13 -67 097 113 -87 -14 -81 106 -09 088 -120 -113 -74 107 -42 -29 -22 -70 -109 020 
-07 085 -07 -58 -120 -120 -105 -125 -50 062 110 -60 120 031 -10 -99 -03 -66 080 -62 -62 040 022 -31 -72 019 -92 061 -03 -11 121 112 075 005 054 -25 -101 -62 032 -06 051 -46 -124 050 -125 -117 -80 -41 045 080 047 031 -114 048 051 -63 015 010 029 -17 -69 -46 002 -80 
052 -37 -83 052 056 -53 040 016 099 005 029 016 -30 -20 124 -12 083 -88 051 096 -128 -30 072 003 -109 014 -73 -53 015 081 -02 -116 -54 090 -21 095 122 -41 -08 -104 -77 043 -15 024 059 -57 054 044 -104 080 -100 060 016 103 037 -53 -53 -46 039 004 -53 027 087 -36 
073 031 114 -02 036 099 -128 106 069 -10 030 049 -124 013 069 -20 042 088 029 -72 094 000 -26 112 -117 023 -48 -48 -25 -32 -01 070 104 -101 -90 -86 080 -09 -25 -83 -53 -78 -07 -36 035 025 034 073 -35 037 120 -12 -78 032 -83 062 106 -09 047 055 -82 114 025 040 
-20 068 113 -55 -31 019 -22 102 -08 105 091 -39 029 -75 034 -73 029 091 -25 -52 108 075 -45 004 126 -20 084 -127 107 098 085 -123 054 -19 072 -117 -18 076 -127 043 022 -06 062 086 110 -40 091 -85 -122 -40 -41 029 062 -87 046 089 113 105 085 065 -56 031 019 106 
053 099 -74 -43 -94 061 033 054 067 -71 075 055 064 115 114 077 011 -27 -64 -21 100 050 102 -105 091 110 -82 -88 089 068 107 -32 083 -23 059 -107 056 -91 041 016 070 051 048 -81 014 -25 -101 -124 -36 -114 057 067 085 -18 065 -121 086 -47 -47 067 -69 024 -88 -92 
-115 094 016 051 -42 036 002 -05 028 104 -123 -45 068 -55 027 -56 -94 -102 108 -89 -37 -70 -02 015 -94 -26 001 006 -03 -41 091 086 -39 -82 078 -63 069 094 -52 -76 -105 092 -94 -81 062 014 -18 044 009 -128 -62 002 027 074 -68 101 -33 056 077 068 119 040 -125 -43 
-51 -28 090 018 082 107 104 -43 -53 092 125 -18 036 024 -121 047 039 -44 -24 056 -81 060 -31 110 -101 -21 088 -46 -26 -101 030 -97 054 -44 -91 -11 -47 -63 119 040 080 -87 085 -126 024 057 121 -26 092 030 060 024 035 096 -54 014 101 -24 119 -100 -123 -118 103 -99 
036 056 -19 -102 -24 -117 -110 028 -73 018 117 -06 -113 -04 -99 -60 075 -49 -109 068 077 -63 007 027 -53 114 -101 -19 081 122 051 -29 051 -124 054 091 -125 -62 064 111 -71 007 -116 -92 -47 061 019 -21 -85 -13 080 070 043 118 002 -41 -125 102 -101 035 041 -44 045 003 
-109 108 086 -88 -31 110 034 -85 -35 096 -58 112 -89 -41 -126 -116 025 126 -97 107 071 -23 060 -41 048 -53 -56 056 -31 063 -103 087 022 022 040 008 085 084 055 061 094 -109 087 -20 -64 012 014 112 048 -106 085 074 -16 065 -98 061 080 031 -116 -58 -81 -47 -39 -78 
024 078 -34 007 044 090 -57 -28 125 -12 032 005 -125 082 -121 043 031 107 -49 -53 034 -85 -05 053 -11 -52 -44 082 090 -28 -71 073 -101 085 -110 -09 112 116 -76 -19 093 015 096 043 100 114 -106 019 103 075 072 067 -24 103 118 123 065 081 -59 -104 -62 038 097 112 
015 063 074 -127 -88 -114 -74 -39 097 001 047 038 -94 108 -08 -12 020 -98 -125 041 081 099 -99 050 -113 -81 -20 106 024 -05 041 098 -19 012 033 038 -46 031 -87 -125 036 122 056 -86 020 -38 009 035 050 050 050 024 -70 -32 -01 011 -86 049 -103 025 -37 -109 041 -86 
081 -91 044 -59 104 028 -99 095 055 -89 058 025 -47 -37 -64 -79 002 -48 115 -04 -89 -88 -28 -03 -69 -09 -28 -38 -20 073 023 089 -43 -82 -33 -70 -79 -103 110 052 -53 033 045 -111 054 -124 -12 092 -97 022 -82 -13 099 034 -83 061 -43 -26 080 -05 -87 -93 -95 -33 
-71 080 059 031 103 -15 -62 -76 094 -82 -89 068 -42 -125 106 -50 107 086 017 079 -114 018 -62 -110 122 -25 104 -46 084 -123 -24 -51 074 -110 -69 -83 -28 -98 095 -87 -76 109 002 050 -33 -105 118 -15 011 041 080 019 033 072 012 061 -115 -76 070 074 -106 080 -86 -56 
080 -37 -82 -37 013 080 005 -29 -81 095 -97 -46 -53 -62 -82 110 -59 -114 -26 -14 -78 090 -114 -17 -98 068 -33 -108 -110 076 -84 126 049 -99 -08 074 -91 -29 -119 -103 -125 -122 -60 -74 -60 -61 -123 -35 067 022 035 049 -85 035 071 048 -03 002 -117 114 -112 -128 110 104 
033 039 093 052 -02 -101 -74 -35 -17 -19 -116 042 -12 022 -105 114 088 -35 -30 -118 -82 079 -116 -32 024 110 018 049 -82 -46 -02 008 028 -56 -35 031 078 118 -127 086 047 089 050 058 105 094 -123 107 -24 -128 -107 110 034 -118 052 -97 080 -95 101 -69 -68 066 117 095 
-29 -30 119 097 -64 086 -06 -96 104 -128 -02 -29 -42 019 -120 -49 071 -10 -33 -90 -22 074 -14 -14 049 049 003 -127 -117 -104 -108 -08 -120 -64 -96 -95 -20 -71 -86 018 -91 122 093 044 093 -14 116 -104 -67 120 -18 013 040 113 063 036 114 -86 024 -61 -115 121 -110 -52 
-87 -53 088 040 -89 -58 -103 -14 -78 -47 -101 107 -65 -08 052 -77 -75 004 -106 -94 -34 076 -120 069 072 113 -90 026 -01 066 -28 -55 -105 -57 -107 -24 038 -107 -110 072 045 -93 044 -23 008 121 -81 -03 102 -48 -55 -34 -57 084 073 095 040 -57 049 -125 084 118 059 110 
-51 026 -02 094 101 008 039 -123 052 089 -126 -46 009 115 -93 013 004 -03 099 044 -19 120 001 -35 -121 103 -54 119 041 -100 -22 -06 -10 -54 -115 119 073 039 -24 -76 059 109 -77 -36 004 118 -99 -126 -92 016 025 093 035 100 075 -84 091 020 -42 012 -105 034 -66 -37 
006 -110 -64 -57 003 081 014 -39 -100 111 121 -59 125 059 -90 -52 030 -84 -124 104 116 054 -46 112 -106 064 009 -70 -121 -61 -74 040 123 067 -28 071 115 -29 -78 063 -82 -55 -13 -74 -67 097 049 -90 -60 102 052 -66 -09 070 052 110 -70 -99 039 -54 018 082 012 -102 
-46 097 074 046 -86 -74 -107 -98 -23 -75 060 096 -104 -42 -54 -57 063 001 -65 -99 -118 029 -05 068 -65 038 -63 039 099 088 106 -71 024 111 114 000 078 -121 -35 091 -71 067 -42 -63 -61 089 040 044 -108 057 -01 -78 -117 113 070 -18 -21 -35 -75 -41 111 015 020 -88 
