111 054 077 -127 -31 001 -99 -49 -46 -122 040 -99 -71 -92 096 087 005 120 099 011 -94 042 -30 -103 -60 002 -14 027 -90 032 078 -116 -44 003 -52 -75 -77 -58 -91 -39 037 -117 087 -09 -15 011 088 097 004 106 -115 -107 -91 -08 -41 -54 -45 -54 -67 099 079 072 -114 -29 
-13 -13 -114 103 051 -21 090 -80 -63 066 -27 -10 -14 -124 071 084 049 074 -04 055 007 -64 -78 -68 -25 101 -30 002 -40 -126 -86 018 010 -128 -38 -41 -01 047 -30 034 043 003 061 062 -03 -47 -87 -120 -27 -123 -125 005 079 121 -03 -72 091 -54 -23 -20 -68 046 -71 115 
045 -115 040 -10 -126 -76 -37 023 122 -14 033 -76 116 119 013 -23 001 019 -60 -26 -70 -37 -24 -15 033 -30 -09 -02 -83 008 -94 032 075 -68 -23 -98 -18 087 -37 070 002 107 -115 002 046 076 089 -06 038 056 -25 087 -21 -71 -128 102 -42 107 -45 044 -23 -105 -58 095 
118 -35 -24 083 013 001 -92 043 -122 -122 -49 -125 000 009 046 -25 058 -37 -94 042 026 -84 -22 060 053 110 -30 111 099 -69 085 -112 044 -27 065 -94 -08 -83 -86 045 -70 -106 -125 059 025 -112 -28 026 -25 -84 -98 062 -92 120 044 093 -25 -103 -25 -14 024 -33 -29 067 
095 098 -108 -46 098 -61 080 003 -107 -07 -88 057 -31 024 -32 082 117 -67 123 -108 061 -120 088 -23 056 -77 -14 -107 -76 -21 -48 -20 -14 -102 001 104 -71 058 -25 -25 -61 -90 120 099 -76 039 103 067 123 089 035 108 -62 -20 -60 118 -73 112 074 -83 -26 -57 089 -29 
-44 -83 -44 079 -120 -115 -52 086 011 041 125 -115 -62 076 018 -38 -71 -120 068 -115 -115 056 070 -112 -42 -23 -126 -77 024 095 097 026 100 -80 -124 056 087 -78 -21 -49 -86 063 017 -44 -71 -127 071 010 -124 -05 066 117 124 018 -16 -86 093 019 -42 085 -56 084 065 054 
038 095 -77 062 049 066 -48 -44 -26 124 -117 019 -19 -49 073 036 -102 -04 068 -27 -13 039 013 -66 086 122 030 023 -54 073 -91 071 -59 -25 075 059 029 -50 071 -119 107 -127 -113 022 -48 -03 048 020 110 -87 118 016 -30 -96 -48 016 009 055 -28 070 -94 -47 122 -87 
-51 -11 -33 -57 -111 036 102 082 -90 020 -128 042 091 -121 024 -59 -47 107 -60 003 093 -33 -19 020 013 019 050 -35 008 -125 -96 083 -63 -127 -56 -117 059 051 002 028 -119 124 -57 109 -68 081 -19 -56 -41 -117 -68 -102 -55 -105 -73 -127 -72 -61 104 -92 -01 085 071 094 
014 102 024 -20 -42 005 098 031 080 -105 -29 -51 -74 111 -06 039 -104 -64 -97 -89 -71 121 062 -110 052 -90 002 -65 062 101 -104 -113 -95 -04 -50 090 076 -37 113 -65 105 -82 080 017 083 082 -03 061 -02 -64 086 -58 -57 105 087 013 095 -04 045 -116 -95 123 -47 -10 
-42 -115 -120 -31 -79 -34 -116 035 -39 104 067 125 085 -31 098 -17 007 008 -09 -13 -124 -125 038 -127 -93 -128 117 020 -11 114 125 007 102 -59 050 -87 025 066 -109 096 -44 031 -73 015 -16 -120 -31 -54 085 -84 000 -55 124 -49 024 071 093 -19 067 -59 049 -69 113 -36 
-52 085 -105 013 103 -16 119 -63 109 -12 -03 -78 034 004 026 -13 025 -32 -76 001 -50 043 010 -117 050 104 126 -20 072 067 -30 -106 -42 -77 084 074 103 112 -47 046 -90 049 049 027 082 -15 091 015 117 081 070 -07 -22 016 079 095 108 -53 100 -112 -41 -40 -20 -94 
093 037 -86 -125 011 016 -13 117 045 -25 -11 057 115 -43 089 -45 079 102 -100 026 -67 -59 -125 087 110 -94 -65 -08 094 007 -72 -33 027 -91 078 -93 105 -41 -72 042 008 -23 084 -121 044 094 035 -114 -23 -73 -100 080 -01 -61 -52 -07 -52 -104 -54 -91 082 083 -20 -30 
-87 058 -07 -97 -56 086 027 088 122 -68 048 -44 -84 -63 -62 106 -116 -50 -68 -110 008 -100 -35 -54 081 -71 -62 011 108 -56 058 108 -127 -85 063 -60 -46 -39 -93 057 -28 -03 -31 -14 030 006 064 017 042 112 -48 -12 122 006 024 101 039 -70 -19 007 -107 -106 124 005 
-35 085 -74 -20 069 111 039 009 -52 011 -31 -46 067 089 -14 019 -78 -58 -127 054 074 013 114 121 000 -42 112 -25 -22 -46 063 -122 -57 089 -115 -120 070 -39 -31 032 -25 073 070 087 064 -22 097 020 -66 -125 -21 037 -16 084 052 070 054 110 080 076 041 020 059 011 
-60 -06 030 084 -127 -40 027 017 031 -12 036 -60 -118 -39 -126 -17 -17 005 -95 071 -87 -96 026 -125 004 078 -19 -06 077 002 -64 005 028 -32 -37 065 018 -40 121 094 -30 106 088 -45 -118 028 092 -114 -16 -99 040 -98 045 103 020 112 053 -06 -77 004 -41 036 093 -114 
-125 042 060 121 -125 -81 -126 -30 006 -90 117 -50 090 126 -61 114 -33 -55 -79 -105 054 074 -52 -33 014 -94 -113 -22 -109 033 031 -104 062 -77 035 027 -19 083 110 084 -120 123 025 077 089 096 080 -53 -62 -59 -43 -46 -126 051 -116 012 -74 -52 -74 -84 080 -88 109 -11 
042 083 055 117 -70 -11 022 088 053 -54 000 -14 -75 070 -11 062 -109 067 061 092 045 017 018 072 056 -22 -21 096 041 084 -21 -37 091 075 -21 -25 058 -43 119 -18 -67 037 070 -48 067 007 104 -34 -37 -75 010 -113 -31 -63 059 -98 087 059 -63 -90 077 -120 -60 074 
012 -17 -63 047 -61 112 -71 -46 025 -118 085 023 -25 119 096 -02 115 -30 -28 -67 -43 -19 -83 118 -70 -20 122 095 -100 -113 -35 -93 078 -56 -65 -78 -68 -61 043 -38 042 -73 084 -74 -103 056 104 -48 -125 113 088 -30 102 096 036 -81 080 026 074 071 073 -48 048 063 
-92 -101 -18 -46 084 -100 -106 120 104 -56 047 048 -115 -25 -78 063 068 -109 -38 -93 -29 -105 124 -11 -92 -25 068 119 -29 089 083 124 017 -46 -61 052 -110 123 018 115 -108 -126 084 101 -13 031 -17 -101 091 -02 -22 029 -57 -17 -25 070 -100 036 -70 -39 009 -31 082 -48 
032 072 123 007 -49 -23 -61 -90 070 104 -78 015 -49 015 -23 095 080 -92 -20 -06 -126 029 -52 -47 023 014 -15 -127 -125 004 -63 -109 -108 100 -29 -67 -11 015 039 -68 -11 115 -94 -67 -11 098 -16 -105 104 -60 -84 069 -64 125 083 -114 -103 121 -121 101 119 -31 099 -72 
066 -113 -100 014 097 -110 014 052 -49 -106 126 024 041 -19 033 058 006 -45 029 -96 -70 -118 -48 -67 023 -119 -12 024 028 -59 -61 -86 019 066 040 107 089 124 -102 -19 -35 -32 090 -19 -125 -87 -61 079 -106 090 -108 004 -32 076 -92 -105 -122 085 -25 065 074 -104 -45 -16 
121 046 -104 059 -58 -49 120 111 -123 -127 -26 009 -68 065 109 119 010 -11 096 -49 -65 -122 007 -07 -101 021 -78 019 094 -40 054 -08 -84 085 -92 084 -92 026 -24 -42 000 103 -45 040 -107 045 -93 033 104 023 -52 113 -22 -98 -11 -63 052 026 -32 048 -71 -90 006 -94 
047 088 107 026 002 -96 044 003 -55 -25 -04 -08 039 003 106 083 -55 026 088 120 -55 -76 022 005 064 -19 002 064 107 -43 -13 057 -115 -77 -15 047 096 -09 084 086 015 -69 095 005 -52 -33 -39 087 -91 -40 -126 100 -51 -128 -43 -115 -100 -14 035 -51 -127 -75 -67 035 
094 002 -107 -72 -34 -114 092 -83 -96 070 037 -07 -27 004 030 -75 -124 -41 037 117 -91 -32 -107 -99 -93 -15 -123 -32 092 -113 -61 -23 -91 008 091 -50 049 -84 -41 -115 019 -04 038 032 -44 100 -46 -65 123 -112 066 -17 038 -109 047 101 051 -38 -47 112 039 027 042 -70 
055 -18 -55 006 -114 -12 111 -69 -76 -74 -53 026 -63 005 -41 -72 070 -117 -61 096 -86 031 037 055 -02 065 -71 079 -81 026 -13 -43 104 -115 117 075 008 046 016 -47 072 073 -31 081 091 091 -104 -86 118 059 053 120 005 031 085 063 023 -85 052 072 006 -69 -117 -112 
-126 -50 106 015 -57 081 -90 -59 039 -126 118 017 042 -10 -24 -58 013 115 113 028 -28 -60 -78 065 005 021 -119 071 -68 -101 -89 081 080 -73 111 022 -37 -41 -104 096 -89 -106 -119 -81 -37 114 -42 -116 115 -62 042 -16 077 038 045 -19 -46 -111 -117 118 -15 -46 -107 -76 
-44 100 110 011 -84 -41 -60 -42 -103 -72 124 -11 -11 -89 -127 124 110 055 -13 -55 035 -107 089 055 093 076 028 -87 033 -64 028 126 048 027 030 042 028 119 088 -120 -48 090 050 078 054 053 -39 098 -74 100 021 121 001 -33 -116 -41 -09 089 -121 104 105 -18 -04 123 
028 121 014 048 115 053 091 028 -35 -102 -97 086 -34 -21 000 -31 103 005 -60 -36 035 084 058 043 -24 -06 -69 -76 093 111 -15 -04 109 109 122 -61 -110 -96 120 070 113 021 -56 000 -42 070 017 041 003 -101 095 -118 010 -116 -78 -106 -14 -80 105 -51 -36 084 052 056 
125 -43 -70 -30 -121 113 111 093 104 056 -107 063 -24 -39 108 037 -81 -43 -20 020 095 016 -30 -97 007 -126 107 -122 049 -63 103 115 090 -71 109 083 101 009 -124 110 -79 -08 -107 068 -12 -59 098 -32 -49 043 086 000 097 -95 025 -52 115 013 125 -91 001 -28 058 -46 
-83 -113 104 -06 029 043 -29 051 046 066 084 019 -43 -110 012 -68 -104 -19 -63 -123 097 -33 067 -68 028 -104 080 068 102 007 -102 016 031 -62 079 116 -09 -60 -101 021 -10 023 025 098 -50 -123 109 -46 065 032 -100 031 -14 -30 081 026 078 024 050 -94 -22 074 -04 -33 
-55 -59 -88 056 -03 007 099 -11 123 -47 100 -22 -109 -91 -99 004 -46 -27 045 032 061 069 071 112 076 105 109 104 011 -23 083 -22 106 -12 115 -94 115 -28 -74 -126 -48 033 -102 -81 116 -106 033 077 018 -81 005 097 048 -93 -58 -68 115 012 -43 -120 -85 -84 028 -122 
-38 100 020 124 -16 026 111 100 -18 018 -38 -110 -88 010 -05 053 085 -111 096 -49 -52 044 -109 046 065 -87 034 094 077 -114 009 -102 -89 -124 -47 075 -57 045 -36 -03 008 -07 -33 084 -41 123 -120 034 -104 007 005 060 010 049 -91 -116 118 121 -08 004 -59 -76 -54 101 
016 078 122 -102 051 065 -69 121 038 097 -106 115 108 005 054 -52 085 010 -06 -94 030 -04 -69 -60 043 -20 119 087 046 -13 022 -94 085 078 -98 056 -31 -71 000 124 -90 031 076 -120 040 045 002 022 093 028 015 -40 119 -110 -105 -61 012 -40 102 101 -106 -91 001 015 
-41 019 122 -22 -38 045 -57 087 -49 028 -39 050 -86 043 -111 087 -97 -32 011 -21 -24 022 -79 -31 -63 -01 069 -83 093 -12 080 076 126 038 118 106 -97 031 -82 082 -44 045 075 020 -82 -126 -03 000 -24 -107 -57 -28 -14 -56 -01 -22 011 030 -27 -114 117 036 -118 053 
-103 043 -36 -30 060 -108 -81 012 -28 -37 -116 -05 -21 100 012 026 095 -86 081 027 029 -47 115 -56 079 -89 107 052 -82 050 091 -02 039 -76 -58 -92 083 124 014 -126 -29 010 112 010 054 121 110 -58 053 106 051 118 029 078 101 022 086 -56 080 043 017 -123 -47 110 
089 077 010 -43 011 -60 042 -26 -26 -01 004 029 -61 057 -69 -77 053 -53 -68 053 -113 -78 -117 000 025 -111 011 -111 -111 -105 -06 024 -87 100 037 -86 -117 090 110 -48 088 -104 -70 -70 073 -48 019 -05 -72 -17 -44 -04 -23 044 -116 -128 004 049 017 047 085 -63 121 083 
-84 064 052 084 -87 -05 031 126 121 014 100 -26 115 089 066 -72 -42 -04 -64 -16 108 125 126 -87 -22 -83 102 024 -116 030 -04 053 116 000 122 061 -59 -18 003 -16 030 -61 -92 -51 -100 -78 -25 077 -93 -106 -23 079 -30 -69 -49 -38 -100 012 020 076 105 077 -98 113 
-54 -50 -69 -111 016 028 -37 -49 014 -20 -126 095 -36 054 -121 -74 -40 -125 037 -84 010 064 109 105 -100 -73 020 010 054 070 -13 041 -107 048 -50 -41 052 053 025 098 090 -64 -43 120 098 -46 -25 049 -40 -25 -74 -98 009 037 -25 -48 -68 -121 111 021 -25 057 -41 -106 
062 046 -16 073 069 094 -10 063 109 020 025 096 -99 -28 -118 058 041 046 109 073 032 -42 041 084 -43 -44 043 007 -75 008 -125 -110 110 -32 021 010 054 050 -116 -103 123 054 003 -06 -90 125 069 023 -91 059 017 -12 -51 -78 -13 -97 101 108 -41 041 -89 092 089 017 
000 011 055 045 112 007 -91 025 -30 097 -98 034 097 045 065 -71 075 059 108 089 -87 114 056 -86 -84 040 000 061 030 -81 098 120 081 -07 120 076 078 -119 -77 -85 -10 020 018 031 010 031 -89 004 001 064 -21 -107 -109 -24 015 115 -58 007 -15 098 056 -104 -36 056 
-102 117 -26 015 -68 043 019 -68 053 -62 -50 072 071 -51 -113 -32 -44 093 -81 075 058 -44 -75 116 064 026 030 -122 118 -97 -109 064 -49 049 -103 -13 -07 -04 -81 009 -62 064 -68 100 -22 -41 -33 -76 114 042 -03 -44 006 058 047 -128 043 029 -123 -38 049 033 -93 005 
-91 -55 -73 038 126 053 053 031 080 083 -62 023 -03 -27 -52 -111 094 008 032 -04 -20 -18 055 -118 088 105 096 -89 113 -71 108 084 -03 008 -69 -71 025 005 -45 -99 047 -54 -34 -91 -80 -102 -99 078 007 -67 -09 -89 -113 -94 032 082 059 035 074 -59 -09 081 097 -108 
018 -55 -104 034 036 038 -49 -123 -12 -37 -89 075 107 046 -106 077 -95 -112 115 -93 -30 070 001 053 060 110 094 039 -41 -116 071 056 096 -102 -36 -94 -79 006 -123 031 -72 -91 018 080 032 009 -13 -01 -09 003 080 -14 066 -118 -76 023 -115 014 078 049 -69 013 -42 044 
120 062 064 011 089 083 053 -74 106 050 073 039 021 -46 000 073 091 -27 -45 025 -48 109 -79 -124 -40 119 -32 015 -47 082 -48 019 086 045 -73 080 049 087 -57 006 -113 035 012 -32 -106 -114 047 032 -69 -93 -32 012 -116 108 124 065 -01 038 087 -128 -64 108 055 084 
072 037 047 125 099 -104 046 119 -94 -58 -32 107 -88 -52 -71 080 -112 -97 -122 057 -43 -40 -18 037 -95 -82 -07 -39 -72 079 -73 -128 084 -106 085 020 053 069 -08 096 046 -37 010 -109 -61 025 -56 038 -113 085 -86 095 112 120 055 063 003 -48 007 098 -116 108 -49 -103 
-15 017 -112 -125 -50 -86 037 074 113 -119 -110 -33 118 -65 100 096 121 -43 064 105 -23 023 080 -24 -81 036 -53 003 042 094 109 -78 -10 035 073 025 065 -13 035 020 -111 008 -36 095 -67 114 000 -112 025 061 -117 -119 018 115 -68 082 040 009 053 001 055 -39 061 053 
005 -10 -125 -98 001 -82 051 030 113 002 089 -71 -113 061 -26 -06 063 090 009 -12 005 -12 -17 -39 004 -74 -32 002 070 -04 -61 062 -21 -52 123 095 -110 064 -68 -07 -09 094 066 -123 -95 -75 -06 074 -18 -55 050 -04 055 -68 038 066 002 -37 -15 080 -81 095 -111 073 
059 -42 097 -49 -15 060 -102 -42 -95 083 098 -124 -57 -01 008 -58 120 105 017 119 -111 -101 -94 094 -86 102 -72 022 -53 -26 -128 -45 -76 -90 -35 -99 -82 -49 -104 067 -11 -25 -116 -50 -126 078 -91 115 -77 -68 116 021 117 -124 018 113 -99 -04 115 122 -04 -42 -03 -21 
-63 -48 027 -03 056 074 -35 073 -18 -43 048 -04 001 047 085 -98 -57 -14 007 -65 018 109 057 -23 042 -124 098 098 -114 -17 068 -122 006 -75 125 -95 086 100 -27 073 -115 -92 -10 -60 098 -92 -47 061 -20 -51 073 -89 -64 013 014 113 -81 -112 067 -30 -87 117 058 023 
124 -06 -05 031 -14 -110 -31 029 115 023 -43 -35 097 034 -110 009 063 076 -87 013 -05 123 -106 -77 -112 -36 -108 -76 -73 -109 -57 -66 -41 071 -110 -95 044 020 -117 017 057 -124 -73 -72 -112 -30 035 -88 -100 080 041 053 -27 024 -63 005 -30 057 094 094 -114 -69 -60 041 
115 -103 021 -127 089 016 084 085 096 -94 091 -14 116 115 110 109 -117 077 -07 112 118 073 -121 126 066 -84 -39 102 -88 095 074 -15 002 005 -33 -42 079 007 026 -16 -126 052 113 022 -21 -19 116 058 -78 065 025 047 -12 -46 -64 053 081 021 044 002 -95 097 101 -78 
-66 000 -108 005 -42 -46 104 063 -66 114 084 098 -75 013 -127 -105 105 -78 063 -24 095 066 -118 -59 -101 088 058 013 056 051 -77 118 -94 -26 -51 088 085 063 -39 050 -71 -97 075 031 -127 -10 007 007 -52 -126 -92 064 007 -121 028 083 -32 116 -43 088 047 121 092 -100 
074 047 -72 -04 -44 020 074 014 110 -04 -94 -16 017 -54 -24 -33 124 -62 -105 117 -45 -43 045 -100 -35 007 -118 -20 -98 052 022 -77 060 006 064 089 106 -21 -19 008 -05 021 -52 -118 -13 -04 026 104 -109 124 -63 083 -21 012 -80 034 106 -57 -80 090 038 086 021 051 
034 020 099 -49 -51 070 -67 013 088 031 -01 043 -18 -123 123 113 098 012 017 011 124 -73 -06 031 032 082 017 -23 018 -63 -100 -84 025 109 076 -83 -98 007 027 -13 065 116 019 -101 080 -75 020 -10 -126 003 -98 068 -17 -35 -68 -87 -97 -74 -91 -110 000 051 -27 -48 
-28 040 -59 -62 -42 039 -34 081 -01 086 -95 124 -44 121 -57 073 -97 087 -119 076 -101 -45 046 -59 048 078 070 -11 -10 -90 022 -116 -56 024 035 -89 -06 -108 052 -20 042 -102 018 -29 -28 -05 -118 -71 -115 -128 -63 067 108 -102 -84 025 126 012 -18 -95 075 -26 -105 -22 
100 018 -14 -66 125 -14 -08 -81 031 -103 001 009 -22 -125 -77 031 075 -15 082 -26 -87 -113 005 106 -21 -88 047 071 063 050 076 -36 -107 -45 111 -50 -93 -37 107 071 -91 036 -107 -53 069 -94 -104 106 -127 080 012 040 081 -19 -22 -40 -54 -58 074 005 030 -102 -103 -87 
-123 -21 -65 -108 -79 069 058 -01 069 005 106 021 003 -122 067 -07 -52 -98 051 -22 077 050 001 -115 125 -15 -25 -63 037 -102 -91 103 005 073 -86 -102 040 -33 011 -85 -83 021 -107 076 084 082 005 036 -71 030 -61 -13 -46 -112 063 -72 057 -36 -73 093 013 -37 047 101 
013 092 075 -94 053 025 -58 088 -112 -128 095 079 -53 054 -26 -81 030 049 -42 -29 052 -109 -116 -61 -101 -56 -45 068 030 002 -69 027 -79 -40 -02 -38 -49 -85 -09 112 -71 046 -65 -18 -74 032 020 -120 -125 -58 122 035 -68 -46 117 125 -41 -88 -90 -24 -49 -07 060 044 
124 105 -118 -10 -35 -57 -28 -54 -46 011 -116 -16 -117 047 -113 044 117 -123 -60 -39 -64 046 037 018 094 -20 -125 -14 -31 046 073 115 -69 104 025 089 126 072 119 032 -79 -48 080 006 050 005 041 -111 -30 066 053 035 072 123 -86 -15 -92 104 081 -120 -112 -49 125 -128 
-52 -107 126 016 -46 083 093 004 -104 -09 102 -38 -15 -67 -04 -32 -03 001 081 -09 084 036 -47 112 069 -121 -96 -21 -125 106 -72 013 -67 104 051 -113 054 121 -124 057 -01 -128 -32 090 -73 -119 -50 074 090 112 013 -103 -93 074 -60 049 083 000 029 028 060 -30 -11 -46 
084 001 111 -30 -106 044 110 -88 -38 006 087 030 038 -27 -25 -20 -49 -36 -114 -43 -76 -66 -78 032 078 029 -49 119 -25 -39 -125 -48 -15 -102 042 -78 111 -94 -67 -97 085 084 -123 043 032 -61 077 121 110 011 -93 -39 -76 -83 -34 -67 069 073 -25 -52 009 011 083 -02 
-31 -122 022 047 -128 -117 -02 -125 -26 032 -75 016 -120 -48 -59 051 -55 099 -50 -86 113 -31 -84 007 099 -89 098 -124 -60 010 069 -49 -11 007 -29 -117 -124 -66 062 -62 004 -46 092 -09 052 -64 121 090 030 114 023 -88 -06 005 -60 -32 -119 082 002 -39 -117 067 -55 -94 
-44 025 -96 055 -87 011 073 059 -07 -56 017 095 024 078 -71 103 -55 034 -11 011 -83 069 034 -06 095 -70 053 -93 045 103 -23 037 -63 046 126 025 004 095 085 095 -93 -68 017 -82 100 079 058 -102 -93 -25 -72 103 098 090 -128 -76 087 035 -50 -57 -101 -81 -62 018 
069 089 069 -59 -92 -103 -102 -105 -68 -16 004 104 001 062 117 -76 054 042 113 -88 -105 011 -106 070 090 -26 -119 -97 -74 -89 -116 081 116 -116 109 098 046 -31 -87 -82 038 -24 010 -71 -46 004 112 055 099 -98 -75 -79 060 -97 010 059 080 001 118 013 078 -110 -46 084 
-62 -113 065 -124 068 -102 -95 -50 017 022 -56 111 -71 109 -34 -63 -05 -47 -110 -30 -112 075 016 -09 -65 123 -92 089 036 099 -28 008 -105 -110 -32 122 107 -40 -57 076 -30 097 007 -37 052 050 024 -103 -65 061 089 069 -89 -53 -10 -119 019 -65 -90 090 -41 098 -71 043 
124 008 037 -108 125 -15 053 -04 -72 -53 -43 -66 -62 096 112 125 124 001 -41 -27 078 -27 -70 002 081 -114 -10 053 -87 071 074 053 -46 048 -12 017 -92 -85 -94 074 -11 071 -82 -88 -103 018 098 007 -118 -54 -86 012 -76 060 031 -09 013 085 095 -83 032 -94 -125 104 
015 -16 108 085 -32 091 126 -61 -84 -92 014 -29 -38 -104 018 043 -32 -74 -74 -32 058 008 016 020 034 119 090 039 059 042 -09 103 006 038 036 044 -94 119 -99 -70 032 -29 -119 056 103 -125 016 -66 065 086 -53 -89 102 125 084 -23 -48 011 055 -47 -122 -97 067 -116 
081 078 096 -71 006 024 -71 015 -15 -96 -65 -12 -68 039 -38 -103 072 -84 -102 084 -33 -102 -111 068 007 -22 093 008 -119 096 029 -12 -72 115 024 035 -108 062 085 -36 094 -106 084 -18 -54 026 -23 -123 105 120 084 099 -10 021 -95 118 -92 003 -60 074 -95 013 -59 098 
008 107 -28 -66 045 -45 -107 -69 074 -63 -09 -51 -35 -121 056 -54 075 000 091 -87 -46 094 120 -53 117 080 019 090 -123 101 049 004 049 -17 084 -08 000 -103 104 036 -81 -15 018 -28 -107 007 -29 071 -26 -16 -75 -70 -62 -113 079 043 -62 -128 077 -14 -121 095 -127 -71 
-36 091 -53 078 038 079 054 116 060 -109 -45 -70 -30 116 -79 -73 -40 -41 -68 106 028 013 -38 098 -31 -26 107 -118 037 -60 -15 -15 -90 -44 -76 -13 -92 098 102 004 082 099 -89 013 -96 120 093 050 -22 005 002 -93 011 072 -118 -118 023 012 -38 039 062 -50 -13 -68 
-13 074 056 -97 110 025 -38 078 021 -26 -36 -03 -91 -79 -34 104 098 -97 071 014 -124 -16 033 123 064 -59 -47 122 -69 -111 098 -32 -37 -11 -62 000 123 015 -52 -57 -10 -74 095 -12 -101 045 -53 116 -95 027 -43 -72 -23 054 048 -77 087 019 056 095 085 111 123 -31 
-25 -38 064 -10 -83 -43 -39 -13 -20 081 -89 024 095 -100 -96 -17 -23 109 027 063 126 -68 104 -05 -06 098 -84 -61 -117 073 -45 123 028 -97 100 -75 042 057 068 113 -36 -44 -37 022 -67 -08 040 -111 084 106 -52 -83 081 -102 -21 -31 -06 -81 -35 068 032 108 -123 006 
040 125 121 -47 029 -04 117 085 058 055 -10 092 -108 -46 096 -97 038 -112 -87 -24 038 -31 064 053 -62 -105 -88 -91 006 -57 030 104 044 105 -21 016 -19 062 -124 -97 087 -97 087 -115 030 -91 051 -127 089 090 -75 066 -92 -24 -21 -36 -52 030 014 -13 -40 -102 113 -111 
-94 013 046 -76 121 030 023 -93 -21 017 098 -49 -52 049 -11 018 -50 075 088 103 -42 -06 -97 -79 -69 085 -107 061 098 070 013 -59 002 -41 103 -80 007 072 102 033 002 085 009 -113 036 124 024 -90 -31 -22 -30 036 022 040 -42 070 071 019 -123 109 -71 -58 -107 052 
-113 -66 045 041 -108 103 -35 040 -64 056 -39 020 -34 -112 -110 -12 070 -17 -37 002 -114 112 070 008 -121 107 -14 -127 -121 -106 -38 -73 002 -124 100 -82 036 -35 -69 -61 -118 124 079 124 -96 -39 -70 -73 009 040 018 -42 028 083 017 -103 046 -83 115 031 060 033 -96 -108 
105 031 012 088 094 -90 -40 -19 -100 -112 -71 122 -26 -76 -115 105 046 -91 -82 025 -15 -64 110 026 -97 091 102 -30 -53 125 -63 106 -29 -61 -107 055 061 040 -62 -72 -38 125 -100 059 102 -124 092 014 075 072 -127 -127 -26 -15 035 030 -72 002 000 -67 075 -06 107 038 
-87 -06 -36 -42 -23 078 073 103 -116 086 -50 042 -23 -103 -124 013 -37 -05 119 037 -29 -11 -15 011 111 097 097 125 -76 111 102 -122 024 -104 -54 034 024 005 103 -83 -76 026 045 107 008 044 004 -05 104 040 084 069 -04 003 -27 019 -91 059 052 045 110 022 052 097 
005 104 014 065 -111 -72 -96 -64 -10 000 025 -13 002 -04 125 -81 -76 112 124 118 042 -101 067 -126 077 102 088 -83 -24 035 116 -48 017 079 -72 093 -59 -80 070 078 -02 086 -81 -98 -121 086 085 -124 -92 029 088 -09 000 051 -70 -37 -77 -19 110 -55 005 091 078 042 
027 -96 -82 075 -28 -20 -59 -48 074 -04 025 -80 121 119 -85 -99 -118 -53 -105 043 -125 080 -124 024 052 104 001 -63 -82 -26 -44 -112 055 -88 -108 028 -76 -122 019 116 -68 -77 105 -56 -23 -84 -81 -124 -94 040 -125 029 -28 039 -06 121 -62 098 031 -113 023 063 089 111 
-44 -51 052 -03 038 052 057 -26 014 033 011 089 -29 022 -55 111 -65 -56 015 -125 099 021 096 079 -94 -60 120 016 -57 -34 -59 038 -93 -34 016 -79 062 059 103 -121 016 -22 062 099 -35 -108 -97 -110 028 032 106 009 -119 -35 -112 -86 -29 117 -43 -92 -94 -07 -100 -105 
-28 -37 090 -30 055 -22 119 054 -85 036 104 093 -28 -60 -20 -52 065 -25 -83 073 114 004 102 -52 089 -125 -72 031 003 -69 -127 030 114 -16 081 064 024 -103 -62 015 019 017 -15 124 037 -59 -07 -112 023 081 -54 -70 -77 -34 -48 014 -101 108 -09 019 -26 -54 001 060 
002 -70 076 026 017 118 084 012 -100 -37 043 -123 -126 076 -87 -106 041 125 062 108 013 -74 044 126 -97 076 -54 023 064 004 -71 032 -101 -115 068 -66 069 090 -08 030 -35 015 000 -50 027 -84 -88 016 117 089 056 093 -52 -85 073 -127 070 -123 085 063 -92 -71 075 050 
065 -117 093 117 -51 021 -100 022 -39 027 -98 112 077 -54 059 058 -90 -55 085 090 -103 084 -57 092 -25 -84 -48 065 011 039 103 -27 005 092 073 -32 -114 -39 -67 054 118 038 -27 112 -71 -97 -64 098 -91 -35 110 -96 -126 086 -112 -88 -35 108 126 011 -74 048 -33 014 
034 044 -14 124 103 -106 005 -04 035 079 -25 -94 075 -30 -19 042 -90 032 -26 -117 -104 -103 -94 070 102 018 -47 099 -87 013 -77 090 -27 -104 -123 060 -99 051 029 -30 -107 017 026 -79 -114 -20 -32 -128 -107 122 -08 -121 115 003 070 -12 -91 -20 078 -69 -104 115 -30 -100 
-06 041 032 034 -105 -33 120 015 -57 053 106 096 -38 029 -24 -126 017 -72 008 -100 020 -18 -06 086 099 -80 -03 112 -23 106 111 053 101 020 -105 -58 -57 -52 -124 080 094 -87 -52 069 -44 041 024 072 -61 002 -15 -119 -44 -23 024 -14 039 -92 095 108 -123 -49 046 -116 
-34 051 -81 034 -66 -37 069 -80 024 -02 037 091 115 -16 045 019 -114 -25 -02 041 -82 020 061 -57 112 -82 027 013 -78 -84 -63 039 112 -04 -02 -83 015 016 016 -03 -102 -100 093 -111 -22 054 010 -26 120 046 -54 027 106 015 104 -36 015 092 -57 026 -120 -37 043 041 
-26 034 122 093 042 -59 058 -102 -98 -65 125 099 114 -83 027 -30 000 039 025 -75 033 -109 039 035 013 -36 -15 102 093 086 -104 072 -84 024 -01 -72 102 017 -69 071 -34 015 087 011 114 -63 036 059 119 010 -58 -95 103 -40 071 126 -76 053 010 -88 103 037 -85 042 
077 -73 -32 088 -27 048 006 014 -49 104 122 035 124 -14 -27 -24 042 -105 -106 -87 -100 -109 -75 -05 034 108 -100 -60 034 -65 -36 -12 058 041 -01 -108 102 119 -99 -67 -123 -13 -46 -52 024 053 -117 -57 -23 120 025 -61 057 072 114 075 -30 044 -60 -74 -95 052 048 -21 
052 -100 -43 -127 -52 -13 007 -79 -55 -20 111 012 -35 106 -39 058 -03 087 -99 -124 094 029 101 -86 -06 -91 -82 104 114 -13 107 120 029 015 096 098 102 072 089 -30 099 -43 088 034 -88 -06 061 -93 -125 094 -45 007 -119 -122 -01 056 -75 -14 -72 -105 -111 019 -101 -118 
-63 015 -107 091 -27 024 019 -51 017 -58 071 105 063 116 -78 -84 -30 -44 -116 -67 037 017 041 101 -55 -63 097 071 -77 060 024 -85 -79 067 057 119 066 -17 -11 -108 -127 -81 -14 120 -91 082 020 -19 -78 071 096 -19 -118 -109 097 091 042 -77 015 -29 062 -72 019 052 
-122 074 -92 -89 008 039 -28 105 -48 015 -35 082 107 -50 -84 -98 -52 029 002 -67 006 -46 050 079 002 -118 -90 064 072 050 042 031 069 -82 -93 051 044 -88 -81 122 014 055 024 090 002 055 -87 -37 061 082 021 -38 060 -115 114 -83 -74 018 -122 -41 055 -95 105 -48 
001 -18 -05 -106 031 -125 100 004 048 -17 -80 091 022 -127 022 -39 044 -112 048 003 057 042 -47 113 -26 112 077 -40 -79 -21 055 032 -110 073 -123 079 -126 -77 077 -94 -107 111 -62 -102 123 029 -64 073 -58 063 -32 -69 -81 033 -10 008 -02 -34 060 -99 -18 025 023 -04 
-110 -04 005 104 -119 -99 -64 -53 000 091 076 112 -40 -84 -74 067 -109 -56 107 -117 -91 076 093 088 -44 073 070 -17 -100 -82 -08 023 106 122 -10 091 112 -119 -32 078 115 -61 042 -79 -07 091 -82 064 -09 052 -55 122 -45 -17 -105 -117 -02 077 -112 -104 -106 -11 -59 -124 
-80 116 116 059 020 069 012 117 064 -111 -121 -35 095 002 028 -64 088 072 -08 -73 -47 011 010 -76 004 117 085 008 -105 105 -121 -113 098 103 -62 092 086 -13 -08 -36 054 -25 076 073 -110 -117 019 116 113 106 -70 076 062 -18 123 -56 -36 -116 093 -32 -77 -22 -40 124 
-31 -117 -71 -127 065 -63 -82 -106 100 099 009 -125 -118 089 123 118 065 -125 -77 112 -40 -59 -91 -09 016 -119 118 059 110 005 -84 125 -122 021 058 -52 -96 -112 -72 -86 038 068 -52 -120 -51 -34 -11 060 -89 -122 089 073 101 116 -125 072 -09 -48 -48 009 067 -103 -105 089 
001 124 059 -61 029 -48 093 087 083 -92 -11 -76 -120 -58 -76 082 -25 063 -47 054 067 026 063 070 -71 -82 089 -40 -111 122 011 061 -56 078 -26 -21 023 111 069 093 082 096 027 -79 087 -105 -53 -101 -28 -111 -101 070 053 108 -126 054 015 -52 -120 -117 -20 -42 -80 -15 
038 -40 015 061 -87 -72 -68 125 113 -72 -05 094 084 005 092 -85 032 -20 110 -74 003 057 -99 -35 083 -57 -58 -23 004 -83 -100 122 063 -85 -41 075 008 -26 116 094 038 -90 026 075 -62 -122 -05 -95 -11 -33 004 033 -34 -105 -106 062 103 -68 010 085 104 -103 -15 003 
-85 049 -78 078 -19 -39 -54 101 096 053 028 -71 003 -06 069 -45 -125 083 008 033 091 108 -104 034 -82 -73 020 -105 -115 097 081 -100 -87 -119 090 -120 -54 089 035 -47 059 -04 -57 087 121 070 002 070 -58 001 112 103 048 -64 -34 -120 022 048 -118 -108 -39 074 110 087 
-73 013 069 -121 -05 110 -45 -01 -30 -49 090 -45 -20 080 -36 085 -120 096 009 009 018 059 -61 105 -03 102 -91 -20 -78 087 -119 -66 101 060 -83 107 -39 060 092 003 -35 -89 -10 111 029 054 -43 -17 017 052 038 071 -21 002 047 097 -18 -82 008 124 124 -31 -116 -61 
083 000 -01 047 -102 061 -65 -119 048 -44 062 010 -49 -32 -03 -05 -64 -51 106 -83 -84 066 -37 100 097 092 075 -128 114 025 017 035 -71 -06 -33 061 -92 049 044 013 -28 -04 -42 067 060 109 -60 068 -62 -57 010 -110 -99 -85 -77 099 080 -01 074 092 -16 075 -43 -62 
-118 -42 043 -66 066 126 034 018 -66 112 -29 -75 113 091 112 079 -126 -111 -83 -51 109 -81 -11 -12 -80 -25 004 -61 -128 -43 022 -114 -97 093 -34 -77 -45 045 116 047 -78 -125 -113 082 026 075 -75 -72 -105 083 111 062 081 096 112 003 043 -23 016 -35 046 -20 035 069 
107 039 -33 070 018 -119 -60 016 -96 -40 -04 026 012 105 -32 010 082 -18 064 -32 -99 -47 -76 -18 -126 068 -09 121 112 -124 -41 -36 -128 -01 045 093 -116 -115 125 -94 -112 -94 058 -96 111 015 024 -50 -121 008 087 082 119 048 -122 -84 -80 -56 -61 060 -111 035 -02 085 
-38 060 -93 061 036 -19 -42 029 123 -76 026 040 050 -77 -103 -102 -53 084 -33 112 056 -94 -110 040 -27 -20 -04 068 -34 067 046 067 -91 075 -95 -77 -118 -17 -67 002 121 031 -88 -42 025 104 015 091 -119 -08 111 050 -109 076 -52 123 -79 -17 124 -95 049 -27 126 096 
062 -70 035 -20 -48 -119 -77 033 -48 -44 -53 -86 -92 -01 052 -42 046 -72 -70 -55 -63 -23 016 -76 -117 -42 -87 008 072 063 065 118 101 121 031 -54 106 -02 -56 -113 -121 -93 -23 031 019 -78 -81 001 125 106 051 -70 -13 018 -57 019 -104 -34 -114 034 037 -65 018 006 
081 -26 026 -54 044 -123 -107 -27 -42 -60 070 -20 -18 074 -61 -53 121 -97 -65 -91 121 043 -83 -26 -127 -61 085 034 116 021 063 -41 -55 -55 032 037 007 -67 -35 -114 -41 -67 079 100 -64 117 -52 083 122 -64 -02 029 -67 -88 075 -30 119 -107 -12 -74 046 069 -41 -90 
062 -72 -37 -102 080 -82 063 021 018 -12 -79 -05 042 116 107 079 -83 088 109 -59 023 008 -126 058 030 117 -09 -59 -15 104 073 099 035 -18 -51 -107 -118 -53 -107 -61 084 -18 046 -01 103 -15 066 -38 034 046 107 106 -53 047 125 -121 -24 -116 120 103 000 063 056 -07 
112 -28 -66 078 000 040 083 -18 -127 117 107 123 -108 -58 -43 -58 -91 120 035 000 -116 025 -75 031 052 -82 -91 -06 -62 002 -85 -102 -55 -36 010 -81 110 -14 -30 068 -59 -128 107 -114 009 050 -76 007 122 047 -72 033 059 -119 038 -84 -85 047 -86 -121 -112 -34 -95 -24 
024 053 095 -82 -127 025 -98 -39 003 -20 -119 -71 -79 -62 064 -115 -64 -77 -123 -120 -48 092 -103 106 078 121 120 063 014 107 -15 058 097 001 088 062 062 -34 -120 040 030 124 -27 -35 -92 -30 -82 -31 -21 -41 018 098 -107 -86 -116 -72 -107 -19 045 069 113 -124 -72 085 
105 053 -121 -79 -19 -71 081 -26 076 -04 047 -69 006 079 062 091 -71 092 005 -121 -25 035 -31 -22 -17 041 -58 019 067 116 -73 -74 -110 104 124 080 -113 041 023 121 -25 099 097 -100 095 -91 020 -102 059 055 023 047 061 -27 108 -32 -44 -58 055 123 -109 093 125 031 
-103 -33 010 072 -13 -31 029 -18 007 039 041 013 -38 114 118 -43 -88 079 -63 009 -16 095 077 -69 -46 026 -126 -17 019 -29 068 -23 050 -67 -118 073 126 -30 019 111 -47 -09 059 045 075 -50 -117 013 -101 039 -106 108 097 -114 -40 -84 -37 -74 041 050 -109 003 046 -69 
001 069 059 -09 -72 -120 -110 -33 029 020 061 -76 003 -109 -104 034 046 050 -77 -01 -13 117 114 -94 028 -100 -53 038 104 -68 -11 105 -55 117 001 105 -127 -98 -64 020 -02 -88 -101 051 054 050 -35 -11 054 -27 -42 -50 101 -22 066 -117 068 030 -73 080 -55 028 -103 059 
-128 -05 -72 -05 -108 025 094 073 -43 -03 -16 009 062 -91 -118 034 072 -112 020 -75 -86 078 103 091 -44 -49 -04 -92 -07 -116 -34 -03 014 035 -11 -31 014 084 -64 042 -102 019 087 072 038 -68 -102 035 -11 009 090 025 042 -29 -53 102 000 -104 -82 -96 -07 025 -118 -114 
086 -78 -15 119 -58 109 -35 -52 093 063 093 040 -31 -20 075 -65 -76 -59 023 119 -54 022 -83 -41 -53 -73 -113 076 063 -03 101 125 112 112 095 009 095 -105 079 -63 -92 -05 -33 -95 110 096 034 -21 -86 096 -30 008 017 -104 -23 -14 -33 -80 041 -59 068 055 095 117 
-76 059 000 004 005 043 025 -18 121 -71 120 -74 -92 -42 031 117 097 101 -38 109 -103 -40 020 075 -71 -47 -124 120 -52 -63 -10 -67 -44 056 -13 -73 081 -27 043 -115 114 032 017 004 -69 032 081 101 046 121 037 -73 -125 -42 018 -08 008 076 000 -56 032 109 115 -120 
104 -58 -39 -49 -23 -107 065 066 -120 102 -79 -73 115 083 035 035 025 092 105 122 -50 -65 031 -99 -47 089 033 002 020 -28 018 -45 093 -86 -104 006 -104 100 042 -77 022 008 -06 049 039 -84 122 -59 035 082 098 -86 -118 -99 045 096 112 077 -22 048 033 -11 005 119 
-127 017 078 092 -73 047 -25 105 -73 -113 -121 -50 -48 -39 -82 -36 -44 -115 012 -101 -98 -56 -46 -71 -106 -90 -95 -94 105 -59 077 -75 -42 042 -33 000 -35 039 089 115 063 -122 120 -91 071 023 -111 098 067 026 -34 -98 -107 -55 023 -56 068 038 -18 045 079 -110 069 078 
-30 -86 002 -100 -23 -66 076 062 -07 109 -111 -14 -91 125 033 -120 093 -50 064 116 -44 -04 -115 055 075 006 -71 036 -32 024 -55 -106 060 124 064 -11 119 024 -118 032 -124 011 -58 -24 -95 -119 105 014 -36 -39 103 -68 -96 -25 -124 038 019 032 039 014 -102 115 009 095 
106 030 -38 -87 -25 072 103 -105 124 -08 064 041 -50 044 108 103 -26 -52 046 050 098 009 -96 119 -86 059 039 074 036 -89 027 -51 063 -128 089 -96 090 -38 079 028 -22 022 039 -68 -14 -110 -53 -52 068 075 -06 -120 -23 -02 084 037 -20 116 -99 -106 -05 055 -14 -71 
078 -73 120 091 -56 031 108 103 111 116 -93 068 -118 037 120 083 075 083 -14 020 120 057 037 034 -97 -110 061 015 -43 -63 -104 063 025 -108 032 058 -66 -105 -22 -14 081 -39 -119 -56 -11 -60 -116 023 -69 -48 090 -95 112 026 120 105 054 053 -54 -47 044 -70 087 018 
-60 033 -50 068 -76 025 -31 -03 003 103 118 -32 086 025 014 -89 066 079 -14 022 -17 104 -27 -85 -52 049 081 034 -42 073 -84 061 050 -125 -12 -119 -11 121 032 084 -44 087 -76 -112 -119 121 115 016 088 053 057 101 -48 120 -59 109 -03 -98 -93 -16 -22 003 -72 -123 
-52 -22 096 032 098 023 -51 090 007 083 109 065 013 -13 046 -111 044 -45 081 018 -120 088 000 059 -57 000 024 -110 020 087 -100 043 -93 -100 -68 087 005 035 -07 041 052 117 024 022 017 025 067 -113 104 014 -22 109 -114 058 113 079 092 000 -80 -14 033 055 055 119 
-89 053 -78 061 099 091 105 114 110 106 005 126 -116 -71 -47 045 -99 001 004 079 016 -28 -83 068 048 -35 112 018 090 125 -43 -95 100 -21 -79 -17 -23 126 093 -38 -67 -17 -66 -02 065 -84 -50 058 093 012 -53 121 -35 021 -125 -03 081 -10 094 -46 -124 122 004 -22 
119 -14 030 087 -49 -73 121 120 -36 078 -87 063 120 007 031 064 055 004 -02 -03 -111 059 -50 089 069 036 097 -39 -09 -17 -111 017 020 094 -128 043 -62 -104 085 088 105 083 -30 073 -22 -06 -94 -35 100 081 -125 048 -18 -15 -107 -108 -53 -41 -93 -118 -41 -39 -119 107 
-111 -69 -10 -123 -41 -57 -29 074 -88 -70 -44 -111 067 009 -27 031 064 057 -99 102 -92 108 028 106 070 085 -10 -74 -15 -113 -63 -97 008 -12 084 118 090 035 -82 -75 114 -76 015 -54 -73 -19 -99 -44 017 -33 -61 095 039 -26 -106 -69 -82 -14 -88 -42 -12 089 -57 -17 
087 -25 075 110 017 057 000 007 028 -36 -38 062 -26 -04 -42 102 -45 115 -127 015 -97 -102 -79 -42 -39 104 -52 -82 -71 -11 -72 062 081 116 112 094 -93 051 -40 -30 015 120 040 -35 096 096 -90 006 106 103 -44 -53 106 -60 124 096 -53 -41 107 -125 -124 -05 078 -92 
103 -44 -04 -87 -99 044 111 -05 -18 -10 030 029 088 -57 -31 114 -63 -23 -01 -83 099 -30 118 -16 -38 082 -52 -69 030 -54 -113 006 -100 -68 075 045 -89 -96 -52 -04 -112 -105 055 -110 -20 037 097 -10 000 072 042 053 -115 022 113 -57 -77 031 -61 006 072 066 080 -107 
-57 101 105 -28 -37 -100 -101 -40 114 065 021 -37 016 013 -113 -118 -53 088 -63 043 -80 002 -108 120 -24 -80 050 -75 -64 -100 020 -58 023 -28 -59 029 041 036 110 -82 -42 101 -51 -66 098 052 076 -02 -119 112 -111 116 -128 010 -10 050 -78 045 -45 -13 092 045 -32 078 
048 093 -53 -123 -20 -63 -18 -38 -91 -54 089 -20 -111 -50 -124 011 036 048 024 -06 -59 -69 -105 040 -49 -119 -95 -26 076 -86 087 012 124 -35 107 -95 -62 089 085 -68 025 002 -28 -72 069 -107 -55 021 -05 011 -76 085 110 -65 -04 113 -100 -126 084 -70 -72 -123 -103 -87 
047 -62 086 065 -71 114 000 -23 -48 113 -92 054 -128 -45 -18 -90 102 -84 060 019 -94 109 062 -77 -22 113 061 028 -69 -28 067 -04 063 -37 040 021 110 008 -26 079 -100 057 102 064 -86 -117 026 066 003 -19 -80 111 014 001 115 -65 -16 -116 112 057 -115 066 -62 -57 
105 -16 -98 007 -40 -16 065 -89 018 -56 057 -94 000 -112 008 -38 055 -35 122 -89 -87 056 -88 -04 053 -16 -40 -105 -104 085 -22 -94 -53 115 039 -97 -24 101 -71 -118 -97 027 067 -09 035 -66 112 -20 -18 110 -77 076 -103 033 -118 -95 -120 -05 031 119 -14 007 -06 -13 
-91 -80 -124 029 081 072 082 -73 028 -46 -45 -75 -19 -63 028 -96 -68 -19 -25 037 098 003 -34 -111 -33 -90 004 -57 068 101 -50 121 044 -104 112 112 -16 079 062 -52 007 067 089 091 -59 -126 003 037 032 037 -121 064 096 078 097 042 083 068 -30 -17 110 -128 010 104 
-99 -128 024 -91 027 -40 -17 058 -14 002 -13 104 041 065 012 -96 010 079 042 -64 -111 -42 048 074 083 096 -97 -32 -65 059 000 007 -115 062 033 -20 -66 -52 000 085 106 047 074 -54 -23 043 -49 083 086 067 -101 -82 -77 -24 -122 049 -95 053 122 044 -78 050 -09 -76 
-96 039 099 -50 072 -50 067 034 -67 -53 -38 -124 099 056 -14 -38 -72 009 -95 104 -24 121 027 -69 -125 -72 112 116 -109 -71 -45 -45 027 -85 -55 040 056 -96 072 -72 -65 080 118 -35 -118 -45 -112 -101 041 078 007 -29 073 -13 021 050 -54 016 -56 106 110 107 -03 096 
022 032 035 115 -117 -42 058 -116 007 004 119 -65 -74 -78 061 -90 -65 020 011 060 012 -74 020 -67 108 022 069 -57 113 100 018 -51 065 -60 060 -86 -82 060 -100 -52 -118 -38 035 054 -63 052 -74 104 -06 -06 -21 062 -118 -126 -76 -117 -02 -07 -53 -91 -28 072 106 -04 
125 -51 -11 -110 099 027 -124 059 -63 -107 059 088 080 099 -82 -97 -09 -16 052 -124 -75 067 -36 022 109 120 002 -37 067 087 122 118 -100 -124 -56 057 081 -43 092 -46 111 -62 125 -90 000 -40 069 -42 035 002 101 080 -48 109 087 -109 -124 042 099 -71 014 053 -90 102 
-88 124 040 -41 007 -06 -08 119 -43 043 -46 -74 110 -40 -05 029 124 -59 014 057 055 041 -121 -94 119 -71 110 -02 -89 046 -79 -05 -101 -61 021 -71 -111 060 068 061 -08 -83 -121 089 041 -39 095 068 -95 -46 057 081 053 074 045 119 -123 050 -117 075 -71 -28 017 -78 
-34 -72 -31 057 -60 055 060 -103 064 050 123 082 -113 073 -73 -78 -105 -77 018 005 009 111 103 110 085 -84 078 -128 -08 069 032 047 047 -06 126 068 -46 095 009 003 -23 092 -101 -51 -84 063 -31 -121 124 072 081 -78 -51 -35 028 027 -36 -108 069 -15 -65 -126 075 -55 
052 -11 042 082 033 -40 -34 034 -98 -26 105 120 -52 -41 096 -58 086 026 -24 -91 -24 059 -102 057 060 007 067 029 061 088 064 -117 -51 074 -39 -12 -127 090 -45 101 073 -17 -43 061 -64 -07 -52 -55 045 028 -54 -63 088 -88 054 -73 030 -120 015 -08 -107 037 113 -08 
-63 078 110 098 -76 058 -78 -120 075 -02 -66 051 -111 019 100 075 026 072 019 124 113 -48 087 102 -94 -110 -53 -18 -44 068 -92 -65 -58 091 027 -80 -77 -117 090 -52 -02 100 -68 -74 -60 102 -82 088 088 -124 112 068 107 -109 056 -120 -83 -124 082 -124 048 -123 -96 -89 
-18 -84 060 -104 -104 -121 -09 -36 095 -124 -05 104 -22 -128 034 -27 064 068 -96 -112 002 094 107 -88 -57 -113 077 -10 -43 -06 060 088 103 040 -53 119 007 119 -72 028 -53 033 -76 003 113 -100 031 -88 -25 019 -03 106 -51 -128 124 -97 035 -66 -58 102 122 037 -125 036 
019 -31 021 -50 005 054 037 043 022 -55 028 025 031 -122 -59 011 123 -25 -08 -105 049 -61 088 -70 -84 067 032 083 013 -66 -03 006 100 -96 087 -38 024 -114 -97 015 -63 113 098 -68 043 -95 047 -34 -02 -109 025 -48 -82 -08 -118 -25 -03 037 065 121 097 -93 065 070 
014 -86 -36 109 052 114 -92 -111 035 -60 055 100 076 061 078 119 109 013 -111 -10 -89 078 -74 -19 035 078 -24 078 -54 -40 052 -56 071 022 080 -97 125 -83 080 -34 099 -16 -104 -57 114 021 100 -09 -87 -47 020 049 007 -48 071 012 -28 -128 -97 -85 115 -94 012 029 
091 -82 055 073 077 109 020 -37 117 -109 -35 033 -123 -42 -95 114 023 048 -114 068 -29 117 -74 -54 -127 -53 -85 -29 -45 098 -103 052 126 -03 -88 -99 -91 066 -119 -48 025 -03 -03 -107 052 -24 042 000 062 -51 080 -120 -04 057 016 -95 028 -22 102 104 104 016 -93 059 
118 068 126 -111 -26 -13 -118 -84 089 001 -87 102 -44 -12 -28 107 028 -05 100 -90 048 063 -89 093 -96 -19 118 102 -07 -20 -102 008 046 087 -55 083 057 021 -72 120 -05 028 -81 027 -73 033 -41 -10 -116 121 037 065 -61 092 075 -40 -09 107 -29 037 -112 -68 063 091 
-20 -91 062 -77 -31 002 -123 -44 -122 -64 063 -47 053 104 037 109 046 -35 -07 098 057 054 -56 083 118 126 -06 -01 072 110 -26 125 064 -02 -87 -14 -46 041 -111 -53 -114 033 -15 054 016 -111 107 -106 049 -61 -41 055 061 015 -97 046 065 -37 -45 -28 112 002 -10 113 
000 -08 015 -110 -93 016 096 114 -85 -03 -34 111 -76 -79 069 078 -03 005 054 -09 065 106 -45 123 -01 -17 108 029 -43 -89 000 -23 -123 -64 046 -04 -15 -60 -65 126 069 043 -95 -47 -26 -68 092 090 062 -83 099 108 -80 122 -91 108 -80 -58 065 -116 024 074 -78 057 
-81 -69 070 040 -72 -114 -122 -108 -76 -91 055 -114 064 003 -07 -118 -40 -128 -99 -56 011 -71 114 -71 122 116 -119 -119 -32 -25 095 -111 104 -104 -27 -49 058 101 -20 077 070 040 -64 108 -88 011 -32 064 -07 124 121 -03 108 -59 070 047 -93 -64 101 -65 110 -12 065 -96 
-91 -98 122 094 110 005 000 064 -07 -02 117 071 018 -17 064 099 088 079 -59 074 018 -92 047 087 109 076 015 -127 022 -69 086 -06 050 058 065 052 -65 116 104 -122 -108 060 -89 071 -80 026 058 099 071 079 -41 101 049 027 013 -54 -71 -61 -36 079 -93 099 -07 043 
097 -15 -104 -30 -121 052 -03 -43 006 125 103 063 056 -22 076 126 -07 066 116 -124 -38 -69 -94 109 -54 -44 -85 -93 -121 -76 082 -84 -87 092 080 -18 -102 111 030 080 054 047 056 063 -87 -37 -26 061 118 -128 026 -99 096 -117 -12 -107 -13 053 020 -30 -94 -04 063 010 
106 042 -59 012 -63 004 087 -08 -44 -95 049 088 -93 -54 015 -32 -124 -22 -08 -55 -09 -70 033 -125 104 016 024 -31 -43 124 -51 -68 078 091 110 -30 071 -106 037 -39 -96 061 -96 -42 -51 000 015 041 -14 097 -95 -68 112 026 034 041 084 123 -81 013 -79 -17 036 028 
028 -22 083 -16 095 052 -43 087 000 069 -57 -125 052 -116 -92 012 -09 073 065 009 -47 011 -116 103 -100 -91 012 111 -71 044 -93 115 033 126 -96 -101 095 -22 -120 -119 -67 -97 -05 044 072 025 124 104 -95 -114 -100 086 -112 025 -115 -123 014 092 009 -26 028 091 -44 039 
041 -100 066 -78 -121 -115 088 -39 023 -123 -51 -107 -101 124 -57 -31 -27 027 109 -121 099 024 -105 031 -12 -96 -98 059 121 054 -96 056 -13 103 055 -98 -86 -113 -90 -105 046 -24 043 113 011 004 -63 -92 094 023 -88 -97 084 111 -74 -65 092 082 001 048 024 -64 -36 -118 
070 069 -01 023 -26 017 096 -66 082 -127 -23 078 065 -30 020 048 023 040 090 044 078 121 052 -38 007 -53 -43 028 -52 026 072 -64 -87 062 053 -99 -93 094 102 029 104 021 -48 -14 -75 -122 115 042 119 016 -52 024 088 122 112 095 120 -120 -109 -122 074 -47 061 083 
074 -113 -92 004 081 042 -74 -83 010 054 -08 047 056 040 -37 012 -36 -69 -96 -44 055 098 013 083 013 -41 -47 -41 038 -128 019 075 -96 -33 097 -14 -40 -128 -21 109 -67 -08 -95 112 077 079 020 088 -02 -93 -89 080 066 101 -37 -35 088 -50 -120 -18 002 -41 -58 080 
-04 -34 -77 073 014 -102 080 071 -38 -84 -41 040 101 049 024 041 107 -124 021 -120 -36 -69 -22 -59 097 126 007 054 -128 -122 -127 097 121 031 -76 123 039 064 014 -60 -08 -98 006 -116 005 -68 -52 118 -65 -118 014 -46 073 075 -108 078 -90 -62 -53 002 028 092 091 -92 
-21 020 -90 -15 112 -45 -109 109 114 018 021 -07 -91 019 -100 081 -66 041 -65 -32 014 -117 057 006 106 -111 -102 073 037 -56 049 -79 -110 -92 091 -03 -42 -31 -58 -94 -25 042 119 068 017 -78 020 077 009 -92 017 -49 011 -94 011 -34 -99 -39 -75 -56 107 -79 -01 049 
-39 -45 -110 067 054 -114 -93 068 109 024 -118 -09 026 -107 115 -62 062 -30 -119 091 054 -71 036 -71 -45 045 066 064 -127 -29 -86 075 085 -68 -20 -93 -97 012 -72 113 -107 -02 -57 -46 -126 009 067 056 066 -104 -92 -25 -84 039 120 -30 048 038 -92 046 -10 112 -112 030 
060 083 018 -110 061 024 -41 103 091 028 -103 -18 -120 001 097 -28 114 -128 017 108 -46 082 -92 088 023 -16 -83 049 -125 -108 066 -77 094 014 -95 018 064 -43 -63 029 -81 087 -54 -42 -122 -95 030 -19 119 -113 125 090 -96 031 077 -19 121 100 054 -11 022 041 -91 025 
008 051 -49 -13 105 -70 -120 124 036 -73 -11 -120 -31 078 054 111 -100 -64 -100 -47 059 -82 049 086 -01 -103 -109 097 -25 -62 -66 107 052 -125 005 009 -99 -36 081 117 -13 016 -65 -105 106 026 052 079 -122 055 -05 081 099 -115 -19 -105 007 080 -126 110 001 -45 096 044 
006 055 024 114 053 -17 120 042 093 025 -01 -86 082 107 -04 -36 100 -124 113 -72 033 017 -64 056 -94 025 080 -27 009 015 -66 086 -81 -62 113 -43 065 -82 071 006 063 -65 045 -120 041 056 006 046 -50 -110 021 -62 019 -21 011 097 -44 -51 077 030 075 -121 115 -119 
-79 -98 059 -109 044 043 109 -92 011 125 068 010 -117 -118 114 103 030 063 -29 -102 115 -126 -122 -74 040 -39 019 -88 -103 -61 067 -124 -98 -67 -77 -116 -96 -64 111 -99 -64 -78 -93 -50 090 076 -39 -123 112 -102 -84 -93 -89 -59 094 112 -91 -23 025 085 -68 011 102 -99 
029 054 109 -93 -39 115 -85 103 -41 001 -15 059 -80 039 086 073 077 -78 072 -85 -61 -05 -115 -12 125 -57 -12 050 -06 026 -62 116 015 -45 071 076 -112 -99 -52 -01 -92 -88 113 052 -85 -24 062 007 121 058 036 -79 110 071 -28 107 058 -46 -25 -36 057 -53 -124 -103 
-86 030 -34 -68 -06 001 -09 -113 -93 -76 017 052 018 056 -77 074 -123 114 -60 -59 -29 -125 065 -17 104 -36 -30 068 017 064 -123 074 123 -116 061 072 021 079 060 -51 -30 066 -62 -34 086 -53 025 -53 -07 -77 042 003 070 -119 116 -78 061 -86 -33 -04 -32 020 -53 017 
-33 064 119 119 052 -89 -71 -15 126 108 103 -75 026 083 085 -35 -124 055 -09 070 -33 -61 029 086 -34 086 -63 032 -42 -24 056 033 022 120 -80 085 -14 058 091 064 123 010 099 064 -100 -118 105 -82 079 -01 024 -35 -107 009 -109 044 013 -72 040 111 -22 105 113 -88 
109 038 063 016 101 100 080 -43 044 051 103 -63 -52 049 098 077 082 -11 050 -107 -103 -39 -95 110 -66 -120 088 064 077 012 029 -90 -116 -102 -07 055 013 -80 025 -120 011 078 076 -74 121 -103 -26 036 044 -125 027 075 -78 000 -34 008 -65 115 -84 047 045 -87 -85 -70 
-122 -64 120 024 104 074 020 069 084 -120 -54 -94 020 -116 019 088 -01 -115 -20 -59 048 061 -77 -42 -03 -112 009 064 081 015 -96 060 042 087 125 105 024 094 -122 -103 024 015 048 038 025 012 090 072 -25 -34 083 061 025 084 -109 -76 -110 -91 067 -54 061 -17 -128 106 
-41 050 111 108 046 -93 034 024 -110 122 -119 006 124 031 -16 -66 025 061 -47 -16 -95 -50 -22 008 094 101 061 -114 -02 -46 -98 -60 -91 -52 -12 -29 -80 -86 -23 105 -62 -48 -30 -51 082 103 024 -44 084 084 033 -73 050 096 009 092 -20 038 -38 032 -107 -78 -13 071 
-108 017 089 -69 037 115 103 095 011 -20 074 054 -79 -100 -59 -124 -95 118 -128 -86 -68 -123 -68 116 015 075 086 024 052 -02 -43 -109 024 080 009 -06 065 -122 -88 111 091 064 -29 -111 -61 059 -83 -21 027 -115 079 066 -66 -72 020 112 076 057 035 -26 072 044 101 068 
-64 -22 -19 095 122 -35 -08 061 -76 -115 111 007 024 -124 091 084 089 003 048 023 -21 -50 018 078 -15 089 -94 038 096 -86 -07 123 054 -88 017 -127 022 105 -17 110 -68 -48 123 001 000 075 -26 101 -36 -93 -23 068 026 -81 -119 -15 -81 -87 -50 038 116 -39 -12 030 
014 -122 -11 -104 -115 -74 059 070 047 051 062 -127 -26 -29 065 -80 068 -118 -96 067 -18 114 067 -06 016 -66 -73 -62 -14 -116 -91 122 095 121 -71 -49 -41 -65 -04 116 -20 114 -77 -97 114 063 -23 -10 014 074 -94 -94 -14 -63 063 -44 -69 044 -70 024 -111 112 091 -110 
030 126 -84 124 -69 -104 061 023 -113 105 -112 -07 -68 038 -77 023 -13 -92 -13 033 -109 126 -98 038 082 072 -39 -44 -74 -05 -64 033 -95 069 051 -18 122 062 -61 -106 094 -113 085 -110 000 -13 -41 -06 -33 009 -07 003 036 005 -05 007 -88 -93 -69 -74 -102 040 095 -29 
-81 126 125 099 -81 -99 020 075 -90 -05 000 081 033 -77 -49 -91 -101 041 072 010 -35 -110 -79 -106 025 -114 111 -44 -115 -13 -32 -85 -91 106 -22 028 -85 097 -111 083 029 -67 097 -93 -48 101 100 102 030 041 -115 -104 001 -103 -61 -42 -119 126 039 -64 032 107 025 089 
-117 -19 060 022 -49 064 -35 074 -101 -93 -89 044 -109 069 072 -07 005 010 -87 -11 -13 -83 016 079 057 -91 030 -94 -115 -89 -121 -35 -94 -81 094 -85 049 -118 009 076 -24 -32 -28 -16 -42 032 037 057 073 071 007 103 030 -55 -83 -38 081 -15 -41 063 -87 015 -11 099 
-86 -74 053 045 081 -57 005 051 102 104 002 081 033 -38 075 -29 -76 -13 103 043 -46 039 -82 002 -122 124 079 044 102 070 -61 -57 -29 087 056 -64 -12 107 -66 078 -57 -09 -75 005 057 -44 057 -90 -90 -08 -81 -77 096 -07 108 043 109 048 120 -49 035 109 -105 035 
-37 002 -86 -83 033 -31 083 -114 118 089 106 050 094 049 -84 -90 032 -50 055 038 -05 -106 005 095 -110 -90 031 012 -118 108 099 -19 -98 -27 -89 -97 -110 095 -64 120 066 072 006 -36 043 112 -113 068 019 -123 124 -55 033 111 035 000 084 -120 -113 -15 040 075 015 -108 
-06 -91 013 -26 051 004 019 -98 -59 004 -98 011 -123 104 069 -19 -122 103 -83 049 071 034 121 089 041 -113 -12 022 031 054 029 -89 006 -11 062 -16 -111 015 -64 087 025 -74 -84 -26 -78 027 016 -118 035 -04 -61 038 016 096 -71 058 -88 033 092 007 -29 114 099 -65 
-04 084 -01 090 098 059 030 117 -60 059 080 101 002 -106 044 -48 -46 -90 053 -48 -20 -19 116 -74 -55 -121 070 087 098 -43 081 -01 060 046 -123 -106 -01 -112 -49 -26 081 018 094 -79 -93 002 -08 -86 -31 -112 -72 049 -30 096 -86 -60 032 -73 -82 -62 114 -76 060 082 
-66 -29 071 -128 -98 -123 -54 018 -31 -111 089 005 -86 084 113 -33 -86 076 -118 -48 -52 071 062 022 -122 -77 -116 -103 -89 034 -65 -09 063 -80 119 -03 -83 -25 098 096 040 074 067 -56 -15 -62 -10 -01 -87 -93 -33 101 001 018 003 -40 013 120 095 -90 056 079 -102 -63 
-40 -115 -122 049 016 083 012 021 008 -01 -75 -107 092 -117 035 048 062 098 -32 054 -112 -38 038 -88 116 084 063 046 -03 116 010 -46 -76 014 001 008 -43 003 -105 -77 053 -120 115 -15 -34 -99 -116 -71 107 029 -99 117 054 -13 -28 -72 -124 -34 -60 -50 077 -32 104 -91 
106 -73 032 -74 055 -107 081 -41 126 -119 -91 080 -108 -25 037 015 096 -115 118 116 010 072 -16 -93 -04 107 -47 085 -105 -37 016 -64 068 -71 042 101 -102 -18 080 -35 125 -19 022 119 003 055 082 095 -44 -42 -03 015 -60 112 083 -47 067 -123 -63 -96 -28 -115 -45 -118 
-122 009 -36 -61 050 028 -66 003 113 -88 -98 121 072 074 -96 004 066 -47 024 -63 -14 123 080 064 032 113 050 -104 043 -18 075 029 -71 053 -42 041 -19 -125 113 025 -48 -43 068 -92 -82 051 -48 -110 125 081 036 102 -49 028 113 006 073 -07 054 -61 085 -101 100 -39 
-42 029 072 -83 -22 -85 -37 031 -37 065 -120 -17 -76 045 002 -116 -103 -84 087 015 -08 -40 -45 105 011 019 029 -99 070 029 -98 -40 -20 112 029 -23 -88 -109 008 -20 -31 -121 044 091 -111 100 -57 -105 -113 -40 -83 -120 -85 -21 -92 -99 -53 -101 -80 -87 074 050 080 126 
046 -39 014 121 -12 087 064 034 -61 -21 055 -29 -42 096 -21 063 060 -53 046 081 047 005 102 -36 -83 -87 -97 087 003 078 103 042 110 -86 -83 060 084 109 -11 076 -68 056 107 083 -88 099 -69 -101 067 093 059 042 -15 -84 076 125 036 -125 -43 -64 -65 -36 071 021 
010 052 -51 -102 116 -24 089 -31 -116 -58 071 -75 121 075 007 -112 -125 -49 069 -44 -40 110 025 -54 091 072 -71 -68 -57 065 116 -68 109 -104 -24 013 -117 -28 104 009 -71 -09 -93 004 -33 -67 006 084 104 -97 -44 016 -10 099 063 -78 092 -26 020 118 082 -45 030 -126 
-10 -45 052 -07 023 -30 063 077 -09 105 -34 -64 -101 126 -21 -13 065 -07 -34 030 -51 -110 -25 -87 -48 039 014 080 -67 080 -67 -63 -12 -14 088 002 -121 -31 -122 105 -117 125 036 124 -22 -79 079 -101 080 017 -77 -87 122 021 071 073 -15 -99 -100 030 -127 -30 017 110 
037 -115 -43 -12 -50 093 062 -119 -08 -13 -104 -105 045 -53 020 102 -111 037 016 -54 -120 022 -92 031 -43 -37 009 -02 020 -84 034 101 108 126 009 118 011 085 069 -41 -13 -25 -45 055 070 -34 014 099 082 -118 -49 -40 089 -10 047 -21 -81 055 118 -15 -13 012 -122 -117 
-117 -31 015 006 -120 097 -28 -83 -94 -14 054 -14 -13 087 009 008 -37 -91 -48 -81 100 119 065 018 084 107 078 086 082 -05 089 -07 126 -06 -67 081 082 105 010 -33 -73 047 -113 017 015 069 -10 031 033 -49 024 -35 -73 -63 -118 -128 -54 -04 116 109 -100 -76 042 -116 
-24 023 -110 090 005 -91 -01 044 032 -27 -27 -117 -63 061 -34 -25 -13 055 012 114 048 -60 078 -76 072 -23 043 009 -64 121 -10 011 068 -05 -71 105 044 035 -54 029 -13 -43 091 -63 124 -17 046 -117 -60 055 048 -62 -71 050 122 094 003 096 079 102 125 075 -119 054 
-89 122 -103 036 007 -98 047 084 -50 069 045 085 075 -107 -106 113 028 074 015 -39 105 028 -07 -24 123 -60 -96 002 -34 093 -119 021 -100 -03 -77 039 -49 048 -63 073 -127 -19 009 -101 -63 096 022 -40 -83 -84 056 -124 -113 026 084 018 105 -67 094 015 090 058 -106 -26 
040 -56 -38 -52 -88 -04 -111 -74 118 -85 -114 077 096 031 -24 -63 -50 073 032 -66 -52 116 -31 -106 070 -53 -09 -86 041 037 -69 029 009 035 105 -06 -11 -103 -34 -13 111 095 -51 -35 -37 047 -13 092 -115 -89 037 -117 116 013 036 -13 -65 -08 -58 029 -107 047 024 094 
109 048 -117 056 053 -88 -119 028 006 -125 -111 041 098 -26 -110 -54 120 027 101 095 -111 051 057 -55 102 -82 062 -81 -73 -50 -72 018 096 -116 022 -37 -03 065 -12 064 122 034 110 -84 036 102 084 005 123 100 -88 -59 043 011 -24 017 -32 060 069 119 -89 -39 102 -27 
-12 119 053 -107 -08 086 -24 019 070 -24 -66 -54 -125 001 090 023 105 -112 -45 054 -37 104 -68 004 047 -61 -25 104 -96 -107 -77 -128 100 -57 125 -80 -19 -74 -81 058 -124 -120 025 107 073 -91 071 -93 106 -67 -63 101 003 119 -114 -70 -118 -47 057 -45 -118 -01 072 -39 
116 -33 090 043 099 033 -112 126 023 -37 097 069 -64 -104 -53 -18 122 -74 079 -33 -94 059 -24 -91 -92 -73 005 -107 084 063 076 117 -79 -123 062 -45 065 -29 074 116 098 072 075 -35 022 091 -21 011 -08 -126 050 022 -97 -11 -34 094 054 021 099 -24 001 -08 051 -69 
-100 -61 -116 -38 000 067 086 093 061 -65 -06 -38 105 -35 -62 -54 052 063 024 -33 049 -125 -90 094 113 106 121 074 105 047 012 099 060 -10 -34 021 035 005 084 028 116 -76 -85 -86 004 -121 097 -89 126 -71 073 068 -102 -71 -70 -16 -112 -92 124 -88 119 -14 -59 055 
074 051 -113 043 -106 -79 099 106 -36 -48 006 -08 -74 -104 111 065 007 012 -55 072 067 -08 -79 -73 091 027 -41 -18 047 -40 -22 -43 120 039 -08 065 -72 108 -34 -66 -44 -63 -09 -10 032 -127 068 -25 049 124 026 -01 -62 -96 -01 -10 -96 -66 102 -41 036 061 -123 079 
-42 112 -06 -50 -64 123 005 055 -78 063 114 -125 102 031 072 098 096 -59 -37 077 -33 -96 030 055 -06 -21 079 031 -36 074 -21 -48 -17 076 -15 103 043 -20 -109 103 023 119 -04 -78 -121 -97 006 -120 010 -79 -09 -36 079 -40 -125 027 -69 -114 -09 -31 098 090 -26 -29 
-120 073 069 -81 125 074 -11 121 085 024 026 -94 120 -108 -66 -61 -92 -32 -96 -04 -61 102 066 -116 004 082 073 -37 005 009 -112 -01 060 018 -19 048 049 -32 -09 -12 -22 -103 031 -52 -79 121 051 051 -94 -95 067 -23 -90 -09 104 -60 -33 010 088 -43 -27 064 110 -127 
034 -95 083 -98 -128 108 -24 120 018 122 061 -109 -106 083 052 064 110 -70 058 -88 096 043 -101 -01 051 -48 009 -56 -80 102 -13 -66 -60 -60 101 094 047 -84 107 -80 069 105 100 -98 098 017 076 -24 025 -19 -04 -32 -31 -63 001 -124 -53 073 117 -69 -38 098 -36 009 
-05 -80 -08 -03 -53 -117 110 102 027 -67 -94 124 -19 058 -128 -106 101 101 074 -89 071 112 030 -84 -34 027 -47 -119 039 063 047 010 -94 021 -119 008 012 -101 066 -113 095 089 110 058 -01 000 -34 -115 080 -29 084 065 -18 000 094 073 088 -95 022 -07 105 062 -124 085 
-62 -91 -123 -62 056 075 010 -15 053 005 042 -50 111 108 -77 016 101 068 027 -11 -100 052 -46 114 122 007 -02 063 009 -128 027 026 -49 109 -88 123 070 094 -36 -68 111 -24 087 -56 -99 011 -35 036 027 021 022 -77 -73 -90 106 042 -45 054 017 014 011 -72 040 -121 
019 -74 -80 034 -02 022 060 057 -85 -111 -114 -22 -75 -43 073 030 -44 -121 036 047 -03 077 -28 068 074 -22 033 -18 014 086 -33 072 018 085 107 097 034 -72 -40 -64 083 039 051 003 024 065 -09 -45 051 -127 -104 104 -88 -31 -91 049 055 -63 008 088 -123 113 092 066 
022 012 -95 -94 -128 097 -03 -28 -31 -11 011 063 091 073 -20 018 -91 -05 -95 051 -72 099 -07 008 -110 106 -01 104 -124 004 014 -98 126 000 005 -74 110 -52 086 -24 014 038 109 026 -58 091 -13 019 068 034 -91 -121 -107 -123 -13 015 105 -120 034 049 -24 001 -79 -128 
045 -13 122 030 051 038 -70 -97 -126 036 -59 121 071 087 121 007 -123 -06 106 -34 117 119 -24 -85 -01 -23 -23 -31 039 055 095 -110 -59 097 -51 081 098 -21 044 -83 049 022 099 049 032 -122 010 -75 -34 -61 -19 -01 063 015 037 088 -05 -02 -82 -125 -127 -81 013 013 
-63 -33 061 -16 -55 011 -46 101 -10 -122 -08 -36 003 -22 -46 077 059 -104 -67 -06 -95 -29 011 -97 -51 119 123 098 -07 -53 034 024 -127 029 -60 003 083 017 103 109 027 -10 -94 077 071 -34 039 085 -57 -10 -122 -51 026 -04 -21 -18 100 -111 -128 -04 104 -63 096 -82 
-41 -77 -120 -10 106 -126 -75 -01 050 -29 -52 041 096 -62 -01 082 075 089 052 078 008 058 -118 022 -27 049 -59 021 048 -47 014 -26 -78 124 -54 124 014 097 -43 -63 -98 -101 033 -117 -08 -96 002 -13 007 -83 024 -54 -11 -75 -26 -28 093 022 -09 115 010 073 042 104 
063 -75 -107 050 -64 -117 125 117 -27 -94 -04 066 -47 -88 124 102 071 -36 -15 012 008 021 -51 -64 078 -12 -77 040 -09 025 012 -23 -29 021 065 -36 114 107 -41 041 -28 -01 030 -117 -66 028 125 -103 090 -22 120 -92 104 -124 081 -64 101 104 -105 054 -82 080 123 -38 
032 054 061 -97 -52 -107 -57 -117 -113 015 -48 047 -20 -112 048 -37 046 086 -58 -66 079 011 -92 -98 085 -116 063 036 -21 121 076 107 119 116 026 -04 -53 011 062 074 019 -92 -57 110 -23 065 -96 -123 -95 056 -89 -80 -99 117 -85 113 006 052 -87 005 -33 063 114 000 
-45 -94 045 -58 035 -101 -88 -13 014 117 079 -92 102 117 058 079 -115 013 109 122 003 -82 073 -70 -22 -26 112 026 107 091 039 043 -96 054 -69 023 -67 112 -126 029 024 -104 120 054 091 -69 029 -15 -25 -70 -110 084 093 -101 003 -67 -28 -47 -63 -112 -29 088 -126 068 
038 045 -112 077 041 016 018 -112 -29 -22 106 -114 106 -09 023 012 039 -93 074 -44 080 -126 -114 -18 -112 -64 -05 104 067 -47 -57 014 -11 023 -73 116 116 118 -54 -08 040 -15 079 104 -57 -95 -11 053 -97 114 118 -17 -27 -04 098 -71 -07 -47 085 -61 100 -24 -105 -35 
-47 -119 -37 066 121 -96 008 121 -101 125 -61 088 032 057 029 101 114 -55 120 040 015 -88 -37 -37 085 -20 024 -81 023 -82 059 -08 027 067 087 -25 013 -65 -59 -09 -103 012 118 013 122 -68 045 -58 000 -52 118 115 121 085 -37 -13 082 090 031 072 -09 -51 -63 -107 
011 039 -06 -45 -116 -50 -49 039 013 031 032 097 -111 119 -91 -56 001 021 098 -38 -56 -123 -65 -28 103 000 027 061 029 073 -108 117 -108 086 098 -83 026 105 -38 -111 043 -122 112 -09 -83 086 -109 102 107 109 106 -123 -20 014 037 031 066 093 -13 070 -59 120 002 068 
084 087 -83 -118 -72 115 111 042 -104 -18 -59 112 122 080 -17 075 -43 -46 -48 020 064 -37 -103 -48 034 024 055 -73 092 085 -72 100 -27 -23 -04 -10 005 -96 121 -77 -98 -20 -19 -39 -06 -12 -49 033 -02 -126 074 -19 122 061 -66 -113 078 -64 -20 036 -128 053 096 -127 
055 095 -108 -56 -16 004 -31 106 049 -31 -40 -78 078 098 -67 112 -49 041 -116 023 006 125 -49 -98 015 003 -02 -21 066 104 121 -93 -91 -32 -44 -63 -26 048 037 -119 076 096 -56 067 -90 -69 -76 105 -23 -95 111 071 -126 094 -51 000 -117 005 -35 012 038 103 -10 -95 
120 -29 -43 055 -09 056 101 087 117 050 -127 -06 -121 101 120 111 049 -101 -74 016 -55 -62 -94 089 -60 -120 -108 055 089 -20 018 095 085 112 051 030 055 111 -07 -35 -32 -67 -06 105 121 -85 096 -20 126 -03 110 -92 052 023 097 -12 052 080 -02 040 082 043 -73 -40 
-20 -121 026 -114 -117 111 -32 -68 113 -25 -83 000 097 -02 -87 -70 064 028 -72 -02 -104 125 -50 -56 019 050 -121 -45 -61 020 001 101 -34 051 102 035 -33 005 -106 073 -88 -122 -94 -13 118 039 -17 -100 -62 -98 060 -124 042 009 082 -42 041 -42 -103 -109 -33 -92 094 069 
102 001 047 111 -27 -122 018 031 -71 -12 -52 105 -103 -110 -67 -55 -40 -54 018 092 -78 -09 -94 094 049 094 090 -20 -75 -75 079 -31 123 -115 -53 055 -59 -24 -04 104 110 -20 -35 -68 053 028 070 -60 028 080 048 020 096 -53 119 -54 122 097 -25 -76 082 -27 -65 -29 
109 089 -100 -15 -44 -31 -41 -24 -67 -118 015 -09 088 -13 -56 120 012 103 056 069 115 -120 006 -23 070 -30 -69 030 062 -19 112 -97 126 -87 022 088 074 059 -125 -102 -10 -47 -26 -102 115 066 053 095 -42 -14 051 037 -11 073 -61 003 043 024 -72 -121 062 121 049 -64 
-36 -23 -124 071 -87 116 -43 -59 -84 -118 -74 122 050 056 -16 087 087 -60 052 103 -33 001 -08 -109 080 -125 -117 099 -09 119 035 041 -86 030 053 -106 -40 -43 067 119 -108 -43 053 -94 070 028 115 -33 010 -124 -62 037 -64 087 -66 056 -31 -13 -35 121 -02 -30 -38 113 
-57 073 -123 095 024 -77 -61 -54 105 -06 064 -128 126 -68 094 -113 -93 039 -06 -103 081 093 -97 049 -124 026 076 084 -17 112 121 110 061 -04 -10 -66 016 062 101 -120 -80 013 071 -76 115 034 077 097 -06 062 052 -88 071 027 -114 076 082 041 094 042 -73 006 -86 -21 
099 -111 -51 -37 069 -10 -74 114 018 082 -10 -89 084 -66 -66 043 -31 061 -78 -127 076 -07 -40 091 028 -50 -30 -68 083 067 -74 -41 126 068 -44 -121 -95 020 011 -95 108 -42 121 -56 100 038 -75 -06 030 -99 -48 -99 -12 072 007 -25 -20 -07 -88 036 -83 -71 -58 -114 
-45 -125 030 -05 -123 -115 -26 022 005 -106 -64 107 009 -58 000 035 -06 000 033 028 -39 -68 -82 -116 -95 068 117 -85 -08 101 -103 -128 -76 119 -29 078 030 011 -67 -75 090 -24 108 114 -45 -04 -93 009 -31 119 -18 -108 -89 -12 057 067 -70 -98 -104 -25 -80 -70 -112 083 
-40 -63 -82 004 -36 122 121 043 027 -79 039 126 -97 036 -122 -40 116 062 001 043 124 -120 -25 076 -23 -88 -26 081 052 -112 -15 119 076 007 -76 108 -106 060 -85 -56 121 -83 003 -92 087 -42 -86 016 018 065 -35 062 -81 114 069 017 -28 014 079 -15 -93 -92 098 -78 
-40 -94 087 -128 051 120 061 -76 021 044 104 088 120 -86 067 -17 -56 119 081 051 -119 006 -19 046 049 -58 -104 013 -98 011 -88 050 055 -57 -75 082 029 002 -63 -125 -98 017 124 076 057 113 099 -06 -37 -49 -57 006 112 -99 -95 -25 -36 -03 -110 057 -117 -21 -35 -92 
-38 075 -86 029 072 006 -55 119 123 -01 -69 -06 -02 -114 -33 -66 -01 034 -40 011 -29 011 -71 116 -120 -51 -106 024 -12 -32 -21 -61 000 075 100 -61 -54 -108 051 051 -98 -13 -101 -127 020 115 098 030 020 069 039 022 070 -32 080 -84 095 038 -97 021 -75 -53 022 -38 
-28 -50 037 -30 057 043 118 042 020 100 068 004 -101 -112 058 -81 -34 -61 111 084 -119 -111 064 040 -12 026 -57 115 -125 000 009 -35 084 -77 075 081 124 -103 028 053 -127 -78 -58 -118 001 032 043 064 049 -15 -17 053 008 -116 -34 -120 097 056 -115 -20 -112 -65 -58 -94 
-116 -46 026 101 -88 -32 -14 -60 -71 080 060 011 -40 -111 -114 027 -119 065 -123 -38 060 045 -05 -116 -56 052 120 -56 038 -128 044 104 -105 095 -53 071 009 051 -52 046 086 -06 -77 109 062 -111 -61 -82 069 -48 032 071 -62 111 074 113 -120 -03 -111 -49 -86 -118 116 012 
092 062 100 -112 016 077 006 014 -71 100 -102 110 089 070 -85 111 -78 067 046 116 084 -90 058 -98 099 026 061 -10 123 016 093 -127 083 -117 -43 124 -15 -20 092 045 042 053 087 018 036 -50 -78 -123 102 -32 117 092 -88 125 -102 017 020 069 -84 025 000 053 -35 -91 
123 -98 101 021 -53 -80 109 088 -128 -30 093 125 048 -36 018 072 -96 -107 058 011 060 078 -78 -30 -20 096 -67 097 -108 003 -80 025 -52 026 009 -126 089 -31 060 069 068 003 -43 -43 -11 061 050 -08 076 -03 -24 079 -114 -01 -111 -39 076 058 -115 058 081 -15 030 -63 
-72 001 -97 -38 059 087 105 -103 089 -01 119 -37 -109 -119 -45 008 123 072 057 -20 066 -122 -127 070 072 -37 -110 004 -11 -99 -119 -42 064 -111 071 034 -91 091 -72 -20 023 032 105 038 -07 117 -51 -122 -06 084 015 066 -114 -104 026 -60 107 090 -05 -58 -125 009 -59 -25 
000 -54 -28 -80 -36 -07 085 105 -21 006 -98 -34 -84 -28 -119 082 072 -17 -50 -03 066 078 -65 -125 037 -55 043 089 053 051 -21 001 026 -102 093 -38 -14 -108 084 010 020 070 115 -105 -91 -93 011 -70 -02 -21 -65 117 -107 -07 091 025 011 101 094 -128 103 -02 005 -75 
-71 077 -115 -70 -126 055 -103 -58 -44 -113 070 -43 110 041 095 074 084 -66 117 -116 -71 -94 032 008 -12 -125 044 077 -77 -45 040 111 015 115 028 017 046 075 012 -112 119 -41 015 -87 -27 041 060 043 063 053 011 -15 -94 -36 -82 111 113 033 -123 -53 025 -119 057 -11 
104 092 052 -13 -20 -118 -121 -104 088 -07 110 068 -111 068 079 -90 -57 -02 -43 -25 -71 -105 075 032 092 057 -87 062 115 -51 -18 -15 -10 058 066 -57 -85 -105 -115 054 065 020 -38 -97 040 066 009 047 -20 -61 092 -05 016 -92 061 -08 -107 -53 122 036 072 -47 086 -10 
105 -87 -66 040 019 -58 -37 048 -45 -61 -112 103 -01 030 -33 -81 108 089 086 108 -72 005 097 -97 106 096 083 -13 101 -27 -14 000 -102 080 000 042 -12 096 -122 065 -59 -27 -81 058 086 -59 071 -52 -125 -43 043 -36 -101 037 018 -31 -23 -73 122 -123 006 089 024 062 
108 022 024 -87 099 057 -50 -108 112 114 -39 072 -122 -121 048 -117 055 -52 -90 -33 042 101 089 -41 -71 -33 060 -03 -37 041 062 070 -61 -22 -13 077 -64 091 119 -76 -122 036 -98 -48 107 -17 117 122 -59 -50 075 042 -16 -22 -21 -24 116 058 -125 -18 -35 082 074 -124 
094 -111 070 -119 -88 051 -49 -122 041 035 113 -70 114 -21 -124 -73 -110 020 061 014 -33 093 -111 126 125 -32 -87 041 061 062 -49 108 092 -106 057 -111 119 -40 -10 011 -49 046 010 115 -104 -22 096 059 077 -84 -35 018 -26 104 033 -127 111 -111 126 113 -39 101 -20 101 
-91 -71 073 -07 -122 -08 -08 068 024 035 049 011 056 -27 -44 -65 020 -51 082 -11 -10 -53 062 121 -07 -115 -25 -28 -62 106 -105 063 067 -65 035 041 -51 -18 019 020 -111 083 113 024 016 -50 -71 004 015 017 027 077 063 044 -22 -37 014 -09 -13 111 -35 109 012 074 
-97 049 042 062 106 005 078 074 -58 -124 058 061 056 -83 -43 019 -118 011 003 035 -126 -72 056 -109 -01 -56 -25 026 100 040 -34 -84 103 -66 -29 -105 -07 059 101 -39 082 082 114 -80 044 -91 -106 088 000 072 096 -60 043 009 095 019 -98 -01 -61 034 -30 072 082 087 
123 023 002 -83 041 -33 -41 -20 -82 -32 019 059 011 082 096 088 074 -28 -121 083 -41 107 122 116 -30 066 055 -12 -94 046 070 122 -49 -58 112 -122 031 086 -84 -15 -106 043 110 -95 -36 082 070 -23 068 -84 -05 085 -72 -16 -21 111 -75 067 -109 -67 -64 010 014 081 
090 116 -106 014 -53 105 105 091 -92 062 035 106 029 077 058 -67 -07 -22 098 027 124 -76 020 -56 037 -121 -75 -30 037 -08 -09 088 022 -101 -109 -37 -108 109 -19 066 097 018 072 092 -117 066 -85 111 -112 -58 095 -83 035 -68 072 -76 -22 -62 022 -109 081 -74 120 066 
056 -48 -51 -69 -71 065 -85 -117 -36 028 007 117 029 114 -69 -87 025 116 065 049 -03 -127 -125 021 100 084 064 081 049 -87 -12 -62 -120 045 -46 -91 -107 040 038 084 095 -73 -70 -60 072 021 -49 125 -04 -22 -122 -74 -49 -98 -17 -43 -31 041 038 -17 108 079 109 -41 
-58 -55 -125 098 051 041 -127 -27 063 -95 -26 096 -124 062 -30 085 002 036 051 080 007 064 -08 -50 052 053 040 117 126 -126 -67 051 -22 023 -16 -122 126 -57 081 -96 016 -80 079 057 063 052 106 -107 101 -08 -115 -98 095 048 117 112 -93 -97 -83 -21 -65 068 -65 106 
-22 011 -34 -24 011 010 -22 019 -42 097 103 069 114 007 -81 045 -63 -21 -110 039 -39 020 001 017 046 -10 119 122 119 -122 -44 -55 070 065 078 -104 -88 -24 052 074 003 -75 -96 095 -16 -37 106 122 070 027 -76 039 081 -83 -46 -68 -74 112 -80 -105 110 -06 084 -98 
055 -80 103 014 -56 -124 -112 -116 -92 005 107 -74 106 080 -82 075 -17 -55 020 126 009 093 062 089 110 053 -93 -26 093 063 003 043 -121 113 122 033 -82 021 108 -117 051 -29 044 -70 093 122 082 -122 -108 -99 -73 042 -64 -94 066 021 033 115 038 073 024 -11 -89 -125 
-30 016 041 026 -76 -18 -16 095 -121 058 -38 -08 018 071 033 059 -82 -92 008 -11 -53 030 -75 -94 -121 -09 108 007 101 031 -39 -29 032 -45 -18 -08 -102 -82 -30 -21 059 124 -71 002 -51 -01 106 101 -21 002 -114 036 048 -64 079 066 061 051 -15 -12 031 -28 069 123 
-93 -88 -111 -110 065 -30 -30 -93 -17 -40 -72 -55 -93 017 -83 -31 -101 062 052 067 -105 -124 -54 -57 -72 -43 015 094 042 122 -69 -126 -31 034 -84 -95 -29 -54 -86 -30 -112 124 037 -52 -104 087 -86 086 -22 001 -11 125 023 -107 093 -42 108 064 026 -101 051 -38 023 -02 
-03 063 108 -27 -01 022 031 080 019 -31 -123 -99 108 031 062 052 -67 048 -106 -40 -28 -111 -72 -95 -102 121 005 -59 002 -18 112 -60 -32 078 -104 -95 039 -66 049 -115 -124 -94 -69 011 -29 095 051 019 061 006 -90 097 -16 -72 -33 -100 087 100 -05 121 001 123 -63 004 
-26 126 122 002 028 057 032 036 041 122 -92 -03 -02 126 003 -35 081 -104 -54 097 069 -124 012 033 069 -113 -114 026 -15 -50 -124 -120 -93 118 -22 -59 -108 -107 066 -87 -12 -104 -111 050 -29 095 -32 -26 110 -114 042 101 -39 013 -78 -106 076 -93 025 -118 -30 -33 -52 098 
-120 -119 -75 -58 110 -06 -02 -50 039 070 -121 048 096 000 -22 -124 -126 061 -126 081 045 -64 -113 073 013 -45 -105 -72 -54 -107 -08 -36 013 070 -103 026 000 045 -118 110 -16 -81 -37 089 -105 -62 049 022 022 -123 -45 -65 008 -30 005 -42 -54 037 096 -49 -29 023 013 -125 
-38 068 -51 -110 040 070 039 009 086 111 061 106 065 039 033 -54 018 107 -109 118 019 048 092 075 -116 025 -119 096 085 -94 035 -39 -47 -39 -31 -11 -118 -60 098 097 062 040 002 035 -90 -115 -44 -73 -40 -121 -18 -112 -104 -53 -17 -121 -54 -118 -82 022 -107 -37 -10 122 
067 -28 -68 -97 043 113 -94 -91 002 103 -30 -69 -03 020 -72 -80 -103 -46 080 -85 035 -22 -03 059 -25 -59 071 058 109 125 041 -99 085 -86 -97 092 -33 062 -120 -24 -109 -37 -94 089 -78 -102 006 -75 -08 -22 -81 047 -120 -128 097 -124 -86 019 103 -102 084 004 052 -104 
069 -95 091 056 035 110 081 077 081 -63 -76 058 -49 -33 -17 028 051 087 -61 060 091 018 077 -05 057 123 -54 052 -123 -44 -38 075 106 -16 074 028 -60 -13 121 059 -112 055 096 -105 -62 -45 125 106 -81 -85 -56 -101 -10 038 -95 061 006 051 087 -10 -28 122 -89 -09 
085 053 097 101 -34 016 -57 079 -45 -39 072 -127 121 -117 -104 005 112 053 004 -31 080 035 123 087 -80 061 -115 122 027 051 -30 057 017 044 118 028 053 011 010 086 -98 081 072 -57 050 079 008 098 076 047 -05 -78 -119 014 -52 -100 122 -70 -02 -105 -94 -01 -22 -98 
-65 013 -87 -85 -11 -32 043 -118 075 -65 -09 -39 018 -50 -63 -101 041 088 105 -39 -91 019 096 010 -03 -57 -15 123 -54 -40 -120 -59 088 -117 -23 -43 -52 011 -22 015 064 074 -22 -79 -32 -75 -44 079 -94 -22 020 -60 057 -52 -19 076 054 -61 -33 119 117 -17 081 050 
-116 048 048 -11 -18 -39 -54 013 046 -95 -68 115 023 -71 109 083 065 033 -79 059 -19 -80 -45 -26 -66 -06 -108 -34 073 -92 118 -94 027 -75 -47 -98 085 -120 013 -42 036 005 -28 -93 078 113 -105 009 111 027 -57 026 -117 092 -83 066 -23 -101 -55 -88 047 123 -103 031 
094 046 033 -96 033 046 -87 100 043 110 -56 117 036 086 058 -92 -25 037 -48 105 -67 -48 046 037 080 014 070 119 094 050 047 -64 074 126 -40 036 -105 109 -67 -10 -53 -71 058 -37 -102 -91 -04 124 -84 101 -75 024 -78 049 081 059 -67 104 -44 093 055 -86 073 041 
-83 -14 -63 054 124 057 112 093 -114 064 016 -17 -60 094 065 057 099 -128 -01 114 -76 -43 080 102 -19 -98 088 -98 -104 -120 049 -38 -67 -52 -78 002 -85 094 126 -108 -96 -121 -77 -87 075 083 005 -20 -13 101 058 104 -07 -59 -73 -50 -75 124 002 120 -85 021 -114 040 
-127 014 -95 -16 109 -20 085 007 -05 007 -12 024 -126 091 036 125 059 -02 074 -54 001 074 023 006 035 040 -24 057 -17 050 -87 021 121 -85 -24 081 -99 096 077 -15 -82 -117 -09 -20 045 -73 -106 112 -05 -116 -96 090 -110 -25 062 066 008 -26 010 076 -50 031 114 019 
002 -56 085 -35 -81 -30 014 094 -103 -122 -122 067 -41 -95 039 -55 091 016 -75 005 -115 090 051 044 -16 058 -32 020 089 079 -71 -126 -75 -89 059 071 073 -98 -33 -119 -62 037 086 -58 -94 019 -27 026 -18 -28 076 111 064 029 012 063 -102 -73 091 102 -02 092 109 017 
-98 044 009 -116 -96 040 -88 -33 077 -42 -96 -07 -43 010 107 115 -46 -01 075 000 106 040 090 -71 126 119 -51 063 091 -96 -25 008 054 063 093 022 -67 -68 083 -45 -102 -47 023 -39 075 -68 -16 -118 056 -118 -12 065 003 -33 -77 -40 -46 -08 067 -10 118 -92 042 051 
-40 048 -89 012 -67 058 -03 -32 -75 033 039 -33 054 026 107 063 122 -32 034 -73 076 025 -04 110 -92 044 122 -95 -38 -119 038 -106 -71 007 016 -90 108 -75 -09 040 083 -115 075 -62 -15 104 -116 069 048 124 -80 112 076 -11 -49 -61 -19 045 -62 -114 042 060 007 -85 
005 -122 058 045 -39 -98 -35 105 -124 -127 122 -52 -94 103 004 -72 011 -13 117 -91 -91 -24 044 070 -32 -90 000 -101 098 079 -83 109 -49 028 -126 118 -49 -65 -39 -05 109 -42 -57 104 -56 -107 007 028 121 064 -17 -51 096 113 -38 -04 -12 036 -06 -122 -11 069 037 -106 
-118 -99 087 096 -66 071 -100 -21 -31 087 074 010 -52 061 018 101 104 -128 -110 -03 111 -70 073 -106 042 009 -63 046 037 -77 -41 104 114 -45 -10 -107 065 -35 006 -84 -98 -73 101 004 -44 044 -111 -87 121 081 004 -25 -16 012 -35 125 -72 -41 -78 -44 -01 -25 075 027 
008 -24 -48 107 -90 -58 -67 042 -70 089 -66 027 -05 121 -84 114 -09 -30 096 -75 -23 -126 092 043 006 -25 -02 -73 118 -13 002 036 -119 -116 117 -71 -34 062 -06 038 -118 100 -101 -13 -90 018 099 059 005 -94 -46 -62 -74 104 035 002 -126 -101 006 079 054 -28 044 005 
-121 -15 -29 096 -123 -70 007 075 -103 -112 -27 007 -102 010 114 068 049 -34 -121 -15 083 -98 064 051 -24 -26 -105 -22 045 072 114 074 049 046 098 103 -99 114 017 -110 114 073 -25 092 031 -84 013 -114 -63 -54 074 079 -92 051 -91 022 091 095 -64 075 117 -27 060 107 
-115 -51 079 084 -104 -97 090 -46 064 044 124 -107 -75 106 -99 016 -12 051 -119 070 117 084 091 099 -31 109 -20 -38 016 -51 -81 019 -87 -114 003 108 101 086 041 018 -14 032 080 104 -23 -79 -110 -70 103 -58 059 -16 -92 -72 -14 -09 084 -119 090 026 -119 003 120 021 
115 -83 -22 056 -96 053 -99 -100 -05 002 -92 -97 -01 023 -79 114 -62 -39 050 029 032 003 -35 -68 -34 -77 -91 017 084 -79 064 112 -17 -24 -51 -09 -57 001 -10 046 068 -34 000 -119 -103 065 -27 -68 008 -97 091 100 -93 119 029 099 072 -07 085 054 -88 044 -88 018 
077 042 -126 -76 -28 -118 -19 075 -24 -102 -74 -98 -73 022 -49 082 -112 -122 -30 -75 031 063 -45 006 019 -71 -128 -26 -90 -03 036 049 -33 -46 -87 005 066 -102 100 -53 -64 -03 -46 -38 084 -18 -99 -67 070 012 046 -102 -107 -59 091 065 -36 -42 034 -89 025 -03 -62 018 
-71 -83 070 -45 028 -36 -75 067 -87 -103 -114 120 012 008 -105 -87 -23 061 -82 -117 117 123 -57 -16 -52 005 -89 089 -96 -44 -53 -102 045 -63 -124 -74 051 -06 078 111 116 -89 -22 054 011 053 053 -94 -84 100 023 031 -104 101 050 -77 011 120 048 -05 000 -124 060 012 
-24 -61 -96 074 -126 -66 -32 090 043 052 062 -12 048 -51 022 118 120 -27 -25 -86 120 -101 -102 -44 110 096 -92 -73 021 042 -81 -100 -06 -23 056 -46 073 -04 064 123 -106 -15 123 -127 -119 -53 -128 061 -121 -75 -118 069 012 -55 -110 -89 029 -65 -115 -53 -94 -55 037 -89 
-108 097 074 112 085 -128 -37 004 030 119 009 -38 110 -17 019 -80 013 -111 -80 045 -41 073 -80 010 082 -68 -88 055 116 111 -35 123 002 -103 065 117 097 -20 -117 -78 032 010 -78 -56 -19 082 -30 -19 -62 -77 026 082 -97 -49 -71 -51 -54 110 063 -38 038 -91 -15 -123 
-77 -36 -48 041 -21 009 -08 -126 -97 002 -54 021 -119 -28 -43 -65 071 017 108 -15 -18 108 -62 059 -14 071 077 -26 095 030 099 055 -42 -104 085 -86 071 079 063 -56 -88 117 -71 -102 -127 119 -36 024 -79 -35 008 -40 068 037 -67 068 -46 003 -83 030 -123 -122 -125 -61 
049 -94 -81 -11 060 029 -105 -101 -80 069 007 114 -24 098 124 110 056 -91 -88 031 107 -34 -96 -18 -27 -69 032 -100 -45 048 -108 012 117 074 -117 014 -52 -33 -119 -105 098 049 086 -61 060 018 008 -02 -91 002 099 -21 093 -13 124 000 019 -110 061 -28 -46 -88 -100 014 
-41 062 040 -71 -59 104 025 -110 118 039 116 -07 -33 082 102 002 013 -65 014 -82 111 037 087 065 -10 009 -50 124 089 -88 -72 036 023 018 078 -15 -01 018 029 -24 -93 -68 069 -63 -31 079 -127 038 -18 120 102 -14 107 071 101 078 071 -24 -67 -65 097 055 123 -26 
-03 -23 037 034 125 125 -58 091 -100 -107 -97 -126 -35 -50 -22 122 011 060 -06 080 -22 -13 -83 -01 -114 044 077 043 089 076 -120 -104 -92 -87 107 041 105 -52 -12 -122 033 -87 057 112 -85 -88 111 -37 -127 087 095 -56 035 083 060 061 102 -22 073 -44 -101 112 098 002 
023 -128 -14 087 082 -84 -58 -111 067 125 001 -113 -99 -05 030 -41 -102 -80 -96 075 -32 081 116 027 -45 -123 -27 025 -62 015 028 062 034 -05 100 047 -97 -60 -86 -89 -35 -69 -101 -77 -96 098 011 -93 015 -37 043 -75 063 120 114 119 -128 064 001 009 084 115 -11 -29 
-108 049 -109 -17 -77 -32 -39 106 -64 -68 084 -121 -89 090 084 -35 -115 079 033 094 073 012 -109 -63 079 077 090 014 042 -43 -94 -72 019 -13 -50 016 -97 022 055 105 -128 -97 030 116 019 056 -86 -113 024 -37 -107 -24 065 034 009 061 120 -80 019 003 -123 -95 -17 -120 
-45 036 088 -29 -23 -47 -79 -92 -60 030 -90 -59 -53 079 -63 -110 010 -62 075 -14 -108 -72 063 -121 -68 072 002 030 -109 047 -42 -20 -28 123 -06 -94 113 -81 -49 050 -66 -16 -99 083 115 010 -70 -59 042 072 069 -31 -87 -90 -93 116 051 -85 116 033 -20 058 071 -35 
-12 023 069 -80 017 030 -43 055 -67 -102 106 -41 061 008 -65 -65 108 -40 003 -91 013 071 121 -63 -112 104 093 -18 -16 -81 044 -74 037 -70 110 -86 041 020 008 -44 -42 030 098 080 -119 008 -83 082 -04 015 101 125 045 -69 -83 121 -104 -119 071 -74 -78 -35 -56 -21 
-62 002 -45 -44 -61 -96 -87 075 -35 081 040 -95 -124 -106 -37 045 057 -50 -125 -77 005 035 107 -85 -26 -81 115 -14 014 -15 -116 -19 -105 068 -10 -16 063 109 -10 108 -101 049 106 082 -97 -26 -20 -36 102 083 -12 125 -01 071 -15 099 063 -105 -02 045 078 -92 -36 -25 
-07 020 -117 -05 -103 -108 045 -45 -115 -05 124 078 124 076 060 -46 -40 -26 030 -93 -104 -126 -15 044 -101 053 -69 -08 074 064 -95 -79 075 058 077 -38 005 -47 062 046 021 -96 072 -67 023 045 -12 020 -115 036 -10 015 029 085 -77 056 -36 037 090 076 -28 -99 -66 -92 
085 -36 -36 -03 -22 -128 112 040 031 -88 059 031 026 -07 119 043 010 037 042 -23 055 -96 060 090 054 -90 007 025 -101 013 -36 096 028 095 -69 116 -37 075 -78 100 070 075 -92 061 088 -53 -111 -89 058 -42 016 064 054 -105 002 003 -64 -19 032 002 -36 -113 -87 092 
099 -59 056 -117 058 074 111 -115 007 -30 -32 089 077 -44 -18 -90 -26 -21 015 -86 010 029 -43 -46 -06 068 -115 034 098 -48 063 050 -77 -47 031 -57 -78 -33 114 025 087 094 100 117 -119 -42 094 -78 094 026 013 -83 058 -58 025 123 051 -101 123 -91 105 093 077 -115 
021 087 -100 -122 000 -69 -06 -123 098 057 -117 038 083 -41 067 -88 -51 111 -118 -50 -52 025 -96 -116 108 042 004 -59 -92 -74 -64 -24 113 -56 -51 125 079 093 -105 -31 026 023 -07 -62 -69 -111 054 045 096 003 -06 -36 -82 -02 -100 103 007 -70 124 055 107 -72 043 037 
-96 092 035 050 082 008 060 007 -117 027 014 123 -08 036 -72 078 -15 120 -108 121 -66 -02 -24 -81 085 001 080 119 -41 -57 -47 042 115 075 -72 -99 025 -60 015 084 -82 022 072 -106 012 -47 -38 052 065 096 -34 109 030 -17 -80 083 -106 076 -02 032 -58 -53 -107 -123 
024 -104 -20 031 -106 -88 -81 094 -82 -32 074 049 112 -04 112 075 -18 -100 -56 040 065 035 -69 -93 035 087 022 025 -37 040 121 026 108 -66 104 007 -31 055 119 075 082 -27 -13 -100 044 -87 -19 076 046 098 102 -108 114 -49 014 -89 116 -64 072 039 041 021 032 -128 
123 004 002 -82 086 -52 049 088 044 -67 -39 -95 -63 -93 020 -96 011 080 -48 -52 -125 071 -31 -17 015 -69 006 000 008 -68 007 -51 -59 045 -09 115 096 082 097 047 -78 -40 -16 066 -88 007 -90 055 026 -41 -121 -113 103 -01 009 -113 003 -59 -118 078 039 047 -61 009 
-89 086 -04 -43 -15 077 -74 -76 039 -77 -121 -26 -38 -11 055 -37 052 084 088 002 -44 -33 092 -84 -76 115 097 097 021 -34 -11 080 039 068 075 076 -03 -06 099 076 046 -58 058 075 062 -100 -122 115 028 -71 051 -44 011 -104 -40 048 -115 -16 -57 -60 008 -41 -127 -105 
074 115 074 044 047 -76 026 002 -33 071 -107 121 -104 -115 053 -19 086 105 -30 034 -35 103 027 088 020 -86 -58 -91 -124 -125 -58 017 036 060 -57 101 024 -21 -84 -94 069 113 -18 -41 062 032 -110 -44 046 -125 -10 -61 -103 001 -26 007 -106 031 -35 -61 116 096 048 047 
021 047 022 -03 -106 064 090 -17 110 -122 112 012 118 -94 028 047 110 020 052 -104 120 -100 -125 007 -16 -97 -100 078 057 118 -91 028 036 -90 -09 -62 083 -53 120 076 119 -54 034 053 -38 065 -100 -24 050 -63 -72 074 042 099 -100 -91 009 -76 -01 093 105 057 -17 078 
-127 034 006 089 -56 -90 107 014 -84 098 -68 -94 091 053 039 059 -103 -103 -122 -26 116 043 002 -65 098 061 039 112 -05 024 092 -80 -01 -23 -127 -39 -97 095 061 023 009 -58 -99 099 105 110 044 035 -31 -09 -69 036 003 -79 120 -37 -27 050 -111 108 -87 036 -75 007 
086 054 -49 001 046 -60 002 -12 -128 083 016 -26 -113 106 -36 099 097 -35 -50 045 089 085 013 121 -29 122 -32 029 042 -62 118 -75 086 -97 -118 -48 -27 -40 061 049 -110 -18 -61 033 -29 098 030 121 -17 047 -84 093 026 062 -43 069 102 -60 064 066 029 121 013 108 
-08 014 -04 079 102 -110 066 -71 -67 -107 -16 092 -122 -127 080 -110 083 -87 -63 049 092 006 119 125 073 018 -85 080 -81 111 -03 057 -67 -58 -68 -11 035 -17 025 016 -63 125 026 082 -44 -44 055 083 -63 044 094 -21 -54 039 078 066 075 -113 -39 -47 -108 -02 -55 075 
-13 010 107 -68 -35 -57 -14 057 -54 104 -83 099 088 -52 -118 098 -49 053 013 092 -15 -08 -83 -03 117 048 -69 067 122 044 064 016 098 028 032 011 -62 -47 040 -21 -68 064 -10 -74 -74 -88 -70 018 -17 -17 -109 053 105 -29 -107 -80 076 -27 014 054 -73 -22 038 -121 
-66 058 103 046 -78 -01 -113 -82 -21 089 -39 -81 076 117 -66 -82 086 070 -12 -106 -102 -07 001 -34 055 050 -83 082 -65 032 120 087 -109 -91 115 -86 124 082 070 -36 022 068 -13 071 079 -102 -24 -19 -76 028 -89 -48 -118 027 001 -62 -91 024 -27 000 094 056 079 -35 
014 -89 -78 -53 -06 -92 -128 058 -80 009 -29 101 094 108 -46 039 073 089 -31 097 056 060 112 063 -93 020 029 -108 048 077 -46 106 -52 087 -104 089 -117 016 012 -101 053 -59 086 -57 000 029 095 060 -04 -41 090 019 -49 -66 067 -106 064 006 074 -25 -122 126 -65 080 
-54 -07 -119 018 -84 017 023 038 -97 041 -99 074 -09 102 045 -41 122 -84 026 042 -33 -49 115 -32 038 126 057 -121 025 107 -30 079 037 -70 -44 -28 -53 049 -92 108 -06 029 053 027 011 -80 -25 -120 -94 011 126 -07 086 101 -103 024 -113 020 006 -87 032 008 046 004 
086 002 020 -88 081 066 -19 -04 -86 087 -24 -121 -95 017 070 088 -109 -124 -77 -127 011 -61 065 019 009 -106 015 041 -111 045 -40 -119 008 105 071 074 -40 047 -52 -76 -43 -88 115 075 052 -64 -115 011 -64 -86 001 -65 -76 077 -24 101 -108 -03 062 113 014 -99 104 -56 
-06 -72 031 -38 -89 -22 -22 038 064 -98 -42 108 007 -53 -08 -43 -73 -50 103 092 -54 -81 084 049 018 -59 116 114 025 -11 -75 -89 093 038 -15 012 076 -10 -61 -113 -110 030 -34 -68 -89 -81 010 108 082 094 065 -44 -91 073 055 050 -19 -75 004 002 009 -05 047 041 
119 093 117 -65 -54 -50 007 -78 060 085 047 -103 -23 -100 116 020 -06 121 -91 030 -89 -27 101 -121 063 -34 -31 -90 040 -102 -83 -01 082 001 071 036 005 -113 -21 022 -80 083 -75 -82 111 -31 037 068 042 -57 043 -62 -09 088 085 087 -66 -15 040 -91 -06 -111 071 046 
006 -74 038 -77 056 098 -56 -43 055 080 008 -28 -109 066 050 055 -28 118 018 104 -128 -106 123 -52 -89 074 053 -88 028 123 -97 -101 072 096 119 -11 099 -40 -34 033 -85 057 021 090 059 067 072 126 -97 -14 -31 094 -18 023 044 -52 -115 046 -08 -60 -52 108 -68 -96 
-93 -111 -68 101 -96 080 026 -119 -54 115 -70 089 -105 -37 077 -58 -106 -22 -31 -17 019 -20 -51 -44 105 022 -10 003 030 -60 001 033 -83 031 -106 -111 -09 089 -32 032 -112 034 -114 043 062 -112 097 -81 079 -83 -68 -03 -108 -114 040 -16 092 033 020 115 -47 -109 -19 051 
098 -69 027 -95 013 008 -22 -40 -119 -84 082 -74 089 -43 036 111 078 092 -45 081 -108 -22 -36 -08 -17 -11 -122 062 -71 069 -105 001 -25 017 -94 070 021 095 -69 086 -89 105 -112 -124 -62 073 -68 042 -82 -20 000 -42 -62 -114 -53 -72 018 -87 058 038 -122 018 -50 038 
018 -55 -71 072 123 101 -19 107 001 090 093 085 055 -19 -85 -107 -45 036 117 011 076 041 -11 124 -90 -98 049 079 -07 -23 045 123 -36 039 -68 -43 014 074 027 011 -29 125 072 055 018 047 121 089 -86 008 010 097 117 081 079 031 -75 094 -13 -01 -127 120 -23 022 
085 115 008 095 -105 019 -116 030 072 004 -75 090 097 116 -126 105 -110 -65 032 -124 017 -124 -82 -10 -81 -79 -31 -57 -33 -66 114 -59 -84 025 -48 008 077 -75 058 035 -66 048 086 062 038 034 -37 -22 -36 -64 -60 -65 093 -48 121 061 041 048 -28 -87 -70 063 107 099 
092 051 -44 -39 -86 020 036 121 -73 -115 093 032 027 057 089 -31 094 -34 039 -119 -75 -86 -55 -27 045 118 -14 -59 105 039 054 094 -79 -34 -126 032 121 125 -111 -80 117 086 -74 -18 017 125 -61 -44 -74 125 044 046 034 -82 069 062 -39 -114 -118 -38 016 -23 -32 034 
016 -11 052 -94 098 -30 -46 -79 003 -118 -23 088 -119 090 066 -93 -85 -58 068 -72 -03 004 -68 -107 -28 -89 003 009 -23 -99 123 094 -15 012 004 024 102 009 086 057 -99 066 036 044 094 -38 -23 123 -127 032 -62 -18 -89 101 -06 -32 063 012 101 -124 -27 -67 098 103 
097 -86 -83 051 -81 066 043 086 -26 069 001 120 057 -04 071 097 019 -87 035 -37 -92 -09 118 006 087 -72 080 -22 042 029 083 -122 002 -118 -97 -116 080 092 055 044 028 -66 -118 -73 012 026 -94 050 115 -22 -24 011 -99 -67 -110 076 -04 120 114 -74 -121 122 -84 082 
-77 -90 -89 -52 121 122 -37 -124 029 041 043 027 -104 002 -113 013 105 -45 070 -61 085 098 -111 101 043 -52 003 063 -20 -96 006 -99 085 -62 -55 -95 -80 118 084 009 -127 090 -76 043 086 038 -81 -31 073 104 077 -60 086 087 -119 -69 040 -34 -25 081 -93 -82 018 -51 
093 010 116 -68 -107 031 -100 -93 057 -114 058 012 110 -62 091 -52 -13 124 033 -27 096 -48 -03 -66 -113 114 074 -70 -113 046 -30 -37 064 -120 -123 -68 -06 -13 -36 004 022 090 016 -52 094 041 002 -65 029 -117 -77 086 049 -92 117 -16 077 050 027 111 -100 -101 040 -42 
-01 -128 -83 065 002 098 -18 024 -94 -24 034 074 049 047 -20 032 -55 123 -31 -17 018 008 043 063 -113 -31 092 043 042 060 -45 075 000 -37 072 -50 -20 064 031 -46 002 037 -96 -28 -82 -54 031 060 -97 -83 039 -112 -98 -15 018 -79 014 -108 024 -29 098 072 070 -06 
068 031 -122 -48 097 -118 -04 -73 -127 007 -128 -78 -07 -04 -123 -124 083 -53 015 017 109 036 -62 078 070 -58 -81 051 035 002 -124 019 077 094 -108 -108 -22 015 090 -106 -48 021 -71 -115 -30 -81 -91 -34 035 028 -122 -94 -111 126 003 -35 -33 059 026 053 081 075 045 -47 
-113 080 -51 029 -112 -112 -77 -75 023 126 -19 005 115 083 -50 005 094 -41 085 -42 085 -17 026 082 -126 -73 119 -92 063 -20 027 -96 -86 -25 -106 066 -97 -102 067 076 -70 -107 -23 -71 102 094 -63 -84 -121 -83 -109 -124 -33 074 075 049 -68 -36 -93 033 -41 061 -13 086 
-40 071 080 -117 113 049 117 013 054 055 -89 -80 -25 070 015 014 059 -10 031 006 067 -73 -83 -88 -31 -07 066 010 -53 -41 041 -60 020 -20 -23 -34 -83 006 046 062 085 111 -122 084 -89 020 126 -128 010 -98 059 032 -118 -57 -20 075 096 037 124 027 -33 -19 -68 000 
-06 -101 -62 -93 010 115 -31 084 -123 087 114 028 112 -124 -40 118 -09 035 -117 -30 -67 126 059 -41 061 030 067 096 -85 -52 002 -115 071 042 120 060 -46 124 -48 097 -87 -12 004 046 -124 045 -33 036 071 -47 -06 -113 -71 005 080 -90 001 -94 051 007 065 -82 -40 070 
081 047 020 088 -21 -88 047 -81 -119 008 033 -18 -110 091 -55 034 -97 084 -78 -08 -106 041 117 118 099 -48 -124 -35 -122 -88 -126 -31 -124 -69 -120 055 056 078 013 053 025 113 -06 -63 014 -75 -128 044 -70 -66 -83 033 -68 -20 111 -122 087 -85 -117 -35 096 006 045 -26 
003 089 -104 -126 -103 001 052 -75 080 -61 055 -48 -114 012 -52 -100 051 -46 -100 052 -44 033 045 -08 014 -120 -06 -76 -73 092 -128 -13 125 066 -69 111 026 012 102 -120 -40 065 -46 -74 -44 -22 -122 003 117 -14 -55 020 -85 126 -53 -117 -10 -107 -21 089 -79 038 098 051 
055 -111 -05 002 -80 027 -52 -121 -27 073 084 026 084 068 -85 -56 -103 020 -96 062 032 -47 -118 103 -80 -18 095 007 010 026 050 -124 -17 -115 -91 -60 -16 076 -119 093 -88 077 040 068 084 095 042 -89 -50 051 -111 -47 -31 046 -88 -84 -63 077 -04 056 083 101 -122 -53 
077 -27 038 -21 078 -24 -127 -57 080 -101 -96 118 -14 045 -104 051 -69 003 -94 -59 109 028 -111 -40 070 -47 -66 -119 074 087 007 -106 -16 -49 111 -45 -66 -112 -95 -06 -83 057 -109 -43 -27 -126 -16 052 -71 -06 -39 111 069 040 -75 -60 -74 008 113 -18 -126 003 044 055 
014 -100 -107 -61 -62 -42 036 013 028 -58 015 -83 -25 108 092 -92 -39 -94 -36 -74 -95 092 106 -04 057 -75 -70 001 -23 -05 -117 021 120 069 -95 051 119 -86 -76 -18 036 101 -55 007 099 -118 099 051 -111 089 019 018 081 089 015 029 058 -44 -70 071 -08 109 005 -80 
-119 000 -30 125 -102 -51 -70 100 121 -44 120 -64 057 096 096 -108 -105 -62 008 118 034 -61 -52 -86 112 016 -116 126 -79 111 102 097 -128 090 102 -42 033 115 -95 100 123 -67 -36 -65 -128 118 090 -02 -54 -97 120 009 110 -66 008 098 -01 086 -104 022 -20 012 -39 -42 
-49 096 -98 071 -28 -77 -41 034 057 051 -36 117 114 -60 -42 114 110 059 108 120 034 025 058 -54 -97 120 009 036 103 -04 -105 100 121 -128 -28 -54 022 005 089 -98 099 025 -117 -117 014 096 -128 021 024 088 109 047 119 070 000 -113 -28 -118 085 -22 042 -85 051 -32 
-94 -71 -49 -21 -09 -99 -116 -20 068 -111 -77 -03 -36 080 125 -119 020 -37 117 -128 -32 089 -100 032 -11 015 062 -118 -88 -115 -16 -26 -96 060 -90 -28 -81 050 -123 -55 061 -50 -32 -11 -43 -88 025 -76 -53 071 124 113 -106 -73 097 -82 -17 -100 036 -16 071 -10 -41 069 
024 077 -96 023 -121 -89 -116 123 024 077 113 -25 -98 -118 092 -80 -15 -48 -42 114 105 -111 -36 -55 057 035 030 -66 -16 -13 -18 -126 -107 -118 -103 -54 105 -16 -77 -55 056 099 -92 -103 -59 -69 -110 082 090 -123 044 -81 007 -06 042 065 -61 019 -42 -69 -76 004 120 011 
032 034 -27 106 056 078 -60 064 -55 068 028 -96 123 041 -124 008 -16 020 -69 095 -37 052 025 051 -02 -58 -66 048 078 -05 -44 000 -12 -04 -47 066 030 076 -41 -48 -08 -128 021 -79 006 060 -38 074 058 112 053 -25 035 -04 110 090 -121 -42 -09 040 041 123 032 -40 
037 -95 126 012 101 -08 014 -62 115 098 117 075 058 068 -25 -75 016 -50 -78 113 -52 -101 -12 041 -36 088 017 081 -26 021 -67 -60 010 -53 -17 -16 -66 061 082 101 035 073 -63 057 028 -84 017 -67 -120 -101 -102 051 069 072 -26 096 -50 -51 069 068 086 092 010 012 
097 -109 017 -100 108 -98 016 024 -99 -120 -113 033 021 -43 062 -32 075 -12 061 054 -04 -67 098 032 -44 -68 119 -114 -27 057 -11 117 027 -16 -28 -44 -24 026 -97 -64 -68 117 -96 121 076 049 -73 -60 094 -101 -113 -24 -37 083 -18 -124 -11 018 -127 -106 052 075 -124 079 
-103 -123 -47 101 030 074 -58 -26 -125 -87 -104 091 -95 044 -40 072 -53 000 124 -67 017 -41 -16 -33 -26 107 -117 -126 -122 006 088 -36 007 088 -80 -69 -71 -55 -95 -84 -11 -53 114 030 -121 -116 062 020 -21 066 -39 101 070 -103 -67 -34 051 -24 -61 -98 -103 037 -107 026 
011 063 007 066 037 008 053 125 -108 101 -79 -13 075 -44 -19 084 -25 -123 -54 039 -06 002 106 -08 -113 036 036 097 029 033 017 093 019 -109 -36 001 -51 016 017 020 -97 100 -27 088 -01 -88 026 066 -91 -83 -60 -78 -20 095 094 051 105 -77 -12 047 060 -98 -70 126 
-95 075 -30 049 055 -32 -125 -97 011 -36 074 106 -12 113 -118 047 085 -25 028 -72 -52 -75 -46 051 096 -53 011 069 004 -79 -76 106 113 004 -65 062 -90 -113 -59 083 -86 -41 089 107 124 -12 121 -22 -95 048 -103 -83 032 041 005 012 -118 -103 -89 116 103 081 -05 -96 
-102 -95 -73 012 126 -03 052 -07 051 -11 069 079 045 106 -101 -46 028 -102 -15 045 005 090 -08 111 -48 051 047 004 087 -96 -54 006 062 -117 -122 012 106 001 -09 -36 -60 072 107 020 -43 093 068 028 064 -34 119 -92 -83 -31 052 -05 084 -43 096 -70 -27 -19 078 -64 
118 -100 098 073 -121 023 -49 083 -101 -22 059 097 -63 018 118 102 047 068 -09 096 078 081 -72 -34 -25 -33 -77 -36 -36 111 088 -127 088 -39 -91 -27 -114 -02 072 078 -04 -87 -105 080 029 037 089 096 -26 -99 -31 -99 013 027 004 -27 -27 076 -103 038 -85 -70 035 091 
006 020 -32 001 -100 -23 -78 -09 -85 -84 024 063 068 -23 046 008 -58 078 -104 -97 -10 044 -91 089 -128 -54 083 -90 -68 -111 -98 087 -57 057 045 -81 032 062 -103 089 033 -14 -76 -46 -103 087 079 008 124 052 027 121 119 -90 -36 -117 -37 -66 -89 108 -47 005 113 043 
104 -48 -105 -04 106 -117 -22 062 125 061 -68 101 -15 -05 -72 083 -92 -45 -10 -58 -65 -77 -117 100 -94 -03 053 077 106 -96 062 058 -77 054 -02 051 -64 015 075 056 033 076 -18 -48 054 081 -61 -90 -78 -128 -88 110 051 -10 093 105 029 027 060 044 -100 -86 -87 -118 
-09 089 083 126 -98 098 -102 -53 -23 056 122 -21 001 -73 -37 -91 -83 -84 -110 -51 044 004 114 -38 100 -42 056 019 037 -46 -46 085 100 042 -111 047 -14 111 104 044 -30 -24 103 -87 079 -22 077 -128 -14 001 -55 013 -68 076 -12 093 -70 -03 -74 124 -114 -92 -19 072 
-27 057 -21 042 -77 -33 061 -27 076 031 039 001 -100 056 -116 -47 -20 083 099 053 083 -104 -35 -127 106 035 -113 -89 -63 -02 -103 -29 107 009 067 062 071 030 -29 000 -55 -94 -117 -53 -02 -22 099 091 090 054 -09 096 088 -98 -102 027 047 -112 020 063 060 -46 -118 006 
-128 064 064 092 101 -66 -102 049 016 -22 -117 -121 -112 -43 -127 011 -107 057 -101 -66 -30 115 -83 005 -83 -61 125 096 -65 060 -58 -79 -13 120 -41 -48 -81 -125 088 -29 019 -68 045 010 058 088 006 -119 006 005 069 -120 -120 090 -21 -66 -34 -77 006 -92 -22 -65 048 -114 
-10 -11 -40 118 110 -125 011 077 113 -106 -61 -72 -121 -109 -33 031 -57 061 078 -126 101 -47 -90 065 028 -113 -56 -10 -81 099 111 068 027 -76 -71 010 068 -88 -117 078 -27 -110 052 -43 011 -30 -128 -48 113 116 -61 022 035 -113 -59 124 103 -33 -128 -82 064 -53 080 109 
-70 070 101 -51 121 -06 -83 103 -35 030 -20 118 -33 052 108 -118 005 003 -82 099 -07 095 044 106 062 -72 -42 -55 -106 110 -21 126 -32 060 001 -59 115 -30 065 -89 -76 125 125 -17 031 -122 067 063 040 089 -58 -111 095 094 045 -88 -55 006 -20 096 -59 -32 -119 089 
-17 024 -94 010 -09 108 -105 -98 015 033 075 113 -44 -39 037 037 053 114 000 092 037 -01 -39 047 106 070 -33 054 -36 -122 -02 021 111 -47 -110 126 -117 099 019 -97 076 016 015 019 -09 -84 121 -99 126 077 031 005 093 082 034 100 123 111 058 -30 -43 057 -39 110 
-77 -61 -57 -55 -94 -97 097 -34 011 112 -60 054 115 -28 023 094 -50 106 -33 -23 110 -22 -85 037 -111 124 005 -12 046 -05 032 123 081 034 058 -88 006 -13 012 010 117 069 -39 033 075 115 -92 -63 -68 -10 -38 046 092 -71 -52 -32 113 118 003 -124 117 004 -61 -86 
-17 078 051 047 -108 117 -82 045 -37 012 -123 013 -19 -69 -66 012 035 004 -37 -79 022 -70 -13 093 035 -66 067 042 -27 -114 -54 032 021 -42 -117 -99 -34 -97 -68 066 -37 -08 018 -55 020 004 034 057 -48 084 112 124 038 082 -111 118 -117 064 090 037 -110 -59 -79 009 
068 005 -17 -19 027 004 111 -14 -105 004 -83 070 -15 019 106 -92 072 -85 -26 090 -44 116 074 -63 103 -45 033 -08 -71 -80 -52 006 -88 -72 -48 -20 029 -111 017 -108 -44 -46 -26 -87 001 -04 -111 -56 -30 -60 126 092 114 -50 -14 -125 -36 -20 -100 -40 012 -12 084 -60 
104 -116 -100 026 028 -43 -106 -73 -90 -43 024 -27 -119 028 100 -56 -111 -23 -08 100 -66 089 125 036 065 034 -34 -64 -85 012 -106 024 062 028 -115 -89 050 -02 055 -98 -111 -114 032 -41 -28 037 -65 090 078 004 024 -114 102 052 -113 061 067 -118 091 093 062 016 -98 039 
-42 027 039 014 -09 -119 001 -110 -34 097 070 -107 -121 -92 066 056 -62 -65 -38 068 -45 076 -120 -03 026 118 098 101 063 118 072 -30 -02 -118 -76 048 014 -64 -127 093 -42 -42 021 -82 039 -46 -125 -60 056 -08 -76 052 -10 070 022 -106 062 027 085 038 -93 -98 -59 -101 
028 083 -42 -53 110 047 041 002 -28 -106 099 -63 -118 026 -83 056 -17 033 -36 052 046 014 -68 -29 073 118 -96 036 101 -25 117 078 -94 112 040 120 -55 -106 -50 004 050 041 -04 -29 066 -70 050 081 -63 084 -86 -19 -18 061 035 -30 -07 -36 -07 -43 062 -46 115 -14 
100 -96 104 010 099 -21 -40 035 -46 116 081 -31 -79 030 024 027 -84 -65 033 055 066 031 004 -104 -113 025 -22 -90 089 -46 -62 007 -100 062 077 109 -75 106 072 033 125 -59 042 -53 -51 -41 112 -121 -45 -43 -44 013 -58 005 -45 -42 -56 085 030 085 126 -36 -75 048 
-119 107 121 107 -114 079 120 094 124 060 019 013 -49 016 029 121 -109 072 121 063 -113 -21 088 117 081 086 -73 -125 -27 078 109 -79 -49 -75 022 -100 -30 -21 025 -47 119 007 020 -36 -19 012 -82 -51 -59 021 -47 011 053 024 054 -71 -68 -52 040 -47 110 098 -41 -26 
-69 100 024 111 -95 -112 -17 -119 -110 021 118 -123 -63 -60 -40 123 -70 -103 121 082 -05 119 033 060 096 074 -60 -46 088 -63 -32 085 -02 062 -47 029 -12 -105 -44 099 -74 001 090 020 007 -14 -84 -07 -119 080 -113 008 107 100 032 -114 044 021 059 -66 126 097 -47 100 
-72 103 013 -45 -37 041 -45 -84 -109 -72 088 -34 012 -21 -85 -80 065 -127 090 011 -83 024 -46 -73 -69 -90 023 -95 107 -66 -51 001 -128 028 -106 -13 -10 116 -110 -65 079 -16 119 081 114 -05 -49 126 097 064 122 005 -52 -85 -105 033 053 032 038 -77 087 051 126 -101 
-82 067 -53 -93 -70 -20 013 -61 -125 047 -48 124 017 081 046 084 045 110 -12 -34 -86 049 017 022 -17 045 117 045 -90 120 041 053 029 005 119 096 -91 013 001 120 -51 -122 -47 109 -101 -78 101 059 -90 -88 099 -32 089 -32 -38 040 -09 083 023 -42 -02 096 -90 006 
-24 009 -47 060 109 -83 -89 013 106 024 025 -117 024 093 062 -97 036 -80 060 015 051 042 111 007 048 115 -114 044 -102 034 -09 -29 117 -37 010 103 -66 064 -30 -44 000 -113 006 -93 -69 -77 -105 070 019 001 036 -123 038 041 -11 -29 064 -58 035 -109 -55 -56 -11 -32 
-69 -67 013 -120 069 -104 -126 108 104 071 085 -02 103 046 121 023 009 -46 023 014 -127 -77 -11 -50 -34 -77 044 095 114 019 -34 -72 041 028 099 -102 089 -109 076 065 006 012 123 045 088 126 024 -04 083 -126 -123 006 114 -24 -13 -04 -53 -65 -20 033 071 -124 077 -48 
-92 -54 -43 027 021 -07 -106 094 -122 -125 -118 -21 066 -102 -98 001 -47 037 -52 -29 -62 082 011 -33 011 104 026 056 065 027 043 -111 037 -106 125 -122 -126 -24 -71 009 036 089 -85 029 -125 002 031 003 024 094 -100 083 -78 -26 -66 114 -64 117 029 -128 -36 084 026 066 
065 -101 -114 -24 -60 068 -60 -63 018 013 -51 082 -44 055 -117 013 037 -124 -69 097 -83 103 -03 -16 036 -10 093 -41 006 012 121 -123 -100 126 -119 -33 -23 -28 -74 -49 -100 108 -64 126 086 -111 -82 -74 -21 -72 -117 082 035 003 120 017 -47 002 -13 058 -56 -39 111 -106 
-36 -47 -98 025 -74 -42 047 016 -86 114 -128 066 115 -35 -125 -72 104 -28 -19 090 056 125 116 -81 -42 -115 038 -17 003 044 -123 042 022 120 -127 044 103 -66 093 081 115 -03 -61 -33 -115 -112 011 124 070 -107 -22 121 065 010 020 -115 -125 -23 -59 058 -17 088 -55 -95 
011 045 -45 026 117 015 090 -48 054 078 -102 -105 -120 046 097 007 -124 061 -12 -91 063 026 -19 -15 -03 075 -21 -127 050 -36 -01 -05 124 013 049 -101 069 092 -25 111 124 -103 030 019 084 121 093 037 -50 019 117 016 071 -17 -92 123 -71 -11 105 -12 -92 -113 057 -100 
122 025 -121 015 016 -119 041 -11 101 -128 -116 -64 027 117 -121 -03 124 018 028 111 -82 090 093 -98 -78 -39 080 081 -102 -36 059 -60 102 -88 -88 037 -59 -94 090 -93 011 -19 091 042 -30 -121 -69 053 -121 -42 -06 057 -62 -35 028 -35 -22 024 -79 100 051 -123 -20 -77 
066 -12 085 006 111 -15 013 -29 -113 126 -33 009 030 -118 056 087 087 -73 046 046 030 074 -39 -41 -10 -34 115 -03 -66 -57 -99 107 101 -12 -01 -06 -55 -68 -29 -35 021 011 034 006 -24 -78 -35 -90 -114 -95 122 -13 068 -41 114 032 074 104 104 102 -45 -02 -53 -108 
-38 -55 010 061 058 007 -106 -16 -117 117 018 -75 044 026 -73 -53 014 011 -31 -32 -107 065 -01 018 095 -38 090 -22 037 -65 -127 -19 065 070 033 028 -09 -117 -77 039 -122 -123 -78 -84 105 012 063 089 050 092 069 028 059 051 -70 -33 -42 120 060 -15 -31 -65 041 124 
056 -103 071 020 -128 -07 -46 116 016 106 076 -46 001 125 082 -86 066 -104 -109 -107 -28 023 066 -121 000 060 -26 -84 -15 -63 -63 -19 -02 -74 -24 -29 -27 013 065 -35 -25 -73 -27 005 -10 032 031 102 019 105 040 036 006 053 -80 117 120 042 017 023 014 088 009 -20 
053 072 -05 -45 -23 005 079 -61 -25 065 083 040 -18 013 121 116 037 -07 057 109 090 045 -83 -28 035 -114 099 031 122 -92 118 -58 002 014 124 -48 -96 -127 -66 -17 -57 060 -97 -53 095 013 074 022 065 -43 079 -75 075 093 107 020 042 -20 -41 038 011 -85 047 -86 
-25 048 -22 037 111 -81 -53 037 -102 041 101 087 -49 -72 061 -43 030 -60 -08 048 038 106 -70 -18 076 -39 -124 -79 -113 071 -88 -94 -02 -88 -22 -82 -71 -104 -59 049 -05 081 -04 -01 -69 071 126 -108 -67 074 032 011 106 -45 122 -04 094 052 -09 -55 082 036 -73 -114 
-116 000 074 -115 -77 -39 -82 -79 052 -77 016 -75 -26 -112 016 021 040 -41 -86 -114 057 -93 018 -09 -53 000 038 -75 062 049 -82 -03 -99 032 -109 101 082 -81 063 -24 030 -109 005 -33 -44 105 059 -26 -74 -08 036 -80 095 -40 100 076 009 -121 -74 -83 -30 -53 044 031 
-72 -29 057 019 -30 053 -22 -09 077 069 094 -13 043 -68 090 037 -120 026 062 048 099 002 008 023 017 000 124 024 093 027 095 007 -69 -124 -52 051 -87 123 -92 078 101 -67 065 -34 103 035 -104 -85 -113 -32 -56 -27 -39 -07 -82 039 057 -67 075 047 -113 -98 -95 009 
-40 -93 005 -32 -50 -115 098 -50 122 083 -62 006 -118 -13 005 122 -67 050 003 -103 -100 126 -120 088 -01 -35 075 077 -23 -81 004 -69 054 117 -107 117 081 048 037 063 -104 -32 -70 -66 091 009 113 -124 -78 -94 -23 087 -23 102 -111 -35 -41 026 019 089 -55 059 -34 -117 
032 106 -68 054 -127 107 110 -87 057 -04 071 051 042 093 032 118 054 -66 -24 021 021 -84 -15 032 -61 006 -88 034 -70 005 -72 -55 093 -20 -07 114 056 018 045 018 -35 061 -28 087 089 -84 085 -61 093 111 -26 -11 040 -104 -62 057 -99 111 067 037 121 -25 -15 -107 
-28 086 -79 -40 -24 069 057 069 086 -103 112 092 063 005 074 038 -123 -49 119 -69 -42 016 -56 -107 078 -91 009 069 044 -29 069 077 071 047 009 -114 -48 109 064 -45 126 117 067 -122 083 031 015 -03 -03 075 -114 -77 -108 011 072 -116 095 -79 -98 -123 -42 -97 -91 -43 
021 102 056 -25 -39 -80 -24 -113 040 -18 034 -79 -52 -107 094 078 -07 -98 -07 -66 113 -96 066 078 -63 -62 -108 048 -66 032 -64 100 -10 098 009 -17 113 -121 -29 047 087 091 -116 103 -02 -18 -77 071 -63 -07 020 -26 -124 126 074 -107 -25 125 -38 -122 095 -55 -125 -32 
023 027 109 -91 080 -03 -13 -105 006 005 -67 -94 -44 017 050 -15 085 -10 -32 -125 -13 -117 -128 -112 090 116 019 036 -87 084 -80 -93 -01 -88 -108 024 -08 056 026 -91 056 -60 092 -94 -20 -37 013 -21 -13 -118 -22 -58 013 -51 071 123 -101 048 069 -13 084 -92 069 079 
-74 -04 122 071 022 -86 032 049 -51 126 -39 015 055 -116 056 -97 -47 -114 -16 103 -97 087 102 051 013 008 -78 077 -68 031 032 -106 079 049 -27 004 -17 -80 057 -123 083 101 -20 -39 -56 -16 020 111 -79 102 116 040 -108 086 -116 010 -83 -27 -94 -80 -86 -99 -122 -97 
-62 002 -17 -46 007 103 -100 003 044 078 058 -113 -08 -105 -60 -21 -95 047 028 019 077 117 025 028 -117 -114 -07 043 105 100 -119 118 -16 -119 109 082 -03 085 099 -70 059 029 -83 122 053 -72 017 -125 060 -09 071 046 101 -14 069 076 035 -79 092 -57 099 -35 112 008 
-86 026 030 -77 -07 031 -96 112 -69 102 034 -82 070 017 079 012 113 098 -116 -73 056 101 100 098 015 114 057 -95 008 -85 -109 -88 -66 -75 100 -10 -38 088 -119 -70 -02 005 -45 085 053 047 -76 054 095 -14 -74 -64 -117 -93 001 -53 -77 -08 114 -94 063 -96 -37 -53 
010 -22 -12 -21 -112 -56 -21 -84 025 023 089 -84 050 -75 086 028 048 065 098 -114 -04 039 040 -32 079 071 -86 011 -06 -51 004 094 -06 037 -36 036 -22 081 -109 -94 080 -86 115 -68 -11 -02 107 040 102 030 -118 -79 -35 015 051 015 -20 113 094 041 -32 -118 -79 -98 
057 -29 -38 080 018 076 038 016 -20 -127 070 071 -112 019 -62 064 118 112 067 -84 -96 -59 124 067 080 -27 -61 041 -96 -66 031 -03 -77 -104 -89 -92 046 017 -61 -25 027 116 011 -63 109 007 -91 076 090 -48 -12 -69 078 044 -98 -18 -93 -62 -23 -43 -19 -48 -28 -33 
-29 096 061 107 -03 115 087 009 091 004 -20 -102 -65 -15 -111 -21 -75 094 -39 -84 096 -12 085 -53 -104 -50 075 058 -59 088 002 057 -107 -54 080 019 -51 041 018 046 -64 -43 -01 -28 -69 025 -122 105 007 056 096 073 -63 -58 037 062 -48 -04 096 037 058 066 097 030 
-83 -71 -76 074 020 109 -112 044 053 106 -120 033 -122 069 001 125 -87 -110 -14 072 104 040 000 -92 -47 -24 041 032 -32 059 -52 -13 002 -42 -109 -108 036 -37 -109 -71 -33 -27 -112 -76 -13 -75 069 -69 -118 093 -19 068 109 -55 122 -73 -50 074 -27 -38 -104 -96 -112 -76 
-50 050 106 -59 -03 016 056 067 -10 123 -99 -30 -04 034 -05 -11 111 -59 -122 -126 -85 -53 -92 114 113 042 -47 031 -95 091 -22 122 109 -107 069 -86 074 047 013 126 110 107 -71 -67 -76 -52 054 -23 092 -08 -96 105 -44 -47 -102 119 -78 -15 032 026 -92 013 108 043 
-70 115 101 -50 071 002 -10 -91 088 -113 074 056 -51 -79 -08 -36 -63 107 016 -91 124 -118 -127 096 -27 020 -96 003 094 -107 -27 -69 015 068 096 -50 -48 045 -22 088 -25 115 108 -65 -83 -49 -89 049 111 063 052 -15 045 029 -41 040 050 -36 084 -18 017 018 -50 099 
