115 -60 -20 039 057 -31 007 -106 -88 -02 -84 063 062 042 113 -38 -04 124 -66 073 022 069 -70 109 038 114 -70 000 037 -105 -31 -35 -78 082 002 066 -43 070 -80 112 -40 -74 -99 -122 -127 092 069 -114 124 083 019 021 -55 -10 -101 104 032 -41 116 -12 -86 066 -37 -100 
-85 -42 010 018 -46 -114 -58 -96 100 -122 -123 -31 -48 115 009 012 -38 056 -44 003 -74 063 058 016 -52 -58 -42 112 097 007 048 -93 086 -07 025 -105 039 -77 -113 013 012 -99 -19 011 018 -12 -112 -24 -51 -81 058 122 -63 082 122 053 -37 -28 093 126 -125 -114 048 035 
-85 114 -43 -82 123 -99 037 121 043 094 -59 064 071 084 -65 -101 113 -65 063 111 -128 -18 -07 025 069 118 055 110 032 093 -120 093 012 036 053 -56 059 105 050 024 -04 015 -11 -85 008 -06 111 -52 -13 -76 -120 061 098 -85 114 -14 059 -53 -83 -118 -43 -57 -79 -03 
-86 117 035 032 074 -53 046 -80 -34 050 062 103 -111 -118 -85 -114 -55 093 -92 -113 063 -58 069 105 046 -57 -78 043 122 -04 -40 -23 -44 023 -114 -86 -09 -69 079 086 047 126 -39 096 108 -27 080 -123 -81 029 -116 -66 -53 042 081 005 048 -49 -126 -81 -79 -62 -42 -110 
-74 058 041 121 -122 -11 -127 -93 -60 -27 -51 085 089 005 118 -03 -07 013 082 -99 -128 -49 -30 -88 030 002 043 -102 -34 -29 -69 045 028 -104 -10 087 -128 -26 009 -24 -76 -32 037 -110 -55 -30 -92 -18 -10 105 106 -82 -13 010 -70 -83 058 -63 -60 -17 106 -98 079 094 
-08 126 -43 -47 121 -73 -59 -29 -22 -83 -113 076 -74 -113 -115 -43 109 -21 -19 041 -119 059 094 -123 034 -25 -51 008 105 -28 -65 -56 -67 -50 085 076 080 -09 021 053 050 -05 089 022 005 010 096 048 002 -53 -38 -87 -34 002 027 028 017 016 031 -20 006 011 073 070 
-23 049 -115 -38 079 -111 011 012 -81 -68 -39 -15 043 124 107 088 -26 -96 -41 087 122 012 -20 -125 125 086 -88 -87 059 -42 -19 055 -18 083 106 -50 -94 -92 054 -83 030 078 -115 051 102 076 110 -49 092 -109 -88 -95 -96 093 063 -85 -108 112 118 -66 041 -99 050 -109 
042 -94 -23 051 090 -110 034 -94 009 053 -103 055 -42 089 091 122 058 074 -71 004 -17 -97 -07 006 093 -93 -74 -90 045 -31 040 124 -70 051 -79 048 -85 076 -78 -102 036 -10 025 037 -114 069 -111 -55 -07 -122 007 085 -20 -39 -113 -09 094 071 -102 017 -128 -88 -101 063 
020 -33 -49 -107 018 -76 012 -28 076 -108 034 091 -37 027 -82 065 003 -42 -83 085 061 -49 008 -60 -07 -01 109 054 032 057 059 029 054 -21 -04 -76 113 078 -64 074 -75 027 058 078 081 030 050 083 003 -21 -53 -81 -38 -13 -04 -99 -113 000 006 048 -110 066 -95 046 
092 121 -56 -88 -13 -81 -123 -12 048 -45 063 000 -121 -62 -116 040 -60 005 041 -31 024 -55 090 -68 -34 015 -44 059 -34 -40 099 -117 064 -87 -02 -112 -78 008 110 -16 086 071 114 -81 -41 037 -40 054 -104 -68 -102 025 -27 125 -92 030 106 060 -73 111 -12 -05 086 035 
-113 082 074 -38 -66 -77 018 -36 024 -104 -91 009 098 019 075 -12 -67 -37 028 108 122 001 083 123 090 076 -102 056 -106 -44 -97 -87 062 045 105 -07 -42 -94 098 -97 029 -108 013 -14 089 -74 -84 -95 -56 -39 116 092 -06 024 002 -42 043 008 -32 048 093 -93 -06 074 
-10 115 002 022 096 066 -72 -67 118 014 -123 042 119 068 -42 027 -32 079 -58 -74 049 018 094 094 -67 -100 072 -76 -97 094 097 -43 122 -93 -35 -24 090 -25 -19 028 094 060 050 -58 -92 081 -106 -51 037 030 010 -16 -95 057 -99 -84 010 007 -34 -58 053 -27 -30 -55 
049 020 -02 -60 007 029 010 063 017 -99 041 048 072 114 112 -75 -07 -48 018 -25 081 -39 030 101 085 -54 -45 -61 -111 -62 -12 -76 -11 -03 039 111 106 -66 020 051 026 083 -26 066 -09 095 -16 067 055 000 071 063 -54 -54 -21 121 -14 -03 -96 -106 -32 034 -02 -107 
067 -46 075 051 -47 -06 -63 013 067 -52 024 063 006 007 -86 046 052 -07 -16 099 -93 017 -57 -118 -14 086 032 -12 114 -20 -87 -61 -53 -74 -93 088 -72 047 -17 030 080 074 -35 052 -14 054 -83 042 035 -04 -85 117 -64 -124 -68 066 084 -107 041 002 -112 105 -127 022 
-125 -22 110 -73 -80 -14 -21 -128 093 075 -67 002 -127 -115 074 111 -100 -58 063 094 040 -125 -30 019 -94 -42 101 098 113 017 -74 030 044 071 -51 -39 -68 -02 -35 -01 -40 097 -19 -12 -100 012 119 -23 -59 046 028 -78 018 094 -36 009 -128 117 009 074 064 024 038 -34 
028 068 -89 -43 -105 071 -25 069 055 069 064 -81 067 090 -60 028 023 -82 -79 -124 -39 -83 030 110 108 052 052 -37 -103 057 064 -105 -28 -126 -42 -01 -127 100 -42 066 -51 -50 -25 -73 -04 026 -108 -53 111 -114 096 -40 106 -114 -35 -21 046 106 -99 -64 057 099 114 062 
054 028 -84 -105 060 -51 015 090 032 112 -87 -72 117 -35 086 -64 -17 120 -22 080 -15 119 083 -66 045 008 -87 037 -47 079 054 033 -90 -35 064 -07 -55 062 -67 -100 014 -39 -80 -120 -118 -96 -53 063 057 -92 -114 -57 021 -126 081 092 -05 -12 -59 095 -106 089 -70 037 
-72 -18 114 -84 009 014 108 080 -104 -127 -20 -67 -15 117 090 120 032 097 -117 076 120 034 -85 125 015 -51 078 026 -53 029 122 039 -94 -73 101 118 -87 115 -07 017 038 -106 -101 036 070 -08 021 -19 -116 095 101 122 -83 -59 -91 -01 -26 059 -50 037 114 -02 -53 027 
013 -111 -04 -69 -99 -110 -49 005 -92 -19 -120 078 -07 096 010 007 101 051 -64 -60 -112 017 006 -32 087 088 107 093 006 079 016 025 -69 031 047 064 076 -52 001 -105 095 082 100 -114 024 -112 034 078 041 -86 066 063 019 -63 074 096 026 -05 -48 -56 -21 -64 -58 -09 
054 021 120 -06 121 048 111 006 103 -123 -119 -109 008 111 088 054 -128 011 104 058 -59 -53 026 118 048 059 001 -88 -75 -22 059 049 -87 026 119 -64 023 -25 052 -16 057 -39 086 -94 -109 -01 -47 095 -26 107 007 -54 052 -76 -66 126 113 016 -61 -84 036 -103 -13 123 
118 -36 060 100 059 032 011 071 -01 -128 -31 -118 068 102 -33 010 024 019 -81 -96 -22 081 088 -70 024 -14 -45 -128 -15 -80 022 -60 -15 -09 -74 -127 082 -17 -121 -72 018 -68 -71 -61 082 -33 -97 110 115 -33 -37 026 -111 011 -43 101 010 -38 -24 -77 001 -82 -102 110 
095 007 -69 021 073 -118 -57 082 038 011 -73 096 -05 051 -33 -121 080 -108 106 -86 -48 -57 058 027 -84 003 -126 006 -112 025 019 018 -20 -51 -94 121 -42 -84 040 -67 063 -124 099 -11 -118 094 087 -64 -09 -124 034 086 -57 011 -81 011 -13 091 -120 107 -48 006 -55 -110 
014 -28 017 -66 -31 024 -06 -54 -92 -108 114 103 -24 090 -78 119 007 -74 090 -60 114 068 -115 -80 -20 -60 078 116 -31 -01 102 080 049 057 -65 -102 -05 041 -42 018 119 -97 -123 -22 125 041 -106 -51 075 -111 108 -21 -73 080 067 -118 110 043 078 004 -95 070 -96 -122 
-124 -21 -89 -28 093 -35 039 -111 -07 020 124 089 026 -68 -58 -71 -48 -120 -09 -50 014 -35 060 -93 082 -123 -02 119 018 002 044 063 071 054 030 047 011 -52 031 -90 -69 -95 089 -15 089 126 038 001 077 -115 -47 -32 025 -62 -102 045 022 030 019 -79 -18 -19 -42 -94 
-38 088 116 119 090 -37 -92 081 -85 086 094 123 -08 121 050 -114 -31 -77 005 121 -115 084 -83 085 060 -25 017 -39 091 114 053 -56 108 061 -123 009 -79 -85 -46 073 105 082 -31 021 -45 076 -65 -12 011 -121 -72 -24 -05 -35 070 -78 066 -34 -126 -81 -125 -92 -11 025 
-73 032 -22 -113 113 079 -124 -64 -60 024 058 009 004 -84 -46 005 126 116 070 -91 083 -03 -95 -28 -44 088 122 -60 -85 020 049 114 007 062 -48 069 013 -56 105 004 -40 -26 093 078 122 -98 052 002 -12 109 064 048 090 003 -52 078 -38 -128 -79 103 -85 033 -52 047 
003 -09 082 044 105 -11 042 -111 -48 -15 106 -87 -59 -78 -32 014 072 111 -100 071 039 -124 -46 094 110 068 045 066 118 071 -75 -13 079 083 -128 -11 088 033 -60 106 -03 -78 091 054 -83 033 064 049 095 048 -126 -127 025 -39 -71 -114 050 -56 048 122 057 -114 -126 034 
-49 033 028 -125 019 110 061 029 -69 118 037 087 -113 077 026 019 -15 097 -115 082 022 084 120 -89 -05 094 -81 067 -79 032 009 -39 081 047 047 -73 -128 052 -28 110 002 027 007 -34 048 081 113 121 -90 -58 096 001 -57 111 -20 -03 -61 107 126 104 -17 -90 046 -19 
-84 022 -114 065 000 126 -114 028 -123 002 064 026 070 -69 -113 -90 -20 074 079 -02 -127 007 014 -51 -89 -04 021 031 066 032 -116 -26 052 -106 -106 -111 037 022 009 -89 059 022 -105 028 -118 067 050 066 119 -95 091 -122 069 -05 -01 003 061 000 091 -115 109 119 078 -121 
102 043 103 -39 -47 093 -57 -63 093 047 -80 -81 076 019 103 071 081 023 057 051 -119 -105 -121 -46 -121 091 -104 -08 010 -118 104 091 -21 -25 -47 -126 059 -117 052 077 -39 126 042 066 088 -05 125 -46 -111 079 -29 065 -82 017 -126 -92 -101 -44 -108 -121 -120 -109 -118 075 
096 -11 -14 -118 -106 -19 -28 -83 -47 -125 023 005 080 -73 105 088 025 107 -117 -80 104 -53 -39 077 -69 -115 117 009 066 072 -01 -47 102 023 049 121 -35 -10 012 -94 030 094 -70 -20 048 013 073 066 -76 -43 084 -37 -50 123 -49 024 -31 -93 049 -44 107 -125 -58 -41 
-81 018 122 071 -121 100 004 052 105 007 076 012 -122 069 -128 -37 033 -88 -57 -112 067 048 075 -113 062 -32 086 -126 -86 -23 -33 -75 030 -103 061 110 -127 083 092 092 -120 050 048 -108 -61 057 068 -117 058 006 -93 -57 026 106 -101 -29 119 -06 112 -58 048 042 111 035 
088 116 -34 -103 -124 076 -75 -39 -105 -96 -91 -107 -71 068 -06 -96 122 013 -36 100 -45 -03 056 121 -69 064 095 -105 -43 065 008 059 039 053 -91 111 -29 -49 025 -91 120 -17 -25 -03 031 110 048 034 -61 014 052 -41 -90 110 -93 055 -66 026 102 082 -62 -40 077 -72 
100 032 041 -93 016 078 -58 013 -61 034 -120 -55 -14 -60 -21 046 098 -95 -61 -02 -45 053 030 079 -71 020 009 -36 -82 -76 -80 047 039 -115 033 -26 -117 -114 112 -08 -48 -39 063 039 -22 -109 096 097 -55 -51 -100 -52 -79 000 042 111 054 102 072 -56 059 093 058 -101 
070 103 -103 -12 060 -106 -93 050 -86 -82 -27 112 -23 061 -113 025 078 064 028 102 -62 059 007 -99 -117 -80 010 -57 -87 082 099 069 -117 087 -36 -28 -116 008 084 -10 -23 -37 -68 -39 042 019 -58 -30 089 100 -80 -85 004 -29 -35 -70 103 020 -70 043 018 -102 056 -24 
054 -92 070 040 082 -91 -106 047 115 124 073 -57 030 -33 021 039 -71 -70 -112 -119 -39 000 076 -97 063 -104 044 053 012 122 112 057 011 085 091 -81 -18 -32 -10 079 086 -102 002 019 -116 -105 -64 031 038 056 108 -123 -49 011 -63 -21 -14 -82 098 -90 045 000 088 032 
087 -75 017 -67 -63 -61 043 089 033 030 033 058 -92 -103 -118 062 005 -88 082 -24 076 106 -80 085 026 082 096 076 002 093 -54 096 -35 003 -98 077 -04 053 108 -16 042 -01 -13 110 033 -52 008 -22 085 -95 081 -128 101 -76 -55 -80 -86 -21 054 050 -13 -116 013 006 
035 -59 019 -125 -61 -11 044 -57 055 -57 -49 060 -71 -26 077 107 006 059 -109 -60 112 -54 -26 -80 -73 -18 -128 -127 -108 057 021 -107 076 -47 023 -92 099 000 -82 033 -54 052 004 -105 027 -26 -78 011 -27 -64 063 -08 -82 -62 099 101 060 -16 123 000 -27 125 123 068 
042 075 012 040 039 -117 003 -126 039 -77 037 -89 107 -25 -50 -128 102 048 -02 -18 017 -128 014 024 -61 059 112 -126 002 -40 078 -53 -97 -37 054 011 090 -64 031 -91 -99 -110 102 047 -25 061 046 001 095 -19 -52 014 030 -42 028 023 053 -11 -32 097 -76 -68 -02 040 
013 047 -110 -101 -104 -52 -125 -62 -92 -64 003 063 114 039 001 014 -65 -47 -10 -100 055 028 -78 -11 -29 032 -22 -74 -61 -77 -62 027 -125 075 -68 111 108 002 100 036 005 117 -99 -33 -46 -29 088 -26 098 030 112 -26 101 101 090 -115 -83 -51 029 034 -19 -123 040 038 
-88 095 006 002 106 -87 000 -23 106 -84 -28 -78 076 -119 -11 -04 000 048 -91 -120 005 097 -72 096 -112 117 029 -92 050 103 -29 -103 060 052 -67 039 103 -50 -102 064 092 -116 074 -22 -106 085 -93 073 064 -80 -120 -114 -100 -02 -126 005 -120 100 -40 061 041 110 080 081 
125 037 -69 059 -112 -83 032 022 -18 -69 -97 -58 033 020 075 -126 -88 -47 -11 095 092 068 109 058 076 114 088 -115 -11 056 -39 103 -27 032 058 -78 024 053 -59 -06 097 -14 -03 -23 029 -43 112 -93 038 072 -88 -91 -79 084 048 -45 -59 121 120 -116 -122 -06 -95 -58 
-09 077 -39 045 -14 -44 057 054 035 053 -106 -103 -107 -53 -47 -04 083 055 -21 095 002 058 -26 060 -19 098 -98 004 073 -19 -08 -45 -12 047 -54 -10 -22 -09 -127 -103 -117 -24 057 069 083 004 034 -79 -110 -02 -57 -21 059 -127 -103 049 058 -56 -120 055 057 -40 093 117 
-75 -54 099 -104 027 000 -92 104 -114 -101 055 -84 074 -28 015 -54 050 -100 -35 -105 047 025 -84 069 049 040 074 000 -22 117 010 009 023 -68 123 -92 -69 109 051 090 -92 -81 004 071 084 -122 -100 095 -55 -79 -30 088 -111 039 056 -81 -62 052 038 -81 -21 075 -23 080 
091 -45 050 -82 055 106 011 -124 -78 007 -62 020 082 -59 -21 -64 -87 097 -84 -67 -79 070 -93 -66 -13 085 -120 071 -10 068 092 -42 070 -121 -15 109 075 124 053 -37 084 -14 009 016 -122 070 006 -45 034 064 012 085 099 -53 023 086 -69 013 -57 050 097 -107 062 056 
-117 097 113 063 -96 118 023 -67 -119 -40 -52 -39 -94 -04 -99 077 007 097 -48 044 -121 006 -54 -104 -09 039 -31 112 -109 -49 005 -37 006 -38 060 -29 -29 -70 -11 -102 046 082 088 038 -66 -109 013 078 027 054 -85 063 -45 -114 -96 032 -46 055 -69 010 058 -88 -72 108 
-122 -103 -02 097 067 -66 -71 126 020 108 -97 -118 122 -124 -121 -114 -12 048 113 063 -55 056 120 079 -33 126 093 072 -121 -38 085 -34 075 -69 -47 -105 -06 -14 013 -111 047 049 036 -63 083 -51 072 -51 -29 -55 -128 -26 -35 094 000 -04 064 029 062 093 -81 112 -73 075 
-118 -66 065 -122 -102 041 048 -06 078 -13 118 -28 069 -38 124 -123 -55 077 007 123 -65 -65 067 040 -75 -95 -92 -10 -83 026 -65 030 -123 -24 -108 116 088 024 045 110 -92 -84 047 060 109 -52 -02 089 057 -01 -75 110 106 -66 -81 012 -110 -128 015 109 -64 079 004 -12 
010 -23 053 047 074 -103 -89 -23 -118 -104 094 -71 -117 -11 -100 -78 012 115 -118 -68 063 -125 -49 -116 035 -79 082 120 003 -72 032 -94 096 104 -91 066 055 022 053 121 -47 051 -42 046 056 063 047 001 -84 -35 -30 088 097 079 032 110 -52 -37 -68 101 120 -113 -111 -01 
052 099 -104 -99 080 -23 055 -109 074 -15 -10 106 102 032 -61 090 -44 -26 -23 -01 120 -26 -10 065 -125 -62 096 045 035 122 -13 006 -68 072 012 088 -98 088 -35 113 -99 008 100 -26 041 068 -37 -07 -22 045 084 110 -103 006 076 085 -38 -16 082 038 105 034 040 095 
034 -70 -64 120 -128 -101 085 073 041 -48 -101 -14 109 023 -64 -47 017 071 040 -69 -99 013 -30 056 -05 -97 117 026 024 080 071 -105 -52 -118 011 -35 122 -38 029 -04 -117 -87 011 -74 074 079 -02 -73 -99 -106 048 055 -67 -66 043 -31 058 -115 121 -89 044 109 -39 064 
003 095 083 116 -45 -84 -109 -91 052 -34 090 004 -103 -103 065 -43 119 -76 -112 065 -94 057 065 009 -37 058 054 012 -64 -03 022 -108 063 -23 -106 035 032 071 -125 -102 -107 -113 -22 -84 076 -08 054 062 -72 030 -05 -118 -128 012 -85 -109 -05 066 118 -06 -43 106 039 103 
-39 002 027 -102 115 -45 -127 -120 -13 -35 -69 019 105 012 -105 066 039 049 104 -114 -55 -109 101 033 106 037 098 -104 -112 -71 015 -04 -87 -29 043 071 050 -66 -41 -50 071 071 064 -39 054 126 -84 094 -81 -64 068 -85 -36 -83 113 119 -26 100 -31 -49 -104 -77 -74 113 
006 124 -69 021 -66 039 075 -74 065 050 -35 -02 067 104 043 012 -83 014 -77 099 -64 119 024 -70 -45 -46 -30 -100 -94 -96 -33 109 -90 005 116 031 085 086 -67 -75 -51 006 033 004 -03 118 -09 -61 097 031 -89 112 025 053 -79 030 -89 069 -68 089 005 -81 -86 -21 
-20 -94 -15 -15 -109 -69 100 -26 -123 019 -46 126 033 -11 010 -48 038 -22 004 054 -103 -116 -52 068 -120 085 -30 -37 000 065 -24 -87 -15 -101 030 038 -68 -72 109 052 116 119 110 -112 049 -60 002 -83 -104 -60 -87 011 -26 -105 038 -67 022 -115 103 105 074 008 -13 115 
016 119 051 -36 002 100 -126 -15 033 075 008 126 -70 055 -89 -02 -57 -67 -76 086 -01 058 030 095 -106 116 -50 -13 -127 -53 074 -104 -56 051 040 009 -86 018 -83 -16 028 060 057 -77 -21 -95 -06 -127 092 -121 -106 -34 -30 008 -39 015 -03 057 039 072 -42 023 032 -14 
001 078 028 -57 125 -96 082 -13 111 004 101 083 108 119 -76 122 124 010 -110 028 125 -115 -63 092 101 -59 033 106 -110 -22 -99 -58 -110 -117 001 -59 -08 -126 -01 036 -91 109 -36 -102 046 038 069 -102 -90 -123 -120 -117 -19 -35 120 100 008 -38 025 070 059 045 -02 -76 
006 071 122 090 103 007 030 -06 079 055 -62 045 -64 071 -127 031 -116 -58 -95 075 083 119 -17 056 -82 -122 048 114 098 101 021 -36 073 -109 -111 027 -125 -38 -102 -05 026 125 008 024 -51 -16 089 078 -128 -89 081 -96 -124 094 -19 -108 101 066 109 113 115 -12 -60 026 
-98 -28 -25 -26 -19 -05 113 -17 -116 021 025 -109 007 066 -101 -107 -14 -45 -26 072 -104 017 050 065 060 -08 -87 123 123 020 -81 125 -16 -105 -108 -69 030 -11 -51 -46 039 021 -03 050 121 -107 021 -10 042 -46 005 -40 102 067 079 -98 -128 027 004 017 092 001 -52 096 
-20 026 -66 089 073 062 125 032 -115 -10 -79 010 102 -39 -104 079 -77 -37 -52 002 -104 076 083 -86 021 -37 -27 -43 -110 -113 095 016 013 -82 108 103 086 067 016 009 -124 -45 -92 -75 123 -30 004 065 -118 -123 013 057 -80 -68 -51 020 011 085 044 -103 -64 -114 -64 050 
034 003 005 -78 011 -17 093 122 042 -63 124 -32 -120 -74 -17 105 057 011 -45 -50 -122 -123 070 017 -25 -103 -109 112 -92 -34 090 117 -18 092 014 082 099 112 087 108 -113 062 -120 101 -55 053 041 015 032 005 -25 -21 015 -95 039 -73 -15 038 -103 066 -59 -98 081 069 
-37 -25 115 -98 100 041 -32 -39 038 076 -113 103 -103 -28 012 -128 027 -29 -36 021 -128 -14 -09 -88 051 -102 -67 073 -24 -29 102 -06 -59 125 081 -83 -84 -118 126 008 106 -48 -48 085 -96 -10 095 119 -90 -60 -31 064 -61 018 079 115 -60 -41 -102 -123 -117 -37 076 -61 
077 -103 -75 -97 -55 -66 116 -95 -92 067 -62 -127 099 023 035 -50 024 -17 -35 125 118 122 109 014 002 092 116 -63 -126 -88 030 118 078 037 008 -52 080 -91 046 -59 -42 029 000 002 -36 -40 111 -27 107 004 -101 017 062 026 -88 052 -12 -89 -33 094 -57 061 118 071 
048 -72 -122 -84 -116 108 053 -07 -45 116 124 -24 079 088 -61 -95 -97 089 067 -35 -30 -111 095 079 017 -39 115 033 007 039 -104 101 -27 -47 -78 035 110 -70 068 -86 -18 117 -114 015 -52 094 -40 -83 019 095 -62 036 072 073 -74 080 069 113 -63 -58 066 000 107 043 
-61 -67 017 033 -105 001 -80 -11 121 -36 028 -70 069 029 064 -119 -109 040 004 -77 027 -74 081 121 -84 -26 046 -63 -106 068 -49 023 041 050 003 121 -47 048 -88 -90 -02 119 102 099 000 033 -02 044 -60 108 -66 043 063 -53 067 076 115 -08 -119 073 -127 064 070 057 
-23 050 062 -69 094 -10 -20 029 -24 050 082 019 002 104 021 050 -102 -108 060 027 070 -17 -116 -08 -74 115 -105 -02 122 -06 -17 057 -08 -118 026 016 -117 087 -07 -81 -71 104 -92 019 -57 -118 -35 067 -27 052 064 -125 -108 -14 052 -72 024 -83 035 042 044 116 -39 -34 
-06 -09 020 123 -52 075 -100 -14 104 071 -90 020 -04 -15 -63 -111 -125 056 096 063 111 079 -87 -19 -96 072 -80 092 -16 098 -103 112 -92 -90 001 003 019 101 007 -82 -31 -92 005 -66 036 115 -91 -53 037 066 -17 119 -106 -08 097 025 049 017 -17 024 112 -127 -124 029 
044 043 -36 024 -15 065 126 024 122 -123 -42 022 -84 -76 073 077 034 043 058 087 063 -127 -74 057 120 -21 071 -56 014 019 054 068 -31 -21 068 077 014 109 046 016 -120 -05 -42 036 -03 118 020 -95 101 -89 109 081 -100 103 010 -117 -41 038 -51 040 -115 077 -67 -118 
-21 -06 020 051 -84 -67 069 -90 -97 -107 -82 -05 -45 -50 -93 063 -69 092 064 -55 050 -12 010 017 020 -63 091 -123 -02 052 080 047 -91 -102 -24 -59 -68 -71 -37 -105 120 102 124 -58 -31 -31 -76 032 050 061 057 125 060 040 -75 030 066 -74 120 -115 093 067 119 033 
-128 -04 -96 -119 -82 -96 -59 052 -84 041 064 029 -121 059 029 016 -15 -90 -60 -29 -61 115 -72 033 080 118 -105 -66 -46 -25 047 -95 101 -18 100 -124 083 038 -102 015 -21 -44 -01 028 -108 015 042 058 004 091 -33 -22 -122 052 -123 055 100 -54 -32 119 071 095 -102 089 
-87 -06 106 -32 098 -107 -123 -25 018 113 059 097 -79 118 -121 117 122 110 -21 080 -104 017 -120 096 114 -76 074 052 042 094 124 -02 -29 110 -128 096 -81 -43 029 -34 113 -120 090 -31 022 063 043 123 087 009 038 061 025 016 -71 -108 -30 -16 067 -53 -30 051 -77 051 
-112 -48 037 090 -03 009 020 050 083 -99 084 037 -64 122 -12 -61 -100 064 029 -65 -65 092 -47 -120 -93 -06 117 028 047 062 -29 103 -79 -61 125 -27 108 -40 -12 -17 -10 056 067 049 048 -105 109 -122 -119 -115 001 044 124 -74 051 093 -111 069 012 041 013 -35 098 045 
