126 092 -03 -120 -34 -34 108 008 -05 117 -73 086 010 005 -105 -04 -98 -24 -99 -65 057 -23 002 -01 -19 076 -36 068 -14 009 121 100 -122 030 -98 -69 093 094 080 017 -19 099 047 020 -69 -17 -82 118 -49 123 110 -18 -67 -26 -93 -67 -82 122 065 028 -98 -112 -127 -83 
-128 033 -83 -103 085 062 -21 044 -81 009 092 -08 012 118 -30 012 023 013 -31 070 -81 -50 -63 054 052 -126 -127 122 -80 098 -56 -23 116 048 119 016 -113 110 -22 117 -85 -77 -50 024 077 069 -58 -123 061 079 -81 052 090 -70 070 -07 056 -82 -113 -54 -52 -87 077 -58 
-122 054 050 -47 025 062 109 -04 -15 -74 -73 -86 -105 -90 -22 120 092 -98 -22 -127 055 104 008 045 -85 -46 084 -101 050 -84 096 -21 -61 -65 -126 064 -113 070 -19 093 022 067 103 -123 -83 -91 098 -52 075 -23 -47 -124 050 -100 -67 -36 031 028 -51 -106 013 022 -101 -67 
022 068 -16 008 -104 027 020 058 026 029 084 -127 -12 -03 -18 082 -104 118 -09 -25 035 122 -128 054 -70 016 060 078 -89 -66 097 074 083 040 011 -50 -22 -39 107 -101 -87 -119 -65 -04 109 -53 005 062 061 085 112 -111 -95 086 -01 -10 -03 062 -102 -29 043 120 -97 110 
-77 090 042 -23 -93 -47 093 -99 -70 -84 119 105 123 028 029 -55 115 -126 -03 -21 -119 084 082 033 -72 -57 -94 123 066 -26 066 041 -71 -95 107 049 025 -127 027 -57 081 -93 054 027 047 079 029 -122 -40 069 -23 091 -76 004 020 029 -44 -74 055 023 011 057 -02 045 
123 022 -38 011 -101 -12 -11 -09 -78 086 -73 -101 -58 -116 -64 058 -94 -59 109 -41 -04 -100 046 073 -65 042 -66 027 -02 068 040 001 022 -90 091 017 093 100 -04 004 -45 019 025 -40 -105 -53 038 -09 -106 -79 004 011 -61 072 -98 -93 005 085 011 055 121 117 073 075 
022 -41 100 039 058 022 -56 049 106 -55 084 099 -02 040 -101 021 051 112 034 065 069 -02 -01 065 002 -59 073 -20 -102 -41 089 022 -113 082 -52 -58 031 -04 065 -33 -93 -112 -86 075 -91 -30 098 -05 -100 095 -12 -81 -54 021 -51 -19 095 -52 -61 037 -93 -91 -65 -09 
078 -27 -91 044 -29 042 -28 110 -80 028 -84 030 035 -30 -66 -78 024 -10 065 -03 -08 -72 083 -36 -63 -125 006 109 120 068 090 010 025 056 053 107 -107 -54 103 041 085 -89 -48 -126 -93 043 -84 080 -41 -98 042 -23 -95 047 -126 -95 -47 049 034 070 014 -114 007 079 
-95 014 009 117 041 102 126 -83 062 081 121 038 052 -109 -104 091 -11 038 -128 -25 -35 -113 -02 -111 124 -99 098 -12 -31 102 079 -08 071 -114 -07 -97 106 114 -102 -99 -23 -11 055 034 -126 -14 034 -22 029 -116 047 019 005 040 -102 -07 104 -103 079 026 -35 058 029 058 
-68 082 -05 -99 -128 -69 066 050 037 046 059 024 -29 -109 -25 -77 -71 -11 -109 -31 -92 103 -101 -75 025 061 015 -31 093 032 -95 077 -78 048 -19 072 015 -113 -91 -53 085 -78 010 -16 123 -63 -18 -45 017 -44 -71 017 079 045 030 -80 -77 -94 -94 -76 052 -75 063 040 
-03 087 -48 049 -122 -85 -27 065 055 -56 -114 -73 083 -37 034 051 062 026 -77 -40 068 -78 027 -14 022 -51 -09 011 106 -94 088 -27 -71 070 -112 050 -15 079 078 -46 -13 -104 033 100 -105 -55 018 -29 001 002 021 050 -47 084 -99 -25 -12 -17 046 094 086 119 076 007 
-87 -17 -01 070 060 -36 -67 -48 079 -116 -68 -116 120 057 117 -06 -116 059 040 107 110 106 064 091 -14 091 -98 030 -23 054 -89 099 079 -44 -85 -15 -50 102 -124 -59 093 091 036 -112 043 024 036 -128 075 -77 -34 012 069 114 003 042 015 -107 -28 -58 065 014 -45 -48 
019 -55 070 052 -120 060 -124 097 -125 027 -34 085 030 -123 -39 -73 119 006 076 -16 085 -84 122 -22 084 -59 -14 -67 058 033 -101 071 068 -86 056 096 -59 097 097 098 036 126 -50 -64 -92 -61 093 024 -75 068 083 -108 -76 -107 101 -12 097 -100 -60 032 -06 -84 058 -37 
-26 106 -03 016 -97 -97 -63 -117 001 002 039 099 -121 -15 088 050 001 049 -124 040 -82 044 -62 -95 -87 050 048 007 009 -11 -98 062 003 -125 038 089 -84 -91 057 056 -126 011 058 078 009 -83 -08 124 -126 -107 -125 096 -23 -63 095 101 -73 -69 -37 073 -44 079 077 064 
-24 028 -83 051 -79 027 053 104 074 037 013 -39 122 -01 111 060 121 -95 -56 -49 -113 044 -116 -66 073 -124 -102 025 058 018 003 -18 061 110 017 -71 110 061 064 -74 -71 -46 -80 -33 -83 -11 -37 057 -13 047 067 -61 063 072 061 031 -30 -90 -74 025 095 -78 038 097 
010 069 107 -110 083 029 -89 -106 -35 -10 021 -44 015 059 092 -19 012 -94 -43 -80 -51 -102 -105 -15 -76 117 068 116 -54 -110 -81 -56 -78 069 035 074 -40 -127 040 039 052 -50 012 -20 -38 -126 -68 -04 072 034 047 -96 -47 -30 -71 -127 100 043 -37 -20 106 -94 075 099 
096 -121 -78 -76 000 112 -40 -25 097 064 -58 -118 079 004 -12 095 -113 -58 -26 001 080 -15 -103 -116 102 -99 -35 -34 003 119 116 -82 -38 -50 -17 -87 -90 -81 -128 051 -82 -57 -54 126 068 -51 -46 -82 067 -33 046 078 088 -35 -29 041 116 005 -53 -94 108 092 002 -25 
031 -71 089 -121 045 096 123 046 -85 -105 027 -54 067 -37 084 122 -64 -66 -62 027 -02 -89 039 103 -95 047 110 -79 -66 103 -29 -51 -30 -59 -31 -82 064 -25 034 016 075 -31 000 113 075 005 -15 072 -84 -05 -104 048 077 061 105 120 080 -39 -39 -84 081 044 012 -124 
-115 050 -17 -97 -123 032 002 020 -14 038 104 -21 -113 -88 -112 -115 -72 -63 -79 -88 -33 -07 -51 106 032 -60 -29 096 -81 117 -75 042 -29 -25 042 039 027 027 027 -110 019 062 046 038 016 -20 -66 -66 -39 -93 -114 109 -32 082 005 001 114 -69 015 001 -94 -114 062 -10 
-120 -113 -39 034 -31 -23 087 -18 -90 -57 -82 023 -114 -56 043 038 -126 079 -27 -61 -114 053 -126 -52 001 047 -26 094 107 001 -106 -79 -88 -88 060 102 088 118 011 -46 093 -33 -66 -52 044 -36 -75 060 124 112 -128 006 018 -99 039 -89 -38 -01 -55 -74 -25 -10 067 -11 
099 056 -30 054 -97 037 -95 078 104 051 -64 093 -80 -98 -48 -51 -15 080 051 -03 -07 -29 115 -71 -83 069 059 005 044 -99 053 067 -127 -19 106 -11 020 021 111 042 025 071 032 -49 055 -99 065 025 011 010 109 -86 094 -23 102 036 101 115 -78 -63 -45 -50 001 -118 
012 -13 052 -123 068 -111 031 035 -53 054 011 067 -99 081 -80 -48 103 001 018 -25 018 -73 -22 -07 -11 -14 -60 079 -71 -45 007 027 -75 -53 051 -119 014 118 -35 -69 -57 -116 -35 -110 009 -54 -89 -50 052 019 096 -11 -12 039 -13 050 102 047 -40 -122 028 -110 017 -91 
093 -58 -117 -46 067 117 123 -10 036 119 057 -55 115 064 008 029 120 022 -27 -97 081 112 101 -26 038 -16 118 062 -07 117 082 118 -109 -02 -19 066 -72 115 -33 -54 -43 071 -10 -96 -51 -52 003 024 -118 -40 119 075 -57 -01 -01 -71 109 -95 020 033 -54 -101 047 -22 
008 -22 106 096 037 088 024 -65 -39 -13 019 077 -03 017 -73 -08 -103 -22 007 115 067 -48 078 123 -123 034 -70 063 -60 104 073 002 047 -79 -52 019 088 -01 046 011 -63 -117 124 104 -30 119 045 043 043 084 -75 -32 -103 -110 025 125 026 -77 077 -43 -30 -126 -08 -97 
-63 054 071 -61 024 017 -80 028 004 114 -48 057 -52 069 -127 114 074 058 000 -32 -56 031 -40 028 -120 -97 122 091 005 -86 -50 -110 036 081 054 115 038 -93 004 078 087 099 122 -09 119 105 077 100 069 117 -37 119 -60 032 074 005 -24 069 -76 048 -58 -103 -54 025 
-58 -58 -63 -64 057 031 -95 -60 -23 052 004 008 085 -104 -20 -26 035 102 -16 -65 080 -54 124 -77 -110 -76 126 -15 -103 -124 -24 106 -61 -29 -64 -70 -54 016 098 061 -82 -118 -81 101 -102 -40 121 045 047 -113 -34 037 101 -62 -97 -06 083 062 107 113 -49 121 038 003 
051 093 -102 105 -24 -56 067 017 -80 008 004 080 -10 112 -101 -07 004 009 -128 110 047 054 122 017 -14 -13 043 -26 037 008 086 -79 068 -98 -90 -43 046 -40 -71 -105 -115 061 030 -29 -118 039 -114 -46 089 043 -55 -92 032 028 018 022 087 -08 -71 -12 014 -24 089 055 
-99 068 075 054 050 104 062 -80 006 060 016 103 016 085 068 048 118 -127 -111 -69 118 -113 -76 083 114 -66 073 003 079 -01 -71 -60 -73 061 123 -91 109 -43 -29 022 -89 086 008 066 -15 079 -128 -91 -73 -49 117 -50 029 119 -83 -90 092 030 -51 -117 122 112 -05 -85 
-71 071 126 -36 068 -15 090 -13 -34 126 -66 006 065 117 103 097 041 -74 066 124 -61 040 087 -104 -34 007 -01 -59 103 069 -109 -03 -90 082 105 030 114 -120 034 -101 -51 -94 -50 -37 -124 102 021 016 -04 -40 -43 074 -36 -44 -10 -17 -82 022 107 083 049 117 095 -15 
-123 104 011 034 031 -111 -18 -24 -08 -38 086 073 064 -78 122 -97 008 -77 050 -19 063 075 066 -47 -12 055 078 -104 -86 -116 065 050 053 -80 106 -34 017 -112 -05 054 020 113 -100 098 123 020 -58 082 023 -121 -71 015 041 -127 -29 012 -18 -76 -32 -40 110 018 098 -112 
-31 038 -111 033 -02 -18 -114 -55 -48 -30 -98 010 054 035 012 015 096 -106 -68 046 109 114 -119 -52 097 119 019 -81 048 063 -128 061 117 108 016 -69 -81 -30 -108 -18 -46 -99 083 036 004 040 069 -82 -54 054 -42 094 -38 035 016 -82 110 108 126 -116 120 -102 021 -25 
115 122 003 079 -27 067 007 036 107 -62 -64 115 071 069 -97 -124 085 -67 -98 114 117 -62 019 -03 -57 107 -127 080 -110 -92 099 -49 002 016 026 075 064 -64 -87 -03 017 093 -01 -31 113 -08 -69 -83 034 -69 030 -16 -101 -80 -50 032 117 -99 098 -114 001 -69 -96 -64 
-108 082 -16 125 047 -63 -94 092 112 -62 024 -58 -93 103 056 -17 -105 070 -15 009 -23 -26 -15 -124 -98 -16 092 028 001 -88 -94 047 -113 029 090 -73 -91 003 -88 018 -112 -42 058 -55 -67 111 -53 065 -47 -98 120 116 084 039 -83 -54 116 -72 -66 106 070 052 -107 -92 
013 006 -15 047 -41 009 -123 -111 -14 085 050 011 045 098 -65 093 036 013 011 -49 086 016 062 049 -114 -117 -16 -41 108 112 -21 061 115 -117 -03 020 038 -125 -121 -36 -99 -18 001 -106 -67 059 -77 070 -96 014 -07 015 -120 008 069 033 104 -04 -107 019 033 -87 029 -109 
-77 -115 -06 032 -34 -05 -03 030 -12 -80 -98 -25 -72 054 -54 018 061 -119 064 -16 044 -08 -75 122 029 -25 -33 -64 -115 -08 054 069 -89 -80 120 108 -64 049 023 -18 052 -119 -49 050 -106 039 078 086 069 -125 -24 056 -20 -97 075 021 031 -36 008 023 -126 -122 -46 011 
015 062 065 -47 036 -48 -128 -106 041 -46 -48 070 028 077 -37 -48 045 -36 -02 076 -16 -91 113 084 081 006 085 087 037 -16 -100 002 -06 068 -05 077 -12 043 022 -14 008 -10 096 126 -20 -09 -111 054 030 -31 074 -124 029 -03 -128 117 061 -18 036 099 019 075 -127 -81 
-34 -65 -03 -55 003 -57 115 -115 -12 -87 -115 090 -67 062 079 -47 -25 -92 004 -88 016 -127 -55 098 -09 017 -02 049 -21 -36 002 -108 -10 036 -100 -97 -115 045 094 107 -90 -81 -82 054 -58 -30 072 -25 122 108 -67 068 084 -105 -41 020 -124 103 -92 046 124 106 -21 -60 
096 -105 -47 -109 -87 019 -16 -39 114 -103 083 121 003 079 -05 -113 -53 -66 -50 -95 -59 -101 075 -105 072 -16 -119 -33 -55 -43 017 102 -72 124 109 -93 -69 082 -47 -45 -127 -48 -21 -26 -94 112 -111 -101 022 -02 053 075 101 024 107 -72 031 001 -61 037 071 058 -83 081 
122 118 011 069 -85 -18 062 -24 117 -111 040 094 075 008 -65 103 016 -54 051 -110 -122 -44 029 007 113 -15 086 066 -77 120 -54 119 124 081 -36 125 077 -44 -85 067 -06 -51 -04 038 029 013 -88 -31 026 062 078 -62 -33 069 -07 036 -14 110 005 047 -16 057 031 -66 
021 -84 -77 053 070 013 -101 051 015 000 113 -24 -88 -122 042 -67 -105 119 -16 110 057 -96 -70 000 -37 107 023 -86 -89 090 057 013 000 -117 -95 -80 091 004 -03 066 047 -66 058 057 096 052 115 -103 009 -09 044 -26 -102 -22 -69 -96 -104 -112 -80 024 -68 075 115 -59 
-51 110 -119 000 -65 -72 -44 019 -52 033 045 -31 -91 -116 -36 -15 030 -10 017 -61 052 -94 -54 -62 003 -93 028 013 -111 034 054 105 -110 -124 061 104 -86 044 -127 030 -25 104 097 -44 010 075 119 007 002 047 059 110 080 113 -114 051 -48 070 083 -47 014 032 074 -77 
053 -58 -128 040 078 -111 122 108 038 047 -43 004 -72 078 029 -48 -89 -25 126 -07 017 094 009 025 002 -109 093 065 -127 035 -08 011 019 -114 037 -51 -05 044 -58 -109 050 -45 -116 118 108 -72 043 -80 098 -01 -06 024 124 118 -69 040 -107 -40 104 -16 065 113 119 077 
-110 -89 -102 117 057 -12 -92 030 034 006 041 068 115 047 124 -74 034 -77 -29 122 065 -65 -12 -93 -100 090 017 -90 -78 038 -60 045 -95 -22 -32 053 -33 -89 000 -18 -108 -09 -30 -42 038 -56 096 125 121 018 -52 086 -30 038 -123 -79 077 098 051 -69 098 055 065 -27 
056 -51 -117 -126 -119 015 114 -01 054 -81 051 013 -52 -77 096 -87 107 034 017 125 073 -34 002 -20 -111 069 030 -105 -45 -57 003 032 -15 -37 -12 037 010 101 106 099 -33 -100 -72 -116 069 042 -61 080 055 -41 -15 -108 -119 -82 -28 -02 -08 050 -34 050 075 082 -108 051 
-75 126 061 074 105 -22 042 -38 -93 -121 -27 -86 045 -33 -121 -32 007 110 102 111 035 -46 018 -05 035 005 126 -07 -113 057 024 005 -38 076 029 -83 -46 -35 025 080 026 -63 063 027 -33 103 052 -14 108 -93 004 086 070 -04 -15 -105 023 -02 -94 -25 063 100 -67 100 
-107 002 -01 018 -26 -90 037 -122 091 023 -106 074 -82 -120 -17 017 -112 022 -14 -116 122 091 -04 114 001 014 056 120 077 018 009 071 044 -16 002 065 031 026 -40 003 103 -27 -100 052 -115 070 -62 036 124 -43 -36 -57 088 006 034 -60 -84 -122 083 086 -27 -07 045 -05 
004 -89 -87 -86 093 -88 029 039 068 -05 070 -62 -78 094 076 -107 -87 -11 -119 051 091 016 -01 119 -85 -59 072 115 -55 -47 -68 -118 010 -112 -01 104 078 -78 -96 -99 016 -10 -109 076 -33 -128 052 -73 -126 042 -12 060 -31 076 009 -84 -127 -54 -18 -47 078 -52 062 -32 
-84 039 061 -110 013 069 075 104 111 -74 -48 -126 -12 -06 -120 083 101 000 -14 -91 031 008 092 -17 -74 075 014 -33 121 109 067 -03 066 012 084 -41 -58 033 112 026 -119 -107 -111 -107 061 011 -57 094 123 047 060 067 023 010 015 -65 -73 085 042 005 003 -101 -82 -88 
-84 041 063 -79 -03 -75 031 -19 090 011 055 059 041 -17 013 -85 -85 011 -35 -47 -30 -118 065 -59 104 109 -29 -82 -113 063 024 -66 102 -120 089 026 054 -43 060 -74 -112 -80 -87 -83 056 025 035 -103 -66 072 112 -51 052 072 -100 -32 -125 -11 018 034 -63 037 010 013 
-101 034 -84 -104 -67 -102 126 116 -86 -89 -103 043 028 000 -128 011 039 -114 122 005 099 112 124 050 -43 009 -99 099 -122 -95 -103 076 -48 060 -106 -21 -116 029 002 -96 092 -128 -74 -103 125 022 -86 036 -26 -107 007 094 -27 -67 018 067 048 -02 110 094 -105 034 -47 -61 
014 041 -41 036 090 016 -56 028 -38 066 012 113 -35 -32 -111 068 -123 -90 -30 115 -54 039 -93 075 079 046 -60 -69 -68 -103 -47 -38 087 -60 -23 093 -65 117 052 -74 -59 003 014 -40 064 -121 027 057 119 -116 028 022 064 -51 088 -15 -49 -87 095 -82 029 073 123 -105 
110 -13 -60 071 079 020 012 -48 119 018 -75 -53 -47 112 030 053 -48 -84 001 -59 -125 071 098 -125 -32 054 -80 061 041 051 034 011 -100 -103 034 086 -103 -19 125 -118 -35 056 -53 -40 -65 -05 050 -70 088 022 -97 076 115 006 069 070 076 023 091 -55 -88 -104 -62 015 
-111 076 -49 011 015 -28 031 077 015 -126 098 -101 -28 -57 081 107 -18 099 072 075 020 -66 005 010 033 -115 021 089 075 000 -26 -65 123 104 096 -07 -57 111 004 118 -76 004 -45 -126 -120 097 -49 -65 -86 -08 -122 -23 -67 107 112 -18 062 097 096 106 124 090 -108 -109 
-66 -105 061 -03 -122 102 -126 -59 -27 -90 -64 073 -36 -02 -58 -10 -07 -52 056 101 006 057 -08 -13 053 125 125 058 -94 078 033 -72 079 099 051 -109 -74 -69 033 -103 017 -108 -54 -73 -96 -62 -100 025 113 019 090 -119 -89 -77 100 000 -108 -27 067 -24 112 -30 034 -10 
-103 -127 070 082 077 077 -59 -43 -97 121 -125 085 -58 -57 065 -125 112 054 021 063 -125 045 125 -99 026 -54 114 114 056 -70 008 -84 -76 -118 -57 -02 118 116 -59 031 -101 -126 -68 -22 121 -22 121 060 -64 -126 -93 056 002 122 071 043 -12 -37 028 -99 097 020 -47 -10 
056 019 082 080 -43 080 -05 -122 -128 -17 -77 -25 090 -81 -113 -106 108 022 -100 -119 111 054 -80 -128 -77 007 -47 -113 068 112 013 045 -90 104 115 -39 -14 006 -66 -97 -10 -56 -117 020 117 080 -95 095 -87 -59 065 036 -75 112 121 091 -82 081 016 079 -05 -68 056 -39 
-10 -90 095 031 -77 -97 -85 084 004 -109 -50 042 -35 057 041 009 -03 -25 -58 012 084 -127 002 -97 -45 -66 058 -28 -92 -30 -43 -47 033 103 -69 -74 007 021 001 039 -50 -126 032 035 087 111 115 -102 -91 047 -99 -84 -43 069 109 069 -22 -92 047 111 -58 095 007 082 
-07 095 025 -15 -51 -111 019 -45 -58 -46 -30 117 -120 012 -98 -53 093 -36 112 005 057 -04 -84 020 -50 -56 -58 066 -72 -48 045 -23 -16 106 063 -111 -37 012 -97 113 118 -14 -21 020 -38 -37 089 -26 059 -19 -76 -42 -45 122 057 -82 -115 084 -101 -68 -96 095 -126 -102 
030 -119 077 003 058 040 -36 -62 085 -04 081 -110 003 036 -58 -114 078 056 -18 116 092 062 001 077 -53 003 002 -68 045 -128 -128 -119 -71 -31 041 -71 -87 084 -62 037 -03 067 -110 -127 -24 086 -107 016 085 069 -73 -93 -123 117 -07 -20 003 -04 -111 -72 -12 -30 -46 043 
083 -37 -112 -100 -101 071 -121 -117 096 -126 -59 -22 -58 -06 099 -110 014 022 055 -16 -97 098 -41 073 126 005 -63 063 092 -33 -102 -26 -94 -81 049 067 -69 -07 093 -76 083 -13 034 -43 -128 -41 -43 125 083 -24 -21 -106 102 001 105 044 041 022 065 081 086 025 -78 017 
038 022 000 -61 124 -48 -104 -65 -46 -26 -35 -61 -126 014 -51 -67 100 123 -111 122 -68 112 -01 111 -24 009 -96 051 124 -46 -128 082 007 -21 -112 -32 034 -86 -11 -53 085 -05 008 -30 -49 -85 -110 033 064 040 043 019 096 102 013 -59 -84 -109 -103 -20 037 027 043 -62 
081 079 048 -25 016 073 054 091 -05 -46 028 -70 005 -22 048 -54 073 058 021 -102 088 056 -119 -64 097 094 118 -22 -60 024 125 -78 056 -22 -29 035 -35 -69 -120 -29 -23 109 -64 -48 -118 053 -114 064 025 -15 059 070 -56 112 -119 026 -74 014 -99 026 019 -95 064 -71 
038 022 -107 012 076 051 -71 -56 -59 -17 -124 -113 097 062 029 -14 052 035 -69 -116 -31 107 115 -82 082 090 069 095 055 -26 -64 -127 -117 -13 060 084 -30 060 -80 113 115 -36 -18 029 -12 064 -65 -75 -08 -20 -55 -37 048 -101 -05 061 048 034 -108 -92 -107 022 017 -62 
-57 -55 -49 -63 -21 081 110 011 121 118 098 034 -105 042 -110 -99 103 102 117 033 -114 -87 -47 050 -39 061 052 027 -68 005 006 123 046 049 -62 113 012 -47 -05 090 083 051 -02 080 -63 026 058 -126 022 017 -50 -05 -40 057 -04 103 084 052 126 060 -19 058 071 -98 
066 -13 066 -101 096 040 -24 -62 007 053 124 026 -39 018 013 098 095 104 042 036 -13 105 065 008 -54 116 -95 003 -121 091 -31 -123 076 -35 -60 120 096 124 048 075 -20 044 110 054 -69 -92 -24 -25 -108 082 -47 048 057 -113 014 003 -41 099 -80 058 -101 -101 -80 -59 
091 -73 123 -92 058 087 -62 -116 -127 -61 -27 056 049 -74 080 048 -47 052 -73 060 -76 051 015 -102 -21 007 014 086 -109 071 -126 -105 061 -30 -69 023 -37 -97 -61 -54 123 081 -79 066 -36 079 -83 -27 -93 040 123 -86 087 070 106 -90 065 035 -123 012 028 010 -121 -42 
-53 -52 -13 062 -73 -122 -23 064 126 -39 090 -94 096 062 032 -27 083 045 -75 -103 081 065 -31 -85 -34 -100 092 -58 061 097 089 125 044 080 057 114 056 -09 -77 113 115 -65 -77 -119 099 014 -01 019 -72 107 -128 011 016 -10 -05 -16 024 -32 -49 -106 -08 -93 -43 -18 
078 064 090 052 081 -111 -80 -121 070 078 -96 085 -85 -128 -34 097 -26 059 047 086 084 -125 058 -92 -96 -53 -121 106 089 -125 065 091 -65 -28 044 094 014 -85 -60 -86 -68 126 003 085 074 -74 -84 077 057 -71 012 -100 021 002 -39 094 083 074 026 083 -33 -49 086 043 
-28 098 100 110 -51 -111 -77 125 109 -77 054 113 -67 -25 042 -70 -40 -69 -66 010 -70 073 019 -70 126 009 -108 -59 002 058 -48 -57 -61 095 -104 054 029 088 -82 -25 -114 032 -09 -122 -29 098 -43 058 107 116 064 -113 -94 100 -88 056 -02 -112 -32 051 -38 -26 027 008 
055 -54 109 -96 084 -09 -53 -09 -64 084 -99 024 058 -17 -58 062 -31 092 076 -79 003 014 -117 -29 113 002 -99 059 084 -114 049 122 118 -03 041 -97 046 -56 001 -74 076 -01 081 -28 051 085 100 -25 054 -104 077 -08 117 -89 -83 -123 -20 -35 -01 -53 -119 083 -59 116 
009 -40 -29 -97 049 -63 078 -111 -35 050 -112 126 -10 -38 078 -90 -94 089 -67 -84 -125 -24 101 049 086 -25 035 098 -52 -29 122 -102 -70 -110 -12 117 091 -84 -47 -80 -118 -91 -01 -09 061 024 -124 071 010 117 -50 -116 059 -04 -97 -41 -120 124 013 -128 119 -126 -51 -83 
-119 -14 -94 -85 092 045 -80 001 115 -52 -69 -79 009 -21 -117 -50 -52 003 107 -64 060 -42 121 108 -07 -98 048 -69 077 015 062 036 080 -111 -40 -104 043 022 035 125 -123 025 063 -127 068 -52 016 -32 043 110 068 032 -34 -103 -16 -72 -09 060 093 005 042 084 -20 -39 
-104 -01 -12 115 010 -116 094 116 -11 -09 113 086 -111 -95 -68 -109 000 016 -121 021 -93 -54 109 -83 -75 -39 013 026 -103 058 -34 101 -91 100 018 082 -122 -17 040 -25 024 -06 081 -52 037 -01 -63 110 053 107 033 -35 023 006 012 -66 104 122 114 037 -75 -24 066 -73 
065 014 103 106 102 096 -88 113 -20 043 -122 060 006 079 048 003 076 -37 -68 -47 -125 100 -07 -71 -87 -06 082 -70 026 -50 103 -31 112 -45 -55 -83 -16 103 -67 030 030 -84 -51 081 -102 -84 027 081 031 -90 -90 -28 049 -06 -84 -25 -87 -35 075 -46 104 -87 -113 105 
-47 113 070 117 -73 116 122 069 107 023 079 -44 -87 027 -66 -02 120 -93 015 -93 071 022 061 -90 006 095 -82 -56 -15 -104 -78 -43 038 012 082 -35 092 116 120 -85 -31 -52 -105 -84 -11 -31 016 091 -58 -101 -36 034 -118 071 -39 -93 107 014 -83 029 -118 -23 -84 -91 
-77 -86 058 -05 -76 004 -07 097 -11 -52 124 -107 084 114 -99 054 078 014 103 054 -77 051 -24 104 035 -58 -87 -61 126 -27 -63 -07 021 111 -127 061 124 -19 -38 -49 084 080 -112 -80 -39 020 049 -64 -77 067 -80 116 086 076 030 126 -81 091 -61 -103 -97 106 045 -111 
010 097 058 -75 -50 -94 -111 106 073 -42 097 -04 089 026 035 098 076 -101 -41 -08 025 -17 -11 008 085 031 099 -65 095 065 -59 108 -98 -89 080 -14 -35 037 -94 041 -05 087 -77 121 045 -102 050 -92 120 -115 -73 028 -58 089 -62 -107 -39 078 -31 -121 -87 052 113 104 
-77 051 -03 017 052 123 -47 030 -37 117 122 -120 -27 -110 043 124 -108 -94 -112 013 065 -99 -30 -96 -02 -22 -32 026 -103 -122 028 093 -96 -57 037 -109 051 012 062 -11 -85 -58 -54 024 031 -76 108 059 104 -108 090 011 -99 -62 110 047 -33 -123 -91 -44 025 -109 117 022 
081 -124 108 -103 015 -98 004 016 100 -92 035 -26 -32 007 113 037 077 -75 -80 -40 -70 -28 -58 -83 -81 -75 048 076 -86 076 048 106 044 068 064 -48 079 -10 072 034 016 044 064 -59 059 -20 084 014 -76 074 -61 -116 114 104 006 -77 086 109 035 -30 -40 -23 084 -112 
-29 -03 086 037 049 035 069 -90 015 068 019 114 -56 -03 -50 -17 -64 121 010 -26 042 078 -101 -42 -78 -07 -90 109 -87 -121 041 -118 -62 -110 117 -126 016 122 118 109 -69 052 124 -105 -55 -79 -81 -63 028 -53 083 040 -12 -67 -113 -64 -35 116 077 005 085 -61 022 -11 
098 -22 085 002 -06 104 118 -113 005 -106 -33 -42 010 070 029 -51 -52 -43 -73 -96 118 -44 -24 -66 107 077 067 -104 009 -95 118 043 -13 071 116 -49 017 -117 -69 -114 -102 047 016 -19 -16 071 -61 122 066 -20 -73 102 -110 069 -05 125 -101 036 009 051 032 -83 018 102 
-35 -80 118 047 091 043 -40 111 039 -121 -10 -09 -46 -112 071 063 -38 -48 -45 -75 081 099 029 100 -42 010 084 057 -15 -56 101 -58 -118 072 014 035 -118 -82 012 -26 074 -35 073 063 -111 -40 -81 -72 034 015 -02 -76 -20 -03 -128 028 043 046 -80 -21 023 098 -05 125 
-14 -126 102 083 040 -31 021 106 003 -55 064 -22 042 -01 -24 031 -120 -35 013 -87 -89 123 -69 -67 063 -104 -45 -87 051 -78 012 043 -31 -87 085 016 043 -83 -92 006 -43 045 -121 -107 -58 113 -52 104 094 -13 -16 -01 033 -91 -48 007 011 -91 -112 -111 046 037 -45 120 
-107 068 040 027 102 104 103 -79 -125 -29 054 107 066 106 -113 -63 -46 -11 -14 -83 -101 063 -65 066 039 -49 033 -118 -37 -77 -120 115 -10 013 041 002 119 -40 -85 072 -118 -06 -22 110 024 090 -11 -58 -19 -77 062 101 024 052 073 -13 050 -63 063 018 116 117 -35 -65 
-92 055 004 -92 -32 -74 -95 -51 -77 087 -105 055 -114 -10 -11 087 039 -49 -121 -88 015 -47 102 -89 006 010 -30 120 -110 -42 029 054 054 033 -33 -109 111 091 042 -31 025 -112 076 090 102 034 047 -104 -104 -100 048 075 -06 080 -41 -95 -35 -41 -62 041 099 075 -32 106 
096 -31 -111 -24 094 -12 -108 -32 091 -60 075 112 -122 041 006 -21 003 077 -53 110 -11 -63 099 060 -114 082 073 086 026 100 -32 126 105 009 -03 -06 -28 -02 -23 -105 105 047 -105 062 010 -29 035 060 022 093 080 -87 -37 099 018 036 -127 -39 -84 -126 -26 070 075 -29 
041 126 112 114 -54 016 040 059 111 034 110 -51 069 -32 025 -36 051 097 -16 -46 -125 -69 057 -08 032 -97 -70 040 117 -06 028 -37 097 100 032 058 -113 -101 -116 -41 -77 099 120 032 079 096 083 -27 126 095 -85 089 031 -113 046 -70 -98 -38 -73 042 039 -14 -13 -99 
000 -107 -01 -104 020 -45 -88 002 002 049 126 051 082 097 115 -44 -06 -85 053 099 065 052 -110 016 -22 115 063 065 041 -36 079 028 098 038 -77 093 010 -05 -25 013 -115 -125 -50 -75 043 111 -42 -88 113 069 -91 -109 058 -113 -62 -83 056 -22 116 -10 105 098 -43 -12 
065 -80 026 -28 -02 098 103 099 -45 058 021 -106 -43 -33 046 -19 -104 -73 074 -89 -72 084 030 122 -47 -41 030 -51 -86 -67 -77 -94 -30 -79 050 -08 -110 -81 093 -31 064 -53 -70 -100 121 -57 -109 -124 -46 -26 -124 073 -24 -06 009 -111 115 000 -64 110 108 114 017 081 
075 002 115 -17 039 066 054 -59 -121 -26 108 -100 -74 022 -15 008 -124 -102 086 -83 -12 044 059 027 021 -77 -46 069 -93 036 -60 087 -26 122 -42 092 -75 006 -111 -09 050 -83 070 079 057 -119 -71 004 -01 -85 -22 -34 079 -64 -01 -48 -57 -50 -67 -30 -85 -86 032 055 
-100 062 -26 085 -64 078 097 -08 068 -109 076 -103 066 057 -120 124 064 -73 -115 090 029 037 -32 116 -114 -37 -78 -55 057 -84 -78 -19 -31 073 062 -70 -110 -67 014 -35 -29 -113 -12 037 -107 -19 -105 -48 -41 020 -36 -11 -36 096 -14 -19 065 057 084 098 -22 066 113 113 
-100 -14 -121 038 036 -112 012 053 024 -101 -51 -121 043 -37 114 -78 -24 097 -09 053 100 089 -103 -111 -12 033 -90 -34 -109 -109 018 -43 126 -42 020 021 -115 064 069 -103 -108 014 -65 077 -124 126 -32 -125 -51 -68 -37 108 062 -58 036 098 -99 -61 057 033 077 058 -96 089 
110 112 121 116 -44 -55 -34 014 034 -124 -35 -69 -87 -52 -43 -69 059 001 069 066 093 -47 121 -85 -35 -33 009 -42 018 -107 073 102 -42 063 063 089 054 -32 083 -77 023 000 118 045 -24 -94 -106 015 117 -25 -79 060 -113 018 -83 041 -80 115 -82 -41 -43 037 -68 087 
069 089 009 077 038 029 002 -126 001 -55 -109 -58 -113 123 -75 -71 013 043 013 057 091 -01 061 -121 102 -128 049 020 120 000 040 -14 -52 -27 -47 -110 -25 -24 -31 -111 091 004 069 -51 111 -04 -68 022 097 049 103 070 120 097 077 -74 -23 -35 -19 -42 -51 004 038 -117 
092 -67 -52 -61 -88 050 -20 055 059 077 -76 001 -15 -22 110 -114 -57 109 026 035 -51 -67 -96 -36 -80 117 -124 -40 080 -27 -92 048 060 017 -122 -76 122 119 -58 017 086 -114 099 -17 080 -114 -27 005 -12 -11 121 -78 -108 114 082 -53 -01 117 056 078 -98 081 -65 -78 
044 096 -86 -28 032 104 029 014 -112 078 -38 047 -85 -52 -106 104 124 124 -122 078 -57 -56 -60 120 111 078 -75 095 -127 -10 -64 024 106 -98 082 -23 086 087 -34 -113 -20 109 009 -44 079 116 -83 -42 110 -125 022 014 041 062 040 -107 -73 -16 -33 007 -47 -70 -71 074 
077 -52 -123 078 010 -14 058 051 106 119 -112 024 059 086 -36 -71 -35 -14 126 -96 -40 -115 -70 098 096 -23 -105 -33 009 -67 -120 -69 -57 034 -48 -28 096 -114 -77 099 -109 058 -06 -100 046 -39 -109 043 -92 -31 -117 -101 023 054 -13 042 -107 -35 039 -10 -57 -109 047 090 
-46 057 -56 046 065 -107 -24 -72 073 072 -41 -112 -90 -75 013 096 -38 -79 -48 078 118 116 058 108 077 051 098 -57 -100 -89 054 -60 -21 -12 080 -46 001 -14 049 036 069 -77 -50 009 125 -100 083 060 -41 116 037 065 -71 016 -96 028 036 -68 -112 -10 -37 -41 -71 -10 
-56 -57 -79 011 -55 -114 041 023 060 -125 -48 -115 -92 010 092 071 -38 -01 -110 -50 -07 -80 -111 015 111 116 -116 108 119 -68 -17 023 -121 028 -57 -100 -116 042 072 -55 -83 -117 085 028 -28 -17 082 -92 098 029 041 042 -76 -122 047 -127 -52 093 029 -113 105 110 042 013 
019 034 -07 034 -24 -119 -22 -93 101 094 056 -46 039 -72 -19 -18 -36 -22 090 -08 023 055 102 -55 126 -32 018 015 069 -109 -50 063 092 -08 051 097 087 046 107 -72 008 -43 078 027 017 093 073 -93 029 -03 -95 083 027 -16 009 103 040 044 013 038 -04 -06 114 -115 
012 046 125 -27 037 -106 079 063 079 -123 -63 -32 072 058 042 074 -22 095 040 074 -33 102 -33 -72 -23 046 -13 -66 -64 -114 004 -100 -60 -27 -80 -28 -87 -94 -86 002 -38 -55 -04 -68 -56 076 -71 -31 066 082 115 -48 067 063 005 -17 -60 122 061 -49 -126 -106 005 -110 
013 065 -33 -32 -67 061 116 041 -35 022 -104 038 -27 002 096 -52 -86 085 -114 026 100 063 047 -73 -109 030 002 -23 -50 068 -40 -108 108 -03 -109 093 -92 -73 -07 060 059 117 -29 -42 115 -53 -19 -88 -82 122 034 -84 -13 -82 -26 -71 079 028 099 047 037 074 -83 -108 
017 -67 080 105 -51 076 -21 -29 093 -45 114 -112 089 -79 -57 -51 010 -39 009 063 042 -52 113 095 100 -100 -113 091 056 -65 -127 -85 -44 -111 -17 -51 028 040 -25 080 -39 -128 032 073 079 -38 115 072 -03 -14 -104 -51 081 -123 -56 -116 -111 -11 078 -72 022 043 090 -04 
024 -24 -04 047 011 065 -10 049 079 109 045 -39 -103 037 -27 -69 000 -76 010 111 081 -36 075 080 054 -24 -104 -64 -23 -86 -70 039 092 078 -10 -109 058 123 -54 -128 013 -101 -33 -78 103 072 008 -18 -124 -11 -124 -103 -15 120 027 047 -113 093 090 -41 085 078 -10 031 
115 -125 -49 -100 001 -95 -06 095 121 031 031 -123 -66 -25 061 020 -52 008 112 -32 064 004 -52 -80 -45 102 -49 -110 004 118 102 012 093 -73 -89 -47 019 -33 -81 018 -57 -65 -57 020 -119 -128 053 -32 001 039 058 -113 089 -90 071 -01 081 053 -33 -96 088 029 -10 -92 
-89 -120 -32 -45 057 -73 098 -70 031 -16 072 -46 -01 121 -76 018 -104 -20 -18 124 -51 -57 -06 -29 028 082 -67 -27 -13 -91 -115 047 -108 -84 081 065 -74 107 -44 103 089 118 040 064 -09 035 -64 -108 -118 -12 053 -26 -72 -26 119 105 -45 -10 080 105 076 080 057 024 
065 -127 -06 009 -19 057 -99 -05 -127 019 -122 -34 013 -26 067 -110 -26 037 -112 059 009 124 -116 -51 092 -07 -66 -66 -127 105 125 -28 -91 -77 -13 111 -28 -27 -64 -75 -79 013 -45 105 079 -116 015 021 -89 -01 011 081 -06 -57 039 093 -75 -34 -09 041 026 -107 -12 120 
-89 -09 012 -54 -09 041 -101 -79 092 -123 021 -63 -39 043 -85 083 063 -80 111 -50 -55 015 -93 018 104 -31 -111 -60 -29 -02 -120 -86 -62 120 039 031 112 111 -110 -45 -35 070 004 045 097 113 -128 -82 -78 -23 085 -18 052 119 -72 -43 103 111 051 -48 -128 085 -25 -112 
089 -76 086 017 -25 110 -109 070 -43 003 106 023 -59 078 084 -105 -93 -65 -115 -62 000 123 -09 -119 -15 120 059 -41 -111 -03 -81 121 -125 -49 112 103 -101 026 -45 -125 -105 092 -67 -74 075 -89 031 119 -01 -31 119 117 -47 -86 041 -16 104 108 -81 -107 -73 -44 -56 -91 
003 000 089 -126 053 -89 007 -46 -49 123 -03 057 073 085 -19 071 -110 -80 082 -91 -88 -50 -123 -113 006 063 -120 056 103 096 -17 122 113 109 -64 -01 052 054 -121 -51 047 082 -53 115 047 -74 -101 -71 107 -29 070 -102 064 -26 -28 -108 030 -39 036 -99 -48 -56 015 100 
-18 -79 089 -85 052 006 116 -87 101 032 100 -29 040 022 -94 -100 -21 -66 -61 001 -83 -90 -58 -88 051 -13 039 -102 -14 -51 -08 077 055 035 027 -41 -22 070 -95 041 -75 118 102 043 017 084 113 015 -42 -118 -04 094 -96 035 -64 049 122 -10 053 006 068 120 049 012 
-79 064 069 -94 -61 -90 -90 067 061 097 038 -96 -47 040 -94 -73 101 -127 000 -88 -57 059 -103 -64 005 089 -94 -47 043 -122 034 028 079 -35 010 -113 094 -62 -23 -56 125 115 -71 112 095 010 014 -47 -47 072 -125 -18 -26 124 -93 -22 087 043 101 032 -41 025 -29 047 
119 085 -41 -10 -76 109 021 050 123 105 114 003 -55 077 113 058 058 -90 -106 126 -17 050 084 -22 -83 101 -80 060 -98 037 113 -117 -07 012 -114 -39 071 033 003 032 -18 106 092 -65 -22 -79 -29 -74 107 -25 117 -118 006 -12 -99 123 -76 -51 -117 -63 -85 -32 052 -75 
019 -67 -104 041 -116 -105 -86 -120 -48 103 011 106 005 -89 -101 -104 -48 -88 008 001 021 -81 083 078 112 -18 -51 091 -94 108 -87 077 046 101 -114 046 081 038 -01 -47 -15 075 -93 -85 073 092 045 -23 007 093 -121 -127 -110 -38 -65 -110 -97 101 103 -39 -18 -42 -122 -115 
062 048 -03 066 043 097 -45 -79 -102 020 -39 -56 041 125 -102 060 -52 122 019 094 -31 -56 -04 074 018 -29 008 -81 055 -115 -40 076 -113 066 087 -95 -09 105 -87 106 -76 -77 -108 026 076 125 033 000 014 007 -79 103 -85 -08 -102 066 -50 -16 -70 -125 -70 049 -74 046 
032 002 047 -69 -37 -52 022 027 019 088 -38 -81 -58 118 020 053 -78 066 -69 -76 -21 112 003 -04 021 -07 -15 -74 -39 -38 105 -109 096 -03 002 -57 060 -97 098 -76 107 -68 -95 -93 081 -45 -85 -39 037 079 002 117 -60 002 038 -22 -33 -21 117 078 -84 060 -52 -03 
024 -13 -77 -35 -22 053 -16 004 006 079 088 118 -49 052 101 -58 020 109 055 003 100 -110 026 077 049 089 -121 106 008 015 012 -99 -120 003 -60 056 -94 -12 041 -127 053 034 -102 -51 126 118 041 024 -42 -55 -67 110 -115 -79 -128 -104 070 -119 -53 029 -56 026 067 -82 
036 106 -88 -127 092 019 -82 -61 063 -116 031 -18 -114 -37 -24 089 043 113 -90 -37 092 053 -128 -70 -86 -62 058 -118 -84 -81 033 -13 -22 101 092 017 060 -123 038 018 082 -16 -26 111 -102 -64 -118 085 125 -102 064 -121 114 051 110 038 117 036 -119 -52 -41 -103 -88 -100 
119 -58 069 -21 -120 055 -02 088 -107 047 068 -120 079 -77 -65 -27 -113 066 016 036 -85 -101 049 -20 -122 076 -10 102 002 -99 096 076 071 -82 -18 084 -86 -72 -72 -14 078 -103 -72 -116 -102 -43 -125 -81 008 082 -120 -63 -26 -64 -43 121 049 -11 071 094 086 -81 -05 -81 
-111 -44 059 030 -45 -68 -56 037 078 -84 018 017 028 118 034 019 024 -101 059 052 -112 -40 -81 -59 009 078 065 073 -126 098 117 034 -110 -84 -52 056 -90 -36 085 064 -116 061 -30 105 -127 -11 072 074 -122 028 -75 041 -33 119 -42 107 -55 074 -118 -10 -93 -49 000 -124 
049 -34 014 -94 033 077 084 016 -01 043 066 -09 105 -113 101 111 -118 108 -03 003 -66 -14 -123 090 -85 -47 017 056 -55 052 -67 -49 -04 010 010 -37 008 -106 022 118 045 088 -95 020 061 121 -16 -19 -21 001 065 033 019 083 010 035 076 -91 018 098 013 126 043 077 
-121 -13 -64 009 -106 -74 -114 026 -117 -110 -121 -84 027 111 -29 -100 -47 090 056 -110 -114 048 068 -08 116 -87 -34 -38 009 097 -113 098 -42 042 060 -119 066 111 -39 -31 062 -51 021 070 022 -03 -46 -97 -02 029 063 -31 -59 -09 -37 115 -62 -112 107 -106 -95 033 094 091 
015 043 -47 052 -112 -96 -35 012 -94 -44 028 -90 -34 098 -24 005 103 038 012 085 -70 034 -18 -116 -08 001 -03 107 -77 -126 -84 020 102 -107 000 -107 013 -48 098 -78 -26 -34 -47 099 056 -24 -26 -48 -27 -36 036 -94 -103 097 -50 -63 026 -35 -62 083 124 -75 099 -103 
038 108 -12 101 -70 086 093 125 -87 079 077 063 -61 094 057 -12 027 -42 052 104 -08 -75 093 -122 -115 -61 020 090 -115 108 112 032 -31 088 106 040 048 038 045 -82 089 046 -62 013 -32 -117 061 -124 -66 -40 -36 -54 017 003 022 -104 024 -58 -124 089 -70 024 120 -36 
040 003 101 -02 -106 -17 -118 -95 053 060 009 -03 -59 -26 009 -78 -95 016 055 044 077 -117 -18 -114 -55 095 069 074 057 081 -102 066 025 -98 -114 -47 100 -30 083 069 040 078 023 -42 018 008 079 015 069 -115 -103 002 -104 067 -98 074 049 -103 062 062 010 -108 064 -65 
-65 -54 040 -01 035 -84 -15 110 114 -124 -15 075 020 070 -01 069 -18 -72 -03 112 -14 -33 033 028 076 -71 118 -35 -127 -01 007 025 107 -103 -22 -66 -108 -127 024 005 003 -01 -110 -25 103 034 052 114 -94 -109 073 -37 -115 092 004 -10 009 -29 013 -76 117 -29 063 -41 
-107 -63 058 -66 085 034 061 022 -123 -73 -103 074 124 010 -04 000 115 -105 119 -40 041 -27 124 -14 081 003 -46 -19 019 -79 043 080 070 -118 -91 -01 051 024 -122 -113 081 -106 -49 090 -122 -29 -91 020 -39 -40 000 081 -29 -86 010 -58 017 -39 114 080 054 -32 079 -09 
-63 -01 125 049 038 -35 -90 104 -12 007 021 064 081 040 -124 031 060 036 -88 -117 -117 024 118 -30 -33 012 101 -79 -39 -27 -50 102 004 -56 -50 -25 051 -41 104 110 -12 -107 047 -121 001 086 045 101 095 -71 -20 -114 -33 -43 -49 013 -100 -35 -08 -19 009 -24 091 -52 
038 -112 -89 094 -41 -59 087 -55 022 -52 -23 -54 -11 042 017 -45 075 010 -112 -121 050 070 -96 048 088 088 025 121 085 029 -90 061 006 -50 -120 119 -97 -25 037 -100 -53 -56 092 -53 009 -03 -18 -32 -63 074 -86 -39 -103 009 -124 -93 079 038 -45 108 075 -46 113 092 
008 121 -29 -06 083 -92 043 029 067 -75 108 014 -123 -28 026 -98 093 -55 -05 -60 041 -75 -38 068 -53 -88 -92 093 052 075 -76 -53 079 100 -65 039 016 -27 -29 046 039 -123 -56 012 102 013 123 032 103 -13 110 055 056 -63 118 006 092 085 014 119 -21 009 -12 053 
-120 076 087 059 032 074 113 091 013 -41 -47 086 078 027 -85 028 -114 -45 -10 -07 051 -87 -90 072 090 -87 116 -110 098 -41 -118 102 107 092 -51 101 -56 012 117 -103 -22 -09 099 -100 062 -52 028 098 070 -121 020 126 -59 105 008 073 072 -58 -102 -112 -54 033 097 066 
034 -111 007 012 074 -18 -83 013 -42 -59 -53 -102 -55 -51 -117 -10 003 -86 -88 028 -06 -71 106 -53 -41 087 -59 -49 -15 099 059 120 090 -29 -16 050 -55 -54 000 113 -70 067 -08 -14 019 -83 -09 002 051 -121 -01 018 003 -109 -44 -59 -113 -96 -18 -94 048 -37 -59 100 
-96 104 -59 041 000 090 -67 -33 -113 043 017 -126 -96 -92 043 -03 -81 103 065 -10 062 122 -44 -39 -07 120 116 028 -61 066 102 019 028 -24 062 -05 -16 -66 006 037 087 -90 -107 108 070 089 081 -13 072 -46 -122 -75 101 117 114 -30 008 026 119 -45 -21 062 -93 -98 
069 -84 000 033 070 -17 -53 095 -53 055 038 080 -30 064 100 041 052 -71 023 -49 -55 048 -37 -101 033 033 -38 010 -26 000 -18 -77 -38 -113 -117 002 -71 -37 036 -03 114 115 026 -41 126 047 114 -70 -59 -57 059 057 -63 052 004 114 -117 -06 067 -19 121 115 022 007 
-54 037 113 093 -45 -07 -61 069 107 -53 -14 -56 -70 053 044 -88 -04 037 -109 -08 011 -01 058 017 044 -48 067 016 -51 053 -02 092 093 000 048 -15 -32 -43 112 -17 046 -21 092 025 -53 -112 018 -104 107 002 087 -89 078 -38 079 -74 -97 -80 -07 110 -27 -107 009 -04 
062 102 037 -82 -125 -82 036 -09 105 -101 099 -45 016 -67 087 -39 041 -14 015 -78 -121 079 096 005 094 -90 109 071 -70 -29 -78 -66 104 020 -26 045 117 -115 -123 026 063 022 082 030 099 008 048 -99 110 069 108 -62 037 -27 -49 123 066 024 040 -74 051 -18 021 -26 
-41 095 114 087 -121 -02 090 -25 -106 003 013 015 037 -73 046 -112 -20 043 062 069 020 079 116 -24 096 -93 -43 084 -94 -75 -19 -88 025 -70 -91 018 124 -87 080 -04 -92 -26 -115 011 056 058 081 -11 -103 000 104 -101 091 110 037 066 015 005 -118 -30 005 -54 058 016 
023 100 -102 -58 -69 116 023 -119 -118 -02 -103 -49 -86 074 090 -106 -101 077 -10 -23 071 -91 094 019 092 121 077 -43 -45 -70 -47 -63 -15 110 -34 072 -97 -53 -123 -48 086 009 -24 049 035 041 097 053 046 -97 059 079 102 -66 020 065 -06 013 -82 045 -06 -20 -84 032 
-97 113 041 065 -45 -96 -77 -50 -61 037 -94 006 042 096 067 093 -114 -26 071 -83 -20 -60 109 044 -32 -94 018 064 020 012 -73 -109 084 029 045 -90 101 -54 122 078 -63 096 086 064 048 -103 042 075 049 -106 -34 -119 -67 -50 -05 -116 025 063 -93 -22 031 025 -121 020 
044 -26 -43 046 -13 033 -15 034 -67 -21 028 -43 -78 074 -68 -123 -39 126 104 -04 017 -54 -42 -115 094 071 096 039 -10 099 -114 -119 113 -109 -89 063 118 063 041 012 -83 -04 110 057 -104 089 074 057 -59 -118 017 -38 113 -24 017 -93 081 100 063 -43 -128 023 052 -19 
117 013 -93 -67 -35 006 078 -121 103 028 019 066 -60 091 125 076 -21 006 099 -73 101 062 -01 -98 -22 -49 042 -42 -118 124 -43 -87 054 098 103 -82 -04 -60 -127 107 -107 -72 -86 -111 057 -48 120 -63 -59 -09 012 123 -118 041 074 073 072 -99 117 086 084 034 -96 -19 
122 -25 124 -119 -88 -57 125 102 -100 107 028 083 058 092 -70 001 011 -100 -58 115 -91 043 034 011 087 -124 041 057 -94 -83 058 002 094 -117 005 -42 -77 -24 055 006 046 -88 009 077 -50 027 007 123 -76 039 111 -101 -87 -127 -123 095 -101 -64 018 -28 100 -32 -11 -55 
095 -124 038 075 -103 -64 -118 -112 096 -100 -47 -41 -63 -71 -20 013 -127 045 082 -42 056 024 077 -87 065 -36 -52 -97 100 090 079 -122 068 -121 -79 110 026 109 -34 082 -49 040 118 -99 -48 051 088 -101 126 -124 -19 -15 059 -06 117 070 -104 010 -52 -91 124 052 -35 -22 
-20 -03 -62 067 -32 114 076 075 -41 110 076 -48 -14 -08 068 -124 -77 001 015 030 -108 026 041 076 119 049 035 080 -98 -96 -96 089 -123 093 054 -12 -124 094 -05 -62 002 -33 -31 045 -105 082 -75 -44 -35 -81 -80 063 -83 092 092 -85 -40 008 073 035 037 073 -07 073 
052 -46 -28 124 -81 -64 -43 016 096 100 048 093 021 -07 -04 -50 -89 -92 -45 -77 045 -49 -15 114 -25 -122 096 -04 -53 081 -78 024 114 -14 -87 -66 -18 -61 -44 -04 048 121 012 -68 035 106 -52 -17 018 023 -19 -43 -36 061 -08 072 005 125 046 080 -42 -08 043 -112 
-114 008 -88 -70 005 098 -102 -85 018 085 070 -19 025 -75 -92 084 -118 -87 038 -58 -99 115 001 117 -11 006 -90 118 -08 -05 019 -83 049 -93 -32 005 120 -117 -120 058 -56 -18 065 -07 107 058 092 -85 -52 -127 -70 122 -117 073 036 -67 112 123 002 100 048 029 091 -73 
-19 123 -70 -08 -92 113 -94 005 114 030 -67 -99 -36 -56 -40 -59 109 075 -32 103 -124 005 -52 090 -86 101 096 -02 097 -68 000 -75 072 073 -71 -03 -65 -61 060 -57 -19 -23 126 -87 012 -97 031 -41 -69 110 029 -15 108 -96 096 -05 081 -44 -83 -03 108 116 092 -53 
088 -65 -92 097 067 072 041 069 089 083 -08 -65 -74 080 082 -121 109 -13 000 -112 003 077 -83 -46 056 084 061 -82 023 123 119 -95 015 033 015 093 -58 029 -02 -113 106 088 084 027 066 -16 052 053 -60 120 099 -44 059 -81 054 062 -11 -95 115 003 -62 -12 -125 -01 
-80 067 -84 -36 -85 -31 -30 -126 090 -19 005 -92 -36 061 113 -102 -65 -121 -123 -12 067 -24 054 042 076 024 -106 -81 -69 -18 126 -58 118 -51 058 064 020 -128 060 097 -110 014 041 -118 047 -06 -111 074 009 000 -52 -111 008 042 038 -13 090 112 -21 121 -21 -45 -09 -123 
-108 062 -114 057 091 -122 -83 -29 110 -67 -118 -83 -78 124 -95 101 -81 084 053 -60 -43 -87 024 025 114 007 -01 -88 068 034 007 -104 107 -09 045 110 -35 023 -19 098 -25 -15 -57 -84 -119 -41 053 -21 -125 056 -79 121 -22 -27 094 -119 -79 -127 -92 -89 092 012 -28 -10 
-84 013 056 -120 -63 -111 -11 -50 035 -16 055 -06 -117 121 -33 097 088 029 -107 -36 071 -59 -08 -35 -22 -14 -68 111 098 085 -52 -80 -100 043 024 -15 039 104 017 -36 020 -12 -36 -43 112 094 -116 -43 046 012 089 118 -04 094 -88 022 054 029 -06 009 054 059 004 -123 
-22 020 002 093 061 -74 -06 -04 -29 -109 104 001 047 -65 106 106 -07 097 -95 063 -05 069 073 021 053 -56 029 030 -15 051 -26 -86 -39 017 -64 080 062 -128 047 123 009 -85 090 120 -95 -109 075 099 044 -19 027 -101 -100 -12 004 053 -102 075 034 019 088 044 -15 054 
111 099 065 -30 102 -96 020 -100 -56 -28 -94 098 032 -76 -120 -20 104 056 -117 035 -109 -64 -87 -38 085 107 101 107 084 -41 117 -09 -09 -40 088 100 -26 109 065 108 072 104 -04 063 016 -127 001 -84 -109 047 123 031 079 020 108 -63 018 079 -88 -36 -100 -35 012 071 
122 086 -95 049 -42 069 -68 070 023 -82 -126 -84 -121 -49 -126 020 117 001 -90 063 -50 -88 077 093 -35 -14 019 -104 040 085 074 -87 010 077 094 -07 025 -33 015 -98 -43 -117 004 -10 -128 116 094 092 -53 008 -71 -45 027 102 124 -50 -26 111 -46 -118 005 075 -16 048 
037 084 -34 -07 047 040 024 -99 -25 070 -59 -25 000 -123 011 -06 017 060 -05 105 070 -53 024 -78 034 007 -87 -29 -53 075 117 -76 -20 -64 -101 053 041 076 006 -102 -03 002 -35 -18 052 -86 044 088 038 -67 -50 -33 -09 -84 -78 010 -81 044 088 125 -125 119 096 -123 
062 054 -125 080 120 032 099 119 086 -32 -30 004 -68 108 056 -16 125 003 062 047 002 104 007 010 -51 -71 099 106 030 -60 110 -02 -52 107 055 101 063 007 -49 -56 098 -07 027 -100 -12 046 111 063 -23 032 -59 -120 109 001 091 093 -61 090 -123 003 059 088 -20 -119 
124 -118 -07 -42 -102 -42 -24 043 105 -51 116 -112 -124 019 -107 032 -27 -103 022 -88 057 053 121 026 -79 108 109 -67 029 -93 -100 -104 106 -82 097 028 126 -34 -127 -76 -116 -126 123 050 -71 017 -30 117 -36 043 -58 -95 123 -121 -08 -85 -112 078 001 -11 006 -69 116 095 
034 -98 061 076 -105 -83 -101 -15 -81 -114 055 -102 -47 019 062 -91 -16 -23 -111 -20 -07 067 044 024 -121 -102 113 -127 -127 -74 104 -17 -34 -29 020 -116 -96 078 048 076 093 -62 056 065 055 069 036 060 082 -102 089 109 -94 054 -11 -93 111 -104 -119 -64 -20 075 048 -56 
-26 -12 -16 -96 -95 -29 126 119 -127 -119 -54 040 -24 -56 -80 -112 028 -39 -104 -14 -93 -119 104 -93 087 023 076 -109 009 119 -01 -126 049 -10 080 -22 080 095 -123 -105 103 033 038 058 -110 -102 -49 075 -65 -84 -22 101 016 -99 050 -26 -49 028 -22 119 073 -06 -45 055 
-04 102 -71 081 069 -46 -36 124 -27 -121 056 055 -65 037 -79 -38 -124 090 057 -69 -47 -100 -100 -94 080 084 -41 024 -38 -67 072 -01 -25 098 009 -78 -79 -04 086 -33 023 038 -127 093 061 118 -66 093 -121 037 -01 057 056 060 032 050 037 -120 029 -18 -77 060 -04 099 
113 112 -56 078 110 025 000 -10 -04 025 -112 076 -79 005 067 045 100 -98 008 -08 061 -64 -75 109 020 069 050 049 -24 106 -41 -08 -23 032 -68 -48 038 -44 013 -76 -01 -83 109 125 007 126 -09 -125 038 -73 009 073 121 073 -49 035 034 064 -36 -56 023 013 060 019 
-08 -64 003 053 082 -117 126 -128 -57 -51 100 052 -111 -108 -67 -37 -73 -31 -128 012 -80 -70 -93 -17 -97 020 120 -97 -106 -83 033 -26 024 030 061 067 -16 064 -21 -117 -23 033 -22 -12 028 047 -79 108 -69 121 030 -01 000 051 -95 106 071 111 004 013 -10 -57 -64 122 
-81 037 108 -07 -115 101 071 072 -86 -94 -11 058 -122 016 078 -106 -45 -12 003 -61 051 052 108 094 117 013 122 -122 097 -120 -04 034 -93 093 -20 -68 -87 -54 085 101 -92 -89 086 083 -88 -09 019 049 008 003 -17 002 071 077 024 069 086 064 066 -09 077 029 -27 033 
-97 106 -120 -106 043 067 080 016 047 111 006 024 065 063 -85 -100 101 002 014 034 -55 -58 056 -66 092 -23 -118 -91 095 -119 -125 008 -15 110 -19 -47 -34 -103 041 106 001 036 -77 -77 -123 042 048 096 -45 021 -121 -54 -08 -100 -49 064 098 027 -10 -17 -100 084 098 051 
107 047 -04 051 048 -56 006 -14 017 -27 -84 053 -47 072 -115 -98 069 091 063 032 -109 -39 -67 012 049 -11 -19 -113 037 -83 042 -126 -42 -32 086 116 101 109 -112 018 -84 110 028 115 -04 -33 065 -75 069 074 104 -11 -70 -38 -36 -89 -32 -109 -121 -14 -61 060 -109 -52 
067 023 -26 121 008 070 055 -103 -99 042 -18 053 -54 042 108 -33 -110 -08 007 053 006 011 -115 -84 102 106 027 055 010 027 -82 026 -108 -47 054 -121 -83 -13 076 -07 -16 -123 -57 -53 043 -49 049 -59 -60 -83 -113 097 -15 063 026 069 047 026 115 -11 126 -18 069 045 
-66 -74 -13 -07 045 049 073 -87 -97 -125 -88 038 118 046 -91 018 089 -38 066 084 123 -50 086 104 123 -103 083 013 -97 -113 072 -113 -114 040 -108 065 050 047 115 017 045 -87 -112 053 081 100 116 073 049 125 -65 114 -13 044 081 -37 -39 005 102 120 -18 076 -12 -102 
112 -121 -12 -100 -114 -67 -63 069 024 -67 116 029 043 -84 -30 -122 078 067 034 052 042 052 040 058 -97 061 068 -106 -28 005 056 -122 -77 048 -26 003 -108 069 002 084 -119 085 -78 -78 085 073 -44 108 -100 018 -22 -43 -101 -01 -33 -41 -95 010 -52 -123 123 -02 117 -108 
118 028 087 065 077 -64 -81 -23 098 089 -31 -91 095 119 101 103 -80 -84 038 -58 060 011 098 -58 -57 003 -51 039 114 112 002 017 045 -99 026 100 039 -13 107 -82 032 -32 -52 -18 -65 -28 -76 -46 -76 -86 066 -105 -123 -107 -85 100 014 -67 -127 -70 -98 -01 -55 065 
097 -07 -51 -58 -35 -107 045 -22 -33 -52 080 -67 077 124 064 114 036 -45 -78 039 -41 043 -114 -97 103 -100 -27 089 -63 032 058 017 089 -35 070 098 000 -26 056 114 006 044 -128 062 000 120 -38 058 088 -47 -68 097 092 074 000 015 050 058 031 -45 076 -114 -11 -107 
004 -64 -85 111 -72 -20 -48 -109 090 062 101 -97 071 -69 -91 054 -80 107 -32 063 -128 -47 -09 033 -128 007 -109 116 078 100 116 055 070 049 -37 098 029 101 -66 -107 -19 104 -44 093 025 061 -89 -103 103 103 -27 -105 -19 108 011 095 -125 -33 -16 099 -102 -107 036 -22 
026 -53 013 -96 031 027 045 -31 -100 -78 -68 -103 005 -54 -47 066 -35 022 -100 -04 102 109 -24 059 068 -20 -55 -48 116 -84 125 061 -115 109 118 -47 -76 016 -39 073 121 -43 -109 104 -104 097 040 -64 039 -114 -11 079 -39 066 -56 -44 -44 -78 -95 -87 056 060 029 061 
-61 062 -35 104 -75 055 -35 -58 -103 -48 -60 -56 -20 -92 030 -70 -114 -110 076 -51 -96 -33 007 -17 077 016 009 024 080 -64 061 -42 -118 051 -38 068 -47 -13 007 079 018 -108 093 -55 022 -55 059 126 -94 -08 079 -79 -76 072 027 -59 113 -118 097 094 036 -80 117 -75 
015 -93 023 065 -35 -32 054 -113 -105 075 -49 033 106 100 -20 022 -01 -71 -08 115 -102 003 -13 072 -15 106 -126 037 067 -57 -60 035 051 005 123 064 -121 044 -125 018 070 -25 -04 -102 -69 091 018 092 -72 -34 028 -09 -41 -81 077 033 081 100 008 090 -50 -87 -45 -107 
-105 093 -26 109 026 109 072 -74 102 110 -78 062 -52 075 -88 -55 105 -112 -72 -83 -84 013 -76 -80 -83 -100 122 -42 -29 022 068 023 -113 -06 -121 018 -103 -40 109 -109 014 059 -84 -92 -87 059 111 094 120 015 -115 090 -108 035 034 -34 006 039 078 044 -109 123 010 -82 
-29 -14 -94 -82 034 069 038 079 010 -82 036 -115 -119 099 -34 025 -85 -122 093 073 098 -77 004 -115 -13 -96 098 -110 070 014 -16 -102 039 035 -26 121 -110 104 054 057 -60 -51 100 -80 -04 -60 122 084 -126 117 023 -01 064 064 095 007 014 -85 053 072 042 053 -31 001 
048 068 -26 101 -25 -21 -43 055 037 003 -55 113 -18 -68 008 -103 083 -01 100 -23 035 114 -63 061 014 014 044 045 -79 109 046 -79 -74 028 -19 -14 010 -109 -72 -45 082 -40 083 -74 063 -49 026 100 120 -16 005 000 008 -93 -38 -11 -12 071 -17 072 042 024 -45 038 
-47 -106 -33 003 -48 -11 015 -73 -99 -23 087 -59 038 -93 -24 -19 -18 -07 008 -81 008 -80 -86 103 -68 -112 076 125 -66 026 -27 -10 -20 -10 -61 104 -02 -52 062 -68 124 111 -21 013 105 097 084 051 -49 005 -94 -17 -75 097 -66 005 047 092 011 -03 -101 -15 078 070 
-110 -42 118 -38 076 098 -65 021 043 023 036 111 -66 007 -22 -67 082 -22 -39 085 -106 -108 059 025 -64 -13 -53 -64 -33 -88 006 051 061 -126 022 098 -09 -58 095 -46 087 099 028 -104 016 -17 -80 -109 -59 075 046 022 -43 -122 -87 013 107 -38 004 047 073 -38 110 105 
-73 -27 046 -62 082 018 -101 036 -83 045 -128 -15 -86 -33 -78 -83 -10 106 064 078 040 090 -25 -03 -13 077 084 071 065 -15 072 -99 -75 062 -80 003 069 087 -60 -17 073 -60 -12 025 -106 023 058 -115 022 -92 028 -16 096 055 014 005 -78 116 012 003 -81 005 -123 013 
055 108 104 013 007 026 -34 071 012 -68 113 030 -59 105 -107 -48 -77 -80 -94 -30 -103 078 -84 -05 113 -96 -49 061 -77 -12 104 022 114 -113 098 114 063 034 023 062 -114 -33 080 095 -38 -47 089 056 -105 -45 -29 -23 -119 015 112 -24 112 043 -07 064 065 -115 051 097 
-128 043 012 -64 -21 -41 096 -07 -47 -63 072 099 -17 073 -65 -73 -47 001 076 088 -111 -117 -41 -67 -113 035 000 106 -89 -94 -12 120 -125 089 -24 102 002 051 004 -04 071 116 -14 -05 -75 -26 -89 -80 033 -23 -48 -13 -30 022 066 013 117 -58 087 -117 -07 -58 -09 -46 
023 -118 -47 -68 009 -46 -02 -22 -90 095 098 052 109 056 005 -106 018 -92 -31 105 047 -94 -33 043 -17 -68 064 -98 059 095 052 -126 015 001 106 023 -15 011 063 081 -42 003 -32 116 -98 -71 -76 124 -21 017 083 014 -79 -20 -15 -53 124 086 -122 -108 -02 083 006 -32 
-62 -102 011 029 -43 064 -115 -59 121 126 043 095 097 023 -99 088 -123 -51 041 -17 -28 -71 059 -54 104 -05 085 068 111 016 -99 077 079 -111 071 021 120 015 081 062 -04 -03 -117 -46 -121 017 068 -01 -15 042 -60 010 -112 021 079 -19 -61 101 063 091 066 120 090 -78 
-123 -96 126 -79 -29 -23 107 089 122 -17 057 034 103 118 094 -53 043 093 090 -31 110 -02 047 -66 -32 086 107 006 004 -85 012 117 -76 -06 -36 110 045 -38 004 088 -60 068 084 -126 -64 -46 040 -01 -02 090 081 064 084 -06 -126 001 -74 094 -25 -68 -71 -69 001 003 
035 034 -39 -18 048 030 -33 006 041 033 -29 013 -68 010 -101 084 -29 116 -80 119 -94 -31 107 016 091 049 -120 -102 006 -67 053 -116 -09 036 -55 -71 -17 -54 102 -65 -51 070 080 069 065 095 -20 083 -52 -67 063 -125 001 -03 058 027 -10 065 -34 -128 007 096 067 -65 
-10 034 -96 049 058 -62 -48 -02 -112 121 034 049 -15 001 -48 -20 -55 075 082 085 065 -18 068 -97 023 056 -105 -62 -58 119 007 -64 094 -118 026 089 003 -76 024 -08 017 019 -72 108 -47 054 110 -22 062 040 -51 043 120 -69 103 038 -107 033 122 -69 -106 -51 -100 -04 
-01 -90 -103 -100 022 078 102 047 117 -52 022 067 096 -56 -72 083 033 034 017 -102 012 067 -06 -18 -74 026 030 -38 -74 -40 052 -35 -36 -97 004 -115 022 044 035 105 -52 033 -119 067 -61 -73 -96 -86 -36 -21 -54 -125 111 -14 022 -115 067 076 -23 057 011 078 110 061 
-66 068 -117 -59 -96 126 094 047 -10 019 -45 121 -10 -114 -106 -81 034 -97 077 -117 031 -59 -55 031 049 095 -48 010 -85 -42 -128 016 -100 -80 -16 108 083 -39 033 062 008 -74 -65 104 037 -118 -101 -14 042 106 064 089 045 048 076 002 -107 037 -11 -117 077 -128 -67 -75 
-61 -15 109 114 -124 -53 -80 032 112 070 033 -30 -84 013 080 -07 -113 033 -62 -76 059 056 -100 118 118 126 -120 111 066 -111 -27 109 -06 120 -108 066 012 086 -115 023 059 -109 -55 068 -107 -29 070 -59 -125 012 107 -60 074 117 017 -118 120 -47 048 001 -100 019 -126 -45 
-81 -49 004 093 -08 -19 110 003 -54 010 -55 085 -29 -127 031 080 -16 043 126 012 -56 -93 -46 105 -07 -27 -44 -104 -120 -28 -69 097 091 -30 069 -110 104 -74 078 092 -113 -57 064 050 083 046 034 -120 -114 110 030 -25 015 016 -15 -23 -32 -57 061 038 -28 -123 067 -58 
-114 092 -42 -59 -10 -114 050 -23 -76 -103 -72 -128 -72 026 022 117 093 036 024 -96 030 004 097 033 -29 043 -92 027 -126 029 106 -99 -85 098 -29 032 000 -15 -57 083 039 061 123 -52 000 113 -108 -115 -06 -113 -113 030 059 045 -64 114 -31 -51 -38 -41 060 060 059 051 
113 053 -33 -70 -54 120 027 -123 -80 029 -122 -118 -22 045 -95 -33 -09 -52 021 -23 -93 -30 -79 083 092 043 -99 -68 099 -56 037 -36 -19 -04 -60 086 -16 064 -102 115 -112 -51 055 -57 076 050 -76 -93 -92 -97 110 -14 -27 012 -04 -106 -118 -116 -15 124 118 059 112 115 
107 024 -63 -18 -68 078 073 -123 -05 -34 048 -50 -76 118 -100 009 119 -117 -92 -102 051 -45 -44 -36 037 -13 -75 -70 081 053 043 104 -16 089 -53 -84 041 044 112 -62 -128 088 -23 099 099 055 095 -35 -119 -86 -127 -37 014 -07 035 -96 010 064 -09 -85 -100 -80 -79 109 
-30 -122 -110 072 -18 -118 118 058 -07 -30 -74 100 031 -48 -39 -18 -101 027 -18 -74 119 017 101 115 023 -110 -76 -70 -34 096 -120 026 -79 -104 017 -91 084 -86 080 029 -14 053 061 -112 029 -78 -80 045 097 -108 -71 045 103 038 -84 096 -36 -09 -74 074 -101 064 124 072 
-79 093 -112 120 007 -52 001 064 056 091 -98 -23 -30 -125 101 -75 -34 001 -32 042 026 116 024 072 062 -48 042 087 -13 076 014 061 -52 -67 -101 074 -50 055 -114 -51 025 -40 107 003 -84 013 -58 -68 -96 -58 097 -102 097 -128 026 095 -29 -83 019 073 126 121 053 -62 
-120 -97 075 100 -54 -89 113 006 -34 -124 067 -96 096 -55 -81 -86 083 -35 002 120 -39 -70 037 -29 -70 -109 -65 097 103 041 102 075 -05 015 078 093 -73 -111 097 102 -10 -30 089 -73 -125 -64 119 005 074 007 -99 -35 102 030 -126 -33 015 088 074 039 -33 -128 036 091 
-81 096 003 -93 -54 -103 -38 -63 112 -56 026 058 -97 -48 010 -18 065 105 -83 072 -128 028 -75 071 063 094 120 -47 093 060 -124 -02 -90 104 046 021 032 -68 065 083 119 -126 062 -46 -19 -83 109 064 042 -61 -55 -54 -17 007 -97 -74 051 082 -16 047 -97 119 -95 022 
-49 097 112 022 024 -102 -108 046 032 -58 -19 -38 062 -18 -118 105 116 123 -02 -87 109 -53 104 010 028 031 -76 -70 -13 018 -60 -62 109 088 099 050 038 065 060 -54 091 068 026 080 -87 -77 003 073 -87 -98 -74 124 -78 005 -31 002 045 -28 052 -39 076 -43 -32 088 
-55 -100 -35 -40 053 -40 001 -01 123 027 024 032 -68 118 -43 -03 -123 -90 -123 -127 050 -113 100 -107 125 -37 -29 077 -103 -122 067 -89 062 077 -24 070 -45 -85 098 036 023 073 017 075 -128 -75 -116 111 036 122 -81 -76 059 015 -66 113 -65 -104 -67 -33 088 116 -92 065 
011 022 110 026 -23 088 113 111 -10 -96 120 030 -29 -46 020 115 003 022 011 000 -110 -19 105 015 -59 -113 -14 -88 -128 -115 040 067 105 114 040 101 -100 -11 -01 005 102 039 -01 -108 -05 -68 104 039 072 084 040 -96 071 067 079 069 -119 -75 020 102 042 -57 018 -27 
020 -79 058 -91 -95 -100 015 092 059 118 -110 -92 -128 -114 -101 -41 031 006 119 -120 009 065 -92 027 026 -38 -77 022 -75 -10 006 -19 -66 011 028 -67 -51 -42 120 057 -90 -56 -01 123 037 101 -77 046 044 -84 086 020 -79 -127 -123 033 123 -111 -19 046 062 -12 -40 -41 
-69 036 082 106 116 -37 123 083 050 -17 -88 016 -12 085 -95 -111 026 -18 -03 091 004 057 016 -07 058 -56 -126 015 -99 -60 -68 -90 -101 007 -18 103 004 -25 -08 -25 -116 098 072 -10 072 -80 -111 -84 -89 -101 -77 -99 015 -97 -10 056 027 -21 -87 078 066 -127 -22 075 
-91 038 119 -99 -72 -89 -30 -49 -71 -16 -53 041 -109 024 -13 -73 -32 -67 115 056 -121 -12 065 045 -51 030 -11 -75 092 -50 -27 -111 -45 -85 -50 -57 -74 064 039 -05 -111 066 -77 -61 -36 -11 -91 074 059 069 059 -06 -73 032 122 116 -53 -85 010 -51 -02 -127 004 -94 
110 -23 -97 066 -94 091 -66 -26 000 -35 -104 019 -01 054 -03 048 -51 -118 -116 -52 124 -67 -14 058 089 -76 -59 095 073 017 -29 124 101 -54 -53 -66 090 -12 -103 -128 028 070 067 056 -23 123 -78 -34 -44 107 107 099 -90 040 -30 -128 -69 044 -45 039 -110 -64 -60 103 
035 086 -72 070 -05 099 080 114 -62 086 -52 -55 -86 -61 080 -60 -126 024 027 -70 -19 -50 056 073 103 047 041 044 -52 -98 -27 068 117 029 -32 086 -80 019 -61 095 051 -68 084 -40 -84 021 023 -126 081 -126 -96 113 001 091 019 -44 108 031 -70 -117 -37 124 093 -120 
089 000 -72 -92 007 081 -26 -60 -48 074 120 -56 -24 -72 085 -46 -33 -50 006 041 076 014 -05 106 -40 078 110 -108 -22 -02 044 099 087 -126 055 -93 036 089 125 -124 -114 040 030 -86 066 032 -118 039 069 -108 -95 -126 073 -37 -63 014 -50 -64 072 068 -14 054 031 095 
072 -91 -127 -126 -106 067 -39 090 091 051 018 -106 120 -117 005 -118 059 -74 025 079 056 031 061 -119 -68 -86 125 044 -16 -75 090 091 116 -65 102 057 073 -62 -119 075 022 016 003 012 089 -105 046 019 040 -13 086 -65 -112 031 -90 -10 085 042 -114 101 -32 060 030 -14 
053 104 002 038 -15 -102 038 -93 -48 116 -13 034 -03 005 104 060 089 -46 -27 018 095 031 084 107 -69 -75 057 -95 -02 -05 -24 -96 -119 -22 -108 102 090 063 101 096 -21 083 -52 -109 092 -110 105 046 -05 -112 088 099 126 010 -21 -49 042 008 -56 -88 008 -86 -26 -11 
-97 005 -64 093 115 -116 -107 100 -03 -105 -54 075 -06 -23 -79 096 -46 -16 -87 -95 -86 -13 -94 -78 -64 -126 -117 078 -108 046 -127 -07 031 094 -102 102 111 -70 105 -79 117 -01 114 -61 024 -99 -81 063 -53 046 060 025 -06 -90 056 -39 -102 054 062 113 061 -106 -97 -81 
-126 002 125 065 057 064 -18 -39 026 -103 029 -109 -92 055 105 053 -81 067 111 029 -26 121 -22 -101 051 007 034 -63 101 -104 005 -104 -104 -101 090 -103 -68 -121 -79 049 -02 054 008 -20 -37 -91 -72 -102 113 -02 087 060 -17 -76 -69 026 089 -02 -38 -77 001 071 -64 065 
-77 000 -79 043 024 -50 096 -33 045 034 098 -27 125 -57 124 125 -57 -66 088 -112 -27 011 -93 -20 079 047 080 019 -53 -110 -05 040 -36 091 069 -05 019 067 033 116 096 -36 095 -103 014 075 -99 -42 -57 -106 125 -113 119 059 -19 -47 -118 -86 -114 050 -25 125 072 069 
-54 087 040 -68 -57 104 -80 -03 029 -64 064 -30 062 -14 -122 087 -117 -99 039 -21 020 061 120 -88 -48 074 -50 052 -116 -56 -96 -71 106 -62 038 -18 -15 -65 -29 022 -20 114 074 -98 007 -52 -128 -34 -15 -29 092 010 -43 -10 -56 041 013 099 -114 -119 032 -66 -34 -15 
020 -23 -29 -76 076 -57 -99 -05 -54 055 -11 014 -111 -67 -122 051 114 -31 -38 121 -80 054 -99 -72 -125 -128 011 -53 069 -64 -109 123 -72 057 -30 004 038 122 100 087 002 -71 -113 105 025 000 -62 045 -71 017 -109 -104 122 126 -126 -72 085 111 -123 -48 059 -13 102 093 
059 082 -90 041 066 111 -88 -111 015 -41 -125 -08 -11 -85 -99 030 -118 -115 035 -56 -58 108 075 093 -58 084 -77 086 -43 -10 -08 -50 -41 -98 -40 035 092 015 126 -126 031 108 052 -05 094 -112 086 111 120 -05 -124 -120 077 003 -06 -73 107 -56 -24 105 105 -52 -29 096 
-126 -126 -24 -78 -66 -102 -13 013 108 035 -24 -02 044 116 004 125 -123 -123 125 -122 -60 -18 109 111 -38 -62 -80 025 002 -11 040 -119 -09 -18 028 028 074 067 -53 105 -97 108 -26 120 -124 -110 -18 -122 -103 028 -17 108 -17 -56 -68 080 099 089 123 -113 -89 008 096 -37 
-64 034 118 -111 -57 -07 -122 -23 027 -120 -15 -58 091 008 085 -40 -101 -07 -55 125 -54 020 019 066 068 -53 -111 085 057 -20 -08 028 070 100 -45 -77 014 -24 081 -09 064 025 017 088 086 019 -103 124 090 104 031 058 -05 -81 -43 -75 -10 125 036 -111 119 -67 -68 029 
089 -29 -128 047 109 117 -54 -52 -121 113 072 084 -08 051 -30 -60 108 -100 049 025 -126 -53 -36 -12 -69 077 052 -02 073 063 -70 -101 017 -66 070 -60 120 -97 -51 002 065 036 120 -85 -120 -76 108 -72 000 -38 112 -35 014 020 -90 078 014 -97 -117 025 -36 067 107 -72 
-114 -03 124 -117 077 -106 073 109 -80 017 095 069 -84 -46 -33 -93 090 056 -65 -14 -99 047 081 063 061 -44 -38 -110 -59 098 -90 078 -93 -106 103 115 111 029 -71 042 -109 108 023 -112 -123 -63 -124 079 094 053 028 122 -04 -13 062 -112 095 036 -39 044 030 -125 076 019 
-79 086 110 066 -45 -40 028 -21 -30 107 -119 121 -123 -73 053 008 -70 109 -28 -84 -118 113 -109 063 -76 067 -61 -36 116 091 -46 005 -20 080 -103 119 -57 -87 -123 -96 -95 -96 092 101 -55 002 034 100 123 119 057 -43 056 078 -118 -104 -116 046 -37 -28 -55 003 -31 -01 
053 -04 -112 -55 116 -93 -123 120 -104 -110 -21 -18 108 050 -73 028 012 -67 -82 066 078 107 114 -20 072 110 028 -82 -112 -53 116 023 -75 -42 012 -20 -47 -108 093 017 -59 -24 -55 -96 -116 093 052 -22 -43 -09 004 092 -95 035 049 -06 038 -15 -91 -101 035 -09 088 028 
074 -77 -26 094 -119 022 -69 046 059 -87 -02 -123 -16 037 -112 -26 -43 070 -56 -45 034 -75 026 -85 -73 -90 113 -100 120 059 -32 -45 126 049 -23 016 066 -04 015 -60 -99 093 101 -36 -102 061 077 -45 -97 -21 002 -03 -41 -119 -12 015 -21 079 -49 -57 -52 -28 059 -19 
-14 -119 -57 -30 -18 031 082 -31 -15 -59 045 -57 -66 -49 053 -81 081 025 115 024 124 005 -104 081 -118 118 114 078 -44 -127 -01 101 121 -117 104 084 033 029 001 -104 097 -95 -81 086 043 -128 -120 003 -73 056 057 120 -22 052 -20 -57 -96 045 -63 022 -32 -111 001 034 
-82 087 -03 112 038 -84 033 -94 016 064 040 -79 -93 058 005 -72 -26 039 005 022 000 -108 069 -73 023 013 055 -55 -94 004 113 -17 013 041 001 -57 041 121 -04 -122 103 115 -59 -71 -89 -07 -92 -90 -86 -75 -21 125 -83 114 -08 -27 -81 -116 032 -125 068 057 031 -90 
-16 -61 019 -17 090 016 -46 075 -34 -101 -08 076 -05 091 070 065 065 001 -35 061 021 -78 -70 120 -120 119 -120 023 070 073 -113 -124 099 041 092 -93 -81 017 -87 -75 048 083 -46 -128 093 080 -46 002 -15 012 -07 117 123 052 069 040 093 079 093 -99 -111 -86 -78 -03 
-47 105 080 012 -100 -87 109 -87 102 -75 060 -118 065 -26 -41 123 049 026 090 056 096 100 098 085 117 044 -50 -64 -75 -31 023 -16 -53 -19 050 -120 101 -60 -01 017 -73 -56 -82 124 008 -34 073 031 -44 017 -121 -28 065 108 -109 124 073 110 082 -32 122 -17 004 048 
-79 -59 -113 -112 -105 002 -15 -41 -16 -114 096 -97 -52 -120 -59 120 004 098 109 -17 -85 056 -42 097 -125 092 109 019 122 053 -66 014 -42 047 003 -35 042 -33 126 084 -115 -98 -90 -77 -73 -03 102 113 -106 010 -04 122 016 -110 108 -21 -102 036 024 020 -64 018 -58 -79 
116 -50 088 -36 021 -76 -08 110 -47 034 -98 088 126 009 -105 -104 -30 -49 110 066 010 -47 -125 -90 067 -04 -81 -33 -110 -118 097 -04 012 -106 031 010 -119 085 114 115 -112 035 -74 001 043 082 118 059 -101 092 041 -121 -83 116 117 068 038 -70 -62 -102 083 -33 -81 -53 
001 037 042 -70 -98 090 022 076 -106 -102 092 092 044 010 -06 073 081 051 093 -103 088 014 -74 118 -19 041 -65 114 -91 -72 -124 090 011 089 079 -58 -48 -90 062 -51 088 101 041 -11 -73 018 079 099 094 -116 056 095 -43 -85 -27 -63 072 040 061 103 -54 -113 031 077 
-114 033 085 -68 -123 -08 068 -73 -76 -88 -103 040 -80 012 112 007 -24 -79 -17 105 107 027 081 -96 -59 -02 116 069 023 077 -52 096 004 103 118 034 -11 -48 -66 067 -54 007 087 -106 -16 -70 011 059 -41 103 118 -50 -17 -105 -10 029 047 097 125 052 009 -47 014 -124 
-44 -115 105 -73 058 -98 001 063 020 087 015 123 047 -112 069 -88 -48 047 -93 -65 -24 -18 -45 -100 -04 -24 -75 092 039 -02 -42 -39 031 -46 -124 -72 119 -50 -35 -45 -78 033 040 089 092 034 -13 034 -29 105 -66 112 081 039 096 -27 115 -12 -29 -77 051 -96 030 -120 
-57 037 074 024 001 -64 120 -46 -03 081 098 -121 033 -17 -75 -120 -65 010 -102 084 -39 -36 016 -122 102 086 -79 -09 -69 031 083 018 -49 -24 049 120 -81 072 001 015 022 -25 -52 -47 -32 -105 121 011 -24 -14 -17 -77 102 031 047 -84 001 045 -83 110 027 -73 013 -109 
037 057 101 -11 100 035 117 -46 -19 -51 042 071 -04 -48 -76 068 -92 067 -96 105 -34 055 028 074 -13 -47 066 -77 -18 -38 030 -106 -80 099 001 -77 -45 104 -121 125 027 072 -49 092 086 -105 104 -45 -121 -59 -72 027 -51 -33 -84 005 -31 118 013 -71 077 -75 -04 049 
002 000 000 -54 -99 083 090 078 071 -79 084 008 123 013 -23 106 014 113 -41 -12 -71 -109 071 030 065 -56 045 062 -105 125 093 029 070 -127 110 114 026 -114 040 -09 001 -37 064 -08 -37 009 117 -37 -20 -25 079 034 022 046 046 074 029 011 -119 112 -37 -111 049 086 
074 -10 056 072 -14 091 -55 -36 -41 078 126 120 040 -52 -39 -01 063 061 -121 120 -13 -74 -70 088 065 -24 120 115 030 -34 029 -69 098 -112 093 -83 093 -69 -126 -82 110 066 058 -63 069 093 067 078 120 -122 105 -80 -22 083 113 002 053 -57 -19 -99 049 -75 007 113 
085 035 085 100 -96 065 -102 -98 -29 -20 -90 -95 075 092 019 -03 085 043 000 011 005 034 068 -109 -91 092 -119 -127 -15 042 -89 081 -19 027 041 -30 -80 -11 009 099 030 -114 -90 -77 086 -28 032 -55 074 -01 051 065 -94 -51 118 -116 101 -108 -89 -41 -105 048 -25 042 
077 -38 030 043 -14 -06 -106 -104 -95 091 -88 025 082 099 007 -45 120 030 -30 -27 -34 -02 -24 -105 -21 057 050 -63 -29 -30 -48 100 -89 -117 007 092 -84 014 115 -121 030 074 -58 087 -127 -08 -43 094 -61 075 -70 -84 100 -14 024 059 -30 017 -16 -62 -63 -55 009 116 
007 -14 -07 110 062 -58 076 030 063 067 107 110 083 017 101 -76 -109 093 005 045 -13 -110 058 057 -48 -72 -38 083 051 -70 -15 079 044 036 -116 -118 -111 003 -47 -09 030 098 -05 062 -75 -67 -28 -93 -71 061 061 082 091 054 023 -111 042 -66 -09 101 -20 038 098 109 
-65 116 -76 -60 -12 122 049 -112 -68 001 047 087 092 -28 067 125 -29 021 095 070 -06 -04 044 103 009 058 -78 118 -67 -89 090 093 061 -12 -99 -62 078 011 -10 032 -113 098 017 -65 067 -18 -29 006 085 -73 -24 -39 115 063 114 -97 -19 -38 038 066 -48 -53 051 -58 
-123 097 -82 086 009 -107 075 068 -70 035 -104 -57 -65 -05 048 -112 015 -56 -114 086 -49 -89 -120 039 -04 076 087 -58 125 089 049 -95 068 007 011 -104 070 -100 070 002 048 032 -65 -74 038 056 000 047 113 077 053 -10 015 085 -95 024 074 -127 -73 006 088 -33 000 079 
093 102 074 -19 050 -28 -58 -64 -14 -53 079 030 078 -34 -118 008 -50 006 069 074 040 111 -123 -85 057 -123 -96 122 -49 045 021 -27 -04 -124 067 -19 -119 100 003 -24 -100 -85 051 -95 -04 074 104 -92 -77 089 042 117 -68 040 -01 125 114 -101 015 119 -52 099 091 -34 
088 008 046 -78 -42 001 -30 -120 052 -61 -62 079 -122 000 117 -59 070 -112 096 060 -03 -110 -34 026 085 -112 -94 053 -103 -54 001 -127 059 -87 -15 027 -27 -117 -16 043 052 062 093 -77 -94 -92 097 010 058 -55 108 -78 030 -20 090 124 -127 087 074 -80 120 -125 -127 113 
-40 -73 008 -56 -82 -69 122 -58 040 073 042 -96 -66 075 092 014 -88 106 097 -29 -109 053 -72 -97 092 -79 -122 033 -83 049 -46 -79 077 -49 -80 084 042 -13 -59 -57 -62 057 017 116 056 -39 -38 071 124 032 000 099 -08 -30 -22 120 -85 077 -78 -126 115 119 -60 105 
119 085 110 -109 024 093 -12 -36 -46 -79 -102 -79 -77 098 -123 002 095 -105 046 -70 -75 044 012 -78 083 039 118 -63 -110 073 075 -05 121 031 -26 -93 -71 -98 -89 103 071 -83 105 -08 116 -17 076 -37 -66 117 -94 040 -68 -120 064 -93 -89 -73 -111 -88 -91 -81 -52 -64 
036 -37 115 105 -69 -94 012 -46 075 054 047 120 109 051 -97 105 087 -29 -93 -27 -75 -23 -32 088 -77 -126 -65 -59 117 -119 -75 061 000 -49 -117 054 -128 -112 111 022 032 -23 -94 122 -93 -103 116 042 059 061 -71 -32 -57 056 -78 -31 001 024 102 000 -112 -68 014 036 
089 074 -115 085 005 082 -99 009 -43 093 -93 018 -84 -98 -119 -54 020 084 033 068 034 072 -30 -54 031 -66 -77 -79 112 030 -14 043 -54 -109 -79 -83 030 067 -48 099 -46 015 013 050 -128 008 064 119 -119 -60 059 070 002 022 -22 100 -38 096 -53 099 -43 -61 045 -125 
030 -27 -67 -103 024 015 117 070 001 -08 -70 095 -90 073 -36 -77 -118 008 -37 021 013 -05 084 -63 -93 -80 017 -62 097 095 -117 119 016 -72 122 116 -58 075 -122 029 112 070 101 -11 094 016 -22 089 -89 -10 -83 107 -35 -29 000 114 -126 -36 -111 -38 015 -82 -62 088 
097 099 -90 066 -100 -100 -37 -33 -15 105 -72 -23 053 -17 -39 078 -26 117 -82 -57 114 -14 103 038 -112 107 -38 037 030 -93 054 117 -50 038 049 -65 097 -06 -17 055 123 023 077 -41 055 -111 -17 -04 -71 -17 -117 092 -75 036 103 -15 -36 -11 059 -102 -32 -65 004 -38 
-96 -51 -47 -34 -125 -34 050 104 061 015 066 046 -01 019 016 072 110 -26 -12 054 113 -06 041 -86 -85 097 054 -63 090 -118 018 086 -14 -35 067 020 092 -80 -29 068 -104 105 -30 052 -40 124 -33 -25 028 -87 -26 092 125 031 079 053 072 075 -99 009 -68 062 049 -21 
046 029 -82 079 082 029 034 008 001 076 -01 -96 019 -40 -14 046 013 -124 -07 -107 -32 018 -72 092 -67 -55 -60 -61 045 -09 -10 -49 -22 017 -17 -03 -100 -111 068 -18 -77 -75 -128 028 -126 -40 009 -23 -76 -116 025 038 -120 -35 062 079 -25 -31 056 -49 092 -21 -66 052 
024 -66 107 -22 029 014 058 -111 -55 055 092 -47 -99 089 050 108 -120 -49 -87 046 035 073 060 -101 -119 012 113 -14 -41 -107 001 -117 111 -123 -12 063 087 104 -38 -02 -126 -99 101 078 -56 -88 056 -36 003 123 116 001 -87 080 047 -41 008 -36 -124 009 -76 098 -78 -27 
020 -53 105 092 -82 028 090 070 041 -24 035 -102 001 068 015 -07 116 053 -63 103 -02 -126 069 -117 -107 -114 004 108 037 -124 126 043 005 -44 098 017 078 080 028 016 049 -46 -111 -84 -24 037 121 071 058 -115 104 032 002 020 -109 048 -46 119 -111 114 098 -47 107 -16 
040 -12 118 -100 098 -05 101 -101 -97 028 079 -42 058 -101 004 -49 -04 -113 -102 027 013 011 -58 -122 -95 -73 015 066 057 013 071 -16 060 -99 051 064 086 100 027 -123 095 031 -91 -54 -94 086 008 -63 -95 115 007 007 096 -49 079 -93 030 125 -62 -89 -62 -101 -106 -56 
041 031 -75 026 016 112 -58 -05 -62 -117 -35 123 -84 052 -66 -89 016 -124 -25 -47 -110 002 -18 -44 064 -115 -84 -28 -44 -56 -47 -16 008 068 102 -07 -51 -54 -42 047 -92 -44 110 037 026 032 063 -113 -31 -05 033 -40 091 028 -105 073 -01 109 -102 -65 -93 -29 095 048 
-86 -111 028 072 110 -55 -46 089 -33 057 -99 -96 075 107 088 113 -27 077 078 088 106 002 115 052 004 003 -39 -110 048 -20 013 -110 -104 -78 111 002 030 118 -100 101 -44 030 -78 -08 078 -52 054 -126 035 078 -79 041 109 -58 -21 032 -98 -52 113 060 071 -105 021 049 
069 -99 -34 -45 -68 -42 -22 108 015 -60 124 021 -45 -38 065 059 -83 070 037 -92 -01 048 -70 018 -80 047 053 073 070 -67 -03 -74 049 -110 064 -85 014 -03 -72 -01 108 021 033 019 -62 054 -25 -99 009 -62 -82 070 -102 -67 -93 -21 -16 044 060 019 042 -25 -65 040 
