MEMORY_INITIALIZATION_RADIX = 16;
MEMORY_INITIALIZATION_VECTOR = 
-100011100010-10011011000101-100100010000101010001-100111-111011110111001000110-110110001101111-10000110101101111001-1111101100011100111-1101000-101110101101-11011100101110111001111011111000110101-1100001101110-1011100-11111011011001-111110-1110-11101101100111111100010011101001001-11000001100001-1001-11111010010010101101100111101010110-10101100101-110011010101-10101011011-101000-1011001110001-11001101101111,
100111101100110-101000-1101110-101111-1101011101101100110-10100011001010110-1010111-1111001-100101100010-10011001111-110111-1111101100001-110001100111-1100-1011101-1110001111101100011-1110-1011100101010-110001-10000111101-101110-101101111000-1111111-1111111100100-10000001100100-1101-10100011111101-110-1001111100011-1000111-11000011000-110000-1000001-10111111001010-110111000101110011-11010111011010101101111101-1011000111001,
-10001-10111000-10011001001-1000001-10000101010011-1111001-1111010-110111000-111111111010111011111101110100000111111010101011000100111001-101100011010110-1010110-10001111101111101110-10111101100-101000-11010110001001111111-1000011101011-11110011000100-10111111101110110-1100011100011101101-110010-10100-110101-1000110-1000010111011-1100001-10000011001011111110111111110000-110111-100000010011101011110-111001000100,
10101111111-1001001001000-11111-1110011110010-1101111-1100001-101-1110011-111100010101010111010010-110101101110011001010101111011001001001100111011111011001110-10000100001-11-110001-100110000001100101-1110010-100110001011-1001101-101011100-1011-1000111-11001011011-100101110101-100011110000-10111-11010010001011011010100101-1000011-1000000-1011010110001-1101011-100011-1000000111000100101011111-1110110-1010011,
100001-11110001011100101-110111-1010000-10100-11110-1011001-1100111-100101-11101-1101000-1110101-1101011101110-10001110100-1110111101010111011011100-1100110111010110101011011010-11101101100111101000-1010010-1111-1110110-1111-1110010-11100101000011-1101001101110-1011101-1110011-11-1111101-1100110-1101011101001110100111011-1001110-1011010-10010111100101100000110110111111111011110101-11111101110110110-100101110010-1000010011111101101,
-101001010111011000-11011-10010-110110-1011110-1011000-11110011001100-1011011-1111001101111-1010011-11001111-11111111111010-10100001100001110010001001100-110-11011-11001101100011111101-11001101100101111011-10111110000-1010001111-110010000011001101-11-11000-1011001-11001-1001000111001-11101010111111011000-101101-1110111-1101100-1011001111101-1111111-11011111110-1100001-10111101011100011100-10001010100111010110,
1011001-1111111-110001011110001-1001011111011101000-10011110101111111001-10010001110111101-1000111-11000001001100100-1110001-1010100101001011100-1011101-111110-1001010111111001000-101110-1111110001-1101001-1011110-1011101-1001011-10111001110110-11001001000011-110000-1000100100101100-1010011-10000000-1110101-100101111000111011011-1111000-111-111110101001-10101111000010-11000-100101-1111101-10100111110011001011-1011010-1011111011101,
-111011-11010-11010111101110110-11010011001001-1000001-111001100111-10001-100000-110111111111111111-1010011-111010-101100110111-1111010111110-1010100010110111111111000100-101000101110100101011010-101101110001111001111010011111101-10110-1100110-110000-1110100-10001-1001110010-101001001011100010-11101111011010110001-1111101-1110001-100101-100111101001110100000010011001110110-1111010111011-111101-1011100-111100011010011101011;