052 -27 -38 -24 012 059 075 -20 077 -78 -120 -104 050 005 099 046 -44 -17 085 -25 -114 110 123 -109 -85 -13 -114 -106 -61 103 079 -88 -06 080 026 -71 -03 -104 -44 026 -72 112 -122 -08 -125 117 -04 -97 121 -72 107 051 -20 -06 -60 -56 -16 -22 062 058 074 -114 -04 013 
-110 -07 125 124 047 014 072 -104 -102 066 066 050 080 -112 092 004 -83 067 005 -52 -100 034 119 026 045 057 -11 -117 -71 -128 -71 -56 030 085 118 -124 098 -28 -105 -110 083 -87 060 055 -103 000 -11 -42 019 -123 052 -124 -55 -61 -125 -33 071 093 -29 104 -52 -99 095 112 
105 058 -05 -16 066 -126 -45 002 040 090 046 043 086 -93 015 -100 -19 -114 -47 -68 120 -40 -92 102 081 081 -103 090 026 045 032 069 -34 -116 021 -62 072 030 114 -127 -117 -73 -112 089 108 -69 -74 003 -123 015 -14 -113 100 100 -39 076 047 -24 042 -18 034 -64 -73 -76 
-72 -108 081 -108 -53 -86 -128 -61 006 -53 -16 011 -68 -07 -47 -124 052 032 126 -81 032 012 -85 102 025 114 -56 107 -14 044 063 -16 091 -94 -37 109 004 047 -112 110 -56 -19 013 -81 -51 -84 025 -22 087 -70 074 001 -22 -70 -96 -118 108 -48 -43 -29 -126 126 -101 067 
011 -21 -60 -03 035 -55 -06 026 -109 114 -77 116 101 -08 056 -38 -44 -16 006 -118 033 112 063 107 -23 077 -88 -64 023 094 015 -38 042 -72 063 -39 011 -87 106 -20 -123 078 -128 090 -50 121 019 -29 -110 -104 -103 120 050 -32 -98 054 -07 083 -57 116 121 -03 -54 100 
-60 -28 080 044 009 -113 -51 -55 -127 -40 -03 021 030 -06 -55 -96 112 -28 -52 -06 -34 -92 -49 -26 -86 081 -76 -54 092 029 103 -127 112 -75 095 -23 -110 124 -108 -89 -14 -42 102 116 -37 -96 -118 -109 -91 -72 -05 -95 -15 075 096 -10 -16 -110 -95 116 006 109 019 104 
-30 -32 120 -73 -127 044 051 -49 -32 018 068 102 119 -03 -107 065 -113 -12 -51 -112 -122 -25 -10 -13 -126 -58 003 084 041 005 090 042 091 -47 -42 -25 -70 062 014 -14 -69 059 124 -121 -124 -42 -122 094 125 -91 107 -39 074 -103 042 -29 -36 -23 029 114 -62 -117 051 -126 
-51 085 -126 034 006 -41 -74 019 -79 101 035 -02 091 100 -84 -121 102 090 -80 -33 017 -100 -121 -06 -45 067 102 047 029 -44 081 058 -99 091 -110 -101 -121 116 -96 -121 117 -12 018 -20 -66 085 -48 -86 062 -07 -115 -105 -36 075 -65 121 059 -54 -51 068 -83 053 -53 -58 
077 022 -90 049 038 053 -39 080 065 -100 009 -111 024 -35 -83 015 118 125 -05 -09 -32 071 -128 -114 053 -52 -52 -46 116 123 -64 029 048 -61 -85 085 -28 037 -119 046 089 -125 -44 -24 -67 -51 100 012 118 117 104 -47 -117 -127 -80 076 110 034 009 036 -56 112 092 061 
074 042 -68 -77 -62 058 036 -105 -50 003 038 102 060 -58 -78 030 111 -95 -109 -54 -20 125 040 -92 -68 -90 077 034 -16 048 -113 -103 -59 098 -05 -76 066 -86 041 096 -102 -09 -49 066 039 -120 -103 095 -105 109 063 106 -36 091 -96 -98 040 -73 -19 034 -96 043 079 107 
005 025 070 -122 -28 -31 -75 013 054 -45 116 -102 -77 038 -68 052 000 096 048 022 -04 052 -16 019 -17 -15 053 125 104 042 -71 -121 011 061 -98 -128 107 054 092 090 102 024 -125 120 125 034 -106 -83 -109 110 -45 -21 053 -73 094 044 065 -37 -62 -45 091 000 126 -78 
-47 -66 080 059 -49 030 -60 120 -74 122 032 093 035 -27 -91 115 -68 109 003 108 061 123 -41 014 -82 044 060 081 093 059 086 -61 -96 -95 -36 110 042 -68 -125 018 041 -105 122 047 061 031 032 -122 026 -102 -17 028 -78 -83 -113 -07 -96 046 091 043 035 -93 -80 -95 
-23 -41 000 -123 038 -15 -88 073 034 012 -118 101 -89 -41 083 -23 -112 -87 -102 107 -107 -87 102 -32 -60 -116 -128 -04 -20 108 012 -95 023 095 060 -07 021 058 -29 -121 009 095 -82 -22 -43 -89 -104 -67 -18 -09 -07 118 -126 -08 -95 051 -04 044 -69 021 092 028 113 062 
111 110 -36 -36 -108 074 108 -92 064 -73 -111 089 -50 -42 013 077 080 023 059 -79 -89 035 -75 -89 -98 002 054 008 -98 057 -54 009 -69 012 -50 -18 012 -01 -108 -51 -128 106 -70 -24 -27 -10 -68 -28 097 -121 -66 -42 -67 -88 -91 -83 -114 -107 071 -42 065 109 -108 -93 
-106 124 -99 120 -48 075 098 -24 092 016 087 -31 -119 100 -85 093 009 -67 071 -33 019 -128 113 074 -64 093 -53 076 -02 110 056 -16 -61 -70 063 -82 -47 063 006 -62 -97 045 076 -70 058 -107 -59 076 -27 050 -81 -109 086 112 059 -68 126 -101 098 -28 -84 -14 -56 -64 
046 -89 -42 -85 -37 -13 -61 -66 085 -80 -42 -42 -54 -26 108 080 -69 -34 002 027 083 -81 -29 078 -58 114 -113 -81 051 -76 076 -58 -76 -15 041 -66 -53 124 -10 -76 -94 -75 -40 021 039 -10 074 -07 -40 -30 -126 -128 -58 011 107 044 033 078 -121 -55 060 -31 104 100 
-28 -93 078 047 -89 -02 -38 -44 -98 040 061 -117 053 -95 -103 099 -35 022 -02 085 -76 055 -88 -65 124 005 -102 -91 101 -84 112 -118 059 079 -49 -116 -02 100 -111 120 050 -10 038 -116 -66 103 -75 -114 -126 017 083 038 000 -02 040 026 125 036 -50 -38 -119 -06 -56 -61 
086 -93 101 -04 -43 -105 -79 -69 055 071 -29 -51 -21 -06 062 -104 004 -10 077 -30 -46 102 -56 -40 071 -36 044 -49 -57 -107 -21 107 -43 029 -118 010 -14 -98 047 025 079 057 -95 -100 -04 -104 068 -77 -12 108 038 048 068 -123 074 121 113 016 032 055 -126 108 -10 -23 
-115 -01 076 075 002 -80 -22 -61 057 072 105 -72 -107 -65 007 -11 067 091 -55 075 -80 030 039 -39 -20 122 026 062 -37 -120 -58 090 125 -89 048 121 -101 -110 -112 026 078 -74 -14 065 -126 -61 -126 -81 122 -38 -68 -48 039 073 -66 -33 -127 000 071 026 111 022 051 -55 
-120 093 111 034 028 057 009 103 -94 077 050 -94 -18 -119 071 080 067 -88 053 -92 079 090 -90 -65 061 041 -27 -11 -95 039 015 037 072 032 080 -72 -120 -81 018 053 -77 -113 016 -80 -26 -21 027 026 053 -35 -19 -56 042 -71 015 -110 -59 110 -34 -55 -101 -58 078 -98 
-67 013 -39 034 012 -10 108 034 -63 -42 104 081 049 045 -10 014 125 -26 003 -56 072 -114 -98 002 048 -82 041 -85 075 026 -63 -62 121 118 049 034 027 -52 068 -86 -35 113 -79 -95 062 -96 083 114 125 -100 -08 090 024 050 030 015 -16 -12 033 -24 111 -114 069 089 
-17 121 -52 -111 -66 -59 -69 015 113 123 115 -63 044 083 -106 -30 005 082 -51 017 008 011 030 -59 042 -25 111 -116 -57 -68 -125 -07 -03 013 -35 -33 004 015 093 098 -80 -43 -23 -90 062 -110 116 -57 -37 031 -64 -21 -81 -34 -72 -98 001 -03 024 082 -06 051 -65 003 
-08 040 -61 -44 -116 -111 -85 111 020 -80 -61 085 099 -67 -04 -37 073 055 112 054 -26 -123 123 -75 102 083 030 012 -40 081 108 -67 055 -34 072 101 037 114 014 097 013 017 095 -56 025 055 111 -10 -27 031 -39 -101 -22 -08 -22 -63 046 -07 020 -43 -73 110 -80 -02 
017 045 -01 -112 119 -76 -34 048 -94 -98 120 -36 -41 121 027 -110 -74 -66 -07 -89 113 074 -120 -19 -90 001 008 -97 098 -109 -95 -11 -10 046 -50 097 -46 118 026 -107 -05 -57 -52 019 026 126 107 -72 089 -72 120 059 -53 -79 -41 -23 101 122 -122 038 -91 088 054 058 
-122 044 -67 -128 067 119 053 -04 -118 -27 -27 039 -35 086 078 009 -44 100 049 105 061 -33 -123 -28 060 041 018 111 031 -50 -41 -46 -45 -113 -28 033 088 -103 045 -85 -23 -91 -89 040 008 040 014 -20 -61 -58 006 081 050 -55 -04 110 111 059 -25 116 063 -23 101 -40 
126 022 068 -61 086 -93 -14 -114 -105 096 -122 008 -01 -15 093 -118 -126 047 -24 -67 002 -84 -80 -110 024 -123 018 -110 -99 118 -93 089 096 -43 -27 068 003 098 -24 047 007 -28 069 -89 108 059 -17 -06 -99 120 043 -12 -23 -125 061 -07 049 -30 124 -62 042 059 038 032 
-80 025 -02 -117 -45 -124 023 -95 -83 -115 -14 023 060 056 011 -86 109 -83 -110 115 -40 007 -127 -06 -24 -84 074 -49 091 063 -117 064 -93 -33 126 -12 -111 -13 -25 -40 -40 -26 -29 060 110 059 -74 052 028 037 071 010 063 -81 -35 -123 069 039 -27 -119 024 -47 056 059 
-37 -12 086 -63 -60 004 -20 018 087 -124 -117 102 -118 -05 -65 025 065 071 068 -108 -02 -62 071 022 110 029 -50 109 092 -73 029 039 -35 -16 -30 096 -77 032 -11 020 -03 048 082 037 -69 -99 083 085 064 011 119 056 012 -48 -04 029 -52 038 044 -127 119 -79 -81 -41 
023 -105 -33 036 082 118 032 049 046 -44 -45 -36 -15 022 -56 015 083 045 -28 062 104 -100 -38 -93 044 075 -16 118 083 -23 033 -51 -105 -18 024 119 -114 -42 025 -127 062 026 019 -18 -70 082 -37 -44 038 073 -51 080 -50 -37 105 022 -68 076 -126 -16 -50 052 -26 012 
-106 -51 085 -94 -120 059 099 064 -36 -45 -06 -106 -64 054 093 -48 009 060 001 108 -72 -24 -12 076 085 -71 042 029 -08 -116 115 108 -19 -01 -122 -06 016 -38 003 -119 -75 -100 -121 056 117 -25 -62 -43 084 062 -53 -50 051 -35 091 -23 101 060 026 -89 090 -74 -17 112 
054 -70 111 063 -50 075 085 056 -52 -85 -39 105 111 039 005 085 -61 027 054 -127 -45 120 068 -09 060 013 095 -105 075 041 -09 020 -32 -79 011 033 015 -55 099 -86 -68 -43 046 108 040 -97 083 -125 061 126 -68 -31 -78 021 029 -35 -66 073 083 -108 -90 021 051 049 
107 107 -38 070 -120 -117 014 -86 102 -15 -89 080 -117 037 094 061 085 035 033 020 -34 -84 -19 070 084 009 -95 042 032 067 103 -30 -117 -51 019 -90 -53 -63 -108 -07 -66 -45 -68 058 -30 -81 -102 036 -126 -100 -91 046 085 -31 002 036 069 -114 088 124 -22 -34 -96 054 
-110 -64 115 080 047 -32 069 022 -49 102 -64 -87 -63 -15 -80 105 115 123 043 -23 076 038 092 105 055 -93 -122 -29 077 056 -106 -08 010 048 -26 -119 -04 -93 101 -126 014 100 -25 -84 044 -37 098 -78 100 017 040 -58 -124 -126 033 -11 -89 079 095 -97 -115 097 -93 -81 
-54 105 -64 098 -74 112 -36 034 022 009 018 103 -32 -71 109 -49 031 036 -105 106 079 -83 089 -84 019 088 062 067 009 121 027 -93 -126 -96 -118 -34 093 108 102 -36 -89 -12 041 -128 -98 001 014 046 025 -69 035 084 043 -116 -34 028 -01 -90 -12 024 -101 -14 050 090 
104 -94 -07 100 -28 109 -94 -85 -81 -104 -88 011 -41 109 053 056 060 076 -123 -61 057 085 067 -121 111 013 107 029 121 -57 036 -118 -63 -111 068 -02 076 -24 056 -124 -116 120 -38 -06 -68 -53 -89 102 120 -72 -59 -128 000 -24 -52 047 -23 -38 -82 022 -123 092 -116 058 
-57 089 044 -103 014 015 -03 035 105 106 -07 099 081 -81 -57 025 107 046 036 074 -116 030 -71 -43 024 -49 074 114 045 -46 016 -85 -59 003 -126 021 -07 -35 -125 -67 095 -03 -120 116 -103 -97 103 -15 094 -71 -97 -06 -61 091 079 122 017 -24 060 -107 032 001 007 072 
