-01 -01 001 000 001 001 000 000 001 001 -01 -01 001 000 -01 000 000 001 001 000 -01 000 -01 -01 001 001 001 -01 000 -01 -01 001 -01 001 001 -01 000 000 -01 -01 001 -01 000 -01 -01 -01 000 -01 000 001 001 -01 -01 000 000 001 001 000 000 -01 -01 -01 001 001 
-01 000 001 001 000 000 000 001 001 001 -01 001 -01 -01 001 -01 -01 001 -01 -01 000 000 000 001 000 001 000 -01 001 000 001 001 -01 001 001 000 -01 -01 000 000 001 000 001 000 001 001 -01 -01 001 001 -01 -01 -01 -01 -01 000 001 000 -01 -01 001 000 000 001 
000 000 001 001 001 -01 000 -01 001 -01 -01 -01 000 001 000 000 000 000 000 001 000 000 000 000 -01 -01 001 001 -01 -01 000 001 -01 000 000 -01 000 -01 -01 001 -01 000 000 001 -01 001 001 001 000 000 000 000 001 001 000 001 001 000 -01 001 -01 -01 000 001 
-01 001 000 000 000 -01 000 000 000 000 000 000 000 000 001 001 000 000 000 -01 -01 -01 000 000 001 -01 000 001 001 001 001 000 -01 -01 001 -01 000 -01 -01 001 001 001 001 -01 001 000 001 001 -01 001 000 000 -01 000 000 -01 000 000 000 001 000 000 -01 000 
001 -01 001 001 000 000 -01 001 001 000 000 -01 001 000 -01 000 001 001 -01 000 000 -01 000 000 001 -01 -01 001 001 000 001 001 001 000 001 001 001 001 001 -01 000 001 001 001 -01 001 -01 000 000 -01 -01 -01 -01 -01 -01 -01 001 000 -01 -01 001 -01 000 -01 
001 -01 -01 001 001 001 000 000 001 -01 -01 000 000 -01 000 000 001 000 001 001 001 -01 001 -01 000 -01 -01 -01 000 -01 000 001 000 -01 000 001 001 -01 000 -01 001 000 000 -01 -01 001 000 000 -01 001 -01 -01 001 -01 001 000 001 -01 001 001 001 000 000 000 
001 000 -01 -01 001 001 -01 -01 001 -01 001 -01 001 000 001 000 000 001 -01 -01 000 000 -01 -01 000 -01 001 000 001 001 000 -01 000 001 000 001 -01 -01 001 000 000 000 001 001 -01 001 -01 001 000 000 -01 000 001 -01 001 001 -01 000 000 000 -01 001 -01 -01 
001 -01 000 -01 001 000 000 -01 -01 000 000 001 000 001 001 001 001 001 001 001 000 001 001 000 -01 -01 001 000 001 000 -01 000 -01 000 001 000 000 000 001 001 -01 000 -01 001 000 -01 -01 001 000 001 -01 001 000 001 001 -01 000 -01 001 -01 -01 -01 001 000 
001 000 001 -01 001 -01 -01 -01 -01 000 000 -01 000 000 -01 001 000 -01 000 001 -01 000 001 -01 001 001 000 000 001 -01 001 -01 000 001 000 000 000 -01 001 -01 001 000 000 000 000 -01 000 -01 -01 001 001 -01 000 000 001 000 000 -01 000 001 001 000 -01 000 
001 -01 000 000 001 001 001 000 000 -01 000 -01 001 -01 000 001 -01 000 -01 001 000 001 001 001 001 001 001 001 001 001 000 000 000 -01 001 -01 -01 -01 001 001 -01 001 001 -01 001 001 001 001 001 000 -01 000 000 000 -01 000 001 -01 001 000 000 -01 -01 -01 
001 000 -01 -01 001 -01 001 000 001 001 000 000 000 001 -01 001 -01 001 001 -01 -01 -01 001 000 -01 001 001 -01 000 001 -01 001 001 -01 000 -01 -01 000 001 000 000 -01 000 -01 001 -01 001 000 001 001 000 -01 001 -01 -01 000 -01 001 000 001 -01 000 000 000 
-01 001 -01 000 001 001 000 -01 -01 001 001 000 000 001 -01 000 -01 -01 -01 -01 -01 001 -01 001 001 001 001 001 -01 -01 000 000 001 000 -01 001 -01 -01 001 -01 -01 001 -01 000 -01 000 -01 001 000 001 000 000 -01 001 001 000 001 -01 000 000 001 -01 001 000 
000 001 -01 000 -01 -01 001 000 -01 001 -01 -01 -01 -01 000 -01 000 001 -01 000 001 -01 000 001 000 001 000 -01 001 001 001 000 000 000 001 001 -01 001 -01 -01 000 000 -01 000 000 001 000 001 000 000 001 000 001 000 000 001 000 000 -01 -01 -01 001 000 000 
-01 000 001 001 -01 000 000 -01 000 001 000 -01 001 000 -01 000 000 000 000 000 000 -01 000 001 001 000 001 000 -01 -01 000 001 000 001 000 001 000 000 -01 001 000 -01 000 000 -01 -01 001 000 -01 000 000 001 000 -01 000 -01 -01 -01 -01 000 -01 -01 000 -01 
001 000 001 001 001 -01 001 001 -01 -01 -01 -01 001 001 -01 000 -01 -01 -01 001 -01 001 -01 001 001 -01 001 001 001 000 000 000 -01 000 000 001 000 -01 001 001 001 000 001 000 000 -01 -01 -01 001 -01 -01 -01 000 -01 -01 -01 000 -01 -01 000 001 -01 -01 -01 
-01 001 -01 -01 -01 001 -01 001 001 -01 001 000 000 -01 001 -01 000 001 -01 000 000 000 -01 000 001 -01 -01 000 000 -01 -01 001 -01 -01 000 000 -01 -01 -01 000 001 -01 -01 000 000 001 -01 001 001 000 000 001 000 -01 001 -01 001 000 001 001 001 000 -01 -01 
-01 000 001 -01 -01 001 -01 -01 000 001 000 001 001 -01 -01 000 001 -01 -01 000 -01 -01 001 -01 001 000 -01 -01 -01 -01 001 -01 -01 001 001 001 -01 001 001 000 -01 001 001 000 000 000 001 000 001 001 -01 001 -01 -01 000 000 -01 001 -01 -01 001 000 -01 -01 
000 -01 001 000 -01 001 -01 001 000 -01 000 000 -01 001 001 -01 -01 -01 001 -01 000 001 001 001 -01 001 000 -01 -01 000 000 000 000 001 001 000 000 001 000 -01 -01 001 001 000 001 -01 001 000 001 001 000 000 -01 001 000 -01 001 -01 001 000 000 -01 001 000 
000 000 -01 001 001 -01 000 001 000 -01 000 -01 001 000 000 001 001 001 000 -01 000 001 001 001 001 -01 001 000 -01 000 -01 001 -01 000 000 001 000 001 000 001 001 001 001 -01 -01 000 -01 001 000 001 -01 000 001 000 000 -01 001 001 -01 -01 001 -01 000 000 
000 001 -01 -01 000 -01 000 -01 001 -01 000 -01 000 000 000 000 000 001 -01 001 -01 -01 001 -01 000 -01 -01 000 000 -01 001 001 -01 -01 -01 000 001 001 -01 001 000 001 000 -01 001 -01 000 000 -01 001 001 000 -01 -01 000 001 001 -01 001 -01 000 001 -01 000 
-01 -01 -01 001 -01 001 001 001 -01 001 001 001 001 001 -01 -01 001 001 000 000 -01 -01 000 -01 001 000 -01 -01 000 000 001 000 001 -01 001 -01 001 000 001 000 001 001 001 -01 001 000 001 001 001 -01 001 -01 -01 000 001 001 000 000 001 000 000 000 000 001 
001 001 -01 -01 000 -01 001 -01 000 -01 001 000 000 -01 000 000 -01 001 001 001 -01 -01 000 001 000 000 001 001 001 001 -01 000 000 -01 000 -01 001 000 001 000 001 -01 000 000 000 -01 000 -01 000 000 001 000 001 -01 -01 000 001 001 -01 000 001 001 001 -01 
-01 001 001 001 000 001 001 -01 000 001 -01 -01 001 -01 001 001 001 -01 -01 001 000 001 001 001 -01 -01 000 001 000 000 000 001 001 -01 -01 000 001 001 000 000 000 001 001 -01 -01 001 000 -01 -01 001 001 000 -01 001 000 001 000 000 -01 -01 000 001 001 000 
000 -01 -01 -01 -01 000 000 -01 001 001 000 -01 000 001 -01 001 000 -01 -01 -01 000 000 -01 001 -01 -01 -01 000 000 000 000 000 001 001 000 000 000 -01 001 001 000 001 000 000 -01 000 000 000 -01 000 001 001 001 001 001 -01 -01 000 000 -01 000 000 000 -01 
000 001 -01 000 001 001 -01 000 000 000 -01 000 001 -01 -01 001 000 001 000 000 000 001 001 -01 -01 -01 000 001 000 -01 -01 001 001 -01 000 000 000 001 001 001 000 -01 000 001 001 000 -01 -01 000 000 001 000 001 000 -01 -01 000 001 001 000 001 001 000 -01 
000 -01 000 001 -01 -01 000 -01 -01 -01 000 001 000 000 -01 000 000 000 -01 -01 000 000 001 -01 000 001 000 000 001 001 -01 001 -01 001 -01 001 -01 -01 001 000 000 000 -01 -01 001 001 001 -01 -01 000 001 000 001 -01 001 001 -01 000 -01 -01 000 001 000 001 
001 -01 001 000 -01 -01 -01 001 000 001 001 000 -01 000 -01 000 -01 001 001 000 000 001 001 001 -01 -01 -01 000 -01 001 001 000 000 000 000 000 001 000 -01 -01 001 -01 000 001 000 000 -01 000 001 -01 -01 001 001 -01 -01 -01 001 -01 000 001 001 -01 -01 001 
000 001 000 -01 000 000 -01 001 -01 -01 000 -01 -01 000 001 000 001 001 000 001 000 001 -01 000 -01 000 001 -01 000 001 -01 001 001 001 001 000 -01 001 000 -01 001 -01 -01 000 001 -01 001 000 -01 000 000 -01 -01 001 000 001 000 001 001 -01 001 001 000 -01 
-01 001 -01 -01 -01 -01 000 -01 000 001 -01 001 000 000 000 -01 001 -01 001 001 001 -01 001 -01 000 000 001 000 001 -01 000 000 000 001 -01 001 001 -01 -01 000 -01 000 001 -01 001 001 000 -01 000 -01 -01 001 001 -01 001 -01 -01 000 -01 000 001 000 -01 001 
001 000 -01 001 000 -01 001 000 -01 001 000 000 000 -01 001 000 001 000 -01 -01 -01 -01 001 000 000 -01 000 -01 -01 001 000 000 001 001 -01 -01 001 -01 -01 -01 001 001 000 001 -01 -01 -01 001 001 -01 001 000 -01 000 -01 001 001 001 000 001 -01 000 -01 001 
001 -01 -01 000 001 001 000 -01 001 000 001 000 000 000 -01 000 001 000 000 001 000 -01 001 -01 000 -01 001 000 -01 -01 000 -01 -01 -01 -01 -01 -01 000 -01 000 001 001 -01 -01 001 001 001 -01 000 001 001 -01 001 -01 -01 000 000 001 000 001 000 -01 001 001 
000 000 000 001 -01 000 000 001 001 001 -01 001 001 -01 000 000 001 001 001 000 -01 -01 -01 -01 -01 -01 000 000 001 000 000 000 000 -01 000 001 -01 000 -01 001 -01 -01 000 000 -01 001 000 001 -01 000 000 001 000 001 -01 -01 000 -01 000 -01 001 -01 001 000 
-01 000 001 000 000 000 -01 000 001 -01 000 001 000 -01 000 000 001 000 -01 -01 -01 -01 -01 001 001 -01 001 001 -01 -01 -01 -01 -01 000 -01 001 -01 000 -01 001 -01 000 -01 001 000 001 000 -01 000 -01 001 001 000 -01 -01 000 -01 -01 000 -01 000 001 000 001 
000 001 -01 000 -01 000 001 -01 -01 -01 000 000 000 -01 001 -01 -01 000 -01 000 000 -01 000 000 000 -01 -01 -01 -01 000 001 000 001 -01 001 000 001 001 000 -01 -01 001 -01 001 000 000 -01 001 000 000 -01 001 000 000 000 001 -01 001 000 001 001 001 000 000 
001 -01 000 -01 -01 -01 000 000 000 -01 -01 000 000 000 000 -01 000 000 001 000 001 000 000 -01 000 001 000 -01 000 -01 000 000 -01 000 -01 001 -01 001 000 -01 000 -01 001 001 -01 000 000 -01 001 001 000 001 000 001 -01 001 000 001 000 000 001 001 000 001 
000 -01 000 -01 -01 001 -01 000 000 001 -01 000 -01 000 000 -01 -01 -01 001 001 -01 001 -01 -01 -01 -01 001 000 001 001 000 -01 001 001 000 001 001 001 -01 001 000 001 001 001 000 000 -01 001 001 000 001 -01 000 001 -01 -01 001 001 001 001 -01 000 -01 -01 
001 -01 000 -01 000 000 000 001 000 001 -01 001 001 -01 -01 001 000 001 -01 000 000 000 000 001 -01 000 -01 000 001 -01 000 -01 001 000 001 -01 001 -01 000 000 001 000 000 -01 001 000 -01 000 001 001 000 001 000 000 000 000 001 000 001 -01 000 000 -01 -01 
001 -01 000 001 001 -01 001 -01 000 000 000 -01 -01 000 001 001 000 -01 000 001 -01 -01 -01 -01 000 000 -01 000 001 000 -01 000 001 -01 -01 -01 001 000 000 001 -01 000 -01 001 -01 -01 000 001 001 001 000 001 000 000 001 -01 001 000 -01 001 000 -01 000 -01 
-01 000 000 -01 001 -01 001 001 001 001 -01 001 001 000 000 -01 000 000 -01 001 001 001 000 -01 000 000 000 000 001 -01 000 -01 001 -01 001 001 000 -01 000 001 000 -01 000 001 000 -01 -01 -01 001 001 -01 001 000 -01 -01 000 -01 000 -01 000 001 000 001 000 
000 001 -01 000 001 001 -01 001 -01 000 000 000 000 001 001 -01 -01 -01 -01 001 001 001 -01 000 001 000 001 000 000 001 001 001 000 -01 -01 -01 -01 001 -01 001 001 001 001 -01 -01 001 000 000 -01 -01 001 -01 001 001 001 001 001 001 000 001 001 -01 000 000 
000 000 000 -01 001 001 001 001 -01 000 000 -01 -01 -01 000 000 000 -01 001 001 -01 000 001 000 001 001 -01 001 -01 000 000 001 -01 000 -01 001 001 000 000 -01 000 000 -01 -01 -01 -01 -01 001 001 001 -01 -01 -01 -01 -01 000 001 001 000 -01 000 -01 000 -01 
001 001 001 001 000 001 001 -01 -01 000 000 001 000 001 -01 001 -01 001 001 000 000 001 -01 000 001 -01 -01 000 -01 000 001 -01 000 000 000 -01 001 -01 000 001 -01 -01 001 000 000 000 -01 000 000 -01 -01 001 000 -01 000 001 001 001 000 001 -01 -01 000 001 
-01 000 -01 000 000 001 000 -01 -01 -01 -01 001 -01 000 001 -01 001 001 001 001 -01 000 001 000 000 -01 000 000 001 -01 001 -01 000 000 001 000 000 001 000 001 000 001 001 000 001 000 000 -01 001 -01 000 -01 001 001 000 -01 001 001 000 000 001 -01 001 000 
-01 001 000 001 000 -01 001 000 -01 001 000 001 000 000 000 -01 000 -01 001 000 000 000 000 -01 -01 000 000 000 -01 000 001 001 000 000 001 001 -01 001 001 -01 -01 -01 -01 000 -01 -01 000 000 -01 000 001 000 001 001 001 000 000 -01 001 -01 000 001 -01 -01 
000 -01 000 001 -01 001 000 -01 -01 -01 000 001 000 -01 000 001 000 000 001 000 -01 000 000 000 000 -01 001 -01 -01 001 001 000 000 001 -01 -01 001 001 000 001 -01 001 001 001 001 -01 000 001 000 -01 000 000 -01 -01 000 000 -01 000 -01 001 001 -01 -01 001 
000 -01 000 001 -01 000 000 001 001 000 001 000 001 000 001 -01 -01 -01 -01 -01 000 -01 001 000 -01 001 -01 -01 -01 000 001 001 -01 000 -01 -01 001 001 001 000 000 -01 -01 -01 -01 001 001 000 000 000 001 000 000 -01 001 000 000 000 -01 001 -01 -01 000 001 
001 001 000 000 000 001 -01 001 -01 000 001 -01 000 000 000 001 000 -01 -01 -01 001 000 -01 000 001 000 001 000 000 -01 001 001 001 -01 001 -01 001 -01 -01 -01 -01 -01 -01 000 001 001 000 000 -01 001 000 001 001 001 000 000 001 000 000 -01 000 -01 000 -01 
000 001 -01 001 001 001 001 -01 -01 000 001 001 -01 -01 -01 -01 -01 -01 000 000 001 000 000 000 -01 000 001 000 001 000 001 001 000 000 000 -01 -01 001 000 -01 000 001 001 000 000 001 001 -01 -01 -01 -01 000 -01 -01 -01 000 001 -01 -01 000 000 001 000 -01 
-01 000 -01 001 -01 000 -01 000 000 -01 -01 000 -01 001 001 -01 000 001 000 000 -01 -01 001 001 000 000 001 001 001 000 000 001 -01 -01 000 001 000 001 -01 001 -01 001 000 -01 001 000 000 -01 001 000 000 -01 001 000 001 -01 001 -01 -01 001 -01 -01 001 001 
001 000 -01 000 -01 -01 001 000 -01 001 -01 -01 -01 001 -01 -01 001 -01 000 000 000 000 001 001 001 -01 001 001 000 -01 000 001 001 001 000 000 001 000 001 001 -01 001 001 001 000 001 000 000 -01 000 000 000 001 001 001 001 -01 000 001 001 001 000 001 -01 
-01 000 001 000 -01 001 001 -01 -01 -01 000 001 -01 -01 000 000 000 001 -01 -01 -01 001 -01 001 001 -01 001 001 000 001 -01 000 001 001 000 000 -01 -01 -01 001 001 000 -01 000 000 000 001 000 001 -01 000 000 001 000 -01 -01 001 001 000 001 001 -01 001 001 
-01 001 -01 001 -01 001 001 000 000 001 -01 001 001 001 000 000 001 001 -01 001 001 001 000 001 000 001 000 000 000 000 001 -01 000 001 000 001 000 001 -01 001 000 -01 001 000 001 -01 000 -01 000 -01 -01 -01 -01 -01 001 -01 000 000 -01 001 000 -01 -01 -01 
000 000 000 -01 000 001 -01 000 -01 001 001 001 001 -01 -01 -01 001 000 -01 001 001 -01 -01 001 -01 -01 000 000 -01 001 001 -01 000 -01 000 -01 -01 001 000 -01 000 -01 -01 001 001 001 -01 000 000 001 -01 000 001 -01 -01 001 -01 000 -01 -01 -01 001 -01 001 
-01 -01 001 -01 001 -01 -01 001 000 -01 -01 001 -01 001 001 000 001 -01 000 000 -01 -01 000 001 -01 -01 -01 000 001 000 000 001 -01 -01 001 -01 001 -01 000 000 001 001 000 000 000 000 000 -01 000 000 001 001 000 000 000 001 001 -01 000 000 000 000 000 001 
-01 -01 001 001 001 000 000 000 -01 000 -01 001 -01 000 -01 000 -01 000 000 000 000 000 -01 001 -01 000 000 000 000 000 001 001 000 000 000 -01 001 001 000 001 000 001 -01 001 000 001 001 001 001 -01 -01 001 -01 001 000 000 -01 -01 000 -01 001 000 001 000 
-01 -01 000 001 000 -01 -01 000 000 -01 001 001 000 000 000 000 -01 000 000 001 001 000 -01 001 -01 000 -01 -01 000 001 001 001 000 001 000 -01 000 001 -01 000 001 001 -01 000 -01 -01 -01 000 001 -01 001 000 -01 001 001 000 001 001 -01 000 001 001 001 000 
001 001 -01 -01 000 001 -01 -01 -01 -01 001 -01 -01 001 -01 001 000 000 000 001 000 001 -01 -01 000 001 -01 -01 -01 001 001 001 001 000 -01 -01 001 -01 -01 001 000 001 -01 000 -01 000 001 000 001 000 001 000 001 -01 000 001 000 001 000 000 000 000 001 000 
001 -01 000 000 -01 001 -01 001 000 000 001 000 -01 001 -01 -01 -01 001 -01 000 000 000 -01 -01 -01 000 -01 -01 001 000 001 001 -01 000 001 -01 001 000 000 -01 001 001 -01 001 -01 001 001 -01 -01 000 -01 000 001 001 000 001 001 000 -01 001 001 -01 000 000 
001 -01 001 -01 001 001 000 001 000 -01 001 001 000 001 -01 000 001 000 000 000 -01 -01 -01 -01 -01 000 -01 001 -01 -01 000 000 001 -01 001 -01 001 001 001 -01 000 -01 -01 001 000 001 001 -01 000 -01 001 001 -01 001 -01 -01 001 000 000 000 001 000 000 000 
000 -01 -01 001 000 001 000 000 000 -01 -01 001 -01 -01 001 000 000 -01 001 001 001 -01 -01 000 001 000 000 -01 000 -01 -01 001 001 -01 001 -01 001 001 001 -01 001 001 000 000 -01 -01 000 000 000 001 -01 001 -01 000 001 -01 -01 001 -01 -01 000 001 001 001 
001 001 000 -01 000 -01 001 000 -01 -01 -01 -01 -01 001 000 -01 000 000 001 001 000 -01 000 000 001 -01 -01 -01 000 -01 001 -01 -01 -01 000 -01 001 001 -01 -01 001 001 -01 -01 -01 -01 001 001 -01 000 000 001 -01 -01 000 -01 000 000 001 000 000 000 -01 001 
001 001 001 -01 001 000 -01 001 000 -01 -01 001 001 000 001 001 001 -01 -01 000 000 -01 001 001 -01 -01 001 -01 001 000 001 -01 -01 -01 000 001 001 000 001 -01 000 -01 001 001 000 001 -01 000 000 001 000 -01 -01 001 -01 000 000 -01 000 001 000 001 001 001 
001 000 000 -01 000 001 001 000 -01 -01 -01 001 -01 -01 001 -01 -01 000 001 -01 000 -01 000 000 -01 001 -01 -01 -01 000 -01 000 -01 001 -01 000 001 000 -01 -01 000 -01 001 000 001 000 000 000 000 001 000 -01 -01 001 000 001 001 -01 001 000 000 -01 001 000 
-01 001 001 -01 000 000 001 000 001 -01 001 -01 000 000 000 001 -01 001 001 -01 001 -01 001 -01 -01 -01 -01 000 000 001 001 001 -01 001 001 001 -01 -01 -01 000 000 -01 001 000 000 000 -01 000 001 000 000 -01 001 000 000 001 -01 -01 -01 000 -01 -01 001 -01 
001 001 001 001 000 001 -01 000 001 -01 001 000 000 000 -01 000 000 000 001 -01 001 -01 -01 -01 000 000 001 -01 000 000 000 000 001 -01 001 000 001 001 001 -01 -01 000 001 -01 001 -01 000 -01 000 000 -01 001 000 001 000 001 -01 -01 -01 000 000 000 000 000 
001 001 000 001 001 000 001 001 000 000 001 000 001 -01 001 001 -01 001 -01 000 -01 -01 000 000 001 001 -01 000 000 -01 000 001 001 001 -01 -01 000 000 000 001 000 000 -01 -01 001 000 -01 -01 000 000 001 000 -01 000 -01 001 000 001 -01 -01 000 001 -01 -01 
000 000 001 -01 -01 -01 -01 000 000 000 001 000 001 000 001 000 000 001 -01 -01 -01 000 -01 -01 -01 -01 001 001 000 -01 001 001 000 001 -01 -01 000 001 001 -01 000 -01 000 000 000 -01 -01 000 000 -01 -01 000 -01 -01 000 000 -01 000 001 001 -01 000 000 001 
001 001 001 -01 001 000 -01 -01 -01 001 001 001 001 000 -01 001 -01 000 -01 000 -01 000 001 -01 -01 001 001 001 -01 001 001 -01 -01 000 000 001 -01 000 000 -01 -01 001 000 -01 -01 000 -01 000 -01 -01 001 001 -01 -01 000 001 000 000 001 001 001 -01 000 -01 
000 000 000 000 001 001 -01 000 -01 000 000 001 001 001 000 000 001 -01 001 000 001 -01 -01 001 001 000 001 -01 000 000 001 -01 -01 -01 -01 000 000 -01 000 001 001 000 -01 000 000 001 000 -01 000 001 000 001 -01 001 -01 001 000 -01 -01 -01 001 000 000 000 
001 001 000 000 -01 001 -01 -01 -01 000 -01 -01 000 000 -01 000 000 -01 001 -01 000 000 -01 000 000 000 001 000 -01 000 001 001 001 -01 001 000 001 000 001 001 000 000 000 001 000 000 000 -01 000 -01 -01 001 -01 001 001 001 000 -01 -01 001 -01 -01 -01 001 
000 -01 000 000 001 -01 -01 001 -01 -01 -01 -01 -01 000 000 001 001 001 -01 -01 -01 000 -01 -01 000 001 -01 -01 000 -01 001 001 000 000 000 001 000 000 001 -01 001 -01 001 -01 001 000 000 000 000 001 001 -01 -01 001 000 001 001 -01 -01 -01 000 000 -01 -01 
001 001 001 000 001 001 000 -01 001 001 001 000 -01 001 001 000 001 001 000 -01 001 -01 001 -01 001 000 -01 000 001 -01 000 -01 000 000 000 000 001 001 000 -01 000 000 000 001 -01 -01 001 001 001 -01 001 -01 000 001 000 -01 -01 001 000 000 001 -01 -01 000 
-01 000 000 001 001 000 -01 -01 000 001 -01 001 000 -01 -01 000 001 001 001 001 000 001 -01 -01 -01 001 000 000 000 000 001 001 -01 001 -01 -01 000 000 000 -01 000 001 001 000 -01 001 000 000 -01 -01 001 000 -01 000 -01 001 -01 -01 001 -01 000 001 -01 000 
-01 -01 -01 -01 001 -01 001 000 001 001 -01 000 001 -01 -01 000 -01 -01 001 -01 -01 -01 -01 -01 000 000 001 -01 000 -01 000 000 -01 001 000 000 000 001 001 000 001 -01 001 001 000 -01 001 001 000 -01 001 000 -01 000 -01 001 000 001 000 001 001 -01 000 -01 
001 000 -01 001 000 001 000 001 -01 001 -01 000 -01 000 000 -01 001 000 -01 -01 -01 001 000 000 001 000 -01 000 000 001 001 001 -01 -01 000 000 001 000 000 000 001 001 -01 -01 000 001 001 -01 001 000 000 -01 001 -01 000 000 -01 001 001 001 000 001 -01 000 
000 -01 000 -01 001 000 001 000 000 001 001 000 -01 000 001 -01 -01 001 000 001 -01 000 -01 000 -01 000 -01 001 -01 000 000 -01 -01 000 001 -01 -01 000 -01 -01 -01 -01 001 000 -01 001 -01 -01 -01 -01 001 000 -01 -01 000 000 000 000 -01 000 -01 000 -01 001 
-01 001 000 001 000 001 -01 000 -01 000 000 000 -01 000 -01 000 001 000 001 000 000 000 001 -01 -01 000 000 000 -01 001 -01 000 000 -01 000 -01 -01 -01 000 000 000 -01 000 000 001 001 001 001 000 000 000 -01 000 001 001 -01 -01 -01 001 000 000 -01 001 001 
001 000 -01 001 001 -01 -01 000 001 000 000 001 -01 001 001 000 -01 000 000 000 001 001 -01 001 001 000 000 -01 000 000 001 001 001 -01 001 -01 000 001 000 -01 000 000 001 000 001 001 -01 001 000 -01 000 000 -01 001 000 001 001 -01 001 -01 001 001 -01 000 
000 001 -01 001 001 -01 000 001 001 001 001 -01 000 001 -01 -01 -01 001 -01 -01 -01 -01 001 000 -01 -01 000 000 000 -01 000 000 000 000 -01 001 -01 000 000 001 001 001 000 -01 001 000 000 000 001 001 -01 -01 -01 001 -01 001 000 000 001 000 000 001 000 -01 
001 000 -01 -01 -01 -01 001 -01 -01 000 -01 -01 001 000 000 000 -01 -01 000 000 000 001 001 -01 001 000 000 -01 -01 001 -01 000 -01 001 -01 -01 000 -01 -01 000 001 000 000 -01 001 -01 000 000 -01 001 000 001 001 000 -01 -01 000 -01 001 001 -01 -01 000 000 
001 -01 000 -01 001 001 001 001 001 001 000 000 -01 000 001 000 -01 000 -01 001 -01 -01 -01 -01 000 000 -01 001 -01 000 001 -01 000 000 000 -01 000 000 000 001 000 -01 001 001 -01 000 001 -01 000 000 -01 000 000 000 000 001 -01 -01 000 -01 000 -01 -01 000 
001 001 001 -01 -01 -01 000 -01 001 -01 000 000 001 001 -01 000 001 -01 001 001 001 001 -01 001 001 -01 001 001 -01 001 001 001 000 000 000 001 -01 -01 000 001 001 000 000 000 001 000 001 -01 -01 000 -01 001 000 000 001 -01 -01 -01 000 -01 -01 -01 000 -01 
-01 001 000 000 -01 000 -01 000 001 -01 -01 -01 -01 001 -01 000 001 001 000 001 001 001 000 -01 001 000 000 001 001 000 000 001 -01 001 -01 001 000 -01 -01 000 000 001 000 001 001 -01 001 001 001 001 000 -01 001 001 001 000 000 000 -01 -01 -01 001 001 001 
001 001 001 000 001 000 000 001 000 -01 001 -01 000 001 001 -01 000 -01 -01 -01 -01 -01 -01 -01 001 -01 000 001 000 001 -01 001 000 000 001 001 -01 000 001 000 -01 000 -01 -01 -01 000 001 -01 001 001 000 001 -01 000 001 000 -01 -01 001 -01 001 000 000 000 
000 001 001 001 000 -01 001 001 000 000 -01 -01 -01 000 000 -01 000 000 -01 000 001 001 000 -01 001 000 001 000 000 -01 001 -01 -01 001 001 001 001 001 000 001 000 000 001 000 -01 000 -01 000 001 000 000 000 001 000 001 000 001 -01 001 -01 000 001 000 -01 
-01 001 -01 001 000 -01 001 000 -01 000 001 -01 000 000 001 000 001 000 000 -01 -01 000 001 000 000 -01 -01 001 001 000 000 001 -01 -01 -01 001 001 001 001 -01 000 001 000 001 000 000 -01 000 -01 001 -01 -01 001 -01 -01 001 -01 001 000 -01 000 000 000 000 
000 000 -01 001 001 000 001 001 000 001 000 -01 001 -01 000 -01 -01 001 001 000 -01 000 000 -01 000 001 -01 000 000 -01 001 -01 001 001 001 000 000 -01 -01 -01 000 000 -01 001 -01 -01 -01 000 001 -01 001 000 -01 000 001 -01 -01 -01 000 001 000 001 -01 000 
000 001 -01 001 001 -01 -01 000 001 -01 -01 -01 000 001 000 000 001 001 001 -01 -01 000 -01 000 -01 000 -01 001 -01 001 000 -01 -01 001 -01 000 001 001 001 -01 001 000 -01 -01 -01 001 000 000 001 -01 -01 001 001 -01 -01 -01 -01 000 001 001 000 001 001 -01 
-01 -01 001 001 000 000 000 001 -01 001 -01 001 000 -01 000 001 001 000 001 -01 000 001 000 000 001 000 001 -01 001 001 -01 001 001 000 000 -01 000 000 000 001 000 001 -01 000 000 000 -01 000 001 000 001 000 000 001 -01 001 -01 000 001 001 -01 001 000 000 
000 001 001 001 -01 -01 000 -01 001 001 001 -01 -01 -01 000 000 000 001 001 -01 001 001 000 001 001 001 -01 001 001 001 000 001 000 000 000 -01 001 -01 000 -01 001 001 001 -01 -01 001 001 -01 -01 000 000 001 -01 001 -01 000 -01 -01 000 001 000 001 000 -01 
000 001 000 001 001 -01 -01 000 000 000 -01 -01 -01 000 -01 -01 000 001 001 000 -01 001 -01 -01 000 000 001 000 -01 001 -01 001 -01 -01 -01 -01 -01 000 001 000 000 -01 -01 -01 000 001 000 001 001 000 001 001 001 -01 -01 000 000 000 001 001 000 -01 -01 000 
000 000 001 -01 001 -01 001 -01 001 -01 -01 -01 001 001 001 001 001 -01 -01 000 001 -01 000 -01 000 001 001 000 -01 001 001 -01 001 001 -01 001 000 001 -01 -01 000 001 000 001 001 001 001 001 000 000 001 -01 000 -01 001 000 001 -01 000 001 000 -01 001 001 
-01 001 000 001 001 001 001 -01 001 000 -01 001 001 000 001 -01 000 000 -01 000 001 -01 001 000 000 001 001 001 -01 000 -01 -01 001 000 000 000 001 -01 000 001 001 000 000 000 001 000 -01 001 000 000 -01 001 000 -01 001 -01 -01 000 001 001 000 000 001 -01 
001 -01 -01 001 001 -01 -01 -01 001 000 001 000 001 000 000 001 -01 -01 001 -01 000 001 -01 001 000 000 -01 000 -01 001 000 001 000 001 001 -01 001 000 -01 000 000 -01 001 -01 000 -01 000 -01 000 -01 -01 -01 000 -01 -01 001 001 000 001 001 001 001 -01 001 
001 001 -01 001 000 000 000 -01 001 001 000 001 -01 000 -01 -01 000 000 -01 001 001 -01 000 001 001 001 -01 000 -01 001 -01 001 001 -01 000 000 001 000 000 000 001 -01 001 001 000 001 000 -01 000 000 001 001 000 -01 000 001 000 000 001 -01 001 -01 000 000 
-01 001 000 -01 001 001 -01 000 000 001 -01 000 -01 000 -01 000 001 001 -01 -01 001 001 001 -01 001 001 001 001 001 001 001 001 000 001 000 000 -01 000 -01 000 -01 001 000 001 001 000 000 000 001 001 -01 001 001 -01 001 001 001 000 000 -01 001 001 -01 -01 
000 000 -01 001 001 001 001 -01 000 000 -01 -01 001 -01 001 001 001 001 000 -01 001 001 000 001 -01 001 -01 -01 000 001 001 000 000 000 000 -01 -01 000 000 001 000 000 001 -01 -01 -01 001 000 000 -01 001 000 001 -01 000 -01 000 000 000 000 -01 000 001 001 
001 001 -01 -01 001 000 001 -01 000 -01 000 -01 001 001 -01 -01 000 -01 -01 001 000 -01 -01 001 001 -01 001 -01 001 001 -01 000 000 001 -01 001 000 001 001 -01 000 001 000 -01 -01 000 001 001 -01 -01 000 -01 000 -01 001 001 000 001 -01 -01 001 001 000 -01 
001 000 -01 001 001 -01 001 000 -01 -01 -01 -01 001 000 000 001 001 001 000 -01 000 001 001 001 001 000 001 000 -01 000 -01 001 -01 -01 001 -01 000 001 001 000 000 -01 000 -01 000 001 -01 001 -01 001 -01 000 001 001 -01 001 001 001 000 000 001 000 000 001 
-01 001 001 001 001 001 000 001 -01 000 -01 000 000 001 -01 001 001 -01 -01 001 000 001 -01 -01 -01 001 000 001 -01 -01 000 001 000 000 -01 -01 -01 -01 001 -01 -01 -01 000 000 000 -01 000 -01 000 000 -01 -01 000 -01 001 000 001 -01 -01 001 -01 000 -01 000 
000 -01 001 -01 000 000 001 001 001 -01 000 -01 -01 001 -01 000 -01 000 -01 000 001 000 -01 -01 000 -01 000 000 -01 001 000 000 -01 001 001 000 000 -01 000 -01 001 -01 000 000 -01 001 000 -01 001 -01 -01 000 -01 000 000 001 001 000 000 -01 001 001 000 001 
001 -01 000 000 000 001 001 001 -01 001 000 -01 001 001 001 000 000 000 -01 001 -01 001 000 -01 -01 001 001 001 001 000 -01 -01 -01 -01 001 000 000 000 001 001 001 001 001 000 -01 001 000 000 000 -01 000 001 -01 -01 -01 001 001 -01 000 000 -01 001 001 -01 
-01 001 000 -01 -01 -01 -01 -01 -01 000 000 -01 000 000 -01 001 000 000 -01 000 -01 001 -01 -01 001 001 -01 -01 001 001 000 001 -01 -01 001 000 001 000 000 -01 -01 001 001 -01 000 -01 -01 001 -01 -01 -01 001 000 001 001 -01 000 -01 -01 001 000 001 000 000 
-01 -01 001 000 000 001 000 001 001 -01 001 -01 000 001 -01 -01 000 000 000 000 001 001 001 001 001 000 001 001 000 001 -01 -01 001 001 001 -01 000 -01 000 000 000 000 001 000 000 000 -01 -01 000 000 000 -01 000 000 000 001 -01 001 000 000 -01 001 001 -01 
000 001 000 001 001 000 -01 000 001 -01 001 -01 000 000 000 001 000 001 001 000 001 -01 001 000 -01 -01 001 -01 -01 001 000 001 001 -01 001 001 001 -01 000 -01 000 001 -01 001 001 -01 000 -01 000 -01 000 000 -01 -01 000 000 -01 -01 001 001 000 000 000 -01 
000 001 001 001 -01 001 -01 000 001 -01 -01 000 001 001 000 001 000 001 001 000 001 -01 001 001 000 000 000 000 001 000 000 000 001 -01 001 001 -01 -01 000 -01 000 000 001 -01 -01 -01 000 -01 -01 001 000 001 -01 -01 -01 001 000 000 000 -01 001 000 000 000 
000 001 -01 001 000 001 000 001 001 000 -01 000 -01 000 -01 001 -01 000 000 -01 001 000 -01 001 000 001 000 001 -01 001 -01 000 001 -01 000 -01 000 001 001 -01 000 000 -01 000 -01 000 -01 001 001 000 -01 -01 -01 000 000 000 -01 001 -01 001 -01 001 000 001 
001 -01 000 -01 001 000 -01 000 -01 000 -01 000 000 -01 001 001 000 001 -01 000 -01 -01 001 000 -01 001 001 -01 -01 -01 -01 -01 -01 001 001 001 001 001 000 000 -01 -01 000 000 001 000 -01 001 000 001 -01 -01 001 001 -01 001 000 -01 000 000 -01 -01 -01 -01 
-01 001 000 001 000 -01 000 001 000 -01 001 -01 000 -01 001 001 001 001 -01 -01 000 001 000 -01 001 001 -01 -01 -01 -01 -01 001 001 001 001 000 001 001 000 001 000 001 001 001 001 001 000 -01 001 001 001 001 -01 000 001 001 000 000 001 000 -01 001 -01 -01 
001 001 -01 -01 -01 001 -01 000 -01 -01 -01 001 001 001 000 001 000 -01 -01 000 000 001 000 001 -01 000 001 001 000 000 -01 -01 001 000 -01 000 001 000 000 000 000 000 -01 -01 -01 000 000 000 -01 001 000 000 001 001 000 -01 000 001 001 001 000 001 -01 001 
-01 001 -01 001 000 000 -01 -01 000 -01 -01 001 -01 000 000 000 -01 001 001 -01 000 001 001 000 -01 001 -01 001 001 001 001 000 001 000 -01 000 001 001 001 000 001 000 -01 000 001 000 -01 001 -01 -01 001 001 -01 -01 -01 -01 -01 000 -01 001 001 000 000 000 
001 000 001 000 000 -01 001 -01 000 001 000 -01 000 001 -01 001 -01 000 001 001 001 001 001 000 001 001 000 000 -01 -01 000 001 001 000 001 001 001 001 000 001 000 000 -01 000 -01 000 000 001 -01 -01 001 001 000 001 000 -01 000 000 001 000 001 -01 001 000 
001 001 -01 -01 -01 -01 000 001 -01 000 -01 000 001 001 -01 000 000 -01 000 001 000 000 000 001 -01 000 -01 000 001 001 000 000 001 000 000 000 001 -01 001 000 000 -01 001 000 -01 -01 001 -01 -01 000 -01 000 -01 000 -01 -01 001 -01 -01 001 000 001 001 -01 
-01 001 -01 000 001 001 -01 001 000 000 001 000 -01 001 001 000 -01 001 000 001 000 -01 001 -01 000 001 -01 001 001 001 -01 000 000 001 001 000 000 001 001 001 001 000 000 001 000 000 001 -01 -01 000 -01 000 -01 -01 000 -01 -01 -01 -01 000 001 -01 -01 000 
-01 001 001 -01 -01 001 001 000 -01 001 -01 001 001 000 001 001 -01 000 001 001 -01 000 000 001 001 001 001 000 000 -01 -01 001 -01 000 -01 001 000 -01 000 001 000 000 000 000 000 -01 001 001 001 001 000 000 000 000 000 -01 000 -01 -01 -01 000 -01 -01 -01 
-01 000 -01 000 -01 001 000 001 001 001 001 -01 -01 000 -01 -01 -01 001 000 000 -01 001 -01 000 -01 001 -01 001 001 -01 000 -01 000 000 -01 -01 001 -01 001 -01 -01 -01 001 000 -01 -01 000 001 -01 -01 001 -01 000 001 -01 001 001 001 001 000 000 000 000 -01 
-01 -01 001 000 000 000 -01 000 000 001 000 -01 000 000 001 000 -01 001 -01 -01 -01 001 000 001 001 001 000 -01 -01 -01 -01 001 -01 000 000 001 -01 -01 000 -01 -01 -01 000 000 001 -01 000 -01 000 000 000 -01 -01 000 -01 -01 001 001 000 001 -01 001 -01 000 
000 000 001 000 -01 000 -01 001 -01 -01 000 -01 -01 000 001 001 001 000 001 -01 -01 000 000 000 000 001 000 000 -01 001 -01 -01 000 001 001 001 000 001 001 001 001 001 001 -01 000 -01 001 -01 001 001 000 -01 -01 000 -01 001 -01 001 000 001 000 -01 -01 001 
001 000 000 -01 000 -01 -01 001 000 -01 000 -01 -01 -01 -01 001 -01 001 -01 -01 001 -01 001 001 -01 000 -01 000 000 001 -01 -01 001 -01 001 001 001 001 001 001 000 -01 001 001 000 001 000 001 -01 -01 000 000 000 001 -01 -01 000 -01 001 -01 001 -01 -01 000 
000 -01 -01 -01 001 -01 -01 000 000 -01 000 000 -01 001 001 001 000 000 000 001 001 000 000 001 -01 001 000 000 000 000 001 000 000 000 -01 000 001 000 -01 -01 000 001 -01 001 000 -01 000 -01 001 000 001 000 -01 000 -01 001 -01 001 001 001 -01 000 001 000 
000 -01 001 000 000 000 001 000 000 001 -01 -01 001 -01 -01 000 001 000 -01 000 001 001 001 -01 -01 001 001 -01 001 -01 -01 000 000 000 000 001 -01 000 000 001 -01 000 000 -01 -01 001 001 -01 001 000 000 000 001 -01 001 000 000 001 000 -01 001 001 -01 -01 
001 000 000 -01 001 000 -01 -01 001 001 000 001 000 001 -01 001 000 -01 -01 001 001 001 000 -01 001 -01 000 001 -01 -01 000 000 000 -01 000 000 001 -01 000 000 -01 000 -01 000 000 000 000 001 000 000 001 000 -01 000 -01 001 000 -01 000 -01 000 -01 001 001 
-01 -01 001 001 000 000 000 001 000 -01 -01 001 -01 -01 -01 -01 000 001 000 000 -01 000 -01 -01 000 001 001 001 001 000 000 000 000 001 000 001 001 001 001 001 000 000 000 -01 -01 -01 000 001 000 000 001 001 001 -01 -01 000 -01 000 -01 000 -01 000 000 000 
001 -01 001 001 001 000 -01 001 000 000 000 -01 001 -01 000 000 001 000 001 001 -01 001 001 000 001 000 001 001 000 -01 -01 001 000 -01 -01 -01 -01 -01 000 -01 000 000 000 -01 000 -01 -01 -01 -01 000 001 000 001 001 001 001 -01 001 000 001 000 000 -01 001 
-01 001 000 000 001 -01 000 001 000 000 001 001 001 -01 001 000 001 001 000 -01 001 000 -01 -01 000 -01 000 001 001 -01 001 -01 -01 -01 000 -01 000 001 001 -01 -01 001 -01 000 001 000 001 001 000 -01 -01 000 -01 -01 001 001 -01 -01 001 001 -01 001 000 001 
000 -01 000 -01 000 000 000 001 -01 -01 000 -01 -01 001 -01 001 000 000 001 -01 001 001 001 000 -01 -01 000 -01 000 -01 000 001 001 000 000 001 -01 001 000 001 -01 000 -01 -01 000 -01 001 001 001 -01 000 000 001 000 001 -01 -01 000 000 -01 -01 001 000 -01 
000 001 -01 000 000 -01 000 001 001 001 -01 000 -01 000 000 -01 001 000 000 000 001 001 001 -01 001 -01 -01 000 -01 001 001 000 000 -01 -01 000 000 001 000 -01 000 001 -01 -01 001 000 000 -01 000 001 001 000 001 001 001 001 -01 -01 -01 001 001 -01 000 000 
-01 -01 001 001 -01 -01 000 001 -01 000 000 000 -01 -01 000 001 000 001 001 -01 001 000 001 000 001 001 -01 001 -01 000 001 -01 001 001 -01 -01 000 -01 -01 -01 000 001 -01 001 -01 000 000 000 000 -01 001 000 000 001 -01 001 001 000 000 001 001 000 000 001 
-01 001 000 001 -01 000 001 001 001 000 001 001 -01 001 001 000 -01 001 000 001 001 000 001 -01 000 001 -01 001 001 -01 000 000 001 000 -01 000 -01 000 001 -01 000 000 -01 001 001 001 001 001 000 -01 000 000 001 000 001 000 -01 000 001 -01 -01 001 001 -01 
001 000 -01 -01 -01 000 000 001 001 -01 001 001 001 000 -01 000 -01 -01 001 -01 000 000 000 001 001 001 -01 001 000 001 000 001 001 001 000 -01 001 -01 000 001 -01 000 000 001 -01 -01 000 -01 001 000 -01 001 001 001 -01 000 -01 000 000 001 -01 001 000 -01 
-01 -01 001 001 000 -01 000 -01 -01 -01 001 000 -01 -01 -01 000 000 001 001 -01 -01 001 000 -01 -01 001 -01 -01 001 -01 000 -01 000 -01 -01 001 000 000 -01 001 000 -01 001 000 -01 000 001 -01 000 001 -01 001 000 001 000 001 000 -01 -01 000 -01 -01 000 001 
000 000 000 001 000 000 000 000 001 -01 001 001 001 000 000 001 001 -01 001 -01 000 -01 -01 001 -01 000 -01 001 -01 001 -01 000 001 001 000 -01 001 -01 -01 001 -01 000 -01 001 001 000 -01 001 -01 000 001 -01 000 -01 -01 -01 001 000 000 000 -01 001 000 -01 
000 000 -01 001 000 001 000 000 001 -01 000 001 001 001 001 -01 000 000 001 -01 001 001 001 000 001 000 -01 000 001 000 000 001 000 001 -01 000 001 001 000 000 001 -01 001 001 000 -01 -01 001 001 -01 001 -01 001 000 000 001 000 -01 001 001 000 001 -01 001 
001 001 001 000 -01 -01 -01 001 001 -01 001 001 000 000 001 001 001 001 000 001 -01 000 000 000 000 -01 -01 001 000 000 -01 -01 000 000 -01 001 000 001 -01 001 -01 -01 000 001 -01 001 000 000 -01 -01 001 -01 000 -01 000 001 001 -01 000 -01 -01 -01 -01 -01 
001 000 001 000 000 000 -01 000 001 001 001 000 -01 000 001 000 001 000 -01 -01 -01 -01 000 001 -01 -01 000 000 000 001 001 000 -01 001 001 000 -01 -01 000 001 000 001 001 000 001 -01 000 001 000 -01 -01 -01 000 -01 -01 -01 -01 -01 -01 001 000 -01 -01 -01 
000 -01 001 -01 -01 -01 000 001 000 001 000 001 001 000 -01 000 000 001 001 -01 -01 000 001 -01 000 000 001 001 000 -01 001 001 000 000 000 -01 000 -01 -01 000 001 001 000 000 001 -01 001 001 000 000 -01 001 -01 001 000 000 001 000 001 -01 000 -01 -01 -01 
000 001 -01 -01 000 000 -01 -01 000 000 -01 000 000 001 001 000 -01 -01 -01 000 001 -01 -01 000 001 -01 -01 001 001 001 -01 -01 001 -01 -01 000 000 000 -01 001 001 -01 000 000 -01 000 001 001 000 000 001 001 -01 -01 000 000 001 001 -01 001 001 -01 001 001 
-01 000 001 -01 001 000 -01 001 001 001 001 000 001 001 -01 -01 000 -01 000 000 001 001 001 -01 001 001 000 000 001 001 001 001 000 -01 000 001 -01 001 000 000 001 001 -01 001 -01 -01 -01 001 000 001 001 001 000 000 -01 000 -01 -01 -01 001 001 -01 000 000 
-01 -01 -01 001 000 001 000 001 -01 -01 000 000 001 000 000 001 000 000 -01 000 000 001 -01 000 000 000 000 -01 -01 000 000 000 000 001 000 000 001 001 001 000 000 -01 -01 001 001 000 000 -01 000 001 000 001 -01 001 -01 000 001 -01 -01 -01 -01 -01 001 -01 
001 001 -01 -01 -01 000 -01 001 -01 -01 000 -01 001 000 000 000 -01 000 -01 -01 -01 -01 001 -01 001 -01 -01 -01 001 001 001 000 000 -01 000 000 000 000 -01 001 -01 -01 -01 001 -01 000 000 -01 000 001 001 000 -01 -01 001 000 000 000 001 000 000 000 -01 -01 
001 -01 001 -01 -01 001 000 000 001 000 -01 -01 -01 001 000 001 001 -01 001 001 -01 001 000 001 -01 001 001 001 000 000 -01 -01 000 000 001 001 -01 -01 -01 001 000 -01 -01 -01 -01 000 -01 001 000 000 001 -01 001 000 000 000 000 000 001 -01 -01 001 -01 -01 
000 000 000 000 000 001 001 001 000 000 -01 001 000 000 000 -01 001 000 001 000 000 -01 -01 000 -01 000 001 001 -01 000 000 001 -01 000 000 000 001 -01 000 001 000 000 -01 000 -01 001 001 001 001 000 000 001 000 000 -01 -01 -01 000 001 000 000 -01 -01 000 
-01 000 001 000 000 000 -01 001 -01 -01 001 000 001 -01 000 -01 001 000 -01 001 001 000 001 -01 001 001 -01 001 000 -01 -01 -01 000 000 -01 001 000 -01 -01 -01 000 001 001 001 001 000 001 000 -01 001 -01 001 -01 000 -01 001 001 001 -01 000 000 -01 000 001 
000 000 -01 -01 001 -01 -01 001 001 001 -01 001 000 -01 000 000 001 -01 -01 000 -01 000 000 000 -01 001 -01 001 -01 001 001 -01 001 -01 000 -01 000 -01 -01 -01 -01 -01 000 001 001 001 001 -01 001 001 000 -01 -01 000 -01 001 -01 000 000 000 001 000 -01 -01 
001 001 001 000 001 001 000 -01 001 000 000 -01 000 -01 -01 001 -01 001 000 001 -01 000 001 -01 001 001 000 001 -01 001 -01 -01 001 000 -01 -01 000 001 001 001 000 000 -01 001 001 000 001 -01 001 000 -01 -01 -01 -01 -01 001 -01 -01 -01 000 000 001 000 000 
000 -01 001 001 -01 001 001 001 000 000 000 001 -01 000 -01 000 000 001 -01 000 -01 001 000 -01 001 001 -01 000 001 -01 -01 001 -01 001 -01 001 000 000 000 001 001 000 001 001 001 -01 001 001 -01 001 000 001 001 -01 -01 -01 000 000 000 -01 000 -01 001 001 
001 -01 -01 -01 001 -01 001 -01 000 000 001 -01 001 001 001 000 -01 -01 001 -01 001 001 000 000 001 000 -01 001 001 000 000 000 000 000 000 000 -01 001 -01 000 -01 001 001 -01 001 -01 000 -01 000 000 001 001 000 000 000 001 000 000 -01 000 000 001 000 001 
-01 -01 001 -01 001 001 001 000 000 000 000 000 -01 -01 001 001 001 000 000 001 000 000 -01 000 000 001 001 000 001 000 000 -01 000 001 001 001 000 -01 001 000 001 001 000 -01 000 001 000 001 001 001 000 001 001 000 -01 000 000 -01 000 -01 -01 000 -01 000 
001 -01 000 001 -01 000 000 000 000 -01 000 001 000 -01 -01 000 000 -01 001 -01 000 000 000 000 -01 -01 001 -01 001 001 000 -01 -01 -01 000 000 000 001 001 001 -01 000 -01 000 001 000 -01 000 000 000 001 -01 000 001 -01 -01 -01 -01 001 001 001 000 000 000 
-01 000 000 001 000 -01 000 001 -01 000 001 000 -01 000 001 -01 000 000 000 001 -01 001 001 000 -01 001 001 000 000 001 001 001 000 -01 -01 -01 000 -01 000 000 001 001 001 -01 001 001 -01 000 000 -01 000 -01 001 000 001 -01 001 000 000 -01 001 000 001 -01 
-01 -01 000 000 000 001 000 000 001 000 -01 001 001 001 -01 -01 -01 001 001 -01 000 001 001 -01 -01 -01 -01 000 -01 000 -01 -01 001 000 000 000 001 001 001 001 001 000 -01 000 -01 -01 -01 -01 000 -01 -01 001 001 000 001 000 -01 -01 000 001 000 000 000 001 
-01 001 000 001 -01 000 -01 000 001 001 001 001 -01 -01 -01 000 000 001 -01 -01 -01 001 001 000 001 001 000 000 -01 001 -01 001 001 -01 001 001 -01 001 -01 000 000 000 000 -01 000 -01 001 001 -01 -01 001 001 001 -01 000 -01 001 -01 -01 001 000 000 -01 001 
-01 -01 001 -01 -01 000 001 -01 -01 001 000 001 001 -01 001 000 000 000 000 000 -01 001 001 -01 000 000 -01 001 000 001 000 000 001 001 001 001 001 -01 -01 001 -01 000 -01 001 001 001 -01 -01 -01 000 001 -01 -01 001 -01 001 000 000 000 -01 001 001 -01 000 
000 -01 000 000 000 -01 000 001 -01 000 000 -01 -01 -01 001 000 000 000 001 000 -01 -01 000 001 001 001 001 -01 000 -01 000 001 000 001 -01 -01 -01 -01 -01 -01 001 000 000 001 -01 -01 000 -01 001 000 000 000 -01 000 001 -01 -01 -01 001 001 000 -01 001 001 
001 001 001 001 001 -01 001 001 000 000 000 000 -01 -01 -01 001 -01 000 001 001 001 001 -01 001 -01 000 -01 001 000 001 000 -01 000 -01 -01 000 001 -01 000 -01 -01 000 000 001 000 -01 -01 -01 000 000 -01 001 001 000 001 001 000 -01 000 000 -01 001 000 001 
000 000 001 -01 -01 001 000 001 -01 -01 000 000 000 000 000 001 -01 000 -01 001 001 -01 000 -01 000 001 -01 001 -01 001 001 000 001 001 -01 -01 -01 -01 000 001 -01 000 001 000 -01 001 001 -01 -01 001 000 -01 -01 001 001 001 001 000 -01 001 001 -01 -01 000 
-01 -01 001 -01 000 000 000 -01 -01 001 001 001 000 001 000 001 001 000 -01 000 000 001 001 -01 -01 000 -01 001 -01 000 001 000 -01 -01 001 001 001 000 -01 -01 -01 001 001 -01 000 -01 001 001 000 -01 001 001 001 000 -01 001 000 -01 -01 000 001 001 000 001 
001 001 000 000 -01 000 -01 001 000 001 -01 001 -01 001 -01 -01 000 -01 000 001 000 001 -01 -01 -01 000 000 001 001 000 000 000 -01 000 -01 -01 000 -01 000 001 001 -01 000 -01 000 -01 000 000 000 -01 000 -01 000 000 -01 -01 000 000 -01 -01 000 001 000 001 
000 -01 001 -01 -01 001 000 000 000 001 -01 -01 -01 -01 001 001 001 -01 -01 001 000 001 001 000 000 001 -01 001 000 001 001 001 001 001 -01 000 001 -01 000 001 -01 001 000 000 001 001 001 000 001 -01 001 -01 001 000 000 000 001 -01 000 000 -01 001 000 -01 
001 001 -01 001 001 001 000 001 001 000 000 -01 000 -01 -01 -01 -01 000 000 000 -01 000 001 -01 -01 -01 -01 000 -01 001 -01 000 001 000 000 000 -01 001 -01 000 001 -01 001 000 001 -01 000 -01 -01 001 -01 001 001 001 -01 -01 000 000 001 -01 001 000 -01 001 
001 -01 000 001 -01 001 001 001 -01 001 000 001 001 -01 -01 001 000 -01 000 -01 000 000 000 -01 -01 -01 -01 000 -01 000 000 -01 001 000 000 000 -01 000 000 001 001 -01 -01 -01 000 -01 001 000 000 -01 001 001 001 000 001 000 -01 -01 000 -01 000 000 001 001 
-01 -01 000 000 000 000 -01 000 000 001 001 -01 000 -01 000 000 001 000 001 -01 -01 001 001 000 000 001 000 -01 000 000 -01 000 000 001 -01 -01 001 001 -01 -01 000 000 001 -01 -01 -01 000 001 000 001 001 -01 000 -01 -01 000 -01 -01 001 001 001 000 -01 -01 
-01 -01 001 000 -01 001 -01 001 000 001 000 000 001 001 001 000 -01 001 -01 001 000 001 001 000 001 001 -01 000 001 001 000 -01 -01 000 -01 000 -01 000 -01 000 -01 -01 000 -01 001 000 001 -01 001 -01 -01 001 000 000 -01 -01 -01 001 001 -01 -01 000 000 001 
-01 000 001 000 000 000 -01 000 000 000 -01 000 000 000 000 001 000 000 000 001 001 -01 -01 000 000 -01 -01 001 000 -01 001 -01 -01 000 -01 001 000 000 000 000 -01 001 000 -01 000 000 001 -01 001 001 001 000 000 -01 -01 001 -01 001 001 -01 000 001 001 001 
001 000 -01 000 000 000 000 001 000 001 000 000 001 000 000 001 -01 000 -01 -01 -01 -01 -01 -01 001 001 001 -01 -01 000 000 -01 001 -01 001 -01 000 000 -01 -01 000 -01 000 -01 -01 -01 -01 001 001 001 001 -01 001 001 000 -01 001 -01 001 000 001 001 000 000 
001 000 000 000 000 000 000 000 -01 000 000 001 -01 -01 001 -01 000 -01 -01 001 001 001 000 -01 -01 -01 001 -01 000 001 001 -01 001 -01 -01 001 001 000 000 -01 -01 -01 000 -01 -01 000 -01 001 000 001 000 000 -01 -01 -01 001 -01 000 000 000 -01 -01 -01 -01 
000 000 -01 000 001 001 000 000 001 000 000 -01 -01 000 000 001 001 001 001 -01 001 -01 000 000 001 001 000 001 001 001 -01 000 -01 000 -01 000 -01 000 000 000 -01 -01 000 000 001 001 001 -01 001 -01 -01 001 000 -01 -01 001 001 000 -01 000 -01 000 -01 000 
001 -01 001 001 001 001 000 001 -01 001 000 001 001 000 000 000 000 -01 001 000 000 000 001 -01 000 -01 001 000 000 000 000 001 000 000 001 001 -01 -01 000 000 -01 -01 000 000 001 -01 -01 001 001 001 -01 -01 000 000 000 000 001 000 -01 -01 000 001 -01 000 
001 000 -01 001 001 001 000 000 001 000 001 001 001 001 -01 -01 -01 000 -01 -01 001 001 -01 000 001 000 001 000 000 000 001 000 000 000 000 001 -01 -01 000 000 -01 000 -01 000 -01 001 001 000 -01 000 000 001 000 -01 000 -01 000 -01 001 001 -01 -01 -01 -01 
-01 001 000 000 001 000 000 001 001 000 000 -01 -01 -01 -01 000 001 001 000 001 000 -01 -01 001 000 001 -01 -01 000 001 001 001 -01 -01 001 -01 000 000 000 000 000 001 001 001 000 -01 -01 -01 001 -01 001 000 001 000 000 001 000 -01 000 -01 -01 001 000 001 
000 -01 -01 001 001 001 -01 -01 -01 -01 001 000 001 001 -01 000 000 000 000 001 000 000 000 001 -01 -01 000 000 -01 001 -01 -01 000 000 000 -01 -01 -01 -01 001 -01 -01 -01 -01 -01 001 -01 -01 -01 000 000 000 001 000 001 -01 -01 000 000 -01 001 -01 -01 -01 
001 001 -01 001 001 001 000 001 000 000 -01 000 -01 001 001 001 -01 001 -01 001 000 -01 000 -01 001 -01 000 001 -01 -01 000 -01 -01 000 001 000 -01 001 -01 -01 000 001 000 001 000 -01 001 001 -01 000 000 -01 000 001 001 001 -01 -01 -01 -01 -01 001 001 000 
000 -01 000 001 000 -01 -01 -01 000 000 000 000 -01 -01 000 000 000 -01 001 001 -01 001 001 -01 000 001 001 001 000 000 001 001 001 -01 -01 -01 000 -01 001 -01 -01 001 001 000 000 -01 000 -01 000 001 001 -01 001 001 000 001 000 -01 -01 -01 000 001 001 -01 
000 001 000 -01 -01 001 -01 -01 000 001 -01 001 000 001 000 -01 -01 -01 000 001 000 000 -01 000 001 001 000 -01 001 -01 001 000 -01 000 001 -01 001 -01 001 -01 -01 000 000 -01 -01 000 000 000 000 -01 -01 001 000 001 001 -01 001 001 -01 -01 -01 -01 -01 -01 
000 -01 001 001 001 000 000 000 000 000 -01 -01 001 000 -01 000 001 -01 000 000 001 -01 001 -01 000 000 000 000 001 000 000 001 -01 000 001 000 000 -01 -01 -01 -01 000 -01 000 001 -01 001 001 000 001 000 -01 000 -01 001 -01 001 000 -01 000 000 -01 000 -01 
-01 000 -01 001 -01 000 000 000 000 -01 000 000 -01 000 001 001 -01 001 001 000 000 -01 001 000 001 000 -01 000 -01 001 000 001 000 -01 001 000 -01 000 001 -01 -01 -01 000 -01 000 001 000 000 000 -01 000 000 000 000 000 001 -01 -01 -01 -01 000 -01 001 001 
001 000 -01 000 -01 000 -01 001 000 001 001 -01 000 -01 -01 -01 000 001 -01 001 001 001 -01 001 -01 -01 001 001 000 001 000 001 000 -01 -01 001 001 -01 000 001 -01 000 000 -01 001 001 -01 001 001 -01 001 001 -01 -01 -01 -01 001 -01 001 000 001 000 -01 -01 
000 001 -01 -01 000 -01 001 001 000 001 -01 000 001 -01 000 001 -01 000 -01 001 -01 000 001 -01 000 000 000 -01 001 001 000 000 000 -01 001 000 000 000 -01 001 001 001 -01 -01 -01 001 -01 001 000 -01 000 001 -01 000 001 000 001 000 001 000 001 001 -01 000 
-01 001 001 000 -01 000 -01 001 -01 001 001 001 -01 000 001 000 001 001 -01 -01 001 001 000 000 -01 000 -01 001 000 000 001 000 001 -01 001 000 001 -01 -01 -01 -01 000 -01 000 000 000 -01 -01 001 001 001 001 -01 001 000 001 001 -01 -01 000 001 -01 -01 000 
000 000 -01 -01 -01 -01 -01 000 -01 001 001 001 000 -01 000 -01 -01 -01 -01 -01 001 -01 -01 001 001 001 001 001 000 001 -01 001 001 000 -01 -01 -01 -01 001 -01 000 000 001 -01 000 001 -01 -01 -01 000 000 -01 000 000 001 -01 001 -01 000 -01 001 000 -01 000 
001 000 000 -01 001 000 000 -01 -01 -01 001 000 -01 000 000 -01 000 000 -01 000 -01 000 000 000 000 000 000 000 001 000 001 001 -01 -01 001 001 001 000 -01 001 000 000 -01 001 000 001 -01 -01 -01 -01 000 000 000 000 -01 -01 -01 001 001 001 000 -01 000 -01 
000 -01 000 000 000 000 001 000 000 000 000 001 000 001 000 001 000 -01 000 000 001 001 001 000 000 001 -01 -01 000 000 000 000 -01 000 000 001 -01 001 -01 -01 000 001 -01 000 001 -01 001 001 -01 -01 001 -01 -01 -01 001 -01 -01 -01 001 -01 -01 001 000 001 
001 -01 000 000 000 -01 001 000 -01 001 000 001 001 001 000 000 -01 001 000 001 001 000 000 -01 000 000 000 000 -01 000 -01 -01 001 000 -01 001 -01 000 000 000 -01 000 001 -01 -01 001 001 000 -01 001 -01 -01 -01 -01 000 -01 -01 -01 -01 000 000 -01 000 000 
000 000 001 -01 -01 -01 -01 -01 -01 001 000 -01 001 000 -01 000 -01 -01 001 -01 001 -01 -01 000 000 -01 -01 000 001 000 000 001 -01 001 000 001 -01 001 000 000 001 -01 000 001 000 001 000 001 -01 000 -01 001 001 000 000 -01 000 001 000 -01 000 000 -01 001 
000 001 -01 -01 -01 -01 000 -01 000 -01 000 001 -01 -01 -01 000 001 001 -01 001 000 000 000 000 000 000 -01 000 001 -01 000 -01 000 000 001 001 -01 000 -01 -01 000 -01 001 -01 -01 -01 001 000 -01 000 -01 -01 -01 001 -01 001 001 001 000 000 -01 001 001 000 
001 -01 000 -01 001 001 001 -01 001 001 001 000 -01 000 -01 001 001 -01 001 000 000 001 -01 -01 -01 000 001 -01 000 001 -01 000 -01 000 000 001 000 -01 -01 000 001 000 -01 -01 000 001 001 -01 001 000 001 000 -01 -01 001 -01 001 -01 000 001 -01 -01 -01 -01 
-01 000 000 001 000 001 000 001 000 -01 000 001 000 001 001 000 001 001 -01 001 000 000 001 001 -01 -01 -01 -01 001 -01 000 000 -01 -01 -01 000 000 001 000 -01 001 -01 -01 000 000 000 001 -01 000 000 000 000 000 001 001 001 000 001 000 -01 000 001 -01 000 
-01 -01 -01 001 001 -01 001 -01 000 000 -01 001 000 -01 000 001 000 -01 -01 000 -01 -01 000 -01 -01 000 001 000 -01 000 001 000 000 -01 -01 -01 000 001 000 000 -01 001 -01 001 001 000 -01 001 -01 000 000 -01 001 -01 -01 -01 -01 001 001 -01 000 000 000 000 
000 000 000 -01 000 -01 001 001 000 000 -01 -01 000 001 000 001 000 000 -01 -01 -01 -01 000 001 000 000 -01 000 001 -01 001 001 -01 -01 -01 000 001 -01 001 -01 001 -01 001 -01 -01 -01 000 -01 -01 000 000 -01 -01 001 -01 001 001 -01 000 001 000 000 001 000 
001 000 000 -01 000 000 000 001 -01 000 -01 000 000 001 -01 -01 000 -01 001 -01 000 000 001 001 -01 -01 001 000 000 000 001 001 000 000 -01 -01 -01 001 000 000 000 000 -01 001 -01 -01 001 -01 -01 000 -01 -01 001 000 -01 -01 001 001 -01 000 000 -01 -01 001 
000 -01 -01 001 000 000 000 000 001 -01 001 001 -01 001 -01 -01 000 -01 001 001 000 000 001 -01 001 001 -01 001 -01 -01 000 -01 -01 001 001 000 000 001 000 001 000 001 000 -01 000 -01 000 000 -01 001 -01 001 000 001 001 000 000 001 000 -01 -01 -01 000 001 
001 000 -01 000 -01 001 001 001 000 001 -01 000 -01 -01 -01 -01 000 -01 000 000 000 000 001 -01 000 -01 -01 001 000 000 001 000 000 001 001 001 000 -01 -01 -01 001 000 001 000 000 001 001 000 -01 000 -01 -01 001 001 000 -01 000 000 -01 001 001 001 -01 000 
000 001 -01 001 -01 -01 000 -01 001 000 001 -01 001 001 001 001 000 001 001 000 000 001 001 001 000 -01 -01 001 001 000 001 000 -01 -01 001 001 000 -01 -01 -01 000 -01 000 001 -01 000 000 -01 001 001 000 001 000 -01 -01 000 -01 -01 -01 000 001 -01 000 -01 
-01 001 000 001 -01 -01 -01 000 000 -01 -01 000 -01 -01 001 000 -01 000 000 000 000 000 000 -01 000 -01 001 000 -01 -01 000 000 -01 000 001 000 001 001 001 -01 000 001 001 -01 -01 -01 000 000 000 -01 001 -01 -01 001 -01 001 -01 001 001 -01 000 -01 001 -01 
-01 001 001 001 -01 -01 001 000 001 000 -01 000 001 000 001 000 -01 001 000 -01 000 -01 000 -01 000 000 000 001 000 -01 001 -01 000 -01 000 000 000 -01 000 -01 -01 000 001 -01 001 000 000 001 001 000 000 000 000 -01 000 001 -01 001 -01 000 000 000 000 000 
000 -01 -01 001 001 001 000 -01 001 001 001 -01 -01 -01 000 000 -01 000 000 -01 000 001 -01 001 001 001 000 000 000 000 001 001 -01 001 -01 001 -01 -01 001 -01 001 -01 -01 -01 001 000 001 -01 000 001 -01 -01 -01 000 000 000 000 -01 -01 -01 -01 -01 000 000 
001 000 -01 000 000 000 -01 -01 -01 -01 -01 001 000 001 000 -01 000 001 001 -01 000 001 -01 -01 -01 001 -01 000 001 001 000 -01 000 001 001 -01 001 -01 -01 -01 001 -01 -01 -01 001 000 -01 000 000 -01 000 000 000 001 -01 001 000 000 001 -01 001 000 -01 000 
-01 -01 -01 000 -01 000 000 001 -01 001 001 -01 000 -01 001 -01 000 -01 000 001 000 -01 000 000 -01 -01 000 000 001 -01 001 000 -01 -01 001 000 -01 -01 -01 000 000 000 000 -01 -01 001 000 001 -01 001 001 000 001 001 000 -01 -01 000 000 000 -01 -01 000 001 
001 -01 000 000 000 000 000 001 001 001 001 -01 001 001 -01 000 001 -01 000 -01 000 -01 001 000 000 -01 000 -01 001 -01 000 001 -01 -01 000 000 001 000 000 001 000 -01 000 001 000 -01 001 -01 -01 -01 001 001 000 001 000 001 000 -01 -01 000 000 001 -01 -01 
001 -01 001 -01 000 001 000 001 000 -01 001 001 -01 -01 000 001 001 000 000 000 -01 -01 -01 001 001 001 -01 001 -01 -01 -01 001 -01 -01 -01 001 000 001 001 -01 001 000 000 -01 000 -01 001 001 -01 -01 000 -01 -01 -01 000 001 001 001 -01 000 000 -01 001 000 
-01 -01 001 -01 -01 -01 -01 -01 000 -01 -01 000 001 000 001 001 001 -01 000 000 000 001 001 000 000 -01 000 000 001 001 -01 000 000 -01 001 000 000 -01 -01 -01 000 -01 001 001 -01 000 -01 001 001 -01 -01 001 000 -01 -01 000 001 000 -01 000 000 000 000 000 
001 000 001 -01 000 001 -01 -01 000 001 -01 001 000 -01 001 000 000 001 001 001 000 -01 001 -01 -01 000 001 000 000 000 001 000 -01 000 000 001 -01 000 000 000 -01 001 000 -01 000 -01 001 000 -01 001 001 000 -01 -01 -01 -01 001 -01 001 001 001 000 001 -01 
001 -01 000 000 -01 000 000 001 -01 001 000 001 000 001 001 -01 001 001 001 000 -01 000 -01 001 000 001 001 000 -01 000 -01 000 000 001 001 000 000 000 001 001 001 001 -01 000 000 001 -01 000 -01 -01 -01 -01 001 -01 000 -01 001 000 -01 -01 -01 000 -01 -01 
000 000 -01 000 000 001 -01 000 001 001 001 -01 000 -01 000 000 001 000 000 001 -01 -01 000 001 -01 000 000 001 001 000 001 001 -01 -01 001 001 -01 -01 000 -01 000 000 001 000 001 000 000 001 001 000 -01 -01 -01 -01 000 -01 000 -01 000 001 001 000 000 -01 
-01 -01 001 000 001 001 001 -01 000 000 001 001 000 001 -01 -01 001 000 001 001 001 000 000 001 000 -01 000 -01 -01 -01 -01 001 001 001 -01 000 000 001 001 000 -01 001 -01 000 000 000 -01 -01 -01 -01 000 000 000 001 001 000 -01 000 001 000 -01 -01 001 000 
000 001 -01 000 000 -01 -01 001 001 000 001 000 -01 000 001 001 001 -01 001 000 -01 001 000 000 000 000 001 001 001 000 000 -01 001 -01 -01 000 -01 000 001 -01 000 -01 001 000 000 -01 001 001 001 000 000 000 001 000 000 001 -01 000 -01 -01 001 001 001 001 
000 -01 -01 -01 001 000 -01 000 -01 001 000 000 000 000 000 001 001 000 000 000 001 -01 001 001 001 -01 000 -01 -01 001 -01 001 000 -01 -01 001 001 000 -01 000 -01 -01 001 -01 000 -01 001 000 000 001 -01 001 001 001 -01 001 001 -01 -01 001 000 001 000 000 
001 -01 001 001 000 001 000 001 001 -01 001 -01 001 -01 000 000 001 -01 001 000 -01 -01 -01 001 001 001 000 000 -01 -01 -01 000 001 -01 001 000 -01 000 -01 000 001 -01 -01 -01 -01 001 000 -01 -01 001 001 001 000 000 001 -01 001 001 001 000 -01 000 -01 -01 
000 -01 000 -01 -01 001 001 -01 -01 -01 -01 001 -01 001 000 -01 -01 000 001 -01 001 001 001 001 001 001 000 001 -01 -01 001 001 -01 000 000 -01 001 001 000 001 000 000 -01 001 001 000 001 -01 -01 001 -01 001 -01 001 000 001 001 000 -01 001 -01 000 000 001 
000 -01 001 000 000 000 -01 001 001 -01 001 001 -01 -01 -01 001 001 000 -01 000 -01 001 001 001 001 -01 000 001 000 -01 001 001 001 -01 -01 001 -01 000 -01 000 000 000 000 001 001 -01 000 001 000 000 -01 000 -01 001 001 000 001 001 000 001 000 001 -01 -01 
000 001 -01 001 -01 001 000 -01 -01 000 001 001 000 -01 000 001 -01 -01 001 001 001 000 -01 000 -01 -01 -01 001 001 001 -01 000 000 001 -01 000 -01 -01 000 -01 -01 001 -01 -01 000 001 -01 -01 000 001 001 001 001 000 -01 000 001 000 001 -01 001 001 -01 001 
000 001 -01 001 -01 -01 000 -01 -01 000 001 -01 001 001 001 001 001 000 -01 -01 001 001 001 000 000 001 001 -01 000 000 001 001 -01 000 000 001 000 001 -01 001 001 000 -01 000 -01 000 001 -01 001 000 001 -01 000 -01 000 -01 001 000 001 000 001 000 001 001 
000 -01 -01 -01 -01 000 -01 001 000 000 -01 -01 -01 -01 -01 000 000 -01 -01 -01 -01 000 -01 -01 -01 000 -01 000 000 000 000 000 001 000 001 000 001 000 001 000 000 000 001 001 001 000 000 -01 000 -01 000 001 000 -01 -01 -01 -01 000 000 -01 -01 000 001 000 
001 001 000 000 -01 000 000 000 001 000 000 -01 000 -01 001 -01 000 001 001 001 000 000 -01 -01 001 000 001 001 001 000 001 001 -01 -01 -01 001 000 000 -01 -01 -01 -01 -01 000 -01 001 001 001 001 000 -01 001 001 000 001 001 000 -01 -01 001 001 000 000 001 
001 000 -01 001 001 -01 001 000 -01 -01 000 -01 000 000 -01 000 001 000 -01 001 000 000 001 001 -01 000 000 -01 001 -01 000 001 001 001 -01 001 001 000 -01 000 000 000 001 000 -01 000 000 -01 000 -01 000 001 -01 -01 -01 000 -01 -01 001 -01 000 000 -01 000 
001 000 001 000 -01 001 -01 001 -01 -01 001 000 000 000 000 000 000 000 -01 001 001 000 -01 000 000 001 -01 001 -01 -01 000 000 001 000 001 000 001 000 -01 001 -01 -01 001 001 001 001 000 000 -01 000 001 000 001 001 001 001 001 000 000 001 001 001 000 000 
001 000 -01 000 -01 000 000 001 -01 000 001 000 -01 000 -01 000 000 001 001 001 -01 001 000 -01 000 001 000 001 -01 000 -01 -01 001 -01 000 001 000 000 000 -01 001 -01 -01 000 000 001 001 000 -01 001 001 000 -01 -01 -01 001 -01 001 000 000 -01 -01 -01 001 
-01 001 001 -01 001 000 -01 001 -01 -01 000 000 000 -01 000 000 000 001 -01 000 001 000 -01 -01 000 000 000 -01 -01 -01 000 -01 -01 001 001 000 000 001 001 -01 001 000 000 000 -01 000 000 001 001 000 000 001 000 -01 001 -01 -01 001 000 000 001 000 000 000 
-01 -01 -01 000 -01 -01 001 -01 000 001 -01 000 000 000 001 001 001 -01 001 -01 001 001 001 -01 000 001 000 001 -01 001 -01 000 -01 000 000 -01 001 000 000 -01 000 000 000 -01 001 000 001 -01 000 000 -01 -01 001 001 -01 000 001 -01 001 001 001 000 001 -01 
000 001 -01 -01 -01 -01 000 001 -01 000 -01 001 001 000 -01 001 001 000 -01 000 000 000 000 -01 001 001 001 -01 000 001 -01 001 001 001 -01 -01 001 000 000 -01 000 000 001 000 000 -01 -01 000 001 000 000 001 -01 000 000 001 001 000 000 000 000 000 000 001 
001 000 000 -01 001 000 001 001 001 -01 -01 -01 -01 -01 001 -01 001 -01 001 001 -01 -01 001 001 -01 -01 000 000 000 000 001 001 001 -01 000 000 001 000 001 001 -01 000 001 001 001 001 001 000 001 -01 -01 001 001 000 -01 000 001 -01 -01 000 000 001 000 000 
-01 -01 001 000 000 001 -01 001 001 000 -01 001 000 001 001 -01 000 001 000 000 000 000 000 001 000 000 001 000 -01 001 000 000 000 -01 -01 -01 -01 001 -01 -01 -01 -01 001 001 -01 001 001 000 001 -01 -01 001 000 -01 001 -01 000 -01 001 001 -01 000 001 001 
-01 000 001 -01 001 001 001 -01 -01 001 001 -01 001 000 -01 001 -01 001 -01 000 001 000 000 -01 -01 000 001 000 001 -01 -01 000 -01 -01 -01 001 -01 001 001 000 001 000 -01 001 000 000 000 000 000 -01 001 000 001 -01 000 001 000 000 001 -01 000 -01 -01 -01 
001 001 001 000 -01 -01 001 -01 000 000 001 -01 -01 000 000 -01 -01 000 000 -01 001 -01 -01 -01 -01 000 -01 -01 000 -01 000 -01 000 000 000 001 001 -01 000 000 000 000 000 -01 -01 000 -01 000 000 000 -01 000 000 000 000 000 -01 000 001 000 000 -01 000 000 
000 000 000 000 001 000 000 000 -01 000 001 000 000 001 001 001 000 000 -01 000 001 001 001 000 -01 001 000 001 000 000 000 000 000 000 001 -01 001 001 001 000 000 -01 001 000 000 000 001 000 000 -01 001 -01 000 -01 000 001 000 001 001 001 000 001 001 -01 
001 000 -01 000 000 001 000 -01 000 001 000 000 001 000 -01 000 001 -01 000 001 001 000 001 001 -01 001 001 000 -01 000 000 -01 001 000 -01 -01 001 -01 001 001 -01 000 -01 -01 -01 -01 -01 001 -01 000 -01 001 001 001 001 -01 001 001 -01 000 001 -01 001 001 
-01 000 000 001 000 -01 001 -01 001 -01 000 001 000 -01 000 001 -01 -01 -01 -01 000 001 -01 -01 -01 -01 -01 -01 001 -01 000 -01 000 -01 -01 001 001 -01 001 -01 000 000 -01 000 001 001 -01 000 001 -01 001 001 001 001 001 001 -01 -01 000 000 001 001 000 001 
000 001 001 001 000 001 001 000 -01 000 001 000 -01 001 -01 -01 001 -01 -01 001 001 001 001 -01 000 001 000 001 001 000 -01 000 -01 001 001 000 -01 001 -01 -01 000 001 001 -01 001 -01 -01 001 000 -01 001 -01 001 000 -01 -01 -01 000 000 000 001 001 -01 -01 
000 000 001 000 000 000 000 -01 -01 -01 001 -01 000 001 001 -01 -01 001 -01 000 -01 001 000 -01 -01 000 -01 000 001 000 -01 -01 000 -01 000 -01 001 000 000 000 -01 000 000 000 001 001 -01 001 000 -01 000 000 000 000 000 -01 000 -01 000 000 -01 -01 000 001 
000 000 -01 000 001 000 000 -01 -01 000 000 000 001 000 -01 -01 -01 001 -01 001 001 000 000 001 000 001 -01 000 -01 001 001 -01 001 001 -01 001 001 000 001 000 000 000 001 001 001 000 001 000 000 000 001 000 001 001 000 001 000 000 001 001 000 -01 000 000 
000 -01 001 001 000 000 001 -01 001 -01 001 -01 001 -01 000 000 000 -01 -01 000 001 -01 000 000 001 001 -01 001 001 001 000 -01 001 000 -01 -01 000 001 -01 -01 001 001 -01 -01 -01 001 001 000 000 001 001 000 -01 000 001 000 001 000 001 -01 -01 -01 000 -01 
-01 000 -01 001 -01 -01 001 000 000 000 -01 -01 000 001 -01 001 000 001 000 000 001 001 -01 001 -01 000 000 -01 001 001 001 001 -01 -01 -01 000 -01 000 000 001 001 000 000 001 -01 000 -01 -01 001 001 001 001 000 001 -01 001 000 000 -01 -01 001 001 000 -01 
001 000 -01 000 -01 001 000 001 000 000 001 000 001 001 -01 000 000 000 -01 001 000 001 -01 000 001 -01 000 001 000 001 001 -01 -01 000 000 -01 000 001 -01 001 001 -01 -01 001 000 000 -01 001 -01 001 001 -01 -01 000 001 000 001 000 -01 001 000 -01 -01 -01 
000 001 001 000 000 001 001 -01 001 -01 -01 -01 -01 -01 -01 -01 -01 -01 001 000 -01 -01 001 -01 001 001 000 000 001 000 -01 -01 000 001 -01 -01 000 -01 -01 000 001 001 000 -01 -01 -01 -01 -01 -01 -01 000 001 -01 -01 001 000 001 000 -01 -01 001 000 001 -01 
000 -01 000 -01 000 001 001 001 -01 000 -01 000 -01 000 001 -01 -01 -01 000 000 001 000 000 001 001 -01 -01 000 001 001 -01 -01 000 -01 000 001 001 000 000 -01 000 000 001 001 000 -01 001 001 001 001 000 -01 000 000 000 -01 001 001 -01 000 001 -01 001 000 
001 001 -01 000 001 000 -01 001 -01 000 001 001 000 001 001 000 -01 -01 001 000 -01 000 001 -01 000 001 -01 -01 -01 -01 001 000 001 000 -01 000 000 000 -01 -01 -01 001 000 000 001 -01 001 -01 001 001 001 001 001 001 000 000 000 001 001 001 001 000 001 000 
000 001 -01 -01 -01 001 001 -01 -01 -01 000 000 001 001 000 001 000 001 -01 001 -01 001 000 000 -01 000 001 001 -01 001 001 000 -01 001 -01 001 000 -01 000 -01 001 001 001 -01 000 -01 001 000 -01 001 000 000 001 -01 000 001 -01 000 000 -01 -01 -01 000 000 
-01 -01 -01 000 -01 000 -01 -01 -01 000 000 000 000 -01 001 000 -01 000 001 000 -01 -01 000 001 -01 001 -01 -01 -01 000 000 001 -01 001 001 001 001 001 001 000 001 000 000 -01 -01 -01 000 000 -01 -01 000 001 001 -01 -01 -01 001 001 -01 000 001 000 000 001 
001 000 -01 001 -01 -01 001 001 000 -01 -01 000 -01 -01 001 001 -01 -01 001 001 000 000 -01 000 000 -01 -01 -01 000 -01 000 001 001 000 -01 -01 000 -01 001 -01 000 001 000 -01 000 -01 -01 000 000 001 001 -01 000 -01 001 -01 001 001 001 000 000 001 000 000 
000 000 000 001 000 000 000 000 -01 001 -01 000 001 -01 -01 000 000 000 000 -01 001 001 -01 001 -01 001 001 001 -01 000 -01 000 -01 000 -01 000 000 001 -01 000 001 001 -01 001 -01 001 000 000 000 000 000 001 001 001 001 000 001 -01 -01 000 000 001 000 001 
000 -01 001 000 000 001 -01 001 000 001 000 000 -01 001 -01 001 000 000 -01 -01 000 001 -01 -01 000 001 001 -01 -01 -01 001 -01 -01 001 001 -01 000 000 -01 001 -01 001 -01 -01 001 -01 -01 001 001 001 000 -01 -01 000 001 -01 -01 000 000 001 -01 000 001 001 
000 000 000 -01 000 -01 001 -01 -01 000 -01 001 001 001 -01 -01 -01 000 001 000 000 -01 000 000 000 000 000 -01 001 -01 000 -01 001 000 001 001 -01 001 001 001 001 001 000 -01 -01 001 -01 -01 -01 000 001 001 -01 000 000 -01 001 -01 001 -01 001 000 000 001 
001 -01 001 -01 -01 000 000 -01 000 -01 001 000 001 001 -01 000 000 -01 -01 001 001 000 -01 000 000 001 001 000 000 000 -01 -01 001 000 001 000 001 -01 -01 000 001 -01 001 001 -01 001 000 000 001 -01 001 -01 000 000 -01 -01 -01 001 001 -01 -01 001 000 -01 
-01 000 000 000 001 001 001 -01 -01 001 -01 000 001 000 001 -01 001 -01 -01 -01 001 001 001 001 000 000 001 001 001 -01 000 001 -01 -01 000 -01 -01 001 -01 000 001 000 -01 -01 000 001 001 001 001 000 001 001 -01 -01 001 001 -01 -01 -01 001 001 001 001 -01 
001 001 -01 001 -01 001 000 000 -01 001 000 001 -01 -01 000 -01 001 001 000 -01 -01 -01 000 001 -01 000 000 -01 000 000 -01 -01 000 000 -01 001 000 -01 001 001 -01 -01 -01 -01 -01 000 000 -01 -01 000 000 -01 -01 -01 -01 -01 -01 001 001 000 -01 001 000 001 
-01 -01 -01 -01 000 -01 -01 001 000 -01 -01 001 001 001 -01 -01 001 001 001 000 -01 001 000 -01 001 001 001 001 000 -01 -01 -01 000 -01 -01 001 -01 -01 001 000 -01 001 000 001 -01 001 001 001 -01 -01 -01 -01 000 000 -01 -01 -01 -01 -01 -01 -01 -01 -01 -01 
000 000 000 000 001 -01 000 001 -01 000 001 001 -01 -01 001 000 000 000 000 001 001 -01 001 -01 -01 001 000 001 -01 -01 000 001 001 000 001 000 001 -01 001 001 001 000 001 000 000 -01 -01 000 000 001 -01 001 001 -01 000 001 -01 000 001 001 000 -01 001 000 
001 001 -01 -01 -01 -01 -01 000 -01 -01 001 -01 001 000 001 000 001 000 -01 -01 000 -01 001 001 000 000 000 001 000 000 000 -01 001 -01 000 -01 000 001 000 -01 000 -01 000 001 001 001 000 001 000 -01 -01 -01 001 000 001 001 000 -01 000 -01 -01 000 001 -01 
001 001 000 -01 001 -01 000 001 000 001 -01 001 -01 -01 000 001 000 000 -01 -01 -01 -01 -01 000 001 -01 000 -01 001 001 001 -01 001 001 000 001 000 001 -01 -01 -01 000 000 001 -01 001 -01 000 -01 -01 000 000 001 001 -01 -01 000 -01 -01 001 -01 001 001 000 
-01 -01 -01 -01 001 -01 001 -01 000 -01 000 000 001 -01 -01 001 001 000 001 001 -01 -01 000 001 -01 -01 000 000 -01 000 001 001 000 001 001 -01 000 001 001 -01 -01 000 001 -01 000 -01 -01 001 -01 001 000 -01 000 000 001 000 001 001 001 -01 -01 -01 000 -01 
001 -01 001 -01 000 001 001 001 001 001 -01 000 000 000 -01 -01 -01 -01 001 001 -01 -01 -01 000 001 000 000 000 -01 001 -01 -01 -01 001 001 001 -01 000 -01 001 001 000 000 000 000 000 001 001 001 001 000 001 -01 -01 001 001 000 -01 000 -01 001 -01 -01 000 
000 000 001 000 -01 000 -01 -01 000 000 001 001 001 000 -01 000 001 -01 000 -01 -01 -01 001 001 -01 000 001 -01 001 -01 000 -01 000 -01 -01 001 -01 000 000 001 001 000 -01 001 -01 -01 001 001 000 001 001 -01 000 001 000 001 -01 000 000 001 -01 -01 -01 -01 
-01 001 001 001 001 000 001 001 000 -01 001 -01 000 001 000 -01 -01 001 000 -01 -01 000 000 -01 -01 000 001 -01 -01 -01 -01 -01 001 000 001 -01 -01 000 001 001 001 000 000 000 001 000 001 000 -01 001 001 001 001 001 001 001 -01 -01 000 -01 001 001 -01 -01 
001 001 001 -01 000 001 000 -01 000 001 000 001 001 -01 000 -01 001 001 001 -01 -01 -01 001 -01 000 001 -01 000 -01 001 001 001 000 000 -01 001 -01 -01 -01 000 001 001 -01 000 000 000 -01 -01 -01 -01 000 000 001 000 001 001 -01 001 000 -01 -01 001 000 000 
001 001 001 001 001 000 000 000 001 -01 001 001 -01 000 -01 -01 -01 000 001 000 001 000 000 001 -01 000 000 -01 -01 001 000 -01 001 001 001 001 -01 -01 000 000 000 -01 001 001 000 -01 -01 000 -01 -01 001 000 001 000 000 000 -01 -01 -01 -01 000 -01 000 001 
-01 000 -01 000 001 000 000 000 001 001 000 001 001 001 001 000 -01 001 000 001 001 000 -01 000 000 001 000 000 001 001 -01 -01 001 001 000 -01 000 001 001 -01 000 -01 000 001 001 -01 -01 -01 000 001 000 001 000 000 -01 000 -01 -01 001 -01 -01 000 -01 001 
-01 000 -01 -01 -01 000 000 001 000 000 001 001 -01 -01 -01 000 001 000 -01 000 000 000 -01 000 001 001 000 -01 000 001 001 -01 000 -01 001 000 001 000 001 000 -01 -01 -01 001 000 000 001 001 -01 001 000 001 001 001 -01 001 -01 -01 -01 -01 001 001 000 -01 
001 -01 -01 001 000 000 -01 000 -01 -01 -01 001 001 -01 001 001 -01 -01 000 -01 001 001 001 001 -01 001 000 -01 -01 000 -01 001 000 000 001 001 000 -01 000 000 000 -01 001 001 000 001 000 000 000 000 000 000 001 000 000 001 000 001 000 000 -01 -01 000 000 
000 000 -01 000 -01 000 -01 001 001 001 -01 000 -01 -01 -01 000 -01 000 000 000 -01 000 001 001 000 -01 001 001 -01 000 001 -01 -01 001 001 -01 000 001 001 001 -01 000 001 001 001 001 -01 000 -01 001 001 000 001 -01 001 001 -01 -01 001 -01 -01 001 001 001 
001 000 000 001 -01 001 000 001 000 000 000 001 -01 -01 -01 001 -01 001 001 -01 001 001 000 000 001 001 000 000 -01 -01 000 -01 000 001 001 -01 001 000 -01 -01 000 001 001 -01 000 000 000 -01 -01 001 001 000 001 001 001 000 000 001 000 001 000 001 000 -01 
001 001 001 -01 001 000 -01 -01 000 001 -01 000 000 000 001 001 001 -01 001 -01 001 001 001 001 -01 -01 -01 000 -01 -01 -01 000 001 -01 -01 001 -01 001 001 000 001 000 000 001 000 000 001 -01 001 001 000 -01 000 000 001 -01 001 001 001 000 000 000 -01 001 
000 000 000 001 000 -01 001 001 000 001 001 000 001 -01 001 -01 001 000 000 000 001 000 001 001 001 000 -01 001 -01 000 001 000 000 000 000 -01 -01 000 001 -01 000 001 001 -01 000 001 001 001 -01 -01 -01 000 000 000 -01 -01 000 -01 000 000 -01 -01 001 -01 
000 000 000 000 -01 001 001 001 000 001 001 000 -01 -01 000 001 000 001 -01 -01 -01 000 -01 001 001 001 001 001 -01 000 -01 001 000 001 000 -01 -01 000 001 -01 001 -01 001 000 001 -01 -01 001 001 001 -01 001 -01 -01 -01 000 000 001 -01 -01 -01 -01 000 001 
000 -01 000 -01 001 -01 000 000 000 -01 000 -01 000 -01 000 001 000 000 001 -01 000 -01 000 001 000 001 000 -01 -01 -01 000 -01 -01 001 001 000 001 001 000 -01 -01 -01 000 -01 000 001 001 000 001 -01 001 001 000 001 000 000 -01 000 001 001 000 000 -01 001 
000 000 000 001 -01 000 001 -01 001 001 001 -01 001 001 -01 000 001 001 001 000 000 001 000 001 -01 000 001 001 -01 -01 001 001 001 001 000 001 000 -01 001 001 -01 001 -01 -01 -01 000 -01 000 -01 000 -01 -01 000 -01 -01 001 001 001 -01 -01 -01 001 000 -01 
000 000 001 -01 001 001 -01 -01 001 -01 000 -01 001 000 000 001 -01 001 001 -01 -01 001 001 000 000 000 000 001 -01 -01 000 000 -01 -01 -01 -01 001 -01 -01 000 001 001 001 000 -01 -01 001 000 000 -01 000 000 001 000 -01 000 001 -01 000 001 000 000 -01 -01 
000 000 000 -01 000 000 000 -01 -01 -01 000 000 -01 001 001 001 001 000 000 -01 -01 000 -01 000 -01 001 000 -01 000 -01 -01 001 000 000 001 001 000 -01 000 000 -01 001 -01 001 -01 000 000 000 -01 000 000 -01 001 -01 001 -01 001 000 000 -01 -01 -01 -01 000 
000 001 001 001 000 001 001 000 -01 001 001 -01 -01 001 000 -01 000 000 -01 -01 001 000 -01 001 000 000 -01 -01 -01 -01 001 001 000 000 000 001 000 001 000 001 001 000 001 001 001 -01 -01 001 -01 001 001 001 -01 -01 000 000 000 -01 000 -01 001 000 001 001 
001 -01 001 -01 -01 -01 -01 001 000 -01 -01 000 000 -01 001 000 000 000 001 -01 -01 -01 001 001 -01 001 000 001 001 001 000 -01 000 001 -01 000 001 001 -01 001 000 -01 000 000 001 -01 001 001 000 -01 -01 000 001 -01 000 001 -01 -01 -01 -01 001 001 -01 000 
000 000 -01 001 000 -01 000 -01 -01 001 -01 -01 -01 -01 001 -01 -01 000 000 001 -01 -01 001 001 001 -01 000 000 -01 -01 001 -01 001 001 -01 001 000 000 001 -01 000 -01 000 000 000 001 -01 001 000 -01 -01 000 001 001 000 -01 001 -01 -01 -01 001 -01 -01 001 
000 -01 -01 001 -01 001 000 000 -01 001 001 001 001 -01 000 000 -01 000 -01 -01 000 000 000 -01 -01 001 001 -01 000 -01 000 000 -01 -01 000 -01 000 -01 001 000 000 001 001 001 001 -01 001 -01 000 000 -01 001 000 001 001 000 -01 001 -01 -01 001 000 000 -01 
001 -01 000 -01 001 001 001 001 000 -01 -01 -01 001 -01 001 001 -01 000 000 -01 001 -01 001 001 001 001 001 -01 -01 -01 000 000 -01 001 001 000 -01 000 -01 000 -01 -01 -01 -01 001 000 001 000 000 000 000 000 000 001 000 -01 -01 000 000 001 -01 -01 -01 000 
-01 001 -01 -01 000 001 -01 001 -01 000 001 000 -01 000 001 001 000 -01 -01 000 000 -01 001 -01 001 001 -01 001 -01 -01 000 -01 001 -01 -01 000 000 001 -01 000 -01 001 000 000 -01 000 -01 001 000 000 001 000 001 -01 000 -01 000 001 000 001 000 -01 -01 001 
001 -01 -01 001 000 -01 -01 000 -01 000 001 001 000 001 001 000 001 -01 000 001 -01 000 -01 001 000 000 000 -01 -01 000 001 000 001 001 -01 -01 000 -01 -01 001 001 000 000 -01 -01 000 -01 000 000 -01 -01 -01 001 000 000 000 001 001 -01 -01 -01 -01 001 -01 
001 -01 001 001 -01 -01 -01 000 -01 000 -01 -01 001 000 -01 000 -01 000 001 -01 000 000 000 001 000 001 000 001 -01 -01 000 000 -01 001 -01 -01 001 -01 000 000 001 001 -01 000 -01 001 000 000 001 -01 000 -01 001 -01 -01 000 -01 -01 -01 001 000 000 -01 000 
000 000 000 -01 000 -01 001 000 000 001 -01 -01 -01 000 000 001 000 -01 -01 000 001 -01 000 000 001 001 -01 001 000 000 001 001 -01 001 000 -01 000 000 -01 000 001 -01 -01 001 -01 -01 000 000 000 000 000 001 -01 -01 000 001 001 001 -01 -01 -01 001 000 -01 
000 -01 -01 000 -01 001 -01 -01 -01 -01 -01 001 000 -01 000 -01 -01 001 000 001 000 000 001 -01 -01 000 -01 000 000 001 000 001 000 000 000 000 001 001 000 001 001 000 -01 000 -01 000 -01 000 001 -01 000 -01 -01 001 001 001 000 -01 -01 000 000 000 001 001 
-01 000 -01 001 -01 -01 -01 -01 001 001 000 001 001 000 -01 000 000 -01 -01 000 000 001 001 000 -01 -01 -01 000 001 -01 000 001 001 000 000 -01 001 -01 -01 -01 001 000 000 001 001 001 000 000 001 000 -01 -01 000 -01 -01 001 000 001 001 -01 001 000 000 -01 
000 000 000 000 001 000 001 001 001 000 -01 -01 001 -01 001 000 -01 001 001 -01 -01 000 -01 001 000 000 -01 001 -01 -01 001 -01 001 -01 001 000 001 000 -01 001 001 001 000 -01 001 000 000 000 000 000 001 000 001 001 000 001 -01 000 000 000 000 001 001 -01 
000 -01 001 000 -01 001 -01 -01 001 001 -01 001 -01 001 -01 001 001 001 -01 -01 000 001 -01 001 000 -01 -01 000 000 001 001 -01 000 000 -01 001 000 -01 001 -01 -01 000 -01 000 -01 000 001 001 -01 -01 000 -01 000 000 001 001 000 -01 000 001 000 001 001 000 
-01 001 -01 000 -01 000 001 000 000 -01 -01 001 000 001 000 001 001 001 000 001 -01 -01 000 001 001 -01 -01 -01 001 000 001 001 001 001 -01 -01 001 000 001 000 000 000 -01 000 001 000 001 000 000 -01 -01 -01 000 001 000 000 -01 000 001 001 001 001 001 001 
-01 001 001 000 -01 000 001 000 000 000 000 001 -01 000 -01 -01 -01 000 000 000 000 000 001 001 000 001 000 -01 001 -01 000 -01 001 000 000 -01 000 -01 001 -01 000 000 001 001 001 000 001 001 000 -01 000 000 000 001 000 001 000 000 -01 000 000 -01 001 -01 
001 000 001 -01 001 001 001 -01 -01 -01 000 000 000 000 001 001 -01 001 001 001 000 -01 001 001 -01 001 000 001 -01 -01 000 001 001 000 001 000 001 001 001 000 000 000 001 000 000 -01 -01 001 000 001 001 000 -01 001 001 001 000 000 -01 000 -01 -01 000 -01 
000 001 -01 -01 000 001 -01 000 001 -01 -01 001 001 000 -01 -01 001 -01 001 -01 001 001 -01 000 000 001 -01 001 -01 001 001 000 000 001 -01 001 001 000 001 001 001 000 -01 000 001 -01 001 -01 -01 001 -01 000 001 -01 000 001 000 001 001 -01 000 -01 -01 -01 
-01 001 -01 001 001 001 -01 -01 -01 001 001 001 000 -01 -01 001 001 000 -01 -01 000 -01 000 -01 001 000 -01 001 001 000 000 001 001 001 001 000 001 -01 -01 -01 000 -01 001 001 000 000 -01 000 001 001 001 001 -01 000 -01 001 000 -01 -01 000 000 001 000 000 
001 000 001 000 000 -01 -01 000 -01 -01 000 000 -01 001 001 001 000 000 -01 000 001 -01 000 001 000 -01 001 -01 000 -01 -01 -01 001 -01 001 -01 -01 001 -01 -01 001 001 -01 001 001 -01 000 -01 -01 000 001 -01 -01 001 -01 001 000 001 001 001 -01 000 -01 000 
-01 000 -01 -01 001 001 001 001 000 001 -01 000 001 000 001 000 000 001 -01 001 000 -01 000 -01 001 001 000 001 000 000 000 -01 -01 -01 -01 001 000 001 000 -01 -01 001 -01 -01 001 001 -01 000 001 -01 000 000 000 001 -01 -01 000 001 001 001 001 001 000 000 
000 -01 001 -01 000 -01 000 000 -01 001 001 001 001 -01 001 -01 000 001 000 -01 -01 000 000 000 000 000 001 -01 -01 000 001 000 000 -01 000 -01 000 001 000 -01 -01 -01 -01 000 -01 001 000 000 001 000 -01 001 001 000 -01 001 000 000 001 000 000 000 001 001 
