083 110 096 -70 -111 -66 012 -29 -44 069 049 006 078 -99 015 -20 105 063 -25 -03 -68 112 -117 -25 -33 -109 035 -52 062 -49 -14 -50 015 105 -114 049 -93 063 -33 021 -128 007 -16 -07 122 049 088 -77 -26 111 015 103 051 -83 016 -52 070 -92 081 094 048 040 047 123 
104 -01 014 034 -125 -96 -01 121 -69 -61 -97 106 106 -02 -39 121 053 -78 033 085 108 -37 013 -44 046 -47 023 121 -44 -31 123 -43 -123 -110 -73 -12 -128 -99 -116 012 -99 -128 060 020 068 -125 -113 028 -09 -88 -118 027 -63 017 -48 024 -22 038 -07 -24 003 039 -12 026 
115 -16 -10 -06 -26 -21 -58 048 124 013 -47 -124 -49 -42 056 -118 045 -05 049 105 079 -47 062 -114 -69 -61 119 -77 -33 115 122 -102 -39 -48 -105 -78 -64 -08 123 025 045 035 -06 124 -87 077 002 -120 -34 107 -36 038 054 051 -81 096 -02 001 -85 083 099 079 027 097 
-21 -44 017 -101 124 104 -94 101 -13 109 -87 122 018 058 -84 041 -64 -93 026 106 049 -33 -43 059 -71 -14 092 -50 109 028 116 -28 092 -51 -90 -73 020 -123 029 -108 -50 004 -106 -85 121 078 -02 -78 -18 067 071 102 112 -37 051 047 024 014 077 -42 -65 077 053 -66 
029 024 -57 -44 -26 030 -60 126 -25 114 -45 -120 073 019 042 057 035 -88 007 026 -113 -29 -42 067 -55 029 125 -12 -105 -38 036 -80 -44 126 -24 100 -93 116 -13 -48 -110 -35 001 -08 125 069 -80 -06 053 -67 -11 -05 -01 020 087 -83 102 -89 025 017 -55 052 -11 104 
-38 -64 -50 -86 -28 039 039 -01 058 -63 -61 091 -35 113 -63 -57 -87 093 -92 016 -102 000 090 110 -80 -81 025 093 -31 032 -34 -83 094 -124 -51 -38 048 050 012 066 057 092 088 -57 -105 -16 -81 -30 -124 124 095 -89 032 -92 046 004 -22 120 -115 -02 -101 -37 -03 115 
072 064 -93 095 -57 064 103 126 026 -39 058 -125 062 089 -15 -82 -42 110 094 105 -89 -101 -115 -55 -127 -106 -52 -77 -01 -74 -05 -102 -68 115 066 095 -116 105 002 094 078 053 061 -85 008 -105 040 045 052 -96 -97 -91 066 -120 -26 123 028 -36 053 -84 071 -113 110 027 
041 -107 122 114 027 -31 059 058 087 -07 033 118 109 055 -73 033 091 -108 -80 047 110 -68 -44 -01 -103 045 030 092 003 -69 -66 097 084 -60 -96 125 -80 -108 -40 004 010 -128 114 -128 048 011 -57 -123 085 010 020 -106 070 -10 -101 -112 -54 -118 -25 -60 -76 -24 062 -20 
