060 -112 -79 108 099 -08 071 -120 -75 039 -83 -113 022 012 101 023 022 -117 090 -15 059 -37 092 074 -88 -33 -64 -13 076 -52 -96 090 066 -51 -80 -04 061 -77 -45 059 118 082 -43 -106 -04 079 101 033 -88 -25 032 030 -118 -128 -43 013 061 047 099 -68 -116 098 -82 -20 
014 -12 -87 009 025 111 106 106 110 043 -102 051 -03 -69 114 -08 061 -98 072 006 -79 -38 098 082 -86 -102 001 -31 082 123 -27 -51 -14 098 -107 -116 -90 -102 -04 109 095 121 033 102 060 059 083 045 -50 -25 -128 -20 105 -108 081 -14 030 004 024 -32 113 -05 079 003 
-106 105 -90 -98 -18 075 -101 108 021 032 -87 105 036 017 093 096 118 -42 071 -113 -42 018 -101 094 114 -04 -79 -29 -100 -111 -70 007 049 079 002 -126 012 090 103 -42 060 029 -02 004 -128 -35 -127 -96 -82 047 -98 050 -115 -84 090 012 -103 -63 104 053 094 103 -08 090 
027 107 094 002 066 022 -87 113 -36 019 066 -30 -33 102 -01 091 -116 074 069 056 014 111 020 119 -38 116 026 -102 070 007 -54 -37 045 -91 -03 -117 -24 019 -54 031 -126 -76 -117 -40 -125 121 -91 -102 097 -118 031 -34 085 035 -103 112 035 061 -121 -117 -74 -107 -26 124 
111 -112 -96 001 089 106 016 -91 -53 -26 092 -02 037 -33 -83 078 -78 060 -65 002 066 081 106 -16 -38 035 019 -69 057 009 050 085 -36 069 065 002 -28 121 006 -119 089 095 -45 018 102 122 -91 089 043 -34 -85 023 -38 052 107 -116 -108 -106 -101 042 046 -120 031 -78 
-118 115 -90 075 -108 122 -99 -87 -26 018 113 -27 046 055 -52 064 -128 104 006 011 -33 083 -58 -18 -68 118 072 -63 013 118 072 044 -125 124 -87 028 066 070 -45 089 -18 -09 -53 -65 005 -62 -81 119 -20 -60 -106 -18 -97 -121 -13 -72 033 -65 076 080 085 087 -128 015 
049 -94 -28 080 -104 010 -105 -122 -07 061 037 -99 -12 -12 -90 -38 045 -68 094 008 016 112 062 122 077 -101 -04 010 -104 055 094 -72 -107 109 024 029 -106 061 103 050 -113 097 114 000 -02 -24 064 -38 104 064 -69 096 069 -117 -25 -117 -128 -05 083 -29 110 -91 -32 099 
-55 086 054 087 015 -37 -104 -01 -19 006 073 074 -122 033 -93 082 042 -40 -22 -03 -111 016 070 118 -79 -13 065 -35 -41 096 050 -42 018 073 -19 -08 016 -85 088 004 -40 097 085 017 048 -106 -04 036 -14 -97 025 017 044 008 018 026 121 066 058 -31 -91 -108 063 008 
-53 -51 027 -50 -71 -121 -96 -40 050 024 054 056 040 095 -50 095 -04 -65 112 -123 063 086 -85 -10 026 087 118 -43 022 -103 -48 074 116 125 -54 019 040 -35 097 039 091 108 076 -50 -110 117 101 -90 087 -11 -50 053 005 -118 -126 055 -127 032 096 -56 000 022 008 117 
120 -12 -06 085 -120 -108 058 -71 -38 004 -84 -89 028 -87 091 -87 -30 -75 -67 -110 -43 100 053 052 -36 -82 -20 122 -27 097 058 118 -63 -117 070 058 -119 -37 -52 -24 044 088 019 -71 -89 095 -27 -23 032 030 -73 105 114 -124 077 046 006 102 -102 -23 -122 105 077 -33 
-12 003 -106 -28 -96 024 -38 -03 -115 -08 118 122 074 -55 124 042 -26 -81 098 097 100 080 118 080 -100 -103 -103 -73 071 115 068 004 -49 -07 -45 -50 118 -83 069 -23 -55 025 122 -17 -126 -78 036 047 085 -45 073 006 -96 -50 048 -17 -46 117 -63 062 102 -62 -74 033 
053 092 010 -18 078 005 023 -112 -07 -47 070 105 -77 -68 -70 -78 -81 -127 -117 097 -14 -34 010 005 007 -97 -120 088 017 025 -31 051 -102 -53 -101 -87 094 074 -104 -53 -111 -60 124 109 034 -90 -67 006 -51 093 -90 018 -66 -106 -122 -09 -55 -88 -43 108 -43 -66 -106 103 
-22 055 -78 -108 023 -99 068 -25 069 028 024 086 020 104 -11 -62 -72 012 114 082 084 042 076 -82 -80 021 -64 -09 052 -57 -51 123 106 022 039 086 -74 -22 -24 -105 016 112 109 -98 051 -54 -55 -121 -11 -13 -27 055 021 -49 -28 013 -97 014 -109 094 -35 100 118 109 
-01 -81 054 -76 -60 080 -48 104 -91 118 003 -101 -99 023 -125 -79 -105 097 106 108 -105 118 021 -49 040 115 074 094 -118 081 035 021 056 001 -83 059 122 116 -128 012 026 089 -42 -119 -56 008 -68 -63 -80 082 035 -43 079 048 108 -101 -116 049 -128 051 -83 109 -39 004 
108 -31 029 063 -18 -103 100 019 -77 017 037 105 -86 -56 110 077 023 059 064 -36 076 098 -106 -33 -16 095 125 -46 -05 041 004 123 -61 009 114 093 -57 033 -94 003 028 -86 018 066 120 083 002 -70 120 -61 111 -57 125 104 -02 027 -36 070 -08 110 -119 -116 -14 061 
089 -96 008 -19 -123 014 -112 -119 -12 114 070 019 -80 -30 079 -14 -59 082 -96 -73 000 065 102 -50 -48 123 062 041 -64 059 072 016 011 -21 084 021 -53 -17 -93 -74 -35 033 061 023 -26 022 -48 076 -38 -35 -53 039 100 015 -72 005 043 -15 -108 -108 -110 -40 -76 -63 
114 -17 093 -101 019 006 122 095 -06 065 052 -47 076 103 045 -34 033 091 -33 -08 -110 -03 -20 -98 -38 -85 053 -87 -72 -56 -87 094 -32 086 -66 -122 073 -34 -29 037 -02 -122 074 -68 029 101 000 061 -65 -21 048 -83 -26 014 078 -99 -35 076 -70 -32 013 017 037 -27 
025 -07 007 -124 -58 101 -87 -64 070 011 015 055 111 -77 044 -41 -76 -48 -43 029 109 -03 063 066 030 119 036 -12 116 016 099 -29 -79 026 -117 -12 015 -55 011 081 030 -56 021 002 -93 027 095 -10 031 101 -47 070 -101 120 -50 -74 016 -82 -70 -08 083 -31 024 060 
025 -31 -74 084 -115 -55 -03 -116 -30 110 033 025 101 014 009 -37 079 -69 -17 -81 -70 089 -80 -82 -11 -100 086 093 114 033 -122 -02 048 062 006 -48 007 028 -40 063 -126 099 059 105 009 045 -106 048 023 -87 -04 078 -27 075 -29 066 -42 004 008 110 -79 034 024 068 
-78 -106 -18 -24 112 071 -63 052 -64 -110 -101 115 -13 067 001 125 -02 026 -124 -47 013 032 -29 097 031 -83 -25 047 -119 088 -43 010 007 -53 022 056 114 -52 022 -127 -105 -39 -99 -14 002 078 -81 -89 -35 -11 082 111 -26 031 118 -39 076 -91 055 048 117 088 025 083 
-11 -54 -113 111 -32 076 005 -19 -61 063 -31 -66 042 098 109 -128 015 -126 -99 -57 -99 011 043 -74 -124 -46 027 -67 -94 081 085 111 095 -54 126 -106 081 064 050 -43 011 -21 024 -53 121 -75 -118 -114 -101 -126 -55 036 -86 013 -39 -10 051 027 -39 005 -80 054 059 115 
002 -05 -26 046 066 -83 -07 -111 -86 078 -89 056 -42 037 -40 -104 -83 -01 -18 -114 -126 008 -86 113 -65 -13 078 087 -93 -95 -95 -113 057 015 -97 116 -91 065 096 -26 -11 065 044 005 -83 036 046 -53 -29 100 041 033 035 046 059 106 038 -02 063 075 -13 048 -28 014 
073 -128 -91 018 107 -54 -91 009 -33 054 -105 012 -17 018 025 -122 -128 078 087 038 -46 -113 081 -109 024 -57 078 014 -67 -54 050 -92 -63 -123 102 -17 -10 118 -84 -94 070 -73 -62 047 003 -43 058 -08 -95 -96 -94 029 009 053 -83 -15 -87 -74 -01 -63 054 -16 -96 -119 
-81 -120 085 -03 046 113 115 -26 079 115 080 108 -126 -19 -69 015 -123 -81 -76 -98 -107 -41 -09 -117 -104 -66 -113 -112 008 -83 -48 -95 115 -06 -26 -107 096 -77 036 016 -13 111 -22 114 081 -115 -123 123 -113 -91 084 -104 -117 -47 -80 -76 087 125 -25 -41 -80 017 -05 -120 
055 -14 -124 064 -102 070 -64 083 -03 -92 -38 -74 -111 -18 051 -87 114 -63 021 -38 105 -45 084 109 106 -91 073 116 -75 -03 020 063 049 -84 108 080 -91 -99 103 089 -63 083 -104 054 066 030 116 -01 -114 -56 021 -115 -70 -118 -118 -21 -117 124 -88 014 -14 -20 089 103 
033 053 040 -89 -58 -87 006 076 -51 092 050 071 048 -92 005 -85 069 -53 051 -53 098 -17 -119 -30 020 005 -97 -01 091 043 075 -56 -93 -101 082 -09 125 109 116 -11 -88 -39 056 -69 041 009 097 003 -28 114 -23 -09 036 -19 -125 063 -123 117 -125 058 -42 -59 073 -62 
054 038 061 -35 -11 -55 -75 050 110 -118 083 125 010 114 093 004 -71 019 -77 -17 -72 096 -70 032 -83 080 106 049 -116 -98 037 040 -27 -22 025 121 -91 -43 016 057 018 022 064 016 -86 -68 -06 022 -17 119 112 105 126 002 -16 104 -122 -83 036 114 097 -46 -106 084 
004 -111 051 054 009 040 -109 105 -101 002 -29 -109 -86 112 043 104 092 021 -38 000 078 017 119 -74 100 -40 -05 -98 004 053 000 073 -65 041 -103 -106 003 -63 024 -59 -72 -48 -29 -120 -48 -93 012 026 073 -34 056 026 043 -17 068 115 091 085 -89 -22 050 -95 -30 109 
028 -108 -124 -07 -127 096 101 -101 -42 -123 -70 110 -64 034 018 103 020 059 -10 -68 078 -109 -100 -45 -112 -56 -105 -102 -64 047 -88 074 -30 -16 106 089 -78 003 059 075 -28 060 -11 -59 -89 -68 004 093 105 -35 -45 053 -48 119 -81 037 -72 -04 055 051 -118 036 081 076 
-40 011 115 124 -66 074 119 -51 -109 -116 -29 033 102 068 101 -111 094 -121 -79 -85 018 -52 052 -68 -66 -55 002 066 -109 -117 -20 -32 -79 056 -104 -36 099 -111 055 096 001 -72 057 099 -35 -92 112 100 066 097 108 027 035 -95 079 -23 008 080 099 120 112 008 -95 -02 
-65 -04 103 -93 080 112 -73 073 084 046 -107 090 -104 059 -59 -75 -34 -74 004 122 009 007 047 -89 109 073 -110 -62 -16 -73 -124 017 -96 -102 118 051 -10 -42 062 -94 088 064 -49 050 040 101 -79 -10 -92 104 008 057 -87 -125 117 -03 026 003 -39 -77 059 -51 -93 097 
-86 075 122 010 094 -94 087 125 -112 041 093 -50 -26 057 -110 -07 -01 -22 054 -123 016 -41 008 -15 000 -124 126 081 040 055 075 067 -25 -81 -26 -42 030 -55 -99 017 -76 000 055 108 007 036 -15 054 078 047 -29 -54 -121 075 -79 081 -125 -04 123 -125 125 -126 -23 -17 
075 -06 024 029 -60 021 052 -81 056 -110 -124 020 118 -112 -127 -47 -43 090 -17 126 106 -119 -12 -78 -119 -83 -111 105 109 045 -59 -05 057 -04 020 -65 062 124 -37 095 055 097 022 003 081 -120 -67 071 076 -105 000 -43 056 078 108 111 079 040 111 -120 -96 093 -100 126 
-49 -10 051 -03 106 022 -21 107 032 109 -05 050 011 -24 -85 -72 -19 032 -29 076 -18 -116 011 015 -62 111 079 030 -02 043 -111 102 116 -107 123 -09 048 -104 -72 119 036 -11 -37 -46 065 076 -85 -30 038 044 014 039 -94 010 032 011 -60 019 055 074 013 103 -73 -37 
029 -30 065 092 121 019 -23 -02 023 -32 000 -52 -65 -63 -57 -50 -32 -90 001 103 007 -04 -73 -109 -110 052 -09 -11 027 009 -33 038 053 -111 -73 -03 112 062 -115 048 005 -63 -57 -32 -17 -47 037 -29 -40 -75 122 060 -09 076 071 -07 -98 -108 122 088 049 057 -55 013 
-68 101 -54 065 -59 108 -72 074 087 -96 -118 -88 -23 010 -33 103 007 095 -105 -83 049 -78 -35 -50 -113 -116 -71 -101 071 003 -114 -26 -81 -58 -47 -24 -47 -44 -110 080 -47 -05 116 -22 015 -33 121 034 -98 -116 012 014 041 -25 -118 -28 050 106 -56 039 -58 -33 114 -06 
001 112 -99 104 019 028 -22 004 063 052 019 -70 104 -105 -71 010 -104 039 -01 -107 094 023 012 -22 111 117 -27 123 021 -42 096 041 -119 099 -62 -106 -106 -97 -83 112 121 029 097 -83 -107 029 054 100 -21 008 -79 -39 067 061 049 -02 -40 -20 026 -65 -02 043 -89 -47 
-12 059 058 -13 035 -116 022 081 -64 -05 -120 117 090 008 121 010 100 -07 004 084 035 -38 086 -65 006 071 065 -75 052 -105 119 -32 -14 -04 -127 094 114 -58 095 055 -118 117 -11 091 -62 -121 -110 120 060 -76 -13 -42 -27 -33 -22 050 078 014 -41 -68 -12 031 -67 013 
111 -28 065 002 093 112 -34 043 009 -120 -43 014 -36 -89 -13 052 -112 061 -117 -50 -88 072 057 033 091 072 093 049 073 -69 003 -84 -05 -52 046 031 053 -26 119 023 078 -09 004 098 090 -116 -94 -112 -22 -120 051 -30 029 011 048 010 004 -60 -24 092 121 070 -92 088 
-57 123 123 -111 041 -91 -68 -121 -17 -21 -34 049 043 079 -64 024 -80 018 -127 -48 025 083 -03 -87 126 008 -01 116 086 -69 024 -14 011 -81 000 013 026 -31 088 -74 -19 088 -17 -35 080 -93 077 -103 -88 079 -96 122 119 101 068 115 092 125 -68 068 -56 116 098 -126 
108 006 -10 -17 -23 -38 102 -24 -72 041 -44 124 019 -41 -17 038 -50 -71 -115 099 078 110 004 -46 079 115 100 -105 079 035 111 -103 -58 122 095 -98 -82 112 -120 -03 -106 124 -17 118 064 072 104 -37 -63 -98 089 098 -91 056 032 -53 071 -119 -62 055 -67 -42 -78 -35 
-65 -109 -113 -115 021 014 -60 005 016 -02 -78 -93 -66 098 121 054 -09 043 090 091 122 021 -76 -84 085 -59 049 -32 -87 110 022 016 -53 053 -107 -98 086 113 037 122 -52 089 046 015 -65 -21 123 091 015 093 -07 -115 -36 049 094 103 059 -84 -19 114 -128 -38 095 -87 
120 -84 -79 039 006 007 -34 -42 -26 014 -96 073 021 109 -91 -61 083 024 -99 -13 -88 -51 035 010 088 021 100 -95 000 -81 062 -58 067 021 126 -112 112 118 -107 -104 -10 -98 -65 073 -11 -37 108 -62 -113 -101 004 -103 -99 070 021 109 065 010 -85 -52 031 057 -53 -29 
105 -06 -03 064 020 121 -41 -33 042 105 -25 -101 079 018 044 -61 -60 101 -107 -90 049 -76 -52 -28 -23 -27 028 112 106 -105 074 031 083 -44 103 -35 -83 105 067 -116 -124 -69 -44 038 041 043 007 -40 -78 033 047 108 -86 077 -101 035 090 126 122 007 107 023 -44 070 
-24 -124 094 030 125 -106 072 -81 -114 -82 001 007 001 -63 003 -15 -51 -05 012 -76 037 108 -34 -128 -115 048 106 058 123 001 080 -63 053 -77 -23 -54 038 075 -84 030 -65 -11 -27 -02 -127 -21 109 -96 010 060 125 -67 017 -68 039 100 118 050 118 -63 -79 106 013 010 
081 109 099 -01 031 096 011 -123 036 -55 028 022 072 062 101 053 119 073 032 074 020 -91 -06 -14 014 -72 122 -04 111 -47 -100 -21 -59 -107 029 126 054 108 101 117 -120 -56 050 088 095 028 -102 091 -112 036 044 -25 089 042 110 -100 114 -21 034 -34 072 -117 -120 062 
-83 -111 023 -68 021 -37 -04 -100 -67 026 006 -111 -55 086 027 -52 116 -52 051 -38 047 036 -29 -124 118 -07 -16 -55 -03 043 -112 125 -104 045 074 091 -29 070 -47 007 095 036 009 026 -57 113 065 -28 026 -128 -31 -116 086 -29 -93 -89 -113 -121 088 062 -84 -62 081 085 
042 -59 -25 093 -107 -116 -34 073 -22 -96 059 -14 086 112 008 036 -111 -55 072 115 -108 -09 124 -69 079 014 009 075 101 027 -28 077 027 -27 -77 020 076 026 047 070 -40 112 044 092 -113 056 -02 -65 021 -02 087 -100 028 011 -90 053 -63 -07 -99 026 109 050 -64 123 
-116 111 -86 -101 038 000 067 -114 100 -14 045 -63 -15 -115 022 -11 114 -109 009 -112 -113 123 079 069 -11 002 -85 -31 -62 076 -74 -116 -38 082 082 -125 003 -27 123 017 -30 040 089 -37 112 -10 118 035 025 046 012 -18 -75 031 077 -44 008 102 -91 075 -105 096 -35 -114 
-02 126 118 010 030 -29 062 021 -95 -85 110 030 -95 -60 100 -11 011 122 094 -05 -79 -48 039 -48 023 -128 -107 070 081 081 022 063 -110 052 -12 010 -69 -84 093 069 014 -01 -74 019 -105 -93 -58 005 -67 041 069 -14 039 -106 -37 -27 -65 066 093 -37 120 -82 068 116 
-03 -02 -29 032 105 -101 -91 014 080 -31 -60 -87 -104 -79 012 119 -58 -36 066 100 -75 -58 -120 048 -115 020 091 124 126 -101 -10 -85 -05 -106 -87 -83 -04 -94 -105 -41 -44 -55 -90 -95 -74 -79 -90 120 -60 -51 111 118 006 095 -16 022 -05 029 040 -114 -76 -90 072 -33 
064 -87 -58 -119 -05 -99 -30 073 -48 -51 -79 -52 047 068 052 054 -89 026 118 018 -85 -69 -95 -62 -34 -51 -40 -111 006 -99 032 094 -85 072 -93 -116 068 077 -126 089 -25 000 -127 024 073 123 -48 009 094 096 -59 -77 -111 -59 -09 115 -81 -54 030 112 -124 -102 080 115 
059 073 121 -29 091 -107 -33 -26 052 007 110 -72 015 -16 -97 055 -84 064 046 030 111 -114 -38 048 057 -51 121 053 000 122 098 -89 -84 -33 116 089 -42 -05 047 098 013 -87 -87 115 037 -18 032 -107 -115 044 -13 113 -02 -99 -64 099 013 088 065 -01 099 -83 -30 101 
091 100 090 -116 103 -109 039 -75 -72 -127 053 -126 -29 -77 031 094 027 037 018 -65 003 -123 058 066 -94 025 -69 062 095 -93 023 049 092 099 -82 083 006 093 -31 007 -66 -85 089 023 099 -77 -13 -64 -106 -37 060 101 066 083 061 -104 -47 -21 -02 122 -94 -14 -116 -37 
015 099 063 -28 104 -47 -53 040 -44 -14 -44 001 021 042 013 054 -44 -21 123 -61 095 -61 -51 011 047 -110 -88 028 010 -26 -63 038 060 019 -92 012 020 -25 057 082 123 -59 057 112 018 020 -64 095 029 -21 -17 035 -43 -108 -84 -58 083 -105 057 -31 -54 -49 -57 -14 
055 -26 066 -80 054 086 -73 -95 094 082 051 074 020 -119 008 024 -73 036 035 -108 -21 -55 066 -61 -18 -02 -78 052 -43 -119 -17 -44 072 -25 095 -97 091 -23 121 -20 -120 -87 -24 -82 022 019 -52 004 067 -67 -108 014 005 124 075 -85 -89 -53 -36 -120 -52 -121 -08 112 
099 012 -91 081 -101 -109 066 124 -119 -47 001 -66 113 064 -108 069 -124 050 -76 103 034 -27 -71 -70 003 -43 -104 011 040 003 -117 080 100 008 -45 -26 -39 122 074 098 073 111 -67 003 011 -67 -109 -23 -91 -126 069 079 055 -121 110 -52 115 020 122 -53 012 -11 027 035 
093 -91 -108 -82 070 -11 -68 -94 037 -106 026 -48 055 094 -117 -82 -70 -48 -124 -15 -124 110 106 033 -22 069 -93 -29 029 125 031 -85 070 -53 045 -119 095 093 017 039 125 007 -97 -15 -101 -39 033 -33 -46 -31 -96 -38 100 -120 -04 -61 011 -67 019 -118 -22 -99 107 028 
-23 060 032 -32 044 -13 -99 107 -35 073 -105 -16 -100 063 -21 077 122 -123 089 -54 020 048 022 008 -01 -32 030 004 022 -97 011 016 074 100 -69 -16 122 -18 087 046 019 -03 031 015 -102 -126 093 -10 -66 068 092 087 074 022 120 028 -66 117 027 -61 -87 -99 030 -37 
-82 -11 -121 -41 084 -60 -110 064 -105 062 034 114 061 061 -51 001 091 001 000 102 018 -13 019 -85 089 -18 -38 077 063 118 -86 -102 109 -46 008 -30 -45 -53 -19 -91 -58 008 032 -42 028 -57 -03 016 004 008 -69 -71 086 -16 -78 -63 -104 006 004 004 -25 -94 -46 -72 
106 -93 043 -07 039 -40 034 -72 038 021 -62 016 119 014 116 011 062 -16 -64 116 053 108 121 091 040 051 -05 103 066 -22 051 003 -65 -11 003 -114 -03 039 -04 -116 -55 018 099 -94 051 -51 029 -78 -50 056 048 -127 009 -78 -24 005 -35 -49 -97 -05 070 -97 -79 006 
-41 -119 -93 049 -01 -61 049 019 -98 120 -20 -70 -31 -48 043 -86 111 098 023 091 -91 -66 -106 -36 055 -57 -126 028 -94 -46 120 -126 -45 056 045 099 -18 -104 -12 031 -17 043 112 -54 -128 028 041 069 093 118 020 032 035 -02 049 -48 -127 -13 -121 -54 076 040 053 -56 
-41 031 006 041 039 -27 -107 034 -05 -11 -108 -01 -81 -117 -79 -27 -20 -84 050 122 -128 -99 095 -55 -01 -55 -81 086 -75 -11 -38 010 093 -115 024 -128 -29 -90 -34 021 -02 -10 085 -104 118 044 087 071 099 -10 078 -38 011 030 000 -89 -65 096 112 004 -19 -80 -125 -20 
056 016 -116 -18 090 060 -51 -41 044 -10 -95 003 -65 -08 -93 088 -50 123 -30 126 -98 -64 060 -49 059 -11 035 -56 071 -48 084 089 -100 -104 -01 -36 015 -95 103 012 083 016 -126 057 071 -14 085 045 -08 -28 -76 -54 -85 120 -32 042 -88 062 -110 027 113 000 102 -50 
015 -112 -113 -30 037 -67 001 -71 -08 -113 079 001 011 -11 032 121 -91 -53 088 -52 034 -110 056 056 115 083 -66 -92 -101 -72 -119 -02 028 -30 -30 -10 023 -61 094 -113 -87 053 -47 -94 103 096 -87 038 -17 048 087 -55 -64 -113 084 -53 046 044 -49 -68 -66 -25 -30 -83 
057 077 114 028 -87 119 -37 026 067 -20 045 098 014 -10 -51 -115 -60 -104 048 033 126 076 026 114 067 -37 103 -48 038 -05 036 -64 -14 110 073 076 -58 -30 -14 -13 062 -25 022 -117 -42 024 069 -51 071 049 061 -32 080 110 -41 -24 069 028 -45 103 067 072 119 055 
-73 095 046 019 093 -98 -101 -19 -42 -67 002 093 -64 -49 -87 126 087 114 017 -42 -107 084 -28 -51 -11 -65 026 -124 005 056 036 -08 044 105 018 073 -68 122 -10 033 004 066 007 -44 057 075 035 -73 087 -58 -45 -52 011 -22 124 -36 054 -33 057 103 -37 -42 -124 -105 
032 -18 -47 013 -37 -16 039 005 012 052 074 005 -98 125 015 031 043 -69 -89 045 -106 -31 -08 092 109 -39 088 -30 001 085 -128 -15 -118 060 -22 072 -98 -44 066 100 097 -48 -106 -82 -65 -124 065 082 -53 -65 122 062 086 -05 125 059 -95 089 -82 060 088 067 104 035 
062 009 107 070 010 -51 046 064 -94 009 015 093 000 120 -11 039 -113 016 -58 -27 109 -121 -49 061 -39 -93 101 -96 119 -64 -89 -113 028 076 -08 004 024 039 -38 -04 093 -18 -09 049 114 -22 087 -108 -47 071 075 -91 -99 -91 -113 014 113 056 -07 076 -52 -90 -35 078 
-78 -35 124 070 081 056 069 -83 -33 -09 044 -99 121 087 -63 014 -23 -07 -12 -51 -03 -112 -02 -58 -21 -113 -14 057 050 083 -115 084 053 -15 030 -110 014 024 -72 094 070 -20 -95 085 119 045 039 -113 -15 -60 023 089 -07 -116 030 126 -86 069 -54 -126 -60 -118 -116 -102 
038 041 066 -113 076 -17 002 -92 -07 109 -127 -28 046 012 049 001 -111 038 -65 122 044 123 -10 030 060 -18 117 -05 -83 067 001 -92 -69 044 -127 076 050 087 -125 -32 -94 050 103 -98 116 007 -44 017 090 112 097 016 048 078 010 032 045 088 000 086 -33 -111 -77 -27 
-105 029 -90 -126 -03 050 -70 076 087 -56 017 -94 113 -22 -37 -80 -101 057 -13 082 -95 019 -105 101 -110 -64 028 -111 -94 123 034 -06 -39 -123 -03 018 062 -89 055 019 022 -57 -90 021 -34 -113 083 123 090 -46 003 -117 047 -59 -15 -51 -116 -127 -127 -10 102 -47 062 -109 
068 061 -19 -19 109 -55 -32 052 -53 087 -71 023 119 094 071 018 074 021 076 104 -99 -86 023 -78 036 -84 061 -61 073 -31 001 -69 -01 052 126 -27 098 045 -74 -72 091 024 -62 030 -29 -114 -39 -56 045 093 -60 -39 087 -15 092 -84 025 -100 020 -77 052 -31 028 071 
012 022 008 050 -09 003 -85 -19 008 121 -91 -06 095 -68 049 -32 -61 100 009 069 114 -110 -124 090 092 -124 041 100 -102 087 -71 024 057 056 041 017 -75 -33 -31 088 -127 -28 -104 075 046 -69 -39 092 -78 075 -41 -63 -04 -30 056 107 -87 -49 -101 104 068 071 101 013 
-43 093 067 018 097 076 047 095 -95 -98 118 -31 -75 038 -16 050 064 -118 -100 072 030 -115 078 -47 124 103 -78 007 -70 004 032 032 073 045 116 -83 -36 095 052 055 021 014 042 077 103 035 088 -60 036 064 124 -80 -71 087 107 104 018 106 117 -34 -70 106 -03 109 
-110 126 013 042 126 027 044 -48 096 125 -69 031 -113 -58 -109 -114 092 -71 -47 072 -98 -53 030 -112 -91 048 -37 -116 007 -117 -89 008 107 -87 -89 124 016 -111 030 -08 -37 103 -12 -22 -93 126 050 040 080 068 088 -95 068 057 102 107 -59 123 103 -57 -30 -40 081 -82 
077 -27 -128 -53 071 -112 -05 004 008 -84 011 -29 -10 068 015 -44 014 -04 -85 -59 021 -89 024 -03 083 -110 -122 094 020 037 124 035 -82 090 -77 -76 048 -92 -53 102 -113 038 099 -118 -11 -39 005 -50 -62 -03 005 041 050 -82 -83 047 049 -21 013 099 -98 -78 076 -16 
-120 030 -18 -79 009 -09 -02 119 040 -20 118 117 -36 -121 -84 016 -117 028 024 -64 114 -18 057 -05 -39 -92 015 121 -111 -116 005 -86 029 011 059 -09 -42 037 008 056 -46 032 -03 086 -82 019 112 -106 -126 -111 092 054 -114 051 031 -07 -34 002 015 067 -13 -07 115 087 
086 053 110 052 116 -85 082 -07 031 052 053 -03 096 -108 030 -30 055 -42 067 -46 -71 001 061 048 -121 104 039 014 -115 -111 -27 096 -30 000 -75 015 110 052 059 -120 -86 078 104 -60 -51 019 051 051 -116 027 043 092 -14 117 -52 026 101 -93 -65 -100 -20 006 -81 026 
013 073 -39 -25 107 103 -26 115 -41 012 013 080 -95 -20 -91 112 014 -36 046 050 -43 -107 107 -99 -18 050 -61 -119 -84 -15 126 119 -91 018 -38 043 -52 -21 085 027 -113 -34 008 -22 039 115 -78 035 -45 036 079 125 011 -119 101 -30 -66 061 052 -113 -32 -84 -49 -07 
009 072 105 034 017 -73 -45 024 076 -21 117 -117 -106 -41 -127 -39 -81 010 003 030 105 085 -94 021 -23 051 030 073 017 016 120 045 -88 -24 088 -16 -17 028 -73 -33 086 -66 -22 119 -127 126 068 -32 052 011 087 -96 121 -118 -107 107 -59 -113 115 014 057 -108 -13 -14 
104 080 -85 -30 028 -112 -82 088 001 -119 -40 -104 -03 -108 -122 -75 112 -91 018 -83 -99 -65 -119 -107 078 018 100 044 094 -80 -64 -77 -26 033 -84 -04 -121 107 011 -104 022 -05 024 -108 054 -97 -35 -01 -79 -13 -111 -114 -49 042 086 -14 -111 082 034 -90 092 -55 026 058 
012 112 076 -02 107 056 -90 -121 117 -106 125 -95 -06 -99 -60 -03 056 -47 116 060 112 -63 -34 -32 035 089 048 -90 080 075 126 -02 121 093 026 089 020 027 -99 077 001 026 -126 -121 124 -69 046 074 -41 073 -57 -39 031 003 124 -110 -10 -24 050 080 -33 053 055 -83 
-94 073 -11 -93 120 049 -22 091 082 -42 -78 070 106 -15 067 078 -09 120 126 -12 -45 091 002 -30 -24 009 -128 038 -119 076 -69 -15 -44 -28 024 105 -14 054 -71 025 -63 108 009 -96 -91 -08 067 -22 013 -09 -83 003 069 -65 -24 -42 084 -125 -70 060 -52 -107 045 -05 
-15 -40 020 -68 -14 086 -43 -28 -27 049 -30 014 -10 111 -121 043 058 061 087 120 008 -15 050 -117 -18 -63 -12 -82 -10 -106 034 -55 -81 -41 -95 -26 -123 092 074 008 031 -31 -16 032 -120 -116 106 113 -27 -71 030 -65 044 043 036 -75 -107 116 -76 -107 111 -114 -118 079 
-53 117 -40 088 -94 -86 036 -96 107 071 045 078 081 -119 -32 -94 -105 -20 -76 -35 020 -36 -41 096 057 -53 103 038 -48 030 005 -73 -09 040 063 -23 -43 -01 111 -105 -61 -118 103 -127 -60 -102 -10 016 -120 014 -45 083 096 -125 109 -66 -14 073 -46 036 064 016 -66 027 
007 -109 -76 003 014 -66 052 -25 080 063 -51 -113 072 103 108 094 -05 -05 -59 -51 -43 051 093 008 -20 -104 -78 -50 -02 043 -27 -40 026 124 -93 101 115 053 064 -27 -112 089 055 -47 -63 -62 100 -107 098 102 114 046 -54 016 097 -09 108 120 -83 -102 022 116 -23 011 
123 009 -115 114 109 020 -114 004 -54 055 -62 -104 -39 -84 018 -65 061 -11 -58 -40 -91 -22 -122 098 -54 060 081 -60 078 062 041 -15 -59 -09 -43 117 000 091 065 068 -105 -56 057 101 -06 -124 -83 054 069 003 071 -56 034 028 -114 -98 -107 -102 -65 -79 -89 -113 078 065 
-28 -54 060 106 -36 034 049 108 -124 069 095 -86 -95 109 -123 -32 -06 045 -41 124 -87 -11 -122 -09 -121 083 050 -57 -47 111 -65 -54 022 -119 019 -18 041 115 -44 001 105 -79 -88 096 -41 -65 033 -115 067 -116 -09 -41 115 -118 115 036 092 016 -30 124 -44 -97 104 -02 
020 017 105 -72 -59 -37 -40 084 -84 -25 011 074 080 -06 -79 109 -119 -111 126 -31 095 039 053 047 114 012 -109 085 102 086 -111 -79 106 058 126 -89 -96 -11 048 022 100 -93 066 040 084 125 -104 091 -126 030 -29 010 -85 -59 -10 -10 -03 -61 -21 -117 048 -90 030 -101 
-76 121 069 -35 -19 -93 -71 022 007 -93 099 030 053 007 105 000 003 -27 -14 121 -94 -112 -68 -03 -114 -85 113 123 -74 017 014 108 -45 -31 124 -77 -11 034 115 016 107 099 039 051 111 -88 030 074 026 022 -19 115 093 -61 032 077 -112 116 094 -101 -99 033 -33 -96 
116 -65 -44 072 -25 028 -58 -48 076 003 -29 -114 -122 -55 043 092 103 024 121 070 -113 -86 058 -106 -32 -75 100 078 052 049 -79 041 -39 100 061 017 -98 -108 -40 099 -40 024 099 107 -50 -101 -29 -03 -48 -55 -125 -17 102 -08 -115 020 067 022 072 105 -64 -47 -117 025 
052 040 044 051 -95 -12 023 -61 -87 -60 -124 -111 034 -84 -22 -28 -60 -111 -80 082 087 009 119 -15 -103 -105 106 092 119 104 -108 -111 007 035 -85 -92 042 -117 -78 126 121 -26 018 -126 -02 -35 045 -122 120 -64 -64 -05 -80 122 -47 032 -84 124 -30 -35 -26 -110 069 -96 
061 -73 050 000 055 -87 048 -05 012 -71 110 007 -108 028 -74 -50 -110 089 -41 -100 -33 010 078 030 -107 -41 -61 023 -81 099 -05 -09 -73 110 -19 068 -117 -59 -91 085 -86 -34 061 002 047 125 -114 096 061 -72 013 -76 -61 -112 120 067 -105 033 -123 118 057 -98 -115 032 
-116 -77 -72 123 056 048 -66 -93 -100 -68 -93 069 -125 022 008 028 -35 009 -32 -86 008 090 -87 014 064 036 -119 025 060 007 119 078 -109 121 -106 -113 047 071 -12 010 -26 -61 -122 120 017 125 045 -16 -21 -120 -112 072 -53 -55 -49 103 082 031 057 -27 056 120 -71 -120 
-119 113 106 126 -26 069 -97 072 -84 -34 -98 -05 -53 039 -72 -83 057 -06 -26 -124 012 116 114 -84 -85 052 081 -118 086 -75 078 -105 091 -59 -25 041 -75 087 -02 105 -29 -09 092 -110 080 051 -92 034 -128 -105 029 -03 109 -33 049 -54 121 -112 -60 -42 031 019 105 -86 
-92 091 024 -13 -83 -118 -54 070 -124 048 -76 -40 -50 -115 -28 -56 007 -37 -89 -101 -49 079 -122 051 -43 074 -16 -106 -59 026 -75 -41 -75 091 088 122 110 -28 043 -90 -58 098 040 -39 027 -32 104 015 030 -105 -61 064 094 -54 -60 111 022 -69 -20 090 088 022 115 -119 
060 098 000 -75 -104 -27 034 111 -16 032 -26 046 063 -18 040 017 -76 054 -24 096 -27 105 -41 -91 060 -103 -122 -22 -109 038 -07 -117 110 -72 -70 -94 080 -03 -87 -31 107 -21 096 -99 -35 033 -51 -51 -124 -45 106 -98 -100 034 -76 059 040 -21 -108 057 -13 049 -19 095 
-89 -95 014 -66 -104 016 -94 -93 124 023 -100 -69 068 013 -09 -06 -31 026 041 052 -82 035 080 080 -11 -118 -114 -50 -122 -16 -70 020 -122 104 039 -81 -44 000 109 095 001 -44 095 -125 080 057 -37 040 -21 -121 059 -23 038 020 057 -41 087 000 044 -10 073 069 -112 056 
-45 037 -99 -53 104 061 -69 023 -53 118 073 087 -97 -117 019 -51 -40 091 -54 -31 -66 -39 -53 -61 035 -25 -60 028 -12 -117 -38 025 067 -104 064 -111 -08 095 -32 122 -64 074 079 096 092 115 119 085 108 -114 -49 -128 054 082 126 -93 -79 -59 -47 -05 082 028 068 125 
-49 -20 -07 097 -119 -56 124 -85 -65 -89 -53 -02 -85 -46 -102 -120 -91 096 -69 006 108 011 -09 -60 -74 070 013 -103 -95 -94 035 084 -85 -15 -127 -89 -49 054 -89 -44 029 115 031 -12 091 -43 096 -102 062 -31 039 -66 -34 088 111 -59 011 -18 -68 -58 -125 063 -95 048 
-11 120 -113 -53 -105 -19 -119 -86 -119 030 104 -86 -103 069 -100 081 -17 025 -81 048 -51 126 -06 042 108 064 -12 010 -109 -78 -71 -87 078 117 117 -46 056 -04 -84 -71 -58 005 005 091 055 000 108 078 004 -56 061 051 046 -75 027 -87 076 -08 029 028 031 -30 -108 019 
-61 -105 064 050 -29 -63 -115 -99 -13 -02 082 092 -79 013 104 104 102 110 069 -116 124 124 034 101 126 040 -25 055 -89 -41 107 004 109 -59 004 -96 -85 063 109 -116 032 -125 114 -91 -49 000 -81 110 024 -108 029 009 -38 091 095 114 015 -03 015 -62 -36 025 -112 111 
-16 -96 018 -82 058 085 -40 -84 -12 -112 -97 -93 112 031 066 048 -26 -92 -123 -24 021 008 023 003 -112 -67 -18 -73 -36 060 -22 031 072 -08 123 119 -109 050 063 -43 104 -118 -115 077 -74 081 -24 005 049 -53 -16 -100 125 090 036 -34 058 046 -83 115 025 -101 -37 -125 
-69 040 068 -41 051 -44 -95 -96 006 -116 116 055 -17 032 -71 004 -05 -05 041 -72 029 -27 -100 030 075 001 -30 023 003 001 -55 027 116 -121 042 058 065 -89 -08 113 046 -87 -44 115 -106 083 097 -03 -05 024 031 112 003 049 -114 068 064 012 -36 003 058 -68 -21 071 
046 044 076 -14 096 106 -116 -72 074 082 -118 -59 092 -101 042 -85 -114 044 -85 009 000 -03 071 099 -92 -114 -74 -39 082 050 022 -31 -48 023 -91 100 110 -74 -58 -57 -108 -15 096 108 -123 094 090 -78 -123 -42 -122 -29 031 016 -117 048 -20 107 -17 -06 031 022 -124 088 
074 059 -68 -122 104 -88 066 102 -94 -124 011 -77 -81 120 055 003 -69 097 -107 126 035 -110 -89 023 -65 117 036 -92 -38 001 -53 -112 -110 064 042 080 075 118 110 035 -103 044 -18 -79 021 043 121 -58 100 -67 -37 062 035 -09 112 -96 -69 123 -37 -84 092 -85 -09 029 
-02 093 -87 113 004 118 -09 -24 -65 039 -106 -93 003 -16 013 -68 -104 -48 -102 -96 098 074 -56 -45 093 048 095 118 -48 -30 -125 -106 -64 -66 -122 -39 002 110 123 -12 -61 -14 -66 -37 -74 -97 021 -59 098 -25 -46 053 -83 -68 -67 -104 011 019 002 023 056 121 088 004 
103 010 -71 -06 -51 066 055 085 091 114 026 -32 -77 -79 -101 094 -39 -110 -96 -38 072 000 -24 073 -94 -05 -58 088 069 093 028 112 117 101 -52 -120 -04 -98 -25 120 118 120 -07 -05 -13 020 -65 062 098 -101 016 -119 089 052 081 -05 -26 026 048 095 031 069 -14 -38 
-55 026 -108 109 080 -83 060 091 -114 -108 -17 026 121 089 -82 105 090 121 093 -45 116 -94 049 -84 086 -95 106 -15 117 054 -17 -66 119 123 024 -10 064 061 080 003 -03 -49 029 029 063 101 088 025 -86 095 018 050 087 023 -93 -68 077 -02 099 048 094 067 -17 -116 
-05 -18 -35 008 097 113 -95 -30 -45 054 000 004 045 094 068 -119 113 -11 059 -65 -93 013 -117 117 -103 036 -115 -46 -93 -97 -81 -85 041 122 082 069 079 051 -67 -34 -119 -03 020 -28 049 115 054 -122 -113 -128 067 017 103 -116 -10 -76 113 -124 108 076 063 119 -111 058 
-46 -03 -05 041 -50 -87 091 -83 095 045 -66 003 -12 -72 -71 021 -93 034 049 088 -69 -98 049 000 011 -29 029 115 -47 -74 122 059 117 -47 -80 -63 049 113 -112 -22 017 020 -100 106 025 -124 -97 071 -19 054 053 -75 014 -68 -38 061 017 123 -11 024 -82 -111 -57 114 
-89 -126 109 087 066 -97 005 -76 118 125 -32 045 -24 124 -28 085 -97 081 121 -22 -121 -02 -80 085 -05 -126 -30 099 066 -51 -28 113 112 -82 015 122 111 -32 -10 -42 -118 087 -05 093 103 -121 -106 024 121 092 -18 061 -42 091 019 -91 -52 012 -31 031 073 024 098 093 
086 036 053 092 115 075 094 015 029 060 084 -10 048 038 098 013 035 008 042 -15 -29 -19 116 -06 087 105 080 -118 -09 002 026 113 066 -16 110 -123 081 -72 079 -31 011 069 -70 -97 -88 045 -69 103 -59 -88 063 036 -99 -80 113 -24 -42 -52 -45 -67 -34 -16 -105 -24 
005 -73 -42 -123 091 -08 -118 -11 -110 048 -100 -107 060 -47 073 098 075 -123 076 -42 047 013 052 068 -57 073 -52 -115 -49 038 -54 099 090 -111 063 077 -26 -72 090 089 086 -110 -122 059 054 010 -108 -23 112 084 056 -86 -43 -108 -86 -76 -75 020 089 057 066 126 -36 -39 
-95 106 -60 -60 -35 -92 053 023 041 061 108 100 014 125 -22 -111 -50 020 -83 017 -72 073 068 111 -75 -45 109 033 -91 -13 094 004 -69 025 118 -55 -42 -66 105 -12 -66 -117 059 122 -85 -06 -55 097 048 -114 053 009 -70 -14 063 -95 -70 034 -99 -55 -77 093 -52 -78 
002 017 -73 113 034 -49 057 071 022 084 102 049 062 -52 -84 -72 099 070 -48 034 089 074 -76 093 -111 072 122 -65 -70 -110 -43 -91 123 036 -123 -118 -58 -56 -63 -48 -83 053 -127 115 081 121 018 094 090 -83 013 012 -113 -13 -05 081 042 -50 -109 114 084 -108 -87 035 
-77 -43 056 049 -50 -114 045 -118 -48 -124 -51 -02 001 -63 -101 035 076 -14 016 068 011 -110 -19 101 022 028 096 -72 025 068 -110 -74 071 -03 -25 -01 -66 043 -57 -74 041 -74 -35 115 014 -78 -15 028 -32 022 063 -104 123 054 062 -109 -26 014 -60 -119 -97 -55 -29 -117 
-119 -84 -85 -126 -45 -113 -53 100 -106 -118 053 024 -107 003 -78 -24 073 -117 006 -22 -107 -66 036 059 -98 -101 -89 063 -89 005 102 -117 086 032 068 117 050 -31 053 -60 -25 056 -58 -08 -38 104 -111 062 -95 008 023 113 -72 -26 -36 -117 099 -35 -55 -44 -56 -81 021 068 
-89 -96 105 011 093 027 125 097 101 -40 019 -79 -118 -10 -66 -98 -56 -112 -26 019 -51 011 -58 051 086 056 013 -83 008 -39 -64 036 -19 039 100 -114 043 041 032 025 -77 106 -52 -34 086 -05 -09 -23 105 -09 -05 118 -121 015 -75 -36 -23 -62 -98 002 003 029 -75 060 
086 039 -121 033 091 006 -26 -19 -28 109 076 -13 033 -38 -114 095 -115 -35 -115 -127 010 -25 078 -33 -126 030 055 020 104 -41 -116 082 -108 -118 -64 -94 -99 -105 057 -123 065 -78 088 099 014 009 071 -56 081 015 062 051 097 074 083 -82 -91 088 100 -34 042 007 -95 -04 
-55 056 055 -121 -87 086 076 -05 116 -75 -17 -99 -37 -88 022 081 084 065 -86 -26 090 070 -98 -99 -29 065 052 -37 -16 -48 112 012 -123 -22 096 112 063 107 089 -32 -09 -69 -76 080 115 -85 075 -79 084 -73 -111 047 006 039 -38 124 -19 035 -18 017 -36 113 -118 -06 
-78 092 -72 022 026 048 -54 -34 087 -101 -61 -97 -30 -31 -92 -63 -46 -27 114 -71 -105 034 018 098 042 123 122 -55 -06 -128 -04 -112 -115 -73 061 -106 -64 -17 082 -53 080 045 -59 027 -73 -126 -111 012 -01 110 031 026 110 -03 090 124 087 081 066 -69 -03 -90 -104 -09 
010 -48 -07 009 109 091 -55 -34 -95 003 018 -49 013 -50 103 -09 087 -35 -95 -73 066 064 002 064 -75 -10 001 101 005 -33 123 002 015 -05 059 125 -39 -61 115 000 107 -35 017 064 116 076 -102 -124 -64 055 -68 -117 048 -72 -114 -12 -119 -05 067 110 -116 -122 118 087 
001 -59 -16 -65 -113 075 108 106 039 111 -33 069 102 -95 -22 108 096 066 102 -30 077 006 015 011 -86 091 021 -71 023 045 -16 -70 -99 -29 -18 -37 029 -18 -123 069 -37 -20 031 -80 -42 013 -121 050 056 112 109 103 047 -50 088 058 119 -105 -47 033 -118 -106 -101 -115 
115 084 -06 104 -11 -33 -11 -10 -94 -43 101 -126 001 075 -97 -14 060 113 043 050 114 -110 -124 -102 -43 -28 -87 -56 -27 -74 039 -26 000 083 -58 096 -99 122 -118 116 -61 029 032 -117 -113 042 -43 071 -65 -64 -10 053 033 086 022 -116 -37 110 023 090 -81 -08 -29 -82 
-09 -30 093 -101 -88 -86 018 -09 -78 -121 004 126 -22 -109 040 -53 059 103 126 100 -117 008 119 123 026 -44 104 -50 107 116 000 -86 -104 089 -94 -36 046 049 -19 067 095 123 097 059 -120 -61 040 021 084 -27 060 -09 -27 106 -33 -45 122 086 -02 031 -67 048 030 046 
000 086 -92 -106 -79 007 046 099 -93 117 077 -14 038 009 -122 082 056 017 -66 105 026 121 -67 048 -84 032 -83 -101 019 103 062 036 -84 -04 045 030 060 022 019 104 097 -52 -114 -89 045 -07 017 022 -113 001 -78 -126 061 070 -18 -33 -112 -17 018 -05 -125 -23 -103 -37 
106 -04 102 055 -64 -37 085 043 -10 087 008 077 066 024 070 -119 097 062 057 -60 -119 123 006 006 -48 116 050 041 -76 -86 -111 070 -123 097 -113 -47 087 089 004 -76 -49 -124 -44 004 025 -124 038 -06 053 -11 -13 117 -59 098 -93 118 -62 115 -52 120 023 099 126 -22 
122 -86 123 049 -66 -51 059 084 -102 -35 002 -42 046 -12 065 -01 087 102 -11 -01 118 003 036 104 078 120 072 -73 -34 -40 -23 -46 -26 -39 054 -57 008 -42 -44 081 039 -90 105 -101 043 087 014 -62 -93 -78 -57 090 039 -41 -46 -95 -59 110 017 020 090 -83 -111 047 
015 -97 036 -52 -30 -89 008 045 113 068 -12 017 -99 -89 -20 -16 -09 -76 -38 085 -66 -78 -106 -121 -102 -22 -60 -33 038 -07 -60 063 -115 094 -82 096 -97 121 026 010 -113 099 068 -33 102 -68 107 017 069 -69 008 -96 -42 -109 091 028 035 122 -60 033 -66 -76 -85 095 
-50 -87 065 -102 -95 -17 -127 -108 -100 -09 025 091 055 -52 125 -53 076 -111 -14 051 -91 -21 -102 -59 040 031 096 -35 -65 -47 -106 082 124 039 104 -119 065 -91 -21 107 -46 023 -50 -103 -113 -65 -97 -29 -48 089 043 -115 017 -99 -111 097 -114 101 -114 045 107 -80 058 126 
-96 108 -05 -41 087 029 047 -73 -48 -111 -12 -107 064 -96 -04 006 031 102 -91 -127 090 026 112 006 118 034 016 -01 -36 -12 -96 -122 093 -47 031 047 -104 033 -80 -38 -104 -30 123 -39 -34 044 094 120 -08 062 -80 -74 -95 -59 -70 -87 -40 -38 120 -121 -123 108 -11 082 
098 008 -91 -48 -44 070 044 024 -93 -67 -32 057 066 056 123 -60 093 116 -01 -119 086 025 097 093 065 020 042 -68 -74 069 070 124 107 -74 -31 083 -125 -118 -69 053 -67 073 072 -23 105 036 047 022 -24 -122 094 016 -09 -81 -94 009 118 084 -65 -04 -117 105 -48 113 
043 -31 -52 062 -70 -50 -109 -11 -18 -72 -115 -53 -118 014 -10 035 -87 -95 009 058 -119 -33 -48 076 068 -33 014 046 -122 110 077 -99 075 057 004 -69 022 -67 -127 -50 -75 -90 026 -34 -39 118 123 -12 -69 034 -56 -115 -39 060 -48 -84 031 -55 -05 -07 -84 -106 -17 089 
009 001 000 -33 -23 033 -35 010 094 006 042 -112 -39 -84 -93 020 065 -90 -39 -39 -19 -76 053 -80 113 016 029 -118 -55 118 -122 -111 070 -124 083 -105 -29 -105 119 -71 055 -06 -105 038 -61 059 -67 -88 104 051 -74 -69 -46 069 005 -48 083 036 030 070 -33 077 -32 022 
-128 -103 101 063 051 031 -35 -59 056 107 107 107 125 -03 048 058 047 052 -40 030 -64 080 009 048 087 118 088 -41 018 112 005 074 -112 089 -83 -71 -02 012 082 109 002 016 -51 013 -03 -84 -49 -70 -30 012 076 089 -04 -05 -119 -119 056 -45 040 -103 -61 005 -107 069 
-50 -57 103 054 113 062 084 -18 -79 023 -89 094 -36 037 -56 081 -111 -122 -87 -98 078 -19 033 -33 078 -04 039 -111 -43 -28 -41 -97 -84 102 -121 -95 -115 066 -84 -58 080 -128 -13 -25 -105 -26 -90 002 002 -122 047 -110 -79 106 -120 -78 111 009 118 016 059 -85 -78 -55 
-106 080 -74 024 -115 -59 -04 061 -114 047 -125 092 072 -111 042 118 -66 006 080 -37 -44 008 110 085 118 065 119 -59 -53 093 041 049 -105 -91 -02 085 -18 113 -78 -04 073 -94 -06 -54 124 044 080 041 085 039 -107 -48 -72 026 -33 -93 -64 102 -42 033 112 -11 014 037 
010 104 -76 -119 -38 -79 -18 069 -19 -24 -102 -116 -87 039 018 -18 -48 111 100 027 -84 009 -97 -44 -84 -89 049 057 046 -122 039 -39 104 -05 024 -47 -78 089 117 -107 -74 118 105 090 -23 -01 -107 -63 -91 125 055 027 123 066 -58 -53 -125 -128 034 102 -95 063 -76 093 
025 -75 059 042 026 -39 -08 -100 -87 123 056 -39 -20 005 -60 017 -98 -66 -14 -102 -100 020 020 -47 -16 035 -67 -92 -88 -46 045 -97 086 113 -52 056 -60 052 -111 -111 -93 -36 -76 -05 -53 -26 -67 012 -115 111 -121 -119 031 021 -14 047 015 -90 -54 -58 070 074 024 125 
-90 -50 -39 -49 -11 044 066 068 -103 006 069 002 -79 118 031 090 037 027 039 027 -122 -49 -121 -45 -21 004 -13 -44 -91 058 -78 105 092 -06 107 -52 -31 089 -87 -19 -84 005 036 -46 070 -120 -108 -103 022 062 -04 -115 -16 053 031 -120 031 -110 036 031 079 -28 -66 029 
062 -100 -114 067 014 071 115 -10 -51 -18 052 -108 004 106 -62 064 126 065 062 -128 069 102 -113 020 038 023 -92 -87 -84 069 081 096 087 -83 -89 108 065 -38 -93 029 -119 070 015 -47 011 117 -42 -73 002 -101 081 -64 031 -102 -82 046 -77 054 -101 -56 020 -98 033 020 
-31 -14 123 -90 044 -66 087 049 064 -54 -83 072 002 -63 -43 082 017 -08 100 -29 -75 -18 049 -73 026 008 104 048 -18 091 -125 -21 -11 -116 -125 018 026 -113 -119 102 -46 -57 092 -92 -109 -13 030 -49 -35 096 -48 001 087 -63 123 -74 002 103 078 -118 -26 -40 107 -20 
-24 117 -93 061 -125 124 -115 029 079 096 004 -43 -121 -31 -118 -59 -111 048 020 087 -66 -103 -84 091 083 -01 041 002 -89 -52 023 091 -123 092 -63 -29 107 090 -36 -95 035 -60 000 034 -11 -37 -88 -30 -04 -60 093 060 -122 122 088 -49 -73 -110 -76 -103 -75 056 021 101 
067 -05 -45 008 -16 -15 -14 -108 -35 -114 -06 110 028 034 075 115 -124 041 091 008 105 092 -03 006 -117 -96 -26 -64 122 017 030 095 023 -101 054 091 050 072 -47 107 -34 110 -59 -83 022 024 083 004 -35 073 076 099 045 109 -90 -111 026 095 -30 -19 104 058 026 -115 
062 -100 100 -59 -25 038 005 -80 034 055 061 077 086 104 -45 -44 022 003 -03 036 043 057 -69 -110 -29 -77 -36 -126 -82 -39 -31 086 -28 085 -14 029 -81 -116 -19 028 111 -78 024 044 022 -22 005 062 -29 -66 -27 -14 -104 -15 -60 043 -125 -125 -110 014 -100 -86 009 002 
-33 -108 106 041 -85 -44 121 -99 -103 050 -95 035 022 114 -104 102 -42 -53 125 -52 -36 101 -116 033 010 -64 -121 124 -66 095 -11 -44 060 083 -125 -72 -52 036 -102 -98 064 106 045 -23 078 091 052 088 045 -06 111 -48 -42 -67 -56 032 042 -15 075 -127 105 056 -30 -77 
-123 115 -103 010 -45 -44 -30 084 -65 -120 -128 -21 -34 051 -48 093 -123 115 092 120 -65 -43 -43 063 -51 044 -57 062 -26 -41 043 -72 125 -79 -77 038 064 062 -120 075 -117 055 013 121 -75 110 079 -92 035 060 017 -65 -08 -43 -45 -51 -43 -31 124 051 -42 -03 097 088 
106 067 -95 079 -66 045 044 041 018 -65 -94 -02 -128 051 -51 114 004 030 -19 -92 -39 -114 077 044 003 -90 038 069 021 098 116 093 -66 -64 026 046 034 -104 -79 -123 -124 088 -120 -93 088 -42 063 -111 -115 -70 -60 063 -12 118 -67 -61 -111 -90 108 076 -13 -08 037 -93 
-119 -58 -83 -66 101 108 -49 -106 -38 094 -97 059 115 125 087 -95 -74 -65 -50 098 043 -61 -22 061 045 052 126 -25 085 064 -82 -77 013 -37 -16 033 -124 085 079 051 -92 -99 113 -111 010 097 -120 -15 067 -60 004 -85 074 126 095 004 -18 055 036 016 -39 106 007 040 
061 -116 -53 -82 -11 -19 -103 111 -19 -76 089 -101 -18 -69 -78 003 -25 112 -39 113 106 021 023 -107 084 -110 -30 -73 119 100 -116 032 -99 -33 -25 061 065 018 -06 067 -52 -65 078 059 -60 055 117 -13 069 068 -125 109 -03 -33 -55 -50 125 -53 -65 -51 036 -37 076 -36 
047 103 098 125 -24 006 -75 -127 -43 -107 -07 -60 110 -12 -34 -79 -09 016 008 -51 003 074 -54 -80 084 -91 -49 099 094 -64 124 -05 -95 105 007 052 046 004 -34 001 -94 -90 075 -73 -110 019 121 116 -27 -98 -78 -34 074 056 -123 -72 -90 100 -01 099 -74 116 -45 125 
019 -105 069 -100 -90 -10 -87 005 -46 -28 -71 124 020 -24 -58 031 -121 -127 084 -13 -93 024 -120 -116 -21 -123 -96 -18 063 -99 021 031 054 -13 -07 013 -100 -93 043 -37 -120 -63 -57 -128 -08 037 -26 047 -21 022 -03 036 -03 -26 -30 040 032 -20 118 -111 043 -69 -97 -84 
032 -114 -89 049 -41 -96 -08 -61 119 -13 118 -77 -70 085 029 055 -88 -110 084 -74 107 -42 126 -54 -32 -80 066 015 -30 077 057 126 021 -62 -29 082 047 -21 -16 087 069 015 008 032 063 -62 078 037 -86 -94 -116 -34 -29 -51 115 -83 -103 -92 092 111 -10 -66 023 038 
-65 025 -18 032 -69 121 002 -79 -91 -08 -82 063 -79 098 -112 040 -117 083 122 -62 -128 -76 118 -65 -77 -66 120 008 -85 116 077 073 102 104 062 005 013 050 019 049 054 046 -117 -96 -106 -55 -51 -91 068 001 -111 -74 -73 028 063 009 125 -78 019 018 -05 107 -21 085 
-107 -70 022 088 -32 053 -95 -98 -75 -66 -107 053 089 -109 120 -104 086 -36 -08 003 088 -45 -53 -11 -96 -29 -84 095 -11 -44 -102 109 -119 107 080 -91 -05 -97 048 123 -121 028 -91 -72 047 -124 -125 086 050 -128 -113 037 -18 012 -103 -109 -74 -68 070 028 041 -71 085 -70 
029 030 038 -33 -127 094 126 117 -67 -59 088 044 -69 -08 -87 -58 -99 044 -50 -98 022 077 026 -09 -23 -81 -74 106 054 005 -01 -128 -124 019 124 -113 -02 -19 -111 -46 -90 102 073 -51 -95 -100 -128 063 -58 009 -102 -117 110 091 -44 -124 -95 -69 119 060 -95 -110 -54 088 
-49 -53 078 -118 -43 124 -99 -122 073 120 -102 -126 -21 -10 -113 091 121 038 -57 -65 -09 113 -106 002 -90 026 -13 -105 071 012 -06 062 -67 084 023 -14 007 -63 045 -87 -97 078 -81 071 -46 115 051 -64 082 -88 010 030 104 -82 024 -105 090 -43 095 108 017 065 -71 -104 
064 012 -03 -25 -35 008 031 076 070 -76 -99 -121 -83 -14 -56 -52 -113 -118 -91 016 116 -83 -108 -97 060 -73 -85 079 -117 -101 -60 -50 042 053 033 -35 047 015 -51 -28 -36 068 033 116 100 116 004 084 -101 -54 -17 075 -123 -75 -18 -65 031 125 -10 021 002 -04 020 039 
-11 -123 076 -108 -44 045 -72 061 024 -10 -19 -19 -95 -54 057 -105 017 078 122 -119 -61 -100 -27 122 -23 092 126 044 035 -19 004 -100 018 012 -11 -15 084 079 105 045 055 -10 -94 -57 070 008 119 070 004 098 040 023 -82 -36 062 038 -126 037 -11 045 -88 087 -18 020 
-71 -90 -23 -37 049 -94 031 -14 -121 -121 -51 126 -50 046 044 026 021 050 -02 035 004 -36 -120 123 097 -07 118 -79 002 046 126 -119 -48 -55 -121 -07 067 123 -10 112 037 -96 -27 022 -43 121 056 080 118 101 -37 -72 -08 033 085 028 -53 036 117 -35 116 111 032 -68 
-89 -93 -56 049 -21 -41 021 068 047 030 074 -06 -15 067 107 -01 080 -19 014 -27 113 053 -101 -106 079 004 -31 025 -40 -76 090 004 049 120 -22 044 -128 -19 009 -29 -31 002 -28 -41 -122 070 -88 -105 -60 -92 -16 -10 040 -94 -53 -81 -69 -84 045 087 -44 021 060 108 
-02 -31 -97 105 022 -49 063 004 -87 -04 077 008 -83 -71 -94 079 024 012 053 097 -79 -100 -124 051 -54 041 097 020 -16 -58 -04 -104 -111 058 081 081 -40 009 -122 004 -44 -38 -66 -08 070 -33 008 -119 -70 -71 027 -67 015 022 -15 -111 119 089 028 -09 -47 121 046 012 
-04 024 -20 -95 012 -73 -33 -118 110 118 074 -54 122 -88 038 074 -109 -95 -56 008 -02 121 -101 035 034 092 049 105 -105 -84 -116 -64 -64 121 036 110 -57 065 019 -56 -94 -57 044 091 093 111 014 048 001 -91 -37 -64 -127 -108 010 065 -08 084 047 062 -104 030 112 -24 
-63 082 -90 -59 -83 -87 -67 021 108 -90 -15 107 106 064 019 045 102 057 054 -67 078 056 -34 -24 030 -119 044 -78 -126 103 -109 -78 -58 -117 -103 091 044 -81 101 077 -120 -81 -31 -56 019 -55 -77 -53 -106 -112 077 037 -42 -107 095 -01 -78 -108 -44 095 118 -39 000 059 
050 090 126 061 -58 -11 -42 -19 -76 007 047 -121 -114 -93 065 -50 -06 -19 024 -48 062 066 095 069 019 -126 -106 124 -56 002 008 055 -67 -06 -47 030 -123 078 042 118 -78 -77 -02 111 -23 023 -46 088 -88 -35 030 047 -87 106 103 054 -19 108 055 -118 -101 067 -59 063 
096 061 -53 -29 -107 -107 027 019 116 -65 -108 -72 -102 -64 -06 -56 037 -96 115 064 100 073 006 082 -114 -07 005 -81 -121 085 -17 -127 -37 -26 -71 -68 -22 -11 121 124 -105 -48 085 069 123 -34 109 028 052 -76 060 -63 -78 109 068 112 -57 007 090 -51 018 036 126 010 
-42 081 044 -40 083 045 -115 011 058 090 -40 -35 090 -109 080 089 029 103 077 -67 060 -126 -72 -69 081 -75 056 100 075 -75 -08 002 -109 064 -63 -35 -118 -28 053 -104 -101 097 008 125 014 -103 -35 -06 -90 050 023 020 092 -103 -110 -30 -112 072 -17 -65 -125 -55 092 -01 
090 -109 017 091 109 016 -35 095 -13 -12 -95 108 -19 039 029 -22 110 077 -21 112 004 -40 002 108 089 050 -35 -50 091 083 -70 020 -32 126 -114 084 110 -95 -74 -119 088 061 056 -36 080 -04 023 093 -56 078 094 -60 076 077 -104 -74 -15 -66 -33 084 -48 -51 -86 -87 
109 -115 -80 -59 006 059 -11 036 110 000 011 -37 -21 120 -65 -90 001 117 038 091 043 -103 -33 -24 -62 007 043 018 -79 -87 -99 -84 -16 024 -65 -06 100 -120 117 125 040 062 016 -54 -104 070 -93 073 -28 075 -99 -77 055 -12 -95 -68 -27 113 -56 -05 025 061 -119 070 
098 -111 -120 -48 -76 -35 -59 -126 -60 -17 090 058 -124 -15 050 018 -33 -99 -78 114 054 122 -87 007 -89 097 045 -119 -93 -19 -01 -88 -104 -27 027 039 -107 -74 -88 -81 118 -01 -92 064 -90 -10 084 036 054 -22 110 017 -88 098 -91 019 091 069 -64 -04 -110 088 126 097 
000 047 103 -53 035 044 -15 -62 035 -49 004 043 -120 009 -40 -31 -90 -99 -102 071 116 114 -64 -43 -70 062 -69 000 109 066 -109 020 -82 -105 009 -87 118 -10 -55 065 -11 -118 048 004 -124 057 -96 110 -113 096 036 -48 -67 -29 006 073 -51 -18 -06 -66 -90 080 -72 001 
-72 001 -122 -66 047 051 -50 -126 -28 -92 024 058 012 068 107 110 060 -84 -126 -79 -13 -52 -48 007 -25 047 102 -51 -43 103 -25 097 -127 -104 -48 013 -63 048 050 -13 -91 -77 -82 -119 076 061 -06 -104 -19 041 -23 -05 -36 017 -36 -49 028 -111 046 097 -73 -27 074 020 
049 -110 -79 065 086 -69 001 -126 -03 048 020 -28 -10 -69 054 046 064 071 042 090 007 -74 094 -108 -77 -47 034 -83 065 -82 024 034 -45 -114 006 052 -24 -62 -121 047 -66 118 004 097 082 118 -121 -04 -125 -97 027 -30 -125 -12 -75 048 046 088 062 -104 096 013 074 -104 
053 -17 -41 100 -03 -81 -96 -11 037 -80 107 089 069 -60 062 -52 -102 -79 029 -101 030 037 -14 029 -110 079 000 -72 -116 -49 060 -42 -29 026 -60 100 -86 037 011 086 055 044 -107 112 043 -56 004 -23 111 -61 -77 -89 099 -94 -79 -90 109 -29 100 -22 -94 -41 -25 096 
-95 -45 -70 -128 -100 010 -35 001 016 034 100 067 -76 -45 067 -91 -88 084 047 115 -77 060 -18 098 -94 -24 125 013 086 041 059 -89 -78 053 040 008 -69 009 057 079 -104 -78 -105 014 -108 -118 001 -35 018 061 112 -61 -89 -62 -01 075 015 -82 -59 -54 023 -69 080 -126 
092 009 040 -98 006 -88 093 060 -88 095 098 -62 -28 111 -110 004 058 008 -75 008 036 018 056 -54 -73 -128 -28 -108 058 114 -80 006 009 -46 -79 057 100 -114 116 009 012 -110 -95 096 051 -05 -32 001 032 057 048 -19 -10 -112 -08 114 101 -100 -81 -21 -60 031 085 122 
-98 -27 -72 008 -39 -83 028 -20 103 018 052 -36 046 -17 -97 077 -56 -79 -02 107 117 037 028 -19 -53 -54 -89 -10 001 050 064 -43 -31 034 -95 -25 -81 057 -68 024 111 -76 -12 116 -84 042 092 102 085 009 031 082 010 014 -83 079 102 125 079 066 039 -124 120 003 
112 008 088 057 -90 104 114 -104 -14 076 -01 -33 -54 -124 016 -116 -122 -27 -32 -67 102 -87 -63 116 116 -08 -04 -13 099 088 108 -12 041 067 088 -64 -61 -94 020 -32 -80 030 -46 -116 -124 096 032 113 -93 -54 -111 089 101 048 -01 -10 105 -127 -113 062 -40 -57 -16 -87 
118 -100 025 047 -63 -77 045 016 -26 -11 070 099 -63 -29 121 085 -07 029 126 005 -85 -21 -12 039 064 -29 -66 044 049 -93 -124 -77 -03 -29 -114 -121 -06 079 -53 028 -86 047 097 005 -73 022 032 -109 -31 105 046 017 -21 075 -75 051 -49 -54 089 044 106 118 124 019 
-77 003 012 -19 054 075 -97 -56 074 013 -45 -44 050 -03 -66 063 116 -107 083 -10 -87 060 -75 -94 -106 -99 -121 -36 -25 -121 000 -97 -07 033 -127 082 073 088 012 -15 061 -61 089 079 -13 045 099 -109 105 058 -109 -95 078 -08 013 016 -01 085 078 115 -32 -109 096 -61 
074 060 048 -50 -08 037 018 -04 060 -22 -113 -100 099 017 063 -105 054 -89 098 051 072 -70 076 -11 -47 -118 097 -115 -23 089 -89 -62 -44 067 -104 -53 -64 -07 002 010 021 063 -34 -36 -11 005 -63 -69 083 -119 -106 -90 -122 020 -74 052 -29 026 083 -117 -02 009 -115 -118 
-27 126 -13 -67 050 -80 061 -01 013 065 -31 121 -128 095 055 -110 125 -06 119 027 125 -71 095 076 036 -124 -37 -110 -116 096 031 -90 -96 -125 112 022 047 031 063 -44 070 -92 011 -42 -88 -73 118 028 -65 -61 -36 079 015 -18 -60 087 008 -103 -76 024 123 -44 024 104 
-43 -110 094 -91 096 116 -112 124 058 -85 095 043 042 -61 -107 -111 039 -59 -30 061 050 056 -07 -64 -08 101 070 -48 078 041 -17 -98 101 -31 -101 -80 043 054 -70 075 070 -47 112 -66 -72 -82 096 -61 -35 -76 002 030 -69 -114 093 070 -81 -39 -78 058 105 -125 -22 023 
-17 -68 -126 114 013 -126 075 -42 040 -78 -32 055 072 -09 012 -69 007 002 -66 -118 -75 094 -40 097 054 041 -112 125 048 -93 -122 051 -111 107 -91 102 102 097 -127 056 -53 -38 013 047 -76 028 -82 000 097 -20 -37 -98 -33 082 -69 -84 -43 110 106 082 -82 -57 -09 -05 
081 093 110 -102 -112 -07 -34 -85 087 009 113 -06 018 008 -128 014 088 -95 094 -08 117 -50 -109 -20 064 080 -08 -45 079 -101 -09 -91 092 091 -74 116 061 -60 069 -18 090 -02 036 -77 062 -112 -43 -13 -73 040 -79 082 -36 036 -27 121 096 -85 -96 -91 105 051 -40 -39 
097 -78 069 -16 030 -102 101 093 -26 038 -125 046 122 019 064 121 013 121 085 013 106 119 -76 -80 078 -32 121 -15 -74 -66 031 -97 -10 -09 119 002 086 063 -20 -78 -127 -56 -35 -24 -67 120 -25 -78 121 126 110 -13 -128 -111 -100 -107 -87 -83 -122 -54 -108 -51 123 050 
-109 -120 -108 -99 -100 -74 -47 -14 017 078 -101 038 -121 108 -60 112 -09 075 -51 018 111 090 -07 -51 -102 014 115 -63 -01 050 106 058 -80 -16 016 027 126 114 -102 -61 -25 042 -100 -101 -51 086 -87 030 -33 096 101 -86 -11 054 011 -13 -20 031 052 107 036 -90 -44 063 
126 053 -12 042 000 111 -109 -89 -94 -34 -83 -36 028 -67 027 115 -06 075 010 -48 084 008 097 123 114 034 -113 -15 089 089 030 -44 -91 075 -105 031 036 100 104 073 -66 -27 -63 -83 -74 044 -40 -08 -94 -01 -17 -65 037 009 070 -80 -88 -40 -50 -125 -68 012 -69 -124 
-41 010 -65 -62 -49 -52 -03 094 076 -52 045 000 -110 -56 044 029 -44 -95 -57 126 026 022 108 -99 -23 047 090 051 072 080 -95 049 107 -06 -75 -111 -16 -42 -19 -98 008 -58 019 -126 -32 039 -52 -86 032 071 041 -32 -16 122 020 -48 -41 -90 -106 017 009 -125 -21 -87 
-91 020 -69 000 007 049 -06 055 082 004 090 072 023 -04 025 -23 070 -19 026 -82 -110 -102 058 -65 045 019 063 -72 -62 070 -03 -53 112 072 054 -35 -28 009 125 -88 005 112 072 117 -73 -42 -70 020 -95 032 052 052 -42 121 -125 -49 121 -92 -07 -19 -56 113 086 003 
-24 122 -13 -80 103 -123 106 -89 -71 010 -101 119 034 097 000 -43 -12 051 104 -62 -78 084 -90 -52 022 020 -31 066 -102 -06 -93 070 -64 -80 038 -49 074 012 -57 000 -43 031 -95 -20 -24 032 051 044 085 057 -61 -68 050 -55 -85 -72 087 -47 -63 063 -71 -23 -107 -92 
-114 000 126 096 016 -86 -67 096 019 -48 035 054 -19 012 -87 039 050 -106 047 -111 -120 -98 -127 -20 -10 -84 019 -25 028 -116 -37 046 -88 057 -04 -19 -85 003 -43 082 013 -05 -25 015 -05 -126 -15 070 -84 -99 -09 047 -19 036 -08 016 -29 -122 042 -57 -19 -56 -10 -49 
-104 -26 -88 -61 -117 018 033 -29 -62 066 -36 036 123 077 -103 -111 095 -128 -57 085 097 -107 028 -63 -124 110 014 008 -103 -78 054 -03 -126 028 -32 096 -116 019 103 012 056 -30 -68 -48 -79 -69 069 060 -04 092 -90 -61 001 080 -23 -19 -116 092 -77 -60 -07 015 -121 -83 
-92 041 035 028 -28 117 095 -57 027 124 072 072 -60 -73 091 010 063 067 -64 012 -15 -49 056 -40 020 -106 041 060 -47 -101 045 117 085 092 098 089 -87 -41 -124 056 -106 -33 -12 -64 028 -35 -104 -06 051 059 019 -72 018 057 096 -100 -47 060 -58 -58 -82 -05 -128 -47 
059 028 -23 -12 -02 000 053 -39 115 042 105 -31 118 022 090 -58 099 017 -21 000 -16 085 -41 018 -63 -29 -101 -85 -28 076 091 -108 -94 -105 027 071 -101 -46 050 031 023 071 035 121 -31 -20 037 -04 002 033 -115 -89 -105 -85 -12 -68 -65 065 055 -50 -19 -54 -01 016 
035 019 113 -59 -07 -124 116 -112 -06 067 103 -41 -68 -111 100 089 -99 093 -20 -27 -14 -33 124 -55 -103 -93 082 035 077 116 076 -104 -60 -108 -15 070 -47 108 -124 009 -75 082 -118 -108 075 000 106 -28 088 039 032 -57 081 030 058 111 009 -116 034 -31 064 070 064 -32 
061 049 021 103 -35 -79 -37 -35 -43 -48 119 -116 -126 084 -17 -79 063 -17 051 122 122 059 115 -65 -27 -78 110 047 076 -92 083 058 017 100 070 -60 -57 082 -96 -107 017 -61 -81 -68 -62 104 -04 094 -63 034 020 -29 097 104 095 001 -04 -44 064 -115 -58 114 -66 -43 
061 -68 063 049 -106 -103 -78 -92 -49 -92 -118 000 -96 091 -79 003 -75 -57 125 -116 052 -113 027 -40 -01 -18 022 -93 088 047 -33 095 050 -87 031 -18 -09 -47 -05 100 062 111 -56 037 -96 -16 -102 073 -118 -36 -11 099 121 -120 038 -55 -94 -96 020 123 110 -37 -40 -96 
099 -14 107 124 -89 -103 -10 -120 057 -62 023 068 -112 -34 036 -100 -63 -111 019 -45 -63 122 060 -100 043 -37 106 -33 -125 063 001 065 063 011 004 -127 061 017 -108 -11 -21 058 106 -124 -66 -103 100 -45 -40 009 079 -43 -121 -73 119 105 051 -80 -44 -49 091 010 073 -80 
-113 -122 -02 107 -106 -44 -20 -39 -45 087 -04 -59 -72 -33 026 081 -20 125 -34 -16 -01 047 085 -122 -104 046 008 -10 033 028 119 -63 041 022 -91 -123 029 -124 055 066 -31 011 091 -81 040 005 -22 -99 042 099 -78 -25 -20 005 -52 064 025 -26 -42 -16 077 003 121 -12 
-07 072 -70 -90 061 -20 000 003 066 -104 -09 021 -46 -99 062 090 122 -94 -124 122 -65 -121 061 -52 -25 -45 114 -24 056 -95 -126 -62 032 -108 007 049 -39 073 103 029 -68 078 111 019 -96 076 037 097 058 002 064 083 038 -64 -110 122 -74 -30 060 094 -33 102 018 -100 
125 110 025 -83 -98 082 -29 051 112 022 -66 -93 070 088 -60 -04 038 081 096 080 -101 013 102 002 091 -32 014 107 117 -28 -44 096 -101 -09 -20 012 -80 -49 031 -13 -10 017 067 108 -84 052 -93 -67 -73 -81 125 122 -74 -36 -63 -109 -65 077 119 042 120 073 -107 082 
102 -116 -70 -22 -75 -61 096 006 047 -44 019 -86 106 092 -39 118 -92 -73 -110 093 -72 090 119 -23 105 -127 048 063 028 090 -68 028 066 -47 -33 081 -65 093 104 070 040 -01 037 -41 028 -112 -104 066 -40 041 086 -80 -45 -96 002 -25 -101 109 104 -101 099 -50 020 100 
010 007 -117 -48 062 -30 014 045 117 104 103 -17 062 -58 -108 060 090 081 055 065 076 096 066 -125 -125 -02 -96 124 008 -106 109 012 -35 126 008 -10 -99 105 -31 013 -116 112 -07 068 126 -128 111 041 -40 -82 -17 -56 125 -42 109 023 018 -19 018 -63 -04 013 -84 029 
-33 -19 065 073 -81 -03 -124 -38 054 -51 002 084 -114 074 -61 -101 025 019 -47 078 021 087 012 -103 -78 -28 -52 065 121 036 092 028 087 081 -109 081 051 043 -48 -120 -119 022 -09 -65 000 065 -21 -72 048 -31 015 042 076 -45 039 -59 065 -29 125 081 -43 006 086 -27 
043 020 -106 -116 007 -62 -17 -12 -60 -77 091 091 126 029 -46 014 011 -56 -69 -113 -38 066 002 061 -37 -01 -28 -14 -59 056 -121 -13 -14 -71 -72 -24 -79 -114 056 -61 -35 -117 104 -31 -33 -123 081 017 -13 -95 -111 004 -46 -106 -63 120 -111 -43 -66 063 080 068 -72 015 
-74 -111 -29 085 -24 -28 -51 -69 066 -43 007 -75 -61 -102 -62 -08 028 -55 091 -37 -85 111 055 -111 -84 086 121 090 076 058 103 031 018 -43 084 036 -19 108 118 -26 080 037 015 028 -91 -32 015 -41 089 -92 -51 012 -69 125 -42 005 058 030 009 117 075 -71 122 -12 
-27 -98 -81 -65 073 094 082 005 -124 -02 044 -128 044 -49 110 -108 -25 -33 043 -77 -99 029 -124 -09 -65 074 -92 022 -128 -82 -63 017 044 -60 020 087 -38 070 066 013 -80 -31 059 -100 -92 070 018 100 074 -63 080 014 051 013 114 -18 -53 045 -13 -81 -12 -117 -103 055 
-102 -88 -103 055 100 -63 038 003 -110 -112 011 -97 -53 054 -88 -41 -113 -17 -100 085 112 -68 094 063 119 -72 -97 -106 089 043 -77 000 116 -87 -125 076 085 095 -44 -82 076 072 -39 030 126 -72 -123 062 022 -83 -51 -59 -40 -123 072 126 099 -59 -02 093 -83 085 093 037 
-95 -73 016 -90 012 -45 085 -84 103 -74 100 116 -16 -32 033 -57 -46 023 020 -13 -73 085 -63 -111 089 -52 -52 038 035 -06 -32 041 -125 109 104 054 -26 048 -30 045 -08 -20 -38 -85 -18 -24 -53 -11 -71 -97 001 114 019 048 050 010 087 -73 092 -107 -124 124 078 -118 
-72 122 052 -14 126 -88 076 -74 -03 -63 -92 -100 -42 105 000 -29 -40 -60 -111 038 042 109 046 -44 035 -66 -101 118 -61 -39 -70 -41 075 116 -26 -39 -35 035 122 033 -16 031 125 021 -125 -44 -49 047 033 106 -75 -34 -120 -114 122 -65 040 029 -65 -20 066 006 084 016 
094 -05 -27 026 042 101 041 -76 076 -25 017 -78 008 029 -57 026 106 021 -41 -27 095 -111 -08 015 094 022 -03 085 098 -125 122 -66 111 -82 -78 102 075 -109 -51 040 091 -80 -120 -60 -69 -106 -25 058 095 037 114 -105 014 -56 096 -81 006 -70 -96 086 057 -107 -117 099 
017 049 012 -32 041 029 014 -25 -13 -109 -127 069 -103 -63 018 090 053 125 -50 078 065 -92 121 094 095 -01 113 -56 029 089 106 -72 -104 040 010 -36 078 048 -65 017 -88 -22 -95 -13 059 -08 -63 052 001 -88 -54 116 050 -49 119 -105 016 036 -100 087 028 -29 121 -93 
-111 -74 051 044 -85 042 123 -45 044 -82 052 -107 084 062 012 092 -06 066 015 121 -44 -48 080 -32 -128 043 029 065 037 -05 -96 101 -29 -63 -04 113 -113 126 005 001 -100 -100 068 -95 107 046 004 -66 -87 -70 048 -34 084 022 -35 055 -91 -32 043 -124 001 004 091 -33 
046 009 -38 -55 090 -25 004 -62 024 033 108 118 -120 -82 003 -123 -100 -117 057 101 -86 057 -25 066 018 -20 064 099 018 -11 -41 -108 118 -57 -23 079 096 125 -113 032 041 073 103 -34 -109 -12 -94 -02 032 009 096 -29 075 062 039 -82 -61 -99 120 -79 -92 039 126 073 
098 -114 -106 067 -13 -06 -80 -32 075 111 032 -44 061 -11 -34 -26 089 115 055 -116 -36 007 -108 089 -67 -21 -21 032 078 126 -86 -102 -04 -51 -116 -62 053 -127 -103 -24 019 -09 027 -91 009 -37 050 013 084 008 -22 066 097 -19 -14 -121 -09 -35 065 028 -41 -28 035 -12 
-53 -121 -63 -46 -61 119 -34 -125 -84 -120 -80 -16 114 041 089 -102 -37 092 -66 -84 -26 042 -80 -114 004 049 122 -107 -30 -83 -93 -89 -109 069 086 -39 044 -114 -127 027 078 -61 066 077 -87 -55 090 -66 083 -07 104 -23 093 -121 068 082 -29 -71 -91 078 034 -88 044 -70 
-67 -19 -67 099 025 -37 -69 041 -74 017 -70 019 -66 059 -117 -24 -102 -26 -37 057 -12 070 101 -21 -70 012 071 -45 062 112 -16 096 006 022 104 097 -62 -77 -82 059 -37 -02 -78 -118 009 024 093 107 041 065 067 008 098 104 -04 052 -49 -69 -55 066 047 -120 -15 -41 
094 -77 007 -65 069 034 -107 -20 085 -106 -39 122 -70 -93 087 -114 -47 -25 -35 -99 020 060 -41 029 038 -123 047 -82 -21 -96 -78 -117 -69 036 008 -63 073 -33 -128 -85 065 -117 002 107 -68 -98 -29 -83 -71 -106 064 098 098 077 075 -84 -28 -54 053 067 115 072 -11 089 
039 054 -38 039 041 -115 035 069 -81 -32 082 103 077 075 -79 -63 -83 -39 -25 -96 -38 029 -72 076 -65 -31 088 064 -124 023 -32 080 -17 -48 -56 046 -48 -08 060 031 105 109 037 -71 -34 120 087 061 092 -95 -79 004 -37 035 -112 024 084 -104 048 -36 066 126 -36 109 
-78 009 -33 -09 093 -25 -128 019 002 006 009 006 -35 115 100 090 076 112 044 -65 108 054 -25 -85 -93 -119 -105 -28 -28 055 -112 -128 -14 -46 -32 -06 034 -121 -73 -103 017 113 -32 010 -94 117 121 -34 060 072 -118 -85 -03 088 031 -86 053 -73 051 093 -15 -08 -128 -127 
106 -79 -95 034 -128 -58 -93 -92 089 002 042 -89 101 -70 089 113 -62 076 064 118 -72 -33 061 -14 048 -118 105 -33 -13 -70 -48 -70 099 -110 027 099 102 085 081 -107 -54 028 -14 018 -57 -77 -45 -10 -128 -79 -15 -123 -72 000 041 110 -114 -93 090 -56 051 -113 044 -79 
012 -14 -116 -104 003 018 052 112 -25 095 -36 094 111 -68 -108 -97 -57 -06 068 -78 086 007 005 069 -111 -110 -103 -41 -115 -20 113 122 -87 -61 019 050 -66 -73 058 -58 115 074 063 -62 072 000 012 077 016 110 081 -82 013 084 -28 -117 109 -118 124 087 -105 031 030 -08 
086 052 -35 041 -79 -76 -115 102 009 -01 -46 -11 -01 -64 -61 -91 030 119 123 101 -102 118 -04 -15 027 -25 079 -14 -08 -90 090 -25 -65 082 094 -98 -79 083 036 -87 -38 095 -13 -44 111 -125 -98 -114 -10 -29 -72 085 -125 052 -111 -04 124 102 -91 -34 058 077 -120 004 
-102 -75 119 050 -02 -120 -50 057 -92 -97 -54 -06 -99 084 094 -74 123 015 068 -94 029 -110 031 -77 060 -19 -112 -95 -84 108 044 002 -05 111 112 -110 042 -77 -53 -88 -83 087 111 -61 -125 045 -53 -14 070 -20 -53 100 011 039 -57 012 045 -70 -70 099 -111 -119 038 094 
047 051 121 035 -61 090 106 070 -31 101 105 -100 057 040 -45 073 -89 039 074 -69 -05 065 067 -76 -90 -104 037 -49 060 -38 028 030 -08 039 094 083 -04 010 -21 -109 025 102 -84 -87 024 100 -46 -122 -100 -70 -123 043 086 -15 051 -22 047 -102 052 082 070 035 -28 001 
087 070 107 114 020 -26 -119 102 102 -33 -25 -30 007 090 029 -80 095 075 -57 -66 -119 -23 -66 -22 -59 086 050 -18 -65 001 020 103 116 -44 -95 022 -08 -128 -20 099 -118 093 085 090 003 -85 -114 061 -99 012 097 -63 -102 -25 002 076 072 -73 -119 045 010 125 -37 079 
089 -34 -05 069 107 074 -58 111 037 003 -87 014 -27 -18 -119 -28 -15 025 -62 -15 116 -64 -65 -40 062 086 043 -90 104 075 012 024 051 009 007 -20 014 109 085 -87 101 033 -41 005 015 -121 -120 -84 017 -16 -112 057 -34 -52 012 104 -39 -128 106 -72 079 -117 044 -116 
001 -53 -80 -67 126 094 -91 077 094 098 036 074 -53 -84 004 -87 -54 -07 002 -63 -123 098 -21 -96 -111 -71 075 -01 -119 -32 -33 -63 -94 -100 -98 118 -88 -05 -69 025 109 065 -103 121 054 084 060 -30 -28 -100 125 -63 -12 098 -69 -13 -17 -09 -57 -19 -58 057 026 -63 
-97 -06 119 -28 -101 116 -23 061 -37 046 -96 050 -27 047 -39 018 052 040 026 042 113 -108 083 -65 -95 110 041 -114 057 -85 109 -07 064 125 043 098 105 018 079 -29 061 080 -64 -105 -86 -69 021 -87 -90 112 -73 108 089 098 124 -59 -24 -81 -04 -11 -99 -08 054 063 
062 120 048 017 039 -105 058 -105 018 -81 005 070 052 045 -43 -87 -08 -36 -39 -21 035 067 -67 -112 -24 -86 093 -99 -01 -108 116 031 -16 -57 037 -46 -22 053 091 055 -72 -111 -50 -39 -57 102 -93 -112 -81 107 092 056 -102 -46 -111 116 -08 -81 -01 047 123 -114 070 -10 
010 -121 -06 -117 -40 -85 059 -10 -73 -61 120 -113 081 -70 -60 -125 048 -86 -01 -57 -107 077 -04 -50 086 121 060 -58 -104 054 -15 -117 040 008 -47 113 111 -11 -94 015 113 026 116 -14 -73 055 -42 046 -105 072 095 088 084 -42 120 111 005 005 016 -27 -87 -43 123 007 
-95 -123 -34 -117 -126 100 -02 084 096 103 082 -89 125 -78 -18 014 009 -92 -123 -122 -114 -121 -42 098 016 091 -21 -36 055 -48 -124 117 -75 -37 -89 -97 -78 -07 -01 -72 -82 -89 -68 038 -96 -17 066 088 -64 -67 -91 020 087 061 027 -53 021 076 096 065 018 118 014 -38 
051 106 -20 -113 -15 -84 -14 -108 -68 010 124 081 048 017 012 057 -47 -69 068 055 -10 -60 -28 009 -80 028 109 -74 -104 -67 -122 -69 -05 094 -74 047 021 -55 022 006 -111 012 008 -46 -106 -124 085 -72 -116 086 052 -70 -25 021 -113 007 -39 073 017 -02 -38 -41 119 -28 
-103 062 116 085 020 -30 -72 032 088 065 076 -88 049 103 009 -58 058 014 117 -40 094 -37 037 -95 -22 065 -89 106 -21 -92 088 -20 -117 -44 -94 075 -35 -03 -103 -94 -42 -02 077 -46 -13 061 -76 046 049 003 -128 066 123 067 -93 121 120 -127 -98 -48 007 -30 -48 029 
036 101 -27 -70 074 -58 061 004 007 -102 -127 105 039 -118 050 048 021 -126 099 -47 -73 056 110 -14 049 123 023 042 -09 -29 115 -108 084 067 -125 125 098 -116 -54 -19 011 -02 057 -98 -90 064 015 054 -117 -37 -66 037 -37 -51 -69 011 102 -42 -18 -32 048 101 106 063 
033 057 -93 028 091 069 -05 -111 041 -35 033 -100 070 117 -104 010 070 002 -97 -103 006 117 -99 -86 048 -126 -16 012 092 -35 003 088 -106 -107 -36 -112 -17 018 006 -16 078 -01 -116 108 -60 -107 -114 008 106 117 072 010 -127 -120 090 014 -77 056 -124 -80 -10 046 120 -53 
-100 -56 -99 021 -123 -31 033 -128 -77 -111 091 041 088 -57 121 099 062 -05 -02 034 046 -122 012 -124 000 -02 -87 052 020 003 -101 -69 -83 029 -65 064 123 116 066 -61 041 -72 -30 -121 050 090 074 -02 028 -64 008 -109 -28 029 020 -68 059 109 -25 -84 -61 -37 030 057 
060 -107 -19 086 072 -73 047 020 -23 038 -19 100 -97 -20 -10 -74 -04 -36 076 -64 096 005 114 -48 012 -110 -56 -57 109 -54 024 094 024 116 -86 -96 072 -39 -14 -63 050 051 054 -39 117 077 036 -76 -127 036 -59 -55 -125 -19 101 029 025 107 -12 -77 024 049 095 019 
059 -12 079 062 -102 -07 -34 056 123 039 027 024 -121 -114 050 048 -72 -02 027 097 075 -63 026 024 -93 022 -74 002 098 -34 117 114 043 -110 110 -80 -02 -79 099 007 024 -68 064 046 080 065 -07 -82 -122 -77 060 045 -35 034 -68 -110 -36 -93 040 -117 -46 -121 061 -12 
086 -84 -48 -14 008 -50 -68 -42 058 057 124 080 -33 -33 094 110 122 126 -124 008 -04 010 -43 -127 112 066 099 -21 -72 061 -96 048 009 -104 -21 -37 001 011 064 100 032 113 124 034 -20 029 -19 -91 -121 -83 040 -115 -35 066 -117 065 -74 -125 -45 -04 -128 -95 -77 -121 
032 -126 -119 -71 062 -76 -118 105 060 080 103 094 100 -64 055 -65 -53 -62 106 048 -112 055 -62 102 061 -43 051 046 108 064 -04 -18 000 -115 088 -60 -54 078 117 -125 -27 -52 093 -75 -30 -93 -114 -91 109 -78 -39 -09 -54 -68 032 077 064 -111 -127 -123 -02 -48 -48 032 
-107 -118 -93 -71 -93 -14 006 -105 003 -76 -41 032 -116 -124 -116 052 -41 071 -39 008 013 -13 120 106 057 -39 -21 -102 -26 016 035 063 -57 036 083 038 -51 047 -70 -87 095 086 082 -13 026 -70 -112 038 011 108 027 016 -101 -10 -116 -97 106 048 038 069 078 001 -27 101 
106 -05 060 -76 038 -93 -25 083 -69 089 008 -42 034 -53 014 -109 091 -111 -125 055 023 074 024 -37 -48 038 -06 005 027 109 035 -16 -50 111 043 013 022 046 -08 -69 -64 072 -13 066 012 047 090 -41 020 -35 -76 -81 -10 -42 -113 025 046 -37 108 068 -127 -118 070 -89 
-20 -13 125 111 023 112 -82 001 026 086 -117 -120 -12 027 086 -05 -49 067 -26 -92 125 -119 042 033 -10 -90 118 076 019 126 048 079 053 054 -96 -44 -03 027 -86 097 -53 -71 119 -73 -89 -50 031 -101 053 078 123 -123 -05 -19 113 -126 -89 -65 -61 008 004 122 069 -72 
-126 016 026 087 069 -04 -63 -25 -44 041 060 -26 -16 -03 -06 017 052 045 -23 -48 -99 -114 062 012 -109 -24 080 -92 116 -81 043 -108 -100 -57 074 124 -105 -116 125 -51 -75 -102 -14 055 -50 102 113 077 118 -46 -122 122 084 -52 -50 018 -126 069 -74 -42 -72 -47 029 084 
042 -17 -82 039 073 057 -123 -31 117 -26 106 056 081 000 102 -91 -118 081 -31 -96 -85 -46 054 053 -102 -75 072 032 -50 -22 072 -08 -43 -04 -03 093 -100 -72 -110 -74 044 -76 -57 -39 -87 091 -65 -121 -117 -69 012 -53 112 -26 -19 110 -23 -76 062 028 078 -48 -83 -42 
-127 009 043 -54 095 048 -64 -30 089 060 -102 030 -108 016 121 019 -21 124 121 -22 071 -25 -120 086 121 -41 087 026 -88 -59 -124 105 068 -107 -33 101 083 119 -43 -112 -29 044 085 -74 079 093 -05 -76 116 097 -45 081 -128 005 054 051 -95 088 013 -82 044 109 045 078 
-35 066 -119 -57 -120 -27 -101 -72 -20 -108 -01 006 -40 -110 -122 -39 046 009 -111 074 116 055 -06 -54 056 -96 -71 004 059 -101 116 123 070 -80 121 -91 088 122 018 095 -20 018 082 065 032 -124 -27 106 026 -64 118 063 120 -53 029 082 105 082 -91 056 048 016 020 -23 
-11 103 -47 096 083 105 117 -69 016 003 002 019 081 065 -99 003 -51 034 -01 086 014 065 094 021 049 070 -30 -124 009 105 -30 -82 023 036 000 -98 -20 055 011 099 020 067 -87 -125 -18 074 -113 -40 -78 -86 047 080 -97 015 038 -91 -119 020 122 -119 -26 -36 120 022 
058 059 018 074 -26 -15 031 -126 088 053 -50 -90 -89 044 020 083 -103 031 031 -24 -57 -97 -08 -62 080 -27 000 -116 111 -41 -21 -68 103 -60 -116 107 -118 -02 098 -64 069 068 001 -85 -44 102 050 094 006 -24 024 055 024 -127 -72 125 039 -20 041 -116 -23 079 053 -01 
-117 111 -73 029 084 -35 036 033 111 020 -106 -86 -122 -62 099 037 -41 -77 054 -74 098 -49 -106 -105 -32 -75 -36 -17 020 055 011 -48 -72 095 -113 000 -18 069 -117 -79 078 042 039 099 -119 002 -67 -126 -09 084 -105 092 -37 039 083 010 -32 -110 -18 -55 035 040 -80 021 
-63 -123 -16 125 -54 -115 089 -128 003 -55 -07 004 -11 121 074 -93 096 089 -03 -27 -41 -98 085 100 026 089 083 -81 -35 002 090 049 125 -103 027 117 009 007 061 -24 -104 -01 095 -109 -16 014 -54 -76 -26 036 -122 -04 -75 -114 -09 -49 -98 -96 069 -58 106 -128 -91 -58 
011 -76 -38 024 010 -42 -03 -95 -76 086 025 -19 -41 103 -50 108 047 013 -29 -85 012 -27 041 -105 -114 088 -50 -23 110 -31 030 -16 -78 -119 108 115 123 -101 -44 121 -58 013 119 -117 121 -52 046 -124 -98 -10 045 -41 -53 -105 -44 -105 095 -01 019 053 059 -61 -81 -22 
