-23 091 -10 -120 108 -82 000 -71 039 -63 084 114 -74 -36 -115 -29 -111 017 -51 -63 102 108 109 -33 077 028 117 124 -82 -06 -48 112 -03 -63 -35 -111 -98 -117 -27 -70 -37 -29 -33 -45 -78 083 -17 025 -73 003 -62 125 061 -23 124 -09 003 104 -127 121 085 057 -28 -86 
-14 -49 -73 056 106 -125 -79 112 -07 066 051 122 -128 071 -126 097 034 -52 061 020 -79 068 -61 039 102 023 100 096 -120 101 098 -95 -31 024 125 035 -02 -92 -86 -69 -56 093 -60 016 073 -55 -118 117 093 -103 093 -81 -76 070 -112 -30 -68 016 002 -107 -18 092 -87 -106 
103 -127 053 061 -90 085 -109 -67 -04 008 073 -115 -88 -46 -113 110 084 -123 065 078 -103 068 -28 -75 032 053 068 -46 027 -15 -79 -109 -50 079 006 -85 068 -49 084 -123 -61 014 -59 -70 063 -70 -94 -46 -79 002 033 061 028 -73 009 -87 -120 -12 072 079 046 -83 -111 041 
-77 082 045 125 120 -58 -08 072 -90 040 -55 058 -120 -117 041 070 -03 -83 -110 -35 -101 071 023 088 094 063 047 -29 -34 077 -99 -43 075 095 117 -68 125 -94 013 -125 081 072 -55 096 008 -99 085 -15 -128 003 018 -108 -39 007 087 -22 -14 077 099 010 095 043 -87 -128 
124 035 -125 094 002 104 -20 -18 018 -33 103 -73 120 059 -76 -103 126 063 062 038 -12 -100 -128 105 070 -24 006 084 -111 -108 109 -68 -62 112 068 124 -98 012 100 -100 020 -53 -128 064 -20 064 020 -65 019 019 002 -14 039 -80 -67 -36 -100 064 014 106 042 -91 089 015 
-15 -88 -79 091 022 060 108 121 048 -114 065 -64 039 047 -83 031 -15 042 092 063 -10 -60 024 -31 064 -19 -61 -01 054 -68 040 096 084 048 -37 098 036 -72 093 -118 029 034 104 -42 111 -92 -27 -88 -13 -47 102 -92 002 -26 034 -70 -38 011 -02 015 095 -61 -124 -20 
092 105 -84 -54 012 -89 126 012 048 030 010 -12 -20 -53 016 -49 044 -69 008 073 022 -107 097 -37 -125 060 079 -22 -72 -73 -126 105 -116 007 -38 -102 126 086 -45 086 073 104 -28 016 114 -103 033 -60 123 019 023 015 067 -25 048 -39 -29 -45 091 049 025 067 -47 105 
-40 050 098 013 -109 -32 -24 032 006 -65 002 -87 -81 -03 079 018 -96 -01 -25 -79 123 -43 -07 -27 -117 119 -98 -07 -49 -55 -119 039 -104 -59 -67 -91 085 -100 -10 -109 105 080 -73 -46 106 105 -124 -77 -85 109 -125 061 -62 008 -75 -117 -116 -36 -59 069 083 082 -15 121 
-85 -106 120 041 034 029 -74 -07 053 009 071 060 -111 -96 052 -89 109 122 -22 -09 110 -49 049 021 085 104 -69 055 050 -69 021 017 008 097 -118 051 -89 003 122 076 039 -19 004 -70 -79 -72 -95 000 111 -53 -124 -116 -71 -83 -91 021 094 -09 -40 063 -16 090 -41 072 
012 064 -128 062 006 078 055 005 -22 -67 -07 119 -75 -112 -87 109 039 -33 118 100 -02 -33 100 -16 120 047 105 118 -122 099 111 -66 -115 -120 -77 093 001 -21 -82 -63 -03 116 075 087 100 -13 -52 116 -90 -66 100 -97 -92 039 -49 -16 -108 099 -73 -91 006 049 -48 030 
-46 -98 091 -45 -88 -114 064 042 019 -70 047 -94 -96 109 -74 -37 028 066 084 095 -52 109 057 115 122 -90 098 -48 010 008 120 -62 091 -92 -15 116 098 101 -34 -09 -70 -112 064 -92 114 011 -125 011 075 -91 103 -03 -73 007 077 085 045 018 -92 122 -87 -105 014 -93 
-58 035 -50 045 044 -35 020 -124 039 122 106 -123 -103 -44 -53 071 040 -115 -121 -67 005 -60 -10 047 -120 081 -112 -04 -29 032 017 106 113 -25 -32 111 -10 -54 -07 -80 043 -45 044 091 100 -11 064 019 -98 097 -32 -06 090 -48 027 -102 098 059 009 011 -82 011 002 005 
-122 109 073 -21 046 072 001 -47 -76 -27 -59 -70 -48 032 -09 014 069 025 -15 -13 -17 -100 052 005 116 -04 119 116 088 -76 015 -111 -125 033 -108 035 -121 063 -88 -15 037 029 -123 -126 -93 008 092 018 013 -38 -67 -85 -111 -83 032 124 115 035 116 -05 -14 -115 -77 -16 
-19 -10 112 008 005 074 078 096 -60 049 -104 -38 017 -16 018 047 -108 109 -67 -68 115 -46 088 001 070 -116 082 -124 -41 -106 015 027 034 087 114 018 056 021 -31 089 115 052 033 -22 066 -28 -107 -97 -18 013 -59 071 016 -45 102 102 -64 -77 -33 -07 001 089 -121 -85 
119 -11 018 100 064 017 051 125 -79 111 045 -17 -16 -83 -52 -59 061 060 -20 120 054 121 -02 054 -59 -62 -31 001 -01 -28 032 -14 -123 073 023 -52 045 011 093 050 019 -11 -47 -68 105 -40 124 -20 -64 026 -122 -127 084 004 -112 028 -119 108 019 -112 074 025 -104 -64 
-19 099 090 -88 027 006 -91 -24 059 045 -119 100 046 071 036 -77 -101 028 -97 085 -81 072 068 -23 -24 -100 091 -22 -08 -87 -106 -41 019 090 007 079 094 -24 -61 -42 087 -108 102 -73 -82 -71 -50 110 -51 -37 069 037 -33 -124 108 -58 034 -48 -36 -91 -74 -08 066 044 
-126 -113 -106 032 061 -30 -36 084 074 -14 044 -78 -113 -101 108 -37 051 -18 -67 -99 075 024 017 -89 109 -74 -73 015 -87 012 -22 092 009 -122 -102 118 012 097 -45 -07 -86 075 123 -27 -09 -50 -52 -16 068 011 -36 102 103 060 017 -61 -100 -17 -14 -107 042 089 -108 -29 
-50 -46 -67 005 -84 073 008 101 018 006 037 -56 -69 -18 080 004 -79 123 -05 013 -80 -61 004 070 118 -112 -32 -44 -50 -14 010 -89 -81 092 -04 -87 -51 -78 -93 -22 -128 103 042 -62 083 046 -37 -118 094 -22 075 009 009 -59 012 -52 019 051 -111 063 -70 040 -03 098 
007 038 -07 047 032 -84 046 095 -23 -34 019 101 072 038 029 -122 -42 -117 095 -48 007 -53 117 001 -56 075 -54 122 -15 001 016 -40 026 -81 059 065 -59 069 067 -33 117 -84 004 -03 017 -22 113 -127 012 -122 065 067 -24 116 -15 -42 -55 011 -73 -63 -52 099 -32 -116 
029 025 104 -42 052 -97 100 -24 -55 098 037 -85 -67 -107 -66 019 -35 -71 078 105 -26 002 072 -13 -119 -71 -09 -73 -106 094 -29 083 -60 -82 -86 -113 -35 -54 037 -88 059 -55 044 048 -67 -28 074 -27 -69 003 118 -17 058 -50 114 116 036 -65 -87 -50 -89 004 009 113 
-115 -121 -97 -06 -114 -19 -10 057 -30 -39 114 -25 015 -69 122 -92 084 039 -19 069 -82 -118 031 125 095 015 082 -88 -39 -91 097 -100 043 -02 -15 123 018 -61 070 126 009 -05 -65 -68 119 -16 -91 015 104 -96 -51 037 -93 077 -48 087 -28 -41 -17 -82 -94 -05 043 -104 
-70 -62 -96 104 -54 -127 061 003 032 -25 015 045 098 -87 -54 -36 -98 079 117 -117 -85 101 -101 -46 -111 078 092 -46 -124 -118 035 107 -119 -04 008 -112 -57 039 116 -38 -123 -19 007 005 -122 -49 -76 069 -06 024 097 -87 -105 033 -78 -19 071 094 -40 000 012 000 -60 -64 
-06 -79 -76 -127 -33 035 024 -127 039 123 057 -17 112 -77 -49 021 018 -45 -58 048 -03 023 -101 106 102 -36 -09 019 -73 -22 064 043 120 -49 090 085 063 026 050 040 -23 027 008 018 119 -19 102 -43 054 029 092 -80 -05 025 102 -21 -103 072 -104 -91 014 049 -123 036 
-38 112 019 080 023 -86 -41 -05 -02 -127 006 007 074 079 076 105 -03 -95 -15 045 -43 -21 -98 120 -46 077 -104 -18 -72 -79 007 116 -116 -124 084 062 -102 095 064 -16 -44 -37 111 -70 101 -23 -87 036 -22 -07 -59 -84 -13 004 048 006 086 000 117 066 -66 077 -80 -86 
098 002 -33 -25 -15 123 042 -47 099 109 064 -81 086 -37 066 109 054 -15 -17 029 -100 101 -68 027 -13 -27 106 013 100 -103 085 117 -19 -10 046 099 101 -113 044 114 -107 -01 107 -07 -50 -72 094 112 045 -94 -93 -54 020 016 015 -80 039 -30 036 -78 073 -26 053 084 
020 -54 -45 -26 -21 -06 -86 107 -21 126 -126 077 013 -117 124 -114 122 -112 102 094 -89 043 -90 065 -57 -100 -105 -119 -58 -88 -121 024 099 096 110 -61 041 -16 -87 051 037 -105 082 -100 -64 118 -104 056 023 -106 -60 -22 -27 081 126 -21 045 -73 -30 -70 -27 -34 -78 -21 
-101 -21 026 -51 -71 033 062 102 -100 027 -13 -83 -83 027 -122 -120 -23 105 084 -48 045 004 120 -11 071 -57 -98 013 125 109 124 098 -64 -57 -24 -79 -85 097 117 -16 057 122 012 -27 019 -77 039 112 102 067 092 014 072 -41 060 -117 102 072 123 -70 -49 089 -63 -17 
046 -39 -67 -126 -73 -41 033 001 -10 095 062 083 -66 -51 -07 -128 082 -45 113 106 -121 069 -117 010 -107 119 009 108 -101 120 -01 -08 -85 -35 013 092 -06 -51 037 -55 -94 027 -111 070 -85 -111 -21 -15 -29 -45 046 116 043 019 -04 -127 -114 114 082 -65 022 -20 -118 -90 
009 030 068 -74 -16 114 -59 109 031 061 090 -105 033 010 020 -05 095 -17 -98 021 089 104 094 035 077 116 060 105 -116 099 074 039 -30 -41 -109 090 -100 012 098 030 -85 -01 118 018 -99 -122 -58 -124 -89 090 -59 097 -07 102 007 076 -87 059 101 -34 005 -120 113 -94 
-39 019 -107 018 041 -01 -69 -71 -29 050 082 039 -10 -79 071 120 003 -08 086 -62 019 048 -37 019 051 -10 016 -51 075 092 041 -118 113 064 -68 -69 -01 067 -75 -61 025 -42 024 -90 008 -97 -99 -47 025 -128 -89 -03 008 -82 -110 124 004 019 -11 -68 -09 -05 099 070 
064 -127 123 -63 055 122 -28 007 024 -96 042 078 -73 -22 037 094 092 -35 -21 004 -90 -63 098 020 026 088 -08 -70 066 -61 -09 087 -35 -99 057 024 -38 026 -58 042 -42 086 114 120 -94 -116 043 089 053 -04 051 125 023 -126 -81 -102 028 -95 -59 119 119 029 -06 -39 
-18 -79 018 099 -06 067 071 020 -113 034 043 034 093 -128 053 -108 -40 037 -46 -31 -86 -45 041 -37 -88 041 010 -62 047 -02 024 -39 059 040 118 061 -113 072 043 082 069 -68 -24 070 -43 054 -84 075 103 -07 -125 -98 -10 105 -32 107 065 -12 067 -91 -97 076 117 -42 
054 -72 116 087 -05 053 037 020 082 094 069 035 -73 -34 070 -32 -01 -18 120 -73 -10 029 -92 056 -13 -61 -03 062 055 -73 028 -128 -42 074 -117 -86 036 -85 056 -43 -71 -80 -66 126 048 126 -51 047 025 -67 -70 036 -92 050 -70 014 -98 078 066 -84 018 073 079 -09 
040 119 027 -75 -43 023 093 -25 077 024 035 063 121 -90 071 -96 072 045 -119 -117 113 079 -46 058 008 108 -23 -109 016 084 000 005 075 061 -43 093 030 115 -124 003 027 012 -61 -13 -65 -44 045 043 -112 -49 -19 -34 -110 -55 126 -13 055 -85 -48 007 -124 090 -120 084 
-112 090 -97 103 096 038 071 -10 031 -81 073 -10 100 027 112 040 090 -50 -05 096 -18 125 -90 -128 022 093 -67 115 060 036 106 -53 025 039 092 025 108 103 -110 003 074 -31 -81 006 105 036 -58 081 -96 086 -112 007 -55 076 -16 058 -66 -76 028 -111 -104 -67 026 -101 
038 057 008 116 -120 -116 070 115 093 -52 123 -63 052 -49 -18 -127 -48 060 033 -104 -98 -71 093 025 -11 020 -115 066 122 081 017 108 -125 100 082 033 -74 -20 -10 076 081 -96 107 078 -90 121 089 -37 -16 -14 -80 009 -06 078 -38 -63 114 -37 -109 -19 116 -32 062 011 
-76 -56 -80 085 -71 080 086 109 -100 -110 088 009 010 -36 -17 034 038 070 035 -84 -23 -121 055 -30 103 100 -54 119 084 -29 -77 030 -77 033 -72 012 -114 -51 084 -123 041 027 115 -31 088 -21 079 -56 -76 -117 069 064 -105 -96 -36 -115 004 026 -55 126 -35 -75 041 094 
111 102 018 -82 077 110 -04 081 -36 114 -04 007 -43 -111 054 100 -71 -84 -32 -126 021 -72 062 -21 -10 081 -27 -30 118 -83 098 086 -86 062 -125 098 -93 -78 053 -36 -27 -122 -44 -107 027 -10 029 073 -38 -102 -02 -60 006 066 088 114 -110 112 081 122 -95 074 -90 -10 
-05 -102 -32 -119 -96 -33 -34 -09 -46 086 055 -65 034 -25 062 029 016 026 037 085 008 -04 116 -74 093 -59 123 030 021 043 045 -82 -118 038 -35 -106 -63 056 -36 -98 -77 070 -30 077 -19 069 045 091 -36 -94 -107 -10 -11 109 -124 -40 078 116 118 -79 088 014 -28 073 
020 -11 -01 071 041 095 -15 084 -88 028 065 -48 041 -118 -27 -64 -100 111 -107 037 -98 120 -63 110 042 114 094 106 019 077 -111 -92 -112 015 112 -103 -07 -63 -58 074 063 -02 003 063 061 -115 075 124 -94 031 -49 -117 072 070 076 091 102 -13 -77 -42 -49 -61 083 001 
095 051 -113 026 -125 015 047 -53 031 -16 068 -20 -12 013 010 -33 -54 091 040 005 117 104 035 -108 -78 114 107 -44 023 -21 104 092 052 -119 -92 -91 035 098 -01 -128 009 046 126 -81 -52 -108 -54 056 -57 -127 -70 -37 -100 009 067 086 037 -115 -49 063 -56 -84 070 -107 
-38 -64 027 -07 015 076 014 -35 118 000 111 028 105 -94 -64 030 -08 009 -04 -97 084 -15 -52 -12 083 109 088 011 -11 119 060 114 -25 087 -78 -106 062 -109 -44 -120 -02 -107 108 -100 066 -48 -70 -84 -91 -34 074 -87 -124 -84 -120 088 -92 057 010 -127 016 046 086 061 
080 051 -81 -122 064 044 033 028 107 -103 107 076 -111 020 018 080 -85 047 -83 -118 -15 103 -30 106 -43 124 -55 -103 -02 060 -86 -39 -65 122 044 068 102 -25 -78 -25 -75 -99 051 012 -99 -32 022 073 126 086 -15 -20 056 -96 -111 -40 -66 -65 -56 035 -39 -17 -128 104 
090 -86 067 124 041 088 -56 083 117 -74 086 088 -88 -84 -67 -93 099 -99 025 019 -36 017 -103 035 -21 -115 -17 -25 064 -89 -115 -29 013 -72 053 023 083 094 -80 -40 -08 061 -114 -29 037 011 -78 -27 -57 -37 -111 018 -27 112 115 054 014 -66 057 000 057 -61 -56 -70 
-02 -44 076 122 -42 -28 -120 118 -60 -35 -02 042 -102 056 035 122 049 084 -20 051 027 -93 -69 061 -69 005 -105 -68 053 012 -36 048 -88 -24 114 -123 -114 -91 090 -62 109 -102 -86 -12 049 112 116 -70 -88 070 -111 102 -25 088 -35 -115 -87 050 -88 046 061 -29 059 101 
-22 047 113 -31 -75 108 -76 069 114 -68 018 -54 -116 -56 015 022 012 -72 125 104 -42 023 069 057 -31 -113 -75 031 037 -02 102 -33 048 -79 121 034 081 -82 -52 -34 047 069 -109 098 -68 111 015 009 079 -104 -109 112 -104 -93 085 062 -13 037 103 047 060 120 101 121 
064 065 -11 004 -65 -27 052 011 -48 -86 022 044 -54 -31 040 -128 -33 061 -71 -07 039 -77 095 002 022 102 030 037 -120 -128 047 -55 -65 -107 125 064 -67 119 069 099 057 118 093 -107 071 068 -80 -50 069 094 113 -58 -14 -124 -12 031 -16 -84 -55 077 092 -97 -60 -101 
014 093 -56 -92 098 073 093 -64 124 112 037 -43 068 -80 022 081 -109 053 031 074 -07 067 -80 099 098 -50 068 -49 030 031 067 005 -20 -22 -41 -117 -95 119 058 -120 -93 087 -59 -81 -80 -102 -124 105 -117 116 -32 -08 -26 -44 096 -99 103 007 -87 -23 -90 084 -58 034 
-42 007 121 037 121 -07 094 076 -89 -81 085 -113 -102 -119 046 111 004 092 -33 -56 079 -74 119 -60 -92 -123 058 112 102 005 055 -56 -64 041 011 025 072 -27 047 116 -48 -68 111 052 024 -01 -15 064 082 -55 -35 021 -101 072 023 -43 059 -118 079 -109 115 007 -02 -47 
065 -03 067 104 034 -86 040 024 064 125 057 -83 065 -31 -77 046 085 051 048 014 -88 -92 084 078 061 072 001 -29 -54 102 -46 -70 079 -13 -69 -97 -70 -37 021 -59 -55 -128 059 002 -118 -86 016 -127 -102 -32 035 -94 013 -67 -59 -93 -79 -59 070 -41 -113 -83 -30 -14 
-84 -33 -122 103 -54 -08 067 -20 -84 -91 072 -103 103 -115 -01 078 -75 036 118 021 -10 083 101 037 -55 -77 064 -112 -74 -24 059 -73 116 101 -68 024 015 119 027 -88 028 073 -21 -35 069 039 -66 -73 102 -09 074 090 121 -79 -84 -125 072 024 -106 -61 096 -108 -125 -128 
015 058 -116 -08 -14 099 -09 -49 -17 108 -19 -06 040 -08 -100 -94 028 -92 -108 046 -60 033 -41 -46 120 -100 -121 -64 067 044 -38 062 -88 119 113 -90 077 004 -25 -17 071 -115 116 -32 -35 -89 -39 025 033 -91 021 056 -11 065 -48 -84 026 -15 111 105 056 048 024 101 
075 026 058 -13 051 038 -29 -28 -92 069 061 122 097 -02 063 -112 -99 -43 126 116 -03 -125 116 117 -65 -46 -33 -42 072 -27 053 023 -108 004 -104 -87 065 079 040 010 -24 -71 039 104 122 089 076 -107 070 -108 -61 002 -52 065 -43 076 -25 006 -06 -88 007 014 -119 -84 
-88 120 -15 -35 066 -42 -41 -54 -76 037 114 -52 -109 -10 078 -31 -71 -128 080 023 -27 -66 -98 006 033 073 -88 099 043 110 105 116 -43 -89 -31 037 075 -69 -60 088 -89 -31 -84 113 -26 079 -54 -10 004 -93 028 -45 -118 -95 -99 -114 037 -16 -106 -67 059 -112 -70 120 
086 -119 -41 -08 000 124 -37 -81 -38 057 -86 -45 086 -01 -63 -86 025 035 -24 046 006 063 -125 046 110 101 -125 -94 040 089 -22 052 -94 -82 052 050 -19 047 053 -47 -55 073 118 -25 -48 020 083 -59 074 027 042 -94 -40 066 116 085 -106 067 097 121 -77 016 -21 081 
112 034 017 -122 -52 116 -63 061 -31 -75 -99 120 020 -121 -56 045 095 005 -83 -116 -35 094 078 -115 -81 110 -49 054 108 -19 039 -106 096 -62 080 083 076 -112 050 098 017 -59 061 -127 055 -06 052 079 086 015 -69 -36 098 037 005 -94 -51 026 124 -126 096 034 -80 -74 
093 -101 058 -54 -48 095 037 036 -105 -82 125 054 104 -32 -115 -58 -94 065 062 047 -76 119 032 016 -118 051 003 -25 -23 074 -119 -121 -93 019 011 119 -66 017 -68 -99 062 -114 054 094 088 074 062 007 083 -23 066 -19 -84 -62 -15 021 002 027 037 -08 -30 092 -18 125 
052 -117 035 -127 -50 004 -71 -58 -76 -54 -46 021 042 068 063 124 -31 062 001 107 -94 -46 -108 -90 012 -40 041 -76 -60 042 -101 115 115 -80 -91 -19 063 092 -72 005 -58 -83 -128 -23 -92 -71 -32 -20 113 -122 -43 -82 -41 050 -43 -121 121 051 -12 -14 -62 101 063 -82 
045 091 -27 -76 113 075 -65 -33 -92 121 -61 -03 -18 -17 -20 101 -116 088 060 -84 082 -28 -45 -96 -77 -18 036 -60 059 086 -55 -02 033 079 -105 009 092 -73 056 079 -05 -94 022 089 036 092 116 -47 111 -94 058 -03 -93 -114 -59 -52 081 -87 -58 -127 -109 -36 -48 -72 
-49 -84 -127 112 -93 079 008 -36 114 -62 -91 -59 117 122 016 030 086 022 -02 -85 007 082 057 -57 -43 118 033 -121 -54 113 -60 059 015 015 -35 -101 -11 -31 068 061 -44 119 080 081 -23 -122 -54 -24 043 115 -11 081 005 -65 -113 101 093 -97 -11 -17 -14 014 -98 -126 
026 009 -86 077 037 012 -11 -65 -04 -03 039 -86 -02 -06 106 089 061 -21 -112 117 000 -11 034 -33 003 030 096 -23 -55 -05 045 -50 113 -13 126 -57 122 -72 006 049 -97 121 080 -128 -03 -96 126 098 042 -47 -35 -95 088 -50 126 -63 000 060 -78 094 -19 -10 -68 -91 
022 -19 -44 070 -19 -71 -77 -08 -99 064 -105 -70 -105 -15 -62 041 062 006 018 -81 -31 044 094 -03 001 -86 013 -44 124 080 -15 064 052 047 099 -102 -50 -92 -61 067 -115 -42 -09 124 016 062 039 043 002 077 119 122 112 014 -34 021 036 116 -73 -33 099 053 060 -92 
039 -92 052 110 -46 024 -71 -99 -110 -10 -14 113 062 002 -64 096 088 -28 017 -122 -30 -20 -12 -69 -48 -91 -63 003 -96 -106 029 113 038 007 106 -05 004 -117 -63 -100 045 022 -22 010 014 056 049 -98 -66 050 -25 -51 -26 -86 020 114 044 088 -102 015 072 021 -125 -123 
-101 023 -75 -63 100 115 -14 -65 -83 -02 100 -85 -79 114 122 039 -07 -87 018 061 -21 085 -08 093 -117 -88 -63 124 030 -39 018 032 085 027 080 -34 -28 -17 017 101 -82 -15 086 104 039 -68 057 017 012 084 091 -65 -15 -50 -111 -67 -35 069 -19 077 084 069 120 -119 
011 -113 -08 093 125 042 053 080 -127 064 087 002 -05 -76 -22 059 058 036 -123 -105 123 -74 -127 -116 -105 -101 000 015 097 -118 125 -101 -96 -92 116 027 -107 -116 -20 110 078 039 -69 -73 -70 105 -120 -74 -84 -17 -63 -29 -34 021 -48 017 -21 080 -06 -13 -17 -38 -12 030 
083 -68 -05 -61 036 006 031 008 009 019 -54 003 -26 068 -70 002 096 -90 074 020 022 -96 -70 069 087 023 -33 004 094 -31 006 039 054 034 -45 -67 -48 -107 -46 -22 -82 -30 -96 044 -02 -111 -17 050 016 063 -86 -96 -60 065 -39 -65 -93 -88 023 070 058 016 -08 023 
-45 031 -43 089 -116 111 -116 -48 -28 063 -61 -115 061 114 087 -77 028 110 -15 -77 020 104 022 -93 -66 003 -11 -27 -31 -48 -103 124 031 -110 000 -55 040 110 -16 -108 080 -113 -113 -77 002 -82 -106 113 -122 103 050 097 -70 089 069 -83 -75 063 019 -82 093 053 -74 -16 
-11 -40 -25 -02 124 -03 -40 098 083 -19 -69 -27 042 031 -26 -51 045 -10 -59 -118 087 106 -42 109 -121 074 125 110 108 -78 -103 122 -56 047 116 040 123 -73 043 085 117 073 -76 088 -120 104 -87 -06 -65 -05 081 021 100 122 -92 075 -26 -56 109 -94 -30 022 076 -36 
106 083 -56 118 -06 097 -85 -45 -107 -78 102 -12 088 -101 -90 -90 090 009 -64 009 -42 -110 -97 -57 -116 -108 002 039 085 -82 -121 -34 -60 083 040 -72 005 -76 101 064 057 101 085 -127 116 059 -45 014 -66 000 -106 -40 080 120 -49 -113 -28 013 055 034 087 122 115 025 
025 -07 -32 045 -71 -82 087 095 020 -128 -43 -83 115 093 062 -127 047 089 109 -110 004 -11 069 084 -92 -102 058 000 008 084 -63 -94 -112 121 -69 -103 -56 066 -66 094 -11 083 -103 084 123 054 007 -64 -55 029 -06 009 -12 -07 061 -125 -39 068 063 043 124 -34 081 062 
012 -60 042 118 -85 078 -75 053 088 -79 037 033 -44 -98 -37 -24 024 -10 059 034 -78 -21 -55 017 086 020 -47 058 111 036 003 -81 -11 -53 -124 -09 -53 061 029 043 -88 -105 003 071 027 -125 -112 -81 -58 048 -03 123 073 -56 119 -62 113 -54 -107 103 -126 -04 114 057 
102 120 054 002 021 038 -22 -71 -11 -89 050 -119 104 007 -04 -85 099 -103 042 -59 126 126 -83 070 080 039 -48 103 -75 021 001 050 100 -35 099 -37 047 -99 -122 016 -120 -101 126 016 009 -103 041 -55 080 -71 -61 -04 120 -114 093 -122 -121 121 034 070 -23 124 -73 079 
