000 000 -05 001 003 -04 -04 003 002 004 004 -02 -02 000 -04 001 -02 003 -03 001 -04 -03 -04 -05 -03 -03 -01 -02 -02 -03 -01 003 000 -05 004 -02 -01 -02 001 004 -04 004 003 -02 004 -04 -02 004 -01 001 001 -04 004 -05 002 -04 -05 -02 000 003 003 000 002 -01 
-03 -03 -01 000 -05 003 -01 000 -04 001 000 -04 -04 001 -04 -01 001 -05 004 001 -04 004 -03 001 -05 001 -04 003 -01 002 -05 004 -05 -03 003 -01 -03 -05 -02 004 003 001 -03 -04 -05 000 -03 -03 -03 -03 -04 001 -01 -02 001 -02 -05 -02 -01 003 003 -02 000 -01 
-01 -01 -03 003 000 004 004 -01 -02 004 -02 -04 -01 000 004 002 -01 004 -01 003 -03 000 -04 -02 000 -01 -04 -05 -03 -02 004 -03 000 004 003 003 -05 003 -01 002 -05 -03 -05 -01 -02 004 000 -02 004 003 003 -03 -05 000 -01 002 -05 004 002 -03 001 -01 003 003 
-05 -05 003 000 001 -04 -04 003 -03 -03 -05 -01 -01 001 -02 000 -02 -02 003 000 003 -05 002 -04 000 003 002 004 -02 000 002 002 -03 001 -01 003 -05 -01 -05 -05 003 -02 -02 004 002 -01 000 -01 -03 -02 004 002 000 001 -01 003 -05 -05 -01 000 000 -02 -05 001 
001 -03 -03 001 -03 004 003 -05 -01 002 -01 002 -01 000 -01 -01 -01 -05 -04 -04 001 -02 -03 -02 001 004 -04 002 -01 003 001 003 -01 000 001 -04 -03 -03 -02 001 004 002 004 001 003 002 -05 -04 -05 002 002 -02 003 -02 -02 004 -04 003 002 002 003 -03 -02 000 
001 004 003 -05 -05 002 002 -05 -05 -02 003 -04 -04 -03 000 002 001 001 000 -01 -04 004 001 004 004 004 001 -04 -02 -01 -01 -03 002 -05 001 001 -02 -04 -02 004 -04 -01 001 000 -02 002 -04 -02 002 -05 000 004 -02 002 000 -05 -01 004 -03 -03 000 003 003 001 
-03 001 004 003 003 -04 -01 004 003 003 -01 001 -03 002 -02 003 003 -03 -04 004 -01 -03 001 -02 000 003 -02 004 -01 002 002 004 -04 003 004 000 002 004 000 -05 004 -02 003 003 000 -04 -04 002 000 -05 004 -05 002 -04 000 002 001 -04 -03 -03 -03 000 001 000 
003 001 003 003 001 -01 -02 000 003 -02 002 -04 001 004 -02 000 -05 -05 -05 -03 -04 001 -03 -01 003 -05 -03 003 002 -03 001 -03 003 -04 -05 -01 002 -05 003 -03 -01 003 002 -03 004 002 -02 000 000 003 -03 -05 -04 -01 -04 000 -05 -02 000 -01 004 004 003 -03 
