-113 078 052 062 125 -43 041 110 -80 116 -111 024 -52 056 -15 112 037 -43 -25 116 098 001 038 039 023 072 119 033 -07 -61 -27 -45 083 -56 072 027 -12 082 -102 044 -52 103 -60 102 027 017 032 055 017 -60 -02 -28 -60 -33 082 074 -81 013 061 -125 -01 012 -96 -04 
-93 -97 101 031 029 -75 -103 -128 -39 -100 -43 109 -117 123 -116 -51 -81 067 063 -53 019 118 -108 -17 003 -28 -111 -57 022 043 -68 058 062 -68 007 033 -12 -113 041 109 005 -112 102 057 -79 095 080 121 004 -30 054 -118 -118 043 073 -16 047 015 102 -23 -03 -73 024 053 
122 005 -63 -75 003 079 067 -120 123 -89 -46 -100 -06 -102 121 -93 -24 -104 -77 119 -70 -116 055 -05 -92 035 -65 -49 088 019 -108 -120 -44 -07 035 -111 080 089 -70 068 125 -66 041 -41 -105 -56 -104 -91 -88 029 077 -99 125 116 037 102 114 018 -20 027 -07 087 123 -81 
056 088 -105 001 115 -83 091 016 091 -108 -18 -79 115 -117 019 055 -48 016 -01 -03 -12 -87 -06 -34 -08 092 109 013 -52 041 000 089 -11 -104 -118 093 072 -31 057 120 022 116 -36 -93 -124 026 -118 -119 026 -67 -105 -119 -30 010 010 -29 -14 126 051 -19 -98 -41 107 069 
026 084 -24 054 070 026 120 -82 -31 071 -76 065 -06 033 -96 069 -85 000 122 -55 -39 -13 -66 -97 109 -08 064 025 -14 032 033 -73 112 -124 093 022 115 029 -91 -46 -75 -116 -20 -128 -123 045 060 033 015 111 -83 -96 -53 -66 088 -70 036 -60 072 -87 042 099 019 036 
082 -123 -29 -10 -113 029 111 005 026 -43 057 -30 090 076 -128 100 092 077 104 085 -70 014 -05 031 -83 -29 -36 -62 061 102 -89 106 052 -05 022 -79 -86 -06 011 -81 100 001 -123 100 025 -55 -50 094 107 112 -31 044 053 -90 -93 113 102 -34 101 122 -07 -128 -108 049 
-56 -50 080 002 -86 018 -111 010 080 -08 083 -20 024 069 -81 075 -87 -80 -67 -38 -88 105 111 -30 086 -118 -16 -92 044 035 -80 102 -11 -67 -34 056 107 -42 -08 082 -74 059 -111 053 -67 -123 -104 -71 -76 -23 112 -98 079 -50 005 -49 051 075 -13 -107 -58 006 -83 082 
068 -11 -81 -23 094 012 -96 126 051 -95 -94 027 -10 091 010 073 034 070 -21 086 100 -93 -75 107 057 -101 -96 075 118 -14 -74 -33 -92 -29 -81 -04 -09 024 042 082 038 -90 033 -95 048 -85 -110 089 098 082 -56 023 -90 078 052 066 -128 -36 -73 001 112 074 -20 -94 
109 -57 068 039 051 -99 043 -110 115 009 -127 -72 047 -36 035 066 -86 -111 -29 -19 024 070 -18 070 -77 081 -111 -55 -118 098 -80 -76 063 039 074 -32 097 105 -38 -35 068 -71 029 050 077 -94 050 -99 -80 -119 023 096 -80 103 -105 -36 -46 123 -117 -21 -97 036 -127 -47 
073 -69 -26 -12 124 -13 -104 006 096 -94 051 051 -69 -35 019 -43 -51 -57 -05 078 -21 -128 003 095 081 -126 065 061 -19 -50 004 -92 049 110 086 063 -70 056 -50 009 -07 -05 068 091 050 095 -26 -68 105 -108 023 -72 031 -10 -75 044 -32 -114 109 -59 -13 -39 -124 -93 
-82 -48 080 075 -55 070 -26 090 061 078 -69 -02 018 118 -88 078 -08 113 014 060 -92 -22 -88 -101 -85 114 -51 077 061 -46 -04 -35 -94 017 -61 068 -42 -49 -77 -121 058 017 055 -08 -113 -122 080 044 038 122 -108 000 -10 -45 -25 -68 100 -102 -103 000 099 -88 117 016 
118 114 -50 001 -100 033 113 057 060 -02 -20 052 095 -109 042 -83 104 020 -85 034 112 -109 090 116 -03 -69 -51 -84 -67 048 026 -20 -39 014 -127 048 090 044 014 -114 028 -108 -66 -57 056 -21 -07 006 046 -56 -27 -124 084 086 047 119 121 -09 -24 009 110 -15 064 -85 
032 088 046 110 032 057 101 -91 -18 -109 076 -103 -83 -24 050 096 034 -47 -46 -37 -33 017 -109 001 -04 -108 107 061 077 062 096 -94 -41 017 068 -06 -66 -23 -56 016 019 -118 106 119 -71 083 -17 -20 -58 002 -62 -28 099 -92 027 -68 -90 -90 064 -32 -49 095 -36 -32 
123 098 -81 003 099 -36 -118 -01 -59 -20 061 012 -26 057 076 -96 006 121 011 -38 -110 -20 -116 -24 031 -01 073 034 -32 071 045 010 -87 120 094 -105 -59 065 072 -95 096 -93 081 -121 -20 059 -15 017 -08 -11 -121 -24 -127 -119 022 -09 -63 095 080 027 -09 106 -39 -35 
-72 -09 -16 -118 -121 -32 -16 -111 044 -92 036 -100 -23 -66 -95 003 -74 -89 -13 -68 -100 -14 -54 -53 -59 -98 100 -126 086 119 023 -22 037 095 -68 074 -127 019 -109 005 -125 059 -115 -65 -24 116 060 007 -33 -54 033 -28 -100 057 -46 114 062 000 -100 -106 013 -106 047 027 
-115 -47 112 -101 -91 118 013 014 -119 -82 -116 021 -112 -45 112 103 036 061 -80 -85 005 027 -35 -10 106 -58 -47 -99 066 -110 -96 110 -79 080 004 068 -57 -09 -38 -54 032 -34 042 -96 063 020 -127 -100 114 020 083 093 -89 124 072 -102 066 121 005 079 102 -125 047 -02 
-121 030 116 008 -113 -46 -05 -69 -36 -113 -79 078 -99 -109 046 056 038 -63 092 012 -98 049 -29 078 024 -113 -93 085 -15 003 126 -04 124 043 023 -30 -79 -91 123 -46 -79 -45 069 016 -23 -77 040 015 -54 -94 017 -04 -74 117 080 123 033 124 080 031 002 118 -60 040 
-95 000 064 027 -49 -16 -94 -110 -108 -38 123 -70 -98 -125 -126 051 -60 035 -100 -58 095 -14 -71 -24 033 088 -20 -31 063 073 001 -11 -14 -118 -33 104 095 067 087 -77 -127 -105 088 -46 043 005 116 -17 -89 -82 -27 -113 068 -22 -60 -57 -02 -106 074 025 -96 105 031 039 
100 -38 026 079 -11 039 -51 008 117 043 -22 -96 092 046 -56 123 074 -114 044 000 014 -102 060 100 021 -122 -65 102 -119 099 045 035 045 -89 005 -127 -14 029 -88 -81 -126 -52 -69 011 092 084 -120 103 056 045 -77 067 -47 -100 104 074 -15 049 073 -59 056 076 -37 -55 
118 -92 003 013 003 098 -11 062 -27 007 -121 125 -88 067 -118 -57 -23 -62 076 000 -74 -17 -25 043 -112 -14 015 090 101 -94 -13 -80 -57 -09 053 023 058 -45 045 -113 112 -56 080 100 033 -21 094 -49 040 -115 105 -53 -09 -106 006 -09 -41 055 -97 024 -127 030 -119 -83 
-38 088 029 -105 059 -51 109 -06 045 049 -114 -01 -112 -101 -120 -53 100 074 -73 -86 122 064 -54 037 -116 -66 049 053 -35 056 -92 -36 010 -18 105 -18 056 -20 035 006 -35 083 000 006 -128 -46 122 -79 107 -54 072 105 032 108 107 095 -128 -72 -16 -110 039 -106 -118 089 
-05 -78 112 -120 077 103 -77 -32 -22 -20 059 -101 081 030 -34 -62 123 -18 050 047 063 -35 -28 -87 118 072 -92 091 000 091 -101 054 -27 109 079 -64 -49 079 -48 -105 120 064 -53 005 031 041 068 -128 -64 -69 -11 122 -13 055 -05 -69 116 126 -69 019 -95 120 008 105 
-105 -123 028 103 -61 -58 049 018 -21 122 -53 000 -83 051 019 044 044 006 -29 -119 -93 -21 -64 -56 042 065 -93 056 088 -05 -42 -48 -124 120 -59 115 -09 -39 052 -106 -118 026 -123 062 -28 -24 -36 051 -127 -103 -68 044 -02 117 -80 115 088 -42 -112 -58 -08 021 022 028 
-12 -120 053 117 -125 119 -89 -120 -38 035 -07 103 -99 028 103 009 -112 -31 -86 019 061 -31 035 -123 -19 -76 106 102 -48 -42 044 -30 -07 -10 024 -03 097 020 -92 -94 046 -26 -80 093 100 -74 -66 -127 123 025 044 083 -107 126 042 -74 -70 043 -120 -59 -16 005 077 077 
-54 093 -49 -07 108 033 -119 -102 -23 -85 034 -84 -87 -102 113 101 -23 -91 029 119 -23 -22 -71 -30 -107 082 039 084 -101 076 -15 -43 063 010 021 082 052 032 065 -30 085 -57 -55 085 082 120 090 -24 -115 006 093 -69 109 051 097 089 091 -122 -35 -41 -14 022 -123 013 
123 017 056 022 059 -73 -79 094 095 -51 013 -85 -54 -12 001 035 010 -76 085 027 026 -50 -68 112 -100 -54 083 092 027 -18 057 122 025 -04 -27 -69 -107 -117 114 023 -73 -113 -126 038 082 -108 026 017 -43 -108 073 -59 001 125 -12 -118 017 -06 -15 113 -92 -118 -18 -49 
032 100 -21 082 -76 -50 093 008 036 083 -08 031 040 -109 -62 -05 -91 -44 090 -97 -49 -13 -44 028 -126 -118 -32 038 -16 -85 035 -08 122 071 -90 010 -108 -02 087 -10 -81 -124 -106 -10 009 115 117 -22 094 033 -112 -48 -62 -39 110 087 -121 056 -38 120 007 -64 030 009 
019 -49 -24 -32 062 120 007 -19 052 -03 -61 048 103 053 038 -48 054 -122 021 -71 -101 078 -21 -88 -28 -98 118 036 -97 -95 062 111 084 037 015 051 046 037 118 083 -80 104 -118 034 054 006 -41 -118 -20 024 -100 029 075 -08 044 067 -39 -112 -45 069 088 -113 -112 014 
067 040 -19 092 012 -124 023 -54 -60 -52 112 -116 -38 -99 003 116 -37 -08 -04 011 -14 034 018 -32 -100 -04 -35 -53 089 -64 -71 102 -19 -24 -109 -115 -02 -65 -95 084 -38 063 021 -02 061 -72 -30 059 -85 -124 -103 -59 -85 -74 124 -49 044 045 -49 001 -04 097 068 079 
-12 -30 -91 099 -83 111 -50 019 103 -22 017 109 -123 -96 053 038 014 097 058 -34 -116 082 -95 109 -43 -15 -120 -28 -98 -59 072 066 059 -79 017 068 -65 -103 -04 -104 -20 062 108 -62 -47 081 009 -90 094 -34 002 -96 092 -55 106 000 033 -06 002 115 -121 016 088 114 
-02 -39 005 005 007 -05 004 -104 099 -11 -42 -72 021 -104 036 -42 -70 098 -62 108 062 071 003 067 -70 -121 074 -100 039 014 -23 098 072 108 123 106 -25 -69 059 046 -94 -17 002 -31 042 -112 -22 -44 -119 073 077 094 -71 -88 -73 -55 -126 021 077 -56 066 122 -54 062 
028 037 -10 004 037 113 -02 -23 -63 -23 -111 -34 -63 -58 023 125 053 -38 -29 014 046 006 -89 -33 -03 100 072 -07 -77 -71 110 028 -85 -62 -39 093 017 062 -39 043 063 -116 -37 -77 035 -127 -67 -48 028 123 022 -39 095 088 -119 -56 -83 062 013 -02 -29 -30 -119 -105 
-57 -120 -107 114 120 117 028 029 -50 056 -106 090 -124 -73 -75 009 -69 106 -99 056 -57 010 -62 072 004 081 -108 -127 109 047 -90 061 -123 -36 -101 -85 003 -05 011 018 -73 060 056 -64 059 015 072 -18 -64 123 005 026 -30 113 -87 044 011 094 -62 -44 077 -49 -88 -58 
081 -91 -56 -14 -63 -88 086 -23 077 023 -112 007 -121 095 095 -117 -23 037 -79 097 074 -42 067 -107 005 125 075 068 -125 -116 -16 111 022 047 095 -91 -29 106 011 -91 -81 114 011 058 -03 043 077 050 -07 043 -42 089 -43 125 -76 -83 010 002 094 -72 081 097 017 -124 
114 031 -17 114 013 -80 -111 -127 -90 -58 112 -02 -122 -81 078 005 -73 -116 009 -05 031 -47 -20 006 -21 053 105 -123 -61 068 123 -29 118 050 -31 103 -121 076 -99 100 079 049 -96 -43 -54 -23 094 -111 011 113 039 055 006 -10 007 099 -25 -33 -27 073 011 -110 -108 -70 
-106 033 106 -101 096 -60 001 -78 -82 -62 040 -82 109 002 020 -34 -11 -94 -14 103 044 122 060 050 -27 060 105 027 031 065 093 125 037 081 076 -01 -128 068 079 -86 070 -31 118 -02 -126 -36 -41 -115 024 -117 108 111 010 023 122 -01 -109 -99 -07 -52 087 -10 -111 -73 
-100 089 -52 077 -97 049 -67 -52 -90 120 001 047 041 118 -69 104 -114 036 -104 100 -10 -37 009 -03 -20 094 012 104 -87 025 044 027 -22 -77 011 -75 -45 067 -58 092 -93 -128 015 -03 119 -108 -77 -76 054 -44 077 031 -99 098 108 070 042 -103 -99 -46 -49 089 -127 -41 
-35 089 015 -108 -123 -15 085 -101 086 057 -76 -31 -97 -29 -87 -25 -60 -05 -38 072 073 080 117 -86 -14 049 -43 -77 042 -51 066 -05 036 -42 023 -01 119 -98 -68 -53 059 119 108 -87 032 099 108 -32 074 041 045 -23 -89 098 -31 030 105 030 -53 058 -76 -124 086 -02 
109 -108 -73 090 039 -10 -66 105 -91 -111 -89 045 -21 113 -105 064 121 007 -91 -33 043 062 -73 -55 -36 -93 040 117 077 058 033 013 -27 061 113 -15 -34 070 -128 044 -37 072 122 019 -121 032 -126 -102 070 -91 -27 037 126 002 -08 028 -126 -11 -127 060 121 -11 076 111 
-81 -121 006 102 011 -114 -60 -27 073 -12 083 060 063 052 -49 -32 079 070 -39 121 -104 008 -77 -106 -41 -85 -112 054 -104 -68 033 -18 019 068 016 042 -101 -24 -65 014 -04 028 -122 -49 106 020 -116 -104 077 040 -95 -78 053 035 028 090 -85 087 074 -94 015 -72 058 046 
-106 103 -58 057 014 -114 -67 -19 108 -118 043 092 003 023 -123 -75 -20 -68 104 089 005 -79 -63 -45 -13 008 110 -52 115 -58 062 -102 114 021 -20 -61 052 -115 -90 019 077 023 -35 066 093 110 -54 113 -121 008 066 076 014 070 -99 -28 001 -116 -37 -40 106 -96 106 -73 
004 -82 092 -21 002 042 -30 -11 076 -41 018 124 045 -28 -63 123 085 -101 -35 -111 -02 -113 -105 052 -11 116 116 074 117 -79 111 038 -02 080 -90 -101 -19 -70 -60 -51 003 -90 -101 044 052 001 -53 029 101 -86 106 -85 -109 -127 080 -116 -119 -80 -17 087 -112 035 -115 048 
-108 033 -97 -62 -124 -61 -109 016 091 -41 -25 035 125 083 -16 096 -115 066 123 -103 -108 057 -91 008 -95 -116 -75 -104 015 093 -109 111 -48 -49 103 -103 126 005 -126 070 -68 -86 023 098 -110 053 -36 101 -108 -97 051 017 068 047 045 -39 -45 -67 107 -45 -56 -46 -127 124 
073 020 -83 051 055 -119 106 -81 039 -128 093 -83 063 -72 066 082 053 -31 036 121 086 093 -91 -113 084 028 062 043 103 017 106 -07 -64 111 018 -106 069 -65 054 -51 047 -14 041 126 054 -63 -77 050 -86 096 -27 046 -78 -25 -120 -122 -24 -24 034 046 -37 -33 002 -05 
-95 -116 013 099 -85 -02 -68 -108 029 -86 013 058 -66 -95 108 032 077 048 082 -114 -96 -79 -79 011 126 -24 069 100 080 046 009 078 -24 011 -27 -87 -116 -43 -112 012 088 117 -102 -119 047 -117 087 078 -04 -107 033 -88 -66 078 067 -84 -44 -88 052 -107 -108 -98 118 -58 
-115 -75 038 034 -85 -13 099 098 -42 020 005 060 -12 -96 -11 -77 041 038 095 042 026 -115 -126 000 -07 067 033 -09 -40 049 -80 -09 -20 118 -19 -99 083 -19 -27 033 085 -11 -114 -83 -41 -122 120 100 -59 021 117 -95 -29 083 -118 -85 118 066 -110 -01 -15 -118 -114 -10 
-15 -66 -18 -05 122 018 -90 -63 077 -89 -03 -95 -54 075 052 -81 -10 -18 070 -124 015 038 054 043 -91 072 034 105 -72 054 -85 056 064 -04 -89 -54 048 014 -14 -39 -108 -08 073 -101 051 099 -70 046 005 014 017 093 -27 052 060 118 070 -05 045 059 -67 -23 122 -20 
-102 058 -56 105 118 -22 123 -112 029 061 -109 004 109 035 109 -97 -51 083 014 032 119 001 -97 084 -79 019 111 -74 035 -25 -31 -51 064 122 067 -32 106 123 -98 -56 020 072 -02 -48 063 -55 082 -68 105 -08 024 -50 -76 -27 121 117 013 018 034 046 083 -43 -65 066 
064 -120 -72 -90 025 065 022 -62 025 003 -03 -77 110 -22 065 -51 029 047 -42 097 -15 -03 012 029 109 -02 014 -40 -20 030 089 -126 -114 005 -84 031 013 -72 079 -80 110 -74 -90 -73 072 -44 001 -81 -30 037 -66 -87 -62 071 -123 091 -03 118 -74 -62 -71 084 -111 -33 
072 -18 028 050 -04 092 031 119 -44 105 -50 -125 -125 -62 027 -118 063 -85 076 060 019 111 -93 -52 103 -59 074 105 043 -35 -74 005 113 -50 122 -46 059 013 065 -02 093 -74 -13 -40 -74 -17 -01 044 099 124 -105 -109 -63 -28 -99 -08 111 015 027 -81 -35 -110 -120 046 
021 088 -116 092 -102 -111 080 079 -21 077 -123 -117 -15 100 -09 -58 067 000 064 125 069 099 000 003 103 070 -31 021 086 031 038 098 010 -08 023 030 -26 -68 -116 023 021 102 109 073 -110 085 -77 -63 -18 076 083 -63 -21 -72 028 -34 036 -112 -127 070 -121 -68 -69 064 
-35 023 -86 -112 055 021 014 077 067 -05 039 -16 -114 086 054 -46 114 044 103 -109 006 078 -118 -105 -81 005 -55 038 085 -96 111 -68 -111 -04 011 -69 -07 103 017 039 -41 046 -30 040 016 -126 -56 -44 -45 020 063 -39 -13 -34 -103 007 -83 -104 -06 014 -03 -91 097 -117 
113 096 -05 -23 -45 110 -75 -49 122 050 112 -26 064 -126 086 -62 -83 -125 -109 124 097 028 -27 -06 109 -90 058 -123 020 -13 -106 -59 123 -63 027 -109 006 066 051 071 018 016 -34 -51 070 025 091 -61 015 018 115 -84 002 -80 023 -99 067 070 032 -59 -116 -76 -83 024 
-119 104 016 059 008 -44 -57 -48 -83 093 -119 002 -63 -88 -125 056 038 122 -125 -47 081 079 126 -08 006 -62 098 043 -23 -89 111 -74 -82 -37 -70 036 -126 -100 -97 122 108 009 -14 -57 -110 081 086 -28 -19 068 072 -126 030 -60 -17 110 020 090 090 -107 -123 080 -40 -73 
-87 -18 028 -61 -106 063 072 070 104 004 -60 030 -75 -106 -46 -103 007 -54 025 -61 101 -21 062 006 058 097 104 -87 101 084 056 122 -62 -86 102 -14 -02 -28 -18 080 082 034 -89 031 020 -65 029 -59 -95 094 -88 -82 -79 066 030 122 122 -33 -25 -79 097 -126 -09 085 
117 007 -19 -08 -124 060 020 097 080 -49 -93 -61 042 -111 120 121 -125 -17 014 066 055 025 090 -46 -30 018 037 -62 122 -88 -35 106 038 -100 074 -65 -94 -13 -22 -23 091 -04 048 -92 -55 041 008 015 038 -54 -68 090 098 077 -42 -63 -46 -15 092 -44 -34 -49 -99 -106 
075 014 045 005 003 001 -57 077 -11 -117 032 -121 -31 -75 113 082 -83 043 -79 045 -35 126 114 -45 -53 -125 066 -93 100 117 -120 -26 101 -113 -23 -53 -92 018 -56 104 -81 111 007 098 -05 039 063 071 007 -114 -89 -81 -57 015 021 067 000 001 -122 053 077 005 -109 -122 
-09 -25 085 110 -68 -76 009 098 -04 -18 002 029 -47 -29 009 -09 -09 -80 -108 076 -16 080 -93 -120 105 -99 010 -14 -116 051 -108 -65 -05 057 -39 -99 -28 126 051 -103 -82 -62 035 063 065 028 -20 -103 107 037 069 059 005 -57 -118 -89 -73 -68 -35 -49 -47 -91 -68 070 
-56 -01 -126 -122 098 -79 029 123 046 -87 -06 -02 -10 -16 -75 099 -72 069 103 -38 077 096 -23 -11 -86 -126 -33 093 108 -33 060 -26 058 -37 -05 -113 -105 115 056 002 029 -42 -08 026 083 -56 013 -29 -94 087 123 125 108 -40 -115 095 -19 -127 -37 052 -109 122 -104 -44 
-96 064 015 021 027 015 118 069 058 -28 057 -13 087 082 123 -69 085 007 -53 024 -19 006 -119 -112 043 -13 069 062 022 077 -29 024 -90 055 090 110 -101 -116 -01 -112 039 069 011 -51 079 -119 079 -113 099 -38 042 -29 -65 054 046 000 -02 126 -33 -92 086 007 038 062 
024 -97 -16 -03 026 -26 088 -72 -45 005 -98 124 -124 096 011 007 042 014 085 014 -110 086 027 076 014 -111 018 -65 034 -41 -78 -21 077 -11 -116 057 073 -18 -48 -07 -20 120 -73 086 -16 -101 016 035 007 003 119 -79 083 -104 106 -38 029 -13 049 087 057 120 057 073 
120 -37 -03 -51 -88 098 -104 -114 -88 059 053 088 -124 -09 -66 -119 -25 017 -83 047 109 -80 107 114 -67 -19 -50 -33 -04 -110 104 015 -17 -37 -109 -61 -100 -86 100 -58 121 038 -57 -21 -113 061 093 -120 116 -59 -78 -76 -65 -19 -47 046 -125 027 -65 061 -18 -30 -72 078 
100 -02 -110 050 -93 -79 -120 -81 008 -01 066 -40 -71 056 -49 059 -43 012 046 -120 -96 043 -28 -60 -49 086 093 036 -32 -40 -89 001 071 -15 -88 020 -61 085 -127 -45 -34 -101 -61 -72 -89 093 -20 065 -124 095 062 098 -61 068 -61 -08 -107 -33 -105 016 065 -120 -115 056 
-43 072 -74 077 024 -65 053 -59 -30 -68 -33 -78 001 -40 -96 -102 113 -89 075 -19 043 028 095 -63 070 -51 -126 -43 -39 -38 -44 085 -53 -63 102 092 -36 -68 -34 -59 015 -04 024 062 -83 036 022 -106 -32 -116 064 043 -27 -116 041 -83 046 037 -99 022 007 -70 -27 -67 
122 -11 030 -116 -127 069 047 -26 -128 -106 109 -104 034 -74 104 001 -68 075 077 -64 -106 085 -20 -36 -64 106 077 -01 -04 -15 -62 -100 085 040 012 097 -84 106 058 058 083 -90 -03 051 -46 064 121 -69 -25 033 -21 119 -87 -113 -97 029 070 012 063 100 091 123 -119 -106 
055 111 -33 -30 078 -12 040 -107 -59 -30 -22 -82 -30 009 -18 055 -61 091 -45 -19 074 101 -55 -82 047 -128 018 -116 -14 -84 -120 061 -116 -68 -40 -92 -109 047 112 -81 005 039 -39 048 -68 011 086 -08 077 -96 -21 040 022 -06 -75 065 069 -99 -15 079 -54 030 073 012 
036 -21 -35 060 125 -08 008 024 -44 -104 -52 -44 037 071 -45 -05 -20 -04 -18 -55 062 083 -123 -66 094 009 015 -127 -05 004 -29 035 112 123 -57 -77 072 047 -120 016 122 -126 021 084 092 077 088 -77 -71 036 -19 043 -68 -32 -54 072 017 -27 048 098 -106 035 099 -126 
049 072 017 -111 036 -93 029 -121 -118 002 042 -42 080 067 090 -114 -33 034 092 077 -64 -120 -88 118 045 -46 089 -55 -60 061 -44 095 -96 122 -34 026 -126 -98 099 -66 -11 -123 -50 106 -22 049 -05 006 -67 -84 -46 101 112 -40 -05 039 -109 109 020 -90 -08 -81 102 055 
083 003 -54 -67 049 -27 018 -46 -62 071 037 019 -76 036 -70 -94 -25 126 097 -56 -10 -61 044 -08 056 -10 039 -51 031 004 -126 -49 058 -05 115 064 -69 084 089 -77 -85 087 047 -106 004 032 122 068 -04 -37 092 118 -94 -09 083 017 -66 -81 115 049 -49 086 093 -68 
073 -67 -37 -53 -03 040 075 -107 -27 -112 019 -76 007 -32 -30 077 021 039 -116 -02 020 -100 007 -69 049 067 099 -55 -05 -55 -20 -77 058 080 -51 -92 046 112 074 076 115 007 114 021 120 -26 045 -57 103 -66 -35 -59 -19 -30 -13 002 -14 068 052 096 086 031 -48 -15 
-52 002 126 -118 -94 108 102 085 -87 103 013 -78 -97 -46 036 -101 -12 023 -107 -73 101 -64 -48 -37 -60 -94 -31 009 -121 -108 072 004 -93 018 -52 -111 060 059 -42 020 118 -21 111 -97 072 -09 065 031 -12 -95 -27 017 -70 -25 -118 042 097 058 095 -119 098 004 -26 -45 
-120 088 110 -115 -64 -17 -17 -123 044 062 -60 041 -79 106 034 -86 -114 046 -32 037 054 046 -45 007 081 120 038 067 017 -41 093 084 100 -27 -38 012 -100 -107 085 086 -05 -15 -114 103 012 -46 108 -85 -45 -28 123 116 116 -118 090 -99 007 -93 050 016 021 -107 037 015 
025 031 086 104 110 -84 060 075 -69 064 003 -47 029 116 003 006 -25 -37 113 -47 -86 -04 -05 -14 038 -58 125 -38 -119 113 087 -39 053 031 111 -74 042 089 101 -112 -29 073 -11 -41 082 044 057 038 106 022 020 -109 -107 054 -101 -89 -86 -32 -11 -09 110 079 024 -21 
065 -72 039 026 -47 116 -03 -79 -128 077 105 050 018 035 069 036 068 089 052 053 047 -108 124 001 036 043 007 118 064 073 052 -19 -123 -62 -41 088 -60 -55 031 034 002 -94 016 029 105 033 047 -57 -80 -23 -102 -93 -37 005 -110 -79 095 -34 078 -39 -44 038 -68 -42 
030 -71 -127 074 044 041 -71 060 081 -13 014 -97 103 -03 -45 028 -69 -19 -05 -69 -09 -51 -122 050 -56 -19 -30 -08 104 075 -85 -82 053 054 098 039 -87 -64 -67 -66 -28 074 071 -58 109 -65 -127 124 109 061 097 107 116 -57 011 -11 041 -72 -72 045 028 087 -33 040 
-92 038 094 -77 031 -105 -27 024 -124 043 -122 077 -38 -128 -113 004 -63 -78 -09 -84 014 -41 -92 -09 113 -124 001 106 -105 -14 002 063 -114 -02 121 -29 -58 023 -12 -30 038 094 071 -40 -85 -101 -47 -79 074 -33 069 -19 -100 -122 090 -88 095 062 115 098 026 121 069 022 
002 008 124 -55 043 -53 -128 -14 -121 078 -50 -42 061 -121 058 074 -18 106 -104 040 123 -66 095 061 -03 -109 -67 -88 061 096 -15 -19 -92 107 -118 -65 018 -11 125 -24 068 -14 042 035 063 -86 -110 -79 -118 -38 -49 -55 -41 -43 032 -128 012 -05 -105 034 -104 -113 -02 003 
087 -55 -35 -106 085 097 -84 -121 -05 -75 094 -102 -12 -94 073 -41 112 -69 012 066 -112 -02 -33 018 -78 083 -80 -65 054 123 -83 -121 058 -57 122 -38 -73 075 054 113 -128 042 025 000 -103 078 -25 117 -128 -25 -108 102 018 -09 -61 099 -76 -19 052 -33 032 -69 065 066 
066 -100 -57 -93 094 047 077 052 -46 019 -88 -11 -17 -128 -26 -16 117 105 017 030 -127 075 -38 -16 025 -98 -65 -95 016 007 001 122 -128 -122 -71 010 -88 -04 050 -80 035 -13 -114 054 -14 080 -27 -19 -102 -85 049 012 -125 -05 -86 107 122 -90 006 -111 103 -95 044 063 
109 015 126 -21 115 019 -50 -17 077 -109 -47 -06 037 -52 099 022 -21 043 -21 103 004 -52 -112 075 010 109 035 -02 -10 019 116 -39 -94 032 029 126 061 108 -125 110 089 -106 079 -119 078 012 072 010 -33 -03 062 -81 -73 059 -07 005 100 -56 000 -121 066 -50 079 058 
-94 093 -104 016 112 080 -46 -106 058 119 -17 -07 041 -33 005 022 063 090 -92 -100 030 -22 089 030 001 -83 -25 -76 -64 -32 -10 -55 -02 084 -23 -56 -57 022 108 075 -40 -87 005 -88 -86 044 -106 -89 -87 -92 -76 055 -115 087 -38 011 117 -46 -89 -06 -91 -113 099 048 
-62 023 010 045 036 -54 -23 075 053 023 -48 060 -111 064 122 074 003 -70 -18 097 -46 -79 -80 -12 -125 075 -126 029 -60 -17 077 -116 067 123 -91 -117 048 -73 079 015 -08 077 -25 -91 073 007 104 057 027 040 121 -27 096 036 -102 -113 -123 017 -54 099 -68 -10 -86 126 
034 -69 -12 -79 -124 -38 001 -68 -67 -75 -20 066 078 068 107 072 -21 -116 -92 028 112 -03 -74 -65 -114 -32 079 034 105 100 -02 057 062 080 -124 009 123 -87 -44 121 -95 -50 -04 -112 049 -118 -109 -54 -120 -36 -91 -01 -66 070 -89 -103 -34 080 -08 086 031 007 035 037 
019 -53 -101 -77 004 098 -107 -71 049 -86 087 113 -10 -22 -23 -106 -109 067 -54 -93 097 -21 -56 -82 087 -06 126 -119 -118 038 -09 045 -96 092 075 -48 -107 -27 -81 049 -127 -68 109 068 -33 -25 -28 112 -33 102 007 035 -106 -100 -77 -26 047 114 060 -89 -75 -05 009 -29 
093 101 031 -108 -51 113 -41 -41 -38 063 022 117 007 064 091 043 019 -85 080 030 -74 -21 097 -19 -125 -49 025 111 022 -44 090 -26 083 -84 -126 -13 -103 -37 -73 031 -98 073 -43 -55 124 103 061 -95 -108 115 -125 -66 -63 034 122 -94 -75 021 -23 -60 -102 111 008 -36 
074 113 049 -71 022 -86 023 010 -14 -04 116 -41 045 014 035 060 111 -07 006 -53 -105 -91 -24 -46 055 026 -10 040 -19 -95 056 -111 -127 112 -88 -36 035 080 -116 -14 061 -24 045 103 073 028 -44 102 -97 117 106 044 -80 013 -119 021 085 051 -93 -114 050 -119 064 059 
114 -57 121 -06 038 -38 110 -07 004 -87 010 121 -91 016 012 093 -47 065 125 085 -27 119 037 095 122 -73 -23 -89 -126 -55 -102 -108 073 025 123 053 066 -111 125 002 -103 126 124 -128 -47 092 050 -53 -57 -17 -112 -63 -28 -49 052 026 049 029 -77 041 -73 065 -49 -41 
007 -92 084 -115 089 -56 -119 -35 120 104 117 011 -127 115 024 111 -34 -122 041 -07 -03 003 066 -12 020 086 073 100 -10 -114 021 111 096 -57 -71 -12 035 003 -24 -61 084 121 -31 -123 019 -70 026 029 005 -69 -32 -15 091 068 034 -35 036 -22 030 114 -114 -109 055 055 
067 004 095 078 013 040 030 -118 125 002 -87 -112 -22 -52 -13 113 -21 -98 -09 -45 -108 034 084 022 -46 024 -09 -89 -01 079 113 015 003 033 -89 -123 -46 -92 081 -89 088 030 -95 071 104 -104 -09 049 -73 068 -23 -124 -108 089 106 094 123 102 067 -106 -26 -43 097 -50 
024 120 123 -109 -91 112 041 056 082 039 106 105 -31 051 085 -109 -12 -04 015 071 -11 071 -14 084 003 -81 107 -22 -98 056 -55 -116 101 004 068 -111 014 075 089 085 059 -82 011 018 063 024 071 094 086 063 050 -20 -14 -25 -66 -24 092 -12 051 -31 -26 112 -87 052 
-71 -37 -53 -61 -96 087 -42 023 109 029 041 110 082 014 -37 -11 012 -90 -47 -73 049 003 014 -115 041 057 -113 -122 -110 -04 018 -120 -116 -75 001 -85 -44 038 -02 -43 -83 041 069 084 018 -56 119 000 075 -78 -90 001 068 -42 016 -70 -125 079 085 027 -71 014 026 -22 
033 -94 104 -18 107 -67 -63 039 088 -20 -13 067 -11 -58 054 -94 060 126 053 -115 085 -87 028 050 -23 024 -55 -110 044 -102 069 045 -09 120 033 -97 015 -48 -01 029 012 074 -14 -38 096 100 -60 -69 085 -16 103 -128 -122 -15 074 043 077 -126 105 -31 -04 119 -100 -81 
060 114 016 098 030 -113 -19 111 -45 032 053 -60 011 095 -89 048 -01 030 -96 113 073 -77 -105 -22 -52 032 -06 011 120 -105 061 006 006 033 066 -127 -01 027 -27 096 002 -46 005 054 096 021 119 021 -54 064 052 -67 -108 -127 -120 024 107 -86 -17 -80 061 -29 007 -20 
016 026 060 091 057 -58 -76 004 -89 039 110 010 080 -36 005 -120 060 118 -101 012 -113 -41 090 -47 086 113 083 100 035 052 -72 096 064 -14 -28 -119 -21 -86 -96 -05 -76 -23 -34 112 -81 086 -75 -20 069 -17 -46 094 028 -64 -12 -114 065 -48 029 -46 -125 085 -46 085 
-77 -80 084 116 -13 019 -81 041 036 092 020 106 014 020 -110 038 073 015 052 038 -50 -16 -06 -102 117 036 -50 058 007 114 -30 084 049 093 -49 012 046 100 -70 068 089 -02 034 009 -117 059 048 039 109 049 -72 -06 -72 046 -79 -09 057 -67 085 -78 -96 -19 -119 -107 
-64 -93 075 032 074 -08 046 036 024 080 060 -48 014 -67 -57 -01 107 -94 036 075 -107 -26 -71 -111 026 -32 110 -62 058 090 -101 041 117 106 072 -114 075 023 067 -16 -36 050 100 -41 010 000 001 -09 -112 -39 095 -40 121 -102 092 045 -04 -33 -39 -62 -58 -09 031 -35 
-79 024 024 -112 -78 -53 -87 -52 -18 055 -16 023 005 -04 079 -18 033 028 -86 048 078 -57 028 008 -88 076 -68 080 054 068 109 052 -86 -124 067 -109 099 001 001 020 -101 -49 054 077 076 008 -122 023 -58 -64 -05 038 -121 041 033 -28 055 012 086 079 070 -70 -03 078 
026 -30 -24 089 074 -88 015 066 -85 -43 -15 123 021 024 -108 -95 -03 114 097 113 -118 123 -14 -12 -25 041 -54 -28 117 017 -16 052 018 -56 -63 036 096 003 026 015 035 -32 052 -19 020 025 048 068 059 -11 055 018 088 -71 -71 036 093 -14 -25 087 027 046 -56 -01 
086 -73 -27 066 000 027 033 077 086 116 049 068 059 -114 -69 100 -115 -13 112 109 -106 -69 053 002 -110 -99 -109 -31 019 -123 -86 -04 -79 067 026 -10 060 -118 111 115 -42 -117 079 -12 -31 -125 -32 -08 088 -96 070 -109 -77 -67 -95 -24 -34 -74 -72 -95 100 -79 086 -100 
-53 014 -53 -83 -38 -125 114 096 -10 -32 -106 025 082 -110 027 012 -122 086 019 -04 040 -71 058 -57 093 -24 -68 -10 -35 -38 043 006 -112 -77 010 -01 -14 -56 -64 112 078 -18 118 -74 -43 121 -123 063 -25 -01 -119 074 -73 -30 021 -65 010 -80 -06 -04 -79 071 -11 -01 
-86 -12 -25 -111 005 122 -57 044 -09 080 059 114 124 -84 045 082 006 -20 -15 052 121 -24 -12 037 018 -105 -71 052 -105 -118 073 -115 096 -15 -49 -113 -100 055 014 -90 -81 -86 089 -112 -43 -46 041 -87 073 016 -115 071 108 -24 -110 031 -107 050 -111 089 111 -92 120 -26 
-42 -66 -53 -31 -118 -01 067 068 -50 117 063 094 -121 -125 037 -84 -109 -109 -111 101 057 025 057 046 -54 -88 -95 075 096 -56 004 012 -10 -38 071 -10 011 -59 084 -01 053 010 063 111 007 105 095 -112 056 -86 084 -56 -32 010 056 076 040 110 007 -38 -84 063 -96 -100 
-56 -70 -60 -126 -36 047 041 -16 -12 066 115 -52 -99 -64 123 -43 -58 -31 064 123 -111 -122 023 007 -72 -110 -92 -43 001 -124 016 -100 022 105 -24 -101 -50 -09 000 017 091 030 077 039 042 -101 052 -14 -07 -69 -123 -46 082 071 107 -36 -54 -48 057 -04 057 -98 -92 121 
120 -23 025 053 020 106 -47 -14 008 061 -55 111 -03 081 073 -106 -82 -116 102 112 -26 -69 122 092 057 116 032 -29 -77 014 048 091 -31 -82 -98 -88 -126 036 -104 -90 021 125 119 -124 -94 029 050 -104 -95 -29 -05 -93 -21 -87 -120 -37 004 -01 087 103 -93 -44 -31 -18 
-42 080 005 005 014 084 006 -15 -122 112 009 -118 -47 -72 072 -92 -59 072 082 105 -29 077 082 -95 -56 036 -65 068 096 -22 015 046 -95 105 -73 044 -52 -29 -42 015 012 -13 -88 -118 -60 -42 103 -114 024 -90 117 -45 069 -63 -66 -42 048 -121 -75 101 -99 -21 -99 -42 
-126 -29 121 -70 028 041 -122 077 011 -61 043 -110 -34 -80 -62 107 033 -37 -64 -92 047 095 013 -74 -92 -122 -94 -50 115 033 114 098 029 006 017 -62 048 -77 -44 079 115 -113 119 110 -59 027 013 -23 028 107 -05 -26 -15 -27 -99 -93 109 039 021 -116 -111 -112 -38 -104 
023 -41 -61 -116 028 049 109 -55 -81 068 -65 -70 -35 -32 -25 015 -107 028 055 106 092 079 -116 022 071 057 003 052 062 -125 042 038 -05 072 095 -27 059 108 095 084 -119 053 -11 -72 -64 041 007 -74 -21 -70 -71 082 -69 -120 007 099 -45 067 -44 103 -126 100 025 -116 
049 021 018 -124 094 017 -67 -11 021 067 -63 037 -119 089 054 -77 -54 093 -69 014 -27 093 -92 -120 089 012 -91 -09 000 -122 -115 099 -125 -34 114 -94 -46 097 -65 074 085 074 054 037 -02 -91 -113 -108 -22 -48 089 -28 -55 041 001 -68 -76 -16 050 114 -28 104 -126 -23 
026 101 007 -45 006 023 049 011 036 058 -25 052 -114 032 038 -52 -64 -93 079 081 026 063 -50 004 -39 110 014 -50 058 -112 120 -39 110 025 -42 061 042 113 020 007 -15 118 106 016 092 071 -15 080 -02 001 -123 056 093 -86 036 -58 -117 -17 039 -108 -30 -57 001 082 
068 072 -46 021 -127 -03 049 106 073 124 039 048 028 -102 -04 -33 109 024 -104 -29 -85 -48 033 -47 -79 051 -12 083 -85 017 -10 -90 -66 054 013 -83 043 -80 041 -34 -04 097 006 065 016 -56 106 -08 073 -62 -126 -56 -09 -77 032 098 104 -32 -56 -115 105 114 -57 020 
023 090 -116 066 105 094 047 -58 -08 064 -18 017 048 107 -14 074 -14 -87 069 -119 111 107 -55 -03 -01 -31 048 -09 -122 -11 100 -54 038 123 040 -36 042 006 069 -99 -11 040 096 041 -58 -03 -62 051 098 -19 109 036 003 020 -77 092 063 -81 101 -63 110 123 -100 -35 
019 -46 -44 102 -46 124 042 -125 -48 084 -128 -20 -29 -07 017 110 -08 096 -107 111 106 -89 -68 -48 -123 -108 034 -66 004 049 -106 -29 002 -82 -44 038 -52 087 -113 -119 013 -14 -28 015 -76 -46 -03 100 -116 -93 -11 -37 068 -12 105 071 -28 -47 -120 -72 114 -57 013 002 
066 -30 -83 -75 -48 -05 060 -15 -58 020 -24 -61 105 032 117 -102 -63 -01 -41 -56 -93 007 125 -34 021 -88 104 066 -07 067 112 -95 047 -58 -11 -37 -79 -42 -27 -67 083 -44 104 026 -61 099 -13 022 111 -29 -48 -108 034 109 -66 020 114 -46 -114 -63 121 088 002 -34 
110 050 086 -30 081 -05 112 117 -121 -99 014 -18 001 104 027 -50 101 -42 -40 -39 088 014 -12 090 061 002 -32 101 -117 094 056 -04 023 -06 047 -89 002 093 -46 091 012 -52 -99 -54 041 -114 -35 -57 -58 090 032 -53 -06 -95 071 -71 -112 -104 -25 019 058 074 103 016 
030 -109 -03 -86 -79 015 -106 -115 -30 -67 082 -75 -42 056 024 002 -33 -128 -98 064 -33 025 027 038 -123 080 067 -11 -92 078 -25 -80 096 101 017 -79 -72 -83 -61 043 -68 118 -33 -44 124 056 008 099 108 -55 033 054 -62 064 -19 -107 -76 030 -78 090 -86 -07 022 094 
-20 -112 045 086 061 -72 077 -94 -88 047 -117 026 008 -29 080 086 -33 -92 052 091 -24 -08 -59 -84 -108 -85 -07 -59 011 -28 -64 070 070 058 026 -108 057 109 042 -07 -31 122 103 -71 -43 111 -59 078 -102 047 -43 -114 047 008 028 014 011 -19 114 072 022 -78 -73 -56 
005 126 020 056 -07 074 009 -36 004 037 046 024 -02 -128 -33 -122 -80 -70 -63 -55 121 121 090 083 -74 -50 -120 -10 -32 -07 001 045 -93 -52 -33 -08 123 -02 -98 113 066 002 009 049 -92 020 012 053 -47 -119 084 069 102 -113 -32 -28 086 015 056 -87 -23 -70 067 -86 
-11 -28 -65 048 108 001 -01 114 -56 030 053 026 -58 037 -44 019 048 116 026 -121 -10 -53 083 -73 -110 -106 -102 026 124 068 116 006 002 -40 -79 046 -22 -51 115 122 -95 122 024 -84 070 -120 026 -125 061 055 033 -32 -33 -05 002 -53 038 -23 -63 073 021 -103 062 -77 
-24 -58 -83 -79 -19 -31 -39 058 -56 -94 -110 098 -58 118 -109 005 079 007 016 -29 -118 013 078 -05 -91 122 013 000 -52 -37 024 -21 -56 111 -101 126 -33 -51 093 -38 -116 022 049 031 -118 -99 059 -57 117 025 010 -46 -73 -127 052 002 -119 -44 -71 -31 019 015 022 120 
094 -61 -90 -17 -78 070 -79 -99 -65 101 -79 067 092 072 -123 -24 -03 -58 -92 121 -109 030 096 -59 -51 062 -127 -91 -88 -97 -128 -09 097 022 -16 018 -89 -13 -86 -38 -30 105 -07 119 -51 036 076 -41 -10 093 -106 -128 -04 099 -06 -62 017 034 003 013 -72 -84 -88 -42 
-72 -52 -38 017 -102 072 -119 081 098 -26 097 -47 -69 -116 -27 -18 100 -49 -97 104 -81 083 104 033 -89 -42 023 007 039 -73 -99 -25 034 125 -03 -86 -22 -02 -94 -76 116 -79 -81 -23 -68 105 -31 092 -91 091 -56 -57 -19 015 118 071 -37 -101 -33 061 036 -86 -10 -57 
010 -78 -101 094 -23 -116 055 020 104 046 116 071 113 -87 029 104 099 -78 096 094 039 034 050 122 -83 -28 -13 053 091 -111 -02 -91 096 -37 028 -73 -69 057 080 -05 014 -60 082 112 017 -54 077 117 -53 -10 -04 -115 124 020 -18 -77 -04 013 -125 079 090 -121 -113 -72 
031 082 -85 -50 -38 045 -113 014 124 064 -61 047 091 022 -32 -52 010 -26 -51 -73 -62 -20 -41 -95 044 -06 -98 -86 119 074 -102 115 116 012 014 -124 108 116 088 062 086 038 027 -39 008 069 -51 058 -88 -70 046 124 -96 010 055 073 -28 -78 -47 -33 -54 008 -03 061 
-26 -91 -82 -77 114 076 -78 -69 093 -48 055 -97 040 -59 013 -125 -35 065 025 044 -73 039 -21 -38 -16 107 013 043 020 -101 096 036 -12 -22 042 -98 -51 064 003 -60 058 101 -106 003 -105 099 -120 -24 -50 068 020 -39 041 -22 -71 108 -115 -89 116 -97 026 -53 096 -81 
025 018 098 -109 014 -120 -07 017 -115 -67 -45 -118 -90 -50 104 117 117 -92 -86 105 -73 -65 102 -01 116 013 -92 -104 -54 042 025 002 126 -102 -56 -06 -111 035 -101 -126 020 -99 119 -103 017 003 027 011 -122 -79 -65 -118 -08 -64 -94 -09 070 -124 017 021 -45 076 -76 -58 
058 -73 079 063 -99 073 -107 -15 063 -123 026 -77 079 -16 045 -42 -59 007 -31 008 107 042 060 -122 -52 066 -10 -34 -50 036 109 -14 -45 -47 -95 -76 -102 -02 121 -119 006 098 -57 061 032 020 -41 -62 -102 011 -37 -56 -14 078 -121 -126 -115 -16 -126 -109 032 -09 013 019 
-122 109 -43 104 -66 -30 -105 -100 -97 -61 -48 -90 -95 006 089 -76 -105 034 -68 115 038 -53 -49 002 -09 -83 -64 112 071 120 -81 -88 -20 115 110 062 -37 -35 -16 000 019 -40 -82 007 124 059 067 075 -07 -121 045 091 023 -35 082 -81 -51 085 041 003 075 -75 -18 019 
-111 -96 -103 -41 024 -103 110 017 -13 126 077 -104 085 070 010 103 -100 -23 051 -81 -29 -12 118 042 048 008 -93 -39 086 008 053 -32 024 -128 -83 009 028 105 -44 -29 096 -86 097 062 -55 096 125 -52 -112 096 019 -17 058 058 -01 -12 053 053 -127 -106 013 040 096 028 
-35 094 -50 005 108 -12 -128 074 -11 029 072 068 -111 -16 126 063 091 084 108 092 045 029 021 066 -55 -113 -117 061 -87 018 -09 -52 -97 -104 -81 -81 -105 014 -90 -17 -114 102 -124 -119 -79 -62 009 050 -92 076 077 -21 -58 -01 -37 -53 -28 -123 020 -18 -78 068 -119 -81 
029 -128 -04 078 -51 038 -42 033 011 044 046 089 -52 072 124 -33 -18 -54 -124 -99 -37 085 033 085 -67 -119 121 035 -21 -46 -100 105 -25 122 -121 085 -109 017 072 089 010 -124 -41 -94 009 018 044 -100 076 066 089 119 -127 -80 -69 -10 -34 097 -102 -28 -57 116 -56 119 
094 016 064 022 105 -47 -26 086 -43 044 -60 121 020 -91 082 -112 029 083 037 075 -104 -35 -67 -39 -31 077 -84 -29 -112 -106 -124 -22 -46 -114 -71 -44 -55 -93 -108 005 048 -89 016 121 070 000 -127 -31 -123 -33 056 -54 -89 054 -58 -50 033 -126 085 -32 045 080 -46 -57 
100 015 100 -36 -104 -67 071 -79 -45 092 093 -78 -101 065 -76 -107 117 -120 124 -51 -118 -73 022 -105 -75 -56 -89 -01 100 -121 -120 055 078 -94 025 -87 012 034 -22 -14 -38 033 -85 -47 037 -119 -104 -02 -35 -55 099 -65 -116 115 -118 013 -127 068 123 -38 -83 -56 -77 -22 
-75 -127 -06 042 043 -113 063 -71 -124 -100 -103 075 -08 021 064 071 037 047 064 084 -84 066 -70 -15 -74 -124 016 090 035 -111 126 -75 -104 009 001 036 042 018 -46 126 016 -94 124 -01 -121 -115 042 -81 004 031 -60 -30 -48 -92 015 -112 059 -41 107 123 064 070 109 048 
-54 -86 -59 098 020 029 050 -46 -42 -51 -50 049 -09 002 032 092 012 -47 -127 -107 098 -31 071 062 027 109 098 -106 -107 116 030 068 076 -113 107 -40 -38 072 -44 -21 -10 -98 -94 -57 -08 049 102 011 062 029 059 -58 047 097 -98 -50 -99 -54 -67 101 -06 024 047 109 
-20 -32 -97 044 -112 -90 074 -03 024 -71 008 -97 033 057 -52 043 065 059 053 -77 -55 -70 102 -58 096 029 -49 114 -128 042 -21 -35 031 067 -76 -120 029 -38 041 -97 104 076 014 009 097 110 033 -115 -79 045 -117 -04 -64 071 -108 036 029 -19 099 048 045 -102 -41 073 
-25 084 -91 051 085 114 056 083 092 -125 -68 -42 082 037 102 013 -09 000 -93 007 032 -81 -40 -101 -20 074 -27 044 -109 034 -57 -68 -51 -94 096 035 066 -59 -78 043 -124 061 010 116 030 111 -03 -78 118 029 033 047 042 079 074 110 -46 057 049 -108 -33 034 -97 024 
023 080 107 -55 -34 060 108 -91 -42 -104 124 034 044 083 -123 103 054 -82 087 005 078 107 027 116 091 039 -18 095 -96 -128 -43 -119 -31 -08 090 048 050 011 -66 122 -68 -28 057 113 -22 -120 077 037 -77 -17 -84 009 104 080 -113 -82 124 083 -54 -76 -38 -72 091 -114 
104 022 -27 -92 039 -61 050 -67 -83 -21 072 114 -41 008 -116 076 -01 082 -106 036 048 016 -119 -51 -93 054 -30 050 046 -37 014 016 070 058 119 002 033 -113 056 037 -81 -66 062 032 055 056 085 021 048 038 029 -25 117 -124 085 096 -14 023 054 054 028 -07 086 032 
005 075 005 014 118 -27 -98 -82 105 -65 037 075 038 018 -122 -29 047 -20 -52 -36 -36 011 -02 122 042 080 -77 -50 029 004 057 -30 -14 059 084 -53 -18 107 -46 -117 119 -73 015 -27 -23 001 000 -91 -16 113 -71 005 000 033 020 047 -20 -63 009 -60 -53 -49 -04 -78 
026 112 059 120 -97 012 -118 -28 053 087 108 -49 -23 -95 084 -112 110 042 062 080 -23 -02 092 -97 020 -56 083 081 -66 067 -28 069 -17 070 -126 059 -76 -77 -30 109 -110 -107 -27 039 005 -90 -122 031 069 096 038 092 001 106 -54 -73 -14 037 051 055 069 -05 079 066 
037 -08 020 -50 -108 119 -118 084 -02 034 096 049 044 106 -60 067 060 -50 -41 -58 -32 011 058 -24 -06 -50 015 065 -63 073 -07 -89 070 -12 060 -125 -28 025 108 124 098 -24 050 055 -81 062 -59 067 077 -83 -76 -50 -04 -83 057 -115 -61 -82 -12 -46 -85 -67 034 -99 
-67 068 124 -110 -28 -105 -47 019 -125 119 083 071 116 -99 -64 -62 -89 -123 -18 013 -66 -52 120 -66 -12 -06 123 -22 056 009 -56 -20 055 -07 -70 -45 -61 -47 057 -14 032 049 014 078 -24 -63 -44 -59 -42 076 -111 033 013 -127 -66 107 056 118 091 -109 -19 058 -63 -42 
-53 -73 -64 057 081 074 097 -100 -92 016 085 004 018 -47 064 -122 -101 023 082 -49 062 085 026 113 -21 104 -81 -125 097 084 090 046 -38 022 -80 -109 117 -38 -61 008 -86 096 007 100 -10 111 -25 -04 012 -54 -70 034 033 -09 -12 061 -24 035 062 021 -88 -44 085 -119 
110 100 -110 107 032 -128 076 013 051 -03 078 106 001 054 -47 077 085 -63 -72 -71 095 085 120 016 -19 107 047 026 059 -10 061 126 075 -32 065 -53 -47 116 -26 -53 080 -94 -110 -07 028 105 088 -123 -29 -115 086 073 041 -07 -84 -116 -121 057 111 -124 078 050 089 103 
-94 -122 -34 069 -119 002 -100 069 -59 029 113 111 -65 -73 -81 018 097 -111 125 035 -110 -121 025 -18 -15 066 009 040 -89 -112 040 -57 -47 -28 -105 -109 020 100 -103 110 -99 -127 -97 075 020 -69 105 -114 -36 -114 -52 -05 -47 020 -49 -120 -37 -97 -123 -57 -63 -66 028 089 
063 030 002 004 080 -84 081 -120 -19 -36 094 066 -119 091 047 110 038 -15 -17 080 033 054 -64 053 063 -13 -01 -65 121 -31 -06 -116 -01 007 -30 105 090 104 -09 -107 -90 108 071 098 -24 -54 045 -107 038 062 -112 011 044 -46 093 -51 -44 057 077 004 124 119 001 -64 
038 -16 058 113 005 022 -19 031 019 037 071 084 -24 112 095 -76 044 -113 060 118 -18 -117 057 -108 -24 025 060 -75 007 -59 -67 104 114 120 105 119 -21 -104 002 024 053 -110 -110 096 -82 -83 045 -104 060 -26 -52 062 011 057 086 -112 -82 065 002 114 -07 060 034 -71 
-22 -45 108 093 093 092 082 -77 081 -26 -66 -34 062 -88 036 -114 -110 062 037 -50 -98 104 -65 104 077 -42 117 088 119 -123 087 071 -75 107 -33 -43 066 -39 -89 -77 -84 099 123 -50 -09 -105 -108 -09 -30 -96 115 -118 042 -124 033 -41 -92 -117 109 -106 088 067 077 -14 
-41 -88 -47 052 -76 044 086 -108 087 -98 -56 -87 -90 -107 -83 -03 120 106 071 018 015 -05 009 108 112 115 -76 002 -36 123 -10 097 095 -21 112 -22 051 -36 053 -69 -09 117 -41 -49 -69 092 -120 -75 -127 085 094 -79 119 065 080 102 103 -110 -116 049 -55 018 -16 116 
063 044 -39 087 -42 106 -24 013 -24 -98 -55 084 120 -34 -47 -28 107 -37 -119 -40 -19 047 -49 037 -103 -04 -41 -74 -34 -41 -71 095 000 -50 -11 070 -103 109 111 088 116 -05 -90 -102 091 -70 062 -119 041 -88 -110 -91 -106 042 -28 036 -18 -60 001 115 -46 104 -113 094 
011 -56 110 -70 -87 -62 001 -09 -43 -55 124 -84 027 060 -75 -15 106 088 103 089 012 -61 -30 027 025 119 037 107 110 051 025 036 044 -79 082 -46 118 101 008 -126 075 -92 057 -31 -115 086 -118 097 096 -44 093 058 -05 -31 -74 -88 119 077 -16 -70 -109 -101 039 -126 
-58 113 -02 -73 078 070 079 102 -121 006 -126 -24 013 002 072 -22 -60 068 047 -10 -70 -78 001 -34 -114 -120 -122 060 108 058 -68 025 057 -98 090 -36 061 036 -89 084 -46 -36 -05 124 111 -29 001 -85 057 042 -65 003 051 -56 -50 065 120 -76 033 -74 -88 040 -122 -83 
-93 010 048 038 114 021 024 -85 111 -03 -118 -03 070 -110 103 -99 027 090 038 013 -31 110 054 -126 047 038 -128 -49 074 -105 062 016 -10 044 118 -28 102 -57 -12 -21 -40 002 106 -58 031 047 033 103 029 -125 085 080 -78 058 -128 -41 -74 -73 104 063 -87 -100 084 028 
065 -98 -112 046 -43 -111 010 -33 014 064 084 095 -90 067 -23 102 089 -61 122 005 010 064 -01 100 -16 033 -79 -108 -104 105 123 018 006 -50 018 064 118 -42 -31 104 -18 029 043 -119 101 073 -69 096 125 046 099 112 050 122 056 -61 -91 -98 -108 018 -29 052 -78 018 
-35 -72 -104 064 005 047 -82 -105 -95 -90 100 -116 071 -37 056 -68 015 -73 088 -109 063 034 -117 068 055 100 022 093 -80 020 -109 -24 022 069 -56 041 -17 030 018 027 -104 030 -50 -08 -25 044 124 024 070 -111 039 002 064 019 044 -54 -33 051 009 021 -75 -70 057 124 
017 121 090 042 108 007 -07 -108 -37 -77 -126 -59 -114 -62 104 -124 026 058 093 069 -68 071 -116 -95 064 -69 -113 -115 -79 -14 052 099 087 054 -97 -49 -87 048 -85 -122 100 004 040 037 -63 040 -120 032 066 -119 080 093 001 -34 -95 056 023 -76 -114 021 -08 055 105 086 
-35 -05 097 081 120 067 -37 -105 -108 -99 074 012 -83 049 062 -62 -84 093 -76 -57 031 -39 022 085 034 101 -20 -18 058 019 -75 -23 099 055 -83 -42 -78 -81 074 113 -24 -58 094 010 -35 -40 -50 -106 051 062 -99 -117 036 -05 018 -128 -54 085 035 -81 079 -07 089 -59 
059 -06 -121 047 -27 096 109 064 -45 -86 -66 092 -124 -40 057 063 027 -32 068 -70 017 -30 029 -17 -68 -35 028 -120 -86 106 015 059 003 102 079 -85 007 003 -67 -104 006 037 026 015 -114 114 088 060 -110 086 010 -70 053 -44 -30 049 025 -77 046 -120 -11 -102 -33 -45 
006 006 -32 125 -42 -47 107 005 -23 048 -66 064 076 012 060 -94 035 101 059 -106 -86 026 -121 060 -127 -74 099 -72 057 063 022 056 115 -100 -40 -14 -58 -06 -11 106 -18 -107 -52 060 -117 061 054 -08 -53 012 -11 125 067 072 -73 -04 116 -102 060 -30 044 -52 -72 096 
037 007 -83 -80 085 010 073 009 -77 110 063 110 113 126 092 -91 -99 073 -35 -29 -54 004 -90 048 -19 -26 115 033 -83 073 -77 -60 120 111 -107 014 054 029 -111 063 -11 -128 004 -95 -97 053 088 -102 -01 098 -63 025 032 -20 -29 040 -84 -02 024 094 -91 -53 -116 008 
-42 004 078 099 022 113 069 -88 074 089 -112 015 -118 -105 -14 031 -31 006 -18 -37 019 -92 076 108 058 060 -41 031 -67 -67 124 -36 098 030 -101 102 -36 032 -22 089 -21 025 019 018 083 -11 -63 -55 058 076 -87 105 107 082 055 048 -29 -106 -43 -94 064 -74 -20 044 
-32 -112 111 -93 -122 -56 -87 -49 -70 104 -12 -34 105 057 080 124 121 037 -37 -64 026 -117 030 116 054 026 -55 079 059 -66 068 094 022 062 -25 -39 -46 021 -119 025 064 076 069 027 095 072 083 -64 052 109 -66 055 106 106 021 119 -44 025 037 069 -83 -89 -122 046 
074 -115 -92 039 -80 120 -127 -91 094 -125 066 000 -09 098 109 -13 068 073 034 -32 016 056 -09 106 -92 -74 -14 113 043 070 -63 -32 033 043 -70 -84 020 105 -59 122 -95 -54 027 120 -100 -78 -40 -96 120 086 059 -109 095 049 -09 -46 -62 012 -10 106 -101 117 093 -85 
043 -35 -117 -35 -40 109 -26 113 -53 -35 009 045 -91 088 026 090 -110 -81 -111 -117 -113 -127 -120 047 -128 -02 -123 -95 -76 -64 -18 -79 008 -102 -90 016 -94 114 -81 -75 -122 -119 059 050 -66 093 072 -33 -63 -88 060 -33 -66 -120 062 -44 -85 -05 -101 -115 070 124 -78 114 
-39 -18 -128 022 040 102 -42 095 027 033 -34 109 -41 117 087 045 073 -100 -118 -125 026 -75 -119 -90 -108 -24 043 -51 067 001 121 -116 -92 -79 -03 -88 -17 076 -09 047 -51 012 108 -115 -27 111 079 115 059 -108 093 -49 047 -110 -96 -53 -125 075 -87 -103 058 -57 071 034 
-74 -10 -71 120 -02 -39 -62 026 097 -45 -69 018 041 122 025 120 043 007 -10 021 -33 093 -25 -52 060 054 -42 -120 125 -66 035 -41 -117 -45 053 014 -109 -126 121 -37 083 -48 -38 020 099 -41 -09 -54 -62 -58 -88 098 -120 051 006 009 -110 -06 066 022 057 051 -55 -94 
-109 042 010 -43 093 091 052 -82 -88 072 055 -05 037 031 -86 -119 083 073 -126 -02 -72 084 124 088 111 013 -89 -99 -82 -114 -64 010 097 -24 101 -09 -17 -40 -102 -70 058 098 078 056 100 096 040 -25 050 111 -25 054 -95 -66 -95 -23 064 061 068 -47 -125 063 -52 -115 
-61 008 038 -123 -42 079 -25 085 -96 -81 -111 025 -127 099 -110 040 049 -114 -24 -68 -39 108 -72 -22 -96 -127 114 -68 -28 065 -89 114 037 -21 017 020 -79 -99 113 022 -26 -03 -125 -68 -102 108 -01 -97 028 125 -91 048 003 107 084 075 081 021 -108 095 121 -09 069 047 
053 118 102 113 -125 105 -95 -102 005 -42 072 -07 -42 059 -62 049 067 -101 -02 122 102 -82 -27 -77 044 -89 -57 -93 -100 123 118 -73 008 083 011 045 -01 -56 070 -126 086 094 -127 -84 021 101 025 015 -04 -103 004 032 -23 -107 -115 -69 -109 -03 103 031 003 -20 -27 -98 
117 050 -119 -121 118 -35 -118 110 -12 094 016 -126 077 -32 -56 068 -126 -105 033 -14 -117 -98 067 016 -61 -127 010 -91 002 -28 -17 065 -41 101 100 091 075 100 117 010 010 -116 030 079 046 119 -101 -75 074 -18 031 -120 -30 065 -83 033 -109 -34 077 071 123 080 104 037 
-15 006 018 036 -28 023 -95 102 009 072 027 -07 064 -12 -03 -105 005 045 -115 -74 -64 120 -102 -120 038 078 -48 079 114 030 -79 121 -30 101 049 024 090 012 068 -121 070 121 009 -90 -86 -77 -09 -66 101 -86 -87 -81 -33 -71 012 -127 114 -120 106 -61 -71 026 072 -06 
-05 -53 -57 -49 002 046 -112 -77 065 061 -13 022 -126 051 -84 -19 -03 035 108 032 120 116 -68 024 -28 085 -126 -48 -13 059 055 074 -30 059 042 106 091 099 034 -107 -08 -30 -71 096 090 -03 008 064 -29 113 062 -105 -29 058 048 -59 -01 067 -03 074 -17 035 -46 112 
-66 103 -05 051 107 -07 109 -77 -118 090 073 -111 033 -20 026 054 -77 -24 -44 081 -52 031 100 -65 040 104 114 054 -36 -119 -74 -18 -11 -66 074 054 -15 -54 -109 -54 067 105 -117 005 121 012 -77 -20 012 012 048 -13 -92 -123 046 024 -38 099 -60 044 -08 014 003 -23 
-61 085 092 020 022 -97 -118 083 075 083 -80 -58 099 -56 -102 -121 -83 064 -35 -01 -30 -125 087 080 032 -95 043 -38 100 -113 109 -01 044 -41 -91 095 -119 -22 -93 -106 -27 -90 -53 086 124 -122 014 -79 032 034 -125 -71 -04 027 065 031 126 -74 -39 -84 117 067 088 -33 
076 080 034 121 -04 -119 -09 -54 -125 -63 -01 -46 -46 079 084 -115 -94 -85 019 002 -06 020 -124 -73 089 -126 075 -36 -122 075 -21 -03 021 110 126 -79 -77 -78 006 -101 102 -54 103 085 003 -84 039 015 045 -107 123 126 -20 108 024 013 098 016 009 -52 104 -110 -50 -70 
084 -74 -99 049 -15 -91 006 -48 -53 -30 -07 037 -50 -119 087 -27 -26 -38 092 -78 -85 -10 -04 012 -04 087 036 118 098 035 123 120 -123 068 117 -59 -89 -112 -90 -18 120 -127 007 -123 110 -57 -10 -85 102 -94 -109 025 068 -37 052 -106 -102 103 074 -97 049 065 082 084 
073 020 -107 -66 100 -70 -74 -120 119 -91 006 -38 014 008 111 -121 030 -40 049 -106 102 -21 052 023 -78 009 043 -35 -54 -43 -25 100 035 105 011 -30 103 -102 -58 -126 -17 -82 064 -66 -117 -58 035 101 029 075 037 -127 -60 089 -99 -12 013 060 -09 -85 -43 -88 074 -106 
-73 124 -56 060 104 -82 -111 056 110 -33 098 067 048 017 024 -78 008 -108 -01 -125 -51 -115 -97 091 -33 065 126 -60 -90 -124 054 045 104 -12 -11 -104 058 -53 017 000 062 102 078 119 -38 035 080 -96 036 021 -42 116 -110 106 -51 066 -27 037 052 -70 126 063 -32 116 
-82 -122 -124 070 -127 -72 -70 117 087 -66 015 092 117 112 -01 -13 -50 -100 020 098 035 041 055 070 -107 022 018 -124 122 -47 -27 -03 096 -05 -38 116 101 -04 100 120 079 -63 -48 020 -107 033 -15 073 -91 011 -103 100 078 -70 -93 122 123 048 034 078 -25 -115 -98 091 
064 -31 034 -75 -73 -74 -27 126 051 089 087 -18 -25 046 -85 -35 101 -92 -46 -59 010 -117 -72 -99 101 -74 -37 028 -38 -47 023 123 -20 -96 062 018 024 -73 -26 019 -108 -50 033 -73 121 112 -111 -19 -20 107 113 066 -09 -71 -81 007 -56 -59 -48 -89 021 -59 057 -115 
100 -55 034 001 -67 015 032 -69 006 115 084 013 -122 010 059 -117 083 -125 008 -100 120 117 125 -70 040 -18 -29 -85 -44 -17 088 087 121 068 005 098 -128 050 065 -47 037 048 -13 -16 -67 -48 -110 -06 111 102 -95 -59 -107 088 100 094 -20 082 005 044 -123 -24 -114 058 
115 067 -122 -126 -115 -104 -104 -05 -15 -74 -89 -62 118 -125 -94 118 -09 -103 094 050 032 034 072 -37 035 109 -96 -81 016 074 -21 086 -24 020 -48 068 -95 -116 -08 119 003 -05 125 025 051 -113 041 013 090 -125 -02 -101 -19 -50 -107 025 100 065 -02 -57 068 -33 051 065 
-73 003 014 -73 -112 -13 -85 069 -68 076 -124 125 097 -34 -13 -20 070 -110 038 -123 -13 075 068 067 -70 025 -69 065 -25 -51 046 006 110 000 041 -07 -105 -36 -100 -122 115 105 006 -125 -85 091 -74 -41 -43 -53 037 -59 079 -118 074 038 -41 048 051 048 -122 -106 117 091 
013 065 -58 -47 065 -89 026 -12 075 -97 -127 044 -24 036 -02 -64 065 118 -52 016 -77 035 041 -69 088 -100 084 082 057 -79 -37 -119 021 004 037 011 -05 016 -66 005 072 -112 -53 072 093 126 088 064 -103 -70 001 -118 112 -23 -80 115 -46 -87 005 -39 -21 -27 109 -14 
-37 098 -94 -05 -33 076 019 -39 -80 -37 -53 -80 -39 -12 -42 101 084 -37 -21 -03 112 053 090 079 -102 -72 -110 047 -04 110 086 030 058 -02 -41 -59 048 -49 -23 -09 008 -87 -15 -120 026 -13 -29 -103 -124 034 025 -25 -48 -107 079 -122 002 -17 019 074 019 -123 028 070 
-24 023 -125 013 -115 022 057 012 005 -24 -127 -24 -72 -85 022 091 108 061 089 048 023 027 -87 074 -25 -56 -32 079 028 -18 096 -35 072 -45 -127 054 -103 -18 -08 024 -27 -98 008 -103 087 -95 -100 124 036 -96 -77 -15 025 -77 074 054 -36 115 -116 -117 057 007 004 056 
024 -78 052 -04 002 -95 103 -100 057 -81 066 -51 052 093 000 -110 -74 -40 -34 048 118 -91 -18 063 -76 -127 -28 099 062 031 073 122 009 075 027 -22 028 -31 065 097 -55 005 -14 090 036 -64 -48 056 114 078 052 -116 062 -65 -32 -06 077 -70 112 -40 105 -06 -89 -35 
007 -42 -24 -51 -36 032 -60 -38 083 -36 -40 054 -56 -32 039 -36 005 -19 060 028 057 123 104 -126 -07 097 011 -38 064 005 -114 -30 061 -125 -56 099 -73 -115 115 -83 076 106 015 048 091 102 -39 054 -88 091 -27 126 -64 124 -82 104 027 -104 -09 002 -51 094 017 -30 
-51 -103 019 -74 005 -25 073 087 -41 -71 -97 032 -58 -90 071 048 -74 088 065 -85 -83 -14 100 -51 027 000 -02 -122 036 118 018 -17 -51 087 029 034 -71 040 -116 040 -27 -101 046 -72 058 -83 -83 060 -103 -08 072 -97 -24 -10 -86 -39 119 057 -07 054 017 064 017 119 
068 107 082 051 026 -72 -33 068 -84 075 -98 -35 -121 -57 082 021 -34 -96 -19 -26 090 119 -95 016 -78 081 076 074 032 -121 073 -119 -92 -96 -47 125 -27 -95 -69 119 048 064 126 000 094 089 -67 -59 -08 -93 -31 050 -59 -46 070 -127 -104 116 -75 124 -88 088 -07 073 
-36 096 049 -124 092 066 083 114 -59 113 -90 053 123 -22 -51 030 -54 -12 -06 -107 009 053 124 -91 -22 107 058 043 -03 -27 -59 115 010 018 -93 -50 -66 -83 -96 -62 -92 007 005 -38 -26 -60 115 -121 109 -103 077 -69 -13 058 038 -19 -38 -88 -71 053 -65 -59 016 108 
065 -57 122 081 -100 109 -86 -56 066 -80 038 -58 107 056 060 -118 121 -26 055 088 -14 -94 002 -84 075 -98 -16 -91 097 -109 043 067 -75 039 099 027 022 126 -79 -57 -44 000 -25 -72 110 -19 -118 -115 012 118 089 -30 -113 -87 004 -72 038 -123 105 -95 -12 -120 -33 -04 
116 120 062 008 107 -59 -122 126 025 034 -88 -87 -07 -07 029 -07 056 006 051 -53 000 -119 -92 027 121 -73 039 -44 -68 -02 020 -21 -91 076 020 -55 -07 -05 072 001 -102 -104 -05 -74 072 -67 025 -55 051 027 024 009 -89 -59 -30 025 -90 -58 -02 -84 111 024 064 -12 
045 -72 -111 000 -06 022 -20 -04 126 -54 057 057 -04 -55 012 -20 015 077 -45 -24 -14 120 -08 069 -106 -121 -15 047 038 -82 -08 -116 066 -104 -25 -04 -116 -65 044 044 070 -55 001 046 -36 091 -27 095 -42 033 -118 -56 082 -102 083 014 -67 -55 004 111 -84 061 -96 -65 
032 -83 009 020 -49 057 060 -120 047 022 024 048 043 021 -05 -125 -70 122 085 001 076 019 116 -79 -94 -91 048 082 -20 028 -128 -72 -76 109 -23 -27 -75 -41 -79 029 -36 -53 -86 035 094 -29 -34 -26 -01 085 061 -51 062 057 -94 -32 -09 020 041 -34 094 096 -82 -50 
-43 -75 -74 -71 110 -88 -28 091 034 110 097 -90 -107 -17 -82 031 -45 -113 -45 -111 -06 067 062 -69 098 -13 104 -31 002 075 -114 119 038 099 089 073 125 087 011 -26 -57 -103 012 -62 063 002 018 -39 -25 016 -78 030 -39 029 115 -42 078 -29 020 126 -118 -19 088 106 
033 -103 082 -05 -94 -30 024 073 081 -60 -25 101 124 -118 057 047 -81 116 -107 081 063 013 -27 -21 112 115 -11 124 125 123 068 -65 109 072 -105 016 072 029 -35 -82 -77 078 031 -28 093 -86 059 074 031 124 -76 079 -86 -15 -05 -38 -118 094 -09 033 -66 -34 -112 -18 
087 026 118 079 -117 -106 045 035 058 -63 045 -114 032 073 114 -91 064 -110 070 -08 078 011 023 -39 039 070 060 -23 041 058 -27 116 023 027 -82 -16 011 -04 -16 -99 114 -111 021 -52 021 078 032 -82 -50 013 -92 -56 -29 -33 099 -124 -38 113 -31 020 -89 -35 -24 -105 
029 016 -111 012 -04 -20 -101 036 -54 111 -97 102 -24 -16 -42 -57 -49 049 -04 -97 034 -61 093 -106 -55 109 -12 -112 -68 091 -60 -98 021 -114 025 093 006 046 -119 091 -20 -31 -24 -62 077 124 023 003 -91 029 092 022 -52 091 -122 -35 -68 -15 094 112 -119 -52 061 -73 
112 032 053 -03 -105 -41 -82 113 -96 -87 037 106 -21 101 118 -75 -114 123 -10 -28 061 -68 -44 -18 -40 -107 -116 091 -20 047 -115 065 056 -100 073 072 064 017 -31 -36 -19 086 -41 046 013 -106 -84 021 -31 -50 003 059 -47 -02 -09 -117 125 066 -67 105 024 -10 -100 087 
021 -26 003 121 -101 063 057 -128 063 096 015 080 041 -64 -113 067 -115 080 119 119 035 121 -73 013 009 108 041 081 -112 -22 068 -84 040 -67 046 071 -68 -99 -114 -75 099 092 -76 000 012 096 121 031 -19 121 095 048 -114 038 073 037 -114 -100 -30 -87 074 109 -20 015 
-33 -37 110 107 -104 039 -19 -49 002 059 015 116 -77 -13 -06 -128 123 063 091 -115 011 -119 -106 043 059 088 106 121 -111 -44 -19 025 093 010 -36 055 075 -34 -82 020 119 061 069 111 -89 085 060 012 026 -115 026 111 039 -91 -102 029 -31 002 -09 -110 045 -53 -52 055 
063 -113 098 -73 025 -77 045 -56 026 085 -64 -04 -89 -54 -105 101 -99 034 080 -128 -79 017 088 -22 -96 -34 094 -64 025 -64 -94 004 031 061 -34 071 -55 095 086 025 -82 009 -122 119 -09 -36 -49 018 006 -03 022 -04 081 121 -36 -111 065 -86 -116 113 086 075 -22 -70 
065 106 063 007 059 -121 062 -109 068 116 -55 -82 029 -17 -76 -44 -108 047 -26 071 -80 -23 029 088 -101 -38 088 029 -31 -100 -90 078 095 -121 028 -31 090 -28 -77 005 -119 -90 028 095 072 052 053 099 -119 -36 005 055 -23 071 -39 068 -43 -119 116 114 109 -110 -45 042 
-49 087 -52 038 096 -39 -82 090 113 -44 -128 -107 -126 074 041 -07 -47 109 123 -88 051 065 116 -32 -38 046 082 123 -57 -89 063 -94 103 107 010 -19 088 -84 -26 044 082 -70 110 022 007 122 -02 024 077 -17 -109 026 047 -17 -110 -28 -101 052 -34 -62 -50 -20 042 -68 
040 -71 -21 056 -95 116 089 -22 038 080 070 -94 -60 -07 019 -09 -95 -101 009 074 083 -68 -59 -99 -116 -74 -53 -102 041 -128 -93 022 024 115 026 -123 068 038 069 -59 033 024 084 -103 -18 089 -14 -87 -41 -91 -113 -36 -45 -92 086 102 -03 -49 -88 -77 -38 077 -59 -16 
031 -10 -57 116 026 051 -91 -09 -32 -15 -54 113 110 -117 048 007 -45 -35 110 -111 -19 089 -64 033 024 -28 -72 -82 -101 098 -41 023 105 056 -50 113 076 125 021 077 -99 123 -69 -19 058 -13 059 -77 116 -82 121 -23 115 116 -70 080 -18 032 055 -07 089 006 043 112 
097 008 108 -24 014 -61 -104 -14 003 -10 021 -07 024 -119 -10 082 -46 011 000 103 048 -88 003 026 -14 054 -93 -100 004 118 -50 -60 -111 124 -91 -17 -83 -33 063 -125 -79 -108 083 -55 099 -69 110 -106 045 -35 068 -38 -79 004 -81 118 076 061 -110 076 078 108 011 069 
-52 -42 121 065 111 112 -11 -97 -92 -126 111 -82 -09 019 -42 010 073 096 001 008 -56 048 -60 069 071 -56 063 083 039 040 -97 012 -124 -38 080 -82 026 -107 -104 056 070 -10 -13 091 -13 055 094 -07 110 126 -112 067 -06 -46 041 092 -84 -63 -38 -43 -51 -49 -46 011 
087 000 -27 111 -113 110 -104 -48 -18 037 113 008 -59 096 -86 008 031 052 121 113 020 -110 085 -107 047 053 -106 097 031 -87 018 -78 -49 -108 119 -96 -110 125 024 -106 094 067 -79 003 064 -116 116 098 -82 -103 -16 -62 001 -127 040 057 -46 -10 064 011 -100 012 112 -56 
-104 112 053 -62 -31 007 -46 -28 -96 -70 023 -67 110 -90 119 -112 -57 -06 021 -46 024 -112 092 -42 060 048 -61 057 101 -21 072 -03 076 087 047 -60 -55 -11 044 -41 -31 112 -01 039 110 -26 118 -100 -103 086 002 -92 -73 019 -22 -34 -107 036 103 097 -103 075 -20 -79 
090 -62 103 000 -77 121 061 -99 -56 -47 -90 069 006 -62 035 -115 013 -91 071 121 -52 055 008 -111 -58 025 116 074 -78 -77 -04 -98 -33 -120 -95 -113 -90 -29 037 116 002 -65 103 -39 076 -18 -91 097 003 062 -104 061 -36 069 104 043 -55 -76 -51 -100 018 117 -84 -81 
-116 -16 -18 012 064 -49 -97 -31 -78 -05 059 -40 -84 092 112 087 -52 -38 007 -94 -22 105 -78 -125 -72 007 117 016 -67 041 079 046 -81 -28 -94 105 004 -68 -12 -77 005 -19 -40 -74 058 -127 054 026 -17 085 072 001 075 -26 -26 -40 -95 062 065 -53 104 -22 -72 -106 
091 -106 -81 048 -24 034 035 -56 -68 -102 -116 -71 115 118 124 -60 123 122 123 125 049 095 037 120 -16 090 107 -13 -127 -47 098 110 -95 -65 -24 -36 117 024 -28 -75 -45 124 115 000 -46 -25 -93 051 075 -87 094 009 -97 036 069 -06 -47 -62 -24 -108 031 098 067 -100 
-109 -78 089 105 003 003 -119 -102 -71 -54 041 -48 -51 -13 005 -08 -47 020 080 097 028 124 077 -79 -32 087 026 -08 099 062 -99 078 -47 -103 051 -53 -77 048 -20 -99 048 -85 -50 008 114 -111 -18 048 -46 116 046 095 091 -46 006 041 -110 -65 -112 107 -117 121 -125 022 
-08 -98 018 118 013 -54 -94 067 -46 -59 062 -122 110 073 -115 -07 -23 039 006 -05 001 -123 -34 -33 035 089 -67 027 -99 020 -39 -83 -81 092 -45 069 -110 -13 -99 -70 094 -74 -73 064 028 124 067 -40 027 001 032 024 -106 -108 051 080 107 -103 -25 068 -37 -55 106 -113 
026 -04 025 069 -31 064 -26 046 115 051 028 101 -70 027 018 -90 112 005 -103 -120 124 014 -96 -24 -47 -112 059 -95 -123 -44 014 -57 028 088 119 -113 038 102 -65 108 045 -86 085 -19 -86 022 093 056 000 114 -127 -58 006 -126 038 -20 -57 008 -33 126 027 -119 011 -56 
-104 096 -10 -39 097 069 -33 -29 -122 030 092 -57 -69 094 060 123 -26 -102 004 -69 -119 -109 057 -60 064 -26 099 099 -119 -52 063 113 -25 045 100 -102 -81 -113 -52 -44 007 -86 125 -51 073 090 035 095 066 -82 -58 -34 -53 -98 025 034 -08 -83 015 -118 -26 062 086 082 
-112 -34 -29 008 113 054 098 -73 -42 -124 -44 069 -83 -10 107 -54 -106 -42 116 092 007 022 023 125 -17 -90 -01 072 -38 -115 -128 091 -88 -42 036 -57 -60 111 -39 -108 -73 -06 -109 092 065 -23 -16 -118 -116 091 085 -95 076 069 102 -98 -79 016 075 -89 -126 -57 -03 036 
022 069 019 -02 -84 023 -44 027 -33 -17 -20 124 041 090 -72 096 -65 -81 -85 011 -27 008 -27 126 -57 125 052 -35 068 -29 100 -118 040 104 069 100 061 020 042 -66 -03 108 -116 048 -81 024 -94 009 101 -64 -86 086 -14 048 -117 -28 016 005 025 -72 119 045 -03 052 
107 073 022 -96 -99 -89 -33 -36 096 -23 125 024 -61 001 098 010 -38 022 097 043 -107 -60 090 056 110 063 081 099 047 -17 -31 -11 -72 -25 003 -45 008 103 050 -76 016 -35 097 027 053 023 066 -03 112 -23 -122 007 -23 -04 -122 058 035 -45 115 069 047 -20 -05 -124 
-71 118 -28 080 064 017 102 075 -45 -31 118 -54 033 010 -125 -115 036 -73 012 -45 -23 -92 079 099 -93 041 -118 055 -88 069 -103 125 -93 115 080 016 -101 083 028 086 024 -62 -108 038 119 036 015 051 047 -51 042 073 090 -73 050 024 038 025 -56 124 -11 -60 028 -98 
-16 -40 -84 -83 -117 -108 072 -68 -20 -45 048 058 -23 097 -20 063 -29 -61 -48 009 -44 003 115 071 -13 -106 016 -49 -70 -116 062 -99 -41 060 039 -108 -120 048 023 -78 -58 104 121 -28 034 -109 -75 -69 043 125 026 -89 -82 -95 070 070 -68 -19 -90 012 -18 -29 -12 086 
028 038 -52 049 007 -74 024 -51 049 122 -65 -116 -66 -92 004 -99 106 029 -32 -06 126 -30 -74 -10 114 -127 084 054 019 033 043 071 063 078 -79 -113 094 083 -24 -10 -92 126 037 042 -64 -38 -107 089 -106 107 -92 018 -24 -56 027 -104 -88 -120 -66 034 -100 052 031 043 
092 066 054 -102 052 115 024 040 -116 -25 035 -34 016 -99 121 112 -113 -98 062 -109 -106 -02 -66 004 125 014 027 035 -42 -109 051 031 037 081 -22 -107 -74 098 090 003 041 -29 -120 -24 004 020 -38 -36 -22 121 120 -04 046 -87 004 092 126 024 109 -68 -122 -07 -49 -87 
040 112 055 -83 037 -25 022 -09 099 -50 -99 -54 -103 052 036 057 -64 -93 033 117 022 066 -68 -32 -06 -07 091 -127 028 050 070 -17 -95 003 059 075 -53 076 -49 -98 065 096 002 -105 -04 -80 080 -123 -49 -69 072 034 -67 -68 047 -104 078 109 060 -97 -121 -48 -115 048 
115 -77 048 042 -123 025 117 058 083 012 047 002 -105 028 092 -98 099 050 -76 057 118 020 -37 063 -64 096 113 -127 -46 093 045 117 -103 -75 -09 -10 -73 014 081 -102 101 107 -11 121 -112 087 019 -112 107 -36 125 126 099 088 031 097 053 053 -78 104 -49 116 061 -123 
-26 010 -65 125 021 094 065 -02 -118 015 032 083 -28 026 028 085 056 021 -72 043 -113 -29 -73 -69 -95 007 064 108 -93 -120 041 059 -19 -57 086 035 055 -124 -16 097 067 096 -72 115 047 -11 038 -38 -36 -68 -80 047 100 071 092 -77 104 -90 -82 -37 -110 -86 -55 025 
034 -98 -32 065 -111 113 -79 107 -70 108 -30 018 109 012 -76 -82 -70 -93 120 -78 -50 -116 -34 114 -47 -84 109 125 125 -18 -02 085 080 071 124 -102 047 102 120 -101 117 058 012 105 082 -91 -57 101 024 -103 125 095 -104 -04 -28 -08 119 -73 -67 -20 020 036 006 097 
066 -76 121 079 120 074 117 -17 031 -59 -50 013 063 -50 -22 -40 -114 022 -03 098 009 -40 013 -29 -40 -62 -58 005 021 -17 -114 042 100 -114 114 -48 -104 -123 -03 -40 112 103 -31 058 097 -61 110 -50 -107 034 120 -09 084 058 -67 -29 -44 124 -23 -26 -45 -127 086 017 
-70 -69 -82 -47 003 -53 002 065 053 034 122 118 -66 -06 062 -83 110 -101 -50 -29 -64 013 -15 -107 -71 045 001 007 031 110 -91 021 -50 -22 -125 -76 117 -10 -111 -30 014 -16 111 -04 075 094 122 -05 052 088 -46 013 020 015 -46 014 -61 -26 -31 -35 -27 002 -28 -64 
-28 071 -15 -37 -40 -99 115 -29 083 095 101 -104 -121 -07 044 -24 -127 -46 -57 -49 119 -29 -85 -66 088 -64 -38 003 -108 -01 103 038 -66 056 058 092 117 -69 071 072 068 -112 -113 -25 -07 122 -11 -76 -101 -29 122 -103 092 041 088 023 -78 122 059 -123 -60 -36 041 082 
032 -102 -117 -122 -52 093 -09 067 -78 030 099 -101 077 -42 042 044 125 007 066 115 -115 030 -76 095 -76 -48 125 -60 115 -51 017 036 -55 084 -33 000 019 -85 042 097 095 -121 -17 056 -69 040 -119 084 015 -82 026 003 000 126 007 074 007 071 070 -48 096 098 -101 113 
-125 -29 -83 038 072 -95 -116 040 080 058 -80 -40 058 -54 022 -27 -99 -68 -112 -68 -65 057 -32 -58 -126 -79 050 093 -115 109 -20 052 066 -54 078 -107 -57 -50 -111 -121 091 -78 -71 -127 057 -90 005 -108 -08 -54 -58 -32 -14 029 -115 -78 -36 089 -50 074 -58 -117 -106 -32 
089 -66 002 087 082 -128 -07 115 -09 -68 -10 -12 106 014 -102 003 045 -72 -122 104 040 -36 -44 -02 042 003 -61 -92 -109 -23 -83 062 -88 -94 032 108 -08 -17 -77 065 079 062 112 003 -119 -122 -121 101 -66 103 -112 009 080 113 115 073 -104 042 -46 -36 073 123 090 054 
050 -27 -73 085 098 071 -48 071 118 -84 108 013 039 -50 041 002 043 -70 079 -39 024 078 -09 -74 057 -36 -53 015 077 -123 -18 -79 048 -17 -17 -102 018 005 032 -14 -14 -89 124 -47 -92 -37 -02 -67 008 023 -110 -81 -35 038 -35 010 009 059 096 071 017 107 -51 025 
087 -81 -21 -125 108 108 042 091 084 -74 -101 068 072 -126 -89 122 -101 104 003 -91 -33 088 -41 -28 -47 026 -93 056 -08 -68 064 -116 -112 -63 076 126 015 -34 064 -83 027 -76 010 -04 012 011 -98 087 -128 027 058 -120 080 -06 -87 045 -13 013 111 054 -94 -43 038 034 
-13 052 003 -29 -41 -95 004 -89 -49 064 066 028 123 -79 -38 009 -100 053 024 006 019 -20 110 -13 -10 -42 -53 -113 071 072 -62 109 -49 -72 -70 083 059 -47 012 -94 068 108 112 -104 083 -61 090 015 -59 049 -108 099 024 043 024 -97 -104 -62 070 -116 -40 126 -78 081 
-118 077 -74 -73 -80 043 009 -09 056 108 -113 062 -23 -106 026 082 123 107 -96 024 014 -128 029 115 091 -50 058 -03 029 038 -51 007 112 -14 -79 080 098 -72 088 109 094 -22 101 -31 085 107 -31 -93 123 -101 -14 026 -22 062 006 -27 -112 075 -66 -06 007 082 013 -18 
-06 -41 -116 092 -61 061 -53 -30 -11 038 074 094 -107 -34 126 -121 -58 108 104 025 106 044 051 042 064 037 -113 -18 -78 -106 067 089 -81 051 -93 124 -21 -110 086 -24 053 -75 -86 044 001 -45 018 -97 -98 -11 007 048 074 029 -100 004 -124 -80 030 -115 068 -82 -21 -12 
-04 -100 038 100 -109 092 005 -57 -71 087 -72 103 -11 -37 103 -97 -92 -51 011 101 113 042 -17 109 -66 047 -50 -125 -120 -34 -49 123 -30 -115 045 068 118 -66 110 -75 -06 -116 -97 073 061 092 -101 -120 -09 019 -53 -79 116 034 -07 125 -36 -72 -06 -114 064 019 -124 005 
026 -69 -118 080 044 -44 -104 035 112 111 -88 -40 -35 115 034 065 -93 -63 008 053 -60 045 -98 -37 -42 -128 068 069 -83 031 008 -95 089 -98 063 119 -117 -04 096 -67 108 044 097 087 -109 -23 031 011 109 021 -57 003 -108 063 -76 094 121 044 -16 -94 023 045 064 -14 
-19 028 -86 087 074 -123 -44 108 034 -68 113 039 -93 -125 -30 028 -36 -89 -83 -67 095 074 -20 003 122 -31 117 083 094 -56 065 -37 094 -82 -113 085 047 108 -107 -86 017 005 -48 068 -103 097 112 029 000 -104 052 -40 -41 036 -106 035 -32 005 -70 035 071 055 -105 010 
059 063 -41 068 099 004 -78 086 -114 -15 -107 055 -122 -99 114 -49 -101 104 -17 -85 014 019 -84 005 -29 -64 048 -105 040 024 -81 068 -38 107 -01 -15 -16 024 040 113 083 122 -51 -40 -37 -89 018 -28 000 095 -87 -85 029 -26 019 078 -126 -126 091 058 -91 064 087 065 
-97 -29 -60 -118 046 -49 005 -94 062 -78 024 025 -114 -94 083 -29 -24 -123 123 019 -19 -14 035 092 057 -117 122 067 093 -70 -113 -47 020 031 115 008 064 -121 042 031 -79 -01 -90 104 -14 046 -95 079 -20 -95 061 120 099 091 070 -90 029 013 -78 -124 028 017 031 083 
-15 016 -68 -56 -104 022 -50 -125 -29 -49 -116 054 -98 -61 -30 045 013 036 060 055 -59 -71 126 -111 030 -42 103 038 -84 -77 -120 093 -28 -28 -128 110 -51 055 014 090 -56 -05 047 -113 -111 -96 -96 096 042 -13 041 090 -74 -19 094 -115 -43 101 034 024 -103 079 -114 -27 
057 044 074 -61 026 -51 -82 -53 -87 112 025 092 -117 -81 -75 -72 032 -51 027 051 051 -90 -10 035 107 -50 -105 093 110 100 -94 -81 -78 062 004 -44 054 024 010 071 -89 050 003 -51 079 092 074 112 006 075 086 -70 -49 -26 113 -25 008 065 -38 -117 -27 -48 115 124 
-17 -112 -71 031 026 063 -50 -39 063 106 018 007 023 -122 -87 126 -70 048 019 057 060 -125 -87 -71 072 010 015 122 -125 069 073 014 008 -04 087 -90 -76 -31 016 -02 005 -85 107 -10 -85 102 -59 008 -96 -68 092 001 099 034 -03 -46 -103 110 -63 -16 093 -93 -18 103 
-42 040 -32 -74 026 -101 000 082 -02 067 -121 -02 -26 043 073 -112 035 002 -74 001 -100 -84 016 -73 -32 -127 -66 -84 -34 007 -47 055 031 -112 -06 019 -12 -87 -06 -123 -29 -66 124 -83 -94 116 -77 -95 039 049 -08 097 -93 087 098 -112 093 -103 -02 -115 -53 057 070 003 
-71 -17 011 -19 -40 -82 -97 087 006 -65 -31 -25 097 -103 -101 -92 -94 -26 -75 -69 109 112 -87 -50 039 -119 070 125 012 -67 064 084 -95 121 010 062 -117 035 -105 -94 112 -93 115 111 -83 -14 084 031 084 085 077 -37 107 114 013 018 033 012 -82 121 115 -112 -24 094 
089 -29 -126 076 076 046 -118 -93 -47 006 -28 -08 -64 -89 -65 002 057 077 -22 -107 125 -71 -37 -91 -93 -61 -77 074 -31 -20 055 060 -85 056 033 015 -60 078 -121 017 -47 021 -121 -31 015 -126 109 -54 059 -104 074 -05 -38 061 056 067 -12 -118 126 -46 -33 -23 -66 -98 
-50 020 -122 -18 -93 003 -19 062 035 063 -64 -44 -64 -119 117 -88 -128 -54 076 017 100 068 116 073 -25 -53 -35 -27 -113 -17 102 072 -97 062 -93 -10 -82 109 082 003 091 033 -35 114 -122 056 -122 -27 -85 -105 -58 -114 -63 -67 -38 101 -105 111 086 082 -18 -59 -06 020 
077 -07 -09 024 096 -35 -90 -01 -114 047 -102 -40 -61 111 -95 021 046 -81 -86 -104 077 043 084 027 -44 -49 -32 083 017 066 -85 -92 -113 -72 053 -21 072 100 124 -28 -109 123 113 -28 -112 109 -113 -87 122 -125 097 013 -12 103 -07 -83 -80 -07 -126 072 -39 121 015 087 
-60 107 -07 098 -127 024 -14 -91 -60 007 089 022 075 -17 107 122 081 -104 100 -114 -81 -15 006 080 064 -104 -40 -66 -90 103 105 053 085 085 -93 059 076 092 110 -04 040 097 -39 036 055 -71 086 126 046 -90 078 -38 -112 -91 -102 -04 082 -110 -85 -60 001 -32 -69 115 
113 067 101 034 -16 -79 004 102 -110 -31 010 -10 -30 050 -94 087 -95 113 007 124 065 005 070 063 110 -29 -88 106 -111 097 -40 -76 002 106 -95 042 082 -99 012 118 -116 -127 -107 -123 -96 013 -123 -55 027 116 098 002 -23 121 -11 -105 021 061 003 099 -27 031 -02 -72 
087 110 049 057 -73 086 105 098 125 060 -60 048 086 -36 -85 -121 067 055 -92 -06 001 -105 -06 085 -69 063 054 117 124 -10 -95 -12 053 -108 044 -11 -102 018 115 017 116 -54 056 -108 -126 -54 075 -124 096 -67 -106 094 -64 -28 -01 -101 122 027 015 072 076 060 081 041 
108 026 -60 -113 -07 006 -19 062 040 -74 -125 012 -07 030 118 112 -05 043 021 065 117 -10 -62 -116 -34 072 003 104 027 -50 078 -94 -14 068 032 -36 -58 099 007 030 -35 -21 074 079 023 089 -119 -100 102 048 -126 003 -128 115 -56 -30 123 012 124 041 -22 -101 -93 037 
-51 093 -104 122 012 075 083 -69 012 -81 -47 -28 057 036 -24 -12 014 -17 021 -39 -23 -40 -05 -20 037 094 -88 049 -126 -97 058 -73 073 001 -52 125 024 117 015 006 -119 022 122 -110 090 -62 075 -86 -24 033 029 063 094 113 010 058 -19 -73 016 -57 -02 126 -110 098 
005 -75 024 067 123 -49 -19 -77 -66 049 -07 -128 125 -73 -42 063 120 108 068 -77 -91 040 109 -82 -104 091 -127 040 054 015 109 -77 -23 065 -27 004 047 -63 -52 114 -114 033 -30 -33 -55 021 060 -16 -92 008 -127 -06 075 051 -91 109 -111 097 071 092 -91 030 109 -01 
071 102 122 031 -88 073 015 054 -125 -27 -35 111 -82 -29 023 122 -49 058 -11 111 -02 -88 108 -17 002 060 -78 037 043 -107 117 096 -54 101 -70 -88 -61 -13 -66 -56 048 -90 001 096 055 009 063 117 -62 052 107 030 -84 -59 111 100 003 058 -75 -87 -53 004 -101 021 
054 091 110 036 113 -50 -06 094 096 111 -80 016 068 -94 000 031 069 042 078 059 -64 069 -121 -67 -113 033 013 -128 -89 111 028 059 008 -94 063 124 030 -74 -52 -128 -104 -72 -75 -63 060 101 -58 -110 067 088 -120 126 -124 -34 115 096 -113 -124 126 096 073 -43 059 -47 
-97 094 -83 -107 -48 -51 -74 089 090 -80 -65 126 -14 036 -17 -47 -127 048 087 086 -55 -103 054 105 -98 093 -64 -31 045 -113 029 -71 108 018 -73 -09 047 028 029 014 -114 010 118 -46 -49 -111 102 -74 002 -35 108 061 -108 064 -43 -83 089 -103 118 100 -34 -86 -90 -35 
-49 -115 -114 -25 -42 -94 -23 016 002 088 019 -27 010 121 -105 -82 038 009 062 -101 064 107 -110 -80 077 074 085 003 -61 -105 -44 053 034 -101 043 -46 -36 023 -123 103 058 -33 078 032 -14 -91 032 032 060 -22 125 -98 -31 -96 -62 013 061 -06 035 007 -26 -04 110 -04 
-30 021 -94 -87 103 029 -06 087 032 102 066 -101 -28 071 085 -37 021 046 046 -92 -25 -39 029 037 051 002 100 021 -35 060 054 006 -41 -94 013 -48 002 030 010 110 -19 -77 -57 079 054 036 023 -15 064 084 069 -09 -30 -122 -124 062 -123 -43 039 078 053 -73 089 -51 
120 015 -82 016 -63 105 019 -55 100 -71 -105 -70 -84 -54 -97 -110 -28 014 -33 065 036 102 -10 -91 -83 064 110 048 018 056 -22 067 -54 -69 078 -95 063 020 -68 -105 -26 067 -59 -53 -42 -101 095 012 -62 075 083 116 -43 106 -92 -53 -60 116 117 -83 -62 125 -121 -68 
-18 -26 -123 -25 -68 -09 069 099 080 075 -45 -87 012 012 005 -54 126 122 -87 067 -68 -49 044 057 -30 094 063 -69 047 122 040 -18 027 -81 037 107 -49 117 -84 003 069 080 -111 -89 107 -72 087 -105 -41 097 -124 085 -35 035 053 035 -11 -102 068 -81 058 -121 094 081 
-37 065 -67 -78 060 125 096 047 113 074 089 -41 -81 -36 -32 122 -45 -61 -115 066 -94 037 -21 -82 117 -51 119 -35 -09 -48 126 -52 065 031 100 -75 -112 012 043 -88 074 -02 054 -52 -126 -110 124 -08 035 088 094 050 -93 078 -94 -31 120 -88 -43 049 -54 -101 -26 -96 
-73 -16 082 095 -75 -46 -32 055 102 121 -82 072 095 059 -75 031 004 -103 -42 -41 -91 054 -107 070 -59 -113 047 107 074 080 096 -29 012 094 001 109 -115 -54 -41 100 -98 -91 028 003 025 110 -14 -59 -64 000 052 007 -79 093 113 123 047 -98 -121 024 -22 113 126 -25 
098 -79 -09 030 -108 058 -61 -72 -100 -44 005 032 -13 029 -64 -09 109 001 -03 025 -125 010 100 005 097 094 069 040 -109 077 -93 -123 097 -98 005 017 080 -32 044 079 -68 050 -122 025 052 -103 -82 -48 -120 109 -06 084 -113 054 038 -75 -62 -126 082 -124 -26 012 -101 -51 
-45 -127 017 054 046 026 006 012 -58 085 041 -84 -47 -25 119 -32 -53 112 -14 122 -30 -100 045 -127 -105 117 027 -82 -110 -04 -42 121 -88 055 -18 066 -80 003 091 044 -49 058 -36 055 013 011 050 -94 060 011 -32 -07 -91 078 107 121 -11 045 -120 -25 -21 014 -50 005 
-111 -49 -58 062 010 034 -63 024 067 011 101 -10 122 113 -46 -85 -111 056 -110 099 006 -87 044 061 -56 091 -121 -66 -41 -26 -54 058 007 -36 -15 -54 095 -76 002 065 -05 063 119 -61 -59 018 -35 037 -66 008 -125 051 -92 -26 -82 046 039 -107 025 -42 079 -12 -99 113 
101 -12 060 -58 003 -126 -24 045 095 -27 055 -15 091 024 -51 099 -119 -27 011 123 -26 -30 006 096 -50 045 -64 -48 -22 069 051 001 -41 109 117 -45 075 -45 -116 -28 -82 -27 105 -06 -31 111 053 -84 -14 -124 126 -05 -81 077 073 -88 032 -117 -72 070 -58 -01 -76 -102 
107 -118 034 067 -75 -93 -123 067 117 -93 -118 -38 -02 097 -126 045 -102 039 043 -09 102 -37 056 -89 068 -87 -28 -05 -42 -15 -17 -53 059 -98 011 124 010 -109 076 004 -11 115 -104 037 -101 056 054 -122 -38 057 -42 -110 104 -73 126 117 -79 -66 -70 -41 -100 082 -18 123 
032 -73 126 -77 -106 100 071 -85 084 -124 -59 -93 040 -28 -122 -126 010 -19 -103 -01 -111 -94 -93 099 118 056 -94 -01 117 -67 084 -91 -81 -86 -70 -02 -125 -10 024 068 -33 -66 056 092 -78 -41 -111 104 018 -65 -111 -96 112 012 038 -89 -53 -60 -80 080 109 001 -56 -03 
-46 038 -112 -09 037 -118 071 103 108 023 -15 -04 067 062 -75 -34 071 047 -23 012 -125 -99 028 110 -86 114 113 -88 -03 109 049 -66 -109 001 102 -18 072 -15 042 061 -115 115 -28 -70 -54 098 -72 009 -20 114 -42 016 114 103 -17 -01 -117 -73 100 093 058 046 -09 077 
051 -100 -102 -105 -94 -95 111 054 027 -125 -105 027 -126 -54 -91 -26 -118 -15 -44 -126 -103 -56 -07 -75 -66 078 -90 053 033 -22 117 123 003 -112 020 -66 040 067 -50 023 -61 125 -32 116 023 -116 -56 084 004 -83 058 -36 -107 -121 -91 -124 060 000 -89 002 058 074 -21 -29 
-77 050 064 038 094 -85 025 -80 -23 025 -48 -90 010 024 014 046 -14 119 -64 103 011 -112 -63 009 109 -122 060 105 041 007 068 -82 -98 040 025 105 -126 109 075 044 114 -63 -23 -105 -22 -62 -119 030 -61 -118 013 106 111 -81 -44 -45 -51 -82 -106 036 -117 034 -06 075 
-12 -47 -13 059 -55 016 -49 -63 027 -39 -89 -116 111 -29 -15 100 069 -57 -74 017 044 070 095 -104 111 107 087 -116 -66 025 110 -66 -23 002 -15 091 121 003 -85 -45 -109 -122 -32 -96 026 118 093 -26 -108 -46 069 002 -89 -67 -107 056 -34 -30 085 037 038 -102 091 -68 
048 094 -101 116 107 109 021 088 -21 114 116 112 089 -14 -57 034 -110 -66 045 046 091 -75 -61 010 -90 033 109 -87 -01 094 103 096 103 -74 -71 -82 027 113 078 053 111 009 106 089 083 018 054 -55 120 026 -09 067 -75 012 -14 085 070 126 -100 -53 075 -32 048 080 
-75 -71 -104 -76 -64 004 083 -114 -92 -52 -121 054 -112 082 -109 -64 069 105 -77 054 062 021 109 -83 020 105 -09 027 115 -35 -30 032 116 088 059 -33 096 -66 -123 -88 014 -69 070 -17 -02 105 119 -22 101 125 122 103 037 -61 020 -63 -125 019 062 -91 118 -01 050 034 
-26 -102 035 099 -65 -36 117 -17 -50 -64 -91 -64 -13 080 035 -03 067 026 026 046 032 048 058 -84 -23 -46 -100 -18 019 054 084 071 -115 060 -94 016 -43 013 089 -21 -77 -32 020 016 088 -12 -14 058 025 -114 125 061 -17 122 -89 -27 058 -54 -11 100 -05 023 107 -66 
026 006 042 062 057 -42 -77 -112 -21 -28 -63 -93 -50 047 -74 064 075 -65 -04 082 -53 037 061 075 -123 -11 -98 067 111 -64 -125 062 -84 -10 -76 046 -78 -11 -95 -112 -106 -48 119 -67 046 038 118 083 -126 -110 103 -68 105 -95 052 -29 042 070 051 119 -41 -89 -01 118 
-74 -50 100 073 -127 -09 077 078 -52 -48 116 026 024 107 088 049 -103 -108 -15 -109 005 -06 -106 108 097 -08 -42 063 004 020 -127 106 063 -57 -43 025 -116 105 049 -82 -118 -37 079 125 120 115 084 -51 -51 068 -53 105 030 -56 -11 071 106 -51 100 002 064 -11 080 -39 
085 055 -56 041 087 046 029 045 068 -09 107 -84 -39 -88 069 -92 121 086 047 -51 -11 069 064 -94 058 124 065 064 -24 -65 -103 -08 123 -24 071 076 -11 -23 -116 075 -28 025 035 -08 -86 -106 061 105 056 101 -09 -114 -06 -31 068 110 080 001 -38 022 -12 -02 031 126 
068 107 -71 -111 -100 004 075 122 -93 -13 -46 048 -62 -70 -71 -08 -10 -49 028 124 -128 017 -44 122 -119 013 046 -89 -112 -102 032 009 063 -50 081 -09 -48 016 020 -65 -61 -50 008 107 -51 022 026 -45 -42 002 002 -43 -37 001 -113 -110 -65 -122 064 093 002 -58 -115 -88 
-64 -17 066 -28 076 -19 055 100 -57 114 -26 -119 -54 -52 -74 -23 -122 011 -46 052 -82 077 -29 -19 -62 -10 076 -99 -84 -126 -105 041 009 046 081 -37 -93 126 029 -123 -116 -23 072 -66 034 034 002 059 -96 027 076 -89 -01 -127 030 -124 117 -44 043 -105 -126 080 -54 -11 
-106 000 -34 103 -11 -67 053 -18 081 000 082 -06 -107 -61 047 -102 -69 011 053 -116 101 -39 016 055 -08 123 022 087 -19 009 -94 021 092 007 -92 -103 115 033 -71 -127 -21 077 109 -40 008 095 -51 -13 -85 -74 046 007 -124 118 -77 -125 -79 110 105 -125 117 -18 -43 058 
048 083 086 -44 -60 -100 117 -118 063 -127 -73 -22 031 036 -28 039 047 091 -103 -65 068 -125 079 -80 -86 012 -56 -109 024 071 -101 -32 -65 090 -64 -55 012 088 042 084 -13 076 -56 099 047 064 -08 073 -52 106 -107 020 -25 099 -80 -50 -34 -21 081 020 -09 -31 -65 096 
-77 -45 091 032 -86 -42 038 -87 077 -12 060 -120 -93 -80 -103 124 -91 -101 123 -33 -71 079 -54 041 -100 -117 -25 024 -78 -33 113 124 -95 020 -63 038 025 -27 -26 -101 108 -40 064 -65 009 -52 055 060 057 -31 -04 -109 102 -04 062 021 114 126 001 004 112 090 032 -85 
-31 041 -23 -118 -83 085 -20 -68 023 029 080 -76 046 077 054 -108 -74 020 037 -120 083 106 079 060 -94 121 071 -56 -89 -105 -85 -103 031 050 016 -08 081 087 036 073 117 -63 029 -59 -113 -26 -41 109 051 114 -42 074 -01 116 072 072 -23 119 -11 109 -47 056 014 -76 
021 -127 070 -71 046 025 102 113 038 012 092 -108 071 118 066 068 -63 076 -41 -81 081 042 -59 -45 080 049 -38 058 -79 -02 063 095 -25 -112 -112 -55 -82 104 -69 -95 099 038 071 053 -21 020 -85 -39 088 -122 049 110 -114 117 -59 091 002 -49 065 -64 -119 103 -03 -15 
007 092 018 -06 -58 011 -74 056 -18 087 -123 045 -13 -119 069 003 071 041 016 -117 031 080 095 048 066 -66 -89 009 033 -13 067 021 123 068 -120 092 -36 077 083 045 -26 107 080 -100 085 -18 -116 -24 124 -47 -114 -11 -06 -93 -53 030 115 -119 -02 -57 -76 -117 066 112 
042 -108 -54 112 081 -106 -112 096 -100 -36 116 106 -81 -84 078 -61 -71 -122 -51 -63 051 -123 038 -128 -25 -29 -123 -118 -118 017 052 -32 028 004 -08 115 -27 -97 050 -90 071 083 099 -57 056 052 063 -47 065 -09 028 -34 -68 101 -103 -61 -108 097 -89 038 -05 026 -97 -119 
053 007 101 039 -41 095 037 043 025 047 056 -06 001 -34 -98 -04 -20 -54 002 -112 -07 -13 -04 089 -80 015 051 098 030 105 004 -74 -38 062 -105 065 054 040 -41 -93 -87 013 024 074 096 002 -91 006 122 123 010 022 049 -55 -41 -120 -107 -67 -72 111 -23 109 -81 070 
-106 070 022 120 061 -66 -48 -107 064 -123 -86 089 -126 -93 025 -09 -40 -53 059 -56 -28 -79 -89 015 017 101 044 -02 -46 077 092 -124 -72 -28 -109 057 -53 -123 125 -80 -41 -39 -16 111 -99 024 -96 022 096 012 -87 039 032 -66 034 -113 047 094 -01 077 -30 052 -94 011 
007 -47 087 -47 052 -89 071 072 -11 -15 -108 042 -82 -66 089 053 002 072 003 095 000 072 -58 103 047 -09 -72 024 -39 -93 -79 032 -08 092 001 030 -31 058 107 048 072 094 084 124 096 -05 -27 -75 -89 111 093 -67 -53 -111 059 -75 -46 042 -55 023 -45 -99 -103 -02 
063 -88 110 -60 051 -99 -98 036 046 019 -10 010 -110 -95 121 100 -67 032 040 -55 -92 -32 082 -34 -104 -25 005 -73 002 029 018 066 054 -75 -78 -90 056 069 118 071 -77 -50 -56 -13 -48 065 -100 063 123 042 059 093 123 080 051 -24 -119 -123 116 007 -31 018 045 -39 
-40 -115 066 015 082 -33 -104 108 -100 046 007 -03 -110 -111 -88 -85 112 095 -19 -116 -123 -01 -32 050 -102 008 -99 102 -51 097 -62 -43 124 005 -125 040 124 -61 125 021 093 018 120 088 -93 109 108 115 014 013 117 102 -98 070 -32 -03 021 049 114 125 -87 056 -93 027 
020 -53 -69 035 -67 -34 120 065 115 -83 102 093 -105 081 104 029 -12 -82 -83 040 -98 -08 -48 116 -61 -105 002 104 -99 005 102 070 -66 118 058 -88 -96 -37 114 -126 -54 -126 -116 093 041 031 -26 -18 120 001 059 -115 066 085 069 055 106 -120 015 111 076 062 -31 088 
077 092 088 080 -14 125 020 086 -106 -40 054 126 -36 046 -01 -62 -84 070 -128 -37 046 -88 -34 -77 -108 114 -124 -97 -65 -55 083 -69 063 -113 020 -95 021 002 105 110 076 -124 -97 -118 013 006 -29 -123 -64 -119 060 -80 -118 -77 061 064 050 -30 063 -54 -90 -88 -97 028 
-118 -02 019 -23 -25 -104 -87 -27 083 -86 -09 -91 087 -91 032 -02 -87 107 -63 -52 -96 046 -86 -114 094 113 -79 -57 125 020 080 -127 -88 018 099 -30 -65 -92 -108 -55 -16 000 099 -48 -29 090 -60 -127 -120 117 025 073 084 098 -29 025 038 -56 -37 051 -47 -59 095 125 
028 -66 -81 077 -99 003 059 -33 -124 -40 044 072 004 -90 -03 -02 116 054 -127 -93 051 040 077 071 -113 052 097 -62 113 -29 010 -102 -29 086 087 014 -114 -36 -93 075 010 -71 086 070 101 093 -79 119 -107 015 010 000 101 -50 -32 -90 091 073 -118 007 -72 -74 -57 031 
-48 -16 -56 -94 023 -114 097 -56 059 092 -110 043 -127 -99 -73 087 110 -38 -97 114 -65 -72 050 072 092 017 -49 -56 074 -19 070 -12 -11 -112 078 073 086 -127 -82 078 -70 076 017 -106 -120 -54 -60 087 066 -46 -99 098 -70 -89 055 022 008 -113 118 -13 -47 -102 -47 096 
032 -94 040 -92 -46 016 106 -40 -53 046 027 033 020 051 063 074 -93 -28 043 -114 -115 -07 -08 015 -51 -91 -89 111 104 -92 -112 016 -06 -46 031 -108 013 -107 -56 -98 -79 068 -106 120 -46 113 057 085 102 089 056 -36 -82 -58 025 059 -64 107 030 070 -127 091 089 -59 
-32 057 095 089 -91 088 -119 082 043 053 005 036 003 -112 119 -12 034 -101 -75 092 060 003 124 -110 101 091 -27 041 -122 045 011 -38 -110 -30 -70 123 034 050 -43 009 087 -46 -03 -80 034 007 097 054 -77 039 038 054 -101 107 -106 120 -31 104 -43 085 -112 -112 -78 013 
-38 017 -81 -89 121 020 080 079 120 -27 003 024 014 -58 018 060 060 061 003 044 -50 013 -39 031 058 039 -100 005 -43 092 112 104 -03 -106 -33 -66 -10 -18 -30 081 -13 125 -47 102 -77 -60 014 -07 101 099 -01 035 083 -55 081 115 -114 120 -15 -22 -17 064 -107 103 
-124 090 -13 -33 055 005 111 -87 -87 083 -105 054 072 -55 -59 054 -35 095 040 114 060 -96 -119 -111 038 -116 -20 -79 105 -107 -48 -118 -45 -88 -115 -41 026 008 060 -68 -57 124 -100 -03 117 075 008 -59 124 066 107 103 040 079 -87 003 -117 039 -61 -04 054 -14 -12 -34 
-02 022 037 -96 064 -94 -101 -101 -95 -44 -126 003 -41 091 -122 115 073 -04 089 065 -58 026 082 096 -40 -126 -56 -69 -39 -106 069 -24 105 074 -28 098 -73 005 088 122 -112 -122 071 -122 059 -103 -74 -124 077 -121 096 -124 062 -76 072 -53 -01 -90 -104 -45 -04 -75 -62 -46 
-48 035 102 083 055 -112 059 -25 -64 083 032 -126 -99 -117 -09 -102 126 002 -06 -101 -94 043 092 118 064 007 -39 -11 056 -35 057 016 -30 -40 050 -70 -113 -124 063 030 -38 006 000 010 111 -115 100 012 125 -79 102 -116 -29 122 058 -15 -87 063 121 -63 089 -50 -71 011 
001 068 016 123 068 -78 -98 -44 107 050 -109 015 123 -50 -26 -128 022 -86 -103 -57 -24 -05 120 -24 006 045 -68 -99 004 123 002 -92 -14 049 -56 091 -92 082 -03 029 094 -36 -20 -109 054 094 009 -107 102 -48 -32 -74 080 102 -37 077 054 003 -75 064 083 -122 041 046 
094 005 -80 002 -111 -70 047 084 036 037 001 075 -127 -104 -62 018 -112 066 -62 102 088 032 -85 -49 000 -48 -118 -43 -60 126 109 037 084 -44 -128 -112 -28 -30 -100 -51 078 020 -43 003 -04 058 -36 079 046 -73 110 -69 -56 002 062 024 012 051 062 -91 089 006 -65 044 
-65 -48 117 -33 099 070 063 111 -04 -32 -77 100 -12 046 -73 -25 -74 104 -46 -68 -50 -93 -38 010 126 104 066 043 -79 082 -75 -101 -96 040 030 006 -80 -111 057 010 013 124 -17 -04 -82 -33 060 -18 -107 -64 102 075 -06 -123 -74 -30 090 -78 -24 045 -48 -108 -37 064 
037 -107 -34 -114 113 -21 004 -27 -72 058 029 014 -22 -07 065 -49 103 113 043 090 -55 051 118 -08 -116 041 -56 096 067 -18 -94 -80 044 -52 -119 121 011 039 108 087 -13 103 113 105 087 -70 062 -22 038 050 -86 -105 104 044 107 -50 125 -77 -50 -98 -47 057 126 035 
-44 -29 -96 -35 -51 068 017 109 092 046 -106 -01 125 -23 082 053 -05 039 003 076 -63 041 -62 070 -95 081 -71 -31 033 038 070 -48 -77 050 080 111 099 039 -25 -87 070 -90 -115 -114 -110 -58 -26 019 106 111 082 012 003 001 098 039 000 097 089 -108 094 052 072 -122 
036 -15 -99 -60 -05 125 029 -04 097 060 -65 -15 102 -88 055 102 -99 069 058 019 056 -72 069 -88 -105 -118 124 034 018 036 -49 122 100 053 083 -26 122 -123 064 -45 -38 119 068 -118 -83 -16 026 057 -122 075 119 -50 -02 -46 -91 084 -73 074 057 -39 037 030 095 116 
-80 -77 062 -03 082 -15 101 -75 105 -29 102 072 -122 024 015 010 017 -80 046 111 -29 -126 035 -88 -46 -100 -62 037 -70 115 095 095 -17 -120 -101 079 -101 001 -07 -27 110 012 -77 -14 126 059 124 -29 122 -10 036 -35 118 059 -30 081 -89 076 117 -72 063 069 011 -35 
066 -29 044 047 023 -107 044 -11 035 -56 -13 -04 -44 -67 -54 -94 -110 053 -113 -06 -70 -81 113 -88 -29 -70 -67 -08 088 000 044 -39 025 009 007 -113 080 109 -75 065 044 101 109 078 064 020 -118 -45 -114 -124 031 032 -07 105 037 -33 -19 -49 -39 -29 -122 002 -126 -85 
066 013 035 032 -17 -78 005 -70 -73 105 -25 -60 -32 -99 017 -51 -15 018 -95 089 -06 -86 -41 043 049 -52 044 -39 -116 096 -19 010 -56 -109 -110 001 034 -03 017 -45 125 -121 -80 -116 056 021 -96 -48 123 111 -48 -94 101 078 001 083 059 -51 -23 015 -119 013 036 -70 
-91 -96 047 106 -52 -38 -93 -15 -73 018 -82 -25 -58 -111 120 -120 -81 -47 -28 -05 040 -45 054 -17 -99 -20 103 -83 -105 018 -52 099 -74 009 -25 042 -07 109 -116 044 -20 041 106 -10 -82 -115 023 122 -81 079 015 123 -28 -51 -08 125 018 014 -103 -103 -108 -101 061 -90 
-112 068 124 -17 039 064 -42 081 -102 098 050 008 -118 -91 -02 -97 007 078 -22 -123 -71 -104 113 006 026 086 064 -31 041 -45 -104 -127 030 020 -106 -75 -37 044 -32 005 018 -74 005 -21 033 102 -02 -31 062 -101 -16 113 -102 083 012 -72 106 -03 -07 -78 062 053 029 011 
-26 099 013 123 000 -83 -15 102 085 -41 007 -30 067 118 -88 -28 -64 -40 -128 045 -45 104 -48 104 -39 060 048 -93 013 -13 115 -09 -25 -107 095 073 -109 071 076 -53 -81 014 098 -05 055 -78 -114 027 016 -75 081 073 085 124 -21 -50 104 -72 -90 061 -87 -07 107 -60 
-29 005 -48 010 -116 -70 104 118 050 -127 -123 -81 -103 -22 -90 032 -114 -98 -125 -127 -29 065 099 -09 099 -06 087 -52 -24 115 -123 015 -14 -126 -102 -49 -18 116 -33 087 -23 -88 019 103 074 096 101 -49 -111 014 -12 -117 120 018 043 045 -12 -15 -63 075 -102 -38 -99 074 
016 -71 077 -19 -109 030 -58 085 115 -97 -56 -29 -108 016 -12 -87 083 -88 046 070 125 069 046 024 031 066 091 -92 -65 -29 -89 113 -20 033 090 -99 077 -116 -84 -126 -100 117 018 055 -51 -117 -43 -104 041 096 018 -25 039 029 074 032 -03 -86 -63 070 -11 -37 040 -85 
078 085 -89 -110 -114 084 -90 062 -115 -09 -55 -05 014 -33 106 -120 041 121 -07 090 061 006 071 -99 -110 095 -118 121 -40 -107 115 -103 114 075 -115 025 036 -111 -107 029 -45 -43 -104 -76 -61 105 021 -87 -88 -69 000 009 126 -65 063 -61 084 077 -10 -22 -128 -79 112 025 
102 022 -37 062 -15 -35 105 004 -88 -57 -19 -74 -45 047 -122 -109 106 -12 -109 111 103 -126 015 085 059 -32 114 034 083 057 108 063 072 106 060 022 063 044 -31 -107 -115 -83 039 113 -88 074 098 -59 123 003 007 021 -29 -57 004 -47 012 -86 -20 015 -79 -68 089 -52 
-40 -62 -67 -95 036 104 092 -87 058 -22 -55 017 067 118 037 -120 -102 074 -81 -12 -105 -51 -84 013 062 035 092 -85 097 -70 -53 -55 -49 -01 025 030 048 -52 -63 -27 -87 094 097 -58 -33 -48 -54 -53 086 124 -50 -76 -17 060 -116 -06 -35 -63 012 -108 -109 002 -70 -25 
-09 -81 019 084 -07 058 042 082 018 -37 026 038 -36 -19 028 -40 -57 014 002 -28 -128 -113 -25 125 -25 011 -90 019 -123 019 -124 -98 -29 -85 045 039 -103 028 -41 -44 -100 051 -34 -40 -54 -128 -112 -10 -44 -83 -55 121 -04 000 062 105 -126 -34 126 -09 -44 -120 036 -02 
-100 085 -57 -117 011 -41 050 -52 -71 003 -94 077 -09 -09 072 015 -20 068 067 -45 -90 -05 047 -114 -81 084 -71 -48 -123 -92 046 -11 049 045 100 -64 028 086 103 -80 -120 055 -128 021 -84 029 -46 105 -69 -82 069 061 -92 018 080 043 060 -76 -98 -81 -103 015 -09 087 
-109 -97 102 047 -68 117 -20 057 091 -94 -21 -124 051 -45 -95 -86 011 -122 -65 028 046 -48 -88 055 -106 071 105 073 -84 -38 -53 -91 123 -44 -40 015 -120 -42 -115 -103 015 073 -01 -33 -110 -119 023 -28 020 108 -21 -90 070 114 -93 040 -86 035 -62 -103 002 016 -86 035 
-77 -119 075 096 113 049 -04 030 038 059 -103 -50 -92 030 115 -89 -47 -115 053 -21 101 -120 126 -38 -89 085 120 000 074 052 095 009 -63 113 025 103 048 019 053 -128 -62 -113 032 -116 -56 004 -121 -31 050 -43 -94 121 -27 090 -30 022 051 108 015 -66 096 -60 083 105 
021 -59 -108 028 028 -30 -70 032 106 -125 -62 -27 017 -54 -41 036 -110 -43 052 -76 067 -11 -27 -119 121 -48 -98 091 -16 -59 108 095 -45 050 -05 078 -07 -54 076 -112 109 092 -39 103 -93 -123 065 -01 -99 -34 077 -04 -79 120 -12 097 060 -82 024 -60 -57 -74 090 -103 
020 038 018 000 083 -96 107 013 112 001 053 -70 090 023 -13 013 123 -07 065 040 081 033 122 -17 -20 078 -59 020 089 -16 084 -24 080 -17 066 -127 -109 -56 008 119 -78 086 029 095 -22 -06 093 -48 -08 063 -122 -85 -65 -125 -82 -48 068 -41 -67 -73 -20 -74 -104 -48 
118 102 072 011 082 -17 -62 -01 -42 -93 -08 -29 003 066 031 -25 -08 117 076 030 117 -19 046 034 052 003 -02 -08 068 107 107 119 -31 055 -108 029 -63 000 -97 -56 007 -75 -82 016 -122 -108 056 045 002 -42 072 102 -07 -76 026 098 -69 093 -119 086 048 043 032 023 
065 090 086 068 -86 056 -68 -101 -51 009 055 -24 087 029 -20 -103 -118 -25 115 -08 -78 067 -92 -110 083 -14 077 040 -128 117 -85 111 -72 -110 -63 -86 068 -41 028 012 028 -50 -79 -14 116 -84 041 -23 -114 -105 -58 126 -72 012 -70 087 -23 111 053 -100 006 -26 054 -109 
-69 085 -76 106 -99 095 110 090 012 -63 -88 -65 016 046 -95 028 -46 -66 -48 050 110 -126 -16 -49 079 110 -05 015 041 -75 038 057 031 -23 -100 -16 088 001 -124 016 017 -64 -99 -84 017 -115 121 -35 -70 004 058 -62 -78 012 038 -78 -45 088 -64 116 015 030 120 -109 
-102 022 039 -60 -111 004 085 012 126 097 041 -24 -56 005 -52 -77 062 111 125 -118 -01 100 -72 065 -111 002 -121 -65 -120 109 030 045 -71 -62 086 013 009 -91 085 060 098 -33 -55 115 -72 -122 -72 054 028 113 034 -53 -36 072 089 -19 -116 -57 095 113 -110 021 -87 059 
-66 001 108 -50 069 047 -25 045 -92 085 -107 -12 -12 032 049 001 014 -04 001 -53 -60 047 026 -91 -26 007 032 -116 073 -92 050 -118 067 047 -92 086 004 096 -02 -84 -56 021 -16 -81 -27 -66 -59 -30 -102 -48 071 034 -44 012 -126 116 083 -25 -112 -114 030 116 000 058 
-34 -34 047 025 013 061 081 076 -58 -99 003 116 054 -43 109 082 -55 024 -79 074 -61 -49 037 038 -89 -121 -104 105 123 -46 110 012 009 -07 -28 109 106 -23 -118 069 -22 035 -48 -03 055 -56 007 -09 -33 004 -32 -84 064 090 -113 074 061 -103 -101 079 -42 054 -110 -44 
-04 068 -06 120 014 -81 -13 021 -02 -106 081 054 -51 -74 078 115 118 097 -01 -79 -112 063 004 022 068 -65 038 016 -110 -06 -69 091 -34 -84 098 -15 -118 -36 072 -84 003 069 051 097 -98 -95 -69 052 -22 091 -03 115 -59 003 082 -108 079 074 072 -111 -22 015 -107 -59 
-80 087 083 -64 -32 -88 -49 -122 067 012 109 -34 -67 031 050 049 -103 101 -86 103 078 -90 -66 -48 104 016 -122 -32 -52 126 -15 076 070 -106 053 -101 095 089 077 116 002 -02 074 -61 -63 -101 096 100 -19 -118 -35 -122 118 068 040 -57 032 -30 006 -77 -29 -108 030 110 
-92 119 -46 -114 073 -83 037 005 114 -34 118 -123 -50 -128 -60 -06 023 074 068 025 -35 035 045 052 047 014 109 -04 084 -60 -81 126 116 -57 034 -72 -43 040 -120 -41 092 051 -83 036 030 -95 -07 012 095 -46 013 076 -05 -36 099 071 -124 -114 122 003 -80 074 -29 112 
045 -112 060 -36 -119 111 -119 -32 -33 -75 -57 049 099 035 -120 -29 098 -28 072 -08 006 -38 -98 -86 032 -123 -96 -65 115 042 -28 096 -68 -107 -62 -111 -102 -100 111 082 -51 -67 -94 -73 113 -39 -87 083 -100 070 016 -36 111 047 -110 -16 -85 047 -62 048 -51 -55 -69 120 
-66 -70 112 055 111 -60 071 -09 048 078 -29 -44 -51 012 -46 077 -119 -128 -72 -16 018 -125 -51 -19 -116 -59 -45 -61 -68 078 117 013 123 049 037 -120 -25 -112 -67 -74 052 024 116 -65 077 080 -118 062 026 -75 -127 070 -19 -31 031 -90 -102 -21 -77 040 039 041 006 030 
118 107 -75 -109 -122 095 -79 104 025 003 086 030 -38 076 095 -74 076 -20 -24 064 106 095 125 096 111 -68 061 026 -105 014 102 -05 -33 -94 076 095 071 124 -49 -23 -29 123 096 046 056 059 -26 -59 042 081 -60 -18 -127 -11 -57 -57 -21 -05 -80 -40 084 -86 -57 -117 
003 -21 -94 -28 -91 -64 -20 089 -58 -79 -96 -30 -15 -121 -37 -63 017 013 008 085 066 107 103 -22 -28 056 119 -41 020 -124 -62 065 -124 -62 032 021 -75 -90 -04 114 114 059 111 103 -35 029 011 -07 -09 -25 -17 111 -62 021 050 -56 -79 067 107 -42 -37 -127 073 039 
043 -60 012 072 063 104 -123 -42 -10 098 -26 -91 100 032 079 119 007 091 024 092 -61 -119 009 -84 002 -48 022 -118 -83 -69 -61 118 077 -13 -41 051 085 -43 065 -111 -18 -55 036 -90 100 -56 116 125 099 -89 068 121 056 014 -18 067 -73 060 033 078 078 056 037 -31 
-11 085 021 110 031 -87 -24 071 -122 -15 -125 -93 -122 087 030 042 068 -05 016 -111 002 -121 075 -50 115 -20 114 -110 071 -43 077 -122 102 099 -15 092 -75 -56 046 -105 -65 070 109 -02 -34 -59 -65 -112 055 014 075 -76 045 004 120 -65 -100 121 -103 -01 -32 053 021 027 
007 113 117 -93 -105 -47 -22 -92 085 -82 -92 040 070 124 011 -97 -28 113 -32 -109 -116 -113 100 -119 -95 -37 046 -101 -122 -43 029 -32 102 -99 031 091 028 022 -24 -116 054 -20 120 -117 -92 -65 089 -21 -60 -102 -48 -97 -23 -31 036 124 -68 010 -58 -48 009 -45 -80 -124 
028 090 111 099 058 -92 016 072 001 045 105 058 -70 039 -118 117 036 074 -36 -100 -07 114 -21 -18 -10 020 065 -94 -119 -17 -52 -120 -128 -40 -54 089 067 013 -37 -106 019 029 -115 -106 036 061 046 -75 -03 -91 -90 -25 -117 -69 -98 -127 -55 046 120 089 090 025 072 -127 
008 -20 122 -57 -36 074 -83 000 -113 -87 102 105 -31 115 -19 013 -108 -97 126 -30 044 006 -115 046 018 -112 -55 -67 126 -105 -10 -72 006 -01 -92 092 -97 -03 026 -55 059 -50 -126 -99 046 -48 -125 -115 -52 095 040 -58 -93 078 092 007 -93 -67 -39 089 -127 -50 -99 -35 
039 -08 106 124 -38 058 -106 014 083 017 -20 001 052 -109 073 085 -37 -07 -56 080 088 -66 -99 005 025 093 011 018 031 -59 002 -105 -75 -98 084 -115 -87 077 113 -99 -28 -35 070 043 070 -50 034 069 010 -47 -109 -43 -78 -108 -64 015 122 -02 082 104 -92 113 071 -114 
-24 -82 -84 -107 051 119 022 017 118 -67 008 -35 090 -03 -119 -42 -67 -10 -104 -07 042 064 -121 025 076 099 032 -125 116 -79 104 024 016 -110 029 -80 004 -96 018 028 013 111 -114 018 -47 -88 054 050 -73 016 125 030 117 -10 039 106 119 014 -101 031 -04 045 -43 -06 
-117 -36 088 -98 -96 114 096 030 -100 -57 078 -08 049 008 -88 043 109 082 051 090 -99 -58 -67 -32 042 061 014 -88 -80 030 116 -16 078 -68 098 -87 -96 -105 047 027 005 -21 003 056 094 -113 027 017 118 015 -22 -69 -06 -32 008 055 -128 085 074 123 028 -20 056 -22 
090 -97 051 030 122 062 082 -102 -79 107 -17 -29 -79 104 093 -102 062 -104 033 -126 072 111 -116 072 051 032 043 -63 -104 103 -100 072 -128 058 042 -94 094 067 058 -13 -39 029 003 -99 -107 -52 -104 -55 070 -45 -108 -72 033 032 -111 056 120 -64 -86 -15 -127 049 038 -06 
-90 -40 059 -120 126 -53 -08 -60 094 -102 035 -123 014 -33 096 114 034 064 035 020 -30 -102 012 095 028 117 -59 111 012 -61 054 -29 -36 125 -83 -80 -122 -34 082 -91 078 013 028 -84 027 006 -54 -60 -51 012 003 -73 122 -15 -08 -119 015 -118 -10 089 -88 004 -84 -110 
113 -26 -111 121 -17 082 053 -121 038 -67 073 -48 041 097 -84 -94 -74 015 -109 -111 072 -51 076 -04 125 057 -38 -66 -128 -72 -02 -125 001 062 076 -01 -121 005 071 125 105 001 -58 -112 062 -85 -66 001 -01 092 -46 097 064 -09 028 058 -23 064 -45 -43 124 087 -01 035 
039 -59 046 017 086 -103 -36 -116 -14 009 -05 060 -30 -16 -38 -73 068 062 037 -82 -60 -92 091 -87 098 -62 -112 073 -120 -125 087 124 022 -55 -30 027 -91 038 066 -87 -12 085 -67 102 -13 064 -30 052 092 -103 -57 106 -15 -25 118 -23 070 055 022 042 065 -79 051 063 
-58 -04 -119 -10 072 038 113 -03 -59 050 -116 -29 008 -106 065 066 051 077 123 017 087 000 -77 -123 065 000 -95 -97 013 -58 004 -25 -87 114 086 034 -127 -62 -110 082 068 025 -127 106 -59 061 115 068 017 -36 038 -124 029 012 -11 -75 071 -36 108 -23 -42 015 -86 -79 
-19 098 108 -26 095 043 -112 109 042 -87 012 -43 005 -83 -103 020 018 012 006 110 -89 090 019 063 -22 015 033 -118 -44 093 023 -122 -103 080 -75 119 106 089 -103 069 -12 -01 -82 -34 006 104 -48 -101 101 070 -58 050 085 -15 -74 -52 029 -48 -36 -118 001 -103 -82 -27 
034 075 -38 110 014 -58 092 104 -114 -109 048 -23 -66 032 -122 -105 -11 111 070 017 -124 115 055 099 091 114 -38 -98 050 -72 111 -88 092 031 101 -51 090 054 -84 101 -91 042 -42 095 -112 004 060 116 -18 -103 -96 030 036 026 058 -93 -119 093 015 -30 -99 083 033 -26 
074 -84 -04 011 124 099 -93 -103 -20 -70 -08 -128 061 -53 -97 027 -63 076 -96 -58 022 126 -53 -22 -79 033 -27 106 -113 090 116 -58 001 -10 025 053 -81 -33 -96 -80 054 -118 083 116 065 -60 083 -77 060 -11 118 100 108 -24 -16 082 -78 043 -115 124 062 -63 -20 078 
-38 004 -22 -43 -61 066 -123 020 063 -40 -59 -45 098 087 -105 -65 -44 023 -46 -100 074 112 103 014 005 033 015 111 085 -82 014 -121 -96 103 013 080 120 125 049 -61 086 119 042 022 -37 037 -124 -28 054 101 -64 039 -112 -56 -85 061 012 011 -17 -97 082 021 047 -04 
-42 -27 059 058 -51 029 -08 033 -34 052 -69 085 -17 108 -117 -64 125 -69 107 -125 -71 -53 013 -119 097 -51 078 078 -101 048 125 031 -68 124 030 050 -60 -119 -04 020 -08 016 -83 -126 066 -91 -103 -86 -91 025 -60 069 020 -83 -128 013 -26 -54 011 084 -14 -68 -72 060 
073 051 -83 -33 102 046 107 -92 063 026 077 103 -76 059 -95 -28 -97 118 098 101 124 -05 049 069 -124 086 -100 -115 069 031 053 008 044 002 082 -84 069 -126 -112 -11 044 009 027 -39 088 021 054 -102 -86 -56 -43 059 076 071 -89 066 -97 -81 050 041 053 -120 015 062 
-36 111 -107 030 -07 097 -100 042 056 063 022 051 -83 -117 103 060 041 103 -118 -29 078 010 063 -11 -63 -04 -16 -102 -69 -30 -128 085 001 -89 -26 -45 -43 028 -55 -127 -07 -83 -124 -23 -15 -52 035 016 -65 115 -59 -90 079 099 -64 -09 -17 -43 064 -42 117 -85 005 -118 
004 -92 -100 067 074 -23 -19 049 065 021 -77 064 070 -63 053 -47 -08 -84 -16 -14 043 -92 -111 -15 -104 023 -50 036 -43 118 023 067 -121 122 -120 -99 -105 017 094 051 -26 -03 036 -126 037 -104 030 031 003 019 -101 027 074 080 -05 066 -73 086 -63 059 104 000 -04 -45 
-101 -53 100 123 066 077 009 -38 075 065 -55 053 -107 -43 -51 096 -77 -84 -126 -107 -105 -100 -37 064 -46 100 -88 075 -32 -26 -128 -47 -41 -81 039 106 071 -91 -49 -22 018 038 -34 016 064 052 018 061 098 000 101 055 057 104 025 -22 125 082 -66 -18 059 121 045 -102 
-60 074 -60 -66 -72 108 -27 004 010 082 123 068 -113 -82 014 019 034 017 036 077 -128 -20 064 -128 051 -10 031 010 -116 -46 -28 -65 -75 -65 -117 110 060 102 044 015 -21 084 -45 031 -115 -61 063 020 -113 -48 029 -23 -25 108 -75 064 -16 112 012 -38 -96 038 005 -87 
-02 -112 119 -51 -91 033 -71 065 027 -10 030 104 110 048 079 024 047 007 -125 116 000 097 052 074 053 -30 020 -76 -46 -51 007 -122 -65 -12 081 035 094 -20 -51 -89 070 007 -116 -32 -89 -87 -73 097 -65 -125 015 -02 010 -29 009 039 109 -07 021 -38 -116 125 113 019 
-78 -33 -78 088 -107 022 -17 042 -71 080 -74 -83 117 101 -56 -80 082 019 098 -26 -46 -65 -44 034 -66 -31 -60 -88 019 082 -68 093 -30 -81 029 -127 117 -56 115 010 022 049 -101 -47 -04 119 032 040 095 124 055 092 -70 066 -66 -105 031 -103 -84 -72 044 069 -115 060 
106 -18 072 -89 -73 016 080 042 -09 074 119 -15 -112 005 112 -83 094 -76 119 -56 020 036 -92 084 026 010 095 -59 -20 099 030 046 -38 -99 016 090 057 020 009 047 116 -57 003 -51 063 030 -19 -82 -72 -122 -67 065 016 -39 -112 023 -28 -104 -21 -40 053 006 066 -75 
-62 -76 041 058 -21 -125 -121 -89 -37 003 -45 045 017 022 -127 051 -113 -115 018 013 -44 011 -128 019 -73 -81 065 055 -15 067 -20 -15 109 002 -69 084 081 -34 044 -24 082 -67 -84 117 -01 026 -67 038 -02 111 -45 097 110 089 -104 -56 066 013 -53 -48 057 048 -73 -87 
-33 -12 023 047 -44 -03 -19 091 124 049 113 -41 032 -09 027 -11 068 -109 -72 007 114 -116 041 116 028 -99 115 -100 -13 -93 037 -32 -54 -12 061 -21 111 -57 023 -98 028 -01 -03 -90 -64 -09 -48 052 005 039 -58 086 -111 -83 -92 -58 082 058 -12 -97 003 017 -85 -36 
-55 091 -102 009 -09 -86 117 105 -127 115 050 011 079 -42 -14 -75 091 -76 043 009 069 -26 -94 -28 021 029 090 126 003 -20 028 065 106 098 -42 -23 -83 081 087 026 -41 046 -05 -57 053 -05 096 -74 088 -115 015 021 090 -06 -38 072 055 -77 061 041 119 021 -59 099 
-16 -96 -29 086 061 086 056 -57 033 -98 -21 022 084 017 -34 -102 -11 054 107 065 -94 106 124 -33 -17 074 018 -10 094 -75 -70 -32 064 069 081 036 -116 -59 -83 070 090 -122 -42 074 099 034 -40 098 051 056 -26 -125 090 -13 -103 -13 028 072 -51 048 096 -114 -77 025 
-01 -49 045 -97 055 -67 097 085 -05 -21 066 -124 -82 075 -69 058 -127 059 -92 114 -08 110 -95 -63 116 051 -16 093 -63 089 -107 -108 072 032 122 -35 -24 -19 -62 109 052 053 097 086 -117 042 108 -30 026 066 109 041 119 105 122 -36 -24 -124 -21 -73 036 -68 -80 -58 
-123 -09 -44 -77 -21 -02 075 -50 123 108 012 -77 024 -61 078 045 -56 -75 -83 -30 112 079 -22 -82 -03 054 -68 -89 -125 -94 081 -111 014 -114 009 006 057 094 121 026 040 010 -46 -114 023 036 -08 052 056 008 056 -10 114 -01 -97 087 125 -109 079 100 -01 024 094 -47 
090 106 -06 -128 -34 -127 065 036 084 006 057 -114 034 -51 039 -46 054 003 -20 -88 002 -31 021 027 058 -114 -96 -80 031 -68 026 -06 -63 -103 098 006 037 002 -100 -46 -06 033 086 -114 104 092 119 045 -88 045 -57 088 052 055 -08 055 024 -51 064 069 -102 015 -48 054 
