119 115 -67 093 -17 041 122 044 066 054 106 -65 -14 071 066 036 050 -71 -116 066 026 -104 019 -104 045 -18 092 100 097 072 091 001 019 107 121 -28 120 105 026 052 -08 058 -09 -53 -114 044 -53 -95 -49 -53 088 -110 067 065 -67 054 -95 -52 088 -114 094 -125 -115 062 
-35 -38 023 109 012 120 -116 -42 053 108 -116 -01 -55 120 060 -29 117 -09 077 043 -56 064 -28 -102 083 -49 012 100 -70 043 -42 108 -114 085 -91 075 098 -55 121 -68 -111 051 -09 070 -58 064 -29 -57 -55 -113 105 098 072 120 037 120 024 065 -81 -35 -30 126 -02 -52 
035 101 064 035 018 047 074 114 -58 018 105 077 068 -127 017 105 121 -19 -28 015 -119 015 042 -29 056 -38 -42 -34 -108 014 068 -117 -106 090 -117 -126 020 -108 -08 -43 -82 003 -38 021 030 -122 -50 -76 -87 -73 027 002 -21 -87 041 102 -22 050 001 086 093 -111 -108 081 
083 043 015 011 -102 -73 077 -06 -07 078 -126 122 -28 -40 -96 036 -57 056 -29 111 048 -96 042 061 -92 078 -122 -81 080 -65 003 -49 -128 -45 -94 -51 029 -40 052 057 -42 068 -58 -76 -25 110 -20 -16 094 108 007 122 -128 -109 -15 -99 106 -126 048 019 -73 020 -05 -38 
-112 043 -50 -12 093 -27 079 098 -70 048 -77 031 -99 067 -89 109 017 -110 -53 122 -55 016 060 102 092 -68 100 102 -98 -79 125 021 075 090 -32 003 -116 046 056 -49 -117 036 -19 -101 -66 003 -82 107 117 -99 -16 099 004 002 -01 028 -128 -50 -31 -80 -80 -86 088 -24 
-04 009 -105 -128 -101 018 027 008 -117 064 042 -84 079 047 -113 032 105 -44 114 -60 101 -51 -34 -67 121 -110 106 050 -33 005 064 029 -117 089 054 -104 101 -35 -36 105 031 -104 -117 -62 -103 038 106 016 062 038 -15 -12 -64 -30 000 -26 023 -10 -39 109 040 107 -31 090 
-48 -113 070 059 -99 094 099 120 -67 072 -12 -104 -72 092 100 017 -104 103 119 035 077 -39 077 -09 -36 -110 -71 027 -29 021 -90 048 -107 -37 026 040 056 100 -46 074 -34 -26 -98 -56 017 -124 038 -80 064 108 -04 031 -14 055 -17 041 -65 -28 -117 009 -21 064 -114 -40 
117 -35 -75 123 -34 -66 -27 -51 -52 075 070 -93 -08 075 125 -85 -97 -65 -102 -98 -55 098 -47 020 110 025 -103 026 -03 -06 070 -19 -82 119 -61 060 016 -20 077 079 -106 086 -10 -115 028 074 075 043 023 -103 001 026 016 -04 031 -128 053 040 111 107 -76 -25 010 116 
033 -64 -79 -121 -39 020 -17 -03 112 -19 -75 034 012 -102 -40 -92 024 015 -47 022 021 109 060 -29 -44 025 -106 092 035 -111 060 126 -122 044 -113 -50 046 118 094 002 -21 -86 -102 -85 -122 049 -23 -27 -64 125 -54 -44 102 -56 094 -89 046 -34 -90 -08 089 -05 098 092 
-121 -89 062 -117 -73 -89 -68 -39 019 115 -25 -97 079 068 -99 016 -49 046 047 -05 109 -78 004 086 082 088 -102 087 071 -55 -28 003 006 113 104 041 -58 109 057 072 -18 -22 097 067 034 096 073 -113 006 104 091 -73 -91 -16 -91 048 -36 098 120 -20 -123 -05 085 -108 
-105 -25 125 -20 038 014 107 045 -16 -84 -06 108 -70 049 113 073 -94 083 083 -101 089 082 044 -01 074 -107 -32 049 106 054 -72 -46 079 126 121 -73 -60 -118 -55 -87 -114 -23 005 -110 -101 -51 026 -23 038 -98 -60 071 053 -110 -13 055 038 -86 -57 -118 -94 -35 113 085 
-127 002 122 027 -11 -28 -35 025 012 056 -104 -89 -59 -63 008 -38 039 -69 073 -109 -27 077 008 041 -46 021 086 027 -108 040 083 -72 -128 019 014 -120 100 045 -113 042 -45 015 111 006 081 025 -97 037 -117 015 -11 -84 -78 072 027 -29 -112 034 094 025 078 -78 068 055 
-118 -61 -13 005 053 -113 103 123 -86 -22 -70 -128 123 089 008 079 060 -66 085 107 112 079 042 025 073 120 055 066 091 -58 -79 084 096 078 070 069 -56 -122 028 -118 047 033 030 079 084 -62 061 046 -127 -44 -87 -74 102 085 055 075 -116 -91 -123 120 072 -126 085 -41 
055 099 -66 -30 -106 -39 -115 104 060 -109 063 -61 041 074 025 -53 -13 055 -51 -77 006 088 -09 -95 -33 015 -23 -54 046 -41 -10 065 -98 032 -65 -81 -34 024 069 -51 035 -127 105 -62 -78 081 -13 -97 055 -29 067 054 -59 034 011 054 106 -41 -06 -49 -100 -71 102 012 
-75 006 034 -126 027 047 -79 -113 -37 066 -87 -53 091 016 078 117 -96 -104 -53 086 -25 027 -09 -86 042 124 101 -15 094 -105 125 -82 -65 -08 -05 -09 015 -95 -91 -120 029 095 020 047 -77 -33 -115 -35 -100 -80 -07 -74 099 -56 -65 057 -65 -126 018 125 -110 074 043 023 
042 027 -26 -124 045 032 045 049 118 099 123 028 022 062 022 027 -73 048 091 -72 -109 -51 -94 075 045 -67 -48 054 -49 -17 -124 -92 -119 -33 -19 -94 -120 -96 033 -93 054 065 064 -103 019 -30 -87 -03 -38 -70 067 111 088 -95 -41 067 -46 124 -70 124 046 117 089 -86 
-117 -82 -127 085 041 -21 092 -107 012 -22 068 -114 -16 -37 107 001 029 059 004 102 013 -118 067 -115 104 -113 -114 -120 -08 -05 -11 053 048 -77 -59 -50 117 -41 059 -63 -106 050 078 -119 -122 -90 -119 -44 058 -103 -76 -110 -89 -29 016 -92 046 -82 -68 121 -121 027 -37 -110 
069 046 028 -84 066 -02 -112 -12 -101 -18 -25 -87 030 -57 -14 020 -60 -105 094 111 011 021 044 -31 -03 079 105 -86 -105 -105 -103 -90 -12 -09 -12 079 -21 111 061 006 094 -50 000 102 -80 126 028 -03 067 048 -99 -02 -85 090 062 038 -18 020 017 -33 -95 -70 101 -114 
-11 -79 043 -48 -47 120 112 003 059 044 121 102 028 -61 031 -99 -60 -49 117 126 009 -18 070 106 033 110 -87 009 016 -121 024 054 -77 046 -37 -31 060 -114 088 015 -72 041 -91 041 -77 064 -27 -64 008 091 026 -91 -17 102 093 088 053 083 -64 -07 -71 107 067 123 
102 -112 047 113 109 -49 -52 052 098 -29 -08 -12 -72 -01 043 -92 -103 -106 063 068 -112 -119 -32 090 017 023 124 -93 062 -56 108 -89 094 046 -97 -14 -109 -123 066 038 072 -13 044 085 -125 -11 037 -95 093 008 -81 -63 -80 -17 079 -61 006 007 -63 -25 027 063 041 -37 
070 -54 -21 -10 -48 068 -04 066 -42 -25 087 065 104 041 063 -24 -87 027 016 -10 088 -83 -72 093 090 -73 -96 -113 -42 -19 016 -30 -49 122 -21 015 -35 020 082 -98 114 -35 -107 014 117 086 -36 000 -67 098 046 -112 126 050 -74 049 090 106 -27 -31 -20 -94 039 -24 
-43 063 089 052 -71 -64 -47 014 072 -30 072 051 055 -76 073 000 066 -101 106 061 109 029 -93 -105 060 019 094 051 098 -02 -124 -68 098 -106 -95 -48 046 -87 051 030 034 -15 038 086 -67 -115 070 016 087 123 065 -116 054 004 -18 110 -112 046 -85 -55 -23 -10 -18 -31 
003 -25 -47 019 037 -94 -86 111 095 -29 008 113 014 -06 034 -77 080 -95 110 -38 -97 -20 -97 095 120 025 -119 -107 114 004 029 056 062 -26 -97 011 -115 -18 113 -14 107 -99 103 105 051 -05 124 104 109 -54 -125 -119 079 -75 099 046 -63 -80 -99 095 -99 076 009 -57 
055 116 064 100 -13 -124 -09 032 068 081 005 117 102 -28 001 -43 078 -76 061 105 -14 099 -120 051 104 -64 -15 041 052 098 -113 099 -80 109 048 -34 -79 -41 -16 -100 014 -100 064 109 -103 069 -49 -117 023 -83 097 -118 -44 031 072 045 071 -45 -22 119 -85 -38 029 -62 
-86 052 -110 075 -115 -68 096 002 -104 010 -15 -118 117 -52 -11 -122 088 053 -128 -60 -22 -37 -104 -82 059 -124 041 -70 -104 047 029 -38 -55 100 068 -30 078 090 081 103 -120 -86 086 -12 -117 012 -110 093 103 -124 019 -40 044 -10 063 -85 -97 074 -10 049 073 -70 051 012 
-10 121 009 -41 -66 -07 038 073 125 118 -15 031 099 036 -65 -97 -13 057 019 -63 120 -98 -70 -66 076 -41 -97 -29 -63 -105 063 086 -06 -92 095 059 113 -70 029 005 -66 -87 062 006 032 -11 054 -11 -44 073 084 -116 048 -64 -108 098 -108 -127 -91 056 035 034 -63 -74 
-81 -106 086 -01 -56 098 008 -49 031 050 -93 108 -88 113 -128 -125 110 -94 -76 -33 004 -28 -42 123 081 -19 -60 015 068 021 075 108 001 -108 035 -92 123 048 -107 012 -113 079 -101 043 -95 087 -82 065 071 -115 065 -116 022 027 -114 -05 076 -93 113 -96 -101 064 101 105 
-41 045 -33 112 -06 086 -65 -02 -124 041 062 025 -14 -25 -113 -87 057 108 -22 006 119 014 -101 028 -42 -63 -74 -104 024 -01 -106 -63 053 097 109 011 -99 054 082 063 091 -16 -03 -24 -127 012 033 084 019 -98 -105 037 024 -11 -58 056 074 007 -89 095 -87 029 -74 -116 
099 -19 -78 -77 008 056 -102 -82 057 056 -105 -78 -66 094 122 108 -76 -115 080 -120 044 021 075 -77 -111 -84 -62 062 076 -71 -88 -75 061 -125 016 069 -126 -114 -34 040 118 063 036 033 -40 -47 -108 -64 -24 -29 111 -28 -114 053 -16 -50 -41 -80 040 -09 -101 -121 -10 -52 
-29 058 -17 -120 -73 120 018 -117 086 -92 -25 -45 -75 114 014 098 003 -27 095 -85 -110 028 009 -14 046 -120 -59 -36 -79 -03 048 -107 019 -99 045 -77 -28 -81 -02 -81 -22 -54 071 034 014 059 -79 018 -70 003 023 -84 -100 -100 063 -05 125 -96 -24 -61 -58 089 -116 -45 
-33 -32 -55 096 -121 015 039 078 -18 -113 107 118 093 098 033 -51 -126 -19 048 -07 -63 -85 -11 108 -19 -35 026 082 112 021 114 011 -117 -54 071 102 -93 -127 052 000 -104 015 033 095 119 -102 -103 100 -57 -16 118 -102 -35 090 -105 064 075 -119 -68 076 -25 -104 016 -38 
078 -116 -63 -60 015 010 055 -07 -102 -52 015 -52 -32 -64 -97 086 107 -39 -63 063 079 -12 002 033 -11 123 -71 -14 -46 -92 -19 086 -95 095 -73 -39 004 036 -05 -115 -128 063 -13 050 085 -127 056 -121 073 -33 056 -83 122 -53 029 -68 125 044 -126 030 -116 -103 005 -108 
086 -115 -113 098 -101 -44 034 022 -94 054 -108 -78 025 -106 020 -70 021 -81 -80 -67 -32 067 101 067 016 -114 -48 081 003 005 -75 -90 -117 063 -26 125 066 -22 -99 -20 -59 -41 010 079 029 014 100 025 020 -19 -24 -09 -68 -95 052 -86 011 002 003 005 -122 076 018 086 
056 -107 035 -53 104 040 -19 108 067 003 098 -125 -128 126 -81 008 064 -74 118 116 044 -38 006 -31 109 -63 096 053 -24 081 -64 101 -10 027 037 -37 125 092 -75 -102 -07 -86 017 -90 -33 -66 -71 -89 -125 049 -19 -01 013 -95 101 058 014 -44 -96 -81 019 056 -103 028 
018 -46 -31 -128 101 -79 -17 -91 092 -116 -57 -98 -75 -105 -64 101 -26 -103 013 108 -29 -66 099 010 116 -92 111 098 111 -49 -112 107 -69 -74 -110 112 -47 037 077 121 043 040 091 115 -73 060 030 -95 -12 -83 -63 -80 -125 -69 044 024 -121 -49 -21 -27 -75 003 123 -37 
-61 -37 077 010 -121 046 -24 -56 088 030 -56 080 035 -81 -36 -90 000 091 107 086 -89 009 -123 -43 035 073 -53 -15 056 009 -13 -118 -121 016 -94 037 003 -95 -42 -120 -06 112 120 -22 -43 042 -88 -122 026 056 -14 -25 109 -110 -107 039 119 -112 -26 -50 023 -32 -11 -15 
032 102 -74 -115 -72 003 105 097 -90 -22 -115 -31 123 055 081 017 -62 -64 -114 088 122 -75 -55 -12 059 -68 084 -101 096 -99 -95 -43 104 061 -106 -55 -49 -69 038 -84 049 000 065 101 -50 084 041 -11 -81 072 046 043 -40 087 -56 098 -48 -37 101 070 097 113 049 -69 
089 124 -79 -62 -32 -25 004 005 -36 112 -84 126 037 -29 -57 037 055 -64 -102 033 125 -68 -44 008 -54 014 104 093 -89 -15 -100 051 -120 -84 -68 -89 -33 -98 010 -28 -109 -125 089 -56 031 052 -35 -37 -56 -46 063 019 055 045 -16 008 -32 -87 016 036 054 014 -105 045 
-56 065 -53 -54 053 071 -54 -41 -69 100 062 091 -60 -24 076 -67 016 -31 001 -68 -11 031 -110 -32 -73 024 068 -127 087 034 101 -45 -70 089 -24 -55 034 005 026 077 047 064 -81 055 -62 -52 -03 -09 -63 074 011 -85 -01 -53 -94 -64 -46 -25 -122 -41 -35 033 101 -94 
099 034 -41 -113 038 118 -66 -23 -103 -85 -91 002 112 -28 021 123 -39 037 -122 112 -124 -115 020 112 029 093 057 101 -12 070 042 -38 040 -51 -92 -125 023 098 -109 046 038 093 -36 011 -60 -71 -08 104 021 -98 082 -29 094 090 -123 -104 110 022 -09 098 069 -87 -90 -91 
044 000 053 102 -93 -03 072 124 -17 099 -83 -97 -123 117 005 087 071 -24 -72 099 -62 -38 027 008 -107 021 089 037 078 -83 033 -104 040 015 -60 039 044 114 -87 105 054 -116 -116 058 082 088 124 057 008 -101 -03 090 034 056 -46 085 -115 100 119 084 -48 -50 -47 -12 
-88 -34 -19 -42 029 063 -75 -17 -90 -48 042 -47 -125 -67 041 072 068 082 -16 -114 118 -02 035 -128 -35 088 007 -09 035 -123 018 064 -05 054 -59 099 098 -99 108 001 041 -61 -124 -74 118 065 -83 -122 110 081 007 -55 -102 -109 -04 -14 -108 054 120 036 -59 -10 033 057 
-92 -85 082 085 089 -11 -99 088 -02 123 -24 029 -54 053 075 -27 -83 057 056 -23 -109 089 -85 014 -10 060 077 011 -124 095 035 -65 -61 -79 065 108 -88 -43 -41 126 104 084 -16 022 006 102 -90 034 -116 -02 059 -113 050 -65 001 -111 -28 -89 -73 -99 -36 023 -39 064 
111 023 006 088 047 -128 083 023 025 031 -70 -17 081 -121 076 -72 041 053 -102 083 059 043 -77 105 060 -87 -42 052 -23 -107 020 016 -90 -79 -68 -124 099 -92 059 116 064 -16 044 062 -31 -48 000 020 -13 -108 -23 040 -107 005 -03 -123 005 047 -122 -108 125 -30 114 043 
-61 096 109 065 -49 055 054 015 058 119 075 -123 101 -115 -34 041 -54 003 010 -21 -121 -72 069 -109 031 -91 125 048 -95 -123 -67 106 038 -118 -119 -64 039 001 -46 -76 -07 122 -67 -111 098 -109 058 -111 044 -67 -115 -31 -36 -47 -76 042 096 -91 -78 -02 -113 -17 -76 -01 
020 -09 -117 049 044 -64 004 -64 052 094 -66 -102 100 -59 058 -126 -78 -33 019 065 076 125 007 048 065 -107 100 012 -01 094 -16 010 -97 043 -07 088 075 -91 047 -84 030 -20 -97 -65 -29 036 009 -83 -84 -03 012 -114 075 -53 -77 -89 -13 -43 -03 048 -10 074 -51 -86 
088 100 057 -48 117 -113 061 -112 053 088 -29 -57 047 013 -107 010 075 084 -32 000 -38 048 -120 001 -18 -114 074 078 -31 102 026 -91 026 051 113 027 -124 066 090 -110 089 -29 -58 -106 -107 -86 043 -32 106 074 -49 112 019 109 -116 001 022 -67 087 042 -19 006 -43 -109 
044 -99 005 -01 036 -100 007 008 060 -104 -76 -122 -117 -114 -30 117 -78 -30 028 109 032 093 -43 034 037 -89 -11 116 045 053 087 -14 -108 -56 -21 059 104 -10 -27 050 073 082 -85 -23 -99 035 060 -121 049 -34 093 011 -81 -124 -112 087 -123 099 -84 -105 024 104 -84 042 
004 092 -12 024 039 -10 028 -32 089 004 -110 -115 081 -98 -99 004 -05 -06 -59 -05 004 072 -57 -29 078 -17 -39 -40 124 -108 -64 017 -77 049 035 -05 094 -14 -58 -65 -25 054 101 -19 118 078 095 012 090 064 -39 040 043 -108 -87 067 011 015 -103 072 -104 -04 099 011 
042 010 058 121 -15 -113 -78 113 024 -123 048 -37 -122 076 -87 -56 060 051 -92 -92 -53 -11 077 077 -26 -115 -113 050 079 -76 -62 091 024 044 126 074 005 -16 -101 -77 114 -38 110 066 103 -29 089 -66 008 -111 -106 -119 049 -75 060 063 024 107 092 -04 -54 -122 -114 014 
086 072 -61 -122 043 -98 -30 -54 005 -111 002 -05 083 117 -63 -10 038 031 121 -45 060 065 109 041 093 -34 102 -28 -40 -57 -95 013 -77 080 -15 084 105 058 -75 -114 -17 -21 089 -71 -94 -99 118 -98 006 076 022 089 083 -115 103 -101 -46 -103 038 027 -65 -74 064 -92 
079 -31 028 -16 089 -09 -121 098 -15 -48 -103 -92 117 074 -80 -116 -28 008 109 076 -110 023 044 066 -110 -124 075 -111 038 -07 -26 004 082 -15 004 -74 032 -78 120 -95 053 015 124 -48 108 -80 098 -17 -46 055 104 -58 109 -69 -96 -45 -98 -69 -106 -13 091 016 -123 -100 
115 113 087 073 -87 125 -73 -11 -10 -101 -40 075 -88 119 072 -97 -54 -123 111 -30 -49 107 120 -09 032 -128 -38 002 -53 -125 015 -51 -66 -119 -26 -54 078 004 -77 046 030 122 -94 009 -18 110 -45 059 003 044 -11 106 -99 -59 123 -65 000 070 -31 -76 095 104 014 -77 
-91 040 062 -13 -110 044 020 -20 112 022 -40 055 031 -51 -78 -98 -85 062 110 -87 -76 -97 -27 063 052 116 -52 -18 -01 044 -11 -96 037 126 058 -19 -93 -89 100 057 086 -110 055 -68 -44 101 -34 -127 -104 -57 028 082 -89 -33 -125 -105 109 108 030 105 038 -50 -10 101 
-06 -119 -126 124 046 -74 -39 -86 -84 -39 000 -122 007 -101 -02 111 003 -72 060 012 033 037 -07 -80 -104 -40 -21 082 029 -69 -76 -76 027 -23 -101 -90 010 -22 -108 -38 027 -60 -29 -03 -37 -57 109 -94 -81 -47 -19 -25 027 057 -19 109 072 -98 -35 -20 082 -31 026 055 
121 022 006 028 -23 -88 -123 -63 011 087 -96 026 -48 059 089 115 057 117 116 -68 -61 036 076 -47 096 047 -28 -16 061 083 040 073 -52 092 056 -45 103 -71 -92 097 -47 -53 095 008 -23 -82 -98 -61 -96 058 -124 -06 038 -45 -128 068 055 049 080 044 090 101 096 019 
-83 -61 095 -77 081 090 046 -25 046 -91 -23 031 088 111 -49 -73 123 -47 119 019 -107 076 -82 -52 -117 -38 041 105 067 -01 073 -08 000 037 112 -43 -89 -93 018 032 -125 -22 016 -115 032 058 -50 -27 -25 -10 -120 -43 -22 052 112 -102 -128 003 -73 -126 061 -67 007 087 
078 -72 -104 013 -39 060 108 118 -51 -101 027 -109 -61 -64 088 -47 053 031 082 031 -52 -100 039 -06 -49 107 112 -36 060 -116 091 048 -107 -37 081 -95 023 -34 008 053 -82 124 -120 052 -44 020 015 -100 083 123 -107 114 015 -104 057 -40 -86 -23 -100 -104 -59 -09 -70 -80 
-109 -48 -37 -54 -65 -43 -73 -89 -80 051 009 011 015 012 038 096 019 031 -03 -50 -111 117 056 090 -80 -109 027 005 021 -14 090 013 -17 -02 116 -35 113 -35 049 -91 070 -89 -81 -61 118 -113 -54 -56 -125 -90 124 -110 -68 -80 -06 042 083 -08 073 -29 088 115 -38 002 
-60 -11 -79 -70 -23 063 -43 090 103 050 -108 -68 026 053 -73 119 -115 -103 056 -69 -124 -11 -39 -80 125 -39 -105 119 065 028 -120 -48 032 -48 -99 -95 117 122 116 -75 085 051 034 -72 089 082 -60 106 -99 -52 -93 -125 123 040 011 -102 002 -10 055 018 -46 -38 -70 -109 
-108 -102 -45 -58 -38 -105 108 -122 034 -105 089 064 -73 027 063 -89 -61 -105 109 035 -43 006 019 125 018 019 -07 096 -128 -128 -86 -77 095 010 047 102 -118 018 106 006 -93 035 055 119 -116 057 -63 -108 122 -49 -93 -55 -50 001 115 018 081 079 083 089 097 -108 -42 067 
-19 -24 -100 103 006 -22 016 049 -68 080 -92 -101 058 -112 -75 093 -54 -06 031 111 -41 114 -36 070 053 -81 -52 -26 -104 039 035 -43 -42 -89 -22 077 -107 046 021 099 059 049 -50 -31 -62 -51 -115 -94 -57 095 023 055 015 065 071 -117 -101 109 -104 -123 019 -97 -32 085 
-28 069 107 097 108 002 -69 -56 -80 086 021 071 -18 -11 -74 -95 -02 004 054 -107 -07 024 069 -85 -06 027 083 029 -39 -54 -56 031 055 -22 -06 -76 056 048 119 011 051 029 -70 011 050 -104 -49 -110 090 -24 028 074 018 -30 103 069 -53 -93 014 -50 -40 012 108 -111 
021 004 -101 021 -12 098 -98 -114 -17 044 040 -94 113 125 -124 -81 041 -21 024 -85 071 -77 -39 072 060 -116 125 -97 -72 -106 -83 -49 -14 044 -67 -41 -26 -46 034 121 051 -04 019 -14 -123 094 -65 092 051 027 -81 -11 -95 -59 -92 086 065 111 107 -11 -83 -26 054 089 
099 -12 118 -111 -04 124 086 -84 -43 029 072 -28 031 -128 -103 -04 104 105 -13 010 -89 082 -54 006 073 009 113 015 -120 -108 -37 113 093 -116 -09 -47 -78 063 113 -91 -20 -80 112 -61 022 -89 -65 103 054 -88 -15 -58 -02 -04 084 -07 -107 -17 022 -42 036 068 086 -98 
-107 116 058 -68 -110 -114 057 066 -54 100 -34 -22 -91 -33 -98 019 022 -103 -110 070 120 -49 027 -99 -124 068 114 -09 -31 -56 049 070 050 -97 -47 032 024 -05 -105 -46 045 022 083 -125 -83 -120 -66 103 -127 -39 -104 -83 -66 014 005 -67 097 029 -101 -120 -127 121 -50 038 
-06 -40 -08 101 -55 063 044 -52 022 060 103 051 031 -127 -38 -97 072 126 092 015 -56 -106 -81 -53 -112 -96 -111 -28 099 -109 -113 102 -115 -118 -124 044 -77 069 017 -109 025 -122 -51 056 -37 -94 -107 054 -93 032 065 035 -71 -36 -65 -49 095 -60 -64 -18 -58 -52 063 014 
055 115 -28 076 -106 -32 -105 -17 -17 -45 -115 081 -91 -101 064 027 095 005 -104 -37 -10 045 -07 013 099 052 -35 116 117 -77 104 019 -81 -15 -63 027 -09 -115 -01 -67 -85 075 -32 -89 -108 -41 -48 -02 -103 -13 -116 -21 079 121 -92 -125 -02 126 -119 065 110 -99 -16 070 
122 -37 010 -39 047 -102 076 -60 -68 101 032 -54 116 -65 091 -81 -23 -125 112 -41 -102 -75 025 077 -86 -38 -103 014 -51 077 -02 -51 -54 -94 -25 -98 -125 -93 066 084 045 073 113 -109 -70 -55 -76 086 008 -36 -60 -89 -48 007 047 -02 109 100 007 039 077 -41 -104 022 
002 091 081 030 027 -58 -101 114 067 122 070 070 055 -75 075 -126 -101 -18 009 -67 083 037 -71 -70 119 -07 012 -22 092 014 -05 008 078 -58 038 018 036 -64 -69 088 014 -48 089 014 -53 -119 047 -19 -26 065 054 097 -108 -57 125 062 -43 -46 -104 -57 -107 -84 103 -03 
093 063 -45 058 044 117 -101 -08 -44 027 -78 058 011 -41 000 044 -09 024 100 081 -34 009 010 114 -26 -28 096 -78 119 039 103 113 023 066 -23 -73 048 -86 079 -86 030 120 050 -46 078 -41 017 027 085 -33 -18 -83 107 -127 041 -97 -15 086 -121 044 114 020 065 -27 
-65 -98 -65 111 -114 065 -13 027 -122 036 -60 125 -61 056 030 -111 021 056 -36 010 -78 -50 -52 -128 066 -81 -01 120 093 038 -114 019 057 -103 -06 119 -90 -91 -119 -66 -14 -114 -95 -46 067 -26 084 045 -70 009 -12 061 036 054 050 -40 -110 115 -111 019 -31 -35 -22 -104 
102 008 124 048 068 -75 -48 -121 -04 059 -55 105 067 -80 010 -96 -67 122 -50 -58 008 067 017 092 -39 093 117 099 -44 -55 -119 124 122 -16 081 004 058 046 -93 057 000 010 078 069 -31 044 -11 -27 -77 -10 027 -51 108 095 -83 -32 -91 -111 099 -106 -115 -29 -128 001 
060 -96 -112 -54 -98 -97 000 027 -80 -77 002 044 105 -31 -32 -38 103 -73 -49 -61 014 -109 097 -18 113 -119 066 -55 -33 -42 026 074 -101 012 -79 -19 098 -113 030 071 030 -69 -83 098 -123 -95 -23 -72 116 044 -111 089 -61 -110 000 -09 005 -104 017 -71 -15 -122 -103 -23 
073 043 -57 -77 -99 088 -59 100 115 112 068 023 105 058 -115 -81 022 -57 118 -96 026 -91 090 -04 101 100 056 043 -127 -31 046 -59 -62 103 103 -97 115 -15 -39 087 -88 -66 032 079 -40 013 -49 -12 -63 020 089 089 011 065 -93 090 -13 -30 -20 -126 055 -18 065 -72 
014 109 -114 -82 -65 042 -12 079 043 110 -118 -82 -94 -78 066 -106 -41 -34 034 048 049 -15 -68 074 -34 -45 098 055 -61 -17 -02 015 053 104 -109 028 -86 006 -68 -53 -117 -61 008 -109 000 -57 045 -60 -91 -124 -49 -54 -50 -19 055 030 -93 112 078 -72 018 -75 -30 -73 
-66 -20 082 055 -06 114 013 085 -83 -26 037 -125 015 011 -04 -63 044 063 093 -13 014 -18 -63 115 009 -89 -22 -125 -102 -119 123 -87 026 093 053 049 105 -127 028 -91 028 -51 097 -122 -75 025 -93 -25 126 -55 123 -125 -98 039 027 -107 000 070 059 033 -74 062 027 009 
115 023 -32 066 055 -111 055 -24 071 -59 029 014 100 073 -29 110 076 029 062 094 006 007 -14 017 -68 097 004 030 -38 -16 -110 033 023 062 -41 059 044 091 -102 098 -32 117 -128 -121 029 -14 007 099 -09 019 -86 040 -110 -93 113 -99 -07 -01 -111 065 -24 -51 076 -56 
-11 115 010 026 113 -109 -92 -81 125 -44 034 -64 039 -74 088 -60 -01 -110 025 075 119 -43 -08 -115 -10 -32 -92 -100 026 -106 -83 091 091 125 -49 019 -39 119 -107 -68 -70 112 079 055 014 010 -10 095 018 -33 -46 016 -51 -62 108 -04 -52 -57 091 -127 -71 -75 -105 -126 
-122 011 -104 072 126 119 056 026 -80 -58 -121 -02 -24 -99 -87 -112 068 010 -34 -93 116 -80 -68 042 -119 022 104 088 054 -05 029 011 079 -25 -115 013 -61 031 033 028 -127 043 054 -103 -104 -44 006 -29 -82 -125 -59 -54 019 -121 -09 094 055 014 013 064 122 107 040 -64 
-51 -77 019 -67 117 -94 -45 009 -89 074 037 057 062 019 056 059 -102 -101 -107 004 077 -124 085 046 -64 109 -111 036 087 -126 -11 084 051 -31 026 125 -86 -123 108 107 -101 007 092 100 047 -118 -39 -04 -92 074 102 102 -66 102 062 -108 -59 061 022 048 001 078 066 035 
077 077 -66 022 117 -15 -14 018 024 106 110 077 071 115 059 000 -91 -34 001 -66 001 065 -14 026 046 -126 055 -68 -04 -62 077 109 085 -67 111 099 014 -103 -05 -114 076 040 -96 -19 -117 -10 -127 079 106 076 110 091 063 000 -12 080 009 -91 -82 -32 -46 121 -14 -107 
-124 -58 -100 004 102 105 -53 112 -30 126 -123 058 -10 070 -97 -125 000 001 023 -66 051 -06 113 122 117 -56 -73 -124 -57 -38 103 091 120 107 078 -25 -94 -108 059 -57 033 098 022 118 050 -95 073 047 -47 -10 -111 -32 037 050 -111 126 105 103 -22 087 -30 -25 -97 -111 
019 -48 -31 -36 031 008 -49 024 -88 078 083 -11 107 112 022 -52 -127 -63 -20 101 039 085 -39 000 -27 -07 030 -34 042 001 025 -90 038 095 004 -59 -41 032 067 -36 -58 094 -123 126 -22 -48 029 071 -115 037 -90 -17 038 067 070 059 -58 052 -04 107 031 -30 114 -64 
047 065 095 120 116 044 -34 -50 003 -102 -127 121 067 -49 -99 -84 016 007 032 -86 -10 -92 -52 -74 038 -86 109 -74 105 -102 -114 093 035 011 046 120 083 105 015 053 052 074 -69 -26 021 059 -86 -42 086 029 021 -29 -28 -102 070 116 -86 116 -83 -41 -109 109 078 117 
021 110 093 105 043 018 -72 002 093 -23 072 002 101 035 -09 076 -51 014 052 055 -68 024 -55 -42 046 020 060 107 030 089 -11 -10 082 -93 -55 -01 -11 056 020 -103 064 092 084 109 -83 -18 -117 -64 081 024 038 -83 -41 -104 -125 045 045 -97 025 110 037 088 001 -01 
113 091 106 -34 -32 093 -114 076 107 022 051 100 020 077 -65 105 075 064 075 -96 094 110 -126 -97 -42 -111 -55 -91 029 -29 100 058 -34 -03 -127 010 -84 -21 -126 016 -64 038 -106 -81 -101 -116 076 -26 -17 -45 026 030 119 -73 -53 -06 -21 017 -37 117 -87 051 044 062 
104 085 -73 074 -82 102 004 015 -01 081 033 -37 -122 -33 001 -82 117 034 -116 -02 -80 053 104 058 098 -25 036 -46 015 -38 042 025 -78 -37 -06 -105 -15 -104 -95 -13 -86 -58 023 089 006 -31 -48 088 -71 -111 -57 -115 -11 091 075 -28 -43 -56 -55 103 -114 034 061 -28 
063 -83 071 062 -56 036 003 061 -31 -127 -29 088 111 105 -19 -45 066 -93 033 025 054 -83 117 -100 -57 -19 078 -27 -26 062 060 085 -26 -81 -16 103 -75 -30 -106 107 012 101 -99 -59 -25 -101 076 005 057 -64 091 -101 -54 -09 044 081 025 049 082 -86 009 -41 -48 -28 
-95 -10 -07 102 024 -79 -69 005 -43 -94 -63 -62 093 012 -70 021 -22 036 095 023 033 045 -59 109 -43 125 039 089 037 113 -61 -72 061 -18 -33 -101 111 018 076 108 -113 -127 092 076 -68 050 102 -30 -109 -24 -88 121 -79 -61 -74 -47 082 -47 -114 -37 065 -121 110 107 
054 037 007 088 -30 066 063 081 077 -118 082 021 037 004 -120 057 -105 029 051 -61 073 -53 083 -81 -50 -112 -88 021 -53 055 -125 124 -70 -105 -114 -73 -59 020 -27 041 122 026 -56 084 050 075 077 -37 035 -71 118 -90 072 -67 009 -123 -98 059 -84 -24 -26 025 -58 126 
010 -33 084 099 044 -85 -117 -61 049 113 -112 006 -23 -96 -65 052 088 -109 -115 116 -40 -36 122 114 016 -29 -114 015 039 -95 080 060 043 -09 -48 085 -39 -120 -77 -58 008 -31 -101 -125 -31 014 -41 072 102 125 016 068 -17 051 068 042 -54 108 -03 102 070 -68 -33 042 
-73 001 018 062 048 089 008 017 046 117 099 -02 063 000 042 085 041 -81 030 -41 -74 -23 -92 085 -59 011 -128 011 122 005 -56 -120 -43 -58 120 -03 -116 -66 -124 037 004 032 -93 035 053 -09 -118 005 014 069 -107 -79 -38 -15 009 004 -63 -35 007 032 -48 126 -126 106 
003 063 -127 061 101 -08 -14 069 -42 -76 034 -60 -12 075 060 -101 024 -118 065 -23 -40 -70 -114 023 009 -47 100 028 -17 -115 022 029 074 015 098 -42 098 116 -116 -79 037 -59 -87 -24 033 -113 -57 067 -54 096 056 -09 030 118 083 121 031 105 -57 -45 -96 -60 104 -87 
004 -40 -56 -05 -34 100 020 039 -69 -54 -15 120 -01 090 -70 051 001 -43 -102 -04 121 -41 -112 -13 004 031 -87 -23 -128 051 047 006 -38 -36 -101 015 042 -36 075 050 016 -23 -21 -01 -77 -116 042 -111 -68 067 -75 -17 -78 -92 -61 -122 096 -61 042 122 054 -128 106 -47 
055 035 084 -43 106 049 033 018 029 -58 -127 040 087 002 -01 -44 053 060 -47 -71 009 -92 -108 021 019 015 -78 121 076 035 -107 121 -16 -119 -109 040 -19 -68 023 -89 104 -32 091 -14 -103 050 093 039 075 -127 -50 -38 -09 -15 096 072 -90 090 -04 -50 006 -14 007 018 
061 -96 -60 069 004 029 -53 116 -105 -32 -01 -40 121 -47 -38 053 077 023 -90 097 -98 -01 -91 122 036 -31 008 -47 -39 -80 001 -125 083 -20 -100 051 086 -119 -53 003 -50 046 -60 -03 -21 006 083 -43 060 -51 088 -21 111 -100 049 084 -61 -57 -90 003 -25 000 -22 006 
-66 -14 059 -60 079 -112 020 023 -78 -114 -68 -114 -22 -60 -92 074 -100 -102 -54 -124 007 -17 004 -83 -45 -07 -85 030 023 049 062 125 043 025 -32 097 089 -94 062 035 024 -27 -124 -51 -101 -72 078 116 095 -74 -82 118 059 126 074 071 021 005 -45 056 117 093 -124 047 
094 -12 022 010 029 -48 -77 -63 -29 -51 -123 -59 112 -35 104 -64 -80 053 -39 000 -125 083 -73 027 110 030 116 -55 -60 -35 113 -31 014 -13 -20 071 093 -111 043 026 -105 -21 110 -52 -26 071 -24 -65 073 046 074 055 -30 113 -87 106 -39 -25 -76 007 121 -09 082 -115 
-10 120 026 016 047 -77 011 043 -20 124 072 -74 -103 068 123 000 005 -125 002 -05 -113 -124 -106 -54 027 -63 -81 010 -44 -12 -104 061 083 052 -105 -56 -51 020 -63 106 -80 -47 -12 096 011 -104 -26 -121 111 094 -99 -100 -65 -36 -59 081 020 -31 -05 -99 034 -72 -23 113 
-91 -33 -35 -117 -20 085 026 -75 -21 054 -115 -57 033 102 -119 097 103 105 -66 010 110 068 -13 -118 052 -50 077 -94 -72 -66 010 123 064 017 -15 002 -56 018 088 -84 -76 063 -64 -119 038 -57 -64 -105 -95 076 024 -124 105 003 076 -91 -109 -128 035 042 117 -81 -25 -25 
065 -103 100 071 027 -99 -14 -05 062 -57 -19 018 118 041 010 100 -104 -41 104 065 -127 -94 -28 019 093 -67 028 022 -41 110 -15 011 120 116 -44 022 036 119 080 -19 106 -86 -108 -03 -18 -103 120 051 097 -61 014 -116 -112 -63 055 098 -58 109 001 044 -19 100 -01 112 
-53 112 034 047 -128 030 020 -69 103 114 -124 -116 016 092 025 -04 -67 063 -73 076 -88 005 042 112 001 -33 062 112 082 -14 011 -13 -64 100 -53 079 027 008 045 -26 117 069 -27 -26 012 -18 -30 -05 -123 -74 102 031 121 -11 -40 101 -80 096 049 044 074 -07 -67 013 
-61 100 068 -44 -60 -04 114 -71 060 101 -26 -08 -47 -90 -102 -88 -26 -111 -117 -10 -63 069 -41 050 -97 026 112 109 003 123 009 -116 115 001 045 -02 -69 017 -91 074 029 -65 -26 -30 -08 -120 107 -63 072 -112 006 -51 019 025 082 -47 -123 -66 -101 048 067 -81 063 -54 
064 -32 000 096 066 057 -33 023 036 085 -34 063 -01 -119 -71 -03 -89 031 -92 -70 062 038 -37 -104 -58 053 091 017 -39 079 -21 -119 009 -67 001 047 -62 013 -31 -98 -06 -91 -07 084 116 093 012 111 070 100 067 079 -24 -59 -30 040 102 -04 -62 -97 -21 068 050 -68 
019 005 056 016 -112 -46 -20 032 086 -58 023 070 076 008 -26 009 -17 119 -98 -42 -65 -01 023 062 111 -09 -44 103 -75 017 072 072 065 058 -03 016 023 119 -24 -85 053 035 022 047 -116 -94 -09 074 109 -50 -41 063 102 011 -71 -39 116 109 -42 -112 085 112 037 -34 
-23 -105 124 018 069 121 024 -117 049 080 -119 -69 099 -77 019 -124 -117 -82 -53 048 094 059 076 007 123 068 109 092 107 -15 077 016 -58 -85 106 041 -21 030 -70 -70 124 049 082 008 -09 -12 -114 -86 068 -93 090 -103 090 111 007 -111 002 -126 075 -31 -109 -100 022 -26 
-112 025 -83 003 095 -100 -112 -83 -56 101 110 -78 083 -75 046 -12 -61 022 032 092 037 115 -111 -114 041 -88 -115 -58 115 015 -23 112 117 080 124 -113 -108 -07 109 081 -110 067 098 053 -117 -60 -113 -85 -49 -71 -61 -32 050 -79 115 -47 079 -02 088 065 051 -10 -56 -92 
-101 095 -04 -44 -115 -29 -83 -114 113 054 046 -12 032 051 -02 054 112 -28 114 106 -53 116 -65 045 -28 119 -41 026 -32 -90 076 036 -60 -51 -111 100 -03 074 -120 -56 004 090 123 073 053 -67 -59 -76 053 -09 -110 -40 111 -23 -08 -19 -122 -15 049 063 123 006 070 084 
-65 -12 -74 099 014 009 -71 -34 -96 092 003 -113 -13 120 -59 074 017 -42 073 -73 -99 -12 083 051 -128 036 -61 075 -44 072 111 102 -05 -21 020 104 049 027 -44 056 011 098 -29 -119 053 -120 046 -07 -58 -121 -55 083 073 062 105 -62 112 086 115 -17 030 -118 045 028 
-86 004 047 -126 -128 037 -56 064 045 030 100 -75 -109 -21 126 085 065 -117 126 -21 051 075 114 084 084 -63 -106 -100 -18 062 057 -48 -114 -17 -13 104 -47 039 -01 057 -06 052 113 104 -36 063 -20 113 -70 -126 -41 110 -59 -102 -06 -12 -41 -77 -89 -09 -62 -23 -77 -124 
-121 -15 094 023 -77 099 -75 -96 -24 -02 -59 001 049 -87 030 -34 098 -10 -78 112 -81 116 -89 037 -37 -80 -121 -124 059 012 099 -93 060 036 -68 -112 -29 061 057 018 -02 -88 011 008 -63 -110 -54 087 -95 099 079 -49 -22 079 -14 056 -27 -39 -43 -22 -69 022 107 -128 
-94 -07 075 -30 022 095 035 -124 -80 -90 005 -60 -17 -74 089 039 000 -62 -102 -86 007 051 049 047 -16 -100 079 -46 -77 017 -103 047 -105 -119 051 033 -68 -115 070 -65 082 098 013 018 -85 -87 084 -79 081 -116 -31 120 -22 006 -55 -89 -97 -126 080 -43 -66 005 -13 107 
117 -116 -16 108 052 120 029 110 -30 -04 -109 029 -95 021 025 -27 112 084 -24 -70 -30 -90 073 -86 055 -100 104 072 -66 011 -113 -105 -101 -03 005 052 -31 -115 002 -104 -69 -105 -01 010 066 -57 099 -74 -78 101 116 004 051 092 008 -26 -53 056 063 -17 -114 023 015 -21 
-26 028 -58 -17 -62 -72 063 013 -88 -127 -01 084 -66 016 -100 126 -115 047 -81 074 -111 090 -117 -66 114 007 009 -101 -66 -01 -29 039 046 049 -66 034 087 021 -109 -37 062 -14 -35 -94 015 052 002 -48 123 -89 073 -26 -83 045 012 -109 -13 -43 085 087 052 037 109 -118 
-120 -65 057 -63 -20 049 100 101 -110 -14 -125 -102 -67 -122 076 019 -121 -72 -32 -88 -67 001 123 -121 -70 121 -12 053 -87 -67 -119 121 -55 018 -12 -61 -125 -118 017 034 -53 075 109 080 -14 024 -127 073 065 -122 007 097 023 -29 019 086 063 -67 073 -116 -94 -125 -89 043 
-77 081 074 047 045 116 001 009 -13 120 062 -08 117 061 085 -37 117 051 113 120 -26 043 123 009 026 060 059 -112 -56 -15 033 -33 062 -62 108 117 070 -67 076 030 014 075 067 046 -112 -76 -10 004 082 110 -12 -89 126 081 039 -15 -51 074 122 -48 053 -11 -78 -127 
058 116 -112 086 -78 -85 -81 -31 -110 115 -69 080 000 006 009 -83 -93 -09 -83 -28 -76 025 -76 -96 102 002 -69 -54 -57 -28 003 090 -94 078 011 -124 008 004 021 -112 087 059 071 -68 081 -48 039 -33 033 -88 043 -95 -122 027 -69 -100 -41 -76 014 116 044 009 071 -28 
-109 -66 088 -112 -112 007 -34 117 060 -29 097 003 109 -124 015 102 107 -70 009 -51 -06 017 054 016 -42 040 -78 -126 -85 115 083 -85 124 -126 001 036 070 026 -65 -45 123 088 -15 115 -64 -101 120 073 -85 042 -33 066 023 107 061 -52 -36 -37 058 -39 -68 -69 -42 021 
-48 026 078 119 -85 -106 082 -12 093 -39 -100 062 -110 096 -26 -77 105 -95 -51 073 -05 -05 071 -111 031 088 -37 006 -106 052 052 006 071 042 -55 049 120 008 063 042 062 -128 -39 051 -73 063 086 039 -20 -36 053 039 -02 -84 093 -52 -107 -25 -15 041 -21 122 -32 -98 
-67 106 -14 -99 -113 -03 073 060 -75 042 -63 -27 099 -90 -65 024 -41 102 -49 -110 002 114 068 021 096 -09 -107 -85 -49 -53 103 079 048 -70 -105 038 081 -43 041 078 -35 080 038 -51 085 057 015 056 -122 -98 099 007 082 056 -124 -16 -77 044 -103 086 051 079 083 098 
-126 -16 022 088 -41 122 005 045 017 -53 109 080 059 -99 -31 120 023 050 061 -110 -30 -40 006 -69 113 -04 114 -23 -31 108 026 -28 -22 037 124 002 -103 044 -92 -21 065 121 -93 -78 114 103 -81 007 -42 -21 086 -43 103 087 -96 102 040 -100 075 056 -66 094 -02 050 
-103 -91 -102 -106 099 -94 019 034 -36 -111 063 062 017 075 -97 -09 012 002 074 -61 027 000 101 106 -51 -128 -62 018 025 088 -02 -66 -74 092 026 -112 -103 -17 022 033 007 020 -05 062 -90 -91 067 050 101 -44 -46 098 -27 010 -76 -118 114 059 -50 -79 -66 -20 -04 014 
-104 -66 069 063 065 -23 107 119 -46 -30 -116 026 -124 042 -70 085 -20 065 -93 -63 091 037 124 073 058 074 -66 -08 -33 -52 -48 039 -03 -105 -108 -40 090 075 -20 -109 -62 -57 -67 016 006 -99 -49 -114 -110 070 016 081 -10 078 -09 -88 032 019 007 -15 084 -116 -58 006 
122 045 112 028 030 -19 016 -120 066 -59 076 -58 095 056 -93 008 -70 -114 060 045 -90 118 044 -109 001 091 -37 013 086 -111 -85 031 -105 081 090 091 -22 -102 -15 048 117 060 -64 003 -25 007 -103 065 004 015 -68 -47 -94 -09 -86 104 -43 045 011 -23 -103 -40 -45 -44 
-43 -27 120 080 088 042 048 030 -128 -49 046 044 -60 058 -25 044 000 -04 -16 -87 087 -50 109 126 021 -62 041 -54 -92 -48 -30 -84 -111 079 -128 -18 118 003 -116 -03 086 -118 -70 -27 014 -82 -69 102 066 038 052 -63 073 -50 106 -111 101 -29 123 013 -82 048 060 -08 
-18 -81 084 072 031 055 013 065 113 -48 027 038 -29 -40 -106 -93 -89 -25 037 -28 012 -84 046 -08 -23 118 -65 098 016 056 -57 126 -90 024 -121 -55 -67 000 -79 044 -51 025 -112 122 053 -74 112 090 024 093 -123 126 125 048 095 -77 -30 115 013 034 034 -72 095 -45 
020 027 014 -36 -110 116 -121 -101 108 055 -74 -66 -97 009 119 083 -94 001 096 -64 093 -48 082 -52 119 117 125 -03 036 -56 -96 -16 071 -110 017 -59 -117 052 -90 068 -43 027 013 -01 066 -115 -108 -21 -104 097 085 -33 124 079 120 -67 -118 -51 046 004 078 109 047 -113 
062 045 078 070 093 -80 061 126 -50 -21 004 -53 038 054 036 -83 096 -82 094 -09 -29 -79 -53 -111 -17 060 -87 -16 -115 -116 -36 -07 121 109 072 -44 080 121 074 -65 -119 -57 035 -21 046 083 -67 054 122 006 -112 066 -07 -16 -113 111 119 093 -120 092 075 006 -69 040 
117 054 -106 021 092 -77 089 -44 099 -24 039 102 070 -58 -104 -126 -25 067 103 -32 077 029 -59 -45 071 041 -38 070 126 -66 -62 -01 017 097 073 -105 -121 -24 103 094 005 -107 019 -36 068 -106 -56 -09 -54 108 -81 -79 -85 001 083 037 -42 -27 -115 -62 -62 010 119 075 
-38 -128 061 066 -87 032 -71 -87 -119 -79 023 024 -88 -10 -108 -62 -105 032 -66 118 030 110 -90 110 078 075 -96 -52 082 -01 -68 -59 -119 023 012 112 065 -92 -84 -127 -53 -19 111 077 014 -110 -111 -56 070 -87 -80 -27 106 005 -95 -97 -31 -22 -93 -105 -115 112 -04 -120 
052 017 -02 -111 -65 033 -34 093 -39 -99 -93 009 -65 086 -79 -01 -01 028 -99 120 -111 075 032 017 116 -64 121 028 -55 -08 109 117 -72 -27 006 058 125 -44 065 074 050 -71 105 -65 051 -87 -71 -48 123 -61 008 -17 033 -128 -16 -72 -92 068 096 026 044 -124 -76 083 
108 -95 029 -35 -21 -55 -40 -13 -12 071 107 070 -60 -09 012 -33 117 016 083 -22 012 -87 085 024 -127 -42 084 -16 -116 -74 -08 096 -16 076 061 003 126 -52 010 109 000 058 097 -112 -58 016 -08 117 041 -62 -47 113 102 -43 069 097 054 -95 000 -107 007 025 084 -29 
051 -89 -105 078 125 021 -84 -124 -77 024 105 017 -01 096 -29 -94 046 044 -03 -27 075 -91 089 025 -77 -49 071 056 -70 -103 -91 -20 021 -22 056 007 -65 -127 087 -22 006 -29 -18 066 000 -70 097 033 -19 -123 079 -125 -80 -30 -41 050 039 047 109 -126 027 -02 -74 081 
093 -79 -06 003 026 -46 -39 -99 -101 -19 041 -12 -111 -105 -101 027 025 -45 110 -20 066 -74 -80 -31 -109 024 -19 -80 011 002 023 041 069 032 -111 -62 -81 -30 -125 -62 020 -46 060 071 -105 -87 048 005 060 -48 075 080 -125 -57 -68 107 -06 -42 054 118 108 091 -08 -23 
-20 -09 -87 -96 110 082 -68 034 079 052 124 049 016 -88 -30 028 -59 078 044 -98 073 034 -50 -72 -36 -75 -40 -65 091 -19 089 -25 025 -27 -42 094 -40 093 -62 -08 -25 113 070 016 -44 -42 -124 -44 -79 081 -57 -121 -109 -18 114 -116 035 -93 075 -20 010 041 044 -68 
017 -101 -78 -113 089 -68 -31 052 045 -30 -127 -90 -98 053 -32 -60 -114 007 -42 -27 110 055 038 -109 024 006 -41 010 -15 041 -44 034 045 -43 -43 -16 092 006 110 052 -96 045 071 013 -93 115 -91 -40 -72 039 -101 126 -79 -69 013 -73 069 -72 -125 063 050 -22 -22 -96 
-59 -40 023 -95 106 -66 119 044 032 019 -50 -25 088 -128 -45 115 045 102 -86 108 019 -49 -103 -25 121 -08 096 -94 048 -23 -19 110 -90 031 103 029 082 120 -82 -59 -19 095 -11 080 120 -49 -28 -35 053 -97 063 -68 072 095 -64 071 102 -66 040 093 -116 049 -120 -109 
045 -13 -72 -25 -64 -86 -65 -60 -06 087 022 -51 115 -56 -35 100 100 106 -14 -13 075 020 040 -21 -95 013 -11 063 -19 005 084 001 -16 -120 093 009 -06 -72 -74 031 -96 -07 -71 -03 010 -31 013 100 -19 114 -38 068 -127 -71 091 110 -38 -63 052 057 -66 -68 071 113 
084 -103 -32 -41 -83 079 -42 066 122 -05 075 -92 -32 046 002 018 -95 115 007 -53 088 052 049 093 025 017 -59 -83 004 081 118 -48 093 089 040 032 049 -79 -112 -42 -123 100 -42 002 -68 079 002 122 -87 -58 -20 091 -19 004 -64 -56 -27 117 118 -108 -40 051 -99 044 
094 108 068 020 -20 -116 069 -115 007 049 -12 -28 -29 050 007 022 067 038 023 -100 011 -104 015 045 057 115 108 111 -96 -36 008 -120 120 -52 -46 067 -103 035 036 -118 -100 112 093 028 -55 -47 055 011 -21 -92 -105 -70 -35 -120 -77 076 095 018 115 055 -60 -33 026 -78 
071 029 -101 -126 078 091 -13 046 -122 089 -128 -24 080 -66 -107 034 -15 052 -31 098 018 046 042 -55 080 092 055 124 -33 -106 035 -55 -124 -109 124 037 045 058 000 -98 -71 -36 -79 051 081 061 -71 -14 086 084 096 081 046 -75 -40 -115 054 -57 -102 -19 -99 103 -69 -61 
116 -76 -27 057 106 091 112 028 -118 -12 -84 069 065 014 116 110 058 069 -85 051 113 090 -103 -45 004 126 061 036 112 -91 013 045 101 -11 057 -42 068 -17 -71 -102 -09 -35 094 068 048 024 -123 113 -53 009 -121 045 028 -63 -66 -110 036 024 -89 020 040 096 -112 063 
-120 -19 -120 000 062 -87 -57 021 090 039 -86 073 001 -79 063 044 050 095 -127 024 -70 027 -119 -62 070 074 -77 124 017 003 -38 033 -102 059 090 -34 -29 050 003 099 -42 094 -44 084 081 -111 -01 021 037 -125 -15 -61 -116 120 063 -83 060 076 -03 032 041 069 065 -47 
053 050 -69 068 -48 108 027 -40 -06 011 -91 081 -90 -70 -55 -119 -86 -33 -30 -117 014 029 -112 -18 093 072 098 -23 -01 -76 004 118 -48 078 054 -123 -83 -26 004 041 046 021 -66 051 -01 002 043 020 -92 116 -43 -127 030 065 014 020 052 -127 -28 049 -22 -25 017 -31 
-106 034 -23 -04 025 -11 -30 -99 -41 -115 -50 013 -112 078 015 123 124 -57 -90 -127 056 -128 018 027 042 -13 063 103 -69 -68 -99 000 -03 047 063 053 -24 -03 101 -72 -56 021 091 118 -110 -121 -96 017 -31 -48 -90 -112 124 -01 -51 -60 009 108 -71 -111 118 -109 036 -96 
076 -94 -113 107 -93 -74 -101 125 -51 -70 -106 -89 083 075 003 101 107 126 096 003 033 100 090 024 -89 -21 -105 119 -33 -118 110 005 074 087 -116 019 116 038 056 113 041 035 -84 017 -09 087 022 -64 -125 -80 -48 -36 083 -49 -09 -09 058 -98 102 101 052 -116 -61 -103 
054 091 118 111 -120 -117 120 030 -39 090 -120 -11 020 -73 -102 -94 -73 -04 -127 095 009 -95 031 -10 -42 042 117 076 -64 025 077 072 -80 -49 033 056 -90 -95 -124 -68 113 -28 -48 -82 032 -97 -63 023 108 099 -17 -100 012 -51 -72 -71 047 -39 -125 088 -23 -23 048 -127 
111 -95 -123 028 088 041 -04 -53 -51 -36 014 -87 072 073 -73 -03 065 -105 067 -127 122 -124 079 -31 -71 -89 -62 -99 075 077 -122 015 024 -69 022 099 035 -80 -25 -110 081 007 -30 100 -41 047 -62 -111 003 049 042 -45 084 105 -112 076 108 -105 -113 074 073 062 -118 -27 
-60 -73 -87 045 116 072 037 -80 033 -113 -110 032 -124 100 079 -119 -127 042 037 -10 -13 -80 125 -61 -112 112 -08 075 -109 -78 -114 124 -33 041 062 013 027 009 125 -60 -38 -38 -54 -14 033 -04 -97 036 119 -100 108 -04 081 -90 -59 095 -128 123 063 123 -37 -121 115 024 
-28 -42 -33 -119 045 -41 -103 -101 -50 -01 088 -35 004 067 018 096 047 -78 088 016 088 016 081 -55 087 -83 -47 050 121 042 004 -12 109 -47 -106 -42 115 -106 089 -95 084 125 106 060 096 -55 -37 -11 -03 045 003 104 -39 -15 023 -67 113 103 048 -40 -122 -43 100 -121 
041 125 075 085 -81 -107 075 108 -95 028 086 -64 -94 -12 -17 -88 041 -42 -83 040 089 -67 -49 115 007 -106 086 -119 -108 -94 049 -46 -07 -11 119 047 -127 055 -81 028 083 049 -31 -15 033 059 -52 -83 043 003 -03 -63 012 -66 062 -47 012 -97 -04 045 -56 076 -80 034 
118 -40 007 003 099 055 033 064 -36 125 -127 -49 105 024 -36 -99 -50 -14 065 -79 -108 100 059 -69 -05 037 039 -45 -107 038 -23 069 039 067 -123 -16 -38 -44 -80 -47 -19 058 -92 -84 115 078 029 -21 -98 -35 056 123 021 048 -34 -46 108 -40 118 -53 -97 054 -11 -125 
-108 096 064 -88 -116 -104 -11 -93 -59 065 -88 -11 -17 -38 -122 013 -53 083 082 115 057 -46 096 -16 -33 075 -120 006 -117 -61 -79 -12 093 -127 -03 076 -49 019 104 -56 037 059 015 -80 -128 092 -49 021 120 -64 -111 -18 -91 -02 109 089 077 038 119 -113 035 -85 054 124 
109 -98 -114 004 025 -15 043 091 126 072 -101 -77 084 -112 053 -23 -40 078 048 034 111 011 126 023 -91 -26 -07 -33 -83 -50 015 071 072 -11 -05 -93 012 -06 -37 049 091 -31 027 -46 102 -50 014 070 022 -23 076 087 108 -41 076 042 -98 008 125 -96 -23 097 017 -109 
001 -61 042 -84 -08 -18 021 113 -08 -60 -105 -91 -81 -90 126 097 -52 019 016 014 -46 -81 -64 -73 -22 038 -51 -42 049 -12 -81 029 -28 106 045 -45 -36 108 017 060 -127 -11 -104 -87 082 -06 -91 -119 071 -15 028 072 -64 056 072 110 104 078 062 007 078 116 083 -16 
-106 -106 105 -119 -103 007 067 063 099 053 020 -42 -12 062 104 -73 -96 -23 -105 -99 049 -07 -31 112 -114 -106 -01 -67 114 -32 086 055 006 086 -116 -80 060 063 088 -90 -123 010 098 -19 -110 095 121 -79 026 060 -86 001 080 074 090 112 047 -122 001 025 019 -13 040 -52 
081 073 023 -50 -65 -95 008 104 023 039 -58 010 -119 048 000 -12 037 068 -80 -97 -114 023 078 019 053 -121 -71 111 -61 -104 -86 -66 -38 093 -03 -95 069 -113 -51 -66 092 017 045 -108 013 032 113 064 -11 -58 049 020 074 077 086 016 036 -72 001 -10 -60 -42 077 -15 
-47 092 -11 -98 110 003 049 011 -67 -95 -19 -113 -45 069 -37 -67 -66 -74 -65 -102 079 063 017 -119 066 -79 121 033 -84 -121 062 -13 -82 -23 125 -26 109 079 -92 039 023 -87 035 120 -11 -128 053 061 045 -97 027 041 095 009 036 061 072 053 -48 -17 039 086 098 -120 
-102 121 104 -68 006 -99 023 -95 044 -101 006 -56 -07 116 071 -37 -50 077 -109 -109 -108 078 -51 076 -28 064 -70 -88 -92 047 -102 068 054 -94 -35 074 -94 001 101 -101 -92 -128 028 095 078 014 -37 032 -125 -48 050 077 -81 -12 083 121 -108 075 010 045 001 016 058 -34 
074 -22 -85 087 081 115 -118 072 047 -09 068 -05 025 -69 043 079 -72 -106 -65 091 -79 -24 115 -104 034 -84 110 120 -62 -56 -82 085 072 075 070 -18 073 -113 -69 -16 024 -103 -23 -61 -111 -91 033 -57 051 -23 116 017 002 -119 118 -57 -52 037 107 059 117 -37 061 106 
017 -73 024 032 -44 085 -55 -81 014 108 -05 -54 005 -05 033 -20 -128 -44 121 -40 -06 068 072 019 -54 062 080 013 092 -97 070 -31 -25 087 090 -93 082 -19 042 -103 103 025 023 068 -13 089 -04 123 -98 -98 -18 012 -05 -126 056 -72 -108 121 107 -32 -118 008 -73 -50 
-13 -98 -42 -85 -40 126 -16 -26 070 -09 -94 016 046 033 -103 -06 -126 006 -94 -08 -74 024 -92 124 -68 -56 024 -110 063 040 -92 115 -74 -04 111 022 -69 101 073 -07 120 -33 072 -44 -47 000 -51 -80 -96 -19 -116 065 -12 108 -84 007 051 -16 -55 -23 087 -13 -08 -87 
040 072 -64 -24 -49 -80 024 -48 -111 093 065 023 100 -88 -17 -32 018 027 116 079 -88 075 -60 -89 -101 013 117 -22 -51 082 -57 -52 024 -32 -103 -100 -63 096 -12 -81 -27 043 -125 102 -61 085 -16 -42 -12 -125 -126 -46 004 064 -106 059 046 010 -24 -121 047 -10 104 -73 
-08 086 126 -126 -102 042 -85 081 060 038 115 076 -06 020 031 -27 069 -92 031 028 060 -15 038 -56 -32 -17 107 066 -102 -72 -88 -75 -96 -26 -07 043 080 020 037 025 -15 124 -78 -16 -57 000 119 -75 -22 041 050 121 114 043 116 -103 -36 096 -109 018 -80 110 050 019 
039 -67 034 -82 -106 -105 -96 -34 112 007 054 077 -91 -94 109 005 -73 083 078 104 -103 021 058 -39 -62 -35 -56 -18 032 -66 018 022 078 -82 062 -14 -52 -06 -97 084 096 -85 -90 -85 117 013 -08 087 -121 -28 024 -48 -37 -79 -63 -70 -32 -72 062 002 -59 038 092 -02 
012 023 045 -112 036 -50 -58 -56 122 092 -110 -25 049 -94 028 -82 101 000 014 080 120 -57 -105 -75 012 -46 -68 095 -72 062 083 -100 015 -107 030 -114 076 -88 037 -86 -62 007 016 -35 -06 019 116 053 114 -34 014 000 096 120 -61 095 048 017 093 004 -88 006 088 -111 
059 021 109 -18 -13 -36 034 067 -99 -48 032 -23 094 -94 037 065 119 067 -116 -107 -110 -34 -87 068 -48 110 072 091 -71 005 029 -11 -53 063 124 044 -28 -44 -14 019 118 -54 099 -08 -83 -16 088 120 -25 -49 036 023 053 -18 113 -02 070 024 -114 036 050 051 -103 087 
027 -22 -11 -19 -21 022 -53 -53 064 002 -45 028 -84 -99 -92 -59 011 008 -83 -33 -97 050 -05 073 015 -73 083 106 -87 -17 -82 119 -114 -100 -25 -60 -68 -46 -54 051 -99 -70 -30 035 025 076 053 -110 -26 118 -100 -15 -110 048 -68 081 -50 034 -07 -106 -15 092 -125 -125 
012 -16 -82 -104 -87 -84 031 -100 013 -43 108 106 -73 -84 036 045 002 083 -101 -33 -05 -12 -91 043 029 039 -99 -02 066 126 -43 -19 026 085 022 106 -122 -14 -49 -09 -15 -25 015 095 005 097 023 046 -28 -57 -116 043 003 016 -82 -81 029 -101 -01 -34 077 060 -08 -16 
-93 085 124 -104 012 014 024 083 062 -124 -40 -114 -120 031 055 035 -100 -35 078 085 040 -26 -77 049 -100 -111 120 045 017 -03 081 012 -119 -100 055 -73 -37 -81 115 061 -33 -106 035 -75 -08 -63 058 -61 -66 -102 102 049 -12 050 -02 083 058 -94 079 015 012 -85 -76 113 
-35 -14 -68 -63 025 -97 118 -21 -68 -78 001 -08 004 -74 -35 -126 085 -86 -54 -116 -106 027 109 014 -48 -83 -42 125 001 -74 084 015 -22 -17 -115 061 060 -25 -78 -44 036 043 -110 -89 057 087 -44 -29 -41 084 -37 -44 -07 -04 -29 048 088 055 -89 018 -116 -14 093 -71 
072 -95 -05 009 -80 123 109 023 -09 -103 -90 075 -94 025 111 124 115 025 -118 -67 093 110 -120 015 066 083 -82 091 076 082 096 -05 -59 089 049 -116 -126 -66 095 -67 123 115 -70 -80 -80 052 -64 -22 083 121 056 048 120 011 -75 086 -02 -122 024 037 -38 -98 107 120 
-51 -15 -35 -11 021 -15 112 -13 -53 043 -85 057 044 -117 126 -95 092 032 026 -32 -52 019 -47 -128 119 099 014 031 -55 073 016 115 063 001 -71 -108 125 067 082 -82 104 017 -78 015 080 -51 101 041 -92 -25 050 -05 -64 111 -49 001 -116 -57 028 082 -39 -01 -87 -44 
091 -67 082 017 -81 -14 117 -55 060 073 -15 030 000 071 -03 029 106 032 -102 126 060 -23 039 035 -96 -120 -26 085 078 042 -31 075 073 -127 090 031 -47 -23 -86 026 -06 082 -08 -89 -04 -37 -39 -06 112 -90 -105 007 076 -95 094 -114 -95 -123 123 -57 090 -69 019 016 
072 120 -20 -114 094 096 062 -17 121 010 094 054 058 -70 015 -109 120 091 044 -105 -31 -28 -42 077 107 060 -15 -14 -106 -35 041 -08 078 038 083 021 -97 -60 -22 -48 117 062 120 -68 053 002 -99 002 121 106 -121 -68 -108 -22 -32 -62 -99 017 089 -109 -49 -17 -107 034 
077 -24 012 082 -48 100 105 109 118 -23 099 013 -30 036 -04 -128 010 -102 -111 -60 076 060 015 068 -32 101 -85 045 112 -47 -74 -117 022 032 -93 -86 -108 116 068 -38 087 -103 -67 078 088 015 -116 -10 053 053 092 095 050 052 011 018 -53 -42 -110 059 -61 053 -17 081 
037 026 121 -108 -22 045 -90 -26 -123 -40 -11 050 123 -92 -115 040 -73 -124 -36 005 -103 087 030 -69 -30 -50 075 042 059 000 077 073 -16 -60 -03 067 007 -33 078 011 070 110 109 122 121 067 084 115 033 -25 -68 -116 -48 012 070 -12 -74 028 -127 062 -116 079 -34 -16 
071 -42 093 090 -44 -60 -54 -35 -12 105 -11 -21 -106 120 -09 036 -100 110 -82 -43 -83 -17 -11 -03 060 -79 024 084 -38 032 -64 -119 075 041 029 116 -78 059 -68 -88 025 -110 -52 118 054 091 031 003 -108 097 -71 -46 017 025 116 108 -61 014 012 -78 110 065 057 025 
043 -108 -90 028 -61 036 -25 -93 -80 -114 -82 079 -108 -48 -123 004 -40 -05 -55 -109 -38 -83 -12 004 001 103 -07 119 -31 -117 095 -01 030 109 025 -49 077 076 099 -88 -126 011 -40 016 060 -70 036 -118 -104 -19 012 017 -07 -58 097 -126 019 -120 -120 -63 -73 -128 -30 038 
-87 -108 116 075 -26 -111 054 -75 -84 050 093 -35 006 -71 -113 -120 -51 064 030 -58 026 089 -05 077 114 030 041 114 -125 -52 -65 -51 039 -62 080 -47 039 009 -66 -07 -52 -64 097 043 100 -73 -08 -100 -79 111 123 082 108 060 073 -72 -115 -01 125 125 075 017 -127 -13 
001 -81 092 086 -69 -74 015 -29 050 042 096 042 -95 -16 067 -92 -23 115 079 039 -84 -93 031 122 -22 -53 -51 -09 030 055 -59 124 -84 000 -04 -07 -119 -30 099 -100 090 010 037 066 -19 013 102 032 -06 102 059 -56 009 -69 -84 113 106 -06 037 055 090 -90 -111 109 
-82 040 -88 119 107 117 -03 030 076 003 -13 050 -56 066 -115 -88 -53 026 -33 -58 033 -78 064 017 -86 -78 066 096 035 028 -74 043 120 -56 -97 -30 -75 -81 029 -83 -27 123 038 094 052 094 -40 064 -78 -77 042 015 -97 -96 -83 096 056 115 -62 -103 000 -39 017 -121 
-125 094 058 077 102 -114 -122 -19 009 -53 -86 -78 -16 -66 -111 -92 -76 -09 -31 -65 088 001 -37 -49 021 013 -87 050 -08 075 -113 -82 -16 -53 -98 -06 091 -38 070 -63 034 086 -79 086 020 112 -115 020 007 -94 -08 094 029 -116 051 041 078 108 -86 011 -17 106 -12 -128 
-121 -39 092 -03 055 -27 105 -82 004 112 048 044 003 -08 -84 -10 -18 -36 088 078 -77 -35 -49 -68 117 -01 115 -39 067 -85 105 -123 116 -61 -125 -101 -22 055 -87 -03 064 -15 -100 080 000 -74 -87 -15 111 080 -93 -67 -19 -62 -83 064 -24 -52 -78 078 -99 -45 045 116 
090 -39 095 126 -122 -77 006 -72 104 056 -105 108 -59 100 071 -93 041 033 075 -39 -41 001 -13 -127 -06 -94 103 012 -18 -29 -121 119 046 -40 008 080 094 006 -06 -19 066 -20 -15 114 096 068 -41 -106 125 046 071 042 -20 003 -125 -09 009 028 017 059 -90 -42 000 -100 
-83 -59 -125 -77 002 100 -32 088 105 -11 084 -105 067 -53 -38 -49 -37 -13 -72 -96 089 007 -55 071 006 -21 111 039 -86 022 -27 -71 -63 046 122 053 -68 -58 -51 023 088 088 -52 -91 -51 014 071 -18 -109 059 023 -91 077 -73 -45 -18 049 059 012 056 -108 -66 028 -119 
-48 107 005 -19 -98 -63 -30 094 109 -121 055 115 014 005 -99 049 029 097 013 021 081 -69 -19 -66 036 042 -90 058 124 -44 046 -38 -38 026 -69 -61 120 039 005 102 047 007 003 103 005 015 -105 034 095 062 -14 -14 109 -42 -41 108 -04 075 024 -48 062 037 112 -17 
015 067 033 066 126 088 066 067 -27 -94 -21 -83 -24 -66 102 -59 -73 049 -94 -98 -95 -42 027 010 037 111 024 -86 102 023 104 048 -06 -38 -41 -27 119 -69 064 047 099 041 -97 062 010 029 -119 023 -62 -10 075 105 -108 031 -75 038 -56 -74 -95 -105 -89 047 069 -16 
-44 040 052 123 -96 089 094 -13 -02 087 062 029 -12 -21 074 -76 058 -01 067 090 005 -44 -100 -97 -11 092 102 018 -43 -19 -73 -123 108 080 065 122 108 -16 075 -56 -126 075 104 112 -55 -43 102 -52 051 -121 -83 -60 -59 -68 027 -68 098 010 103 068 -23 104 -68 -49 
-84 -09 111 -53 -30 -94 -42 046 024 -123 -72 052 110 -75 -51 -121 -31 -116 -15 062 104 -100 -36 070 013 117 016 119 -94 058 -43 056 088 -12 115 054 012 001 -76 -12 092 124 097 -126 071 -08 -125 -53 -59 108 -89 036 064 093 100 079 -71 -124 -62 -73 -46 -37 -43 030 
-118 035 -59 000 -12 114 -21 116 -06 -111 083 065 055 -72 010 -120 -77 104 -10 097 002 -36 -95 017 051 024 -115 017 101 -32 -03 002 103 -104 -59 026 072 105 -38 -21 -101 -04 011 042 086 -104 -79 -40 003 068 088 012 -09 -83 037 052 058 110 006 -54 -18 -69 -73 -28 
-60 -19 057 026 062 -88 045 -75 -57 056 -71 -83 -48 069 -05 -35 -93 -61 -49 014 -26 -15 040 070 -62 063 076 068 077 113 074 111 000 -45 050 -01 010 083 119 -59 116 -35 -91 -43 060 052 -85 113 -110 -15 065 043 033 -54 099 011 -61 -121 038 -37 057 048 054 095 
-05 005 -31 106 041 025 -71 -06 -03 055 -124 036 010 -22 -83 119 -10 109 -01 -82 -08 -64 030 -119 -04 -92 048 089 005 -111 -60 070 064 018 -48 046 034 059 -27 -76 124 -24 -94 048 -47 -26 -70 063 -125 -123 086 -41 062 -73 108 -49 -78 060 074 -91 010 -105 -44 013 
101 -42 122 113 030 015 -94 016 -79 090 -126 -15 -25 045 -74 122 -03 -124 036 -68 -25 -78 049 061 -10 -118 -126 -02 078 -104 113 064 -74 -95 075 115 007 -11 -39 -07 029 -107 -05 108 120 -99 018 -55 -40 -124 -70 030 048 059 -103 -25 -43 076 027 059 026 084 -70 060 
054 009 -128 014 -101 -87 -97 094 015 104 -08 075 016 -94 -85 -35 044 -82 108 -106 097 099 -27 084 -22 038 -35 -06 -43 050 101 112 -84 -67 088 034 -08 051 -93 -72 027 022 058 056 021 081 -14 007 -76 -52 -69 122 -23 -08 -81 077 -40 016 039 -72 092 111 019 -128 
-99 -119 -34 092 028 040 050 114 -63 -59 -61 019 -58 -44 068 065 -108 -97 -46 050 029 -56 088 089 -127 086 026 -85 038 043 -18 -12 -74 -84 045 125 -56 011 -48 030 -128 -113 -124 101 -92 -35 -83 -81 104 -113 -22 056 126 -30 -50 -30 041 046 015 -115 001 082 -121 059 
-31 055 -77 016 033 100 110 -108 021 103 083 -36 -39 019 075 -45 095 -107 -61 -16 -56 -20 089 006 009 124 -83 -121 -82 -43 -79 -62 -14 105 -37 -14 -114 -80 -60 011 -126 -24 -81 -49 -88 051 122 -93 074 -100 119 004 -10 -49 -105 -28 -73 033 -29 123 -13 104 038 036 
-114 012 037 036 028 -64 -19 065 019 -34 028 036 -69 010 -11 -50 119 -43 030 -62 -20 010 -27 100 -85 076 -59 -120 112 -43 019 -101 086 -124 051 094 -101 -88 -72 -35 058 002 -112 067 -80 125 125 002 -26 -09 034 033 090 -54 -95 043 075 014 124 -124 079 -19 -25 070 
-92 -90 034 -07 -50 -74 -82 -07 -30 -10 -36 103 098 -114 015 -125 035 109 -38 -95 -09 121 -109 -09 -88 100 014 -39 047 035 016 -118 -114 112 -111 -103 034 -112 -45 096 103 -45 054 -19 092 -05 -28 -99 108 021 -51 -75 -16 -60 -87 -32 -79 -11 126 -128 -50 041 -19 026 
123 078 126 -08 -57 115 -105 098 106 -05 094 -79 -57 -41 096 090 118 055 -118 -09 022 046 -63 043 033 054 -05 -41 047 -16 -44 -100 -56 -92 009 -111 087 122 071 -101 085 040 -45 031 -23 -104 097 -67 124 022 064 020 -40 116 -119 049 019 -45 010 045 010 030 037 -09 
-85 010 048 084 -126 027 -75 018 009 099 097 124 047 101 -29 -114 -111 -33 -14 008 -12 -03 -03 -27 095 -78 -93 -113 024 114 -120 007 041 -85 060 -124 -69 109 124 107 022 -109 100 -102 -91 115 024 -15 -123 -51 102 098 035 -98 -64 064 070 097 083 -38 063 095 071 -94 
-22 -115 -85 029 -05 -37 -49 010 006 -101 -103 029 -111 075 012 116 -76 -118 -24 -03 -23 061 029 -55 -122 -72 -103 120 -06 -59 -111 -08 010 069 -35 068 -30 -47 -103 -17 029 016 038 068 065 -110 071 037 045 074 037 098 -68 050 -07 120 -115 -90 -33 029 -57 -15 -61 -78 
068 003 -43 -104 080 125 -04 -02 -34 089 -118 047 020 110 -83 060 -42 035 048 020 -84 121 111 -96 -114 072 -107 073 037 -26 -97 069 -59 017 077 -49 000 047 091 -18 -82 105 125 -106 059 -79 118 070 121 -123 -72 -122 007 -74 -40 -117 002 035 090 -44 -23 -88 -34 -04 
053 010 081 015 -40 121 -77 034 -69 -110 -103 -127 -41 -19 124 -81 -70 -109 -07 -53 058 -32 050 007 003 -75 -73 038 089 014 -111 121 -31 091 067 -47 -127 -17 059 015 081 057 -37 085 017 079 101 -125 -84 -68 -45 -113 056 104 070 -20 -43 054 095 -14 -104 -49 026 -113 
-100 101 076 057 -88 -54 -06 -83 062 121 012 -119 -47 011 -124 -85 -42 099 119 087 033 -70 117 096 017 089 -39 081 -98 -56 054 053 -66 -78 010 095 -49 110 -63 104 -50 012 102 008 -40 080 049 -90 041 -95 -10 007 077 124 057 -84 056 -38 -47 -64 094 080 063 -118 
025 063 -122 -81 -78 126 -106 036 -29 018 021 124 -127 -95 030 010 072 044 -34 -67 008 029 -105 028 -94 119 -82 083 -44 -99 -62 058 090 -102 049 -110 -53 081 044 -120 010 071 106 -99 -75 032 026 -58 -09 -28 125 055 123 -124 001 -10 -60 -24 -26 -114 -128 -108 029 026 
074 035 126 072 119 078 112 004 106 078 -98 -15 -98 104 -18 012 023 -63 117 -33 -51 007 -80 027 -56 -82 -97 109 -51 033 -87 008 110 -82 -15 -53 118 029 -62 -84 -96 016 105 -07 -110 102 104 114 100 -05 -104 -16 070 119 078 -83 069 023 024 003 -42 -98 -111 -15 
028 -87 024 -49 086 115 109 097 028 089 -56 063 -45 102 051 004 068 -57 -02 116 044 069 083 124 046 -88 022 -38 -37 121 114 -91 084 -38 043 -42 -114 -95 075 -61 043 063 -49 096 -10 117 081 -95 002 -31 -116 -61 -120 121 -55 -46 079 121 060 -42 -52 113 096 -78 
092 094 -127 042 102 -05 -117 -87 -95 070 -89 080 124 -61 056 013 043 -105 004 027 -123 -45 -55 108 -95 -103 -113 -59 -37 -66 -15 048 094 -50 -119 023 075 049 083 074 -61 -111 -34 015 -79 080 023 -114 -22 007 -112 112 040 -06 035 -59 -82 126 -31 051 -19 002 098 121 
064 -10 -32 -42 086 -73 039 103 -63 034 039 084 -99 125 -99 123 -97 001 -69 094 -75 040 067 011 -27 033 -38 069 -07 074 -108 -63 041 -93 099 -103 078 -94 097 054 027 053 113 072 087 -52 -25 090 054 006 -64 -09 101 069 -57 -48 029 -19 108 087 -67 056 027 108 
-74 114 -16 -68 -56 -27 -19 -60 112 -49 -97 -91 021 062 072 052 -49 071 -101 -125 -99 -24 042 -87 -19 089 -21 -85 019 -67 -89 122 -59 -06 -29 -122 -126 -36 024 052 -105 -76 016 089 -71 035 -01 -33 -30 076 052 092 -96 -128 -48 -17 040 126 051 099 017 116 065 -105 
-100 -96 061 -02 014 -92 -126 059 -115 -84 069 052 -108 051 -73 062 103 120 029 005 016 -91 -55 025 -33 -15 112 034 -104 -105 -53 -54 -117 039 -116 -73 001 -128 -05 115 111 056 112 080 116 -122 032 038 039 026 076 -39 044 058 -55 020 -114 058 118 126 -10 -123 -26 102 
-127 -109 -103 -99 -14 -32 -06 123 005 -83 120 -113 -08 123 -35 001 -69 068 012 003 -28 -75 -38 -85 -39 -27 001 -72 039 -15 -39 072 -73 049 -86 -05 083 104 018 111 078 -40 -99 -86 025 -112 -117 -65 117 -41 095 024 111 -87 111 052 077 -57 110 028 092 -50 075 115 
-123 -22 086 -22 101 -07 088 074 025 044 -84 049 065 076 -36 -125 057 -01 -103 090 112 -104 106 053 -53 108 -06 -65 057 -72 057 -74 -114 -32 -112 012 048 009 -37 -111 -20 -56 -96 -38 -57 120 015 089 -121 -82 -122 -40 077 -75 098 045 -49 125 -108 -68 062 051 032 -01 
116 -110 -26 -67 118 105 085 087 026 -55 -02 -113 121 -34 078 -55 -99 001 -98 111 004 -53 039 -51 -118 -02 -07 115 -98 -36 017 014 -91 -48 001 108 -35 -35 054 -42 082 121 -112 -64 100 020 -47 -03 046 056 032 058 001 104 017 121 025 -107 067 -107 -31 -36 -50 080 
-89 050 000 006 108 -103 -32 -83 006 040 -74 -98 105 113 080 028 097 064 -87 049 025 -48 -34 -36 014 -43 -103 046 -75 -101 -69 041 125 097 075 119 106 -26 -19 081 -37 121 002 030 -27 -31 -15 011 -02 -87 -37 -61 -52 -98 002 -18 -23 099 057 -96 021 091 -86 088 
012 106 036 002 074 -66 091 123 -58 049 107 -76 061 122 037 106 099 054 114 -84 037 -103 -41 -73 079 045 -71 -12 -71 100 -10 040 -118 -112 023 008 -79 048 -101 072 -101 089 063 -12 096 -21 -68 105 -114 -91 -99 -06 024 111 091 076 -105 116 -13 010 037 110 -91 022 
-83 -38 -37 -61 -13 -91 -29 -01 -26 101 068 -106 050 090 012 -04 -69 061 108 064 -115 -06 -16 -89 096 098 014 120 -89 120 -101 -93 005 019 074 071 046 -44 -117 092 013 -99 -118 -42 -25 -49 -121 -113 027 -90 -111 095 092 -77 111 037 -56 122 -109 008 100 046 -73 020 
-42 051 107 -100 096 -27 -64 -28 -47 -67 -35 013 -86 -89 063 -34 -78 018 -56 014 -105 -65 055 -20 -37 -54 -62 056 106 -108 048 115 075 -45 108 -116 119 091 010 -31 -64 -54 110 -27 -85 099 041 020 059 020 037 068 063 -114 -14 -98 -30 -82 -46 124 -106 047 113 -34 
012 054 031 -59 058 -128 001 -69 112 -69 118 -93 -122 -99 -85 -62 019 097 058 053 -30 059 074 -46 003 -108 -98 -97 057 066 019 -09 014 126 -121 -01 096 -09 107 -63 027 -117 -111 047 025 -113 091 084 097 126 092 -44 -93 -62 107 093 -28 -127 025 070 106 -61 -87 081 
-109 123 047 -54 -46 -75 007 107 116 -07 -18 115 052 031 -21 -09 069 -96 086 040 094 -64 086 049 -49 126 -40 -109 035 071 003 049 085 119 016 -28 -94 -34 -12 066 -103 100 085 109 088 -50 -23 -95 092 -79 -05 069 -34 047 -59 088 -82 -85 068 036 -99 -105 -78 -93 
-06 -109 113 049 -40 096 013 019 114 108 084 009 -90 047 052 -03 -50 123 027 -01 -05 014 109 -75 008 -121 118 015 -03 -92 055 -119 -06 -82 -10 083 -14 -119 -76 -104 031 -60 -56 088 114 -121 094 -08 041 -52 -72 -114 045 -21 044 056 -102 095 079 075 -96 069 -08 010 
-121 -106 -35 -17 -80 -93 093 -47 -36 035 019 -26 -70 -53 011 014 -98 -120 -91 -44 -61 -07 -41 053 -32 082 038 072 -113 -36 021 -97 079 -109 034 -79 -66 -104 053 112 -35 -55 -30 -34 057 -125 090 -10 103 090 068 043 122 -107 054 -109 -80 043 022 -75 -124 080 093 -73 
031 056 -25 108 094 -14 -83 090 119 -44 -52 047 082 -07 124 086 103 071 073 112 125 035 003 010 -69 125 -05 121 067 040 -32 009 -17 -32 -99 -64 018 034 -56 084 -52 078 074 -40 104 -106 038 -16 -69 -99 -115 126 -23 -04 088 110 -04 093 098 028 -03 -81 059 113 
-21 -77 113 -21 058 -85 -30 055 073 026 -114 -75 -113 060 -48 052 -76 059 -27 015 -33 030 -95 -61 -67 115 -64 -05 -34 068 008 -04 -60 -30 -13 078 082 -71 057 -19 026 112 031 001 093 -55 086 -51 068 126 113 -115 057 -63 018 -01 044 -74 -53 040 010 -56 017 007 
-121 -48 018 032 -32 -24 125 -108 -81 040 114 066 -126 017 -60 -46 -72 054 -47 -35 -122 -78 -67 028 -97 042 059 -111 006 035 -36 -38 064 -100 -12 -54 -01 010 110 -58 -46 023 070 -13 -45 050 -77 -44 -17 050 108 -04 -87 051 -52 -38 -119 -17 -105 -22 -01 035 049 -30 
-39 079 080 099 114 017 -70 -88 -36 -12 095 000 005 006 065 -127 -94 -63 -07 -22 070 -57 -54 008 048 003 030 018 126 088 -16 -69 029 053 -112 012 118 043 -85 104 -16 -125 079 -118 -62 069 -124 -80 -82 118 -36 006 -120 -25 037 109 002 -28 095 -118 120 -54 -79 -104 
005 -45 018 -127 016 -122 110 121 029 -72 075 002 008 081 123 -53 069 -122 001 104 100 -32 -50 -83 -78 -42 -112 044 030 -101 -34 060 013 -36 -99 -70 -14 061 066 -39 055 -86 -66 022 -46 062 106 083 038 -71 027 -88 022 111 -36 -101 067 095 071 -75 -03 -52 051 051 
-102 -30 -88 -124 -97 -128 -83 094 101 -13 124 -66 -67 -100 080 024 -106 -91 -121 -65 -60 -24 -100 013 042 -11 119 030 -07 -61 -83 093 126 -42 -39 004 064 001 -122 105 126 082 021 -32 -85 087 046 -82 049 -110 123 126 037 117 -03 049 120 -120 -16 -05 036 093 103 -26 
-122 -94 096 079 -05 098 -126 005 032 -109 008 -94 041 -06 -99 -54 033 126 -27 -113 -111 005 -28 -74 -76 -36 -74 014 093 -127 126 -107 112 104 -31 -36 -113 000 -123 109 052 041 -100 056 034 -32 -06 043 -127 092 -89 051 -91 110 004 -40 096 -38 -69 069 092 -06 042 -26 
084 107 005 106 -108 110 -46 020 -48 -75 -49 -111 040 -108 027 -103 -88 -16 -80 -26 011 049 014 -107 007 -66 -31 -75 -69 118 009 062 094 -74 114 -41 098 -92 062 068 -34 060 078 052 -17 044 083 -46 015 058 092 049 -74 -88 126 034 -02 020 109 -106 046 031 -118 -40 
010 055 -87 101 -62 -54 111 017 -63 023 057 022 064 -112 -17 -69 079 009 -116 -61 -123 -75 -58 058 -38 124 -51 -35 045 081 -41 050 094 -102 -103 029 069 -56 079 -72 083 051 126 044 072 002 001 -81 -121 026 -70 029 050 106 018 107 -123 047 -118 059 -110 024 001 012 
091 -128 019 -111 061 -119 018 -114 -22 -74 -85 -116 017 037 035 026 -13 001 -01 -23 026 015 -120 -47 008 079 -05 -28 -29 -109 104 030 098 -69 -17 046 062 -45 109 -37 034 -08 -82 018 051 -63 -55 -49 064 -106 -89 118 -93 -52 082 079 -13 112 -29 -128 055 113 -09 068 
-72 123 -105 106 061 -33 -109 -124 -38 124 118 -105 -64 005 105 -80 -76 029 067 -68 001 -91 -21 -125 -14 -20 -14 119 089 056 039 -115 064 011 098 -100 029 -109 -79 064 098 021 014 -103 -74 100 073 048 009 123 -104 020 -83 -12 -08 -07 036 083 087 015 -82 027 -51 005 
009 034 -51 095 -87 -114 -42 034 -42 109 -71 003 -79 -12 043 -35 114 055 -89 -114 -15 -51 065 042 042 -121 -92 125 040 -30 -116 -39 -71 112 -113 -106 018 -120 -14 -112 046 116 012 -78 -114 -122 -97 055 100 085 -117 -14 050 013 -52 -80 -20 095 -71 041 -22 083 -78 124 
-68 083 -50 -30 -30 061 109 022 001 081 -42 -105 101 -115 052 -29 038 -10 033 036 -38 -69 -07 -20 073 -34 -77 -51 -22 -06 -81 -35 042 -49 018 -60 059 -02 091 -97 -42 019 101 075 037 013 055 -77 107 080 063 069 019 -84 -106 -61 114 -120 017 110 037 055 043 -38 
078 078 -30 042 116 097 092 097 065 018 086 077 -126 -78 -59 092 062 014 -126 104 -100 -37 119 -13 009 -55 040 -79 -44 018 016 -48 -100 -52 -07 -27 -38 -77 -107 036 104 -71 031 003 -102 051 119 024 -104 078 037 081 -59 056 093 007 023 -70 119 016 097 076 079 023 
-49 023 -89 061 -77 -31 104 -06 031 021 -55 -76 000 055 061 -42 -120 080 086 076 121 070 -32 -49 004 029 067 -79 -71 -80 120 111 106 075 079 008 075 -43 -26 -95 -83 053 -28 119 -113 -87 -08 035 017 011 -71 111 -68 -122 -36 -90 088 -110 -43 -66 -121 -30 -100 -49 
018 -94 -42 106 003 -03 101 008 034 -124 014 044 -54 -116 -57 002 -12 041 010 -102 068 -122 083 000 072 -21 -63 -40 -46 -42 -30 046 -28 -19 083 073 -125 -68 -96 066 -95 -24 081 066 -38 098 068 -04 -72 -07 111 076 -27 -98 -41 -26 097 016 -83 -39 125 025 098 -56 
-45 115 062 100 -44 084 -40 -73 032 116 058 030 073 037 071 084 069 -69 041 -84 021 -62 -48 -113 075 123 -64 103 064 -03 -25 067 -46 -45 061 -35 079 -57 -50 -100 -95 -71 -95 070 -116 -119 -35 -75 -49 -15 113 -08 -28 051 073 -81 080 112 -99 -103 -105 108 -61 111 
-23 -126 010 -123 -59 048 -25 -128 020 078 -21 086 070 -71 -68 012 -99 -33 -106 -112 125 -26 -27 048 -01 -36 -24 012 -41 -92 -108 -121 112 -03 123 -47 -27 -101 -65 -91 -89 -18 017 026 021 -92 102 057 024 121 111 079 052 081 -44 -124 -88 -41 -43 -118 040 -107 081 125 
-25 -94 089 -100 -09 108 112 -109 077 -119 -12 -89 -116 110 059 -87 010 015 -84 -54 088 -77 -47 -61 095 106 119 064 065 124 022 091 057 -72 -79 034 -112 -45 042 006 062 031 -04 035 072 041 079 105 013 110 009 -76 041 -39 -16 -52 -65 -76 071 -31 -107 036 068 -17 
028 054 122 055 000 069 -57 -34 -40 -94 038 033 004 095 -12 030 -111 037 -54 -31 -94 037 -04 -68 -24 097 062 -119 008 003 119 -44 -117 -35 -80 -120 -103 106 111 033 -87 -70 -63 -55 -63 -87 -49 007 061 084 033 -109 -86 112 125 -113 007 -21 014 017 003 -69 088 103 
-39 092 061 039 125 -98 -112 -30 -47 081 -31 -84 048 -22 -60 -43 092 -66 116 -08 -104 070 -33 010 -39 -92 -74 092 016 099 -78 055 -77 067 050 080 -103 079 -58 074 -60 -116 -25 103 -27 024 006 -53 017 -92 -89 005 -78 -116 042 -127 -54 -71 035 -128 -123 -45 -114 -103 
-70 067 -33 047 -75 -78 -32 -15 049 009 -78 -70 -77 003 -95 062 -74 048 -112 032 -28 059 112 -125 101 114 -25 -123 110 -101 015 027 -122 056 054 062 -121 -54 053 046 -79 -79 -05 087 -31 -92 081 -47 -67 -71 -07 088 -53 038 006 -63 -121 -113 -09 104 104 041 -114 -31 
-18 -23 -05 066 -45 -114 -68 007 017 -30 026 035 117 -39 050 -79 -58 102 -64 -71 088 -11 058 005 -74 -12 -78 -14 -59 036 115 -69 -116 -21 084 -25 056 000 -104 096 051 088 107 027 -46 -64 039 -03 -123 028 -124 015 -98 095 -110 -33 -33 018 056 -86 078 020 020 075 
-61 -115 087 088 085 -127 -46 -112 099 -90 -25 -127 103 008 -32 -70 -96 -11 -32 072 073 -26 -97 033 -55 009 111 099 -127 -128 041 091 010 -12 033 064 -120 054 071 123 -79 -60 008 058 -18 -44 003 023 016 -69 010 -15 041 -42 -23 016 110 -08 091 -19 -89 025 056 019 
067 -64 -79 012 090 -112 -117 069 -01 -16 -22 -35 -98 -13 090 -120 -29 055 045 -118 079 -29 -53 010 -11 -122 082 031 010 -25 -94 039 041 095 -49 -85 -02 010 -11 011 119 009 -03 008 -54 -52 107 -20 -52 -111 039 076 -24 012 -66 -97 -79 -72 100 -35 -54 -90 -91 -12 
-26 -119 023 -04 -81 -93 018 -110 076 -121 -111 -75 -79 035 -128 -107 -06 061 -96 -91 -11 003 -84 -49 -119 125 047 -49 074 -43 008 -37 -32 -19 099 -64 -94 012 020 002 -59 -122 038 075 -79 023 -79 009 081 -35 062 075 -52 067 057 074 059 -118 027 096 -63 -44 118 008 
011 087 007 -91 077 -70 059 -44 -14 -47 -80 044 126 073 -56 078 026 105 011 012 -86 -29 026 -75 072 092 -09 014 068 041 015 048 044 115 -06 033 -126 124 -84 011 -126 -56 -61 -111 -16 118 076 089 008 -99 -105 061 084 -01 -02 081 111 -93 -15 114 -128 -104 -43 -73 
104 108 053 -65 053 078 -37 051 109 115 -89 -119 027 -57 -124 -01 -127 -29 -111 083 -121 -78 060 -66 -35 105 021 055 043 017 114 -20 -09 -45 -89 075 -48 -67 -45 100 -85 024 049 045 085 113 -127 057 -62 -89 037 -121 -09 -70 079 -13 109 046 003 098 102 -104 098 108 
004 093 -14 -33 -40 108 -83 114 103 -112 -74 024 -36 091 -04 -67 102 053 096 -85 -82 027 -78 -22 123 -103 005 038 079 -68 018 -103 -24 -62 -118 -20 067 -44 -59 -84 -43 042 031 097 -50 118 -75 -70 -93 104 056 -13 002 -44 106 -06 066 117 015 -124 076 052 -127 -123 
-34 055 -20 011 -33 -34 090 -33 100 083 -111 062 -98 032 -50 -115 052 -43 123 -76 112 063 035 006 022 118 -113 -27 092 -50 093 -96 061 -99 -41 031 -25 -42 122 -110 100 -103 -121 -19 -128 -52 -50 122 090 040 011 093 -115 -21 026 107 010 -15 -126 -03 089 -124 -86 085 
-44 -91 059 046 064 120 104 078 -47 116 -49 119 -79 -44 -119 -66 -52 -80 089 -91 -39 115 -43 054 020 -118 -84 -118 017 -87 034 110 -112 -63 -114 102 046 -31 048 -62 -115 -23 005 -105 019 -72 -59 035 -03 099 -96 -17 -99 -119 077 -119 -97 -68 019 083 118 -95 075 -100 
-31 -10 037 066 028 -97 097 -01 -16 052 024 055 055 -19 045 -35 001 097 -120 -24 014 -49 -82 012 -115 047 -82 -106 002 112 -28 126 037 -06 095 063 -09 039 033 003 004 -39 117 045 086 -35 -40 -70 -91 096 006 054 -77 -40 -85 080 -126 -127 122 064 003 -115 -70 -92 
116 091 -49 -94 -47 051 -01 098 043 -102 063 067 -82 -86 070 019 090 -98 015 101 009 -01 032 -101 -120 036 069 -55 104 000 -97 109 -97 000 -79 -71 094 -59 -70 -68 108 008 -98 011 -63 072 -80 071 093 -85 095 053 -05 023 041 -17 056 032 -103 -42 097 -80 -83 077 
-93 -22 031 088 -84 089 -75 107 -24 035 003 025 -16 -120 -60 045 008 050 -83 081 059 -128 089 -109 -59 -27 -05 -89 013 020 048 -64 -84 -35 -15 -113 066 058 104 105 -97 020 063 030 -28 106 003 -34 -13 -09 -125 027 116 -24 -43 -27 101 -94 -61 082 -107 -79 056 073 
086 036 100 033 -107 088 126 031 -58 -02 000 125 048 086 -55 -111 026 051 112 008 -103 054 123 -60 -80 -40 006 -93 103 -20 -31 065 -90 013 048 -17 -33 105 -72 097 -108 099 018 007 -01 -01 059 -10 032 069 -06 036 033 -32 -31 -99 -54 -04 040 057 004 -52 028 -92 
113 -39 049 -02 -77 -45 -22 117 016 079 -57 016 -80 -118 124 050 009 114 -109 005 -87 -19 -97 122 121 112 -111 -39 122 091 028 -75 -77 -112 -49 117 122 -115 -44 097 104 068 092 017 -32 105 015 068 074 -83 013 062 083 032 -81 090 105 071 -86 024 -103 108 057 -17 
045 -97 -62 -77 089 038 -80 -13 -18 124 069 097 086 088 045 -128 098 088 -32 085 023 084 093 -110 -70 043 052 052 034 -60 -80 -44 110 -109 -10 -96 -100 -18 -113 065 084 048 -70 -127 -109 024 031 119 -38 104 050 -02 -105 016 -21 011 -87 065 -30 041 095 -24 -60 115 
030 084 -10 -118 062 -58 062 -96 -72 -85 031 093 -55 -114 001 -84 100 126 057 047 027 027 -122 067 -32 107 013 041 -46 -128 053 094 -78 024 -112 080 022 -45 -15 -106 -63 -70 096 116 -104 -114 -56 -94 -111 -14 -50 -58 125 087 -32 100 013 029 011 031 -75 015 -109 -49 
098 -62 -50 079 -77 029 -73 114 -73 -111 019 -108 -26 -57 035 -04 -82 062 -78 -36 040 096 100 -71 -24 003 -110 -69 037 -70 -15 -27 -30 -34 -103 025 -42 -01 091 -103 -82 -03 012 -90 116 069 098 -23 -77 -06 -120 -13 022 -25 054 038 -55 065 084 075 -05 094 099 -75 
027 008 022 -38 124 065 066 081 063 -125 -74 060 022 -67 049 037 126 -69 050 -105 -51 046 125 -66 -111 077 059 089 -110 118 011 -12 025 -95 079 -120 -76 -88 005 -26 040 072 -65 031 013 -40 -118 -68 -86 072 -108 098 024 -70 016 040 -102 -99 -68 -116 008 083 059 003 
084 108 087 -21 -03 011 -12 093 -52 -123 -59 039 -10 -79 -115 124 052 -54 000 116 057 074 -100 -79 069 -100 -92 -127 039 051 121 -121 -112 -125 -117 -109 -15 -120 123 063 -84 103 -48 -126 -86 055 038 -09 -122 058 -22 -54 -50 087 -57 -70 031 -55 110 058 095 -64 075 080 
029 -109 064 -93 030 -127 -90 -42 051 023 007 057 -21 125 -117 -71 012 -71 -94 019 -70 -35 -54 060 -89 038 -52 043 100 -38 -125 022 -124 -47 020 117 008 058 -26 -94 085 -46 -111 -112 -46 016 051 -03 068 071 -19 -89 044 -59 -123 022 063 110 031 -17 104 -64 004 073 
-10 -100 -87 -41 -127 009 -107 040 043 073 -45 -102 101 007 -02 053 120 122 017 -65 -07 042 045 -60 124 021 083 008 -37 009 -21 -85 -110 067 -115 -79 049 044 066 045 -126 050 008 017 110 039 -34 057 -127 -52 005 111 020 101 048 028 -74 -15 -14 -32 107 023 124 -06 
-15 -24 088 -114 056 -87 -08 -100 024 125 065 -09 -63 042 -50 099 -114 088 121 120 -07 -18 -82 -54 -39 -70 059 -03 004 -04 088 005 017 -47 035 -94 -101 020 -78 004 023 -49 109 -57 -50 063 103 023 099 -39 100 -127 119 075 086 101 114 122 120 -49 -26 -122 042 -65 
-103 003 -08 -127 073 -82 -44 -31 097 -128 -13 -81 -99 020 015 102 -11 059 117 -62 -49 126 -19 017 -92 096 060 -58 -11 054 097 -19 079 008 030 103 100 -29 -83 -82 096 013 -92 -44 110 111 -36 -59 -93 -15 116 049 -43 005 095 119 050 -128 040 087 063 -04 -60 -27 
-26 099 077 -08 -42 -99 -83 014 -11 -79 -88 -11 -11 087 056 -36 123 -98 -111 124 052 117 -03 -125 014 -81 -48 078 -96 -90 018 -88 -56 -79 -95 -67 116 -85 081 122 036 114 -67 097 040 -40 -10 053 126 014 -70 -44 058 023 108 -17 105 012 -43 120 075 120 -27 -59 
059 059 022 026 116 007 021 022 007 -51 -101 -97 023 -26 076 -107 -57 096 079 054 -126 121 071 100 003 061 -79 025 086 069 034 018 -105 061 -09 096 014 100 093 -110 075 093 076 -75 -120 092 070 035 022 070 -74 -39 058 -28 -104 077 081 047 -21 050 034 -06 114 069 
-11 006 068 -39 025 101 028 104 004 -55 -119 031 077 -97 -74 -78 108 063 102 122 -10 -103 -104 116 122 -100 068 -12 068 037 -55 125 066 071 078 -114 014 -128 -21 119 -66 -39 121 089 008 086 100 -11 108 -110 -48 -19 -82 096 069 119 -31 031 001 052 -45 -36 -06 117 
111 -23 -126 026 -03 114 -14 -88 006 122 -89 -41 -33 092 -113 -21 104 -01 -42 112 092 -73 126 -01 079 -76 003 -10 -42 026 007 -79 -96 -83 056 072 -10 096 095 005 -09 022 -54 -84 048 -32 016 059 -122 -104 083 -87 084 -118 -28 062 -62 111 009 047 -02 -124 -94 -04 
079 -108 047 -92 112 070 029 -104 -93 -36 -35 064 051 039 057 049 -02 -45 114 030 037 114 077 078 004 029 091 122 -82 100 011 076 -56 102 109 122 076 -25 095 -67 031 -120 -115 048 -31 015 -118 038 -12 -44 -65 -112 -115 013 011 078 075 074 -29 037 -79 -90 015 112 
-95 050 -90 -04 102 009 -57 051 -54 092 -71 -91 -113 007 -20 068 053 088 -21 089 -97 023 125 061 115 -09 -34 -08 -21 111 041 -63 -53 089 -35 -120 101 -116 111 -64 110 -119 -110 105 089 -127 000 -17 -05 034 085 082 084 106 -26 024 016 112 018 045 074 -125 -66 069 
065 -49 -64 -67 -48 -76 002 039 110 -96 036 -79 -12 068 042 047 077 -71 002 -42 -120 -126 018 120 -101 -19 037 -89 -25 026 006 -25 081 -115 058 041 -84 007 089 -26 070 126 087 118 000 017 063 -43 -44 -74 080 -39 -05 -29 -69 009 -01 -111 056 -06 -75 -71 071 095 
-65 -69 049 073 -85 -82 086 -122 052 -31 058 -82 091 091 -60 081 092 063 010 083 056 068 -32 -25 018 104 -72 075 069 085 -42 -79 -42 -23 022 -19 -47 077 081 010 -107 -12 -62 032 -124 014 013 -75 -75 008 -73 -62 030 071 025 056 030 098 081 068 038 -126 084 -54 
-124 038 -113 035 -111 -119 -51 -127 004 024 084 -12 -75 -24 088 007 -81 -128 078 070 -81 -84 027 -126 -62 -117 053 122 -54 -81 -116 -79 -60 -28 059 101 -24 032 -106 -03 -38 -128 -32 001 -44 085 101 114 -63 029 044 -92 031 -18 121 -119 -75 071 049 009 -109 057 063 046 
-106 -96 104 -119 -106 -10 -39 032 013 053 -55 -126 -49 -22 -23 -119 -76 -86 -76 -51 -103 001 -113 024 046 -76 -34 -104 088 066 047 -116 -59 000 -74 -116 086 025 -59 081 -110 -42 029 -120 097 009 017 023 -68 071 -39 -63 -124 -25 078 -15 -59 -89 -36 -40 002 060 -15 -102 
-84 030 -71 -29 046 090 125 060 003 -30 -13 120 -117 037 103 073 043 -70 -90 103 -67 088 122 077 -08 -47 -90 -44 -79 044 -124 111 117 079 -15 094 070 102 -74 -66 -12 -44 062 035 063 019 037 019 -38 027 093 112 -106 065 -73 -35 -113 036 010 086 -52 -65 -31 084 
098 060 008 -05 108 115 113 082 -04 004 -126 -29 -88 091 -13 -70 -41 -60 124 081 -122 -35 042 -60 -63 013 003 -103 -67 057 -14 -105 078 080 -109 -40 063 -77 126 000 -17 -55 030 060 049 106 009 -115 116 040 -71 -74 060 -96 114 -07 -19 -115 112 -103 -08 -07 -43 -64 
-02 -11 -124 -28 -34 -73 -128 064 096 -41 -112 019 -21 106 -69 075 084 003 -108 -09 -57 119 065 091 063 082 090 -101 098 -60 066 -58 -115 123 -10 017 -80 064 -38 -01 021 044 118 057 -109 065 025 -115 -16 091 081 -71 -43 024 025 -36 -90 -83 -96 004 -112 -03 -58 121 
-106 059 -122 064 052 -118 -08 023 -70 002 -39 041 089 -91 -72 -78 -107 012 021 -13 074 027 -24 -108 056 117 -114 108 015 -76 -46 -68 095 -59 -41 038 120 060 -89 -56 -26 091 -49 090 -47 111 -83 013 -69 056 -71 108 -38 031 061 096 -59 004 -109 002 078 110 -15 005 
-89 -52 094 -106 -49 -45 -44 000 -60 -76 120 -38 017 001 -10 -62 -111 073 -25 070 029 -72 123 010 058 -53 -84 017 116 117 -40 000 021 -98 -16 -09 -76 109 -90 087 -77 079 -77 099 -33 071 -48 064 -121 -16 -90 093 -05 -120 110 -69 -30 -113 -78 050 107 -11 079 -118 
-109 -92 -84 -62 -94 023 -116 050 084 022 083 113 106 -57 113 120 112 089 -41 018 -15 003 081 000 -17 -37 069 080 041 080 069 056 049 -09 -19 117 -30 -96 -107 101 036 -73 109 024 088 -102 -51 061 -79 084 -61 -106 -76 081 -20 030 -04 013 110 -47 058 092 -55 -101 
093 049 035 035 114 -80 095 -51 068 088 -67 -83 -76 041 -106 -61 087 011 -23 -58 -06 077 116 092 125 -120 063 052 070 087 037 -107 -87 066 109 117 039 093 044 082 008 -118 -81 -94 -83 -10 094 -106 -69 -122 111 009 082 -100 080 -105 059 024 004 031 080 -55 -43 008 
-98 025 047 -118 -12 126 000 -42 -97 072 098 084 -38 -118 -70 -81 047 118 -127 002 -105 -107 051 095 046 -07 -60 024 -109 -99 032 -30 -112 025 112 -90 -24 -95 050 -04 -60 -78 -112 -31 -03 -74 -50 011 052 -123 106 049 -32 054 -68 -31 -105 -124 -20 -33 103 097 121 -37 
-52 -34 056 -105 015 -10 -99 111 072 036 095 003 -09 057 -108 026 094 -42 032 -22 008 -69 -86 -86 029 012 -120 -55 058 002 -35 090 072 079 113 083 -115 -23 026 045 103 038 -78 -02 113 -50 -21 012 -54 053 -120 -14 -21 007 082 048 068 072 085 -92 -95 098 -69 044 
