-30 060 -124 007 -91 082 112 033 107 075 120 -39 103 -17 -37 -58 -50 041 -54 069 066 059 060 -82 035 -115 -58 107 -06 -74 006 078 000 000 000 000 000 000 000 000 000 000 000 000 000 000 000 000 000 000 000 000 000 000 000 000 000 000 000 000 000 000 000 000 
063 -32 120 -22 -98 064 -94 080 -39 -53 -87 -66 -12 041 082 125 002 -58 -47 072 048 015 -10 -18 -113 -10 042 024 029 002 017 -103 000 000 000 000 000 000 000 000 000 000 000 000 000 000 000 000 000 000 000 000 000 000 000 000 000 000 000 000 000 000 000 000 
-23 -73 -118 038 125 -128 -77 -77 -115 -05 -114 -66 123 096 013 -21 -88 -102 -81 059 -01 095 -73 -06 064 013 066 -64 098 011 021 092 000 000 000 000 000 000 000 000 000 000 000 000 000 000 000 000 000 000 000 000 000 000 000 000 000 000 000 000 000 000 000 000 
-10 -68 104 -14 -92 -80 -01 -112 088 -23 022 -27 -121 070 -55 008 079 121 -61 -15 -92 014 -27 045 000 -111 011 061 091 074 032 047 000 000 000 000 000 000 000 000 000 000 000 000 000 000 000 000 000 000 000 000 000 000 000 000 000 000 000 000 000 000 000 000 
-96 062 -19 -30 -50 -11 -62 -34 048 -24 121 117 -31 -71 -80 -30 113 -65 041 040 072 030 -82 050 -73 048 -21 078 000 051 -69 080 000 000 000 000 000 000 000 000 000 000 000 000 000 000 000 000 000 000 000 000 000 000 000 000 000 000 000 000 000 000 000 000 
-65 -88 -60 039 000 123 -107 -77 -29 109 080 072 082 -29 125 -37 045 -38 -52 -51 -72 069 -93 -97 093 -128 072 -01 125 -124 011 022 000 000 000 000 000 000 000 000 000 000 000 000 000 000 000 000 000 000 000 000 000 000 000 000 000 000 000 000 000 000 000 000 
-26 102 118 -48 -68 -28 116 112 087 038 -67 066 -77 030 083 -37 -108 -48 096 092 -84 004 029 008 -84 -62 -42 099 099 -57 061 015 000 000 000 000 000 000 000 000 000 000 000 000 000 000 000 000 000 000 000 000 000 000 000 000 000 000 000 000 000 000 000 000 
106 095 086 095 098 124 071 -84 -06 -108 084 -07 -30 -49 -20 058 101 -28 -81 -40 -109 -46 -34 052 -108 066 -112 116 039 -87 -30 083 000 000 000 000 000 000 000 000 000 000 000 000 000 000 000 000 000 000 000 000 000 000 000 000 000 000 000 000 000 000 000 000 
-120 077 -123 -28 090 030 032 069 -84 -15 -98 -86 -14 115 -38 -63 -46 057 -66 -04 100 -72 -09 101 -93 018 -38 069 -81 -09 120 -31 000 000 000 000 000 000 000 000 000 000 000 000 000 000 000 000 000 000 000 000 000 000 000 000 000 000 000 000 000 000 000 000 
-102 -02 -75 066 059 -51 -09 -113 039 -29 101 -41 024 047 -08 092 100 -94 -45 -14 028 -72 -22 034 005 001 074 056 044 088 017 -56 000 000 000 000 000 000 000 000 000 000 000 000 000 000 000 000 000 000 000 000 000 000 000 000 000 000 000 000 000 000 000 000 
091 -46 -09 007 -29 -44 014 059 -51 006 -36 003 078 035 -41 114 011 112 046 -17 -75 005 084 -112 -08 -66 045 007 099 -31 086 078 000 000 000 000 000 000 000 000 000 000 000 000 000 000 000 000 000 000 000 000 000 000 000 000 000 000 000 000 000 000 000 000 
090 -23 -71 -10 -97 043 -41 -30 -80 -128 063 041 090 -121 -93 059 -73 013 -93 -113 -49 -96 002 -87 016 081 -62 -121 -106 047 086 006 000 000 000 000 000 000 000 000 000 000 000 000 000 000 000 000 000 000 000 000 000 000 000 000 000 000 000 000 000 000 000 000 
047 091 007 062 025 000 076 043 089 122 063 017 032 069 030 050 050 -53 -28 015 -29 -33 052 006 101 -16 098 -65 -05 -64 -51 -13 000 000 000 000 000 000 000 000 000 000 000 000 000 000 000 000 000 000 000 000 000 000 000 000 000 000 000 000 000 000 000 000 
001 -84 -38 -08 105 058 -126 -49 -113 -19 010 026 024 034 118 -27 -46 099 059 078 -105 -52 088 083 -103 102 -75 -84 076 -112 -71 118 000 000 000 000 000 000 000 000 000 000 000 000 000 000 000 000 000 000 000 000 000 000 000 000 000 000 000 000 000 000 000 000 
048 010 -45 072 -38 117 111 015 093 057 -09 033 117 -108 053 -72 -13 -70 085 037 -101 007 -86 -29 054 -117 037 -38 094 -75 085 042 000 000 000 000 000 000 000 000 000 000 000 000 000 000 000 000 000 000 000 000 000 000 000 000 000 000 000 000 000 000 000 000 
077 004 -17 023 122 067 075 052 095 -48 -41 -97 107 -97 079 -87 -07 -10 -71 092 -29 -82 105 -113 -97 060 126 069 -52 013 -30 004 000 000 000 000 000 000 000 000 000 000 000 000 000 000 000 000 000 000 000 000 000 000 000 000 000 000 000 000 000 000 000 000 
-75 -102 -21 -106 020 -59 -117 -101 038 059 090 015 -55 -125 066 092 -33 088 071 -69 -73 043 122 122 -63 -06 041 -51 -17 001 -73 -58 000 000 000 000 000 000 000 000 000 000 000 000 000 000 000 000 000 000 000 000 000 000 000 000 000 000 000 000 000 000 000 000 
-45 -79 092 -117 -10 067 -28 -07 -100 124 -80 024 -31 -119 -69 -28 -56 113 022 076 082 018 -67 012 089 018 -43 -50 124 -120 -115 -95 000 000 000 000 000 000 000 000 000 000 000 000 000 000 000 000 000 000 000 000 000 000 000 000 000 000 000 000 000 000 000 000 
058 -23 -105 -02 037 125 124 126 -127 -60 -68 117 -71 -69 067 112 010 003 125 038 024 -15 066 038 063 -29 061 070 -53 -121 047 105 000 000 000 000 000 000 000 000 000 000 000 000 000 000 000 000 000 000 000 000 000 000 000 000 000 000 000 000 000 000 000 000 
-95 034 -90 093 082 -124 036 125 078 101 -90 -21 -01 000 -102 -55 -31 -72 073 018 054 -50 -101 -16 -08 -114 074 118 -116 062 -116 029 000 000 000 000 000 000 000 000 000 000 000 000 000 000 000 000 000 000 000 000 000 000 000 000 000 000 000 000 000 000 000 000 
022 090 -98 084 102 024 006 -07 -44 -95 015 068 -92 -40 057 -21 -102 -25 042 019 073 013 -59 064 -32 058 083 044 -64 057 060 011 000 000 000 000 000 000 000 000 000 000 000 000 000 000 000 000 000 000 000 000 000 000 000 000 000 000 000 000 000 000 000 000 
053 040 089 019 077 038 -06 076 126 051 105 049 102 -70 036 072 003 046 092 -61 -86 088 -117 -38 -11 -105 -74 -06 -54 -59 028 -50 000 000 000 000 000 000 000 000 000 000 000 000 000 000 000 000 000 000 000 000 000 000 000 000 000 000 000 000 000 000 000 000 
-83 118 122 -116 -124 -03 -75 126 039 096 015 -118 -82 -86 120 -30 -67 -08 080 122 -47 -02 069 009 013 -98 114 -59 007 -57 082 -37 000 000 000 000 000 000 000 000 000 000 000 000 000 000 000 000 000 000 000 000 000 000 000 000 000 000 000 000 000 000 000 000 
106 -93 052 112 000 068 009 -26 085 -89 042 -103 011 029 062 028 097 109 120 036 052 -11 054 -24 098 -34 046 -48 091 -109 -106 -87 000 000 000 000 000 000 000 000 000 000 000 000 000 000 000 000 000 000 000 000 000 000 000 000 000 000 000 000 000 000 000 000 
-117 -11 -29 -72 060 -65 -74 014 -84 093 091 104 086 067 121 050 -116 057 -49 045 077 -111 -89 053 -122 -46 -94 -126 005 110 -31 098 000 000 000 000 000 000 000 000 000 000 000 000 000 000 000 000 000 000 000 000 000 000 000 000 000 000 000 000 000 000 000 000 
016 093 -74 073 020 -41 111 031 -103 095 -120 -66 067 -98 -04 -28 075 068 021 -32 -100 027 -21 -118 070 -34 006 002 -10 -62 -84 -31 000 000 000 000 000 000 000 000 000 000 000 000 000 000 000 000 000 000 000 000 000 000 000 000 000 000 000 000 000 000 000 000 
096 -27 012 086 013 036 113 009 -67 122 091 -09 091 -62 078 090 -71 -103 111 055 025 -66 -57 -50 120 -66 014 -45 025 088 040 063 000 000 000 000 000 000 000 000 000 000 000 000 000 000 000 000 000 000 000 000 000 000 000 000 000 000 000 000 000 000 000 000 
-82 074 078 116 -35 -37 057 -40 -14 013 005 -23 073 -85 074 058 126 120 -06 -60 -36 060 -74 -59 -23 -63 -123 -88 -70 019 053 -46 000 000 000 000 000 000 000 000 000 000 000 000 000 000 000 000 000 000 000 000 000 000 000 000 000 000 000 000 000 000 000 000 
122 112 -04 -100 053 054 -38 -74 -75 -82 -66 -81 002 074 099 -123 -51 -72 -126 060 034 094 021 -121 -12 008 -26 086 -100 082 074 107 000 000 000 000 000 000 000 000 000 000 000 000 000 000 000 000 000 000 000 000 000 000 000 000 000 000 000 000 000 000 000 000 
-39 -34 -54 -71 082 004 022 108 097 -102 -71 -36 011 116 -96 -68 -95 117 057 015 109 003 -86 020 015 -15 069 125 -55 -68 -83 -85 000 000 000 000 000 000 000 000 000 000 000 000 000 000 000 000 000 000 000 000 000 000 000 000 000 000 000 000 000 000 000 000 
-69 -38 024 -83 -103 099 -92 079 106 006 087 002 -123 -69 -121 021 -28 028 080 069 -71 089 -32 010 -30 047 005 -94 045 -58 072 -60 000 000 000 000 000 000 000 000 000 000 000 000 000 000 000 000 000 000 000 000 000 000 000 000 000 000 000 000 000 000 000 000 
107 029 014 -108 -69 -49 -81 -40 -03 080 -23 -58 -51 -66 -99 122 -102 -36 113 050 112 009 108 -21 027 091 064 068 112 011 -20 087 000 000 000 000 000 000 000 000 000 000 000 000 000 000 000 000 000 000 000 000 000 000 000 000 000 000 000 000 000 000 000 000 
-44 -102 104 085 015 059 -104 -07 -23 -62 -120 -10 -82 027 -110 123 -35 107 -124 -92 074 -30 -24 -49 -01 -04 -99 -89 -70 -69 -86 -69 000 000 000 000 000 000 000 000 000 000 000 000 000 000 000 000 000 000 000 000 000 000 000 000 000 000 000 000 000 000 000 000 
-89 025 044 -124 -47 019 -69 041 073 -125 -44 -15 117 047 044 012 103 122 -06 -36 076 -105 084 124 045 045 -96 085 041 -39 085 047 000 000 000 000 000 000 000 000 000 000 000 000 000 000 000 000 000 000 000 000 000 000 000 000 000 000 000 000 000 000 000 000 
072 -18 -26 -91 -19 -66 -38 -102 -46 -26 101 119 006 -85 070 028 -68 079 -18 -11 112 047 002 -127 -50 -72 070 106 -53 -19 108 108 000 000 000 000 000 000 000 000 000 000 000 000 000 000 000 000 000 000 000 000 000 000 000 000 000 000 000 000 000 000 000 000 
028 -32 -87 033 018 -14 -42 -30 107 121 121 -42 105 008 026 -33 061 010 -80 086 062 113 086 -35 -68 -62 056 107 -28 098 091 -39 000 000 000 000 000 000 000 000 000 000 000 000 000 000 000 000 000 000 000 000 000 000 000 000 000 000 000 000 000 000 000 000 
-87 -94 125 -114 -47 046 -128 074 081 087 -01 092 125 041 -80 -49 -121 -107 013 -16 078 -112 -122 053 017 001 032 096 013 022 028 001 000 000 000 000 000 000 000 000 000 000 000 000 000 000 000 000 000 000 000 000 000 000 000 000 000 000 000 000 000 000 000 000 
092 080 091 -12 -56 076 -01 009 121 -55 026 -04 059 -77 -16 058 -99 078 -32 -55 106 -20 -102 004 -124 -61 -61 -114 -83 -38 -33 -88 000 000 000 000 000 000 000 000 000 000 000 000 000 000 000 000 000 000 000 000 000 000 000 000 000 000 000 000 000 000 000 000 
075 003 064 084 -82 -110 -70 -82 076 102 -108 -07 094 -23 122 114 -115 -93 029 045 095 -11 -74 012 -02 -56 126 -26 094 -113 099 124 000 000 000 000 000 000 000 000 000 000 000 000 000 000 000 000 000 000 000 000 000 000 000 000 000 000 000 000 000 000 000 000 
-09 083 041 -25 011 -82 -79 039 -109 007 -12 -15 044 075 085 -27 028 071 111 107 019 -40 031 -109 -70 091 -25 -122 109 095 -70 -18 000 000 000 000 000 000 000 000 000 000 000 000 000 000 000 000 000 000 000 000 000 000 000 000 000 000 000 000 000 000 000 000 
-21 072 -17 039 -07 -98 -46 -12 -111 110 -13 -82 067 044 041 101 044 058 054 -21 -67 067 -23 -26 -68 070 -45 -65 029 -87 009 100 000 000 000 000 000 000 000 000 000 000 000 000 000 000 000 000 000 000 000 000 000 000 000 000 000 000 000 000 000 000 000 000 
045 035 115 104 -39 -75 -86 029 089 -75 050 049 -106 077 -50 -10 043 -74 -118 068 115 -102 -45 -72 074 044 -57 082 092 058 126 -22 000 000 000 000 000 000 000 000 000 000 000 000 000 000 000 000 000 000 000 000 000 000 000 000 000 000 000 000 000 000 000 000 
-107 025 -47 077 -75 -38 068 096 081 -119 038 -43 054 125 096 -32 077 -05 -16 -83 093 -15 048 -41 -125 -16 118 012 -21 005 -112 -69 000 000 000 000 000 000 000 000 000 000 000 000 000 000 000 000 000 000 000 000 000 000 000 000 000 000 000 000 000 000 000 000 
086 -56 089 -45 -33 114 -110 103 -119 074 103 -65 -26 -73 081 -08 033 106 071 095 -78 005 -72 072 -46 -31 068 -46 -100 076 090 -119 000 000 000 000 000 000 000 000 000 000 000 000 000 000 000 000 000 000 000 000 000 000 000 000 000 000 000 000 000 000 000 000 
-68 033 029 087 -78 -116 -64 023 028 023 -63 -36 -83 -60 111 -112 -95 -22 -95 -06 017 083 -32 -01 006 038 -114 -68 -80 -62 114 -104 000 000 000 000 000 000 000 000 000 000 000 000 000 000 000 000 000 000 000 000 000 000 000 000 000 000 000 000 000 000 000 000 
-81 116 053 -19 -12 -24 041 121 -41 -34 -68 -124 037 -47 -34 040 023 070 108 -57 -103 051 -63 049 -113 024 -86 072 062 -08 054 -69 000 000 000 000 000 000 000 000 000 000 000 000 000 000 000 000 000 000 000 000 000 000 000 000 000 000 000 000 000 000 000 000 
-125 050 023 -59 -116 -83 -103 040 041 -08 -123 091 015 082 088 -34 -77 059 036 030 -42 -93 047 -55 -127 061 014 025 -13 035 -07 055 000 000 000 000 000 000 000 000 000 000 000 000 000 000 000 000 000 000 000 000 000 000 000 000 000 000 000 000 000 000 000 000 
-105 -74 093 -16 124 -66 -118 121 -08 092 039 011 -64 -103 -56 002 018 -23 026 -102 -14 -128 -35 -128 011 078 067 009 114 -37 -85 -32 000 000 000 000 000 000 000 000 000 000 000 000 000 000 000 000 000 000 000 000 000 000 000 000 000 000 000 000 000 000 000 000 
028 018 046 -47 -78 -69 002 -95 -77 094 100 079 -57 -66 -07 -40 -06 076 -23 085 -34 026 -109 -100 -95 018 -121 061 -105 -82 -109 082 000 000 000 000 000 000 000 000 000 000 000 000 000 000 000 000 000 000 000 000 000 000 000 000 000 000 000 000 000 000 000 000 
-93 093 -14 076 -67 044 060 048 -87 -33 103 -39 -19 -25 113 005 -68 -111 068 -78 -94 010 059 -31 -20 003 032 010 071 -49 -22 -45 000 000 000 000 000 000 000 000 000 000 000 000 000 000 000 000 000 000 000 000 000 000 000 000 000 000 000 000 000 000 000 000 
-55 -02 -87 026 -30 -04 -70 -123 -49 097 048 052 039 012 -66 -99 038 -44 066 049 -85 -06 046 004 012 079 -26 039 051 006 -03 050 000 000 000 000 000 000 000 000 000 000 000 000 000 000 000 000 000 000 000 000 000 000 000 000 000 000 000 000 000 000 000 000 
037 -125 -72 -98 034 -117 018 -64 -127 096 -02 072 114 008 -42 100 049 -96 079 -90 -88 036 037 097 -114 -78 028 -11 -46 020 -63 -123 000 000 000 000 000 000 000 000 000 000 000 000 000 000 000 000 000 000 000 000 000 000 000 000 000 000 000 000 000 000 000 000 
-38 113 -23 099 -110 -34 026 035 -22 094 083 115 062 071 -116 061 036 -11 -25 -102 124 031 025 -39 007 004 080 002 107 -94 119 083 000 000 000 000 000 000 000 000 000 000 000 000 000 000 000 000 000 000 000 000 000 000 000 000 000 000 000 000 000 000 000 000 
-119 021 073 -46 -94 -127 -49 126 -124 036 -111 -123 100 -02 -22 091 -111 077 115 077 -65 059 -18 -119 000 -113 104 -77 085 -116 016 -109 000 000 000 000 000 000 000 000 000 000 000 000 000 000 000 000 000 000 000 000 000 000 000 000 000 000 000 000 000 000 000 000 
013 -60 -111 -02 -100 075 -26 -77 015 031 102 091 -35 -20 060 055 036 -23 -45 -117 -103 065 -96 006 000 -54 044 102 -70 -124 -21 -16 000 000 000 000 000 000 000 000 000 000 000 000 000 000 000 000 000 000 000 000 000 000 000 000 000 000 000 000 000 000 000 000 
-125 013 -90 058 038 036 -86 064 -92 -12 064 -06 -59 034 013 -47 -21 051 099 034 -02 099 082 -13 -68 051 085 -114 -46 048 036 073 000 000 000 000 000 000 000 000 000 000 000 000 000 000 000 000 000 000 000 000 000 000 000 000 000 000 000 000 000 000 000 000 
-109 119 -68 123 006 050 -22 062 -22 -17 -19 -12 -102 -118 009 -127 110 072 -06 -108 094 -07 -56 -77 027 -119 -90 101 100 026 -50 025 000 000 000 000 000 000 000 000 000 000 000 000 000 000 000 000 000 000 000 000 000 000 000 000 000 000 000 000 000 000 000 000 
-25 -31 -54 -30 -103 -03 -07 057 -52 019 051 -85 -81 -105 -58 -124 -12 -109 022 111 038 -62 -78 086 086 109 110 093 116 -94 -113 072 000 000 000 000 000 000 000 000 000 000 000 000 000 000 000 000 000 000 000 000 000 000 000 000 000 000 000 000 000 000 000 000 
-94 -116 -36 004 -124 078 -24 001 -28 024 -83 -24 -81 -72 043 -69 016 -41 -56 -74 062 107 006 -02 023 -09 -20 -109 002 117 030 014 000 000 000 000 000 000 000 000 000 000 000 000 000 000 000 000 000 000 000 000 000 000 000 000 000 000 000 000 000 000 000 000 
-52 -90 015 062 075 043 -128 108 012 076 005 117 -110 -08 -03 054 038 -56 066 050 002 -116 071 -92 -71 -112 121 -115 004 083 -16 -45 000 000 000 000 000 000 000 000 000 000 000 000 000 000 000 000 000 000 000 000 000 000 000 000 000 000 000 000 000 000 000 000 
053 023 066 115 -61 -22 003 065 -21 088 -02 -67 026 -67 -64 104 -119 047 122 -114 015 -39 115 -61 052 079 102 080 121 -07 -121 009 000 000 000 000 000 000 000 000 000 000 000 000 000 000 000 000 000 000 000 000 000 000 000 000 000 000 000 000 000 000 000 000 
-45 057 -85 113 -67 054 -61 072 103 -54 -125 035 082 053 -36 -101 088 -93 030 089 049 102 -44 038 -128 -43 -128 -27 -95 021 103 092 000 000 000 000 000 000 000 000 000 000 000 000 000 000 000 000 000 000 000 000 000 000 000 000 000 000 000 000 000 000 000 000 
-99 -59 -22 031 043 -62 123 104 -40 -107 -04 -48 -67 -101 044 -77 026 -04 062 126 -92 -08 086 -03 -17 117 -09 -79 -66 -86 -82 -34 000 000 000 000 000 000 000 000 000 000 000 000 000 000 000 000 000 000 000 000 000 000 000 000 000 000 000 000 000 000 000 000 
-58 -27 -65 088 -47 -107 087 083 103 -80 -103 -01 102 122 -104 126 -03 091 -14 -71 025 -120 -46 -02 119 -100 -70 -103 -107 056 089 096 000 000 000 000 000 000 000 000 000 000 000 000 000 000 000 000 000 000 000 000 000 000 000 000 000 000 000 000 000 000 000 000 
-54 -49 032 -13 -107 111 -120 -64 -92 095 -110 105 -104 121 089 -43 048 022 046 -04 -93 062 -114 -103 087 -11 021 -54 -87 114 006 -42 000 000 000 000 000 000 000 000 000 000 000 000 000 000 000 000 000 000 000 000 000 000 000 000 000 000 000 000 000 000 000 000 
012 086 -08 054 050 -84 069 -102 -76 022 -62 082 109 011 -37 -64 -85 -84 065 114 -103 -36 -12 -38 -113 -12 007 038 010 -70 103 -126 000 000 000 000 000 000 000 000 000 000 000 000 000 000 000 000 000 000 000 000 000 000 000 000 000 000 000 000 000 000 000 000 
058 -80 029 -120 071 056 -23 123 -108 -70 -42 101 057 013 123 -55 -58 -37 028 -62 -73 018 047 -71 -07 069 -121 126 095 -123 102 039 000 000 000 000 000 000 000 000 000 000 000 000 000 000 000 000 000 000 000 000 000 000 000 000 000 000 000 000 000 000 000 000 
-78 072 -84 099 084 -31 -122 -54 -01 -52 056 092 -116 000 091 -12 060 101 -57 -107 -83 -14 041 013 -101 -101 -108 -87 086 -30 069 -55 000 000 000 000 000 000 000 000 000 000 000 000 000 000 000 000 000 000 000 000 000 000 000 000 000 000 000 000 000 000 000 000 
088 005 -77 062 000 096 -63 -04 -62 -87 085 -117 040 072 -87 -30 066 070 -16 090 005 -94 -91 -35 -78 073 123 037 -112 -115 -50 080 000 000 000 000 000 000 000 000 000 000 000 000 000 000 000 000 000 000 000 000 000 000 000 000 000 000 000 000 000 000 000 000 
109 126 105 -13 -77 -86 082 036 049 039 -128 -101 044 -09 -117 -81 065 -89 108 032 004 075 -63 -56 031 084 068 -127 -65 075 -110 -87 000 000 000 000 000 000 000 000 000 000 000 000 000 000 000 000 000 000 000 000 000 000 000 000 000 000 000 000 000 000 000 000 
-57 -51 057 -71 -55 015 086 -62 -36 -55 115 -39 -79 048 -116 -27 -65 -128 065 -57 044 -20 016 -63 001 076 126 -99 -49 056 111 090 000 000 000 000 000 000 000 000 000 000 000 000 000 000 000 000 000 000 000 000 000 000 000 000 000 000 000 000 000 000 000 000 
-55 -122 060 027 024 -53 085 125 -91 107 111 027 -80 -39 115 000 -99 -47 -63 106 -128 -60 -127 108 -105 -125 -46 072 059 -94 -122 088 000 000 000 000 000 000 000 000 000 000 000 000 000 000 000 000 000 000 000 000 000 000 000 000 000 000 000 000 000 000 000 000 
-94 -30 067 -25 -43 013 091 -91 062 -38 -20 046 -12 -35 068 -58 017 -58 042 -61 031 101 -89 046 081 102 -56 075 -120 068 001 059 000 000 000 000 000 000 000 000 000 000 000 000 000 000 000 000 000 000 000 000 000 000 000 000 000 000 000 000 000 000 000 000 
-13 000 028 056 013 -20 -62 010 -40 011 -88 -29 106 -41 -111 068 034 058 -101 052 -58 074 -24 011 -89 -21 -128 -52 -44 101 -07 092 000 000 000 000 000 000 000 000 000 000 000 000 000 000 000 000 000 000 000 000 000 000 000 000 000 000 000 000 000 000 000 000 
-89 -04 101 069 -66 094 -108 -109 -29 050 -18 011 -30 -24 059 053 -75 020 000 070 122 -111 112 046 -32 -124 120 -58 065 -16 -49 126 000 000 000 000 000 000 000 000 000 000 000 000 000 000 000 000 000 000 000 000 000 000 000 000 000 000 000 000 000 000 000 000 
-31 071 -96 -36 -30 091 -33 020 034 -107 070 005 -81 112 -108 -102 -52 110 103 -123 091 118 -60 -12 041 117 104 042 001 -88 -38 -06 000 000 000 000 000 000 000 000 000 000 000 000 000 000 000 000 000 000 000 000 000 000 000 000 000 000 000 000 000 000 000 000 
106 -57 045 001 085 092 051 120 112 014 097 -04 -01 -49 -57 -11 065 118 -18 -48 120 -120 083 097 044 -91 005 089 005 047 -14 -37 000 000 000 000 000 000 000 000 000 000 000 000 000 000 000 000 000 000 000 000 000 000 000 000 000 000 000 000 000 000 000 000 
061 116 -116 -57 -78 -72 -82 -53 -28 066 032 090 -44 046 -50 059 115 002 032 -96 058 017 -77 -64 123 066 -18 -94 -39 -14 -29 094 000 000 000 000 000 000 000 000 000 000 000 000 000 000 000 000 000 000 000 000 000 000 000 000 000 000 000 000 000 000 000 000 
113 026 -60 -22 -125 -50 018 098 -70 -114 094 075 031 101 027 -110 -125 102 -30 -128 021 024 047 -70 -69 -96 038 009 056 126 -62 -19 000 000 000 000 000 000 000 000 000 000 000 000 000 000 000 000 000 000 000 000 000 000 000 000 000 000 000 000 000 000 000 000 
032 021 019 118 -71 -74 060 -53 041 -108 -73 113 -08 002 -02 099 002 -56 046 048 -11 -06 082 049 -112 -06 059 022 -16 -47 -03 087 000 000 000 000 000 000 000 000 000 000 000 000 000 000 000 000 000 000 000 000 000 000 000 000 000 000 000 000 000 000 000 000 
123 -69 105 -61 032 -76 032 100 -120 -114 040 -63 -119 015 071 094 006 052 -58 -72 -27 001 034 090 017 -86 -47 -100 084 011 091 -108 000 000 000 000 000 000 000 000 000 000 000 000 000 000 000 000 000 000 000 000 000 000 000 000 000 000 000 000 000 000 000 000 
-124 009 031 042 -94 -121 -37 090 -124 114 -87 -102 008 -126 -74 -54 097 -20 -59 002 105 -115 062 -17 115 -84 010 -119 -62 121 -116 -35 000 000 000 000 000 000 000 000 000 000 000 000 000 000 000 000 000 000 000 000 000 000 000 000 000 000 000 000 000 000 000 000 
-02 021 -90 -63 054 -03 000 -75 -22 -115 -78 088 098 -104 053 -125 041 000 106 -09 120 -99 -22 001 -35 084 -114 018 073 -10 -123 -33 000 000 000 000 000 000 000 000 000 000 000 000 000 000 000 000 000 000 000 000 000 000 000 000 000 000 000 000 000 000 000 000 
-50 069 048 028 043 037 -65 -59 -29 -116 -43 -60 -51 048 -74 007 -128 -39 097 -04 035 -62 006 075 -73 -127 022 126 -05 -112 022 -77 000 000 000 000 000 000 000 000 000 000 000 000 000 000 000 000 000 000 000 000 000 000 000 000 000 000 000 000 000 000 000 000 
043 -126 064 079 029 -50 045 -09 063 027 079 -17 002 -92 -30 -122 -112 -96 054 -81 052 -03 110 -118 -108 -08 -76 -24 021 -95 005 -17 000 000 000 000 000 000 000 000 000 000 000 000 000 000 000 000 000 000 000 000 000 000 000 000 000 000 000 000 000 000 000 000 
063 -52 -65 071 061 106 -40 -88 124 113 -95 106 092 -36 049 -114 061 -08 077 061 116 -41 -41 058 008 022 -78 -93 -20 020 -122 055 000 000 000 000 000 000 000 000 000 000 000 000 000 000 000 000 000 000 000 000 000 000 000 000 000 000 000 000 000 000 000 000 
025 -99 114 112 007 -120 -95 -37 -23 008 038 -13 091 051 044 -44 053 085 038 -117 009 032 -25 106 035 -21 -119 -21 059 096 -05 034 000 000 000 000 000 000 000 000 000 000 000 000 000 000 000 000 000 000 000 000 000 000 000 000 000 000 000 000 000 000 000 000 
095 -40 112 048 -03 -41 104 -01 088 -48 085 074 -124 026 006 -50 -72 053 -106 085 -71 -78 110 -19 112 -62 -57 024 110 080 -83 025 000 000 000 000 000 000 000 000 000 000 000 000 000 000 000 000 000 000 000 000 000 000 000 000 000 000 000 000 000 000 000 000 
-73 080 -54 072 -93 097 -106 -58 095 027 -62 -116 -12 006 011 -102 -90 -26 061 121 096 083 -37 035 -28 057 030 104 120 100 -127 036 000 000 000 000 000 000 000 000 000 000 000 000 000 000 000 000 000 000 000 000 000 000 000 000 000 000 000 000 000 000 000 000 
121 -124 087 077 095 -83 076 093 108 110 -71 020 -32 090 010 -13 103 004 -93 -64 069 054 -12 -50 003 -68 075 -56 -31 -124 -73 -25 000 000 000 000 000 000 000 000 000 000 000 000 000 000 000 000 000 000 000 000 000 000 000 000 000 000 000 000 000 000 000 000 
069 031 111 071 -25 040 -90 -125 -109 -57 095 -98 -15 115 013 -36 085 096 -75 -91 -87 -121 -109 -40 065 -46 -81 -69 -128 -10 -23 020 000 000 000 000 000 000 000 000 000 000 000 000 000 000 000 000 000 000 000 000 000 000 000 000 000 000 000 000 000 000 000 000 
069 117 -77 -96 093 013 -76 -113 -09 -124 -44 078 010 -64 092 -48 107 027 076 -100 -114 -102 111 020 005 -49 054 036 -100 063 090 111 000 000 000 000 000 000 000 000 000 000 000 000 000 000 000 000 000 000 000 000 000 000 000 000 000 000 000 000 000 000 000 000 
-10 005 -43 -05 -98 119 -39 107 110 -14 121 -87 -121 -128 -114 -101 -54 -48 116 091 -21 -22 -70 -70 -81 039 047 065 -48 026 -70 -37 000 000 000 000 000 000 000 000 000 000 000 000 000 000 000 000 000 000 000 000 000 000 000 000 000 000 000 000 000 000 000 000 
-52 070 118 -36 -04 -114 048 -114 019 042 -86 029 -85 -57 003 001 -33 -60 -19 013 -39 112 009 034 105 -125 108 -93 085 -57 094 -01 000 000 000 000 000 000 000 000 000 000 000 000 000 000 000 000 000 000 000 000 000 000 000 000 000 000 000 000 000 000 000 000 
-46 097 063 012 -06 -57 -73 -07 016 -95 091 -88 068 120 -104 022 -59 -62 -51 -105 -91 -61 -24 -03 -09 095 067 -35 001 045 107 -107 000 000 000 000 000 000 000 000 000 000 000 000 000 000 000 000 000 000 000 000 000 000 000 000 000 000 000 000 000 000 000 000 
000 018 -84 -48 054 -98 -07 -14 036 042 039 084 -11 040 115 -44 -113 019 057 025 008 -41 003 -108 019 056 091 -23 054 095 -23 043 000 000 000 000 000 000 000 000 000 000 000 000 000 000 000 000 000 000 000 000 000 000 000 000 000 000 000 000 000 000 000 000 
-63 -72 -120 -105 029 -97 036 -87 -85 -64 -115 -83 -93 114 055 026 082 006 -07 035 -76 093 049 002 -125 -32 082 032 -79 -34 -111 057 000 000 000 000 000 000 000 000 000 000 000 000 000 000 000 000 000 000 000 000 000 000 000 000 000 000 000 000 000 000 000 000 
-95 -100 -125 -92 -63 077 022 000 106 006 052 047 -73 105 080 028 -69 045 -93 -81 -18 000 065 -62 027 -49 075 100 064 -56 036 -65 000 000 000 000 000 000 000 000 000 000 000 000 000 000 000 000 000 000 000 000 000 000 000 000 000 000 000 000 000 000 000 000 
-73 -39 039 093 -15 -115 032 106 -110 -123 -127 -106 077 064 -109 -25 -119 -18 -74 086 048 085 -14 080 036 -24 -06 076 032 -17 026 -99 000 000 000 000 000 000 000 000 000 000 000 000 000 000 000 000 000 000 000 000 000 000 000 000 000 000 000 000 000 000 000 000 
-125 -123 060 -121 061 048 -19 074 099 -12 -84 031 077 -58 -64 061 -114 125 -32 -19 -106 125 002 102 -27 -118 119 120 -105 -17 121 025 000 000 000 000 000 000 000 000 000 000 000 000 000 000 000 000 000 000 000 000 000 000 000 000 000 000 000 000 000 000 000 000 
-58 120 035 022 027 021 123 -102 -83 075 -114 100 -75 001 061 016 -107 005 -78 -03 -121 -69 032 115 -13 105 -64 -20 -39 116 -27 -98 000 000 000 000 000 000 000 000 000 000 000 000 000 000 000 000 000 000 000 000 000 000 000 000 000 000 000 000 000 000 000 000 
064 080 -51 -63 -65 -24 -41 -26 064 -126 -05 -29 -21 062 107 045 -124 091 118 087 103 110 124 -84 091 -47 004 046 102 050 016 037 000 000 000 000 000 000 000 000 000 000 000 000 000 000 000 000 000 000 000 000 000 000 000 000 000 000 000 000 000 000 000 000 
005 078 027 -88 089 032 -121 044 044 -09 091 -58 114 035 -74 113 117 056 066 007 -119 003 -40 -70 -92 -49 055 -119 064 062 084 105 000 000 000 000 000 000 000 000 000 000 000 000 000 000 000 000 000 000 000 000 000 000 000 000 000 000 000 000 000 000 000 000 
-40 081 029 011 044 075 021 069 -67 012 -103 110 -28 -69 -102 -50 076 -88 037 -91 117 -96 097 097 -10 000 038 079 005 117 028 -86 000 000 000 000 000 000 000 000 000 000 000 000 000 000 000 000 000 000 000 000 000 000 000 000 000 000 000 000 000 000 000 000 
069 005 011 065 074 -119 021 012 027 057 079 -105 080 066 -23 -29 -52 -65 097 -62 -25 023 102 -33 -49 -23 067 -115 046 095 103 054 000 000 000 000 000 000 000 000 000 000 000 000 000 000 000 000 000 000 000 000 000 000 000 000 000 000 000 000 000 000 000 000 
003 -89 -56 -39 -29 093 064 -58 107 013 -27 -109 -77 068 -55 -99 -39 -51 125 056 016 120 -04 -41 -120 -128 083 123 -31 064 -100 -27 000 000 000 000 000 000 000 000 000 000 000 000 000 000 000 000 000 000 000 000 000 000 000 000 000 000 000 000 000 000 000 000 
-23 105 119 -59 043 007 000 -91 006 -71 008 -58 040 105 037 -62 -31 008 -46 -116 -77 060 -41 124 -10 066 103 107 026 -48 021 -105 000 000 000 000 000 000 000 000 000 000 000 000 000 000 000 000 000 000 000 000 000 000 000 000 000 000 000 000 000 000 000 000 
023 -29 103 095 -24 -26 054 077 -53 041 -113 -71 -103 070 014 -50 059 066 111 -58 115 -23 -72 035 052 -12 038 -72 -62 -86 -06 -103 000 000 000 000 000 000 000 000 000 000 000 000 000 000 000 000 000 000 000 000 000 000 000 000 000 000 000 000 000 000 000 000 
-33 -72 019 082 -74 -60 -12 -23 -68 -85 -41 -115 109 -16 103 048 025 036 -34 062 028 049 053 -18 -58 -114 -47 -69 -105 098 -80 107 000 000 000 000 000 000 000 000 000 000 000 000 000 000 000 000 000 000 000 000 000 000 000 000 000 000 000 000 000 000 000 000 
-15 066 101 035 -14 -35 009 -44 083 -58 070 -120 088 -22 -113 -56 -52 046 -93 -52 105 -120 031 -113 -28 -57 058 -88 032 003 -52 -87 000 000 000 000 000 000 000 000 000 000 000 000 000 000 000 000 000 000 000 000 000 000 000 000 000 000 000 000 000 000 000 000 
002 040 003 -76 057 030 022 014 044 -16 101 030 -83 056 068 028 -57 117 -59 063 -36 -02 -115 -69 051 104 -81 093 066 -72 -12 064 000 000 000 000 000 000 000 000 000 000 000 000 000 000 000 000 000 000 000 000 000 000 000 000 000 000 000 000 000 000 000 000 
024 101 -05 -101 006 -81 082 -64 -67 -13 -103 042 -109 029 -79 096 104 078 -72 105 -77 053 089 -128 073 -127 083 -113 075 011 067 -56 000 000 000 000 000 000 000 000 000 000 000 000 000 000 000 000 000 000 000 000 000 000 000 000 000 000 000 000 000 000 000 000 
071 025 121 060 093 -18 -06 -61 045 105 126 -105 -95 -15 -88 090 050 -102 -109 057 -58 003 077 051 074 085 088 -26 -20 -108 070 -90 000 000 000 000 000 000 000 000 000 000 000 000 000 000 000 000 000 000 000 000 000 000 000 000 000 000 000 000 000 000 000 000 
-70 074 -51 -58 -35 025 -58 098 -75 -13 -54 -27 -82 038 018 -57 -47 -54 003 -68 -77 107 -81 -94 085 117 -47 -113 058 -45 014 -14 000 000 000 000 000 000 000 000 000 000 000 000 000 000 000 000 000 000 000 000 000 000 000 000 000 000 000 000 000 000 000 000 
-46 -35 059 012 -26 -96 -08 086 -79 121 -26 -124 035 021 -112 057 018 039 -119 060 -16 094 -110 049 086 081 -08 041 053 -122 113 -55 000 000 000 000 000 000 000 000 000 000 000 000 000 000 000 000 000 000 000 000 000 000 000 000 000 000 000 000 000 000 000 000 
-34 113 -91 -10 062 084 -69 038 -50 -53 032 -20 -88 -107 -14 036 098 000 069 -81 106 098 -92 -115 059 -22 078 -77 -36 029 034 000 000 000 000 000 000 000 000 000 000 000 000 000 000 000 000 000 000 000 000 000 000 000 000 000 000 000 000 000 000 000 000 000 
064 -90 -30 -26 -03 -18 -77 -101 080 115 087 115 -10 040 101 -121 -102 035 092 093 028 -53 055 -99 037 -70 045 -19 097 120 006 -121 000 000 000 000 000 000 000 000 000 000 000 000 000 000 000 000 000 000 000 000 000 000 000 000 000 000 000 000 000 000 000 000 
-104 -71 -123 -123 103 -80 -93 -51 006 036 100 035 027 -106 -88 096 -78 066 -107 046 -49 050 084 056 -30 049 -81 -84 092 105 013 043 000 000 000 000 000 000 000 000 000 000 000 000 000 000 000 000 000 000 000 000 000 000 000 000 000 000 000 000 000 000 000 000 
040 113 -29 076 -72 054 006 081 -64 027 -98 019 024 057 -85 030 079 104 092 056 -50 -116 123 -31 -45 -107 007 -99 -12 055 117 -33 000 000 000 000 000 000 000 000 000 000 000 000 000 000 000 000 000 000 000 000 000 000 000 000 000 000 000 000 000 000 000 000 
092 059 -42 083 -59 -84 -51 -08 120 -76 001 -26 005 043 045 -112 068 015 -23 098 016 065 067 085 -21 013 -04 063 110 -112 -24 055 000 000 000 000 000 000 000 000 000 000 000 000 000 000 000 000 000 000 000 000 000 000 000 000 000 000 000 000 000 000 000 000 
070 014 013 114 036 041 111 013 051 100 -02 061 042 -49 -38 -70 045 106 -77 035 -06 079 -55 098 -40 -24 -06 -50 -40 060 118 -92 000 000 000 000 000 000 000 000 000 000 000 000 000 000 000 000 000 000 000 000 000 000 000 000 000 000 000 000 000 000 000 000 
119 -71 -121 060 085 015 069 -21 -119 -65 -124 096 071 022 071 071 -61 -108 013 085 080 -98 103 065 006 085 116 114 097 063 101 062 000 000 000 000 000 000 000 000 000 000 000 000 000 000 000 000 000 000 000 000 000 000 000 000 000 000 000 000 000 000 000 000 
-93 -19 -04 -53 113 094 040 -56 -83 -112 -86 -112 066 -06 -106 -62 043 112 -04 044 053 094 -123 -116 -106 032 059 -19 -03 087 027 013 000 000 000 000 000 000 000 000 000 000 000 000 000 000 000 000 000 000 000 000 000 000 000 000 000 000 000 000 000 000 000 000 
-93 085 063 072 030 -63 031 -13 -91 -15 -73 004 -117 012 -68 063 079 -09 030 -50 -31 -66 -56 -60 -35 036 -63 -119 -112 -15 -107 -82 000 000 000 000 000 000 000 000 000 000 000 000 000 000 000 000 000 000 000 000 000 000 000 000 000 000 000 000 000 000 000 000 
043 030 083 000 104 -120 -55 -96 -102 016 016 -34 012 119 -25 -117 103 -50 -124 -101 -40 043 -16 -06 078 076 119 -92 -75 -72 -94 -07 000 000 000 000 000 000 000 000 000 000 000 000 000 000 000 000 000 000 000 000 000 000 000 000 000 000 000 000 000 000 000 000 
013 -110 024 099 046 -07 -58 098 -81 067 020 -44 090 101 -76 077 -34 019 025 -88 003 006 -40 -07 -33 -53 009 034 061 051 038 072 000 000 000 000 000 000 000 000 000 000 000 000 000 000 000 000 000 000 000 000 000 000 000 000 000 000 000 000 000 000 000 000 
-19 079 010 -99 046 -114 -10 049 -58 051 031 -15 125 -65 111 -116 032 -24 113 -87 081 108 071 -94 052 -104 -119 -33 -26 088 -108 -76 000 000 000 000 000 000 000 000 000 000 000 000 000 000 000 000 000 000 000 000 000 000 000 000 000 000 000 000 000 000 000 000 
034 099 005 -125 067 023 -77 060 064 -98 -39 -23 070 -126 -39 010 -10 -85 -09 083 073 -18 -50 025 -64 -122 032 -15 017 -108 086 024 000 000 000 000 000 000 000 000 000 000 000 000 000 000 000 000 000 000 000 000 000 000 000 000 000 000 000 000 000 000 000 000 
073 -128 -39 -85 097 002 -75 -58 092 -119 -123 105 -07 -24 099 008 -65 022 092 -119 -69 -34 -28 048 -05 -17 -14 035 017 -33 -82 121 000 000 000 000 000 000 000 000 000 000 000 000 000 000 000 000 000 000 000 000 000 000 000 000 000 000 000 000 000 000 000 000 
-33 -69 124 022 079 -110 072 -125 083 011 112 095 092 -117 -67 095 091 043 -79 030 069 111 030 091 -89 042 -50 032 -37 061 080 109 000 000 000 000 000 000 000 000 000 000 000 000 000 000 000 000 000 000 000 000 000 000 000 000 000 000 000 000 000 000 000 000 
-23 -73 -69 -04 -35 -39 -91 035 115 106 -82 -72 -124 -43 -16 -58 -10 -49 -72 -34 -92 -71 -69 042 031 -37 075 119 068 066 111 -123 000 000 000 000 000 000 000 000 000 000 000 000 000 000 000 000 000 000 000 000 000 000 000 000 000 000 000 000 000 000 000 000 
012 060 -127 -52 054 -44 036 115 009 115 036 -32 114 -19 118 122 -18 -125 -113 -65 -31 -87 063 075 -101 037 055 094 -02 120 014 -53 000 000 000 000 000 000 000 000 000 000 000 000 000 000 000 000 000 000 000 000 000 000 000 000 000 000 000 000 000 000 000 000 
096 081 -85 028 037 071 002 027 -33 -06 114 091 111 023 008 -88 053 -30 -59 051 -111 -117 124 -92 078 -72 118 -74 -49 -122 -112 067 000 000 000 000 000 000 000 000 000 000 000 000 000 000 000 000 000 000 000 000 000 000 000 000 000 000 000 000 000 000 000 000 
065 021 -115 -57 -33 106 092 023 016 -10 006 -104 020 055 088 091 -35 -92 -112 083 -05 -38 -109 055 103 075 -73 -17 -92 034 040 085 000 000 000 000 000 000 000 000 000 000 000 000 000 000 000 000 000 000 000 000 000 000 000 000 000 000 000 000 000 000 000 000 
075 -77 125 -70 -120 -27 048 -01 058 -09 121 -93 051 111 -33 067 -120 -64 -116 -93 -57 -71 -109 -86 120 107 -07 -124 -42 093 123 086 000 000 000 000 000 000 000 000 000 000 000 000 000 000 000 000 000 000 000 000 000 000 000 000 000 000 000 000 000 000 000 000 
112 -26 -86 095 -114 -116 031 -39 021 045 -88 -10 081 080 -111 -33 006 107 -55 -104 -11 -68 -58 -127 -115 -17 -44 -65 010 -79 104 -123 000 000 000 000 000 000 000 000 000 000 000 000 000 000 000 000 000 000 000 000 000 000 000 000 000 000 000 000 000 000 000 000 
027 -120 -10 116 073 -69 -57 -87 020 018 086 115 -91 -55 098 -114 -76 030 -37 097 102 061 113 -88 089 042 032 103 -01 -79 -29 056 000 000 000 000 000 000 000 000 000 000 000 000 000 000 000 000 000 000 000 000 000 000 000 000 000 000 000 000 000 000 000 000 
-50 -112 047 124 124 061 091 -109 099 098 -63 -11 -69 117 -105 078 046 -105 -28 109 015 -37 045 091 103 119 071 049 017 032 048 016 000 000 000 000 000 000 000 000 000 000 000 000 000 000 000 000 000 000 000 000 000 000 000 000 000 000 000 000 000 000 000 000 
117 054 006 026 -37 003 033 -10 033 076 046 047 -27 -97 089 -31 089 -24 081 -02 -18 -51 027 -14 -22 -88 045 111 085 -66 063 -16 000 000 000 000 000 000 000 000 000 000 000 000 000 000 000 000 000 000 000 000 000 000 000 000 000 000 000 000 000 000 000 000 
-07 094 126 000 056 036 110 020 122 -64 -97 051 -98 -56 -27 -98 -17 020 -83 -09 055 071 -84 -17 -25 042 -17 056 -63 -35 -06 -100 000 000 000 000 000 000 000 000 000 000 000 000 000 000 000 000 000 000 000 000 000 000 000 000 000 000 000 000 000 000 000 000 
-44 -121 096 -68 -94 -39 -24 055 -58 -128 -48 040 -124 126 006 019 046 -32 087 125 -34 022 -43 051 083 110 -93 -40 -106 -07 021 032 000 000 000 000 000 000 000 000 000 000 000 000 000 000 000 000 000 000 000 000 000 000 000 000 000 000 000 000 000 000 000 000 
033 074 -115 -17 -108 091 008 -107 075 -120 -123 098 126 -55 -121 -50 -76 -67 014 008 -64 -64 -33 038 084 -44 -100 122 -27 -15 005 043 000 000 000 000 000 000 000 000 000 000 000 000 000 000 000 000 000 000 000 000 000 000 000 000 000 000 000 000 000 000 000 000 
-27 -117 -04 -45 064 102 022 -35 -72 -76 034 005 -73 -27 -79 -33 -02 -85 -93 -16 106 -12 005 -83 118 -41 096 -76 -87 -95 111 -97 000 000 000 000 000 000 000 000 000 000 000 000 000 000 000 000 000 000 000 000 000 000 000 000 000 000 000 000 000 000 000 000 
079 -101 098 -52 -63 -116 -80 080 -34 -41 005 -08 -87 066 093 069 080 058 -116 -53 -73 -58 -113 005 044 093 -31 -89 045 -10 080 000 000 000 000 000 000 000 000 000 000 000 000 000 000 000 000 000 000 000 000 000 000 000 000 000 000 000 000 000 000 000 000 000 
-24 119 -07 -30 085 037 098 -35 -24 -14 -13 -118 -89 -60 -60 046 106 103 118 -74 056 -93 -80 -50 -23 073 100 -53 116 062 -120 -84 000 000 000 000 000 000 000 000 000 000 000 000 000 000 000 000 000 000 000 000 000 000 000 000 000 000 000 000 000 000 000 000 
-21 -96 -36 047 -11 058 -56 -32 087 041 -61 -43 -27 108 -50 013 003 -109 000 060 -05 113 026 053 -78 069 040 007 017 097 -28 064 000 000 000 000 000 000 000 000 000 000 000 000 000 000 000 000 000 000 000 000 000 000 000 000 000 000 000 000 000 000 000 000 
-36 095 059 016 -102 108 -101 -83 -32 052 -104 -93 079 058 -121 -56 -05 -17 -47 116 099 062 031 019 034 -105 096 -57 060 -104 -51 -74 000 000 000 000 000 000 000 000 000 000 000 000 000 000 000 000 000 000 000 000 000 000 000 000 000 000 000 000 000 000 000 000 
-73 -04 103 -42 -128 016 -40 070 -38 -38 028 104 118 -35 064 -54 -49 065 009 000 074 099 081 037 -105 078 022 -50 -99 018 085 074 000 000 000 000 000 000 000 000 000 000 000 000 000 000 000 000 000 000 000 000 000 000 000 000 000 000 000 000 000 000 000 000 
-23 -16 -36 035 -32 012 -60 113 -96 017 119 -85 002 -116 -58 -98 101 115 015 037 -65 005 106 031 083 024 -55 063 064 -116 037 -94 000 000 000 000 000 000 000 000 000 000 000 000 000 000 000 000 000 000 000 000 000 000 000 000 000 000 000 000 000 000 000 000 
-64 012 031 -28 -10 -35 -06 -14 -19 -56 -24 120 -69 046 098 025 045 -28 -118 118 051 -63 047 075 073 080 -85 -73 -41 080 084 -85 000 000 000 000 000 000 000 000 000 000 000 000 000 000 000 000 000 000 000 000 000 000 000 000 000 000 000 000 000 000 000 000 
-85 119 -15 -60 -81 043 -23 047 091 -100 042 -126 089 -81 -75 060 029 060 020 115 -43 -30 070 078 -109 -40 -75 070 053 -18 117 -22 000 000 000 000 000 000 000 000 000 000 000 000 000 000 000 000 000 000 000 000 000 000 000 000 000 000 000 000 000 000 000 000 
-29 109 009 -102 -19 -40 -77 026 044 006 031 108 065 -89 -83 010 -115 -69 112 -41 -68 021 -27 -49 062 -116 018 104 -113 105 -64 -89 000 000 000 000 000 000 000 000 000 000 000 000 000 000 000 000 000 000 000 000 000 000 000 000 000 000 000 000 000 000 000 000 
125 031 045 058 -107 -82 -117 008 -106 -99 103 -52 -41 -39 -04 048 040 -54 -52 -43 -115 -108 121 -56 071 106 -115 -31 019 077 -114 -86 000 000 000 000 000 000 000 000 000 000 000 000 000 000 000 000 000 000 000 000 000 000 000 000 000 000 000 000 000 000 000 000 
-107 -80 -32 063 002 -11 -114 -60 -65 112 -101 070 019 095 052 -82 -107 -03 -24 084 -35 -29 077 017 -123 048 -101 121 099 025 096 -67 000 000 000 000 000 000 000 000 000 000 000 000 000 000 000 000 000 000 000 000 000 000 000 000 000 000 000 000 000 000 000 000 
105 -75 060 113 -01 -59 -53 029 -111 -34 -28 -79 -14 -112 -103 -07 019 -46 016 -35 026 042 005 -74 -70 100 -122 -17 125 -06 062 057 000 000 000 000 000 000 000 000 000 000 000 000 000 000 000 000 000 000 000 000 000 000 000 000 000 000 000 000 000 000 000 000 
124 -02 039 125 -67 -74 125 015 018 -121 072 -44 -100 -88 -23 -74 -111 -101 -48 104 050 070 -111 -36 112 -60 -126 098 071 090 112 -118 000 000 000 000 000 000 000 000 000 000 000 000 000 000 000 000 000 000 000 000 000 000 000 000 000 000 000 000 000 000 000 000 
-77 093 -27 059 081 -119 020 113 091 -30 -115 -51 105 032 045 -41 109 -24 -14 107 -78 -108 058 -46 097 -43 046 063 100 -17 -14 -06 000 000 000 000 000 000 000 000 000 000 000 000 000 000 000 000 000 000 000 000 000 000 000 000 000 000 000 000 000 000 000 000 
068 -23 -21 -55 -110 010 -106 -78 -68 -27 -29 -92 -25 -87 -108 -82 080 083 -123 057 -53 -89 -59 056 055 -58 115 -79 112 099 -24 -32 000 000 000 000 000 000 000 000 000 000 000 000 000 000 000 000 000 000 000 000 000 000 000 000 000 000 000 000 000 000 000 000 
010 008 029 -76 032 095 060 -108 -30 077 -40 -80 065 077 -45 -10 071 024 043 -113 -83 -125 000 -91 094 -92 035 005 -125 -23 -22 056 000 000 000 000 000 000 000 000 000 000 000 000 000 000 000 000 000 000 000 000 000 000 000 000 000 000 000 000 000 000 000 000 
-111 -84 037 034 -43 -67 076 -19 -103 -28 -103 -82 -127 101 -68 060 012 -58 089 029 083 -111 -11 -75 023 118 066 092 037 075 045 121 000 000 000 000 000 000 000 000 000 000 000 000 000 000 000 000 000 000 000 000 000 000 000 000 000 000 000 000 000 000 000 000 
075 055 037 115 -27 -104 080 117 -41 064 007 086 118 113 034 -48 -86 -29 058 -98 -53 -41 095 115 -112 026 080 -66 -85 -02 011 012 000 000 000 000 000 000 000 000 000 000 000 000 000 000 000 000 000 000 000 000 000 000 000 000 000 000 000 000 000 000 000 000 
069 -81 -32 -112 -06 102 -46 -07 012 -47 105 -36 036 -27 106 -65 -19 119 -33 101 087 -123 -119 045 078 -125 086 102 -52 -39 088 -51 000 000 000 000 000 000 000 000 000 000 000 000 000 000 000 000 000 000 000 000 000 000 000 000 000 000 000 000 000 000 000 000 
062 017 022 -107 005 -77 -24 126 -69 038 023 087 015 -62 122 -13 -43 -12 071 018 119 083 050 -55 101 025 -66 057 020 -67 034 037 000 000 000 000 000 000 000 000 000 000 000 000 000 000 000 000 000 000 000 000 000 000 000 000 000 000 000 000 000 000 000 000 
043 -51 125 -58 064 -118 097 -67 048 118 009 -22 -28 025 -82 -19 002 -46 -35 120 087 045 079 -51 015 058 066 -77 034 045 012 124 000 000 000 000 000 000 000 000 000 000 000 000 000 000 000 000 000 000 000 000 000 000 000 000 000 000 000 000 000 000 000 000 
-07 -108 104 119 055 032 109 091 -96 -116 113 118 -02 118 052 041 050 -58 -31 -83 125 055 100 119 107 -99 095 071 -83 060 -82 019 000 000 000 000 000 000 000 000 000 000 000 000 000 000 000 000 000 000 000 000 000 000 000 000 000 000 000 000 000 000 000 000 
079 -118 -20 -122 -71 -20 -91 077 117 061 056 072 -79 -20 002 -53 013 -104 -84 -102 033 095 -111 -123 079 088 -106 -113 064 -72 -32 -89 000 000 000 000 000 000 000 000 000 000 000 000 000 000 000 000 000 000 000 000 000 000 000 000 000 000 000 000 000 000 000 000 
044 -37 112 114 -91 058 095 095 012 016 075 -43 037 014 -76 090 020 006 -55 091 061 079 080 -87 082 024 052 -02 -31 -125 -01 -114 000 000 000 000 000 000 000 000 000 000 000 000 000 000 000 000 000 000 000 000 000 000 000 000 000 000 000 000 000 000 000 000 
-73 021 -74 039 -49 108 074 037 020 110 -29 092 -115 043 -52 112 -51 -67 021 068 069 023 045 099 073 -03 079 -22 082 067 -42 -128 000 000 000 000 000 000 000 000 000 000 000 000 000 000 000 000 000 000 000 000 000 000 000 000 000 000 000 000 000 000 000 000 
-84 090 -123 -70 043 -02 016 -114 -48 065 -55 089 034 -35 095 061 001 -13 -110 -49 109 110 -76 -41 -113 -107 -22 -50 -86 -83 102 012 000 000 000 000 000 000 000 000 000 000 000 000 000 000 000 000 000 000 000 000 000 000 000 000 000 000 000 000 000 000 000 000 
015 065 105 088 -84 104 -23 068 100 -41 063 119 054 -14 118 103 -124 061 095 -44 029 120 -110 -82 -107 063 061 070 025 -47 -48 -80 000 000 000 000 000 000 000 000 000 000 000 000 000 000 000 000 000 000 000 000 000 000 000 000 000 000 000 000 000 000 000 000 
062 017 041 -43 -95 006 085 -106 -36 -108 100 -76 106 090 035 126 -46 -09 084 -86 097 094 055 008 103 -60 -67 -123 -113 068 027 040 000 000 000 000 000 000 000 000 000 000 000 000 000 000 000 000 000 000 000 000 000 000 000 000 000 000 000 000 000 000 000 000 
-31 110 043 119 -108 -32 -78 -36 -23 -87 -44 103 -93 114 -27 -119 024 088 -107 -07 003 056 051 014 022 -120 081 -11 -84 053 -01 051 000 000 000 000 000 000 000 000 000 000 000 000 000 000 000 000 000 000 000 000 000 000 000 000 000 000 000 000 000 000 000 000 
098 -60 -104 -42 -27 015 102 -66 034 094 002 084 008 052 -49 094 071 029 -103 -31 -97 -29 -105 -102 -14 015 024 -113 -29 046 -44 117 000 000 000 000 000 000 000 000 000 000 000 000 000 000 000 000 000 000 000 000 000 000 000 000 000 000 000 000 000 000 000 000 
079 -23 124 019 -96 -02 072 -95 -100 -97 028 -117 -97 -70 -49 120 -120 009 064 122 047 -73 -72 037 -82 077 -03 -74 -28 -75 -74 -68 000 000 000 000 000 000 000 000 000 000 000 000 000 000 000 000 000 000 000 000 000 000 000 000 000 000 000 000 000 000 000 000 
-75 092 -126 -87 -21 017 079 044 -48 031 -81 -70 -99 108 031 067 042 105 -57 -48 -76 118 012 040 125 090 -05 114 -107 005 027 050 000 000 000 000 000 000 000 000 000 000 000 000 000 000 000 000 000 000 000 000 000 000 000 000 000 000 000 000 000 000 000 000 
-18 102 079 -128 117 -65 -70 062 -111 -20 043 080 -66 005 013 -77 002 097 -112 051 -01 -74 -90 -115 -86 -115 -19 -106 -12 031 043 -52 000 000 000 000 000 000 000 000 000 000 000 000 000 000 000 000 000 000 000 000 000 000 000 000 000 000 000 000 000 000 000 000 
-78 -30 096 003 -56 071 -12 038 -14 -110 -70 -59 005 -128 -17 028 020 -71 043 092 021 084 -30 -118 047 -120 -39 026 -117 -86 023 081 000 000 000 000 000 000 000 000 000 000 000 000 000 000 000 000 000 000 000 000 000 000 000 000 000 000 000 000 000 000 000 000 
-16 120 -68 -91 088 053 -122 082 035 103 024 -41 088 070 -115 -127 -10 115 124 -17 032 120 -34 -120 -10 056 035 -31 -82 -109 035 096 000 000 000 000 000 000 000 000 000 000 000 000 000 000 000 000 000 000 000 000 000 000 000 000 000 000 000 000 000 000 000 000 
-67 057 -57 -22 -124 017 -46 -30 001 117 040 -50 029 122 094 124 -32 -69 -05 -104 001 -32 -93 -18 117 060 104 -89 -05 -50 -73 099 000 000 000 000 000 000 000 000 000 000 000 000 000 000 000 000 000 000 000 000 000 000 000 000 000 000 000 000 000 000 000 000 
-06 -88 -80 -43 -43 032 -52 002 022 -125 -40 -127 -88 073 -49 120 001 -07 099 031 075 102 021 -72 010 037 068 055 -16 -120 070 058 000 000 000 000 000 000 000 000 000 000 000 000 000 000 000 000 000 000 000 000 000 000 000 000 000 000 000 000 000 000 000 000 
045 -65 105 -48 -54 014 022 -99 007 066 094 060 017 -117 -117 055 -27 081 -111 -33 053 -98 045 007 007 004 005 -10 -123 -122 044 029 000 000 000 000 000 000 000 000 000 000 000 000 000 000 000 000 000 000 000 000 000 000 000 000 000 000 000 000 000 000 000 000 
118 -67 094 049 -57 008 -10 014 026 -13 -49 -39 -71 -110 -10 -28 -22 036 019 -05 104 -02 112 -125 008 054 109 -101 083 -50 -102 085 000 000 000 000 000 000 000 000 000 000 000 000 000 000 000 000 000 000 000 000 000 000 000 000 000 000 000 000 000 000 000 000 
041 -27 047 -57 122 -67 -68 -73 032 -82 043 040 -62 -19 -97 -122 -114 007 -123 -124 -110 087 010 100 -28 051 110 031 116 051 -78 -21 000 000 000 000 000 000 000 000 000 000 000 000 000 000 000 000 000 000 000 000 000 000 000 000 000 000 000 000 000 000 000 000 
-96 -46 034 -22 007 -63 125 099 007 043 100 -21 026 -93 004 108 077 095 -22 048 040 055 -105 027 009 048 003 007 045 106 007 -39 000 000 000 000 000 000 000 000 000 000 000 000 000 000 000 000 000 000 000 000 000 000 000 000 000 000 000 000 000 000 000 000 
096 010 052 074 -06 000 054 -55 -120 -07 031 -48 075 057 069 078 047 -31 019 013 -110 051 043 033 -114 -30 083 106 -113 -21 077 -14 000 000 000 000 000 000 000 000 000 000 000 000 000 000 000 000 000 000 000 000 000 000 000 000 000 000 000 000 000 000 000 000 
032 -56 -05 -32 -71 -111 017 -117 -36 -25 -79 076 -49 -71 -117 060 035 -47 095 -87 -88 -23 -45 -25 -68 121 -55 -59 -106 -15 -70 -63 000 000 000 000 000 000 000 000 000 000 000 000 000 000 000 000 000 000 000 000 000 000 000 000 000 000 000 000 000 000 000 000 
-43 119 -77 064 -100 120 -73 -119 -112 -93 -32 -120 -127 -29 -06 -41 -19 099 095 018 -42 -30 092 -125 -13 077 -83 090 052 109 -30 066 000 000 000 000 000 000 000 000 000 000 000 000 000 000 000 000 000 000 000 000 000 000 000 000 000 000 000 000 000 000 000 000 
-09 -72 -99 114 015 089 -21 065 067 -33 048 -25 -98 014 -115 064 071 101 086 056 -42 105 092 064 -75 062 -95 -121 -18 -125 -60 -124 000 000 000 000 000 000 000 000 000 000 000 000 000 000 000 000 000 000 000 000 000 000 000 000 000 000 000 000 000 000 000 000 
049 -07 -92 032 -112 076 -76 -50 -03 044 -34 -102 028 -105 -92 -23 070 -76 026 -106 091 -89 -66 -15 124 027 -01 026 124 089 029 099 000 000 000 000 000 000 000 000 000 000 000 000 000 000 000 000 000 000 000 000 000 000 000 000 000 000 000 000 000 000 000 000 
-49 -56 077 -33 -31 -103 081 -70 -109 003 -15 -121 -20 082 -57 126 125 061 034 057 103 -106 080 048 100 -44 111 075 -03 096 036 -92 000 000 000 000 000 000 000 000 000 000 000 000 000 000 000 000 000 000 000 000 000 000 000 000 000 000 000 000 000 000 000 000 
-64 -37 -57 -18 064 069 -04 121 -04 024 050 039 -76 -14 094 -44 -59 -15 102 -113 056 -77 079 076 071 076 023 -05 -51 -108 -17 -100 000 000 000 000 000 000 000 000 000 000 000 000 000 000 000 000 000 000 000 000 000 000 000 000 000 000 000 000 000 000 000 000 
-31 054 -32 -85 003 -128 078 017 023 -62 -17 -47 003 059 013 097 006 -122 018 -02 -103 078 062 -112 089 011 -93 065 -89 -80 012 -46 000 000 000 000 000 000 000 000 000 000 000 000 000 000 000 000 000 000 000 000 000 000 000 000 000 000 000 000 000 000 000 000 
-59 009 -13 -117 -12 000 094 071 066 042 004 038 -124 057 -16 082 094 -99 -32 038 101 -124 070 120 -13 089 -120 074 -03 028 006 -02 000 000 000 000 000 000 000 000 000 000 000 000 000 000 000 000 000 000 000 000 000 000 000 000 000 000 000 000 000 000 000 000 
105 -52 036 097 052 093 058 103 -38 087 -67 -119 -51 -90 015 068 -61 -66 063 078 104 -101 -128 074 048 -99 -64 -08 028 -23 000 018 000 000 000 000 000 000 000 000 000 000 000 000 000 000 000 000 000 000 000 000 000 000 000 000 000 000 000 000 000 000 000 000 
091 -41 -46 125 053 125 -89 -72 086 -10 -09 -47 -50 -89 -05 -38 -15 -92 -121 -34 -90 085 107 120 021 -89 -127 064 083 -58 -25 -57 000 000 000 000 000 000 000 000 000 000 000 000 000 000 000 000 000 000 000 000 000 000 000 000 000 000 000 000 000 000 000 000 
-78 122 -68 -98 -47 -82 115 124 -115 -34 -16 -09 -57 -108 035 -46 -66 -78 -01 -30 -125 -81 -33 000 080 -03 -58 -23 114 -12 035 -105 000 000 000 000 000 000 000 000 000 000 000 000 000 000 000 000 000 000 000 000 000 000 000 000 000 000 000 000 000 000 000 000 
-121 028 -87 094 -50 -119 -84 107 -36 -70 117 -37 -59 -73 090 -105 030 -85 -18 108 -92 -74 021 125 019 -66 -103 002 125 079 -52 007 000 000 000 000 000 000 000 000 000 000 000 000 000 000 000 000 000 000 000 000 000 000 000 000 000 000 000 000 000 000 000 000 
001 017 090 -89 -22 -19 -84 097 082 091 -67 -60 046 071 030 014 102 007 -13 -122 -10 023 085 -76 113 -99 -45 -126 -71 079 -37 106 000 000 000 000 000 000 000 000 000 000 000 000 000 000 000 000 000 000 000 000 000 000 000 000 000 000 000 000 000 000 000 000 
021 091 -55 092 012 -110 027 064 091 093 -74 -62 067 043 105 -29 020 018 016 008 029 -32 -43 112 064 119 -95 -92 -56 -06 -64 091 000 000 000 000 000 000 000 000 000 000 000 000 000 000 000 000 000 000 000 000 000 000 000 000 000 000 000 000 000 000 000 000 
019 -128 002 021 117 109 065 -46 -111 060 052 -21 -124 -06 -89 -71 -61 096 -12 -37 -40 119 -104 -13 -25 060 -86 081 097 068 -26 -31 000 000 000 000 000 000 000 000 000 000 000 000 000 000 000 000 000 000 000 000 000 000 000 000 000 000 000 000 000 000 000 000 
115 -46 -89 -41 064 -16 056 058 082 037 060 -112 109 007 085 -90 -90 094 -109 -28 081 -124 -89 031 -64 103 -04 073 024 074 -95 -08 000 000 000 000 000 000 000 000 000 000 000 000 000 000 000 000 000 000 000 000 000 000 000 000 000 000 000 000 000 000 000 000 
119 -122 045 100 -25 -11 -109 -83 065 -42 -19 -87 -79 028 012 -20 046 081 095 094 091 -83 123 -126 -84 093 099 114 -115 038 082 -85 000 000 000 000 000 000 000 000 000 000 000 000 000 000 000 000 000 000 000 000 000 000 000 000 000 000 000 000 000 000 000 000 
029 093 062 -29 -12 -07 053 105 -127 079 -72 102 119 -106 -84 -115 055 039 084 070 061 032 -114 059 -45 035 059 019 -71 085 117 121 000 000 000 000 000 000 000 000 000 000 000 000 000 000 000 000 000 000 000 000 000 000 000 000 000 000 000 000 000 000 000 000 
-19 115 114 -10 -54 054 092 067 -50 093 -62 085 020 -73 038 -65 086 -62 113 -07 -91 -69 034 -127 -68 -06 050 -20 -97 -63 -67 -42 000 000 000 000 000 000 000 000 000 000 000 000 000 000 000 000 000 000 000 000 000 000 000 000 000 000 000 000 000 000 000 000 
-68 -01 003 -88 -50 -19 004 059 003 099 055 -29 034 088 -53 031 -62 -68 -102 -109 -96 -115 -98 -128 065 013 108 -123 -09 056 -128 -49 000 000 000 000 000 000 000 000 000 000 000 000 000 000 000 000 000 000 000 000 000 000 000 000 000 000 000 000 000 000 000 000 
-96 -30 118 -95 030 106 -103 065 -08 -68 108 003 -123 -62 -122 091 -106 010 -85 104 -118 097 -114 -123 -126 -49 -120 007 035 056 -86 079 000 000 000 000 000 000 000 000 000 000 000 000 000 000 000 000 000 000 000 000 000 000 000 000 000 000 000 000 000 000 000 000 
018 074 -99 -107 041 081 006 085 -11 -109 072 000 -125 083 -04 018 091 056 -17 -09 019 025 004 085 064 013 -12 116 -08 -116 -113 009 000 000 000 000 000 000 000 000 000 000 000 000 000 000 000 000 000 000 000 000 000 000 000 000 000 000 000 000 000 000 000 000 
008 066 104 065 -32 062 031 -29 -125 -68 102 -11 -26 -21 060 -47 026 -04 -05 041 -94 046 012 046 -17 -89 -32 -63 -116 012 -92 018 000 000 000 000 000 000 000 000 000 000 000 000 000 000 000 000 000 000 000 000 000 000 000 000 000 000 000 000 000 000 000 000 
-93 -101 -111 115 -104 011 -116 -01 -92 -22 086 050 119 023 -17 026 -48 063 -71 -24 -112 089 001 000 -101 035 -23 095 -120 -60 -02 038 000 000 000 000 000 000 000 000 000 000 000 000 000 000 000 000 000 000 000 000 000 000 000 000 000 000 000 000 000 000 000 000 
025 024 -81 021 121 020 -21 042 084 -10 -68 -17 -94 063 -36 024 -01 076 081 -98 014 -07 -37 -119 124 102 -15 073 -44 -112 085 016 000 000 000 000 000 000 000 000 000 000 000 000 000 000 000 000 000 000 000 000 000 000 000 000 000 000 000 000 000 000 000 000 
-11 027 037 -102 097 -34 -73 -14 034 -80 075 -120 -60 019 -33 -120 -19 -11 -06 123 032 085 -40 093 -67 096 -110 -119 -15 -37 -15 061 000 000 000 000 000 000 000 000 000 000 000 000 000 000 000 000 000 000 000 000 000 000 000 000 000 000 000 000 000 000 000 000 
-88 -65 -68 -85 -46 059 -47 -49 -73 082 -08 -12 084 -71 094 -101 012 -124 004 -04 013 -118 -48 054 031 110 -98 116 -21 049 009 115 000 000 000 000 000 000 000 000 000 000 000 000 000 000 000 000 000 000 000 000 000 000 000 000 000 000 000 000 000 000 000 000 
009 -92 -06 028 -97 -57 035 -84 -75 003 -27 -72 -102 -20 -34 067 -33 -107 062 -42 030 014 030 -16 075 113 -107 080 -39 -102 088 -07 000 000 000 000 000 000 000 000 000 000 000 000 000 000 000 000 000 000 000 000 000 000 000 000 000 000 000 000 000 000 000 000 
-88 035 075 066 -04 110 079 079 020 -17 -114 110 078 024 100 002 074 005 076 035 -61 -28 048 -65 048 109 065 011 078 -79 087 -21 000 000 000 000 000 000 000 000 000 000 000 000 000 000 000 000 000 000 000 000 000 000 000 000 000 000 000 000 000 000 000 000 
084 -82 022 113 -45 -28 017 -01 036 -59 -20 075 -35 114 090 -71 038 -58 -119 -105 -128 077 -106 -107 -118 037 -78 123 -41 -01 001 -59 000 000 000 000 000 000 000 000 000 000 000 000 000 000 000 000 000 000 000 000 000 000 000 000 000 000 000 000 000 000 000 000 
-67 -35 -34 007 -08 -08 037 -13 064 -39 123 -102 091 -07 083 -03 -111 092 -64 -40 -45 000 045 051 123 -75 -08 111 033 105 -109 087 000 000 000 000 000 000 000 000 000 000 000 000 000 000 000 000 000 000 000 000 000 000 000 000 000 000 000 000 000 000 000 000 
-60 -72 039 063 -38 048 -41 040 -12 -40 -38 -101 -95 078 013 007 040 111 -74 074 034 -51 -104 -01 -35 024 -23 -82 071 003 055 -35 000 000 000 000 000 000 000 000 000 000 000 000 000 000 000 000 000 000 000 000 000 000 000 000 000 000 000 000 000 000 000 000 
-26 044 -123 -72 -74 -17 089 -103 014 009 118 023 -23 -73 053 -115 -118 -108 -123 -72 099 122 042 040 -29 043 -55 042 046 -102 -104 -110 000 000 000 000 000 000 000 000 000 000 000 000 000 000 000 000 000 000 000 000 000 000 000 000 000 000 000 000 000 000 000 000 
044 -55 029 125 126 012 -120 114 107 108 001 -80 -61 015 -92 -119 084 -17 -27 095 -96 -24 -40 -124 -62 -96 -25 -91 -24 036 -36 -79 000 000 000 000 000 000 000 000 000 000 000 000 000 000 000 000 000 000 000 000 000 000 000 000 000 000 000 000 000 000 000 000 
-101 046 068 -109 019 100 045 -122 -84 019 -89 096 021 -07 -92 -47 -31 072 -73 021 099 034 -66 -64 066 -55 041 060 -102 -108 -127 -122 000 000 000 000 000 000 000 000 000 000 000 000 000 000 000 000 000 000 000 000 000 000 000 000 000 000 000 000 000 000 000 000 
-127 -92 025 -106 082 117 083 047 -54 047 082 018 -49 054 020 057 049 054 -11 102 -53 -87 098 -54 038 -90 -42 -21 -91 -66 078 -46 000 000 000 000 000 000 000 000 000 000 000 000 000 000 000 000 000 000 000 000 000 000 000 000 000 000 000 000 000 000 000 000 
038 092 096 122 -98 070 -20 -90 -52 -33 -15 -50 -108 -12 -73 043 -111 075 -97 -19 013 -62 -100 111 -128 031 056 -06 -75 053 029 087 000 000 000 000 000 000 000 000 000 000 000 000 000 000 000 000 000 000 000 000 000 000 000 000 000 000 000 000 000 000 000 000 
079 024 100 045 029 032 -42 -49 -58 098 122 -44 065 -82 125 -105 -57 -111 125 079 083 -98 -69 -53 018 -123 -84 079 -55 -37 043 -12 000 000 000 000 000 000 000 000 000 000 000 000 000 000 000 000 000 000 000 000 000 000 000 000 000 000 000 000 000 000 000 000 
-74 -10 081 -24 -123 091 120 065 -83 -54 -43 125 -69 122 -49 056 095 -123 -96 -126 126 -84 -64 036 006 038 054 114 -84 -70 107 009 000 000 000 000 000 000 000 000 000 000 000 000 000 000 000 000 000 000 000 000 000 000 000 000 000 000 000 000 000 000 000 000 
055 063 012 -123 -29 -28 -61 109 -116 -128 -19 011 -86 106 -114 -108 116 -55 119 -79 125 061 -93 -113 -124 -118 001 126 054 025 -46 -106 000 000 000 000 000 000 000 000 000 000 000 000 000 000 000 000 000 000 000 000 000 000 000 000 000 000 000 000 000 000 000 000 
080 -117 -116 -07 015 075 062 024 119 -47 099 092 -42 049 082 061 -67 105 -93 -15 044 -17 078 069 061 -108 005 -01 -11 083 -85 119 000 000 000 000 000 000 000 000 000 000 000 000 000 000 000 000 000 000 000 000 000 000 000 000 000 000 000 000 000 000 000 000 
-73 117 -120 -34 053 095 -122 -127 071 -42 -60 -30 067 -104 101 -29 042 -109 -124 -125 -128 126 097 -86 088 -34 065 023 -64 003 -52 -69 000 000 000 000 000 000 000 000 000 000 000 000 000 000 000 000 000 000 000 000 000 000 000 000 000 000 000 000 000 000 000 000 
-78 -95 -65 008 -42 -121 -29 -54 095 -58 -122 032 -05 -93 003 056 059 -88 103 -36 -76 -21 -124 032 -46 -27 -97 -114 111 -31 -60 088 000 000 000 000 000 000 000 000 000 000 000 000 000 000 000 000 000 000 000 000 000 000 000 000 000 000 000 000 000 000 000 000 
-75 -11 -88 -32 020 -30 100 075 -42 014 -92 067 047 -93 -33 123 013 -44 007 097 026 052 -100 110 -04 047 120 -128 006 017 -99 066 000 000 000 000 000 000 000 000 000 000 000 000 000 000 000 000 000 000 000 000 000 000 000 000 000 000 000 000 000 000 000 000 
-02 102 038 054 011 068 073 -79 -05 071 -80 -03 102 -07 115 -114 075 103 -47 -97 042 066 -104 -90 -48 065 -55 -14 -76 126 097 -59 000 000 000 000 000 000 000 000 000 000 000 000 000 000 000 000 000 000 000 000 000 000 000 000 000 000 000 000 000 000 000 000 
078 -73 -117 070 101 -25 097 -38 000 118 -118 -29 -66 067 -10 040 -31 111 -98 112 -119 -115 033 080 043 027 043 -21 003 -77 102 019 000 000 000 000 000 000 000 000 000 000 000 000 000 000 000 000 000 000 000 000 000 000 000 000 000 000 000 000 000 000 000 000 
-80 -77 -105 -102 085 -35 025 -52 -48 -13 058 065 006 090 -69 085 -80 -50 036 -86 003 033 -10 089 047 -104 -59 066 061 -01 060 -107 000 000 000 000 000 000 000 000 000 000 000 000 000 000 000 000 000 000 000 000 000 000 000 000 000 000 000 000 000 000 000 000 
070 -121 033 111 106 -52 047 -25 054 -56 -04 028 -60 026 117 -100 066 -79 -25 053 039 -06 095 -108 097 028 063 -32 022 -62 058 055 000 000 000 000 000 000 000 000 000 000 000 000 000 000 000 000 000 000 000 000 000 000 000 000 000 000 000 000 000 000 000 000 
-52 063 -75 -54 040 075 -19 -29 120 -37 -35 048 -83 -116 007 -76 -125 053 -46 109 -70 -128 063 -35 -13 -55 -13 051 -11 -46 -63 024 000 000 000 000 000 000 000 000 000 000 000 000 000 000 000 000 000 000 000 000 000 000 000 000 000 000 000 000 000 000 000 000 
-62 123 -32 119 061 -09 049 -113 -10 032 078 053 -98 031 -23 049 086 -73 -108 043 -45 -73 004 -15 -121 044 -70 -49 -40 -24 114 -07 000 000 000 000 000 000 000 000 000 000 000 000 000 000 000 000 000 000 000 000 000 000 000 000 000 000 000 000 000 000 000 000 
-54 -23 -65 -75 -76 089 -40 067 020 007 093 -101 062 035 -117 -68 005 -07 022 087 -41 116 -59 022 -105 021 -54 115 018 -28 -85 -84 000 000 000 000 000 000 000 000 000 000 000 000 000 000 000 000 000 000 000 000 000 000 000 000 000 000 000 000 000 000 000 000 
-23 122 -76 000 -73 017 -03 -72 108 098 -40 -113 -83 -107 -29 113 -70 -55 028 -114 018 -27 -46 099 -83 019 -66 086 -98 -86 076 -47 000 000 000 000 000 000 000 000 000 000 000 000 000 000 000 000 000 000 000 000 000 000 000 000 000 000 000 000 000 000 000 000 
-85 -110 -23 125 092 108 -30 079 078 -55 -28 -118 -86 009 080 -24 114 -32 081 060 -122 -46 108 -109 080 -80 -49 -02 -127 063 016 -24 000 000 000 000 000 000 000 000 000 000 000 000 000 000 000 000 000 000 000 000 000 000 000 000 000 000 000 000 000 000 000 000 
046 -89 -48 060 125 064 037 067 -115 -20 113 -73 -39 -38 105 -101 -06 120 -125 070 025 -13 076 067 -40 -128 062 -120 -85 -103 -104 029 000 000 000 000 000 000 000 000 000 000 000 000 000 000 000 000 000 000 000 000 000 000 000 000 000 000 000 000 000 000 000 000 
071 016 -56 102 -117 -38 -32 075 -98 034 -38 015 121 060 -40 -10 -27 009 078 080 -40 026 092 -06 071 011 -12 -56 -110 -01 062 -07 000 000 000 000 000 000 000 000 000 000 000 000 000 000 000 000 000 000 000 000 000 000 000 000 000 000 000 000 000 000 000 000 
125 010 033 -93 058 -91 082 -76 -11 -82 076 -38 114 -05 120 050 -14 038 -32 008 070 -81 007 -79 -102 106 101 -24 096 -77 084 -90 000 000 000 000 000 000 000 000 000 000 000 000 000 000 000 000 000 000 000 000 000 000 000 000 000 000 000 000 000 000 000 000 
-105 -42 -71 048 093 039 -118 -126 050 094 054 -14 -09 -48 009 067 105 075 085 093 -69 -23 072 037 -99 -107 -74 -92 -47 -71 -104 -98 000 000 000 000 000 000 000 000 000 000 000 000 000 000 000 000 000 000 000 000 000 000 000 000 000 000 000 000 000 000 000 000 
096 -15 074 027 092 -30 034 009 -123 102 002 110 -114 -81 -68 -75 -97 -100 018 -102 -27 017 -62 -30 -124 -119 -97 -111 024 -51 -13 005 000 000 000 000 000 000 000 000 000 000 000 000 000 000 000 000 000 000 000 000 000 000 000 000 000 000 000 000 000 000 000 000 
087 053 033 -64 -123 -115 -11 006 023 -98 -08 -16 092 -84 -121 -67 019 114 -82 072 -107 121 112 124 -72 -32 123 -94 043 -29 -72 077 000 000 000 000 000 000 000 000 000 000 000 000 000 000 000 000 000 000 000 000 000 000 000 000 000 000 000 000 000 000 000 000 
017 049 -46 -58 074 094 -68 -72 -121 -37 -17 -33 010 -16 004 -48 -128 -30 092 -113 124 -96 057 -68 110 -47 -11 -102 096 064 -103 090 000 000 000 000 000 000 000 000 000 000 000 000 000 000 000 000 000 000 000 000 000 000 000 000 000 000 000 000 000 000 000 000 
-110 -117 -04 -46 -39 -64 125 -17 -24 -89 -89 049 110 -70 063 110 004 064 078 104 -57 -95 -104 115 090 041 -35 -98 063 031 002 -69 000 000 000 000 000 000 000 000 000 000 000 000 000 000 000 000 000 000 000 000 000 000 000 000 000 000 000 000 000 000 000 000 
-38 -32 061 045 074 -48 110 126 060 065 108 065 -13 -44 -80 -73 125 -23 054 -93 119 -01 -27 -03 -47 054 -102 -63 -49 019 -77 111 000 000 000 000 000 000 000 000 000 000 000 000 000 000 000 000 000 000 000 000 000 000 000 000 000 000 000 000 000 000 000 000 
-120 -08 -05 -04 031 -28 -110 020 105 074 120 095 -121 017 -65 044 -19 077 030 047 -118 -17 -114 -35 -81 -96 -52 079 106 115 082 116 000 000 000 000 000 000 000 000 000 000 000 000 000 000 000 000 000 000 000 000 000 000 000 000 000 000 000 000 000 000 000 000 
-67 -89 028 -37 -82 -16 050 -50 -74 110 -112 051 -115 -99 016 -41 -104 092 012 -57 009 -73 043 -11 -42 -31 -18 -89 -68 -40 028 098 000 000 000 000 000 000 000 000 000 000 000 000 000 000 000 000 000 000 000 000 000 000 000 000 000 000 000 000 000 000 000 000 
061 021 -45 -48 114 025 069 021 -01 091 -12 020 -06 048 -87 -07 023 033 -126 047 104 -24 099 -63 -32 -43 023 035 046 -100 -70 092 000 000 000 000 000 000 000 000 000 000 000 000 000 000 000 000 000 000 000 000 000 000 000 000 000 000 000 000 000 000 000 000 
-30 -102 078 -81 100 035 007 -118 051 -121 095 031 072 089 -43 -108 029 020 111 071 -17 -103 -100 -33 120 -111 079 -10 026 044 081 -88 000 000 000 000 000 000 000 000 000 000 000 000 000 000 000 000 000 000 000 000 000 000 000 000 000 000 000 000 000 000 000 000 
038 -96 105 065 109 -96 104 002 093 071 080 031 -121 106 102 -86 078 -102 -39 -81 062 -79 051 051 -44 -116 -47 -36 -121 -51 -62 002 000 000 000 000 000 000 000 000 000 000 000 000 000 000 000 000 000 000 000 000 000 000 000 000 000 000 000 000 000 000 000 000 
083 -122 062 -57 062 091 070 060 -25 -19 -107 063 105 050 -77 -20 -125 -43 007 013 073 056 067 -98 -71 -96 080 102 -73 120 115 029 000 000 000 000 000 000 000 000 000 000 000 000 000 000 000 000 000 000 000 000 000 000 000 000 000 000 000 000 000 000 000 000 
049 -36 079 044 -41 064 -107 056 008 091 085 116 -73 041 -47 -22 050 020 118 -19 080 -108 -64 096 050 091 017 104 040 -70 -104 087 000 000 000 000 000 000 000 000 000 000 000 000 000 000 000 000 000 000 000 000 000 000 000 000 000 000 000 000 000 000 000 000 
053 -103 054 -117 090 -74 119 036 079 -125 -79 -91 088 015 124 -77 -125 -97 126 -53 119 031 -83 099 -104 016 -79 092 080 -59 063 111 000 000 000 000 000 000 000 000 000 000 000 000 000 000 000 000 000 000 000 000 000 000 000 000 000 000 000 000 000 000 000 000 
113 122 000 -59 -11 -56 -72 009 084 -75 071 -125 061 034 105 -62 109 076 054 -101 -29 -57 -46 -112 -94 014 -58 123 004 -33 -116 094 000 000 000 000 000 000 000 000 000 000 000 000 000 000 000 000 000 000 000 000 000 000 000 000 000 000 000 000 000 000 000 000 
093 -03 -08 -55 049 111 -36 -29 044 -21 080 002 -65 039 020 -94 004 -68 125 036 057 045 093 085 122 -30 102 -83 044 -59 100 -81 000 000 000 000 000 000 000 000 000 000 000 000 000 000 000 000 000 000 000 000 000 000 000 000 000 000 000 000 000 000 000 000 
081 025 -70 -35 070 -105 -81 -114 -93 064 -06 -111 079 026 039 -104 033 050 021 109 -98 -27 012 043 078 088 -44 -71 -47 -127 095 114 000 000 000 000 000 000 000 000 000 000 000 000 000 000 000 000 000 000 000 000 000 000 000 000 000 000 000 000 000 000 000 000 
113 -83 062 -10 020 039 -33 -10 049 -102 012 -42 055 047 083 008 035 043 -62 036 -64 -126 -111 -48 -38 -123 001 032 105 101 -07 021 000 000 000 000 000 000 000 000 000 000 000 000 000 000 000 000 000 000 000 000 000 000 000 000 000 000 000 000 000 000 000 000 
108 110 019 -113 105 119 -88 -107 077 -112 -106 -32 089 056 087 038 051 -11 -63 002 121 -67 -02 082 -25 -50 041 -14 -77 -37 043 -70 000 000 000 000 000 000 000 000 000 000 000 000 000 000 000 000 000 000 000 000 000 000 000 000 000 000 000 000 000 000 000 000 
-40 -121 080 020 003 121 012 058 -75 036 002 -82 -71 018 -79 093 -51 -116 -103 -11 -29 032 -98 -27 046 -56 042 -28 -121 -20 -27 051 000 000 000 000 000 000 000 000 000 000 000 000 000 000 000 000 000 000 000 000 000 000 000 000 000 000 000 000 000 000 000 000 
-30 -29 -93 -97 044 038 102 -06 -51 002 -120 -120 -117 -87 108 056 085 058 -08 -112 -53 071 -59 021 -34 069 096 044 -73 -57 -12 043 000 000 000 000 000 000 000 000 000 000 000 000 000 000 000 000 000 000 000 000 000 000 000 000 000 000 000 000 000 000 000 000 
-56 -112 011 -05 -54 005 096 043 115 098 014 -31 112 006 002 068 -73 061 -53 -33 118 043 076 -41 102 -119 -103 111 -93 078 115 -79 000 000 000 000 000 000 000 000 000 000 000 000 000 000 000 000 000 000 000 000 000 000 000 000 000 000 000 000 000 000 000 000 
-119 006 029 -87 110 020 -13 093 056 -122 009 107 012 117 -62 017 078 000 -15 050 081 -26 -74 071 -101 036 -67 030 096 -28 016 035 000 000 000 000 000 000 000 000 000 000 000 000 000 000 000 000 000 000 000 000 000 000 000 000 000 000 000 000 000 000 000 000 
-107 020 -95 069 079 -102 -62 070 023 049 -33 082 -92 019 -35 -10 -64 -105 023 -93 017 -77 008 092 006 -57 -55 022 -02 081 093 -63 000 000 000 000 000 000 000 000 000 000 000 000 000 000 000 000 000 000 000 000 000 000 000 000 000 000 000 000 000 000 000 000 
038 -74 071 -04 080 -87 -64 -58 029 -122 022 003 -120 -104 114 -36 -12 083 -72 -17 012 -60 009 086 -117 -49 113 063 024 -60 -85 -52 000 000 000 000 000 000 000 000 000 000 000 000 000 000 000 000 000 000 000 000 000 000 000 000 000 000 000 000 000 000 000 000 
034 042 065 033 015 112 024 050 005 030 079 -30 -124 -74 052 030 068 -101 -32 -128 071 -102 117 112 -73 -78 111 119 -70 -89 095 -58 000 000 000 000 000 000 000 000 000 000 000 000 000 000 000 000 000 000 000 000 000 000 000 000 000 000 000 000 000 000 000 000 
061 -55 037 071 035 087 -02 -36 120 -56 038 -19 040 007 -17 -111 071 -104 -114 -09 041 -128 -66 -34 -79 111 037 -103 084 121 100 064 000 000 000 000 000 000 000 000 000 000 000 000 000 000 000 000 000 000 000 000 000 000 000 000 000 000 000 000 000 000 000 000 
-16 -25 -59 115 -123 -23 047 114 -71 -43 -72 035 112 013 083 040 -64 -92 -18 085 -127 109 -96 -51 011 -02 030 -54 007 -28 -110 037 000 000 000 000 000 000 000 000 000 000 000 000 000 000 000 000 000 000 000 000 000 000 000 000 000 000 000 000 000 000 000 000 
-27 043 -15 062 042 119 023 -14 -87 026 -125 -97 -04 -29 -103 116 084 032 056 073 -103 -113 016 013 095 -50 -05 -100 -64 041 017 051 000 000 000 000 000 000 000 000 000 000 000 000 000 000 000 000 000 000 000 000 000 000 000 000 000 000 000 000 000 000 000 000 
087 038 074 039 -15 -99 011 -17 057 000 086 -110 046 084 -106 -51 072 086 -110 080 035 -35 -84 -07 046 067 -103 123 -103 -06 -22 032 000 000 000 000 000 000 000 000 000 000 000 000 000 000 000 000 000 000 000 000 000 000 000 000 000 000 000 000 000 000 000 000 
084 117 -115 092 041 -63 -04 086 -84 -101 -127 -29 -13 -110 -101 -73 089 -89 -60 -17 -111 -73 -96 -127 -10 -80 -98 -02 -70 -41 -126 043 000 000 000 000 000 000 000 000 000 000 000 000 000 000 000 000 000 000 000 000 000 000 000 000 000 000 000 000 000 000 000 000 
007 -33 -31 116 -67 123 -125 -90 125 -47 118 -73 097 089 -17 -06 -68 -39 -93 058 069 -06 083 -88 055 -58 -96 -77 065 064 -85 035 000 000 000 000 000 000 000 000 000 000 000 000 000 000 000 000 000 000 000 000 000 000 000 000 000 000 000 000 000 000 000 000 
073 098 046 006 109 -63 035 -91 065 -26 083 096 046 -43 -91 -67 123 -76 005 -05 076 111 069 -124 060 -62 -02 -02 -49 126 086 -111 000 000 000 000 000 000 000 000 000 000 000 000 000 000 000 000 000 000 000 000 000 000 000 000 000 000 000 000 000 000 000 000 
096 -86 012 -60 -87 -52 085 000 -98 012 -60 -32 -113 123 113 -102 013 106 -104 093 -69 033 -107 040 035 -89 -90 -38 -34 010 099 -18 000 000 000 000 000 000 000 000 000 000 000 000 000 000 000 000 000 000 000 000 000 000 000 000 000 000 000 000 000 000 000 000 
109 004 090 -82 -34 101 044 -113 -93 101 -77 -80 -26 046 099 -66 -16 039 045 061 108 -73 031 024 -98 -107 067 125 051 016 -80 -71 000 000 000 000 000 000 000 000 000 000 000 000 000 000 000 000 000 000 000 000 000 000 000 000 000 000 000 000 000 000 000 000 
039 118 -18 -90 -72 -17 -24 -08 -81 -87 034 -26 044 073 056 110 -25 -100 006 -50 072 071 -111 033 070 040 033 -39 102 080 -101 -93 000 000 000 000 000 000 000 000 000 000 000 000 000 000 000 000 000 000 000 000 000 000 000 000 000 000 000 000 000 000 000 000 
090 -26 -04 -108 123 -106 033 079 -127 -62 -53 -41 -127 014 -128 -76 061 -79 -13 -38 061 -118 -18 117 -105 088 004 053 -122 057 -31 082 000 000 000 000 000 000 000 000 000 000 000 000 000 000 000 000 000 000 000 000 000 000 000 000 000 000 000 000 000 000 000 000 
-39 -126 -22 -46 068 096 -20 057 -127 -64 -38 -34 -93 021 -90 037 012 019 -109 014 -60 094 057 -20 086 -39 -108 -70 055 -26 -128 -74 000 000 000 000 000 000 000 000 000 000 000 000 000 000 000 000 000 000 000 000 000 000 000 000 000 000 000 000 000 000 000 000 
-55 -34 -107 103 056 006 -76 -106 -50 -107 051 028 -63 -46 -88 -50 031 -10 -120 -80 -38 -49 -126 -115 036 017 076 000 -05 -09 019 028 000 000 000 000 000 000 000 000 000 000 000 000 000 000 000 000 000 000 000 000 000 000 000 000 000 000 000 000 000 000 000 000 
034 -30 121 017 125 -11 -125 084 097 049 -124 085 -17 099 -75 -18 074 007 -46 024 036 -97 -118 055 002 023 -14 046 089 010 -103 034 000 000 000 000 000 000 000 000 000 000 000 000 000 000 000 000 000 000 000 000 000 000 000 000 000 000 000 000 000 000 000 000 
093 030 -109 -124 -99 -29 035 120 002 023 027 053 -119 -07 123 -107 051 061 -116 103 -36 070 097 -27 017 -12 011 -104 -40 046 -51 -60 000 000 000 000 000 000 000 000 000 000 000 000 000 000 000 000 000 000 000 000 000 000 000 000 000 000 000 000 000 000 000 000 
029 029 -81 008 089 -32 114 -81 084 -09 -38 -18 -10 -49 029 -49 107 050 021 -18 -54 -06 -18 126 026 -101 -37 -02 070 -46 093 -60 000 000 000 000 000 000 000 000 000 000 000 000 000 000 000 000 000 000 000 000 000 000 000 000 000 000 000 000 000 000 000 000 
052 -102 053 062 -15 -58 -47 077 060 035 024 124 059 -37 -110 022 -96 088 -46 -70 -80 118 121 -72 116 040 -91 -79 020 -50 -36 -105 000 000 000 000 000 000 000 000 000 000 000 000 000 000 000 000 000 000 000 000 000 000 000 000 000 000 000 000 000 000 000 000 
099 -70 -100 -124 030 -91 011 -73 044 075 001 -22 -29 -31 -47 114 122 -77 -47 -90 -69 093 072 -124 -124 -70 -57 -109 107 013 066 072 000 000 000 000 000 000 000 000 000 000 000 000 000 000 000 000 000 000 000 000 000 000 000 000 000 000 000 000 000 000 000 000 
044 123 -58 -21 100 080 044 077 -28 099 019 -121 -69 046 042 -44 -83 043 092 119 109 107 -31 007 009 -52 005 -63 -51 054 035 072 000 000 000 000 000 000 000 000 000 000 000 000 000 000 000 000 000 000 000 000 000 000 000 000 000 000 000 000 000 000 000 000 
-19 100 -44 -07 -71 -26 -101 -93 069 039 038 -18 -13 022 095 050 077 -39 -76 -57 122 -98 -118 -117 097 -10 -34 -26 006 -07 -60 -42 000 000 000 000 000 000 000 000 000 000 000 000 000 000 000 000 000 000 000 000 000 000 000 000 000 000 000 000 000 000 000 000 
025 101 -110 105 027 -115 024 -125 079 081 090 -81 -43 035 -52 014 099 000 -60 -47 067 066 -48 -55 -119 -119 -28 032 -30 -79 -38 -46 000 000 000 000 000 000 000 000 000 000 000 000 000 000 000 000 000 000 000 000 000 000 000 000 000 000 000 000 000 000 000 000 
