031 060 -125 029 073 120 -117 -37 -92 099 -89 078 100 -101 -85 091 074 -103 -31 -94 -17 -91 -52 -29 051 119 064 039 -72 -85 041 018 032 -67 105 084 120 108 -68 -85 118 024 -33 -59 -89 -34 -86 062 001 058 114 -81 003 057 -36 023 -53 045 034 -49 -94 -03 037 -59 
-14 -86 -97 117 007 021 -123 037 104 -119 034 020 104 -115 -27 -79 -47 023 102 -07 118 036 -21 002 050 060 -82 083 -37 -114 019 -100 -43 080 119 -71 055 073 -03 021 -85 105 026 011 -01 -80 056 -88 -47 055 046 075 126 024 024 -43 -22 040 -127 094 120 105 -79 116 
-122 113 032 -108 110 067 087 -17 -128 023 002 114 -04 064 -38 -16 006 -06 -35 023 -98 121 -13 -98 -118 -76 023 078 117 -57 002 078 -63 -36 -45 100 -71 000 -62 -15 -28 007 -113 -127 101 -11 118 -06 101 -44 000 007 042 -62 008 039 069 -122 -65 075 057 -102 092 -117 
069 -61 -47 053 -83 -64 -126 088 -57 -01 -24 -121 083 -100 -91 -117 -34 -75 086 038 015 092 014 081 -98 019 -102 075 -33 110 115 015 091 -121 091 -01 061 086 -03 -55 021 088 -62 -106 -02 035 019 -89 122 105 122 094 -95 -110 044 -81 -116 -61 124 102 -07 098 068 -60 
