033 -86 -48 026 096 003 104 035 000 -114 009 -104 -60 -25 -58 -06 012 -71 -33 004 -55 048 -46 066 -104 075 -34 -35 -19 -06 024 061 -06 055 -22 -66 -12 -71 -51 -76 002 038 089 -68 124 -61 -11 114 -114 -126 -57 -125 -29 092 117 -107 095 -43 045 -10 -12 125 120 -18 
-38 -11 -107 055 040 -59 -30 -08 -40 -122 054 -27 087 -01 070 -06 -85 063 056 123 -45 120 -82 121 -42 -40 032 -37 -13 -12 114 016 061 -72 -13 -71 -84 -57 060 -13 -108 -26 004 -63 -102 -02 -37 -88 098 -105 -36 -99 -76 039 -126 018 -12 060 -47 082 122 013 -34 -03 
075 -74 119 110 -101 -19 -79 031 039 120 -86 -80 104 077 -71 -33 009 -09 -95 008 -103 -15 098 064 -59 030 -22 014 025 126 -26 005 013 -29 -36 -118 071 075 -92 -101 034 -96 -98 045 095 044 064 109 022 -13 -69 098 -43 075 -102 085 077 -105 120 -54 122 -38 -127 -10 
058 -94 096 034 -58 062 013 -116 -98 026 -53 -103 121 023 -126 -54 -51 -111 -35 028 020 -26 065 -89 -67 085 111 062 057 098 -116 104 061 002 -02 -88 041 092 027 019 045 -42 069 108 -110 -19 017 098 077 095 -20 052 -27 040 122 000 023 025 078 098 033 -06 -74 018 
-114 -126 094 087 -32 -79 051 -121 -67 -35 -128 115 -41 010 095 033 074 059 065 038 -46 016 -106 035 -33 -49 102 046 123 095 042 -28 -108 -85 -92 088 -92 015 034 -57 124 -105 -109 119 098 -64 086 -114 -111 -30 -43 117 -51 025 -126 028 -105 053 105 113 061 020 027 121 
-35 -79 -61 066 047 091 078 -14 -64 -97 028 104 -51 019 -31 040 -61 077 -84 -111 033 073 067 -06 105 116 124 -106 070 089 002 111 -83 013 -128 -126 -55 -119 108 083 010 029 084 -22 126 022 -66 033 049 004 -115 -47 -85 -24 024 103 111 086 -66 057 -113 111 035 -35 
-76 -07 029 -18 036 -74 -111 004 107 -128 -13 -127 -91 103 -54 -113 045 065 -118 -45 096 121 067 060 -07 -126 005 041 -117 -48 038 -55 002 -47 -118 -18 032 -111 -04 027 -39 -38 051 018 -65 090 069 -96 -67 043 059 -03 110 098 091 026 -03 033 078 -89 -41 092 -42 -122 
-45 -17 -43 118 -42 -08 070 -100 120 027 -112 -111 113 -64 -33 -56 -23 081 120 -29 -47 074 122 -16 008 096 061 -99 -11 -80 049 -50 033 -50 -81 -120 072 123 -78 052 069 034 012 005 070 116 123 069 015 -109 091 -85 120 -07 -81 -78 067 -94 -126 085 -46 077 -81 103 
113 -70 -37 -48 038 -118 -10 -116 -117 -66 -63 005 -63 055 031 -82 050 045 -07 090 092 125 -97 -11 -21 020 -38 047 -64 -124 102 -41 -51 107 097 108 -29 035 025 -83 -65 095 117 058 082 -19 -28 063 090 094 -18 118 -09 101 009 -118 029 079 017 -54 -20 -61 022 004 
-04 -109 080 -101 011 -78 -88 -74 -36 -66 -90 -29 064 064 075 054 -71 -113 -119 080 121 126 110 047 116 -106 036 -113 -68 -01 066 086 079 -115 -16 063 006 077 -61 -51 -36 -20 038 -37 019 -03 002 108 013 060 -36 051 060 053 -77 -92 -100 124 108 073 098 105 -79 079 
013 031 -10 101 097 121 051 049 -81 041 -74 -99 011 120 084 115 -68 -53 -12 -94 -124 -74 -09 -119 098 -73 -70 -79 108 113 -95 014 -27 093 -49 -58 003 -64 -76 -103 092 025 018 -63 -53 -81 -114 -84 083 -41 069 051 022 026 008 -73 -36 -106 -104 -112 -80 059 -118 -115 
-02 -59 -93 075 042 -58 106 -97 090 076 083 015 062 -37 -68 122 -07 078 -67 -75 -53 084 038 123 -71 074 -79 -13 086 105 026 116 115 -10 -09 -12 -77 -109 049 -40 038 -123 -26 092 -23 -91 -76 -23 -13 -21 111 -77 022 102 -60 121 052 -99 079 -42 -68 -112 -59 -101 
-117 054 083 000 061 080 -50 083 -32 -39 049 098 079 -44 -80 -14 035 -45 022 -70 -13 054 093 007 001 024 017 095 -128 088 -92 -11 092 064 -66 001 -69 098 095 -65 031 004 009 -90 -50 114 -50 119 -13 -68 -34 074 -47 -35 -69 -34 085 005 014 -66 115 119 -114 -104 
122 -118 -110 -84 -39 026 097 084 -80 075 -30 115 -88 090 001 041 041 093 -118 -116 068 064 011 060 -118 082 -57 125 110 -125 110 078 090 059 -117 067 049 035 095 -65 002 045 -46 -94 -41 078 083 -97 -123 112 -94 072 -83 010 007 -104 -31 -113 059 010 125 053 012 007 
001 -56 116 030 120 -60 041 076 -122 029 -29 -15 -114 -29 009 -08 103 028 -27 -66 126 -112 -68 -20 -66 028 064 090 021 -104 045 119 -85 093 -43 -62 -113 095 023 -20 045 -109 -97 -86 -71 030 -23 -80 094 -08 -04 -41 -07 -97 064 024 061 074 084 117 -57 -126 -105 103 
-33 101 -121 -31 -114 027 -03 -73 013 028 -36 011 -42 011 114 125 079 -30 -105 -23 -103 -28 033 095 -02 075 -123 083 -70 067 100 098 -98 -93 025 -75 023 -61 -113 057 -44 108 083 051 -54 -10 -20 046 -07 -106 074 062 -126 006 002 003 -06 118 114 -55 -69 097 -98 -125 
-116 124 014 -122 -11 026 -46 022 -25 098 109 101 -80 -116 010 -116 075 -60 109 062 055 -17 -98 -04 -65 -122 -68 -84 051 -26 -126 -09 -107 -122 052 047 109 125 125 034 -40 124 101 -122 043 023 122 -28 116 -41 -16 -04 -61 -108 -128 -19 070 -77 -15 -27 080 091 -09 -102 
017 063 112 -78 062 102 -58 083 021 062 -24 -117 -108 054 006 010 102 -105 123 -16 078 -115 058 -116 064 070 004 014 012 -45 -60 078 113 -08 -34 052 -124 -01 022 029 009 -107 077 -114 -57 -12 -07 074 -114 -23 125 063 -46 -62 006 046 -50 -28 -08 062 -31 -126 -67 097 
-127 060 062 005 072 -110 060 -01 098 103 053 -88 053 044 075 001 022 068 -50 112 -10 057 -71 -68 036 -24 -66 065 001 -111 027 118 -43 000 -71 -52 -17 063 -92 106 -22 -09 -110 -74 -77 -43 -43 -93 -34 051 -15 115 -15 018 -114 112 -63 088 -39 004 -54 -105 009 -43 
120 072 -116 -18 -21 -01 124 017 032 068 021 101 -31 024 102 -15 -59 092 018 -116 114 102 -24 066 -50 018 -103 -82 101 -29 -85 061 -105 038 -128 126 123 -128 056 066 021 -79 048 -23 082 -118 -122 116 030 019 112 -79 -73 112 060 028 -29 124 -46 088 -75 -128 118 -101 
-109 -70 075 -102 048 076 083 101 011 049 078 074 017 059 -38 -31 -05 -05 045 -55 012 096 -82 113 -46 042 -112 -51 -59 -117 -26 055 099 -45 091 -05 007 050 -93 088 090 030 114 -19 117 -29 -59 -54 044 018 107 -09 056 -97 060 108 -57 012 -126 -69 000 -107 049 071 
-37 114 048 007 -71 -95 006 -67 049 100 -122 -24 119 047 -97 -35 068 024 086 011 014 -12 -110 -116 -60 -01 -54 -58 055 -22 -92 -47 082 116 069 -53 101 -06 -59 -78 -107 109 037 -107 122 046 063 -61 -12 -55 056 -71 -74 076 010 -109 024 045 -106 -113 -36 -06 053 -54 
058 062 028 -18 021 087 -93 103 -61 -87 -115 -08 084 066 114 -109 000 -124 120 -12 -43 -40 030 -80 -77 102 -38 -127 095 -55 028 -17 -88 -75 119 -91 016 -59 -68 095 -76 -39 -100 -25 -27 007 -65 056 081 118 -124 109 111 050 -43 -117 108 -81 010 002 -25 -79 051 110 
-67 -97 -02 -89 -106 -35 -27 015 -76 087 049 107 090 125 112 079 000 -21 -91 -51 -123 056 -28 -30 037 -99 077 -57 042 -04 -68 029 -80 -22 -07 -53 109 -29 -41 -111 -28 029 -85 -45 030 -29 -16 -81 -71 031 055 -61 -90 017 004 -82 031 090 -59 -111 -11 021 018 111 
030 004 067 -102 072 093 059 -12 -33 -117 -110 087 074 097 057 -06 094 029 -40 083 -27 -02 -53 105 -05 024 059 073 -40 073 045 -127 016 -75 092 -14 -38 112 064 -88 089 079 086 -45 080 -21 -24 069 020 -31 081 -113 062 071 073 100 030 -71 -111 -122 126 -05 -74 058 
034 -36 -06 -121 086 -88 120 -86 044 102 003 -91 -22 -16 126 -97 033 053 -125 000 -38 -69 050 -72 017 023 093 -10 -110 056 006 -91 -16 -84 -107 -128 -11 -55 -38 039 102 -95 083 -14 -63 096 118 018 083 -55 -17 059 064 091 095 074 -26 -128 085 056 -41 -120 -115 -68 
080 -66 -103 -60 -123 -70 -17 052 -10 -76 -28 101 083 100 -23 -81 -03 -103 -52 -127 093 096 062 055 -100 -48 082 021 -109 094 -72 -42 -29 031 -77 -114 -71 086 -116 058 -08 005 -46 -108 -24 -108 022 043 -89 -31 -123 -68 109 079 -106 -39 042 -12 068 115 015 024 -86 -36 
-08 -27 016 -16 -108 034 -21 -26 010 -78 -106 -53 023 -41 -81 105 -78 011 -84 054 034 022 020 030 043 -49 090 -118 -105 -88 015 -37 053 119 -94 -53 -20 032 -46 109 -72 -86 025 -46 -113 001 -47 075 110 -124 -25 096 068 004 -51 -116 018 035 057 -108 -06 061 121 -24 
-104 -128 083 056 -95 -125 082 -111 -59 014 -76 051 071 -65 -50 -62 122 021 034 022 -112 075 064 -33 095 -62 -41 103 -17 100 -104 -03 059 -80 063 -126 048 013 043 -99 018 053 -80 -08 -02 026 040 036 025 -06 063 -61 -14 -122 061 -31 -39 -74 005 -06 051 100 102 -10 
-70 -69 119 051 -59 048 024 012 040 -23 001 -41 104 002 088 -77 088 -128 123 -79 057 004 -57 -23 -50 109 028 076 -50 -44 -75 -12 070 -128 026 053 -62 -27 087 -108 067 048 -39 107 121 014 -112 -62 042 -37 -23 007 -05 097 113 -123 -40 002 -88 118 075 075 -84 -18 
023 062 088 -05 -54 -71 000 119 048 -111 097 -96 113 032 026 047 101 105 117 -100 -40 -31 -13 043 -93 -49 089 061 107 -125 -101 -09 -127 027 103 -123 -08 099 014 051 -109 068 -24 102 -121 115 017 043 042 -105 126 -81 068 -122 102 064 -28 032 -85 126 048 -04 042 -28 
-27 021 -02 -39 -25 062 -41 -24 -110 -97 093 074 000 126 -32 -89 -18 108 -77 079 -105 -101 081 074 071 124 000 -42 126 043 121 074 071 078 049 085 101 018 -27 -126 015 -48 -35 087 108 048 -20 004 015 -128 -77 -78 -116 101 117 -111 -08 016 -116 -82 120 119 044 -26 
063 -97 043 -90 -47 -34 -32 -72 005 033 036 -32 -15 032 064 -11 -73 -04 062 032 006 -103 090 052 -100 -108 -98 -23 -52 008 -46 048 -24 -92 -57 -98 -104 -126 -60 004 077 -33 -16 -05 089 067 044 098 -94 104 -35 -74 063 063 029 059 -126 032 038 -73 085 -47 081 -77 
-26 086 125 -37 -21 -103 -16 -111 105 -69 052 103 027 -118 -14 -27 -15 -118 -03 091 -28 -28 -124 -11 084 031 -69 119 098 -32 -87 068 -40 -09 -48 -80 -77 -13 031 -26 -62 -33 073 -37 062 -65 062 095 059 -82 033 010 094 102 091 122 -36 073 114 026 041 -94 -106 106 
-20 -52 049 048 -117 -23 106 010 -05 085 086 -112 101 -30 101 016 -128 -72 039 -75 -50 032 -122 -27 -81 033 -68 -18 077 -76 016 093 114 111 -126 -42 122 -60 -15 017 061 -108 -113 -69 121 090 -40 -48 -73 -39 097 -92 093 -108 -121 -91 -12 -35 -04 008 067 095 -39 033 
-127 122 -59 010 -122 -76 052 057 -102 -56 -94 082 -93 102 077 004 064 -26 061 123 099 087 012 011 -22 -28 058 007 072 -54 -126 080 066 105 -80 029 -32 025 -36 -66 098 020 026 092 -48 056 080 -36 -74 045 -08 -61 097 -85 032 107 051 -22 -62 010 -16 -08 020 122 
-128 -43 -118 -75 -18 011 012 -48 -27 -41 -87 066 -118 054 066 -124 102 071 -63 035 077 -73 -20 -49 116 -21 -52 -37 099 -49 045 005 123 -49 057 089 -114 -85 -111 -36 -96 -23 016 121 040 029 040 105 -77 -01 -86 -31 119 -60 022 -22 105 121 -50 103 095 058 031 -40 
105 106 113 090 -63 -126 -91 036 -30 -63 -08 090 026 064 -53 -99 -121 055 032 072 078 066 -21 -127 044 079 032 -01 -34 041 034 076 008 065 009 -10 075 -96 -30 -110 013 005 -46 -102 031 -55 029 -32 074 -71 -128 107 098 114 -43 002 -69 079 029 -20 058 051 -111 058 
-104 -10 000 -13 -17 -66 -120 020 -49 027 -05 -19 021 -32 119 -15 055 038 -123 018 -35 -118 052 -80 -09 -104 -79 -79 082 -114 033 -18 -89 049 038 -08 118 -95 090 009 017 060 002 -108 008 -102 -21 -43 -83 060 113 021 -08 -121 016 -14 038 -35 -14 001 -16 086 -55 115 
051 -125 -94 117 073 -101 065 121 -29 -47 003 045 -06 119 -86 095 115 095 -104 095 -82 -118 002 -04 -40 -76 -35 116 -120 077 122 -128 035 039 034 -02 073 016 -66 116 052 089 088 -69 -107 -41 -106 -55 042 019 -01 077 -25 -124 092 052 111 -47 -22 -57 042 032 -86 022 
006 -95 024 -82 -51 -125 -94 082 056 106 -128 -38 -19 115 046 -126 049 -06 -67 114 106 -03 -83 -51 074 -113 -124 013 043 057 093 078 028 -36 -10 073 -115 -03 -127 018 088 081 -18 -29 017 044 -106 118 030 051 097 086 -104 080 -99 -27 054 094 077 -113 -34 035 046 -05 
-55 109 -47 -111 015 -68 -05 -102 -61 -26 076 -23 -55 073 -75 -118 -128 093 -87 -82 014 096 -109 029 121 030 -36 -69 -95 096 103 079 -60 038 066 -43 -44 112 089 -45 -30 -50 052 -100 -72 -49 -04 010 006 -40 -104 -13 068 090 018 072 030 -26 074 086 -67 095 -68 -20 
-04 -40 -100 067 -50 -39 -59 -77 -30 066 076 044 -76 -01 -106 -13 097 -26 078 -47 -123 107 074 -63 -96 -119 093 088 -87 088 -71 015 -29 -96 -102 103 -65 081 -44 059 -56 093 115 -112 032 087 -69 000 -95 -19 -03 098 -04 033 126 -14 029 -78 -88 -10 016 060 -125 -34 
-127 117 -15 -94 -26 034 -46 -81 044 000 074 -16 -39 -73 -06 -30 040 -69 076 089 -34 -90 -26 058 -21 -01 099 010 -71 -125 008 008 046 -03 -14 -56 -89 081 -56 034 095 -03 -99 -70 -93 -49 -42 011 120 -18 -56 126 -19 -46 080 056 005 -65 067 065 -66 -57 -88 051 
019 065 015 -99 062 -11 002 -81 120 -105 064 072 044 092 -81 -128 074 -32 -106 055 077 -112 -13 -26 015 018 -38 109 -37 -121 -111 -126 093 001 -08 101 100 -126 042 006 066 -20 097 012 100 005 -01 -106 037 -45 126 -118 079 -84 021 038 -48 -25 -73 -12 -62 -118 -21 125 
-103 -32 080 -36 -15 106 061 -95 -52 015 -44 -51 -73 -29 020 -66 -59 099 -33 -30 082 019 -19 -36 -89 -126 -63 -88 -23 005 095 077 115 -13 025 108 -46 -09 -56 -32 077 -93 -04 -16 058 -08 -93 -70 -113 018 -61 -30 -32 089 091 045 -115 -39 -85 -44 054 000 -65 -115 
043 055 111 022 035 -05 044 -39 034 -121 031 -64 004 111 -83 -59 101 -109 -74 -62 -67 015 038 -03 -38 120 -01 083 083 067 -29 -07 -19 -03 088 095 024 054 005 003 -109 066 -52 -128 025 119 -37 -38 -127 073 -103 078 -34 -108 078 -48 -20 002 -113 -05 -105 -10 089 -01 
085 -39 067 009 109 015 -103 -113 -45 049 111 -52 071 100 -28 -35 033 002 080 052 -61 093 057 -110 120 -66 057 110 -98 -32 102 -90 037 036 -56 -23 -62 119 -38 080 039 -104 -109 107 -63 122 -36 009 -103 -05 -95 074 -03 028 125 001 -52 -73 -45 -61 103 014 031 118 
-92 -85 -10 -118 -12 -86 000 -93 -03 022 -94 075 021 -54 013 -107 019 -123 -73 -124 055 -41 -122 -91 013 -109 -35 009 115 051 076 034 -20 125 118 039 101 -10 117 052 -28 049 050 -68 008 036 -44 062 -19 -12 019 -26 -107 118 077 -63 -67 -48 -106 -74 -07 -46 -66 040 
043 053 -128 -92 047 004 108 -11 002 085 039 -18 -105 -106 -08 -14 -04 014 001 028 -02 -125 126 085 -09 -17 -84 -88 -32 -33 126 -92 048 -66 002 -63 -54 035 -116 -71 086 -18 016 -88 076 -10 -07 -45 082 090 -47 100 -56 008 090 -02 -75 -126 -112 -18 -95 104 123 -111 
-33 -46 -97 029 -56 -101 088 -97 008 -98 079 083 -25 -03 -55 047 -22 -89 070 122 031 025 048 -07 120 -21 076 -123 007 -52 -02 046 -87 095 -121 -87 120 -48 -113 058 047 016 084 087 063 034 -43 -117 -57 082 011 -38 -98 038 032 -74 039 -15 076 -125 071 058 053 -121 
063 -05 022 -31 018 -65 -76 031 115 -70 -18 -10 -86 120 104 -14 035 -101 005 -14 039 -56 082 043 112 022 000 048 -95 -94 029 -34 -83 107 -103 104 -53 -27 061 099 -29 012 -52 -56 006 092 025 042 -17 104 082 037 -51 020 -124 -69 068 017 121 105 -46 -71 069 125 
041 -19 -124 -97 073 058 096 -85 045 -90 058 102 030 -11 059 080 -105 -101 053 104 119 -126 111 -95 058 122 058 010 091 -120 -89 106 089 -29 056 083 -105 080 103 -29 -118 -125 083 -18 -08 -128 -102 -91 -24 038 -90 -25 081 -04 019 -54 048 -24 -58 010 080 -70 119 111 
-05 093 002 -54 -108 -31 009 087 -45 -56 -09 -128 -68 -15 051 -33 -55 -111 039 106 -24 -49 015 107 057 109 -97 -63 009 077 062 -125 -46 -98 016 -25 -51 -01 -106 075 008 -02 046 056 -120 101 -82 082 -65 012 -09 009 016 105 -81 097 -30 110 046 058 -78 015 -21 -39 
-25 -32 040 -106 051 014 -63 050 012 121 -49 -79 118 -59 062 079 100 115 -84 080 092 034 001 -77 126 -83 006 -124 040 003 -50 116 093 -25 062 104 094 -50 072 079 -20 051 -74 012 071 -117 010 061 090 072 126 012 061 023 014 -81 103 104 -73 076 118 046 037 083 
-86 072 -77 076 -16 081 -02 020 -26 -42 -61 -12 -58 063 -42 -82 -05 079 017 -40 041 026 073 060 -57 025 -42 -83 -54 070 012 -74 -16 -124 074 -29 -122 -05 094 090 -83 -108 -49 -116 -78 -21 111 -111 -106 -07 067 105 124 011 102 036 021 -105 040 -32 -74 014 046 -11 
-72 090 052 011 069 -95 -62 022 067 -63 -83 -55 047 077 081 -128 119 -14 067 081 054 -76 -117 077 -36 -34 070 033 034 069 -118 -112 -49 005 089 015 020 055 -40 -93 -12 009 -101 083 -53 105 093 -09 -106 051 -13 -124 -88 -94 -57 -05 -03 106 022 -39 -32 053 -17 -93 
084 125 056 -64 -25 -62 013 101 058 031 113 -33 092 -06 101 -72 117 -119 -35 124 101 097 065 010 064 -113 119 -65 088 053 -29 110 -21 -76 016 -46 -80 -94 114 -73 -112 -36 -22 054 045 -88 -108 -25 037 -78 030 -103 007 -73 -110 -70 072 061 -51 -93 -34 -24 122 099 
-64 074 -85 055 -122 091 106 084 004 044 123 -14 -116 003 106 120 008 014 079 053 -93 031 100 -94 -45 -113 -51 050 022 067 -36 -28 -46 -95 -128 119 -17 -46 -70 -31 091 113 -61 085 125 021 024 -38 -53 -44 068 -53 -77 002 -34 -45 -46 -30 -30 -80 004 -83 049 -98 
017 015 -118 -126 105 041 089 002 -13 -61 -73 -76 -90 003 -82 013 064 -116 -123 015 -29 -85 108 -10 019 055 -103 -27 103 062 044 -23 073 094 060 -24 037 -122 099 121 045 -98 -88 -79 004 -84 017 -124 -126 -40 -03 -99 064 049 111 -20 -75 -29 -24 -46 -97 027 085 -79 
-48 -90 -121 022 105 -46 -62 117 -103 122 111 118 -122 082 028 -13 -34 092 -89 065 114 037 126 -54 -96 107 -10 117 117 -106 070 -59 -108 -08 053 -128 001 025 -88 -79 -70 048 094 -111 026 -12 039 113 108 -117 018 -32 006 062 125 -74 020 -124 071 077 -45 -120 -117 072 
012 -82 -74 -43 073 032 -07 -109 -94 078 115 -43 -43 024 -56 -27 071 -90 117 020 001 -76 -02 -05 -10 -32 039 030 032 121 -46 -20 089 095 -06 013 122 -31 003 077 -80 057 115 039 015 044 027 -66 096 050 -67 075 005 -84 -29 033 -114 053 -22 -112 075 093 123 -11 
-104 -103 082 -80 098 124 059 -111 -96 064 -109 068 111 115 -55 -60 041 115 111 028 -10 -21 -86 112 -42 -75 044 040 121 -09 095 -121 051 061 025 -43 -05 120 088 -67 -96 -18 -25 060 047 -102 -21 -14 109 104 -93 -96 -66 035 -91 -94 087 059 110 064 068 -50 -47 112 
077 014 096 052 032 056 -32 -19 022 034 -26 017 -87 -36 024 116 -126 022 -117 118 081 095 -35 045 -09 067 085 067 -79 006 -116 093 -57 033 124 -50 -05 027 035 126 -54 -104 016 021 098 045 125 105 069 -69 -83 -100 025 053 -80 115 003 -79 039 059 008 -23 -04 -62 
-46 -06 072 -124 071 066 -44 100 -59 -30 -01 -03 028 -74 050 015 109 -103 -65 036 -86 -32 -120 -118 062 042 -26 068 038 -29 -52 116 016 -08 001 -119 -118 -82 -21 -92 020 055 044 -101 -72 094 061 -114 120 -58 -03 110 002 -06 015 068 007 -01 123 054 106 040 -11 -51 
-92 105 -55 -126 -95 125 -109 -61 -28 089 -62 058 010 -24 022 111 -43 -50 076 008 -94 058 -91 045 017 -119 -94 -13 036 059 054 -120 -39 071 -108 -61 117 009 112 086 104 010 -10 036 120 -04 -84 -59 080 009 026 066 092 -20 039 023 112 032 -120 018 071 010 -48 -38 
-125 -87 046 -18 074 102 -28 066 -07 065 -103 099 -50 058 022 020 005 015 029 -94 004 071 059 126 -86 -115 -12 071 -94 061 -50 069 007 104 102 -91 017 005 114 -78 113 -84 028 061 124 -61 -19 119 -16 -19 -44 124 037 067 -30 017 102 -47 039 -40 -38 -20 095 014 
119 067 108 -83 -05 064 -85 -26 -89 035 011 075 -73 -63 107 -37 -92 -33 -35 -94 056 055 -109 -36 -110 -57 -26 026 028 050 -106 -83 104 014 035 -22 -97 -124 -90 066 -113 -29 -36 -25 -123 -116 037 -83 010 033 103 078 -18 -97 -43 089 -44 070 -120 065 092 -95 102 -121 
048 -05 038 071 066 125 019 053 060 036 -92 058 -58 050 110 004 -127 -83 -56 044 053 -77 -31 -123 117 -68 -128 104 078 -51 047 082 063 -121 058 034 -08 078 -47 -100 105 -29 096 -99 102 -21 044 069 095 -03 -43 027 123 -80 -58 000 -83 -34 096 025 009 098 -112 -94 
005 006 016 079 -78 -37 034 -126 111 067 021 108 117 -71 -78 -85 113 -68 -39 107 -114 048 072 -29 -29 -114 -64 028 103 -58 063 085 114 064 -112 100 000 013 -106 -119 086 -94 100 -28 -49 -74 -51 114 -30 084 065 074 009 006 074 -85 -120 097 -04 -57 -10 -116 010 -54 
055 097 -22 006 -18 -48 055 -40 -45 106 -57 -21 -33 007 -70 028 -91 -30 -16 122 106 020 112 068 -43 -20 106 -01 -113 043 010 -43 -125 058 080 -76 045 012 -06 079 -118 -93 -63 -10 039 086 122 084 058 098 118 103 -35 089 058 -39 -88 -89 035 030 043 038 000 083 
035 -127 037 -98 -50 083 -77 070 -78 084 010 025 -14 102 -54 113 -03 -16 -10 -34 112 -109 -125 035 105 106 057 030 063 -109 090 035 017 124 122 102 082 -72 065 007 -08 -22 -68 -41 123 -26 -30 -66 115 063 -18 073 -43 -30 072 033 103 097 070 -21 -64 -70 014 -90 
059 -58 075 113 070 077 028 -99 107 047 036 -90 079 099 -17 -107 058 051 -06 038 -127 062 -31 -76 029 -21 000 087 105 -101 -123 -78 -42 -24 -106 -85 023 -03 035 -48 -109 -96 -45 -64 120 -114 -58 -29 -27 063 066 103 -57 067 -125 085 -07 005 093 080 -92 053 111 -100 
072 -107 094 -109 080 -11 090 -23 -08 086 -56 -88 -04 000 -118 044 -113 -120 -14 124 057 -105 -01 069 048 062 001 033 -71 -61 -79 008 -07 -66 036 110 -93 -112 022 001 -55 054 -61 -83 -116 -88 040 -128 -67 -08 010 036 114 -56 -22 039 059 -92 -17 033 -45 -84 077 -90 
040 -79 082 -21 037 094 -61 064 066 -84 036 -123 024 -33 023 043 -96 064 032 -55 038 -30 -62 -37 007 -69 112 -86 -14 102 -06 -56 084 -61 058 -93 -45 -05 019 082 024 -91 059 038 036 085 033 -115 -33 -111 -109 -48 119 080 046 099 -123 060 017 078 057 059 -101 -62 
046 097 -48 106 031 038 -02 -43 -55 089 -05 117 034 040 -114 048 -99 -03 -82 108 026 -24 060 115 -54 031 067 028 -63 065 -53 -29 -52 -48 055 -17 073 -26 022 101 -116 -128 -15 059 -11 041 -105 038 -110 093 -93 115 -39 034 117 -14 126 028 -17 079 -91 022 -101 -18 
-47 -81 049 -27 095 019 -76 087 112 -39 -101 -127 002 -95 064 078 118 010 029 -90 -106 -65 -121 082 011 -59 -96 060 102 -117 013 -10 -104 041 -96 062 -01 036 082 030 027 -88 120 -109 -109 -32 -11 001 046 042 -103 030 023 038 -116 -74 002 083 037 -110 102 066 -52 -96 
-91 -51 014 -98 002 -76 -50 084 -114 -66 -05 -100 -100 082 -06 102 -87 -21 -128 -33 001 006 058 -05 -121 -51 048 058 077 -03 -97 -49 051 -71 059 081 -62 106 085 -81 109 028 -53 069 -58 012 -68 -47 -103 -32 -109 -63 -19 -45 -28 080 100 -12 -59 -47 086 086 078 -56 
-03 -36 -42 -82 031 001 -85 -09 043 -94 -09 -93 093 031 -30 -74 -115 -128 012 -62 -10 024 -67 -21 062 -18 -15 016 -91 -09 -78 089 064 -51 -46 017 -125 121 078 -110 -45 066 002 -38 122 112 -19 -77 014 047 013 -08 078 -20 -88 -30 -22 080 090 020 070 -02 063 -123 
-114 -69 -15 109 -17 -36 007 112 070 116 -85 -48 -108 -14 045 124 -110 013 045 -22 -78 026 001 024 105 047 -24 121 -110 -66 -18 021 012 082 -50 115 -105 -126 093 124 030 060 -114 087 045 047 000 -69 013 107 033 038 050 090 -45 -20 071 -22 -55 103 -66 021 061 -43 
-45 -79 082 -04 077 -16 -14 -34 -81 105 064 074 016 007 -05 023 -117 -66 -14 074 009 -23 -50 -127 -60 -122 016 063 021 004 -63 -126 040 107 -118 -66 -125 093 118 -05 -04 091 113 -89 017 -60 -76 -17 096 067 060 -11 054 -87 -81 004 068 -78 107 022 081 -33 -33 -37 
-72 -90 -05 086 -70 -46 -102 -91 -81 -56 -75 043 -42 -79 069 048 106 -114 033 -99 -74 047 -40 028 087 031 078 -13 -70 060 -112 -107 072 -74 -78 -42 -41 062 032 021 056 -30 -23 016 -123 107 -19 -24 004 -76 -38 -116 -55 -65 025 -89 001 -40 -110 -77 -46 -95 -12 -23 
-40 -74 -68 -96 091 048 -09 -65 -22 -56 026 -112 -96 097 024 119 -32 -120 110 -80 077 123 -128 059 031 -03 084 112 -109 054 -07 -113 041 023 -112 -09 076 039 027 007 -35 046 -123 -125 111 -91 068 038 119 -07 -02 -14 116 -65 017 -04 -117 074 -07 112 066 041 -107 -19 
005 088 036 -67 005 073 069 -41 028 -74 008 -108 086 -82 041 032 -10 -53 058 -45 -91 -109 090 031 050 007 -111 051 125 072 -100 126 -107 -69 099 -111 082 052 -59 -77 000 -105 -90 023 -113 014 -95 -34 -13 -50 -38 122 101 -30 103 094 -19 046 -11 071 031 -65 -79 044 
-92 -65 073 -08 109 014 -101 -49 -48 098 069 -25 -89 -111 -54 -17 016 -115 -88 -24 119 -07 117 -57 -30 028 -126 062 -09 124 124 084 -19 036 -57 -77 121 033 078 -06 -38 -55 122 055 -64 -07 -36 -16 -72 -20 009 069 -114 076 007 093 -119 -87 -94 -46 002 -67 -76 -20 
-09 010 -98 007 -127 119 063 -59 027 -18 -105 023 060 -113 030 086 071 -39 032 004 021 -71 012 -125 001 -80 034 028 -35 -30 -66 -57 -25 077 -48 088 -39 086 020 -49 115 -69 091 059 078 -51 -59 -15 -124 -118 111 -03 033 032 -66 -85 -08 -47 027 -02 -59 -68 -90 -14 
097 -41 121 053 126 -51 -81 -81 -25 050 -57 074 -114 083 126 010 -79 066 043 -49 002 -115 030 105 001 -62 -50 059 -44 -19 -17 -110 010 095 -23 -49 -14 -127 089 040 034 051 -40 018 049 007 -35 -116 038 -41 017 085 -41 120 -64 076 -45 093 -48 062 -33 073 -03 114 
118 029 -120 -39 -73 -43 017 105 -30 091 057 047 -63 075 122 -114 -58 010 -17 013 057 030 -99 -12 070 055 -49 -113 -75 -35 012 084 086 -125 -59 113 110 002 098 -38 -41 033 -64 -124 101 -58 -63 -25 -46 -12 -69 018 104 077 -37 -95 -83 097 010 062 -25 -113 -42 097 
-07 -07 063 -77 069 -103 -04 -51 -79 079 104 035 086 -22 -75 -36 112 -79 102 -64 -124 -22 118 -123 -85 -38 -42 -12 -71 -72 -56 108 -107 082 -61 -40 -120 017 123 072 110 045 084 -40 006 -114 -56 085 090 -89 -59 070 048 -113 010 -71 -114 -12 -53 -68 -01 054 -64 -125 
-49 018 -17 -104 -102 011 -123 015 -93 -46 -98 034 008 -108 -119 -69 023 077 104 018 040 -49 -24 007 056 059 019 041 121 045 -121 -07 078 083 -46 056 -84 -114 -122 -65 -91 -78 003 024 -74 082 067 -31 -40 -110 -74 065 -68 -116 -107 -127 109 050 058 -79 -98 118 -15 078 
-34 071 030 107 -78 -83 066 -119 -19 -03 -89 -25 -42 -57 -88 088 005 -116 048 076 119 042 -29 024 -63 014 -55 119 067 -22 -24 -70 087 063 -83 -59 -126 115 018 086 -29 -124 -111 -07 -20 125 -91 091 -41 -96 125 -49 -60 -97 -66 -45 008 -79 095 038 001 -64 062 -72 
-88 -103 037 069 -41 -38 -91 118 -54 -13 -37 021 041 101 014 031 110 108 -100 -68 113 -03 -39 003 040 024 014 042 029 -105 -104 -25 059 046 034 -52 077 -23 011 -71 -114 013 070 018 011 -85 087 -10 122 072 -60 -88 050 049 -110 021 073 -53 -103 111 035 115 112 -114 
-76 -83 061 -31 041 -16 083 119 -62 062 -94 037 -68 087 -69 061 014 019 -46 063 124 006 075 -72 -127 090 112 066 079 076 008 -31 073 044 -44 023 -29 -34 -110 -96 014 -60 030 097 040 -34 068 078 062 097 -19 038 -74 -120 042 -04 013 -102 118 -86 -113 096 077 -11 
099 099 000 105 -30 108 099 -17 094 035 024 086 -21 -113 055 096 -05 -44 -112 -48 -49 -128 -117 064 -112 001 116 -39 124 -70 048 -42 063 024 -63 047 024 -10 064 -99 -15 115 -26 112 -105 -97 -22 080 069 064 -17 -113 -71 005 -29 -109 036 096 059 097 -80 044 091 073 
015 022 005 -52 000 -117 046 087 039 044 031 120 -54 -58 011 -123 -86 117 011 027 -14 007 -49 -65 -58 104 -103 086 -87 -107 -127 -74 -64 048 056 -73 -76 001 -88 042 064 124 -61 117 -10 119 -52 -20 030 011 -107 001 -126 112 053 049 -111 061 -73 -26 -115 -21 012 -109 
-70 046 067 -92 118 000 125 005 086 058 000 024 -83 075 108 019 -88 -65 060 -126 047 -75 042 116 029 -72 -106 -30 -41 -103 -122 126 -115 069 -45 -110 -96 -95 019 -41 069 -86 -120 073 -24 -103 021 -30 -24 062 087 068 051 076 -39 -63 059 124 -94 -122 040 -66 045 -10 
-02 094 016 056 -111 -72 029 091 -82 088 101 -67 -101 -63 -115 104 -102 -12 -63 013 097 090 066 027 114 095 038 070 -78 -99 -03 -109 -96 073 -108 -123 -113 073 048 121 -77 097 073 -128 -10 -04 -07 025 -52 090 101 099 071 076 081 -51 007 009 123 097 054 069 -56 -59 
-26 -38 100 -84 -41 -122 -74 073 -80 124 031 041 027 112 -79 -14 005 -122 114 -19 016 009 089 -111 076 040 -84 092 -118 -126 -67 120 -46 048 089 082 -66 -05 013 000 -39 -57 -125 094 113 -39 -59 -95 116 -85 -33 -75 -51 -30 -104 -68 -18 -50 -65 088 059 057 -81 005 
-48 -37 -75 069 -84 -48 -35 021 105 112 -46 101 -117 122 -110 078 -14 109 -30 -16 -88 115 065 095 -16 -117 099 119 -42 084 -05 -13 058 -50 -01 082 -101 -92 -102 -101 095 -31 059 035 -75 014 028 001 -51 026 019 -33 005 117 051 -71 -84 -51 043 057 103 -88 -39 -10 
046 -38 -96 114 -25 -32 107 052 009 -86 089 -116 035 066 018 024 -02 -92 034 111 027 031 -128 -42 -09 107 -33 -21 -04 038 -78 016 063 077 070 087 032 114 053 009 055 -26 034 -07 090 035 -123 109 048 026 044 -91 -88 013 077 -70 081 -22 -34 -04 025 -49 057 -70 
111 -123 004 -24 -101 -60 096 015 071 -38 -32 028 -110 049 -108 -26 -116 -39 081 065 -124 -88 -19 076 057 120 002 -41 -111 -20 010 -108 -72 -128 -123 -126 -104 079 056 -126 -01 -14 -73 -109 015 -64 105 042 -80 125 -28 -60 -72 -87 058 118 -89 -40 -107 -05 000 -54 091 091 
015 117 033 -102 090 074 004 009 002 -70 -43 031 120 -53 009 -112 -78 -60 -126 028 -50 -98 053 -90 -98 -73 034 -36 033 023 -94 -12 064 -82 080 -98 057 -104 087 014 109 -118 043 -63 059 113 -12 -23 -12 -57 031 017 078 065 -03 078 059 007 -90 -120 -125 -07 -10 -13 
030 -113 -79 011 -66 -83 -89 -86 -80 -54 111 027 021 069 -40 070 -111 -43 -78 -38 -51 118 007 094 024 -105 -80 070 047 -81 003 002 121 -74 -23 077 080 020 -100 -17 013 -14 107 096 -40 076 068 042 -71 -35 -30 124 065 062 -65 -84 -26 -90 -63 -32 -72 -75 104 -13 
-62 -65 -32 081 097 -65 -35 126 117 108 -37 -128 082 -90 087 -102 -57 -115 057 045 -45 038 055 029 -127 -73 -121 -01 -37 068 097 -62 050 -113 025 -101 062 -106 046 122 -123 079 072 -17 098 -96 068 -10 -23 054 106 -30 048 037 053 028 074 -92 -61 011 -47 -59 055 -124 
050 105 008 -20 054 -105 -123 015 -80 -51 -58 037 -43 -85 -13 123 059 -86 -92 -09 -86 -96 113 -103 068 043 030 -51 -58 -104 -50 044 004 -11 090 -52 085 080 029 -87 098 -06 -17 063 -42 -107 -47 -21 -25 -02 043 -112 070 -55 -90 091 -44 011 036 -92 -05 077 043 -01 
-90 082 111 -120 109 -57 068 059 -121 -101 043 108 -06 030 008 110 -119 012 -51 -83 024 121 -73 -52 -05 -08 029 -102 015 060 098 112 066 -93 -32 -21 -101 -56 024 -96 094 -20 092 045 -125 -07 097 035 -79 -49 105 -109 -34 -122 -100 096 -89 001 -07 076 040 -114 028 041 
072 -96 -51 056 031 053 -11 -119 049 -05 017 -55 -63 106 097 -46 -100 -51 089 046 -122 034 -70 125 -61 023 025 074 -79 110 -25 001 -77 -120 004 024 -100 -29 -77 060 013 031 -30 064 091 010 -09 -112 -98 -36 -70 -25 -90 -89 093 -34 -112 024 -06 093 014 102 -81 -29 
021 114 032 111 005 -55 114 -49 080 109 059 -46 094 -124 -73 -15 015 078 066 126 006 -02 087 073 090 025 -25 023 036 -35 -127 070 -84 -80 105 -121 029 014 -33 -64 018 -52 -69 083 -74 -114 -26 -104 -75 019 -36 -28 -56 012 -95 -03 043 035 -115 -111 111 051 040 058 
061 -100 -10 -41 -08 -31 008 097 035 -57 069 030 012 110 -63 046 098 -96 -55 -120 -40 -95 086 -18 115 003 -09 -65 -92 007 053 007 -63 -110 -123 -33 -37 011 005 -113 047 018 -91 112 -16 -122 099 070 -101 -119 -79 081 -82 -116 064 114 124 -83 -107 -39 -86 -105 -53 048 
-17 006 -75 043 -43 -94 082 081 009 064 -122 -112 -91 -128 062 -13 108 072 -99 045 092 000 -14 035 117 -03 -25 031 052 027 073 000 -119 078 103 034 062 096 013 107 -10 -25 -27 108 088 -34 -106 -35 045 -113 068 066 062 -116 -53 -08 025 104 117 113 -94 -93 025 048 
-05 -15 106 -128 047 057 067 109 -127 073 -69 -61 -105 070 103 -05 -79 -77 019 -66 -29 -89 112 075 013 114 090 041 -127 037 026 080 038 108 -54 046 038 064 -107 -93 090 -92 -108 -71 042 108 032 -39 105 -55 043 051 051 073 047 -39 123 029 -05 054 -48 -29 -08 -41 
033 006 -63 020 -20 -46 -72 126 -23 084 052 120 -33 -108 -91 -47 100 -29 -115 004 -90 -86 118 112 030 -90 000 058 031 022 -64 -107 024 089 -120 -94 -08 -42 057 -37 -26 -20 -76 -126 -30 -21 087 085 -117 -25 085 -94 026 112 -88 098 037 -119 061 -98 -61 -123 -97 -77 
-33 -52 116 098 109 -19 -34 041 000 069 044 089 -127 051 103 -79 -65 -110 -122 023 -76 -97 007 042 -18 009 -33 -107 -20 039 044 -35 054 -02 101 -113 -21 -17 -10 -89 -71 115 059 -116 -66 111 025 -116 001 117 -21 072 -70 -49 089 -53 -118 -23 068 -20 -93 025 -61 -04 
065 025 -63 118 -112 093 -24 -100 058 -39 -94 -116 -47 -79 037 -116 051 -02 -78 -91 -53 -32 -118 -83 088 039 -04 019 011 055 -87 070 -38 089 049 006 -27 -101 019 118 052 -34 001 -114 -64 000 -60 033 032 035 -18 -118 -63 -42 -89 010 124 077 -03 -59 -76 -45 -61 -91 
-44 017 -37 -73 122 077 015 000 065 -15 088 -76 -108 -67 -83 104 -101 034 016 061 004 082 108 088 003 029 089 120 -81 037 040 073 -26 -102 -20 037 -72 091 -22 122 -81 -114 -128 106 038 005 -126 070 123 -123 008 -127 -116 071 -117 028 -80 -39 000 021 003 -32 -64 -102 
039 069 -19 067 -114 -53 068 088 106 -29 -104 -69 -43 015 -99 -108 -35 047 -93 037 094 -109 -07 -05 -24 -15 -18 047 -97 -127 061 -84 -60 -65 -122 090 -08 113 -11 089 065 022 -95 010 030 069 -70 -26 102 106 041 -33 -120 -89 124 -32 123 008 -24 020 -69 -94 065 026 
110 125 053 -39 -119 -97 045 -48 -57 008 026 -19 109 049 -127 057 -127 -83 -118 -114 -93 062 -113 -112 113 -62 048 043 -57 -118 -45 090 -03 -55 -128 098 102 -28 121 074 054 -05 058 -35 105 -60 097 -74 049 118 -93 -95 085 -71 -82 -56 116 081 058 -50 -55 067 -118 061 
-79 016 -21 028 -95 -119 -103 -123 -74 -61 020 122 022 043 021 -97 -73 107 -96 -60 098 -116 005 -24 013 -116 -54 -127 -51 -38 010 037 079 -60 -52 002 -53 -96 075 043 126 -70 045 000 051 117 -15 -23 115 -108 -33 102 114 044 -43 -127 -34 -80 -56 053 062 036 084 -07 
-92 -14 -66 024 -69 045 -100 118 062 -41 096 -88 -30 -81 108 -88 093 -116 053 029 018 -51 116 -55 041 107 -49 -48 -33 -124 -64 -56 032 -109 -80 002 055 091 007 035 -75 104 028 -89 -67 -80 -24 004 -01 -04 004 -09 103 027 -31 -55 043 -14 -40 -04 -101 -92 -111 012 
-128 126 121 -43 083 058 022 053 -67 068 -78 -32 -63 -35 028 097 -126 -71 -32 -105 -69 103 062 -04 -08 -26 -110 125 -63 085 -23 043 -51 -39 -46 075 -115 -117 -89 093 -120 -89 -67 092 068 097 -112 083 124 -74 008 036 030 114 076 043 026 -113 -115 -71 -33 104 -18 029 
-14 063 -51 -78 -02 019 -06 059 093 023 -16 -11 -94 057 -54 075 112 093 007 088 -70 -55 -26 -59 057 -48 043 098 061 -47 099 114 009 -81 -12 045 124 -31 -98 -05 110 009 050 -03 -48 106 092 051 -14 025 036 117 -38 -64 -20 -43 -22 -82 042 -39 058 079 -63 -101 
-59 112 030 090 -77 034 -92 -116 073 -97 -70 -61 011 -06 119 006 078 -27 -111 -37 -51 -124 119 -126 -69 -54 082 066 -109 -77 -114 -44 010 094 126 101 085 -55 -128 120 -29 082 -40 067 -51 -97 089 030 -78 -27 112 -70 100 -23 -18 -83 093 -76 -51 -125 083 026 052 020 
061 -65 -43 067 -03 -07 062 104 054 -96 -16 -53 015 -120 018 024 076 116 045 033 093 098 048 015 -21 048 -08 -07 -03 010 014 -45 025 -18 -51 -100 062 072 040 090 -60 094 062 -37 -23 097 051 061 008 099 042 -68 -49 035 010 030 -123 097 -100 -51 -76 060 -05 079 
-120 -43 -14 -120 -75 -84 -08 103 -29 021 -118 -69 077 -54 124 -75 003 -09 010 017 093 -73 -83 -120 -112 -95 116 006 -42 054 -85 002 007 -22 006 038 -102 002 -84 117 048 -36 -80 010 -127 006 -116 -47 -61 055 -24 -116 -48 038 -115 -80 -128 021 016 -13 020 095 -95 -26 
112 051 -70 -30 -124 -12 -80 -20 000 -11 084 096 017 -25 075 -94 028 084 -42 -24 -116 -30 -28 -53 -33 119 -32 071 -18 076 052 079 -80 038 060 092 024 -65 -126 -21 -91 -108 -15 073 -106 -99 037 021 -13 -70 099 005 013 069 067 040 062 060 010 -123 047 -22 034 -86 
086 080 036 098 -67 076 -08 -91 065 060 -06 -58 -23 -64 -49 -23 025 067 -102 -23 -12 -91 078 -61 109 121 -94 080 -55 -27 -95 039 -116 -98 033 067 068 -120 -54 -99 -39 -32 041 043 -125 -20 078 051 -30 122 074 013 101 107 047 -73 -87 083 -83 -104 020 -76 -60 -104 
-98 -127 037 -02 -05 -07 -15 113 -29 102 119 -82 011 -71 -48 025 -03 083 007 -126 000 -104 053 059 019 043 126 -99 092 015 -41 068 119 -106 106 -45 -15 -02 112 -81 084 -57 097 -63 025 027 090 051 -32 -03 038 105 -113 065 123 -114 -118 -99 057 -01 126 080 -79 125 
048 112 -74 072 -120 -101 123 008 062 -46 113 -111 -97 116 047 009 -49 -127 -21 -11 003 116 -119 -106 -38 124 056 103 -31 086 049 -13 100 038 -15 021 015 051 -75 -25 -121 -45 -76 037 -33 -66 -19 094 030 070 058 117 -86 -43 115 -103 -42 102 -89 -58 -37 -88 -68 -117 
088 051 -28 003 061 061 070 023 030 004 -39 -80 -67 -71 061 040 073 -113 020 -88 -112 -79 035 088 -102 -97 079 124 027 -28 -75 -72 086 -107 -38 028 -65 035 -11 -119 -32 -95 015 009 -114 -18 -119 106 060 -104 -18 125 065 -32 -36 -125 015 -37 -40 -06 -29 123 053 -21 
000 108 106 -41 096 096 -52 -106 008 -35 062 053 -03 028 107 036 -34 -103 -28 -86 -103 -27 080 079 070 -101 006 -41 -29 110 -120 124 -99 028 -05 -74 041 034 112 -71 054 016 060 -05 103 -12 -102 092 -126 -101 040 022 -100 -01 -116 031 -35 011 040 -10 -113 048 -36 -122 
003 112 075 073 -14 096 -26 080 -58 -05 -38 031 -26 005 -54 -65 -105 -10 -01 -116 107 -10 044 -86 123 032 125 118 -128 101 030 010 -60 -42 -60 -115 102 -119 -48 -39 109 -11 -98 -74 -39 035 010 093 077 005 032 -17 -106 121 122 -100 115 -92 -124 -29 -76 -100 -28 072 
091 003 080 028 001 046 -73 086 -112 052 120 053 078 -55 -25 008 -75 -18 102 091 067 -36 -28 -86 092 -46 098 -117 -96 104 -96 -76 096 -118 -62 106 099 -79 032 019 079 -38 095 -44 -07 -85 -52 -07 -59 -07 -105 -117 -14 -69 -66 -103 -91 -23 -54 -74 -73 098 -35 079 
-13 -39 -112 -45 030 -113 042 -60 -128 -87 091 -04 -112 -95 082 095 111 -18 016 104 090 -11 -72 049 -51 -71 079 056 -66 -126 097 -49 021 063 -40 106 014 075 -02 099 122 -84 009 003 110 021 -79 -83 -58 -113 045 -88 -59 092 -67 -50 049 018 -77 029 006 -69 114 -20 
-96 -110 -04 -44 083 106 051 -10 077 039 100 040 114 -90 -64 -11 063 -106 -33 -88 020 -73 -57 046 -95 -101 024 -93 -78 066 -61 060 -53 -96 117 100 099 -86 -126 035 -55 -34 118 061 -96 -27 014 -10 106 -103 049 112 -83 111 -14 035 -51 -110 -79 004 057 -86 -34 045 
092 110 035 039 -36 093 098 -47 084 108 040 -09 016 126 -78 -51 -124 -47 -128 000 -98 -03 -51 076 102 048 -110 -71 -78 -100 125 -09 -32 -61 056 022 -31 -18 083 069 -77 -101 -49 -03 072 054 -92 -97 064 028 099 027 093 049 032 103 077 -106 -60 078 076 -94 013 042 
-113 036 097 125 046 -31 070 091 076 -27 002 012 -98 116 042 058 -05 110 -74 014 -114 -47 101 -79 -23 124 -91 -118 001 035 011 -111 -32 -109 -95 014 -50 -17 -40 -114 -85 -81 067 002 053 115 117 111 -44 -66 -71 027 057 -123 -14 124 -127 060 032 -59 -116 -119 065 -114 
-32 024 -14 087 100 120 -69 116 -15 063 -92 051 095 -44 -16 -73 -84 020 -126 -06 -117 064 -72 -85 -118 -31 -05 059 -78 033 008 -16 096 -16 -79 051 -126 -81 031 -103 -115 103 -78 088 024 -09 122 -74 066 -119 -102 -72 103 -85 020 -61 -101 034 001 083 082 017 092 042 
-117 -61 -34 -18 -51 -16 011 -58 078 098 -24 -106 -29 -97 -36 112 -10 -60 -102 095 103 055 -64 -27 067 -118 -24 062 021 -31 056 -13 -121 063 -110 108 -41 025 -35 095 104 -38 -04 079 059 027 -91 002 032 -83 094 -29 -75 058 007 -95 037 -95 -100 -33 -33 116 -83 121 
039 037 -116 -38 065 -122 -108 013 027 -113 037 -52 085 087 052 -17 -24 086 -107 -100 -78 029 089 -48 078 -109 049 -118 -35 -59 -65 124 112 120 033 -14 -57 025 -19 -07 055 096 066 -83 -58 071 109 -101 073 -44 -57 -60 -124 030 -18 -121 079 -51 -29 -79 077 -06 060 035 
-26 082 -79 023 008 -93 001 084 -64 057 -114 -71 -59 -59 121 094 -125 -37 -59 -119 040 013 -55 093 -21 -65 003 109 -84 -111 -119 118 -43 098 -120 -31 -113 033 117 -114 -18 -32 030 -53 -30 074 -73 -77 042 003 -17 -25 039 -55 123 053 -47 -70 125 067 -58 -34 114 114 
-23 -122 036 -51 002 -06 006 -81 112 -16 -30 -58 -35 084 117 027 -34 -59 053 002 -94 -68 123 -27 104 052 048 -105 096 009 019 011 -21 125 -11 -58 -67 -67 108 -72 069 008 111 020 -121 -76 -14 006 -40 -127 018 -04 -08 -18 013 -07 088 -40 -96 -31 -82 -26 084 115 
115 -61 053 -125 033 -38 116 040 012 -33 001 081 -96 -10 -81 -114 -27 074 -103 -78 097 -02 090 -06 103 -126 -103 089 029 -23 050 -03 -43 -17 002 -47 -87 030 -119 -60 018 -82 -120 101 024 -101 048 -49 099 080 027 044 019 -83 102 063 -103 -126 -06 -44 -33 073 124 -10 
-126 -67 086 100 041 -40 -127 -91 125 -70 -01 048 066 094 082 082 081 -96 095 -69 089 -102 -81 -26 -95 093 007 102 002 112 -118 -121 030 054 -97 115 -71 111 -03 -27 -98 -44 -39 -107 089 058 -82 -92 -21 -57 064 -77 -105 -56 000 -83 126 -100 081 -78 039 -64 024 -125 
073 022 051 085 124 -107 -70 -27 059 -91 -56 -76 043 036 067 024 092 -116 053 092 021 092 058 117 -96 -47 -78 072 -53 -106 035 -44 -07 072 -57 -99 049 014 108 -106 089 087 056 077 088 -122 -70 -117 077 037 -62 019 049 017 103 -121 -40 119 -55 068 018 105 -37 -78 
-125 -39 -120 067 -108 048 -74 038 -31 066 -63 041 -66 055 040 012 -106 -11 060 026 057 004 117 -112 -86 094 -87 050 -34 -02 121 126 020 -23 -103 -03 -56 -46 -97 -42 -94 104 -51 -105 108 -102 097 100 -82 021 -32 -70 -73 -95 013 041 072 -84 -28 -76 -17 -23 044 124 
-76 072 -115 106 -124 -02 037 -103 040 123 120 022 054 082 078 -36 -12 017 -104 069 002 100 -23 080 032 -80 119 008 027 -76 -125 078 113 -03 -26 042 030 044 -59 072 -48 -114 -30 -79 035 040 018 039 038 081 -11 -64 050 -56 -77 -10 053 041 -28 -81 077 -26 071 027 
-97 -23 -86 -59 009 -42 071 006 112 011 -31 126 -128 -38 -51 116 -112 -122 -75 -21 011 -03 092 057 -27 039 114 052 -94 -122 -57 096 021 098 -19 072 -03 -01 -113 -80 -63 -08 104 -03 029 -04 086 019 -52 -39 -04 017 -45 -87 125 016 023 108 111 026 087 -91 -71 -99 
121 091 -111 037 045 115 -110 040 050 020 075 -103 067 032 -45 037 -58 097 108 044 -117 043 076 -18 -105 -79 -41 088 085 -126 041 041 059 089 -108 048 -15 -87 053 -20 -49 054 014 -14 019 100 -77 -60 056 -99 052 -46 -30 -100 -123 -90 065 -38 -72 -20 043 001 -55 121 
009 -74 045 021 -78 080 -59 -90 -43 012 -60 039 065 -102 028 066 123 -57 -59 -76 017 010 121 000 016 095 -75 121 -60 -28 -62 -80 -96 -16 -55 -86 -31 033 077 -57 031 -126 074 117 104 -12 -08 -01 103 -128 -113 -89 -114 -16 -01 -98 038 -47 -104 -52 -83 121 -111 088 
-78 -54 060 -52 -32 -10 046 -112 077 068 -82 -68 056 101 -15 051 -89 001 101 089 058 048 -05 -50 070 043 -117 -51 -07 -39 026 060 033 000 -95 112 032 -94 083 123 123 015 050 069 -71 -84 -70 -81 116 096 044 101 010 019 007 074 024 -09 -67 031 -65 -30 -36 -91 
090 -111 063 -77 -18 116 -42 070 000 -73 010 004 072 042 -06 036 044 057 078 -77 100 -127 -80 -10 004 -122 -21 090 096 067 -40 034 086 -86 -108 -78 075 -120 -58 -122 -88 -71 -113 -05 018 069 090 051 068 -06 -47 088 030 072 -71 089 -73 026 -30 -125 -71 095 089 027 
027 082 066 027 -14 -52 021 080 123 063 -38 -52 066 -08 099 118 -125 -79 -114 054 048 090 067 -01 066 -75 -95 -98 026 -77 026 053 -112 095 017 -88 045 065 -119 -32 122 -118 078 008 048 022 -30 -80 011 -46 038 -108 109 -89 -11 027 -30 061 -20 -107 -56 -56 033 -100 
083 -127 027 -39 091 030 -66 -88 026 -114 058 -105 -31 052 118 099 -124 104 029 027 -126 085 073 -64 -106 -06 006 107 -79 062 000 069 -124 -110 044 -113 084 006 -128 -19 -73 -72 058 047 099 -17 093 021 073 -86 -51 -39 122 -80 011 -21 -14 000 -82 106 -41 022 -72 -65 
120 -103 042 -40 025 -69 -110 120 -08 -48 -06 085 -24 071 -40 -79 021 042 -13 020 -01 105 -82 -108 053 071 013 087 107 -10 -72 092 060 042 016 -06 058 -85 055 -57 -44 -25 -97 076 -33 001 -116 009 098 -12 -51 106 -07 113 037 000 031 -48 -95 -93 -20 005 090 103 
-03 -82 -122 049 -97 -110 005 -37 -57 109 -55 -16 -21 -59 -70 -22 -75 106 114 -21 040 -111 088 004 -72 120 049 050 058 -127 094 081 121 061 -28 -128 118 066 037 -77 -98 108 -18 008 -125 089 079 -43 -43 -42 053 043 -121 -57 012 101 069 -52 052 -01 084 -66 -87 122 
-45 -51 105 -69 -97 -112 112 126 015 002 021 -56 050 067 -124 070 -98 099 126 037 025 -29 -36 -123 -58 047 104 121 104 -19 030 102 -117 024 -08 -50 -33 -29 076 094 -99 -18 071 022 074 -106 -29 -41 -77 112 076 045 -34 074 -32 -10 -98 -07 -04 -05 014 031 -116 -20 
088 -87 047 -60 -15 073 074 -59 126 006 -28 043 -25 -85 071 -45 072 119 038 105 079 063 112 -56 -54 050 073 091 107 -60 -37 -47 -75 093 -85 -23 008 -92 024 -31 -60 -115 029 -48 -52 017 -121 030 002 -72 -113 111 -110 053 007 -93 -111 105 -28 074 003 -92 -57 023 
-14 -38 -116 040 -79 112 -52 -13 -52 073 -53 -10 121 077 005 -56 036 018 -64 035 -59 -12 070 070 116 101 -04 -32 -97 -10 -08 006 -43 104 039 -101 019 -36 056 -09 085 -29 -48 123 005 -126 -55 111 -40 071 -26 032 098 -41 -46 -80 106 -76 -104 058 -77 -22 116 -100 
052 -86 102 107 -68 -07 -23 013 118 100 057 -44 -58 087 007 046 -75 -32 118 009 094 -18 -117 -09 -32 -22 -49 059 052 079 073 026 -123 -123 -64 049 -31 -100 -22 126 -16 122 040 -25 -100 068 -76 -112 -49 059 057 -61 -91 105 -20 -02 089 -77 035 -93 -71 -86 080 -17 
040 -64 102 -106 -92 006 -38 083 018 -121 041 -29 067 -82 -106 -87 -87 -66 -99 -35 -41 052 -98 -71 -89 -118 102 087 -09 071 -112 111 043 -77 121 102 057 104 -36 003 123 016 -85 -46 -95 075 -68 -122 124 039 -46 -22 002 078 046 074 -121 053 -91 -116 110 -51 030 -13 
038 114 077 054 -29 032 -109 081 -43 112 -126 106 -04 001 111 043 040 009 -72 068 -49 -128 -123 008 102 -13 -26 028 033 027 027 118 092 102 -126 -123 -116 -57 029 -31 -96 -62 053 053 125 024 -14 042 -49 050 047 111 -34 048 020 079 033 -90 -73 026 -14 -31 093 -57 
-107 069 -101 048 105 049 -122 034 080 067 032 -26 -64 -98 -69 122 068 034 011 038 116 -15 078 -59 -77 062 -45 -49 -32 -73 -57 -45 021 -36 -116 006 089 050 112 -38 073 -90 -68 -21 -67 107 -48 -119 001 107 -16 -85 056 076 -108 122 -95 -84 -70 -28 -05 -49 058 062 
059 -45 -48 061 -93 053 -115 -42 -42 -117 -51 -108 095 -79 049 072 -96 -44 078 010 016 053 011 116 027 -54 071 -110 117 -108 044 -32 056 -30 088 097 -46 -69 -76 -47 102 090 -70 -34 -125 119 111 109 006 097 -52 107 109 -105 107 081 059 -83 004 -13 -28 019 097 126 
004 073 002 -111 -125 -88 -11 -76 -16 016 -12 075 114 011 -08 -56 -62 -87 006 109 -57 011 033 037 -10 -31 085 082 -126 -121 040 -31 073 -53 -79 -05 -09 116 -119 041 -122 -114 -68 -24 085 -17 042 -55 104 -23 030 -104 063 -38 -126 117 -26 061 100 081 044 029 -113 -33 
092 019 125 -56 061 -27 -10 -85 011 -08 088 -58 -94 -124 123 -87 -21 -13 -24 -68 058 041 -07 -126 084 -43 -20 -03 122 -12 059 -79 070 091 -80 -46 042 -02 -15 106 -109 106 090 -83 028 -117 -13 -27 088 105 027 -57 032 -19 -122 -32 005 -53 -51 -51 115 -25 -105 -126 
017 -24 036 -25 -23 041 -79 119 -83 -114 116 036 041 126 -125 059 005 074 061 109 086 -43 105 116 -70 -89 075 -127 -23 -31 -97 088 -15 -53 084 -32 108 -122 074 081 -100 -56 -18 -105 -65 084 106 -114 -127 -06 092 077 -104 -03 -05 -109 -87 064 -50 020 -118 058 -01 098 
116 -95 001 -09 -49 -111 095 021 -106 -43 112 067 002 044 -16 -109 -71 052 041 -13 045 081 -04 -45 -85 038 -102 -78 -113 055 -83 -128 113 -103 -09 -64 010 -23 -109 -65 022 -46 -19 101 096 -109 071 -56 -50 -62 093 -16 043 036 -114 -70 120 041 -32 -22 005 -96 046 -46 
001 -07 077 027 -44 -07 047 -51 -71 090 116 -45 -18 -55 096 -04 060 -95 -113 -56 123 117 064 006 -99 -09 -126 122 -33 -111 -12 101 -64 120 014 042 069 033 094 004 -101 -30 -68 -125 083 102 -88 -28 004 -91 007 029 -10 108 -51 -35 -73 109 079 099 017 -60 072 -87 
-37 038 000 -22 -125 -127 -113 -18 091 049 -109 021 001 -92 063 036 112 063 050 001 036 -76 058 120 100 100 -128 103 -59 098 -60 062 073 033 -93 -64 095 065 055 -57 101 070 -08 -126 088 099 -18 -106 -91 -23 -101 -49 113 -27 -07 -107 -116 023 -10 -24 -118 -69 -19 004 
-46 -48 -103 -62 -59 076 116 042 -86 115 -07 042 122 -83 073 -06 059 126 042 -116 -114 125 116 -117 011 039 -14 006 -09 017 -19 -88 -87 093 -72 -70 121 067 -74 -25 -53 056 -108 -58 030 001 006 -93 114 -92 113 -31 -87 036 099 -53 -80 -09 052 -125 057 -30 126 114 
118 004 041 -55 035 -48 103 072 075 -90 067 125 085 -123 081 -33 074 045 -20 -57 -56 -49 099 -23 -79 -102 -25 065 020 088 058 062 011 124 059 -84 -16 -24 074 -45 006 087 038 -36 -63 047 009 -33 075 -22 043 -93 -27 -123 017 -118 -120 -28 051 -109 022 109 -71 -47 
047 126 081 -106 -31 041 060 -48 -103 044 -88 030 090 115 -102 -118 -35 -39 -54 054 082 -118 013 -65 -108 -89 -78 012 -104 061 059 052 076 002 -50 029 046 -93 -24 091 -67 -25 -61 -09 089 042 -102 108 009 -103 -124 027 -119 -77 -14 -41 042 -04 074 123 -90 -09 043 001 
096 074 072 077 -124 -07 -17 017 104 -36 099 051 080 -96 059 101 048 029 -93 -35 -84 -95 071 036 -43 -24 066 -124 006 108 099 -09 -01 -80 -52 065 -31 122 -107 097 102 100 065 -09 050 108 -24 -57 125 003 067 -74 009 -44 002 082 -50 -96 120 071 -119 069 -15 -24 
120 014 -63 -108 006 068 -99 -103 -120 -117 -23 069 -24 -100 -20 029 -97 053 -06 -109 045 067 052 -59 123 -63 098 073 -69 118 -61 -106 -41 013 017 -34 111 009 -27 031 084 040 -120 -73 -125 066 -82 119 106 062 -104 113 -116 054 -34 102 005 074 -09 000 051 -20 -117 -30 
063 -77 -03 -121 -02 -114 -105 -72 -73 053 -21 034 022 -59 066 064 060 021 126 038 -87 -78 -49 116 080 111 112 -43 -03 100 082 097 064 055 112 -103 -08 073 -75 -93 -20 -50 -43 -79 -37 -97 099 064 -124 111 056 124 066 078 109 015 -14 067 -66 -56 039 011 037 -89 
-22 -78 -71 005 -45 059 057 -118 -30 -79 -126 058 105 089 047 030 -05 077 112 083 045 019 087 -123 101 -30 009 -90 -09 007 009 015 -11 064 -69 073 096 -84 -106 -13 048 -55 005 -07 -115 -12 040 -70 091 080 -44 042 -107 114 -27 -07 -94 -113 050 -38 -31 -47 -67 -57 
-66 -14 -80 -14 037 043 079 121 050 -31 -123 -78 119 -41 087 110 -126 -97 -01 051 -71 095 -104 -26 030 119 -12 022 -09 004 051 064 -49 112 -41 096 -96 -119 -14 113 -50 081 079 055 -78 061 020 -39 098 037 -43 100 -84 120 042 -22 057 -72 066 -115 094 054 045 053 
105 -33 -23 052 126 027 034 024 010 -112 -54 -42 072 -97 -64 -02 -62 073 -116 -72 -01 -24 -30 -87 077 -35 114 026 -24 -36 059 -75 094 -79 -95 029 107 -01 -118 -10 090 020 092 121 098 -44 083 -89 036 042 -99 -11 -116 013 -39 -112 -33 -16 017 106 -79 110 -120 -124 
125 -86 -116 083 096 086 -53 050 034 089 -104 -104 006 -125 088 -116 113 -34 021 037 019 004 084 -09 116 004 -100 -105 -54 054 -26 028 059 077 116 -16 -42 -72 075 -24 -47 -118 -69 118 -15 048 005 -74 -87 119 062 -75 100 104 -128 043 074 -29 -18 018 086 068 -06 -125 
110 059 -35 021 077 063 -55 023 -113 042 051 118 014 -123 009 -53 -124 030 059 048 -34 027 072 096 -14 039 055 040 -65 123 038 -93 069 036 096 068 065 064 -113 120 -51 105 044 056 -94 -14 036 -25 -33 053 095 -63 -83 095 050 -33 077 -106 -89 -04 041 -59 -66 -27 
-68 011 -41 -78 010 118 058 -72 -47 -78 -103 -76 -75 092 -48 -87 -30 -70 -100 113 -38 -85 -44 -81 061 025 030 065 039 101 -35 065 039 -30 -91 -95 112 -42 -124 075 -40 -41 003 101 022 -78 121 086 075 084 071 -123 -36 037 041 -81 052 022 -17 -11 053 083 067 032 
037 091 072 -10 -45 011 024 -49 060 043 010 078 -94 -125 -01 079 076 110 -49 091 074 027 -76 -27 -48 048 -108 083 -127 078 032 090 -55 051 061 090 046 119 000 -120 017 082 044 -43 -98 -81 091 070 -36 -24 004 095 015 -07 107 045 041 -97 055 083 017 -07 -70 035 
-85 037 070 038 -64 031 106 024 046 039 041 084 -81 -37 009 -128 -115 -45 -41 -104 -56 -69 010 103 -71 008 028 -105 -28 020 087 -18 -48 020 081 101 045 059 -62 043 -64 083 -29 -100 083 -91 067 075 -17 -13 054 025 -10 -53 -76 119 057 022 -20 -121 -81 -60 -77 014 
-96 -17 119 -04 -76 072 -09 096 -90 042 -98 042 123 118 011 121 008 -67 049 -127 -111 -96 077 -39 051 -117 042 -114 -17 124 048 055 -63 -125 -55 052 -12 -20 -107 -106 076 -31 -58 -65 076 108 041 032 011 114 063 -67 087 102 017 064 -21 -26 118 -32 -118 100 -28 -61 
-05 -89 -09 -60 -117 -71 078 042 -100 058 083 028 020 -64 113 029 001 -97 051 078 020 -37 014 -84 037 118 -13 038 071 -36 097 050 116 011 -46 -24 085 -34 055 065 -125 029 097 -108 -04 -27 098 -127 061 -45 -24 -11 078 -105 -104 108 -18 -15 -09 -27 082 -20 -36 060 
031 126 -114 062 087 -44 -73 -72 089 -97 111 081 -91 069 -80 -11 -30 -78 099 -50 026 -118 -40 037 -89 -64 075 036 118 015 006 052 080 116 039 -40 021 -02 -04 109 -124 -34 110 -18 009 -105 014 -78 -77 111 -22 -74 097 -126 -14 -66 052 116 -42 093 -121 -92 018 062 
091 006 -118 108 -37 -42 -123 002 095 -12 102 -28 -43 107 068 -99 112 044 046 035 -118 039 -89 -79 024 078 085 -113 020 -15 041 -77 -122 076 -102 078 -65 056 -77 -71 054 -116 -36 -40 001 003 -71 016 103 109 -79 -120 -37 -06 055 039 104 -29 -120 -103 056 069 -119 -02 
117 -65 -02 -124 006 -36 028 122 061 -105 -127 -43 026 -54 -94 007 017 -30 -90 033 034 019 126 -66 -03 018 -124 -04 011 -17 -108 065 103 -37 120 -04 019 003 120 -107 096 -107 081 -07 062 -35 -35 109 107 008 -104 -35 -11 078 -121 -45 -45 -123 118 -110 035 105 -102 -55 
-56 022 -46 061 041 125 -97 -85 -119 071 -85 118 062 -54 -79 047 102 -118 -26 078 085 -56 069 100 112 -14 -106 -78 -112 049 093 092 072 088 -72 008 -107 -27 117 038 -70 067 088 012 -46 090 041 -19 119 126 102 -78 030 -58 -06 030 -99 007 027 -71 046 042 002 107 
061 093 120 -76 056 -83 050 093 118 -122 020 -57 019 062 037 -103 -07 -98 -108 -93 -99 015 -88 047 102 -74 -68 125 046 043 -17 096 -49 -128 074 021 020 -119 101 025 025 -109 055 -77 066 -09 -77 -07 004 110 -02 028 -31 -29 -48 -105 113 -33 -08 103 -49 -101 062 053 
012 031 -34 -05 091 057 -101 -68 -04 -92 110 -97 -101 -128 -84 -48 -14 114 -63 026 111 -25 052 -38 -87 -57 059 048 -80 -42 005 046 018 087 074 011 087 118 102 001 -04 -15 088 -112 109 -05 -18 -01 -33 -77 089 -95 -107 -110 011 -87 -27 082 043 034 -96 101 -121 -51 
029 -51 001 090 -37 013 -05 050 -120 078 -123 099 032 067 -44 113 -55 030 -94 112 -48 -49 035 081 095 -102 092 -22 101 -102 -85 051 056 -117 -116 084 096 -05 -14 -07 -13 040 -02 049 -35 000 -04 080 081 085 -91 -116 -47 081 083 -96 -22 -109 -70 -81 105 117 -24 -104 
-85 -119 045 -77 -36 029 116 101 -36 120 -08 055 004 -55 011 022 126 109 013 067 -40 -73 -43 -37 110 -120 -27 -110 -111 -05 003 125 028 003 037 -31 125 -03 -89 -99 087 -35 -20 011 122 013 -47 -17 -41 -106 -100 -103 045 -20 027 097 -72 104 030 013 108 -79 -112 -123 
-38 -28 -33 -27 -82 062 079 069 074 -48 -50 120 002 -89 -126 070 043 -78 -28 -115 114 024 -01 -70 -18 051 121 -46 036 047 -45 124 -14 046 067 -08 086 072 -01 -02 -29 075 091 040 089 -121 -82 -117 -07 126 065 -124 -13 -46 -81 -81 -43 029 055 082 -99 -53 030 048 
-89 -75 -55 -56 126 119 -101 087 -48 -41 -94 030 095 -96 -32 -90 -28 047 -74 076 -116 -74 -93 014 -98 052 077 005 058 -55 -31 020 028 -16 -71 -126 -102 -69 122 098 032 -58 100 089 067 109 086 019 -10 -63 -62 -03 -106 093 016 -90 -74 -109 -49 -94 113 -37 -45 054 
041 -20 045 100 -56 -94 019 034 058 104 011 028 028 -59 -13 -60 093 -105 -25 -10 -108 020 119 -25 036 -35 -109 -113 068 -89 061 028 093 -10 -03 106 -94 -09 110 -20 -84 089 -119 114 -109 -93 095 036 -109 045 -04 -52 087 072 092 089 022 005 -84 -68 -84 -09 -41 022 
-111 107 -15 -16 024 022 -49 062 044 075 016 009 -55 064 -90 -31 -53 -12 062 -56 -103 075 -113 -108 -27 -77 -77 054 -39 -84 021 115 -105 -52 -117 040 076 106 114 -28 -29 113 -28 -91 -100 -61 -18 -77 005 -73 124 -76 028 005 -06 006 -113 -64 022 -65 -01 038 -08 -104 
-27 -104 -87 011 -45 062 -21 -49 -89 -84 -116 -70 -88 -128 001 060 030 052 -39 -72 -51 064 -45 044 031 109 -46 110 -40 -65 -37 -81 -60 107 053 -72 081 -116 060 091 107 -85 054 -88 057 -30 -36 095 -73 011 -111 101 115 112 016 -90 005 000 -122 083 -77 -44 000 -27 
011 123 054 -45 079 117 006 006 115 036 -62 -18 -50 032 021 -16 122 060 -89 081 -115 003 055 040 041 048 -02 -116 -48 -123 051 -71 -53 088 054 -81 -15 012 -19 -74 093 -118 101 -16 -04 050 -128 -83 -93 121 -103 022 -83 -73 055 045 -120 -73 -88 008 -14 -06 066 022 
088 -127 -68 124 043 -101 000 -23 020 100 -03 -46 026 121 089 009 062 -25 008 -42 103 026 -89 010 -26 028 091 -125 -101 114 000 032 -38 109 118 089 -44 -122 -47 099 099 -107 044 114 -40 094 049 -83 -60 -51 -10 021 119 083 118 044 086 -74 082 -35 031 -104 -77 -66 
085 102 -44 042 -99 114 -98 -107 003 -87 009 079 118 -99 029 024 -43 -118 -113 -37 -03 -13 -60 -50 -34 -13 079 004 014 111 -33 064 -108 -46 034 -88 101 030 032 061 -65 -63 -113 014 051 116 -99 039 -69 103 -18 -66 -95 -100 -25 -113 125 -41 -26 105 -111 010 -53 -116 
-28 095 079 046 -66 -04 -64 037 028 -86 021 -116 -24 108 -10 021 112 -67 -91 026 -59 033 042 -13 -99 041 030 112 010 061 095 088 105 096 067 051 095 001 -88 050 -100 -83 -66 039 -13 -12 -73 051 -41 066 -106 005 -56 -57 -107 -87 063 002 -93 -88 -107 -22 -60 104 
-119 096 018 -42 095 092 026 118 011 045 -31 -42 063 -76 -34 -102 -14 015 080 052 013 -86 099 -28 -74 106 -89 103 015 124 -101 -106 000 -74 -64 -124 059 080 105 119 071 039 006 096 121 040 048 115 -27 078 058 048 001 -37 072 092 112 -88 -39 090 087 043 -120 007 
-122 -21 111 -99 -117 -69 084 072 -116 -100 011 070 125 058 124 096 -79 -32 -106 -69 081 075 065 092 -120 112 -24 -113 -87 074 072 018 -73 -59 -37 039 -18 053 093 034 -57 000 081 072 -120 017 042 -103 -38 111 011 079 -15 012 -27 013 093 -60 028 -51 077 -61 -75 019 
-87 -51 -112 -13 -110 120 024 -10 093 079 038 -100 -15 000 034 -102 -31 006 -41 -115 -120 076 056 -60 -24 -35 039 -54 054 098 -06 016 -17 -33 -112 023 -30 -88 -39 -79 027 030 118 -21 039 -15 030 064 105 -115 019 093 090 -82 108 -11 -32 -70 075 -39 063 084 -53 076 
060 -72 050 -36 -83 054 -122 022 030 -127 -68 122 078 -13 104 -98 071 099 059 -59 077 -99 096 -18 -107 040 -110 017 081 100 026 -51 110 -61 066 074 -119 -74 -15 031 -58 080 017 105 -10 064 021 -32 105 -32 -82 089 009 032 001 -117 -20 -91 -68 121 094 -06 107 115 
019 060 -80 006 034 005 115 -48 099 -122 014 -88 015 087 -95 097 -58 073 -55 110 014 062 014 -10 052 -81 -03 -125 -82 018 -29 -77 009 065 -09 -103 084 095 -27 073 -123 020 -86 -85 087 -118 -60 088 032 031 098 018 -98 122 031 086 -32 121 -99 -43 -49 -127 053 -89 
-82 -60 -15 -17 067 083 028 069 -19 057 085 -85 -56 -41 053 -11 097 058 068 -10 013 -50 125 -69 016 062 022 048 087 123 009 103 116 121 -108 -13 -110 -56 -99 -45 029 003 -124 087 053 -55 005 -30 -52 062 062 -92 020 123 106 -66 104 051 -16 018 101 095 -12 108 
118 -61 -44 -16 041 -48 110 047 -84 103 -100 084 -62 -31 125 -84 076 -46 010 -34 -19 -84 -46 126 037 040 039 000 107 -43 116 -05 028 021 022 091 039 -52 -86 026 -65 -49 -31 -10 -52 -09 061 114 -06 064 059 -48 108 103 073 077 -102 -10 087 -20 -32 -114 -127 -62 
121 -01 -86 029 065 -84 -71 -48 014 078 071 -53 056 -42 -23 -95 030 031 -87 104 029 -51 096 -59 061 060 023 067 020 -105 064 099 085 005 -85 -112 -44 032 -18 002 081 104 089 015 -10 -117 040 -111 -37 094 -16 -103 045 110 -75 003 -69 -84 -126 -83 -47 070 111 004 
-102 -96 117 -10 -105 -28 104 -55 002 079 -89 020 -56 -77 -31 113 -125 026 -46 071 -19 -23 116 074 -46 -71 -60 079 -52 -83 -36 -66 121 -95 077 -68 070 024 023 039 116 011 -69 013 070 -33 -89 005 029 -72 -108 100 044 103 110 098 -43 045 005 -72 -75 -07 050 067 
-35 070 -03 053 -26 -106 -27 -127 070 025 009 -106 -76 -113 044 040 -79 -54 070 065 092 -15 -44 -59 -77 013 090 096 -119 -07 104 045 065 109 -82 008 -42 -118 -30 039 -51 093 -97 -80 -60 -104 034 090 022 089 -77 -72 -110 035 -105 -59 091 -107 025 -97 -91 080 090 -87 
092 -77 059 011 -34 -92 -47 -85 -126 060 088 -84 121 -44 -39 113 -25 -109 048 -110 -78 005 -50 093 -07 -03 067 015 -18 075 -06 107 049 -113 -34 -42 -104 -04 084 029 -54 097 087 -121 -116 086 -113 056 014 -116 073 -50 -79 -09 069 -44 -72 113 104 097 061 -105 110 -43 
097 013 083 -31 -25 056 103 -90 020 -83 -65 117 107 055 050 -73 -62 110 -121 -85 -101 101 -13 -71 -127 -21 071 033 053 121 063 -51 118 046 -39 -58 -50 061 -36 119 -14 -92 -119 047 070 -02 078 050 -92 005 -23 -25 -67 -59 -24 -77 065 094 097 106 082 -03 -113 -23 
-106 071 -01 -89 041 096 -69 -128 105 -03 -67 069 112 -104 080 -45 -02 -96 -55 054 105 067 -50 104 -59 -98 112 -87 -82 009 016 034 -95 -42 -49 -62 093 099 014 012 107 -73 -114 110 100 -40 087 102 -42 033 -115 090 096 -89 -41 -38 115 -74 -119 -44 021 -10 014 120 
-115 -12 103 118 -28 099 085 022 -106 -17 107 003 063 -90 -88 062 126 112 -36 038 -90 -81 027 030 -55 065 -119 106 102 -117 055 001 116 119 -48 044 -118 -36 038 007 020 061 -49 072 094 091 -89 062 -29 -08 -111 -103 -65 -58 081 -96 024 117 -09 -25 -55 053 077 -67 
113 -105 -124 113 -102 098 000 -101 -32 096 -20 026 -19 -75 -107 -111 -25 036 -72 053 -58 -70 -111 005 027 096 054 104 -108 -78 047 101 053 030 055 -126 -47 001 -42 109 -28 -105 070 -02 017 009 -106 -85 123 -128 060 -52 119 057 -10 -101 088 -118 054 -50 -02 -101 120 -24 
-34 093 -98 -114 -91 011 088 103 -118 -07 084 119 -14 -29 -127 -104 -123 040 -108 -40 054 -95 -86 -44 108 -86 102 116 -07 047 -67 -53 071 106 054 115 022 063 102 -114 076 -84 -55 -87 000 036 038 -05 -92 -72 082 -104 -124 071 -106 -03 -36 -103 -56 -22 -32 035 046 065 
036 -18 -40 -49 -06 117 094 075 -11 070 -12 -78 006 091 036 -79 -37 -127 030 024 -16 -48 019 033 -65 -35 000 047 -30 061 -58 010 109 081 039 -57 -76 060 -22 -77 -12 099 -27 072 -07 039 -55 079 -46 -113 -10 093 029 -118 -123 -39 048 025 -41 103 -34 -79 -87 -27 
072 003 -01 -81 023 007 -72 -57 -124 112 -90 -56 -108 116 -35 065 -72 105 -115 -10 105 112 126 -73 -128 -95 120 -105 117 -77 -38 082 -113 -60 -120 -101 042 -01 -109 -118 -30 -63 -09 060 034 -120 077 118 098 107 093 -22 -08 -102 -91 -21 -108 -94 -113 060 059 -31 -27 -01 
081 -107 063 -55 -52 -96 021 098 080 -04 066 -12 -07 114 -119 098 088 108 -94 098 -14 079 -86 050 079 -41 -103 -36 -122 -46 115 -66 -69 -49 111 003 099 019 -32 096 -40 -47 105 116 -123 113 025 038 -06 -82 112 069 122 032 -60 -113 114 104 -85 -117 -11 087 -56 -98 
-100 -89 -09 042 -124 -74 100 -119 037 -02 -36 115 -20 -12 039 112 -62 070 089 -126 -04 -104 023 -10 -60 -122 085 055 -93 -03 -47 -42 116 -71 050 -46 121 -09 -47 -124 -53 039 124 097 110 -24 126 -11 038 079 -81 -103 -120 -02 110 -110 125 -125 069 -61 041 013 095 -42 
-65 036 -43 -69 061 -84 122 -19 -50 072 -103 018 112 038 109 098 -125 059 -68 054 -88 -51 027 053 -48 -68 095 059 -113 030 104 -71 -90 -82 045 -93 -09 -110 -45 -34 003 -74 -64 002 -109 047 029 102 073 022 -38 -80 066 051 -26 -29 080 -102 -52 059 124 032 -75 -57 
059 079 065 -115 -118 113 066 -128 -68 041 -75 -87 -38 059 -08 058 -121 027 -128 115 -44 -63 -21 096 -38 -85 -70 -100 105 -01 -36 -47 -127 041 -11 -77 -127 082 058 113 125 -88 025 056 -02 004 -128 017 -124 059 108 008 054 011 093 -43 -01 126 -65 122 089 -56 091 -97 
-103 045 105 -73 014 021 087 034 060 082 026 121 -127 -59 -49 -121 -95 078 -10 -44 -59 -44 -10 -05 045 093 095 050 126 -43 056 -18 125 026 071 -127 035 -111 -37 -35 -74 -93 072 -104 -122 -58 043 029 -16 -08 -35 047 -02 -34 -92 -93 -15 082 113 -118 -23 124 -104 124 
059 090 045 121 -94 121 -72 -07 024 024 035 -72 086 072 -44 074 -45 122 -77 051 -26 -71 -74 087 -14 -29 -78 -127 -27 -02 -112 -123 010 -112 -86 -48 -83 -101 -10 -71 -109 080 116 -77 047 007 051 057 -49 007 036 118 116 -64 098 -73 069 -41 -60 -70 083 -127 044 -24 
075 117 011 -05 006 -115 -124 -93 000 020 058 123 -04 105 056 110 -126 036 064 -33 -80 061 -85 -72 -92 -16 -85 -28 125 092 -121 048 008 -78 058 068 085 041 014 -101 030 046 -01 063 -128 -79 120 058 -06 028 058 -46 -48 056 -28 118 108 117 -44 -16 072 010 -49 077 
-110 078 016 114 004 -91 -128 079 007 -17 -41 -05 069 -19 021 090 -72 -07 -09 033 -90 004 096 105 001 -97 054 -45 -68 006 037 044 071 -77 -65 085 -73 028 -52 -77 -26 -124 104 -128 072 014 086 -99 -23 062 059 075 -51 -97 -116 056 -60 -82 -17 -110 -55 -119 -38 -34 
000 -117 -61 -113 022 052 028 118 -40 -101 -41 119 -10 -86 081 -66 -18 -64 -01 -68 -80 001 -15 002 084 087 -78 -55 -111 -125 -21 -127 -19 -26 014 -58 -61 117 109 053 042 044 122 066 -112 119 -89 -89 -114 061 017 087 048 -55 -91 068 124 -49 000 -85 120 -104 -119 050 
-58 062 050 -88 016 -77 -93 002 -46 -74 072 014 -100 060 081 -88 -62 117 -92 103 -07 -26 104 052 109 -123 083 -36 -49 -08 -104 112 018 -06 045 000 124 122 -75 062 044 104 093 -15 -36 064 030 104 066 067 -14 085 -120 -09 121 -90 024 -60 097 -109 079 -61 098 -89 
056 -85 -57 -26 029 -10 096 -27 017 -110 109 -96 069 -107 084 -65 091 052 076 -88 074 -14 018 -12 099 012 -32 -19 021 058 040 034 101 108 096 -31 008 -88 -85 034 -46 -33 095 -23 023 070 -125 -93 -21 057 001 -113 045 102 -69 -45 030 098 089 037 059 -71 -27 -25 
-123 -78 -65 012 029 043 -45 125 123 074 -37 107 -116 -22 -95 044 -39 078 044 -59 -98 017 060 073 -05 -29 103 028 -120 039 -49 126 -11 109 -96 -89 109 103 016 -46 048 040 -70 -38 -54 -29 -63 094 -105 -110 -118 -125 117 -70 -113 007 117 097 070 -105 -34 086 -121 053 
-29 -48 -111 -111 072 -81 115 072 -128 -41 -74 115 -69 -04 090 030 -78 019 064 028 -96 069 -15 -12 -102 023 025 064 019 -72 068 104 -73 -06 -121 094 048 016 119 -68 103 059 -06 -109 054 -88 006 -32 020 -08 001 038 -89 078 052 061 -128 -58 -30 025 079 -101 -23 037 
-23 057 -59 -61 -10 -82 -105 039 -04 -84 -71 096 056 -101 125 077 -115 000 115 124 119 -76 009 -95 087 006 -52 -79 -04 -98 -28 004 019 052 033 -46 103 047 -111 -16 -27 012 045 -27 -74 -60 -45 121 -128 031 083 069 043 048 038 014 089 -109 -119 040 015 124 -113 077 
078 125 012 091 006 125 065 -41 -74 100 -16 -89 -77 104 025 -15 -51 079 -79 020 -02 034 -02 115 115 063 017 006 -97 -39 -78 -81 -121 023 -91 -114 -90 098 095 034 -89 025 096 -30 -115 006 099 108 066 014 060 -19 -08 -80 085 -46 076 -43 -57 035 018 -02 033 104 
-104 -116 -96 -88 007 094 091 084 004 -27 -74 -87 -64 046 101 039 093 -06 -62 -65 121 -78 -12 -79 031 013 -57 -49 064 -102 -52 105 -04 -64 096 003 -45 -116 -98 020 038 010 -62 -28 -87 106 028 -22 -58 -18 117 -65 -39 -22 -42 -114 -92 -95 -22 -79 040 040 -72 001 
-102 -73 -54 020 -73 -93 -121 030 115 096 123 020 026 -96 -59 -120 091 -74 117 102 016 056 -95 065 011 068 036 066 073 -72 108 -79 -83 -103 120 038 018 -62 076 -112 024 028 -77 062 060 044 -105 074 052 025 124 072 020 -55 -62 029 -26 105 -87 082 044 -62 091 -103 
025 026 052 012 083 099 -06 038 031 034 060 078 -54 -16 033 -11 054 -34 -41 014 -36 010 -49 027 -18 037 099 -82 -34 -122 086 -17 -121 111 045 018 093 014 -85 066 -86 106 -82 -16 110 -78 -14 056 -41 -108 -74 090 100 016 -76 035 069 015 -01 -22 084 045 013 125 
067 -67 009 090 039 -124 068 -119 -98 024 124 -51 -49 -54 069 -28 -60 -08 -64 035 037 -33 044 -51 085 115 -101 002 031 -52 101 -56 078 -113 015 -51 030 -59 022 098 047 109 -18 -83 -85 -89 -112 114 112 -112 -29 124 114 126 035 -82 -91 -89 079 -104 025 012 -55 093 
-124 028 083 -97 035 -110 064 -69 -115 -62 047 -78 026 -71 -38 056 -67 124 124 072 -53 053 -122 076 035 -25 -105 019 -123 109 -106 -22 017 -51 067 004 -64 -108 080 102 082 087 092 089 024 -66 -78 -103 -108 -21 063 119 019 055 005 -128 058 105 -03 -86 -10 105 060 -12 
082 020 027 082 071 004 -91 -13 -35 -01 117 004 -110 -67 -60 046 027 -123 112 068 103 122 066 019 -120 031 -95 -01 -32 041 025 -23 -124 076 -62 092 -109 012 048 -25 065 108 037 -04 011 097 124 -111 031 -76 086 -27 -39 053 024 123 098 063 -03 043 072 -128 072 -64 
108 099 101 070 122 070 124 -11 105 -40 084 -110 119 001 -118 -57 056 030 097 061 -59 113 047 054 088 123 113 -51 -09 015 -57 085 -95 074 034 035 008 119 -126 002 113 -47 -81 -85 022 -40 053 044 099 -06 -58 063 031 031 046 -39 007 067 -98 -87 -32 -27 125 -83 
-36 -75 -19 085 102 089 101 002 062 -04 003 -102 092 -122 -77 124 -23 -117 030 000 074 054 110 -24 120 -50 -75 028 -13 090 -62 008 -18 036 -71 -47 000 044 -66 091 -20 106 -72 -106 -106 020 012 -44 -03 054 -88 113 019 -74 068 110 -81 -89 -55 047 065 -24 082 012 
056 039 -30 -119 -58 007 034 001 051 -117 -18 094 090 033 090 -50 074 124 -83 121 069 059 024 -99 -16 -103 -112 034 024 -89 030 -16 077 116 -23 -56 067 -114 -18 018 014 037 -107 -58 105 -02 019 -105 009 014 107 062 105 -23 -16 074 121 106 -66 018 045 011 -07 -39 
044 101 -34 -56 103 109 -04 048 032 -33 085 064 -60 -109 -119 124 085 028 -111 -62 -93 -73 116 -18 093 -93 006 -87 083 089 -54 108 017 -13 -47 026 110 114 022 -27 -114 -122 -114 007 058 057 -85 -23 -65 -65 062 076 064 027 -68 -82 030 110 066 124 -95 039 025 012 
083 -99 084 053 097 -120 091 027 -03 -93 014 -15 -11 -93 118 034 -21 -110 107 -38 111 -75 -112 -89 -124 -49 043 -74 046 067 -41 076 -26 063 -12 -79 -75 -05 -61 -31 -56 -104 031 -100 051 122 108 -10 -85 003 015 -04 -85 125 101 -90 -104 122 -93 -64 013 -74 107 -01 
035 -02 -45 -101 -34 117 -66 -53 016 124 020 126 -34 -79 120 071 051 -74 -88 045 082 114 -122 021 -46 -97 -111 -113 126 068 063 -117 088 027 022 011 -07 076 -67 064 -54 106 -79 -30 009 -114 -26 025 008 053 116 -39 117 044 098 116 073 -84 -40 -116 000 -120 -96 030 
121 -32 028 -45 -104 -28 069 083 053 104 064 080 031 -35 -109 116 -127 069 010 014 -69 -08 116 -84 -59 -78 -75 -49 073 042 077 109 -102 012 103 068 -112 -22 109 -25 020 020 -51 -62 038 -49 -24 108 052 -26 039 048 -97 101 -127 118 -79 -85 -05 116 -64 064 058 -70 
064 -55 057 -116 065 -69 005 055 103 -103 039 -85 -30 -08 -120 069 -77 081 082 -57 051 -79 -66 -25 124 -48 118 -120 075 004 -60 110 -116 011 -58 -104 107 -36 -87 -32 012 089 085 043 050 -113 055 -34 000 -125 050 024 000 110 106 082 121 030 -98 015 -63 -85 -30 105 
-52 003 -41 -124 -91 116 -36 090 -32 -81 -66 -114 -104 -64 -53 024 -96 -19 042 -41 -50 110 063 -25 -58 -24 067 084 -39 029 044 068 079 069 066 -07 058 068 -30 048 075 -24 -52 -15 -48 028 -65 054 -38 051 060 100 064 -44 -85 -34 058 -88 -120 024 -35 -119 -77 -88 
-10 -51 082 106 -55 092 093 117 006 -52 -11 012 -61 063 -114 008 071 -107 039 -05 -123 060 080 118 -126 -114 024 029 118 -75 -40 -62 055 025 086 -02 096 035 -121 -94 031 -106 -13 -23 016 057 -79 -54 052 032 115 -44 -86 -121 -72 007 -123 103 105 045 060 044 -92 -68 
050 -30 013 078 083 -106 -73 -95 056 -105 -48 077 -88 -57 -37 -02 084 112 -107 098 100 -61 034 046 062 -29 003 -74 121 -76 -09 -17 057 029 -48 -22 -37 061 -90 -78 -09 -126 -75 -40 062 -25 -107 023 066 057 000 043 -84 061 036 062 -123 104 006 -02 085 -34 089 -123 
-37 -52 -52 -75 027 010 025 -33 -68 -34 -105 046 063 060 097 114 -55 020 009 -88 -88 -56 006 092 -16 -87 -30 104 067 005 -106 029 102 -24 -78 017 -12 -26 029 -15 -50 057 065 034 102 013 -19 -108 041 -32 126 -86 002 -105 111 -70 020 037 -17 081 -67 -12 125 002 
-16 -34 -99 036 049 037 104 103 062 012 005 -67 -79 -87 052 112 -13 086 061 012 -103 -01 -12 -55 -56 -14 -101 -125 122 -119 -118 013 -15 -33 -30 014 -114 -125 074 -128 056 -117 067 054 012 118 115 063 123 -23 -89 -36 -36 -99 -35 -40 025 -28 -121 -04 063 004 055 037 
-41 080 -45 065 -32 -48 -06 -27 -89 -29 -61 -51 118 -23 062 025 010 060 121 007 109 -108 073 071 -42 097 -113 -109 -95 001 066 084 019 -58 056 -43 099 -115 103 047 -110 099 108 -114 020 -113 023 -92 -53 089 090 124 050 -107 -07 -58 -122 -106 -110 -127 -85 -13 058 -60 
-70 063 005 -54 -23 -47 -50 -61 -120 116 122 -04 -05 015 -01 -23 -121 021 061 -49 -93 100 001 038 018 043 -111 -44 086 -100 003 115 051 -95 -72 -14 119 086 032 078 013 062 080 -18 -96 -128 011 094 030 053 -55 -35 -03 083 032 094 055 122 072 056 051 -42 096 076 
-78 -38 -110 -40 -39 -100 -01 -51 -60 120 -11 -116 -55 -80 071 068 -11 074 089 015 -99 122 -73 097 082 091 -09 -47 106 093 073 -84 030 010 -93 086 -39 -71 -125 -05 -103 073 -65 -14 101 074 122 -43 033 -38 080 -33 072 -108 045 013 -81 -80 116 -45 -120 112 -01 076 
-66 -19 -85 -23 124 047 -60 -12 -93 049 -79 006 028 021 067 072 -55 -116 096 098 000 -114 002 062 -35 011 -111 -92 107 -44 -40 -94 -21 106 023 023 -03 028 118 101 -07 006 017 -122 010 -76 023 029 117 038 -29 -21 081 076 055 116 063 -99 -79 038 -09 -90 041 060 
117 048 -95 030 -79 -123 -41 -08 049 004 034 106 100 007 -08 -67 -23 082 039 050 007 080 -116 031 044 083 073 -02 -49 037 -48 -48 -94 -80 -119 105 -73 -31 042 -37 033 -23 041 -56 -04 111 117 -25 -84 -35 057 -58 -128 -74 -41 058 -86 065 -19 -06 027 061 123 -04 
114 108 -13 -123 -77 -27 103 078 012 -72 025 -109 -50 047 -66 -35 -116 -15 -52 -98 -91 012 075 -114 -10 -06 051 106 064 -34 046 066 -26 -54 072 062 -48 110 -07 124 -70 -02 -87 048 009 086 -75 -109 -117 066 007 119 086 109 090 -41 108 -115 051 036 046 -55 115 -23 
-08 -100 025 -66 -32 042 009 091 -13 007 096 081 -25 -10 -66 114 071 000 126 -32 -114 -37 088 011 003 -86 -07 -05 120 109 -126 -12 -71 -78 -69 -60 105 100 -07 087 -95 121 -06 047 069 033 -88 052 -35 077 061 -30 -06 057 051 029 069 125 -43 017 063 -44 047 097 
102 -22 -82 125 005 -118 054 -08 -75 112 048 107 022 038 089 -102 010 121 032 -87 079 -99 -114 -24 041 035 -40 -03 005 047 -16 -126 -23 -126 -43 -94 -81 -34 096 -52 -54 078 -44 -99 076 048 -99 -15 -13 -24 086 039 110 -98 -81 -78 113 113 102 -76 069 012 052 099 
-09 -59 -21 -14 013 -107 098 099 -108 -18 -76 -101 -116 -39 002 030 112 -48 072 -82 -06 -16 -113 -123 -37 -02 120 -89 010 009 -60 -47 -39 097 -25 -22 052 041 114 126 -62 -113 -75 -93 -37 -74 080 099 -63 094 -93 087 038 -04 063 -32 -01 007 091 043 039 -47 -48 074 
-09 -86 049 082 104 090 -95 110 -60 -108 -17 033 044 -41 -91 117 -86 -01 020 119 086 016 -42 029 -45 037 062 014 107 -58 011 -57 -80 060 048 073 114 087 003 -49 -02 046 038 023 029 -88 -49 -124 046 -114 057 120 -63 -70 -53 -76 040 -93 -100 -20 -63 -26 104 -104 
107 010 -94 104 -120 -106 039 103 077 102 092 -110 020 -117 062 079 087 054 096 -127 048 -69 -28 -22 -62 007 053 067 -67 -87 026 026 -74 054 -75 -108 032 052 049 -96 -48 004 007 062 -01 107 -60 068 -104 123 024 -119 003 022 100 006 -05 -29 -05 -69 -64 049 -41 -125 
078 -41 -122 -65 018 -18 094 -30 072 -18 057 -93 -92 020 -53 -09 -105 117 018 087 006 004 -85 -51 034 080 096 068 020 119 -56 -58 082 -119 -45 105 -98 -47 094 -07 -123 -54 044 013 -50 -07 -47 -53 065 073 121 034 -15 -105 067 042 -54 076 -63 045 004 -112 091 117 
-56 089 001 -41 002 -12 -16 008 000 038 020 -106 081 121 042 -114 -76 -08 -127 082 -76 113 018 -86 120 113 -13 113 -117 094 020 -76 -76 -102 061 -49 090 107 122 -30 -126 -28 001 062 -98 -77 -18 -104 095 018 070 075 030 093 -24 028 -101 -75 116 -81 038 043 082 -12 
032 033 -21 024 113 020 -117 -90 -83 -119 048 -13 -49 -52 -31 048 -40 -13 -51 061 027 -17 104 125 072 008 -94 015 -77 -107 -27 046 082 043 -118 -38 -67 -50 025 -89 -09 -128 -94 -118 -02 -82 -65 -77 085 -61 093 034 -123 063 045 -121 036 -59 -37 006 067 100 126 -104 
079 -41 018 -80 124 -37 -117 -37 -67 056 121 -59 032 -27 107 051 -124 028 019 -48 -54 091 -49 -113 029 -06 -98 -07 116 087 -21 -46 -43 019 109 -49 -80 -49 -33 065 097 124 -78 085 -115 -51 016 058 079 069 087 075 066 -79 -99 -111 019 089 056 067 028 -09 -06 063 
096 -26 -49 006 103 094 072 -103 -34 -91 -112 -36 -101 -35 -125 017 -40 103 -47 109 -47 -53 066 -33 037 038 106 044 -21 -45 -07 -52 -01 036 054 -18 063 087 041 022 -75 -61 -98 -112 115 032 044 -86 -128 112 -120 -70 108 066 077 124 001 -56 069 -95 -62 095 006 -55 
084 066 010 -98 -66 082 017 026 100 -101 126 -121 082 -81 007 -100 -09 029 025 -62 014 -60 084 -89 036 126 049 -98 -116 002 107 -72 042 010 -35 -39 088 -108 -03 -110 -123 -48 -49 057 -75 082 -44 105 090 055 -121 085 045 120 004 086 -95 -27 -99 -88 -23 -43 073 054 
056 -126 008 -51 -09 -14 -86 039 -42 058 -36 -37 -39 -48 053 101 -29 -103 064 096 111 -40 084 -27 025 004 -108 119 053 087 -99 -39 099 -10 -128 -24 031 -100 094 059 065 068 093 032 059 057 -91 -19 107 057 100 036 020 067 074 103 -41 093 -106 093 -56 -56 086 -11 
-127 -37 051 046 -87 -48 047 -19 028 -28 -91 -12 052 -104 -88 002 -17 -128 022 018 076 053 122 089 112 -78 045 -107 080 019 002 064 -25 -30 -64 045 055 091 066 -109 -54 010 089 119 -123 060 -50 079 056 -70 -06 015 083 027 -44 -42 -31 -86 006 -34 -66 005 076 -122 
-74 -93 -114 047 080 -83 106 115 025 -117 003 089 065 111 -02 -02 026 -121 032 114 -94 -67 -52 120 -20 049 079 087 042 -112 -91 066 -18 -43 -97 116 -95 -76 089 052 091 027 022 039 089 -71 122 063 -86 -60 -54 056 072 -119 -66 023 -58 014 045 -90 -117 -126 -98 -34 
002 120 -118 070 -110 011 029 095 -92 053 -86 -30 082 115 113 -42 -01 065 -48 048 004 088 -31 -31 -106 -75 002 050 055 -114 031 036 -43 108 067 052 075 -104 -41 109 -106 024 043 048 010 -05 -90 -66 -118 -79 104 -115 -20 -50 -77 035 -111 -77 -23 070 051 -55 024 -43 
-93 014 077 -09 -127 -26 092 -08 -30 004 -05 -22 025 -13 047 010 -64 053 074 -11 -13 -37 -117 089 -38 124 109 -18 109 027 110 -32 125 095 -121 -53 -14 119 -94 087 118 034 -71 -99 108 -26 -56 -08 -91 -90 -27 -82 -106 082 -115 112 -117 087 061 097 064 -11 018 -113 
071 090 020 058 011 054 071 110 083 -85 115 018 095 124 121 -14 -01 -77 094 035 087 -15 012 007 103 043 066 103 -104 072 -79 030 -86 017 -112 -84 -65 114 093 025 -42 -93 -46 -45 022 003 007 -116 017 -98 -98 -81 -66 098 -65 025 014 015 -106 -23 033 -28 051 000 
-66 -105 -51 101 -79 061 -11 -88 -26 -62 109 -127 -121 -24 086 001 019 125 -16 -94 055 013 -92 -90 -124 -18 053 031 -58 118 -13 -67 -42 -20 065 124 -96 -126 -37 007 038 -80 079 041 -27 002 017 120 078 -118 -33 -122 103 -13 045 104 -125 -34 027 -55 -57 -117 032 -89 
064 035 113 023 019 -51 072 091 068 059 047 -26 004 -110 117 -56 072 081 116 122 037 -93 -59 080 108 -55 098 -76 -53 057 -70 064 -65 096 015 -107 006 -123 -33 058 051 -93 015 -57 056 -63 -99 113 025 026 -67 121 -16 -10 -65 011 -39 -125 -46 -101 013 -59 061 -78 
046 110 -94 -48 -73 -13 -126 -47 -105 -79 089 046 -126 029 084 056 -20 099 -55 -21 004 047 -83 -126 -45 076 -128 -62 102 -57 042 065 -27 -83 117 -13 069 -107 051 070 -68 -92 101 076 070 -110 119 054 -125 042 112 -88 -109 -19 -65 113 -102 110 062 009 -102 -31 -90 -53 
-37 -108 022 -93 066 123 -31 -89 059 019 017 125 124 002 -17 064 -113 053 059 077 051 040 -27 091 -20 -101 -31 -72 080 007 025 -103 045 -116 -04 108 -104 -80 049 028 077 037 -09 -21 -38 -91 -109 -50 -117 048 -75 082 -89 -24 -111 044 -128 -98 027 -36 -05 -60 -05 075 
013 -44 072 090 117 -01 110 -81 -125 -70 072 022 013 022 093 -25 -125 020 010 -84 002 101 -93 -74 -113 -75 -115 035 004 -12 -123 -104 026 015 050 004 -25 069 020 093 011 037 -55 067 -28 019 032 -67 016 -53 051 -15 -124 -28 010 -21 -68 -08 -53 -52 -45 092 124 -59 
009 039 -08 124 -66 041 -29 -53 -19 069 020 021 -84 -99 069 036 068 015 -86 -25 -89 -73 122 -80 -03 099 -105 018 036 -74 071 005 073 064 -14 -122 -22 -105 089 000 -21 -125 -39 -82 -81 -99 123 077 -78 034 101 084 -59 -90 071 115 073 -81 -127 -67 -32 -09 031 -04 
-86 100 019 -104 -120 085 -62 081 090 015 098 045 031 064 -25 102 -14 030 -59 074 -124 -07 -42 -29 -03 079 101 -89 -40 009 -19 044 031 065 112 072 -13 090 047 -11 -31 -12 -70 -24 -08 096 098 069 -111 -50 -26 -122 -117 -36 083 078 -47 -65 -26 079 -123 116 -39 -95 
114 069 107 -05 -41 -108 -14 -79 024 -104 -108 -123 -63 106 -105 -109 -58 -39 -34 037 -17 056 061 067 -64 -51 022 016 051 -41 123 -78 109 036 -125 -09 -54 -27 -112 -100 -23 044 004 -128 -93 -103 014 -12 -126 107 106 -92 -127 -58 -121 063 -51 -124 -88 094 -76 066 094 064 
040 110 089 -73 061 088 109 -113 121 -103 104 020 031 108 -105 -96 092 -74 -04 -43 052 107 -70 -69 088 -124 -74 -85 -75 -120 -93 096 -77 087 -43 -68 083 013 -67 113 122 -32 -76 -80 -100 109 066 102 078 -114 119 092 -105 042 -104 012 -122 014 098 090 -103 062 -68 088 
-27 -112 025 000 -71 101 121 102 016 -109 034 -126 047 -79 -48 098 -37 069 -48 076 -44 -90 -41 -115 -17 113 115 075 -09 -14 -31 035 050 024 014 -112 015 098 051 -123 093 058 -17 -84 -52 -82 -127 042 019 000 -117 002 092 000 -83 021 112 074 -104 096 -31 -04 046 -114 
-17 100 -75 -90 076 -94 -48 -95 -45 030 -86 -19 -120 102 087 -05 -90 086 -14 -74 050 125 -44 023 -52 -120 073 -110 -09 107 -07 124 -53 117 053 023 061 107 075 019 079 -104 -111 065 068 -38 -27 081 -02 -36 -37 -45 -46 -02 -105 -99 025 067 -41 108 -79 -95 021 125 
