111 -102 049 -89 -40 011 -85 085 -25 037 -21 006 106 051 086 036 -62 -09 097 -96 073 078 056 015 004 013 -14 -14 -62 089 -125 -92 046 -97 053 056 123 092 075 -27 045 -46 -104 103 017 -125 121 006 026 -16 111 024 -06 070 092 -119 -39 081 066 -72 069 -77 034 -35 
057 -88 125 086 118 -26 115 034 -27 074 -95 -65 -48 008 -97 -71 099 -39 -06 125 -81 -13 100 -64 100 -63 -127 120 -22 -46 013 -67 -49 042 -92 -14 035 125 -56 -93 -12 103 -24 097 -62 -55 079 -09 034 -37 -121 -87 022 050 -40 038 109 -53 -47 -110 -40 038 029 009 
068 -28 006 107 009 -64 -55 112 031 000 063 037 -65 -97 059 -66 -70 -53 -20 -50 109 049 -49 118 062 -11 068 -121 107 -33 127 068 -53 -40 044 -23 110 119 -35 -86 086 001 -88 057 068 085 062 065 110 047 107 -127 024 -13 -122 -121 083 -66 -65 073 -09 008 -11 -17 
-83 -118 031 074 056 -64 -35 -107 049 -90 -64 -67 037 090 069 -52 -23 000 056 -17 053 -37 091 -12 -71 -11 092 -02 -77 003 098 -04 -114 101 064 -09 -49 -03 033 -16 078 125 078 073 044 087 050 092 -53 018 046 042 -120 -115 -05 -97 -111 050 -115 -31 072 -36 063 021 
109 079 -16 114 -18 054 014 -126 053 123 031 022 065 101 -75 -90 -78 059 116 020 -107 -102 -125 -03 -115 -93 046 -105 067 -114 -114 -15 -118 -15 -82 104 051 -118 090 085 117 -102 092 093 010 -119 020 -35 110 -53 -117 -104 -29 -37 -103 -89 -30 -20 -80 -55 005 092 -120 033 
086 083 -34 028 024 053 -11 -97 014 -111 -127 061 -89 -108 -119 -45 088 095 -58 057 -72 -25 -89 -24 -03 077 065 -12 007 -81 048 -23 059 101 -102 125 049 -102 -27 -06 076 072 003 048 -80 122 -127 001 003 -25 -83 047 -121 -91 076 -121 -88 -94 -54 -18 -27 088 043 -20 
093 -47 -90 075 057 -83 -125 -37 -24 066 -87 041 -62 -07 -120 091 099 -75 -117 -128 -83 004 037 -68 -48 067 -100 118 -92 -75 -93 -94 -105 017 -31 -46 072 031 -74 -62 -93 028 082 -84 -113 100 004 -96 -71 061 014 -72 009 063 010 -39 104 125 -18 113 069 -01 -127 089 
107 105 -120 -92 -61 059 -122 118 076 064 006 041 -39 -37 -113 -125 049 090 -119 098 037 -20 114 -04 -17 -116 -48 -102 -22 061 083 103 099 -45 090 082 011 -40 068 063 091 008 -10 062 -122 023 -89 -58 -83 063 127 -27 -32 -17 039 -57 -65 073 -105 054 013 -107 -26 -59 
